101 50
</s> 0.008005 0.008839 -0.007661 -0.006556 0.002733 0.006042 0.001882 0.000423 -0.007207 0.004437 -0.008713 0.002499 -0.001503 -0.001914 -0.006631 -0.003764 0.005159 0.006051 0.005938 0.003195 0.003090 -0.007605 -0.008192 0.009939 0.007603 0.006180 -0.001208 0.008031 -0.000990 0.001469 -0.000298 -0.005966 0.002625 -0.002675 -0.007651 0.009508 0.008759 -0.002190 -0.000452 0.001018 -0.007275 -0.008014 0.009109 0.000126 -0.005165 -0.006084 -0.006153 0.003394 0.000403 0.002662 
82 -0.114429 -0.172059 0.062702 -0.139138 0.098188 -0.205616 0.143887 -0.029365 0.146982 0.200035 0.136112 0.291072 0.099324 -0.039392 -0.117288 0.271327 0.375296 -0.040506 0.333360 0.177871 0.059353 0.112758 0.046976 -0.440973 -0.062001 -0.105917 -0.009305 0.052418 -0.042916 -0.008382 -0.092906 -0.087589 -0.045899 0.197530 -0.065413 0.290334 0.153344 0.069227 0.366084 -0.225519 0.025207 0.082652 0.015580 0.137505 0.103961 0.118166 -0.141605 0.010995 0.174213 -0.051847 
52 -0.064818 -0.193782 0.099781 -0.146635 0.084825 -0.237693 0.108466 -0.011593 0.161905 0.158701 0.170054 0.257007 0.100324 -0.048560 -0.112997 0.303670 0.398276 -0.034283 0.367123 0.149041 0.034759 0.098933 0.084311 -0.417514 -0.013309 -0.054692 -0.002583 0.059733 -0.076542 0.014468 -0.106071 -0.072849 -0.096003 0.167937 -0.084445 0.283253 0.114223 0.028337 0.329616 -0.265496 0.018372 0.113351 -0.002618 0.146442 0.099819 0.117727 -0.111803 0.016873 0.125549 -0.028980 
80 -0.115024 -0.163340 0.062576 -0.138703 0.101607 -0.197210 0.126809 -0.042899 0.131943 0.199652 0.117025 0.292135 0.106723 -0.049879 -0.112120 0.285967 0.374134 -0.021998 0.336006 0.174860 0.045518 0.099374 0.044613 -0.430503 -0.056552 -0.117342 -0.005172 0.034347 -0.035123 -0.018030 -0.080490 -0.069152 -0.055545 0.173216 -0.051751 0.278016 0.149285 0.075174 0.352807 -0.215892 0.013904 0.097143 0.017431 0.140708 0.105911 0.121125 -0.141573 0.000607 0.173014 -0.052552 
37 -0.066096 -0.207476 0.112017 -0.157433 0.084790 -0.252033 0.115128 0.002342 0.188046 0.167160 0.189291 0.255177 0.116888 -0.065731 -0.110596 0.308667 0.420407 -0.027646 0.380855 0.151540 0.040634 0.105204 0.093547 -0.419312 -0.010599 -0.026940 0.002251 0.052814 -0.084685 0.030689 -0.125571 -0.083098 -0.102154 0.182938 -0.108704 0.291441 0.117302 0.019020 0.340771 -0.273856 0.027044 0.123667 -0.013629 0.158457 0.109183 0.107152 -0.106330 0.036002 0.119739 -0.045016 
3 -0.071463 -0.187099 0.087396 -0.142302 0.085867 -0.227224 0.117026 -0.002957 0.180279 0.152611 0.167139 0.254009 0.108894 -0.050630 -0.102962 0.288214 0.398260 -0.032886 0.363150 0.150253 0.029665 0.104970 0.088760 -0.419682 -0.017187 -0.052334 -0.009793 0.064603 -0.076198 0.006480 -0.101863 -0.067611 -0.082048 0.186012 -0.071442 0.287586 0.118147 0.029499 0.339765 -0.256079 0.037440 0.115459 -0.004563 0.142179 0.100962 0.089866 -0.109697 0.023046 0.126202 -0.036614 
86 -0.080837 -0.179709 0.096652 -0.135761 0.084318 -0.227467 0.113836 -0.003671 0.173660 0.162400 0.162110 0.260461 0.107739 -0.058119 -0.109323 0.294218 0.391443 -0.037349 0.364848 0.138127 0.028259 0.096569 0.085843 -0.403922 -0.015919 -0.037796 0.004729 0.064804 -0.067571 0.008461 -0.113768 -0.073873 -0.089083 0.185543 -0.081635 0.287425 0.102784 0.032054 0.336447 -0.255294 0.041922 0.114818 -0.014677 0.149763 0.104849 0.094082 -0.108229 0.023908 0.121278 -0.044202 
66 -0.067833 -0.188421 0.087595 -0.150331 0.074006 -0.235148 0.114182 0.004975 0.166401 0.156338 0.158820 0.267319 0.118472 -0.048243 -0.099875 0.290050 0.386118 -0.038911 0.355985 0.154931 0.048733 0.105083 0.072773 -0.420893 -0.025380 -0.063175 -0.002748 0.050952 -0.067436 -0.004230 -0.098825 -0.065160 -0.077350 0.163983 -0.070769 0.282422 0.113882 0.041808 0.341234 -0.244879 0.025376 0.102595 -0.004961 0.154389 0.106803 0.115225 -0.111907 0.021290 0.141265 -0.051701 
19 -0.125627 -0.161762 0.046766 -0.136591 0.111150 -0.184436 0.136070 -0.037725 0.127112 0.217651 0.118935 0.309941 0.108316 -0.042505 -0.117483 0.272152 0.353841 -0.023471 0.329019 0.182623 0.050700 0.109839 0.052055 -0.430168 -0.065711 -0.128612 0.005064 0.044409 -0.025763 -0.019765 -0.075652 -0.078830 -0.035789 0.189216 -0.056118 0.262619 0.144214 0.085422 0.347135 -0.191308 0.012442 0.077559 0.030625 0.118391 0.104900 0.105210 -0.133307 -0.005677 0.191126 -0.047899 
88 -0.067345 -0.168728 0.088888 -0.130179 0.074879 -0.237307 0.118769 0.009814 0.175063 0.163381 0.164360 0.264160 0.118316 -0.045103 -0.110722 0.289870 0.410535 -0.032391 0.371111 0.167464 0.046079 0.085829 0.093299 -0.414941 -0.036028 -0.043193 -0.013151 0.048428 -0.056205 0.018769 -0.108235 -0.066629 -0.088438 0.167041 -0.077363 0.290145 0.124364 0.043164 0.338550 -0.243375 0.035058 0.111991 -0.005619 0.147370 0.100053 0.102979 -0.106660 0.022389 0.126557 -0.044957 
12 -0.055412 -0.188385 0.090154 -0.144544 0.087802 -0.225366 0.094830 0.015785 0.167616 0.142139 0.170081 0.253469 0.098712 -0.061135 -0.101247 0.287290 0.403691 -0.030082 0.356792 0.148326 0.042059 0.087143 0.098711 -0.417793 -0.002742 -0.037027 -0.008738 0.060947 -0.079392 0.019581 -0.106940 -0.074877 -0.091850 0.174034 -0.092914 0.277112 0.115975 0.035395 0.337363 -0.266640 0.031611 0.106740 -0.006899 0.154736 0.105017 0.107524 -0.099837 0.023515 0.104811 -0.039471 
57 -0.118740 -0.155969 0.063517 -0.142484 0.105205 -0.206885 0.135635 -0.039837 0.131757 0.210897 0.122171 0.298537 0.100843 -0.039641 -0.119007 0.264433 0.376466 -0.023190 0.332223 0.168254 0.054365 0.097563 0.058354 -0.417103 -0.056186 -0.105481 0.005650 0.052715 -0.048929 -0.006049 -0.078800 -0.068254 -0.044748 0.189944 -0.058050 0.281661 0.133913 0.065038 0.350861 -0.196591 0.027524 0.089284 0.011249 0.119682 0.108156 0.110437 -0.140109 -0.002325 0.158183 -0.063473 
53 -0.083875 -0.179147 0.078544 -0.146330 0.092457 -0.213128 0.118368 -0.030388 0.154390 0.199338 0.133620 0.292251 0.102083 -0.036876 -0.112543 0.282193 0.392656 -0.022544 0.339902 0.178595 0.047879 0.094926 0.067136 -0.437324 -0.043045 -0.087731 -0.004886 0.052127 -0.056630 0.001314 -0.085036 -0.063478 -0.069481 0.182740 -0.051393 0.285456 0.141193 0.068439 0.363665 -0.231957 0.021772 0.107348 0.004719 0.139819 0.098115 0.122495 -0.143045 0.007720 0.178622 -0.043245 
67 -0.060368 -0.179336 0.098840 -0.139242 0.088471 -0.223367 0.124854 0.001749 0.162758 0.159737 0.156113 0.258089 0.108675 -0.059836 -0.108498 0.295538 0.389826 -0.042552 0.347508 0.159049 0.042919 0.100651 0.079524 -0.408935 -0.023474 -0.042250 -0.004552 0.058311 -0.071404 0.017621 -0.110588 -0.079143 -0.076586 0.177003 -0.075489 0.282218 0.116946 0.035770 0.340718 -0.232345 0.035105 0.115795 -0.011877 0.134445 0.096238 0.101316 -0.108388 0.030458 0.122840 -0.036292 
93 -0.067805 -0.178867 0.086433 -0.144178 0.085211 -0.221878 0.112589 -0.011894 0.168816 0.170899 0.171833 0.266597 0.109050 -0.044192 -0.112215 0.285755 0.405509 -0.031211 0.366998 0.160840 0.056144 0.098898 0.091810 -0.421197 -0.030043 -0.058197 -0.001050 0.053218 -0.063193 0.012877 -0.115813 -0.068619 -0.081875 0.188061 -0.090241 0.291970 0.124904 0.036055 0.343072 -0.248656 0.029980 0.116219 -0.003254 0.137663 0.109691 0.114663 -0.108700 0.030595 0.124321 -0.044075 
63 -0.148025 -0.160244 0.046734 -0.153344 0.115074 -0.192788 0.157911 -0.064392 0.135432 0.234627 0.113783 0.319348 0.107998 -0.052046 -0.127115 0.274314 0.373342 -0.040685 0.336247 0.187443 0.055649 0.110468 0.031972 -0.452046 -0.094004 -0.136850 -0.001345 0.031372 -0.029296 -0.018908 -0.082452 -0.072900 -0.022511 0.187902 -0.059989 0.299100 0.169374 0.097150 0.375818 -0.204883 0.020318 0.097013 0.045829 0.135829 0.113614 0.106489 -0.164261 -0.002554 0.198446 -0.060446 
13 -0.100708 -0.161615 0.063743 -0.153309 0.113646 -0.193880 0.136060 -0.050164 0.142122 0.221905 0.110479 0.301830 0.103057 -0.035520 -0.114645 0.259385 0.374448 -0.031689 0.328222 0.186547 0.049529 0.096237 0.047360 -0.430230 -0.074551 -0.118028 0.000796 0.035870 -0.028602 0.002868 -0.078906 -0.067569 -0.049065 0.171941 -0.049654 0.272291 0.149177 0.070708 0.333293 -0.186795 0.017385 0.086947 0.016425 0.110463 0.109829 0.097566 -0.131844 -0.005193 0.187214 -0.056925 
99 -0.112068 -0.165202 0.058504 -0.157622 0.102079 -0.195997 0.154602 -0.048521 0.141080 0.214754 0.121779 0.310630 0.101723 -0.051907 -0.113732 0.269350 0.366851 -0.026419 0.325786 0.186194 0.059454 0.090271 0.051920 -0.437612 -0.071850 -0.123770 0.001696 0.053300 -0.038554 -0.005807 -0.084178 -0.073780 -0.034896 0.188329 -0.060489 0.283782 0.147733 0.087171 0.347875 -0.206387 0.020736 0.075980 0.030501 0.120255 0.098241 0.117549 -0.134025 0.007684 0.189214 -0.052583 
9 -0.069888 -0.182144 0.097950 -0.134447 0.084873 -0.224655 0.125015 0.006315 0.177521 0.161147 0.156802 0.252753 0.116685 -0.062572 -0.109069 0.286668 0.378578 -0.041486 0.348661 0.145498 0.033117 0.105035 0.089392 -0.421520 -0.018528 -0.052381 0.007137 0.063587 -0.072581 0.006036 -0.113199 -0.079212 -0.077212 0.181967 -0.080537 0.273760 0.111038 0.035710 0.331924 -0.254182 0.030196 0.107225 -0.017400 0.139315 0.089641 0.101606 -0.115572 0.028775 0.116393 -0.044616 
21 -0.102614 -0.177906 0.063809 -0.155088 0.112838 -0.208194 0.145313 -0.036629 0.136609 0.213033 0.118207 0.284466 0.109230 -0.059907 -0.105569 0.282625 0.380000 -0.032660 0.330013 0.170083 0.050992 0.087496 0.046630 -0.419928 -0.060627 -0.090156 0.011985 0.038143 -0.034547 0.000237 -0.084033 -0.076596 -0.045010 0.179234 -0.062278 0.286122 0.137810 0.078609 0.339225 -0.204286 0.015032 0.094623 0.022264 0.134704 0.107590 0.108493 -0.148548 0.013010 0.168529 -0.050166 
81 -0.085972 -0.187217 0.076488 -0.148645 0.094603 -0.216851 0.123664 0.004668 0.166584 0.171429 0.154268 0.265455 0.116304 -0.054173 -0.118007 0.275912 0.402106 -0.028163 0.351350 0.172592 0.044436 0.092300 0.068043 -0.430200 -0.040126 -0.063587 -0.009010 0.064507 -0.072673 0.010352 -0.098687 -0.079455 -0.087661 0.189310 -0.080393 0.290911 0.124160 0.045291 0.357589 -0.242507 0.021468 0.101435 0.003626 0.142761 0.096670 0.120614 -0.119371 0.027585 0.146704 -0.041617 
47 -0.075345 -0.184619 0.087291 -0.127894 0.078505 -0.219382 0.113762 -0.003679 0.160116 0.177329 0.159230 0.267939 0.115647 -0.047804 -0.115760 0.284313 0.388101 -0.029152 0.347147 0.155801 0.051583 0.095925 0.082897 -0.428246 -0.035559 -0.059630 -0.013821 0.051915 -0.068976 -0.009389 -0.101517 -0.067185 -0.084177 0.183702 -0.061315 0.283020 0.113169 0.038123 0.351584 -0.251411 0.034328 0.115470 0.010527 0.141642 0.096929 0.110544 -0.121613 0.012810 0.145938 -0.033411 
5 -0.082305 -0.190203 0.090232 -0.145796 0.089184 -0.224742 0.134917 0.000597 0.166557 0.176005 0.157877 0.272748 0.123604 -0.052773 -0.100326 0.284397 0.386375 -0.036879 0.353131 0.168886 0.043781 0.087810 0.090162 -0.429230 -0.026465 -0.048924 -0.005368 0.062310 -0.071002 0.004760 -0.098623 -0.077973 -0.088894 0.186407 -0.073457 0.294165 0.118474 0.036841 0.344309 -0.245225 0.042510 0.113719 -0.012444 0.135353 0.086839 0.110468 -0.123624 0.025939 0.145824 -0.046832 
40 -0.112646 -0.185569 0.075646 -0.156468 0.103606 -0.205890 0.139253 -0.023559 0.156841 0.198351 0.132507 0.290824 0.108336 -0.060250 -0.119374 0.293329 0.381919 -0.045144 0.343829 0.165311 0.048013 0.094575 0.044964 -0.428450 -0.057296 -0.092570 -0.003732 0.053462 -0.060181 -0.008303 -0.094962 -0.077034 -0.049504 0.181948 -0.068149 0.288802 0.143181 0.056178 0.345189 -0.210942 0.032458 0.099969 0.016369 0.144965 0.106638 0.105246 -0.136579 0.018197 0.166781 -0.052231 
71 -0.112296 -0.177844 0.069127 -0.147466 0.100519 -0.213786 0.143853 -0.046117 0.161662 0.225184 0.137739 0.325073 0.123306 -0.056170 -0.109994 0.289577 0.396109 -0.037338 0.357108 0.175176 0.042059 0.111405 0.058404 -0.459326 -0.057705 -0.111325 0.003425 0.056986 -0.047058 0.001774 -0.088988 -0.076609 -0.046180 0.194674 -0.060572 0.298967 0.141935 0.059796 0.360753 -0.214311 0.034792 0.103562 0.016973 0.125987 0.107245 0.106183 -0.143376 0.005498 0.180307 -0.056129 
76 -0.106931 -0.173070 0.059819 -0.132707 0.109540 -0.196585 0.138764 -0.041355 0.144998 0.212504 0.129332 0.301522 0.115527 -0.042480 -0.112085 0.279588 0.384705 -0.044763 0.341902 0.175531 0.056243 0.112333 0.043335 -0.442266 -0.062705 -0.111195 -0.000691 0.050336 -0.036852 0.002030 -0.076400 -0.074220 -0.038948 0.174713 -0.059143 0.284160 0.153703 0.073545 0.360659 -0.211873 0.023165 0.098079 0.031092 0.140398 0.112398 0.110159 -0.131440 0.010135 0.184348 -0.049533 
96 -0.079327 -0.185241 0.080497 -0.153682 0.093311 -0.218448 0.114098 -0.012783 0.159606 0.170763 0.155372 0.278677 0.108072 -0.047298 -0.115286 0.296325 0.393438 -0.041627 0.354259 0.175834 0.044349 0.097659 0.086781 -0.449680 -0.038664 -0.072692 -0.003978 0.051152 -0.071918 -0.000370 -0.106959 -0.072347 -0.085199 0.194740 -0.076503 0.301462 0.126507 0.040501 0.358490 -0.256570 0.042117 0.106570 0.004885 0.147600 0.098920 0.107755 -0.124317 0.031356 0.131329 -0.051246 
68 -0.089522 -0.154591 0.081100 -0.139654 0.090215 -0.201663 0.118097 -0.023132 0.153217 0.173631 0.143036 0.256370 0.115891 -0.054304 -0.108114 0.279788 0.375999 -0.018796 0.350611 0.154228 0.051374 0.097988 0.078135 -0.411727 -0.039313 -0.056595 0.006465 0.058900 -0.063980 0.012441 -0.108302 -0.063491 -0.076043 0.190167 -0.068534 0.282225 0.119257 0.051624 0.336956 -0.234218 0.025500 0.108876 0.011138 0.123162 0.102861 0.102187 -0.111758 0.004695 0.141731 -0.050824 
16 -0.104105 -0.181128 0.069752 -0.157085 0.115846 -0.211204 0.128626 -0.036576 0.137840 0.201980 0.121573 0.292005 0.094362 -0.055702 -0.115648 0.284114 0.384821 -0.021199 0.342701 0.169374 0.056091 0.112102 0.049674 -0.441185 -0.069540 -0.099697 -0.005904 0.041747 -0.045343 0.000886 -0.087997 -0.070622 -0.056252 0.193540 -0.074164 0.277334 0.154827 0.081097 0.343655 -0.212084 0.022478 0.089915 0.014652 0.137817 0.096326 0.120572 -0.145141 0.002641 0.190274 -0.064913 
79 -0.109807 -0.169393 0.059890 -0.148304 0.092885 -0.199448 0.140231 -0.026431 0.141680 0.199771 0.141893 0.295787 0.113234 -0.044495 -0.124581 0.275735 0.371887 -0.037418 0.348961 0.166994 0.050754 0.107629 0.051357 -0.432388 -0.063222 -0.099258 -0.007971 0.051233 -0.049617 -0.012781 -0.084942 -0.086084 -0.055502 0.186078 -0.063251 0.286916 0.136599 0.057826 0.350743 -0.212139 0.036952 0.087363 0.024298 0.142537 0.106851 0.119817 -0.130177 0.014091 0.169919 -0.065035 
1 -0.085559 -0.179103 0.086216 -0.141120 0.091326 -0.219762 0.110317 -0.003637 0.159787 0.173256 0.144323 0.266504 0.112469 -0.043588 -0.121269 0.294493 0.383500 -0.021686 0.347982 0.167307 0.034791 0.088671 0.073106 -0.427063 -0.037391 -0.053451 -0.006389 0.052949 -0.060564 0.019487 -0.107929 -0.063338 -0.082369 0.182266 -0.077286 0.271699 0.117952 0.052043 0.333647 -0.244327 0.034037 0.110744 -0.000402 0.133982 0.094577 0.097346 -0.114407 0.017070 0.124180 -0.032067 
46 -0.098451 -0.170530 0.082450 -0.162656 0.117576 -0.230643 0.127740 -0.032846 0.159114 0.203856 0.144451 0.316094 0.110244 -0.060217 -0.114777 0.294830 0.402550 -0.036698 0.351782 0.167528 0.054851 0.100322 0.065033 -0.456466 -0.059350 -0.100135 0.002635 0.054162 -0.055090 -0.004060 -0.085855 -0.075793 -0.054439 0.184190 -0.070649 0.283187 0.134228 0.071529 0.374533 -0.223467 0.012428 0.095358 0.022121 0.138812 0.103619 0.118347 -0.143980 0.003740 0.171057 -0.051088 
7 -0.091449 -0.174302 0.064154 -0.148606 0.079687 -0.202342 0.127756 -0.005050 0.156356 0.179977 0.147415 0.266934 0.110530 -0.051509 -0.111065 0.262690 0.379010 -0.025132 0.358877 0.160440 0.052412 0.089490 0.065400 -0.427607 -0.033428 -0.073409 -0.008133 0.055073 -0.059257 0.011413 -0.094847 -0.075513 -0.063802 0.183835 -0.082147 0.283210 0.135082 0.055002 0.344067 -0.233564 0.029638 0.102080 0.010367 0.124727 0.100958 0.108641 -0.117203 0.008478 0.137283 -0.056001 
97 -0.109864 -0.176949 0.074286 -0.157358 0.093469 -0.208485 0.149024 -0.027974 0.157730 0.210965 0.146770 0.294102 0.122671 -0.041819 -0.109536 0.285803 0.389297 -0.033915 0.350197 0.180827 0.047060 0.104866 0.067660 -0.445017 -0.062818 -0.088529 0.008493 0.059756 -0.054824 -0.002125 -0.099216 -0.083771 -0.061073 0.199215 -0.060476 0.288203 0.142559 0.055523 0.351961 -0.219026 0.024322 0.091772 0.014891 0.132434 0.095911 0.109459 -0.135706 -0.000131 0.166181 -0.055323 
18 -0.109603 -0.166965 0.065147 -0.145763 0.096039 -0.211797 0.137588 -0.028922 0.155287 0.220852 0.132438 0.317624 0.108666 -0.045114 -0.110892 0.293660 0.402067 -0.024932 0.348458 0.183795 0.054868 0.113305 0.062375 -0.463032 -0.077177 -0.113890 -0.001549 0.040895 -0.036673 0.001407 -0.096989 -0.076296 -0.056051 0.186308 -0.067142 0.284464 0.147785 0.076076 0.351110 -0.224074 0.035852 0.096688 0.022357 0.138483 0.100392 0.109779 -0.131269 0.006867 0.166227 -0.052081 
64 -0.068647 -0.195530 0.097669 -0.143390 0.093314 -0.237511 0.122026 0.001030 0.179394 0.165004 0.164083 0.271764 0.110149 -0.052988 -0.113462 0.285763 0.383218 -0.034686 0.353002 0.145135 0.039442 0.088803 0.070035 -0.416684 -0.027346 -0.064503 0.001191 0.044951 -0.065049 0.023485 -0.113823 -0.066649 -0.074101 0.172582 -0.085291 0.278784 0.114839 0.042193 0.336046 -0.240599 0.021784 0.110071 -0.018433 0.149626 0.091380 0.105163 -0.112766 0.008790 0.133034 -0.042117 
51 -0.124245 -0.178411 0.059058 -0.156471 0.103047 -0.195681 0.155832 -0.030271 0.158244 0.213192 0.141457 0.310171 0.111497 -0.061260 -0.120156 0.288001 0.385319 -0.025466 0.345244 0.168794 0.044472 0.115850 0.066333 -0.445942 -0.071857 -0.096717 0.010082 0.056635 -0.047908 -0.015930 -0.086160 -0.072942 -0.044908 0.203941 -0.061110 0.293992 0.147338 0.062565 0.352190 -0.219772 0.039962 0.105498 0.027013 0.131463 0.108080 0.095833 -0.134619 0.004860 0.167701 -0.060513 
65 -0.115573 -0.156469 0.044505 -0.143404 0.095063 -0.192350 0.132209 -0.031515 0.138905 0.191570 0.114442 0.293885 0.101907 -0.041726 -0.114404 0.269775 0.361958 -0.028776 0.308095 0.167102 0.047878 0.092581 0.049239 -0.423660 -0.055091 -0.093681 0.000019 0.051030 -0.042142 -0.004633 -0.071297 -0.076272 -0.051746 0.177281 -0.049526 0.257958 0.146907 0.075519 0.341818 -0.210950 0.023433 0.073408 0.019942 0.123531 0.084194 0.117380 -0.123613 -0.004107 0.152219 -0.051084 
92 -0.102279 -0.176246 0.055771 -0.153965 0.103375 -0.193190 0.138029 -0.025300 0.153202 0.194846 0.139328 0.289043 0.105030 -0.057407 -0.122000 0.266296 0.380450 -0.022081 0.331436 0.155901 0.046485 0.102333 0.058729 -0.416148 -0.062079 -0.099226 -0.007016 0.042273 -0.044042 -0.003320 -0.097762 -0.070759 -0.059622 0.169232 -0.074599 0.279931 0.127781 0.068452 0.334005 -0.218023 0.019490 0.101734 0.020221 0.126136 0.092484 0.113330 -0.129339 0.002230 0.166245 -0.052713 
55 -0.107928 -0.177150 0.078483 -0.144099 0.102515 -0.217456 0.137875 -0.033184 0.150772 0.193871 0.126210 0.292425 0.114998 -0.053225 -0.109366 0.280289 0.366486 -0.047146 0.337578 0.170204 0.049942 0.100439 0.063919 -0.438839 -0.076074 -0.105840 0.013643 0.048360 -0.054218 -0.004148 -0.099864 -0.088086 -0.045002 0.179385 -0.060613 0.282253 0.145419 0.074501 0.341663 -0.204725 0.014777 0.086158 0.011317 0.132391 0.084724 0.105620 -0.144689 0.015031 0.167498 -0.056658 
10 -0.080073 -0.186002 0.097805 -0.154048 0.077765 -0.234035 0.129107 0.001251 0.180948 0.167068 0.174786 0.262272 0.105660 -0.055078 -0.112924 0.276169 0.385189 -0.033956 0.366767 0.148853 0.043743 0.101798 0.087540 -0.424265 -0.013032 -0.059315 -0.003222 0.060049 -0.063382 -0.003209 -0.115919 -0.080241 -0.075146 0.193735 -0.090236 0.298791 0.112985 0.025639 0.353865 -0.262972 0.040283 0.121029 0.002372 0.139533 0.100929 0.104970 -0.112599 0.031394 0.136291 -0.049685 
24 -0.135678 -0.173949 0.072997 -0.157552 0.106903 -0.213015 0.160378 -0.043562 0.141398 0.223041 0.134109 0.318424 0.116596 -0.053828 -0.123139 0.299177 0.405142 -0.040299 0.364400 0.190406 0.055429 0.120697 0.059322 -0.455690 -0.073052 -0.129109 0.009259 0.043732 -0.050679 -0.015244 -0.090301 -0.083024 -0.051580 0.199314 -0.067594 0.290257 0.151271 0.078007 0.383624 -0.227999 0.035275 0.105088 0.027872 0.142842 0.113656 0.120883 -0.158809 0.004008 0.190372 -0.062018 
15 -0.070865 -0.179652 0.083664 -0.158396 0.091806 -0.216145 0.116672 -0.003316 0.156769 0.176340 0.160489 0.270434 0.106065 -0.044386 -0.111540 0.288621 0.398594 -0.029528 0.354030 0.162453 0.054671 0.098068 0.073169 -0.435222 -0.029754 -0.064987 -0.009150 0.046485 -0.074550 0.004779 -0.100766 -0.078154 -0.076910 0.184959 -0.080522 0.295247 0.128425 0.042616 0.348339 -0.241936 0.030787 0.102265 -0.002664 0.142322 0.091172 0.111656 -0.109034 0.026715 0.138158 -0.045824 
42 -0.104962 -0.170294 0.056183 -0.146356 0.096148 -0.197987 0.134056 -0.018938 0.145370 0.195585 0.123951 0.289881 0.103534 -0.051527 -0.110380 0.268972 0.367555 -0.034878 0.338045 0.169170 0.054500 0.105243 0.062010 -0.412624 -0.069622 -0.094772 0.010891 0.049194 -0.046982 0.001028 -0.091237 -0.071897 -0.056790 0.180127 -0.071806 0.274173 0.129187 0.063550 0.337453 -0.215180 0.019734 0.096213 0.025876 0.120474 0.094688 0.114323 -0.131896 0.009625 0.168519 -0.052536 
95 -0.137143 -0.163161 0.057353 -0.157367 0.109432 -0.189878 0.155937 -0.057584 0.151399 0.226077 0.133651 0.328269 0.100585 -0.047914 -0.132384 0.286621 0.386782 -0.025497 0.335658 0.187463 0.054490 0.101517 0.046145 -0.460520 -0.067027 -0.130104 0.005937 0.049799 -0.036126 -0.013402 -0.081986 -0.071292 -0.044812 0.185540 -0.051661 0.285981 0.148567 0.086788 0.367878 -0.205344 0.016492 0.095474 0.035363 0.118131 0.107052 0.108989 -0.133811 -0.001452 0.197542 -0.063763 
61 -0.069321 -0.183552 0.085637 -0.128289 0.081575 -0.235260 0.109053 -0.012365 0.179747 0.163270 0.160734 0.272742 0.097612 -0.047274 -0.108186 0.293515 0.395859 -0.039532 0.357304 0.155082 0.036359 0.106470 0.071336 -0.430454 -0.017067 -0.054976 -0.011696 0.055363 -0.073892 0.000640 -0.110073 -0.071101 -0.085899 0.189681 -0.072069 0.285551 0.122075 0.030944 0.331841 -0.237762 0.035507 0.112588 -0.007832 0.136768 0.091949 0.105232 -0.118060 0.022861 0.131797 -0.036847 
33 -0.088354 -0.175495 0.073460 -0.152422 0.091139 -0.218130 0.135477 -0.019370 0.142337 0.200576 0.149026 0.275251 0.112344 -0.042648 -0.102471 0.286919 0.386983 -0.031166 0.339426 0.174411 0.049579 0.097207 0.068594 -0.420076 -0.054967 -0.085919 0.002431 0.038991 -0.048500 0.014331 -0.095807 -0.080608 -0.074164 0.184444 -0.073907 0.282869 0.135663 0.052389 0.330240 -0.231341 0.033953 0.088603 0.011929 0.139525 0.089628 0.113171 -0.126376 0.003859 0.157231 -0.051780 
84 -0.101980 -0.155216 0.061806 -0.136540 0.097922 -0.192716 0.137178 -0.029868 0.143823 0.209424 0.120789 0.285618 0.101135 -0.044321 -0.121238 0.279181 0.378706 -0.020675 0.343541 0.189782 0.056517 0.103300 0.063598 -0.420522 -0.070797 -0.090139 0.005319 0.040336 -0.046351 0.011017 -0.079879 -0.080403 -0.061226 0.188090 -0.055469 0.281587 0.150832 0.073065 0.329007 -0.218341 0.026186 0.092086 0.028675 0.121519 0.095493 0.118612 -0.139884 0.011211 0.167245 -0.056420 
20 -0.088014 -0.175925 0.073089 -0.129106 0.082243 -0.215814 0.117245 0.008206 0.160210 0.158541 0.159348 0.264618 0.100419 -0.051276 -0.097337 0.268322 0.371954 -0.026418 0.352392 0.141049 0.036407 0.106376 0.088676 -0.412352 -0.027229 -0.059832 -0.006405 0.052427 -0.052698 0.005208 -0.094038 -0.061022 -0.069804 0.181305 -0.080120 0.279149 0.116712 0.028072 0.343305 -0.243415 0.026072 0.098296 0.004685 0.134466 0.100784 0.091070 -0.123204 0.011651 0.135410 -0.043073 
54 -0.084692 -0.195615 0.079546 -0.148776 0.087094 -0.227788 0.112521 0.011846 0.182018 0.166679 0.160197 0.261359 0.123810 -0.048595 -0.120083 0.304738 0.399013 -0.032159 0.378564 0.156227 0.041905 0.097027 0.091689 -0.435510 -0.019543 -0.041937 -0.007820 0.064818 -0.060941 0.003378 -0.118638 -0.082499 -0.087998 0.185105 -0.081685 0.296813 0.109177 0.039832 0.355144 -0.260827 0.036415 0.117973 -0.012675 0.148407 0.100164 0.100546 -0.111956 0.026847 0.122762 -0.045846 
56 -0.081682 -0.167980 0.076217 -0.143201 0.092225 -0.222098 0.133405 -0.016112 0.164817 0.181685 0.133704 0.283425 0.114845 -0.042915 -0.103291 0.288273 0.376401 -0.029219 0.334898 0.176102 0.049875 0.103968 0.056276 -0.423128 -0.054803 -0.071747 0.003527 0.055455 -0.058456 0.008617 -0.102331 -0.076894 -0.059804 0.183874 -0.065355 0.282475 0.128687 0.060191 0.336833 -0.232755 0.025647 0.092484 0.002397 0.126163 0.091939 0.113768 -0.136948 0.018660 0.166222 -0.044327 
6 -0.078808 -0.185603 0.088279 -0.155749 0.082852 -0.232412 0.125763 -0.022470 0.166830 0.181991 0.163040 0.273672 0.114085 -0.045572 -0.113584 0.283187 0.397844 -0.036622 0.354579 0.157902 0.046835 0.105942 0.065784 -0.436271 -0.034750 -0.069563 -0.003953 0.062090 -0.059905 0.016715 -0.099623 -0.082976 -0.068022 0.190315 -0.074193 0.280695 0.129452 0.041405 0.353294 -0.236676 0.028383 0.110629 0.004628 0.150131 0.101151 0.115343 -0.126922 0.026598 0.153325 -0.048704 
78 -0.085955 -0.180050 0.084490 -0.154152 0.088184 -0.237566 0.127417 -0.006248 0.180273 0.186542 0.151309 0.281398 0.115541 -0.049247 -0.116748 0.297230 0.407716 -0.026572 0.373843 0.177101 0.042784 0.105512 0.065224 -0.447330 -0.040441 -0.080201 -0.002577 0.063125 -0.055914 0.004996 -0.114745 -0.071866 -0.068092 0.194358 -0.086591 0.295430 0.136698 0.052472 0.344547 -0.246387 0.033039 0.095301 0.015616 0.135256 0.100044 0.119626 -0.119363 0.006185 0.151373 -0.050939 
75 -0.115825 -0.153180 0.054426 -0.156956 0.111338 -0.200207 0.135319 -0.055403 0.136031 0.214834 0.115745 0.311009 0.102141 -0.046563 -0.119176 0.281637 0.371794 -0.035134 0.337840 0.172862 0.052213 0.098523 0.049838 -0.435364 -0.077410 -0.121683 -0.001177 0.035042 -0.040539 0.006519 -0.066922 -0.070239 -0.033198 0.192044 -0.064110 0.276760 0.148573 0.072070 0.346756 -0.188060 0.012119 0.075010 0.037553 0.126255 0.102990 0.109072 -0.136081 0.006838 0.187684 -0.064670 
72 -0.098710 -0.161673 0.046297 -0.130700 0.107859 -0.186980 0.133560 -0.034988 0.142956 0.206784 0.135691 0.319860 0.101011 -0.059153 -0.118940 0.282154 0.395019 -0.032939 0.358458 0.181479 0.045729 0.109528 0.049941 -0.454300 -0.074300 -0.114766 0.010519 0.050583 -0.030868 -0.005358 -0.074281 -0.083672 -0.033890 0.182858 -0.067813 0.280447 0.150613 0.065843 0.364874 -0.215410 0.023626 0.098047 0.032343 0.131545 0.102444 0.101371 -0.147092 -0.004050 0.173578 -0.056065 
83 -0.123398 -0.170145 0.054504 -0.159489 0.098221 -0.216571 0.148054 -0.042439 0.149316 0.205304 0.122895 0.317895 0.108619 -0.039849 -0.121138 0.274126 0.380090 -0.032752 0.346033 0.187916 0.060579 0.098728 0.056064 -0.446054 -0.072514 -0.114799 0.004639 0.053811 -0.045707 -0.005754 -0.079937 -0.083707 -0.049776 0.194992 -0.067941 0.290636 0.149658 0.066286 0.360635 -0.224448 0.033630 0.075664 0.026923 0.122912 0.109129 0.114947 -0.144202 0.012440 0.171202 -0.053318 
14 -0.106638 -0.169795 0.069991 -0.149189 0.115497 -0.208721 0.138046 -0.040122 0.143655 0.209814 0.140445 0.316195 0.113936 -0.045163 -0.112122 0.295603 0.389939 -0.034924 0.345322 0.167360 0.051862 0.110403 0.059733 -0.450687 -0.074452 -0.109065 0.007177 0.044345 -0.048048 -0.006015 -0.087420 -0.085705 -0.055499 0.184105 -0.061713 0.289616 0.141756 0.078967 0.371762 -0.215812 0.032807 0.082637 0.027382 0.138458 0.098587 0.105233 -0.140191 0.009140 0.182128 -0.060895 
77 -0.107751 -0.153819 0.039069 -0.126764 0.111796 -0.170309 0.140309 -0.049803 0.124601 0.216693 0.121035 0.303057 0.094987 -0.036593 -0.121300 0.268113 0.367224 -0.035472 0.325436 0.180343 0.058895 0.100565 0.035504 -0.427099 -0.074421 -0.114607 -0.001073 0.041627 -0.029807 -0.006420 -0.058719 -0.079206 -0.022816 0.163863 -0.061843 0.273671 0.146974 0.081019 0.326720 -0.183611 0.010205 0.083189 0.026669 0.123790 0.091302 0.093692 -0.132133 0.002547 0.184069 -0.053649 
17 -0.054231 -0.174189 0.089432 -0.139401 0.082180 -0.215507 0.116682 0.010822 0.154387 0.155031 0.164654 0.238544 0.101178 -0.046768 -0.102911 0.280028 0.376808 -0.029613 0.336043 0.149476 0.042484 0.088221 0.078150 -0.391422 -0.018259 -0.040577 0.000330 0.056918 -0.079176 0.012739 -0.096201 -0.080104 -0.083559 0.173207 -0.092101 0.270117 0.103794 0.024207 0.321846 -0.234913 0.024650 0.105718 -0.010675 0.141299 0.102422 0.089366 -0.096583 0.019961 0.128227 -0.046608 
98 -0.090982 -0.183710 0.077960 -0.149816 0.090866 -0.212431 0.125732 -0.012949 0.170565 0.179509 0.150586 0.271476 0.108687 -0.058430 -0.104637 0.287345 0.396230 -0.036536 0.348432 0.156128 0.056319 0.100263 0.063566 -0.419851 -0.044223 -0.066072 -0.009497 0.052109 -0.060921 0.010740 -0.108874 -0.080847 -0.075128 0.180335 -0.084900 0.291048 0.124056 0.049255 0.350957 -0.227631 0.035967 0.099944 -0.004934 0.145286 0.095375 0.103277 -0.122692 0.029241 0.147065 -0.058773 
29 -0.072489 -0.173058 0.085318 -0.133107 0.078775 -0.217698 0.126658 -0.000669 0.168365 0.172239 0.161085 0.275687 0.107655 -0.048265 -0.118635 0.280135 0.374744 -0.030021 0.347459 0.153625 0.041939 0.094283 0.065871 -0.412516 -0.038435 -0.070193 0.005049 0.057225 -0.068621 -0.006788 -0.105949 -0.074538 -0.068128 0.189177 -0.074171 0.273407 0.119765 0.047601 0.339314 -0.233152 0.030271 0.095934 0.008804 0.145202 0.089191 0.107975 -0.127712 0.018991 0.153210 -0.047440 
2 -0.092875 -0.187990 0.073155 -0.153278 0.078099 -0.221330 0.121881 -0.006799 0.162350 0.189138 0.172136 0.287140 0.118453 -0.043240 -0.119550 0.285268 0.409051 -0.037346 0.372382 0.167934 0.050691 0.096653 0.068455 -0.439842 -0.046156 -0.074066 -0.006791 0.049331 -0.070224 0.003860 -0.104232 -0.072494 -0.081175 0.188349 -0.075680 0.297097 0.132173 0.047094 0.364977 -0.254780 0.037858 0.118477 0.013325 0.149441 0.111897 0.121437 -0.122420 0.011676 0.149718 -0.045891 
27 -0.059564 -0.188554 0.100609 -0.143940 0.081655 -0.241114 0.108230 -0.004938 0.181976 0.159496 0.157876 0.252830 0.113940 -0.053321 -0.106952 0.280669 0.388197 -0.039213 0.357806 0.135947 0.040185 0.089522 0.076994 -0.410807 -0.011925 -0.046881 -0.002797 0.045166 -0.073705 0.013350 -0.117316 -0.080488 -0.093703 0.166901 -0.078398 0.268043 0.105567 0.023988 0.323930 -0.250264 0.028030 0.106812 -0.005357 0.143595 0.108011 0.095586 -0.092010 0.025705 0.106363 -0.026439 
41 -0.090623 -0.172408 0.083796 -0.160942 0.100919 -0.233297 0.109389 -0.018974 0.167372 0.180445 0.151698 0.273698 0.113227 -0.040433 -0.108121 0.282081 0.390676 -0.019563 0.340759 0.150945 0.052442 0.101514 0.070525 -0.418347 -0.030798 -0.073448 0.006104 0.048309 -0.051509 0.010108 -0.099106 -0.075848 -0.076228 0.182072 -0.075522 0.275561 0.121526 0.040364 0.341310 -0.237794 0.026228 0.097043 0.013012 0.144265 0.095729 0.102055 -0.125822 0.004440 0.155920 -0.051803 
11 -0.101078 -0.188571 0.080930 -0.157732 0.093508 -0.227346 0.135857 -0.025542 0.159524 0.203069 0.157674 0.303160 0.116387 -0.053331 -0.113947 0.314176 0.418592 -0.028175 0.373194 0.178261 0.048518 0.106626 0.085092 -0.459380 -0.060634 -0.095222 -0.007242 0.050501 -0.057151 0.000385 -0.105353 -0.079971 -0.072347 0.202055 -0.070941 0.297932 0.146496 0.052859 0.360754 -0.240768 0.028035 0.118600 0.015788 0.156554 0.109507 0.112753 -0.141868 0.013758 0.162766 -0.045668 
90 -0.071241 -0.187930 0.074896 -0.151587 0.097906 -0.215377 0.124304 -0.021632 0.164904 0.181010 0.149239 0.274690 0.116089 -0.053219 -0.118170 0.289309 0.408993 -0.032284 0.363601 0.160015 0.040035 0.096157 0.081264 -0.443772 -0.045703 -0.078970 0.005355 0.053586 -0.071359 0.005266 -0.103886 -0.075148 -0.062597 0.175699 -0.076240 0.292879 0.122515 0.055597 0.351996 -0.228436 0.024029 0.103173 0.014549 0.150238 0.093288 0.106556 -0.122441 0.023417 0.162053 -0.046741 
74 -0.086253 -0.162724 0.057528 -0.144683 0.090601 -0.190779 0.134532 -0.024962 0.149236 0.211419 0.131624 0.294351 0.104152 -0.048793 -0.108087 0.265968 0.375382 -0.041599 0.330688 0.170467 0.041967 0.103449 0.046008 -0.417517 -0.060246 -0.098595 -0.002724 0.051776 -0.038989 0.007615 -0.076373 -0.079974 -0.045453 0.181768 -0.073984 0.269309 0.137613 0.069836 0.340302 -0.216354 0.016473 0.087606 0.019047 0.123104 0.099891 0.114638 -0.122406 0.002566 0.179391 -0.058268 
38 -0.074883 -0.184929 0.081311 -0.151030 0.082983 -0.222184 0.119123 -0.000496 0.174889 0.175348 0.163254 0.283646 0.108473 -0.042367 -0.112353 0.292108 0.391201 -0.026706 0.342562 0.163024 0.052006 0.101479 0.077237 -0.429928 -0.030157 -0.077202 -0.010506 0.051767 -0.061421 -0.007587 -0.111085 -0.081574 -0.088004 0.195049 -0.080949 0.285165 0.130777 0.049191 0.348335 -0.255395 0.026893 0.100617 -0.000088 0.137325 0.096468 0.108406 -0.120290 0.020604 0.146919 -0.039842 
23 -0.106086 -0.178430 0.078240 -0.163302 0.107458 -0.211623 0.126657 -0.035973 0.150974 0.208357 0.147861 0.306943 0.118225 -0.055267 -0.111230 0.292255 0.401183 -0.033497 0.340767 0.186648 0.045651 0.097900 0.050002 -0.445155 -0.061329 -0.112958 -0.001997 0.047389 -0.052404 -0.002417 -0.104775 -0.074894 -0.060334 0.203411 -0.074527 0.289780 0.144600 0.073924 0.378489 -0.226356 0.032537 0.092749 0.022784 0.135092 0.098045 0.126408 -0.149866 -0.002538 0.175225 -0.065522 
48 -0.085878 -0.190648 0.077810 -0.142331 0.097926 -0.228523 0.140175 -0.017372 0.164946 0.189273 0.148761 0.298097 0.106337 -0.054162 -0.108183 0.288059 0.394260 -0.035438 0.365023 0.166408 0.053617 0.104545 0.063950 -0.440312 -0.048036 -0.064523 0.006306 0.045395 -0.051166 0.009286 -0.112775 -0.086211 -0.074247 0.183169 -0.083500 0.291411 0.131044 0.048847 0.346865 -0.233391 0.020052 0.099463 0.000654 0.139409 0.105764 0.100640 -0.127277 0.017247 0.143835 -0.056954 
30 -0.085520 -0.186892 0.091067 -0.142718 0.094136 -0.218990 0.112732 -0.019430 0.151305 0.163478 0.141907 0.261687 0.110480 -0.048325 -0.110947 0.281479 0.367112 -0.037207 0.330890 0.150086 0.053219 0.096663 0.069832 -0.391974 -0.031403 -0.066167 0.008226 0.043873 -0.061453 -0.003306 -0.104052 -0.078801 -0.061724 0.168431 -0.063686 0.262982 0.112237 0.037982 0.337350 -0.229810 0.032278 0.098825 -0.000179 0.144029 0.101385 0.114191 -0.120397 0.012852 0.137390 -0.048856 
0 -0.104582 -0.181376 0.078067 -0.149817 0.095129 -0.228692 0.136105 -0.029318 0.158971 0.196814 0.138835 0.302669 0.099669 -0.054248 -0.109081 0.283687 0.394945 -0.025101 0.358328 0.167765 0.042898 0.102604 0.067650 -0.447103 -0.041107 -0.093949 0.002339 0.043488 -0.050466 -0.002237 -0.093848 -0.085463 -0.055121 0.178627 -0.074550 0.298206 0.143239 0.065649 0.371869 -0.244504 0.014933 0.092560 0.009719 0.139732 0.100938 0.124031 -0.136428 0.011241 0.162980 -0.042090 
62 -0.087411 -0.188015 0.089599 -0.148535 0.093145 -0.233011 0.113925 -0.018857 0.165866 0.175090 0.147095 0.285715 0.121215 -0.051598 -0.118523 0.282813 0.398238 -0.033890 0.351546 0.155111 0.037649 0.109536 0.079555 -0.421281 -0.048520 -0.065129 -0.001886 0.057307 -0.066037 0.001334 -0.104198 -0.080775 -0.075607 0.171047 -0.076429 0.270809 0.119744 0.048693 0.348073 -0.236333 0.028569 0.109237 0.005210 0.132042 0.094318 0.117128 -0.112002 0.020206 0.157433 -0.045285 
73 -0.104179 -0.161474 0.059124 -0.144618 0.096336 -0.193928 0.120857 -0.046984 0.139171 0.201166 0.114605 0.291625 0.106502 -0.034734 -0.115337 0.274262 0.376246 -0.017999 0.318614 0.172150 0.056174 0.089335 0.054805 -0.417796 -0.065268 -0.108473 0.008404 0.041962 -0.045815 0.004263 -0.080677 -0.069737 -0.055966 0.183320 -0.052585 0.264104 0.136457 0.063888 0.325973 -0.215213 0.023406 0.083245 0.011469 0.123426 0.089349 0.116325 -0.138707 -0.001530 0.158025 -0.037791 
50 -0.117156 -0.154539 0.063395 -0.140973 0.109593 -0.187731 0.137983 -0.048151 0.133974 0.211885 0.120863 0.305813 0.107630 -0.046364 -0.125524 0.282426 0.376855 -0.032210 0.339807 0.172898 0.055456 0.110198 0.048882 -0.442137 -0.077867 -0.107591 0.007100 0.039747 -0.053144 -0.004118 -0.084675 -0.076333 -0.055200 0.191912 -0.070144 0.291525 0.155457 0.065993 0.343838 -0.209774 0.029365 0.095294 0.032350 0.128450 0.101531 0.107602 -0.141991 0.014910 0.169781 -0.063846 
34 -0.103824 -0.170862 0.082269 -0.145196 0.092844 -0.214815 0.121731 -0.014505 0.150353 0.188237 0.139113 0.293072 0.117718 -0.064439 -0.118013 0.286340 0.392644 -0.035159 0.344355 0.150993 0.048138 0.100869 0.066231 -0.419101 -0.035445 -0.073649 0.004911 0.058428 -0.061642 -0.013366 -0.091455 -0.064439 -0.049251 0.178499 -0.078304 0.297010 0.119765 0.061569 0.352318 -0.227221 0.036254 0.110336 0.002061 0.138523 0.115330 0.094158 -0.131215 0.005084 0.155204 -0.057398 
31 -0.092561 -0.155470 0.073159 -0.139444 0.103559 -0.195936 0.121961 -0.036990 0.145932 0.200652 0.133058 0.286890 0.100468 -0.050097 -0.120880 0.270146 0.373764 -0.034010 0.329164 0.164999 0.049223 0.087228 0.058455 -0.408940 -0.056797 -0.092496 0.002893 0.046097 -0.051698 0.000249 -0.089080 -0.079614 -0.072538 0.182228 -0.065958 0.286229 0.137884 0.054053 0.344133 -0.222412 0.029144 0.088202 0.015378 0.137295 0.088060 0.113493 -0.121595 0.006815 0.171135 -0.051824 
69 -0.109137 -0.174691 0.076386 -0.146680 0.099481 -0.207385 0.134259 -0.024515 0.154061 0.188624 0.144333 0.297107 0.100046 -0.045127 -0.117800 0.272156 0.375057 -0.033230 0.334931 0.172075 0.048111 0.092913 0.047302 -0.444348 -0.047628 -0.107340 0.004957 0.052741 -0.056991 0.008836 -0.091588 -0.085810 -0.051310 0.177397 -0.076865 0.294579 0.151177 0.065237 0.366384 -0.230038 0.028220 0.084667 0.009694 0.145396 0.094993 0.108355 -0.122643 0.006975 0.167473 -0.050651 
70 -0.092898 -0.175194 0.080538 -0.157774 0.087044 -0.210531 0.129839 -0.014292 0.157174 0.178309 0.136641 0.274945 0.096623 -0.038461 -0.109904 0.281873 0.386555 -0.040115 0.356064 0.161822 0.041278 0.092807 0.078497 -0.428304 -0.042445 -0.076320 0.006903 0.040941 -0.059385 0.004226 -0.104031 -0.083704 -0.071895 0.187059 -0.075875 0.280227 0.134190 0.045099 0.344598 -0.226743 0.032589 0.095866 0.013293 0.149101 0.102557 0.106638 -0.135999 0.018891 0.157732 -0.041654 
85 -0.117977 -0.181668 0.059318 -0.159209 0.122159 -0.199392 0.155516 -0.050933 0.141850 0.223762 0.122000 0.314559 0.101180 -0.045441 -0.133673 0.292605 0.408204 -0.042303 0.346520 0.189750 0.059921 0.121296 0.051215 -0.455792 -0.071771 -0.128706 -0.001174 0.050899 -0.050245 -0.016816 -0.089335 -0.077117 -0.034541 0.200627 -0.054811 0.304027 0.152357 0.087612 0.366831 -0.215557 0.015479 0.083538 0.040746 0.125460 0.099743 0.122746 -0.151976 -0.006073 0.200179 -0.066192 
87 -0.073633 -0.179504 0.087097 -0.152805 0.093340 -0.228237 0.119752 -0.011280 0.163243 0.181430 0.166131 0.277020 0.123274 -0.055114 -0.111203 0.302957 0.393920 -0.029274 0.353797 0.175827 0.038882 0.102382 0.083838 -0.439328 -0.026613 -0.058911 -0.005801 0.063960 -0.070644 0.014521 -0.108821 -0.081047 -0.090850 0.198213 -0.071104 0.285272 0.131453 0.039689 0.345230 -0.254675 0.040657 0.115154 -0.008825 0.144186 0.095259 0.111108 -0.110786 0.015071 0.154079 -0.036995 
28 -0.052210 -0.185053 0.093838 -0.131556 0.073695 -0.223213 0.111767 0.013066 0.178548 0.153602 0.161632 0.254545 0.111115 -0.037636 -0.096113 0.283337 0.387318 -0.029790 0.361099 0.147265 0.037096 0.096061 0.093375 -0.401099 -0.008040 -0.029944 -0.007946 0.061183 -0.068544 0.007043 -0.110006 -0.082093 -0.096626 0.170486 -0.083245 0.278995 0.100459 0.035873 0.316440 -0.254029 0.040120 0.108918 -0.004233 0.127564 0.092276 0.104904 -0.101717 0.023679 0.104757 -0.025554 
43 -0.084003 -0.195705 0.088209 -0.149697 0.095588 -0.237867 0.114299 -0.004961 0.180575 0.179234 0.157545 0.268948 0.108833 -0.059219 -0.103614 0.286173 0.392829 -0.035225 0.354473 0.164176 0.043723 0.096715 0.076553 -0.429154 -0.038813 -0.056710 0.000949 0.050475 -0.069349 0.011570 -0.111516 -0.075510 -0.071262 0.190473 -0.081578 0.288907 0.128390 0.042087 0.343829 -0.252676 0.038306 0.106631 -0.005451 0.143290 0.092560 0.115206 -0.126374 0.026828 0.128296 -0.037449 
26 -0.096489 -0.162282 0.071137 -0.145440 0.109414 -0.221021 0.132917 -0.031366 0.150208 0.201257 0.138807 0.303954 0.112855 -0.043224 -0.106479 0.273930 0.387998 -0.027385 0.342655 0.168067 0.044528 0.106571 0.058322 -0.440664 -0.047598 -0.105032 0.010914 0.051901 -0.034883 -0.000702 -0.076980 -0.081470 -0.060145 0.184457 -0.059520 0.276551 0.133751 0.059511 0.351608 -0.223031 0.024380 0.086670 0.023311 0.137949 0.104094 0.109374 -0.141719 0.001952 0.187602 -0.056425 
58 -0.067488 -0.181481 0.089203 -0.157610 0.088495 -0.224595 0.123612 -0.012179 0.175435 0.156370 0.155540 0.269533 0.117018 -0.051582 -0.098926 0.276871 0.389664 -0.020761 0.349094 0.147785 0.037108 0.094678 0.078164 -0.415744 -0.020817 -0.049021 -0.004057 0.045568 -0.055062 0.008042 -0.107203 -0.073719 -0.090432 0.175665 -0.090361 0.291489 0.123121 0.045123 0.344596 -0.245868 0.034438 0.102409 -0.006820 0.137028 0.104923 0.102341 -0.118129 0.019603 0.144397 -0.052213 
45 -0.098180 -0.166588 0.073531 -0.147050 0.088871 -0.199995 0.142462 -0.023620 0.161717 0.191786 0.134985 0.288357 0.115034 -0.045763 -0.118758 0.268665 0.375415 -0.022911 0.349140 0.181392 0.060809 0.094857 0.070288 -0.437952 -0.047604 -0.085783 -0.010709 0.043009 -0.057382 0.005994 -0.094920 -0.083337 -0.043589 0.186717 -0.070858 0.279033 0.132333 0.066464 0.354702 -0.212268 0.029518 0.092736 0.025212 0.137206 0.099020 0.103614 -0.128138 0.006242 0.178320 -0.055726 
32 -0.078322 -0.180598 0.090497 -0.140720 0.098831 -0.230783 0.136175 0.000472 0.161578 0.184406 0.160045 0.281471 0.117357 -0.057691 -0.107081 0.296551 0.393990 -0.036150 0.366901 0.173175 0.059272 0.097121 0.088197 -0.444943 -0.036672 -0.075960 -0.000538 0.049996 -0.056031 0.007162 -0.115322 -0.083766 -0.086469 0.187089 -0.080643 0.285608 0.136085 0.060079 0.360842 -0.248647 0.030719 0.113726 0.004697 0.142722 0.107267 0.114063 -0.119486 0.010821 0.151666 -0.041021 
22 -0.099915 -0.171545 0.051576 -0.147406 0.115486 -0.204811 0.136614 -0.035703 0.143754 0.205780 0.129354 0.312635 0.100294 -0.054994 -0.128034 0.288493 0.377087 -0.029247 0.334610 0.177660 0.060248 0.115742 0.055811 -0.450736 -0.073801 -0.113412 0.001697 0.042091 -0.047446 0.000230 -0.080136 -0.082492 -0.038319 0.196770 -0.069970 0.286233 0.144721 0.069247 0.353928 -0.212594 0.032817 0.104123 0.031976 0.137402 0.100135 0.115204 -0.144123 -0.001529 0.183995 -0.055462 
49 -0.103841 -0.158512 0.070727 -0.136220 0.111862 -0.209350 0.130237 -0.024555 0.157958 0.198576 0.132446 0.305524 0.106663 -0.048381 -0.124724 0.285612 0.379929 -0.040885 0.336073 0.158331 0.041001 0.102201 0.066976 -0.428420 -0.057907 -0.102781 0.002267 0.044297 -0.037628 -0.009168 -0.082407 -0.075911 -0.047539 0.192700 -0.054530 0.270086 0.138375 0.074451 0.343426 -0.217625 0.026331 0.088014 0.022540 0.126766 0.091835 0.109247 -0.124943 0.000620 0.177740 -0.052732 
89 -0.094528 -0.183932 0.086178 -0.151488 0.087688 -0.211287 0.123573 -0.007853 0.169807 0.183115 0.145653 0.271230 0.108887 -0.052008 -0.122825 0.299643 0.402493 -0.028124 0.361796 0.172329 0.046362 0.093083 0.063083 -0.436739 -0.052226 -0.070785 -0.009014 0.046248 -0.064098 0.011303 -0.103765 -0.070464 -0.074811 0.188117 -0.063654 0.296961 0.129234 0.051597 0.358005 -0.245456 0.037978 0.104532 0.018976 0.146698 0.101751 0.104831 -0.126769 0.020134 0.156826 -0.047410 
59 -0.118614 -0.148569 0.045818 -0.132362 0.114853 -0.195183 0.138781 -0.036595 0.137267 0.216044 0.119402 0.312672 0.110330 -0.054611 -0.133432 0.286198 0.388225 -0.034782 0.326857 0.163773 0.047326 0.102492 0.054688 -0.441700 -0.067520 -0.109588 -0.000709 0.035676 -0.046607 -0.006934 -0.077386 -0.065572 -0.035261 0.178290 -0.053551 0.276529 0.147291 0.076595 0.340747 -0.214100 0.025403 0.088692 0.034413 0.115681 0.094425 0.093705 -0.138217 0.004077 0.159608 -0.055718 
4 -0.090393 -0.179191 0.071673 -0.148202 0.091552 -0.219029 0.113302 -0.014327 0.164719 0.181726 0.149277 0.278071 0.120089 -0.047003 -0.108210 0.273254 0.385374 -0.022974 0.345293 0.150327 0.040053 0.102704 0.068951 -0.422469 -0.051942 -0.072842 0.005393 0.058860 -0.061580 0.010914 -0.105754 -0.079991 -0.060492 0.182647 -0.078174 0.271956 0.129324 0.050574 0.351097 -0.225154 0.031068 0.096358 0.003753 0.144594 0.090354 0.100809 -0.127830 0.007728 0.151422 -0.050467 
94 -0.105236 -0.171951 0.057616 -0.142240 0.105997 -0.191817 0.135074 -0.035536 0.145375 0.206445 0.130860 0.289406 0.108390 -0.055129 -0.114127 0.267810 0.360830 -0.029906 0.331227 0.162726 0.050785 0.103366 0.039175 -0.427500 -0.076733 -0.100049 0.009968 0.041475 -0.056531 0.003364 -0.090922 -0.078884 -0.057083 0.175168 -0.053347 0.280215 0.133719 0.067825 0.345580 -0.202316 0.021084 0.093831 0.024189 0.117963 0.100570 0.113591 -0.141538 0.000263 0.161021 -0.044707 
39 -0.110925 -0.158994 0.057185 -0.141930 0.094789 -0.195465 0.146003 -0.028733 0.138483 0.212616 0.135122 0.296571 0.116551 -0.046271 -0.120981 0.279707 0.382251 -0.032783 0.335519 0.167236 0.056578 0.100497 0.045054 -0.437735 -0.074615 -0.114826 -0.002919 0.040757 -0.042009 -0.003138 -0.092850 -0.086577 -0.055090 0.181344 -0.067385 0.280680 0.151142 0.066856 0.359140 -0.219922 0.033772 0.095716 0.028573 0.132642 0.097238 0.123246 -0.141132 0.004267 0.184555 -0.063596 
35 -0.083536 -0.178133 0.072873 -0.160004 0.085305 -0.224575 0.123856 -0.017853 0.164272 0.185987 0.152879 0.279435 0.107358 -0.057292 -0.121034 0.294586 0.392785 -0.022652 0.364494 0.161266 0.046655 0.107908 0.072864 -0.437097 -0.036637 -0.070922 0.010253 0.057728 -0.057018 0.017584 -0.093348 -0.077771 -0.077290 0.180739 -0.084477 0.282209 0.138675 0.042800 0.336616 -0.237537 0.022743 0.102452 0.000235 0.135323 0.103847 0.114484 -0.117541 0.013873 0.142875 -0.038426 
36 -0.108823 -0.165284 0.059732 -0.153383 0.099124 -0.205697 0.140292 -0.036762 0.141860 0.212273 0.134166 0.290116 0.109309 -0.038113 -0.110827 0.272894 0.385071 -0.031090 0.349032 0.183554 0.050318 0.103489 0.053568 -0.446084 -0.072268 -0.106411 0.006558 0.048113 -0.036240 -0.001312 -0.092857 -0.070290 -0.040095 0.179359 -0.066760 0.275808 0.154494 0.074625 0.349886 -0.214750 0.019428 0.081551 0.017978 0.127188 0.092252 0.113858 -0.140615 0.001258 0.173082 -0.051541 
25 -0.094981 -0.180534 0.063115 -0.140113 0.094268 -0.201008 0.130799 -0.033556 0.143653 0.192154 0.141865 0.287011 0.107352 -0.042820 -0.114462 0.277036 0.384286 -0.040080 0.354593 0.180253 0.062613 0.091014 0.063149 -0.446109 -0.059862 -0.105242 -0.001622 0.053876 -0.060867 0.005824 -0.101369 -0.082617 -0.064571 0.188036 -0.069384 0.285370 0.150605 0.062076 0.348536 -0.232681 0.023992 0.087515 0.024422 0.138253 0.100357 0.112474 -0.143430 0.008662 0.170667 -0.045621 
60 -0.062645 -0.191251 0.083893 -0.141049 0.085293 -0.231229 0.126266 0.000792 0.175332 0.160181 0.167310 0.263535 0.106637 -0.041243 -0.116549 0.300537 0.395915 -0.034265 0.368333 0.160338 0.036257 0.089528 0.089176 -0.426982 -0.022468 -0.044647 0.002351 0.064165 -0.083089 0.021651 -0.105760 -0.083147 -0.079918 0.187779 -0.080424 0.287309 0.115412 0.035723 0.336413 -0.255907 0.042986 0.121214 -0.000848 0.153879 0.092947 0.110244 -0.113534 0.026494 0.142194 -0.030701 
44 -0.084784 -0.172164 0.079198 -0.143576 0.089092 -0.226105 0.119052 -0.022473 0.155157 0.181537 0.147264 0.288638 0.101020 -0.041549 -0.111703 0.293179 0.401226 -0.027210 0.353948 0.164478 0.058076 0.096911 0.074620 -0.424320 -0.046787 -0.085063 -0.003469 0.052872 -0.058240 0.004406 -0.113333 -0.080022 -0.078797 0.189546 -0.073552 0.286914 0.142156 0.062046 0.335591 -0.226086 0.029646 0.093280 0.011940 0.145642 0.096863 0.114170 -0.115164 0.023280 0.146573 -0.046560 
8 -0.116419 -0.179794 0.064809 -0.151716 0.108245 -0.213490 0.139979 -0.038959 0.151073 0.217520 0.135009 0.312756 0.115086 -0.059009 -0.124438 0.280976 0.406026 -0.026169 0.359215 0.173530 0.052753 0.117067 0.067890 -0.452472 -0.063337 -0.098354 0.009526 0.057155 -0.042333 -0.001298 -0.086057 -0.067432 -0.052080 0.192891 -0.080475 0.296261 0.144178 0.072114 0.360489 -0.218194 0.031761 0.101355 0.020749 0.132689 0.114775 0.113521 -0.145012 0.012315 0.167690 -0.064471 
91 -0.111387 -0.153420 0.059863 -0.141369 0.097587 -0.199526 0.135825 -0.034817 0.138990 0.199578 0.127331 0.292307 0.096125 -0.048479 -0.117477 0.267423 0.385554 -0.039353 0.347282 0.178800 0.046871 0.103922 0.058420 -0.434275 -0.070250 -0.101496 0.001722 0.042251 -0.046593 -0.010403 -0.081108 -0.082592 -0.037099 0.193045 -0.067263 0.289190 0.135039 0.067990 0.342607 -0.212369 0.034945 0.082596 0.018701 0.131378 0.101919 0.108407 -0.126416 -0.001676 0.172208 -0.051922 
