101 50
</s> 0.008005 0.008839 -0.007661 -0.006556 0.002733 0.006042 0.001882 0.000423 -0.007207 0.004437 -0.008713 0.002499 -0.001503 -0.001914 -0.006631 -0.003764 0.005159 0.006051 0.005938 0.003195 0.003090 -0.007605 -0.008192 0.009939 0.007603 0.006180 -0.001208 0.008031 -0.000990 0.001469 -0.000298 -0.005966 0.002625 -0.002675 -0.007651 0.009508 0.008759 -0.002190 -0.000452 0.001018 -0.007275 -0.008014 0.009109 0.000126 -0.005165 -0.006084 -0.006153 0.003394 0.000403 0.002662 
58 -0.104757 -0.364738 0.127998 -0.264959 0.240233 -0.151129 0.168720 -0.103780 -0.015517 0.003884 0.012966 -0.095497 0.115824 -0.200718 -0.249629 0.301666 0.290041 -0.280286 0.380428 0.292407 0.074204 -0.056957 0.033198 -0.400534 -0.153190 -0.020972 -0.177058 0.251264 -0.155561 0.139711 -0.138130 -0.223490 0.021873 0.268769 -0.007573 0.335050 0.241391 -0.060456 0.432696 -0.125530 0.095541 0.276395 -0.014806 0.246205 -0.041830 0.314612 -0.187578 0.276168 0.149062 0.193679 
14 -0.075743 -0.368067 0.138974 -0.278744 0.225506 -0.145765 0.140941 -0.105395 -0.028095 0.005622 0.016723 -0.077487 0.120288 -0.196199 -0.241452 0.314740 0.300655 -0.279379 0.389289 0.295618 0.071808 -0.060589 0.057402 -0.416840 -0.154329 -0.041974 -0.159565 0.220800 -0.161791 0.147678 -0.123940 -0.204018 -0.020676 0.233579 -0.030348 0.323092 0.220028 -0.077226 0.417480 -0.137344 0.101250 0.276200 -0.017399 0.255958 -0.054252 0.322408 -0.184426 0.252223 0.176749 0.169492 
8 -0.090976 -0.342700 0.131921 -0.279551 0.225310 -0.143480 0.148686 -0.100855 -0.037184 0.017504 0.010005 -0.066772 0.133053 -0.199229 -0.236806 0.314432 0.311199 -0.259796 0.390764 0.294160 0.081825 -0.073711 0.049547 -0.422158 -0.153186 -0.037675 -0.159806 0.204655 -0.154157 0.141464 -0.121072 -0.197000 -0.014453 0.236280 -0.017411 0.325000 0.222742 -0.064507 0.427254 -0.128961 0.093249 0.278416 -0.021030 0.244917 -0.043013 0.315797 -0.184435 0.256636 0.166273 0.162091 
10 -0.122821 -0.375831 0.137810 -0.263219 0.230257 -0.125738 0.157607 -0.137688 -0.011593 -0.001152 -0.006625 -0.128735 0.106718 -0.219142 -0.259267 0.300341 0.282338 -0.262696 0.392150 0.293406 0.048036 -0.054838 0.046217 -0.377644 -0.150262 -0.018207 -0.171206 0.249122 -0.173953 0.141446 -0.130112 -0.222976 0.013569 0.269586 -0.005202 0.327403 0.230825 -0.071783 0.414540 -0.125744 0.094859 0.278611 0.001261 0.231194 -0.047529 0.307565 -0.185972 0.294099 0.132389 0.193781 
72 -0.165032 -0.476972 0.156823 -0.321973 0.310927 -0.144794 0.195140 -0.198369 0.019350 -0.033737 -0.043567 -0.207662 0.105400 -0.286213 -0.329910 0.353472 0.322946 -0.349051 0.493837 0.353997 0.028118 -0.069357 0.042289 -0.478924 -0.166168 -0.047572 -0.253184 0.362466 -0.215246 0.151834 -0.174688 -0.283746 0.063857 0.378171 0.033284 0.420354 0.306112 -0.077789 0.522196 -0.150571 0.104033 0.354128 0.017670 0.266278 -0.063971 0.367343 -0.244232 0.384174 0.132461 0.289719 
55 -0.098664 -0.379158 0.142009 -0.295655 0.254045 -0.151756 0.162973 -0.116865 -0.024751 0.022800 0.014271 -0.061270 0.134785 -0.218660 -0.264974 0.342241 0.333677 -0.293236 0.423280 0.307759 0.074789 -0.066085 0.060853 -0.455387 -0.168443 -0.039705 -0.164808 0.232994 -0.160740 0.152672 -0.134006 -0.213537 -0.020597 0.266423 -0.023952 0.358335 0.234860 -0.071388 0.464537 -0.142620 0.116122 0.297677 -0.032138 0.280501 -0.041414 0.334377 -0.195252 0.273963 0.192671 0.173007 
91 0.251004 -0.081587 0.093497 -0.307425 0.023875 -0.272379 0.030221 0.298680 -0.237554 0.284929 0.347394 0.602649 0.358579 0.084201 0.025231 0.359046 0.543964 -0.071656 0.196788 0.211471 0.391336 -0.078775 0.209447 -0.501229 -0.229632 -0.021421 0.182158 -0.346066 -0.034349 0.218181 0.103400 0.100055 -0.373651 -0.196394 -0.245528 0.084205 -0.056897 -0.124203 0.212764 -0.137364 0.152046 0.071960 -0.188101 0.299614 0.045126 0.194612 0.003117 -0.223191 0.443536 -0.318248 
79 0.284497 -0.043165 0.086470 -0.301614 0.009859 -0.281497 0.013053 0.347349 -0.264829 0.331557 0.395237 0.688945 0.385558 0.118901 0.043436 0.371186 0.570871 -0.046769 0.196547 0.213549 0.420526 -0.075912 0.241884 -0.504893 -0.229344 -0.031121 0.221004 -0.401544 -0.005383 0.227066 0.120183 0.117928 -0.416656 -0.230131 -0.284972 0.050275 -0.079785 -0.130326 0.208308 -0.138033 0.158131 0.061496 -0.205366 0.310048 0.052933 0.179218 0.030634 -0.280563 0.494898 -0.357873 
87 -0.131611 -0.418166 0.147776 -0.298241 0.266227 -0.144873 0.180223 -0.140282 0.002249 -0.016582 -0.024494 -0.148281 0.114889 -0.237439 -0.300170 0.324262 0.309362 -0.307536 0.444653 0.333349 0.049107 -0.086234 0.048547 -0.427378 -0.167055 -0.029106 -0.220645 0.291086 -0.175135 0.154525 -0.151371 -0.244418 0.023409 0.300494 0.006987 0.383975 0.267688 -0.064844 0.475762 -0.132969 0.102226 0.314854 0.000517 0.255667 -0.057610 0.341125 -0.209667 0.331372 0.141080 0.230694 
85 0.186725 -0.069752 0.077940 -0.251521 0.053126 -0.216048 0.037240 0.229786 -0.194377 0.231399 0.277051 0.474247 0.281210 0.039804 -0.007374 0.303689 0.458947 -0.078345 0.182128 0.192713 0.311110 -0.074199 0.179853 -0.422854 -0.186513 -0.012191 0.125454 -0.253328 -0.035793 0.191069 0.074237 0.058709 -0.287782 -0.127513 -0.205919 0.074125 -0.017575 -0.095386 0.201110 -0.120019 0.132819 0.078187 -0.137523 0.255541 0.030013 0.173967 -0.007182 -0.155474 0.340625 -0.233853 
68 -0.124538 -0.390313 0.137365 -0.278557 0.253059 -0.139941 0.169315 -0.141652 -0.011541 -0.005475 -0.029333 -0.136069 0.098093 -0.219017 -0.272873 0.297483 0.285873 -0.285871 0.411358 0.301243 0.055938 -0.061831 0.049246 -0.402745 -0.150187 -0.032859 -0.187264 0.281727 -0.178765 0.135295 -0.141466 -0.232165 0.033710 0.297332 0.008389 0.351502 0.237933 -0.062724 0.443165 -0.114357 0.098762 0.292946 -0.008073 0.230624 -0.044592 0.320356 -0.200072 0.293249 0.132630 0.201468 
56 0.250070 -0.057565 0.086626 -0.283738 0.008815 -0.246146 0.019667 0.282416 -0.227311 0.292173 0.334604 0.596210 0.326810 0.099216 0.028810 0.327372 0.517446 -0.049791 0.169172 0.196471 0.373174 -0.076863 0.210284 -0.459814 -0.205733 -0.015400 0.178226 -0.338098 -0.024212 0.207499 0.110888 0.111135 -0.366077 -0.193149 -0.235292 0.064264 -0.055061 -0.111727 0.206902 -0.130482 0.141524 0.071077 -0.190439 0.277860 0.039153 0.187889 0.004482 -0.225516 0.433054 -0.307761 
81 -0.113258 -0.410100 0.153986 -0.312424 0.268066 -0.148571 0.187268 -0.131302 -0.012207 -0.003432 -0.016263 -0.126557 0.117177 -0.244741 -0.287747 0.345761 0.335500 -0.318568 0.437162 0.340836 0.069224 -0.065434 0.047602 -0.459407 -0.174781 -0.031897 -0.205120 0.284877 -0.181437 0.156681 -0.154683 -0.247339 0.024730 0.306328 -0.001687 0.370469 0.272756 -0.072731 0.485118 -0.134476 0.115539 0.322897 -0.011295 0.261307 -0.062176 0.354852 -0.212599 0.322206 0.156558 0.228053 
71 0.237404 -0.067527 0.093120 -0.285438 0.033410 -0.242314 0.031278 0.258864 -0.217927 0.277948 0.335314 0.551916 0.335171 0.073733 0.009477 0.335806 0.519657 -0.078913 0.198531 0.196769 0.372221 -0.069362 0.215388 -0.457563 -0.225036 -0.014898 0.166480 -0.309356 -0.021086 0.214192 0.076234 0.088865 -0.338318 -0.162140 -0.237930 0.082378 -0.043827 -0.121169 0.198311 -0.115572 0.143081 0.082152 -0.169590 0.263273 0.039461 0.191125 0.014956 -0.181195 0.385795 -0.283747 
98 -0.158405 -0.465218 0.155374 -0.337153 0.307831 -0.160613 0.199096 -0.183224 0.003605 -0.022597 -0.037277 -0.170330 0.129299 -0.276256 -0.326164 0.352963 0.326533 -0.353252 0.489496 0.362212 0.047780 -0.075103 0.039611 -0.500536 -0.186641 -0.041441 -0.240830 0.328401 -0.201345 0.148684 -0.178754 -0.274271 0.056268 0.344925 0.014404 0.422022 0.305444 -0.061429 0.532987 -0.153945 0.106784 0.357988 0.020051 0.280511 -0.061865 0.369614 -0.255341 0.383537 0.140054 0.282508 
49 0.245634 -0.059947 0.098108 -0.289232 0.032704 -0.257504 0.033234 0.263747 -0.214059 0.281364 0.322986 0.562611 0.337561 0.087400 0.014199 0.324118 0.510666 -0.071663 0.190958 0.200721 0.350468 -0.083691 0.194109 -0.457438 -0.216260 -0.026099 0.167975 -0.324323 -0.018208 0.219224 0.088589 0.088595 -0.352266 -0.185236 -0.228612 0.078095 -0.036930 -0.125683 0.209550 -0.120835 0.141623 0.076122 -0.182815 0.273735 0.046833 0.172246 0.008368 -0.210309 0.422071 -0.287154 
62 -0.123794 -0.438649 0.151695 -0.319792 0.271384 -0.141019 0.192084 -0.164957 0.002349 -0.017405 -0.028570 -0.154643 0.104550 -0.263137 -0.289520 0.330885 0.300105 -0.315191 0.448763 0.338569 0.054147 -0.083357 0.049917 -0.460567 -0.171755 -0.040432 -0.213239 0.313537 -0.196164 0.155273 -0.165180 -0.262069 0.042372 0.329712 -0.000332 0.387922 0.276286 -0.063922 0.490189 -0.145368 0.106122 0.313535 0.011173 0.265699 -0.056311 0.354518 -0.216712 0.355962 0.151352 0.249816 
69 -0.071902 -0.366013 0.150275 -0.299332 0.233449 -0.158912 0.157111 -0.090564 -0.029947 0.036408 0.036071 -0.034532 0.152348 -0.209485 -0.253384 0.333791 0.338099 -0.280420 0.400533 0.305039 0.090184 -0.065580 0.077445 -0.452737 -0.163136 -0.038859 -0.143849 0.204513 -0.162985 0.149821 -0.117810 -0.201848 -0.015986 0.244876 -0.031003 0.322265 0.218456 -0.076593 0.432556 -0.142530 0.111054 0.272464 -0.031681 0.265610 -0.052111 0.322838 -0.178416 0.258175 0.183723 0.149065 
38 -0.192156 -0.507479 0.160567 -0.329046 0.332414 -0.142254 0.218668 -0.218322 0.019198 -0.043081 -0.086438 -0.256924 0.099714 -0.314384 -0.344182 0.364826 0.310601 -0.368272 0.497323 0.372635 0.015000 -0.091476 0.021470 -0.478730 -0.168166 -0.028492 -0.268726 0.392971 -0.216531 0.149245 -0.196794 -0.314976 0.087708 0.406405 0.045681 0.452552 0.326075 -0.052026 0.548162 -0.139081 0.106405 0.380991 0.026441 0.291608 -0.069915 0.396101 -0.277916 0.440497 0.135153 0.322876 
33 -0.096627 -0.326029 0.112884 -0.255765 0.217891 -0.123469 0.141454 -0.090568 -0.026682 0.010396 0.001453 -0.067957 0.121818 -0.188594 -0.230663 0.288369 0.301156 -0.246569 0.361727 0.283886 0.074124 -0.071950 0.043914 -0.404510 -0.161101 -0.025721 -0.152061 0.208782 -0.151370 0.137886 -0.104584 -0.188934 -0.020191 0.236120 -0.014361 0.311161 0.208301 -0.060176 0.406888 -0.111215 0.090068 0.256314 -0.010337 0.232662 -0.045064 0.306941 -0.179919 0.250161 0.163966 0.162742 
39 0.256317 -0.080792 0.100066 -0.305036 0.024676 -0.267628 0.029582 0.301208 -0.247663 0.306931 0.361109 0.608454 0.370591 0.084742 0.005427 0.359828 0.559596 -0.074580 0.210561 0.217356 0.401524 -0.094853 0.225411 -0.500166 -0.242657 -0.014002 0.174054 -0.342702 -0.038523 0.218028 0.102523 0.096269 -0.382603 -0.186033 -0.237168 0.080144 -0.057878 -0.131015 0.231736 -0.142597 0.159100 0.082227 -0.169931 0.294699 0.031175 0.203009 -0.001726 -0.220000 0.458022 -0.297457 
51 0.164721 -0.096207 0.085303 -0.243729 0.050080 -0.211079 0.055945 0.211631 -0.193451 0.229594 0.259843 0.447850 0.289917 0.040579 0.002269 0.299928 0.438791 -0.096203 0.187061 0.208492 0.301869 -0.079914 0.177531 -0.422159 -0.197284 -0.009372 0.118650 -0.232771 -0.047366 0.181688 0.076387 0.046364 -0.288341 -0.116143 -0.186953 0.094580 -0.013451 -0.101263 0.211965 -0.112649 0.139834 0.085858 -0.157959 0.256677 0.009994 0.182388 -0.026297 -0.149882 0.370538 -0.223256 
94 -0.113558 -0.393724 0.139560 -0.291193 0.250249 -0.129886 0.169910 -0.124779 -0.008417 -0.003253 -0.010521 -0.117874 0.117695 -0.231716 -0.276668 0.325852 0.300883 -0.300804 0.415494 0.311417 0.055529 -0.076670 0.040031 -0.427032 -0.164668 -0.030597 -0.190420 0.274098 -0.184154 0.139766 -0.147548 -0.230585 0.022091 0.290261 -0.000828 0.360825 0.257589 -0.077784 0.464303 -0.130177 0.113322 0.311306 0.001152 0.263838 -0.055283 0.339642 -0.213316 0.316381 0.163030 0.218484 
28 0.138940 -0.113495 0.089928 -0.240047 0.059686 -0.197836 0.048748 0.151481 -0.163043 0.201056 0.225650 0.383370 0.263214 0.014352 -0.032496 0.284193 0.410815 -0.108397 0.210777 0.193258 0.252610 -0.072337 0.146881 -0.404314 -0.164183 -0.026280 0.080261 -0.163033 -0.050559 0.175603 0.043611 0.019361 -0.227278 -0.068059 -0.148509 0.115528 0.004595 -0.098167 0.223372 -0.099257 0.122798 0.105433 -0.116730 0.224032 0.015735 0.180371 -0.037031 -0.089498 0.316955 -0.155592 
25 -0.127116 -0.457767 0.158257 -0.309479 0.292827 -0.158334 0.181922 -0.160167 0.000942 -0.010458 -0.019605 -0.155471 0.131365 -0.252683 -0.297962 0.337901 0.320556 -0.330626 0.457945 0.340430 0.066000 -0.066284 0.041506 -0.462182 -0.158280 -0.038559 -0.213796 0.305120 -0.187067 0.162200 -0.153782 -0.251948 0.037716 0.307607 0.000461 0.381300 0.275608 -0.071096 0.500255 -0.140227 0.108492 0.338565 0.005984 0.282164 -0.050708 0.365546 -0.211761 0.345387 0.174743 0.247783 
82 -0.099652 -0.379028 0.137533 -0.293708 0.250113 -0.132785 0.149921 -0.124034 -0.029164 0.001050 -0.003653 -0.089163 0.119076 -0.215846 -0.259104 0.316157 0.302552 -0.283024 0.389104 0.313004 0.064494 -0.073850 0.058283 -0.424503 -0.163231 -0.034035 -0.175250 0.236102 -0.174127 0.139019 -0.128231 -0.211587 -0.000576 0.268297 -0.003876 0.336059 0.222844 -0.068782 0.435664 -0.133280 0.110742 0.278701 0.000657 0.239694 -0.048770 0.305423 -0.191366 0.291276 0.141822 0.177418 
53 -0.131885 -0.447193 0.168226 -0.345124 0.302142 -0.166813 0.193043 -0.146907 -0.012892 0.004097 -0.007802 -0.127697 0.142827 -0.266029 -0.309509 0.362228 0.344617 -0.323225 0.473437 0.349200 0.082162 -0.074142 0.060409 -0.479344 -0.172124 -0.029147 -0.206564 0.301235 -0.201789 0.171417 -0.166848 -0.252038 0.025387 0.330486 -0.003347 0.398354 0.274983 -0.067619 0.511949 -0.155117 0.108773 0.344298 0.007427 0.269854 -0.053525 0.369982 -0.218891 0.330424 0.175667 0.233243 
21 -0.046865 -0.302141 0.121973 -0.261806 0.192255 -0.147427 0.117004 -0.044386 -0.049081 0.035897 0.039196 0.005554 0.130398 -0.161862 -0.196553 0.287741 0.297051 -0.213831 0.335621 0.252357 0.109025 -0.055185 0.068635 -0.392929 -0.160713 -0.017451 -0.112433 0.135437 -0.132341 0.146169 -0.088852 -0.149568 -0.056153 0.187838 -0.052421 0.266084 0.185060 -0.061998 0.366974 -0.126377 0.104485 0.235003 -0.041624 0.237108 -0.041261 0.284732 -0.153399 0.184735 0.193156 0.098932 
7 0.290069 -0.074028 0.101729 -0.354985 0.016675 -0.311407 0.048178 0.354882 -0.287212 0.351597 0.421362 0.711452 0.424063 0.110575 0.027171 0.404904 0.617661 -0.078391 0.223371 0.231038 0.443300 -0.084939 0.239939 -0.553445 -0.269922 -0.010786 0.212738 -0.398285 -0.029144 0.250874 0.124337 0.108996 -0.438854 -0.235128 -0.287468 0.078856 -0.069856 -0.145209 0.242360 -0.146063 0.185011 0.073350 -0.211651 0.339458 0.052282 0.223802 0.017686 -0.256653 0.496577 -0.369054 
23 -0.116776 -0.410122 0.153675 -0.317513 0.269457 -0.164684 0.169097 -0.125709 -0.016596 0.008327 -0.008611 -0.100250 0.133013 -0.229079 -0.288634 0.347110 0.333653 -0.299631 0.438687 0.336277 0.070981 -0.080318 0.046256 -0.471138 -0.173649 -0.033634 -0.191920 0.268889 -0.174660 0.165984 -0.146963 -0.231154 0.014537 0.296717 -0.011274 0.362359 0.256252 -0.064745 0.480973 -0.141217 0.107655 0.315689 -0.005433 0.265214 -0.053991 0.346127 -0.214743 0.305987 0.159531 0.221722 
57 0.208377 -0.072634 0.098869 -0.287024 0.049928 -0.249592 0.034887 0.235828 -0.199843 0.247714 0.304993 0.518622 0.312386 0.050146 -0.000446 0.340528 0.502498 -0.091420 0.195701 0.201669 0.338170 -0.090607 0.196880 -0.471235 -0.212192 -0.019968 0.143222 -0.271181 -0.043040 0.207686 0.085882 0.063325 -0.312545 -0.144178 -0.217075 0.092533 -0.027224 -0.107771 0.247714 -0.127032 0.137345 0.098250 -0.166207 0.295112 0.025455 0.204117 -0.027291 -0.173719 0.408438 -0.246545 
75 -0.157693 -0.427157 0.137502 -0.300716 0.278117 -0.131293 0.186226 -0.166608 0.013390 -0.021418 -0.040033 -0.181830 0.099371 -0.263225 -0.299943 0.314194 0.287277 -0.314160 0.455128 0.324328 0.039024 -0.077520 0.031518 -0.438581 -0.143540 -0.040407 -0.226743 0.328086 -0.187694 0.149190 -0.161126 -0.268497 0.061056 0.340921 0.014308 0.391960 0.282190 -0.061342 0.489530 -0.131107 0.101868 0.331559 0.014997 0.241822 -0.056616 0.344030 -0.224676 0.343750 0.122488 0.249231 
0 0.236551 -0.066420 0.097160 -0.293610 0.023882 -0.249688 0.042032 0.288400 -0.232145 0.285884 0.342129 0.566477 0.340258 0.089302 0.024696 0.332395 0.497766 -0.070361 0.179964 0.206804 0.359844 -0.076388 0.206938 -0.448799 -0.221151 -0.009467 0.178936 -0.315480 -0.028297 0.207515 0.091172 0.086658 -0.359797 -0.175660 -0.234367 0.060598 -0.047450 -0.127228 0.198884 -0.121501 0.144657 0.067577 -0.180930 0.277883 0.032048 0.183178 0.012038 -0.219533 0.414015 -0.301032 
78 0.272635 -0.059986 0.100860 -0.314263 0.019814 -0.287030 0.033729 0.322459 -0.248008 0.325414 0.378324 0.657879 0.377042 0.091581 0.032746 0.382825 0.584780 -0.067978 0.208927 0.223417 0.411987 -0.079042 0.237856 -0.534554 -0.254002 -0.026191 0.193898 -0.371357 -0.024477 0.237101 0.099660 0.101923 -0.403423 -0.207034 -0.272686 0.072681 -0.060024 -0.128144 0.226532 -0.146630 0.174387 0.085602 -0.199711 0.320074 0.035876 0.201714 0.013966 -0.234484 0.458997 -0.330905 
3 0.237581 -0.069798 0.090241 -0.278440 0.030414 -0.258644 0.045896 0.285770 -0.217393 0.273390 0.345983 0.580684 0.344392 0.083052 0.006072 0.338986 0.517694 -0.077340 0.193769 0.193144 0.359077 -0.092261 0.191397 -0.462346 -0.211468 -0.027388 0.172392 -0.333172 -0.019971 0.229551 0.093025 0.093854 -0.339872 -0.189065 -0.242282 0.073006 -0.052894 -0.120025 0.206223 -0.123609 0.139540 0.069771 -0.187419 0.293958 0.030972 0.175489 0.008480 -0.220899 0.415979 -0.295801 
96 0.224449 -0.062977 0.078942 -0.274496 0.018473 -0.227861 0.037166 0.277104 -0.210497 0.276224 0.336330 0.564548 0.322308 0.081491 0.026337 0.322958 0.500347 -0.048494 0.174114 0.187537 0.349663 -0.072180 0.207064 -0.458124 -0.215109 -0.011715 0.180301 -0.317058 -0.021002 0.199204 0.103798 0.097869 -0.350727 -0.170820 -0.226831 0.069257 -0.044005 -0.123379 0.199554 -0.130047 0.151525 0.069524 -0.171830 0.281576 0.038939 0.168483 0.010946 -0.221960 0.416973 -0.303264 
67 0.236452 -0.078866 0.088887 -0.317245 0.025488 -0.271405 0.035289 0.284578 -0.221178 0.283372 0.338820 0.601862 0.351211 0.086418 0.012440 0.356291 0.542415 -0.076072 0.190525 0.210022 0.380245 -0.084493 0.203819 -0.499719 -0.219958 -0.009774 0.169917 -0.323417 -0.032109 0.221951 0.102105 0.085160 -0.370747 -0.185289 -0.235806 0.074359 -0.035091 -0.121548 0.236805 -0.145784 0.154903 0.077659 -0.188679 0.305832 0.026461 0.213240 0.007426 -0.217161 0.443793 -0.304852 
73 0.275104 -0.054975 0.087016 -0.315724 0.018642 -0.264674 0.034205 0.312189 -0.244611 0.313002 0.378854 0.654317 0.370911 0.101663 0.026648 0.353691 0.563934 -0.048282 0.183072 0.196987 0.403690 -0.079802 0.231370 -0.493296 -0.232213 -0.023092 0.200204 -0.380368 -0.013371 0.231394 0.108980 0.113340 -0.405819 -0.227192 -0.272341 0.074851 -0.073044 -0.126416 0.215669 -0.142886 0.152599 0.079684 -0.200516 0.304827 0.041785 0.205409 0.012686 -0.255141 0.489939 -0.344671 
50 -0.104624 -0.413031 0.154798 -0.312568 0.264609 -0.172898 0.168145 -0.120981 -0.015461 0.004027 -0.000405 -0.090701 0.144537 -0.230525 -0.272510 0.337660 0.320193 -0.308351 0.436245 0.329075 0.079133 -0.075023 0.064697 -0.468542 -0.186486 -0.038396 -0.166547 0.249243 -0.180429 0.162408 -0.151353 -0.238617 0.009916 0.275523 -0.019622 0.364297 0.253443 -0.063389 0.471323 -0.135894 0.099075 0.299319 -0.013787 0.264766 -0.060901 0.333567 -0.208569 0.305853 0.171187 0.194956 
86 -0.152099 -0.458462 0.167068 -0.337781 0.294308 -0.159775 0.198195 -0.169971 0.009672 -0.010377 -0.023865 -0.170556 0.113966 -0.279614 -0.330744 0.352536 0.340500 -0.338796 0.494686 0.356170 0.066981 -0.075956 0.060750 -0.493884 -0.169729 -0.046690 -0.218112 0.316628 -0.195661 0.163905 -0.176040 -0.279089 0.033135 0.353716 -0.012627 0.424515 0.285278 -0.085787 0.534331 -0.166209 0.123285 0.366740 0.002885 0.283658 -0.065504 0.388585 -0.236812 0.367820 0.192181 0.241717 
42 0.255745 -0.023435 0.095277 -0.284579 -0.002241 -0.266088 0.036221 0.320646 -0.253356 0.288318 0.359630 0.601307 0.355219 0.094311 0.040990 0.357132 0.548302 -0.069567 0.191350 0.212405 0.398455 -0.075824 0.226164 -0.470366 -0.236175 -0.015379 0.207437 -0.377833 -0.032810 0.214340 0.114225 0.106898 -0.393806 -0.221113 -0.267143 0.040808 -0.079207 -0.124217 0.205700 -0.135356 0.166366 0.066242 -0.194369 0.299810 0.040513 0.180133 0.012972 -0.244134 0.441322 -0.332366 
88 -0.092220 -0.363138 0.119356 -0.278221 0.229028 -0.129778 0.150855 -0.093070 -0.031759 0.017438 0.007292 -0.075305 0.103408 -0.186894 -0.224205 0.288132 0.283637 -0.250898 0.369414 0.282310 0.081523 -0.060081 0.052194 -0.404514 -0.152704 -0.028208 -0.161033 0.209748 -0.158519 0.128923 -0.105242 -0.199166 0.002824 0.242798 -0.010969 0.313044 0.219680 -0.064278 0.400653 -0.115469 0.088908 0.261905 -0.013647 0.222066 -0.056709 0.307754 -0.176206 0.262136 0.143809 0.177282 
4 0.268837 -0.018040 0.070758 -0.272493 -0.012704 -0.249126 0.011382 0.328091 -0.239876 0.297572 0.353248 0.636821 0.347194 0.115152 0.055548 0.325417 0.513225 -0.038737 0.160031 0.180950 0.387084 -0.070583 0.219081 -0.441179 -0.218712 -0.013855 0.220811 -0.380637 -0.005385 0.216028 0.121554 0.126592 -0.396582 -0.239201 -0.262257 0.028862 -0.091661 -0.122974 0.171839 -0.136905 0.141025 0.042809 -0.184272 0.275248 0.041709 0.168687 0.033990 -0.264813 0.450803 -0.346021 
27 0.184601 -0.069095 0.088095 -0.273898 0.041547 -0.223384 0.047009 0.223239 -0.189763 0.239273 0.286754 0.484396 0.287324 0.054417 -0.009861 0.315919 0.462739 -0.073581 0.182279 0.197746 0.316460 -0.085147 0.172879 -0.440709 -0.191097 -0.018044 0.143244 -0.260710 -0.035514 0.195317 0.076048 0.065902 -0.306480 -0.144282 -0.191764 0.082371 -0.028211 -0.101748 0.219335 -0.112862 0.125288 0.087726 -0.152082 0.257180 0.031039 0.174673 -0.004659 -0.163452 0.373584 -0.240199 
93 -0.112799 -0.403205 0.134578 -0.271507 0.247398 -0.145990 0.153417 -0.138394 0.001537 -0.002550 -0.005201 -0.111065 0.103935 -0.221241 -0.261192 0.317401 0.307292 -0.291564 0.418727 0.307118 0.053730 -0.058648 0.044157 -0.434453 -0.146514 -0.029472 -0.189556 0.264673 -0.182675 0.135609 -0.140740 -0.226532 0.007588 0.290599 -0.000454 0.364567 0.246349 -0.072680 0.451862 -0.127175 0.108323 0.310229 -0.017770 0.254926 -0.065836 0.343334 -0.209897 0.300746 0.166657 0.208283 
80 0.249934 -0.075215 0.097655 -0.315800 0.028890 -0.281020 0.049980 0.297240 -0.251963 0.304340 0.355868 0.597908 0.360198 0.086460 0.030218 0.357573 0.551319 -0.083974 0.198075 0.222385 0.383799 -0.086334 0.220423 -0.495787 -0.235600 -0.013299 0.184643 -0.345526 -0.031972 0.238734 0.109235 0.086027 -0.378296 -0.192194 -0.260500 0.088444 -0.049726 -0.129153 0.226760 -0.148241 0.167212 0.067644 -0.191699 0.310935 0.026749 0.202609 -0.005433 -0.229454 0.453374 -0.312527 
11 -0.119529 -0.408498 0.150773 -0.305493 0.262405 -0.153182 0.176631 -0.125502 -0.011722 0.012515 -0.010714 -0.109131 0.124857 -0.239286 -0.289133 0.346690 0.330068 -0.293448 0.440911 0.338966 0.080519 -0.065125 0.061794 -0.444526 -0.176062 -0.023603 -0.183937 0.255645 -0.185574 0.160551 -0.140494 -0.230804 -0.000677 0.297385 -0.002572 0.370033 0.261469 -0.067401 0.468069 -0.146815 0.117612 0.320412 -0.008030 0.262701 -0.052760 0.357476 -0.214519 0.308967 0.172125 0.196111 
13 -0.085151 -0.368206 0.123839 -0.288304 0.232070 -0.145689 0.157266 -0.080015 -0.032019 0.027675 0.028109 -0.039014 0.132851 -0.197761 -0.232100 0.315478 0.321317 -0.261123 0.402860 0.292925 0.095512 -0.059001 0.074931 -0.439234 -0.163408 -0.033593 -0.152944 0.199360 -0.144631 0.156720 -0.105104 -0.187492 -0.019113 0.239641 -0.031562 0.330042 0.218965 -0.079770 0.429992 -0.132327 0.094530 0.266235 -0.016742 0.247288 -0.040972 0.313352 -0.185604 0.241095 0.193422 0.157310 
61 -0.134592 -0.439881 0.143026 -0.315769 0.288464 -0.145699 0.177051 -0.153534 0.004006 -0.017591 -0.037491 -0.161208 0.123576 -0.241753 -0.305390 0.350936 0.311506 -0.323600 0.456172 0.339567 0.058928 -0.079611 0.051859 -0.466333 -0.169016 -0.030758 -0.216829 0.305032 -0.177473 0.149351 -0.160837 -0.261452 0.034714 0.315486 0.006812 0.382975 0.268103 -0.063293 0.494689 -0.138767 0.103986 0.325817 -0.003247 0.265449 -0.059678 0.344322 -0.212470 0.332439 0.161281 0.220669 
26 0.266212 -0.041447 0.093193 -0.293107 0.008931 -0.265540 0.029727 0.313297 -0.237735 0.295254 0.351184 0.619039 0.357885 0.100480 0.045136 0.344344 0.521165 -0.051306 0.161977 0.201303 0.383620 -0.075032 0.206093 -0.460737 -0.221248 -0.008233 0.193886 -0.358021 -0.019178 0.218626 0.108350 0.111664 -0.367041 -0.210234 -0.251903 0.050587 -0.073476 -0.114656 0.186626 -0.133495 0.151240 0.053890 -0.197752 0.281475 0.040424 0.177980 0.013444 -0.244438 0.452172 -0.329119 
95 -0.139542 -0.445653 0.158593 -0.316581 0.276614 -0.149338 0.184777 -0.181076 -0.003817 -0.021473 -0.023802 -0.170761 0.117922 -0.257231 -0.316609 0.340827 0.319915 -0.330464 0.460913 0.341916 0.053530 -0.067074 0.035908 -0.464197 -0.167351 -0.036745 -0.224406 0.320728 -0.188262 0.160595 -0.162627 -0.274095 0.047642 0.331231 0.011287 0.381688 0.287029 -0.069174 0.503384 -0.129828 0.102611 0.337054 0.007281 0.276412 -0.060538 0.367459 -0.226928 0.364532 0.149497 0.254972 
64 -0.141758 -0.417678 0.150884 -0.300651 0.265476 -0.151705 0.181914 -0.152983 0.011808 -0.020940 -0.031835 -0.161437 0.109211 -0.246856 -0.299298 0.330995 0.309718 -0.314846 0.457845 0.341777 0.044486 -0.069394 0.034664 -0.447902 -0.165645 -0.046640 -0.217171 0.317567 -0.181075 0.147872 -0.169745 -0.259226 0.040606 0.334422 -0.003444 0.389589 0.286940 -0.068824 0.485889 -0.140572 0.109712 0.314764 0.008148 0.260390 -0.062052 0.365818 -0.220587 0.329294 0.158166 0.239362 
52 0.270577 -0.042304 0.100970 -0.316481 0.024994 -0.279813 0.028420 0.304280 -0.250651 0.305028 0.367631 0.644428 0.364145 0.094469 0.032411 0.371792 0.552376 -0.073581 0.203470 0.204875 0.405267 -0.088590 0.231999 -0.495837 -0.243714 -0.020302 0.201721 -0.375677 -0.028177 0.246168 0.116051 0.110557 -0.389984 -0.198216 -0.277694 0.072464 -0.060472 -0.134843 0.216898 -0.130847 0.149226 0.061907 -0.191969 0.306363 0.047889 0.191264 0.019558 -0.238741 0.477992 -0.349151 
83 -0.093510 -0.396602 0.128203 -0.291622 0.258272 -0.142022 0.161620 -0.115528 -0.015222 -0.003701 -0.002815 -0.091767 0.109346 -0.224747 -0.252741 0.309952 0.303446 -0.277931 0.406824 0.304240 0.061927 -0.064028 0.046923 -0.426888 -0.158298 -0.029332 -0.170304 0.246639 -0.157713 0.143528 -0.121355 -0.224793 0.023258 0.260999 -0.009884 0.334445 0.234796 -0.071027 0.439785 -0.128976 0.095102 0.289459 0.000029 0.236192 -0.054809 0.304911 -0.198451 0.273842 0.150075 0.195079 
6 -0.132162 -0.415618 0.139873 -0.305636 0.264056 -0.144987 0.181945 -0.155619 -0.002639 -0.012419 -0.028414 -0.129195 0.118904 -0.240390 -0.294367 0.323649 0.302598 -0.310249 0.443965 0.331420 0.065614 -0.071633 0.057178 -0.453855 -0.169615 -0.043729 -0.196136 0.285162 -0.191991 0.147669 -0.146796 -0.248826 0.020304 0.308142 -0.007916 0.375403 0.257145 -0.073779 0.483340 -0.136836 0.119118 0.318013 0.000112 0.260445 -0.048160 0.345913 -0.220012 0.333961 0.161820 0.223523 
77 0.211065 -0.076185 0.091393 -0.270891 0.043720 -0.231187 0.034294 0.238044 -0.210783 0.244609 0.302686 0.510655 0.316258 0.068351 0.008438 0.332625 0.485009 -0.086591 0.195248 0.193754 0.336312 -0.072466 0.186142 -0.454869 -0.218931 -0.023635 0.148257 -0.277018 -0.043072 0.202454 0.078636 0.053933 -0.329476 -0.154409 -0.207952 0.091889 -0.033047 -0.106390 0.239037 -0.128136 0.142414 0.075781 -0.151762 0.277391 0.026808 0.186927 -0.007848 -0.163973 0.398965 -0.260707 
48 0.221367 -0.088065 0.086434 -0.284836 0.046186 -0.234627 0.044038 0.243551 -0.216891 0.268316 0.320911 0.532124 0.312188 0.074851 -0.010650 0.334676 0.501760 -0.089841 0.207593 0.218849 0.350964 -0.081587 0.182409 -0.469322 -0.213031 -0.017513 0.138234 -0.276786 -0.032338 0.215052 0.086631 0.054313 -0.324442 -0.151618 -0.229346 0.110210 -0.012886 -0.115166 0.240394 -0.132460 0.142839 0.100026 -0.172279 0.296788 0.024765 0.201899 -0.013904 -0.167819 0.427198 -0.255478 
74 0.286778 -0.039276 0.104135 -0.313788 0.016787 -0.289036 0.029889 0.344320 -0.273676 0.327050 0.398101 0.665574 0.388766 0.115689 0.044400 0.385019 0.599600 -0.061397 0.189751 0.224214 0.428790 -0.098727 0.242360 -0.512339 -0.236464 -0.013784 0.225957 -0.398302 -0.027828 0.242168 0.129445 0.112947 -0.421914 -0.237712 -0.288045 0.062091 -0.077318 -0.139696 0.216264 -0.143703 0.157571 0.056628 -0.212225 0.317040 0.048188 0.178276 0.026019 -0.273765 0.483494 -0.367976 
65 -0.100287 -0.360075 0.127227 -0.258932 0.237502 -0.129680 0.145936 -0.124738 0.000959 -0.000365 -0.002670 -0.100732 0.116233 -0.219212 -0.245268 0.311855 0.302933 -0.285286 0.393217 0.288399 0.073649 -0.064353 0.040827 -0.414528 -0.160619 -0.036168 -0.170556 0.232548 -0.159304 0.148804 -0.143985 -0.219996 -0.003933 0.258324 -0.018396 0.343698 0.230902 -0.070499 0.444275 -0.124335 0.109968 0.286242 -0.016850 0.262240 -0.046403 0.309270 -0.190929 0.288205 0.156951 0.183824 
66 0.255163 -0.067376 0.102581 -0.286241 0.022919 -0.266276 0.043187 0.298976 -0.228673 0.289681 0.354327 0.591007 0.344986 0.087513 0.013872 0.347893 0.535160 -0.069312 0.197602 0.208649 0.382571 -0.086892 0.210940 -0.479130 -0.227895 -0.022849 0.191932 -0.337130 -0.035244 0.213812 0.097939 0.091736 -0.363118 -0.186465 -0.252407 0.062405 -0.055589 -0.123018 0.215110 -0.131809 0.151853 0.059818 -0.179635 0.292944 0.031723 0.183967 0.004026 -0.224000 0.435577 -0.312419 
60 0.249996 -0.068681 0.090791 -0.310560 0.018951 -0.271125 0.030176 0.298016 -0.253128 0.298620 0.359944 0.619183 0.368743 0.094976 0.022169 0.355503 0.554858 -0.078940 0.199578 0.219754 0.396790 -0.089396 0.207245 -0.492106 -0.234887 -0.019491 0.185994 -0.352158 -0.032509 0.224243 0.112672 0.104510 -0.374211 -0.206111 -0.246360 0.072349 -0.056541 -0.118904 0.228284 -0.137982 0.163588 0.077369 -0.185308 0.303331 0.045279 0.200340 0.005888 -0.238595 0.463238 -0.318655 
37 -0.150040 -0.428126 0.152501 -0.298022 0.294523 -0.136309 0.184845 -0.188065 0.022446 -0.025064 -0.057119 -0.197173 0.102614 -0.275968 -0.315824 0.321135 0.289503 -0.326904 0.459917 0.332932 0.040796 -0.076501 0.029475 -0.452073 -0.161465 -0.039970 -0.224355 0.314250 -0.192154 0.151176 -0.175513 -0.280090 0.042768 0.337648 0.020314 0.387773 0.286465 -0.064255 0.511302 -0.144945 0.099498 0.336225 0.015973 0.269182 -0.052695 0.364974 -0.222641 0.362575 0.145315 0.271428 
16 0.192587 -0.045903 0.077469 -0.248806 0.031692 -0.220040 0.026839 0.231349 -0.187720 0.238723 0.288666 0.487397 0.297488 0.078033 0.019058 0.297949 0.455973 -0.050723 0.160580 0.172051 0.323446 -0.068507 0.181087 -0.398651 -0.181805 -0.017376 0.160199 -0.283945 -0.009132 0.187276 0.084646 0.072510 -0.312157 -0.154254 -0.203825 0.058714 -0.047904 -0.110412 0.160569 -0.101971 0.124593 0.050392 -0.147299 0.243850 0.027290 0.134246 -0.001499 -0.189983 0.362735 -0.266099 
2 -0.135664 -0.425838 0.145891 -0.298938 0.262630 -0.137394 0.172088 -0.160330 -0.001536 -0.019450 -0.027131 -0.150751 0.108755 -0.244783 -0.279202 0.328854 0.292708 -0.298187 0.429278 0.317093 0.038507 -0.072479 0.048513 -0.436922 -0.164499 -0.046221 -0.214592 0.294621 -0.174293 0.142221 -0.155086 -0.248296 0.029536 0.319420 0.010606 0.372139 0.270095 -0.069104 0.468828 -0.133220 0.099577 0.320874 0.005659 0.260013 -0.057099 0.340691 -0.219345 0.336720 0.142832 0.245437 
47 -0.139388 -0.463177 0.154545 -0.330990 0.305563 -0.152453 0.192150 -0.169739 -0.008019 -0.012666 -0.022112 -0.157908 0.126022 -0.272560 -0.321085 0.363650 0.341930 -0.332240 0.478387 0.344589 0.049076 -0.082281 0.052357 -0.491072 -0.178624 -0.045018 -0.230050 0.320962 -0.214289 0.164295 -0.168969 -0.270705 0.044092 0.343073 0.011056 0.419109 0.287891 -0.069813 0.522377 -0.133957 0.110251 0.348009 0.008074 0.287427 -0.073845 0.378035 -0.233003 0.358771 0.173474 0.255791 
97 0.242072 -0.073633 0.093558 -0.302400 0.024087 -0.254031 0.036512 0.281897 -0.213445 0.287604 0.322623 0.566492 0.337373 0.073023 0.012243 0.336938 0.512153 -0.077314 0.183679 0.208839 0.344701 -0.082061 0.186218 -0.452233 -0.212364 -0.015687 0.155988 -0.305868 -0.028683 0.221939 0.099314 0.082491 -0.341230 -0.165667 -0.240104 0.083049 -0.038805 -0.110000 0.217198 -0.141816 0.139392 0.083302 -0.178247 0.280643 0.037730 0.199013 0.000455 -0.200300 0.434111 -0.281999 
63 0.162684 -0.118425 0.090922 -0.264702 0.052350 -0.213415 0.048274 0.197072 -0.162225 0.207039 0.257628 0.411041 0.272958 0.027267 -0.028739 0.309610 0.435819 -0.091237 0.196168 0.202150 0.282951 -0.069474 0.153542 -0.399592 -0.174977 -0.023015 0.092314 -0.205163 -0.041957 0.175109 0.044158 0.024110 -0.264874 -0.088298 -0.188924 0.103485 0.006855 -0.094112 0.217759 -0.122519 0.117260 0.097125 -0.139272 0.245062 0.016211 0.174595 -0.027704 -0.103583 0.332020 -0.176352 
22 -0.145204 -0.448933 0.161166 -0.324382 0.298255 -0.135745 0.182066 -0.173561 0.003529 -0.026882 -0.028263 -0.178619 0.109414 -0.272962 -0.303654 0.342587 0.303291 -0.326030 0.444799 0.347881 0.036516 -0.084043 0.029364 -0.447833 -0.162966 -0.044500 -0.233664 0.317276 -0.200374 0.151320 -0.180116 -0.258227 0.042020 0.343514 0.012064 0.392855 0.282711 -0.062507 0.513266 -0.136635 0.110057 0.335539 0.018715 0.262076 -0.068622 0.369785 -0.239165 0.357336 0.144687 0.257925 
18 0.239606 -0.077495 0.088838 -0.293642 0.035968 -0.267471 0.043148 0.287275 -0.241925 0.293247 0.344282 0.608205 0.350185 0.082859 0.030346 0.342363 0.536891 -0.071468 0.196512 0.202586 0.386697 -0.080448 0.206946 -0.484936 -0.228987 -0.003223 0.191869 -0.346423 -0.015212 0.223944 0.094965 0.087530 -0.375554 -0.195443 -0.251487 0.070071 -0.056586 -0.124685 0.215107 -0.132795 0.145215 0.064628 -0.184867 0.290923 0.042630 0.183789 0.008607 -0.231536 0.434038 -0.321213 
15 -0.140801 -0.458041 0.160533 -0.320774 0.298782 -0.154251 0.187446 -0.166085 -0.012406 -0.009357 -0.026960 -0.147121 0.132221 -0.261106 -0.316411 0.358130 0.325543 -0.341949 0.460837 0.350851 0.068068 -0.075261 0.047107 -0.467372 -0.175667 -0.036046 -0.209703 0.308465 -0.195588 0.154841 -0.167246 -0.274430 0.048541 0.330600 0.017958 0.386299 0.274948 -0.078004 0.510412 -0.136202 0.116510 0.332394 0.005990 0.275919 -0.055991 0.367162 -0.227248 0.349339 0.151392 0.244849 
31 0.213526 -0.088863 0.093375 -0.286635 0.027106 -0.248190 0.043520 0.252654 -0.207664 0.256804 0.305106 0.528570 0.311632 0.062273 0.009840 0.335911 0.515390 -0.076398 0.211130 0.206726 0.342942 -0.079894 0.193923 -0.465862 -0.210113 -0.018209 0.154266 -0.297756 -0.032010 0.208360 0.085208 0.063502 -0.329690 -0.169900 -0.233871 0.099783 -0.027984 -0.115703 0.239741 -0.141965 0.138103 0.080475 -0.175306 0.286969 0.026541 0.202226 -0.010810 -0.185844 0.408063 -0.260332 
29 -0.086755 -0.378971 0.148341 -0.289762 0.235189 -0.161317 0.143653 -0.102498 -0.027141 0.006863 0.012112 -0.065537 0.137580 -0.218373 -0.265634 0.324015 0.328664 -0.281832 0.415800 0.314282 0.076885 -0.062384 0.067746 -0.437531 -0.169558 -0.023817 -0.170805 0.233741 -0.174479 0.145696 -0.135247 -0.216352 -0.007391 0.254013 -0.031876 0.326349 0.227542 -0.071699 0.447753 -0.134253 0.108887 0.296436 -0.016045 0.249019 -0.057940 0.335240 -0.179077 0.275486 0.173710 0.175698 
43 -0.121576 -0.403532 0.145632 -0.304906 0.256725 -0.137881 0.171102 -0.146860 -0.006206 -0.001020 -0.021883 -0.120582 0.123142 -0.226189 -0.281676 0.328941 0.309535 -0.295453 0.420357 0.323104 0.061234 -0.083159 0.046171 -0.437964 -0.170434 -0.043636 -0.194729 0.274430 -0.182143 0.154703 -0.143162 -0.236022 0.023245 0.300846 0.008841 0.358563 0.254505 -0.067583 0.463010 -0.143231 0.105441 0.301891 -0.007607 0.252643 -0.062652 0.345598 -0.216288 0.308873 0.146088 0.234459 
9 0.241889 -0.051155 0.096269 -0.288348 0.026867 -0.252898 0.034705 0.285325 -0.234210 0.293349 0.340448 0.595465 0.344362 0.085896 0.012544 0.348941 0.524930 -0.065452 0.198700 0.197603 0.378858 -0.067862 0.207656 -0.476097 -0.233698 -0.012361 0.191896 -0.345798 -0.031272 0.218312 0.095904 0.090653 -0.376300 -0.183101 -0.256791 0.079683 -0.045864 -0.131766 0.206826 -0.131296 0.155590 0.078791 -0.175035 0.281217 0.042848 0.177006 0.008642 -0.216321 0.422146 -0.315356 
12 0.183786 -0.065242 0.089360 -0.254958 0.033461 -0.224526 0.027187 0.236266 -0.196810 0.236620 0.268571 0.474685 0.296838 0.042051 -0.006436 0.307477 0.463920 -0.076983 0.179170 0.180789 0.313647 -0.072444 0.175336 -0.412042 -0.185022 -0.004990 0.138052 -0.255489 -0.042893 0.184591 0.076340 0.067368 -0.298312 -0.143103 -0.213945 0.094690 -0.035245 -0.097293 0.204365 -0.126764 0.138237 0.085020 -0.157636 0.257973 0.033890 0.169822 -0.009426 -0.168618 0.372223 -0.247354 
32 -0.123010 -0.403143 0.150164 -0.299780 0.274029 -0.143336 0.174182 -0.157355 -0.001096 0.001250 -0.019802 -0.134191 0.115942 -0.246059 -0.299562 0.325037 0.313023 -0.318496 0.436745 0.329023 0.057554 -0.082067 0.042130 -0.440462 -0.172561 -0.042368 -0.202482 0.287045 -0.182816 0.153831 -0.157426 -0.253751 0.017546 0.311985 -0.002713 0.379543 0.269970 -0.075617 0.484057 -0.135251 0.116072 0.309956 -0.004185 0.275086 -0.071194 0.357446 -0.210761 0.320937 0.171502 0.223698 
20 0.264880 -0.049204 0.097646 -0.306606 0.011103 -0.277068 0.025825 0.332000 -0.250505 0.306210 0.383256 0.658942 0.363300 0.110558 0.038488 0.348934 0.558063 -0.054676 0.180895 0.208188 0.401358 -0.093689 0.213882 -0.500486 -0.225401 -0.022997 0.210299 -0.376101 -0.027545 0.236568 0.122389 0.105830 -0.396672 -0.234459 -0.275955 0.068515 -0.067362 -0.126304 0.216559 -0.148988 0.159745 0.048734 -0.204924 0.304667 0.038840 0.179080 0.024974 -0.260175 0.454559 -0.339594 
89 -0.127395 -0.381066 0.139437 -0.290526 0.251639 -0.120864 0.176755 -0.145468 0.009287 -0.008763 -0.034481 -0.139810 0.091579 -0.224862 -0.272600 0.308666 0.280309 -0.301005 0.424928 0.308343 0.035945 -0.077278 0.047469 -0.430188 -0.153592 -0.034738 -0.183945 0.276071 -0.169135 0.138394 -0.156434 -0.243120 0.026776 0.309390 0.007591 0.359720 0.258568 -0.065557 0.456957 -0.120701 0.100549 0.301859 0.008603 0.250437 -0.048143 0.322512 -0.215595 0.325029 0.140722 0.228825 
59 -0.133040 -0.500835 0.179574 -0.369962 0.321658 -0.171917 0.216146 -0.163875 -0.021229 0.001824 -0.025275 -0.147074 0.133600 -0.266051 -0.332162 0.384410 0.371431 -0.357948 0.487204 0.378634 0.081067 -0.068042 0.060248 -0.490758 -0.179283 -0.037064 -0.233216 0.325682 -0.208987 0.155972 -0.175131 -0.273037 0.040804 0.346871 0.013772 0.417288 0.288303 -0.064312 0.520477 -0.145318 0.105384 0.345333 0.019173 0.266564 -0.063132 0.382303 -0.241807 0.353143 0.176646 0.246842 
99 -0.133905 -0.405670 0.144897 -0.296829 0.275422 -0.141443 0.177777 -0.162641 -0.007949 -0.001549 -0.021321 -0.147964 0.123665 -0.250682 -0.293878 0.343143 0.310101 -0.311197 0.443595 0.343187 0.053773 -0.066459 0.047790 -0.458132 -0.162263 -0.030530 -0.203838 0.302621 -0.186299 0.156273 -0.159372 -0.258768 0.022976 0.326628 0.014096 0.374039 0.275881 -0.067730 0.482764 -0.138163 0.118092 0.324751 -0.009799 0.268186 -0.052933 0.351673 -0.209601 0.330841 0.162702 0.238999 
30 -0.114457 -0.414845 0.144680 -0.283149 0.267608 -0.143204 0.170928 -0.137683 0.005512 -0.009348 -0.022446 -0.130280 0.111164 -0.229227 -0.275363 0.321685 0.302077 -0.301631 0.431636 0.309035 0.046460 -0.064513 0.048779 -0.435933 -0.147991 -0.028155 -0.208285 0.292855 -0.173924 0.136747 -0.148078 -0.252166 0.028063 0.300840 0.008432 0.369598 0.250801 -0.055641 0.469825 -0.137826 0.109721 0.312102 0.010434 0.247743 -0.059538 0.343603 -0.213042 0.314905 0.146187 0.239130 
35 0.194340 -0.085911 0.090718 -0.272090 0.043584 -0.238991 0.037350 0.231847 -0.185083 0.250679 0.281917 0.484040 0.293449 0.044386 0.002913 0.307948 0.453774 -0.077325 0.180102 0.198299 0.317504 -0.083240 0.176849 -0.424727 -0.210743 -0.010962 0.138491 -0.273140 -0.040737 0.204256 0.062128 0.066369 -0.300848 -0.132723 -0.204284 0.081080 -0.019577 -0.107282 0.203056 -0.121825 0.140302 0.084526 -0.160225 0.261907 0.016133 0.194152 -0.013988 -0.152278 0.366610 -0.231168 
1 0.234026 -0.078128 0.094148 -0.292092 0.044653 -0.263654 0.037957 0.267106 -0.224077 0.272317 0.332610 0.563601 0.343521 0.075957 0.014978 0.337629 0.530602 -0.080607 0.210812 0.216711 0.360266 -0.080076 0.206133 -0.493688 -0.214452 -0.024774 0.172350 -0.302727 -0.025823 0.223380 0.096571 0.066270 -0.354608 -0.167901 -0.232523 0.092247 -0.034412 -0.128814 0.243539 -0.148009 0.154670 0.084211 -0.172617 0.307042 0.040177 0.197852 -0.013961 -0.201195 0.444976 -0.287245 
17 0.244725 -0.048340 0.087279 -0.291690 0.024045 -0.256661 0.038688 0.280223 -0.221801 0.274595 0.339096 0.595245 0.353564 0.080703 0.027971 0.338223 0.523412 -0.058954 0.188185 0.195310 0.365904 -0.081894 0.208015 -0.466166 -0.211672 -0.007898 0.181184 -0.341906 -0.018642 0.216643 0.096224 0.086773 -0.364998 -0.187754 -0.252375 0.074136 -0.050531 -0.113236 0.205934 -0.129963 0.152665 0.064197 -0.183221 0.275722 0.045687 0.175622 0.003766 -0.217404 0.424068 -0.308694 
40 -0.121233 -0.386406 0.142458 -0.279299 0.248256 -0.122418 0.170371 -0.142144 0.005345 -0.019311 -0.028198 -0.148179 0.109145 -0.232825 -0.280294 0.295415 0.273421 -0.281753 0.416642 0.315869 0.055055 -0.077117 0.048200 -0.419446 -0.145816 -0.022795 -0.203127 0.268591 -0.185268 0.148478 -0.150749 -0.241877 0.037919 0.293844 0.003121 0.354860 0.243259 -0.058872 0.457321 -0.121037 0.102193 0.300291 0.010137 0.253505 -0.057500 0.322754 -0.201405 0.312529 0.151448 0.220861 
5 -0.109033 -0.384338 0.144767 -0.274416 0.256943 -0.145232 0.172703 -0.124907 -0.011817 0.000901 -0.009936 -0.111094 0.117106 -0.228767 -0.258222 0.317512 0.299038 -0.292504 0.421501 0.314401 0.073182 -0.068243 0.056963 -0.435382 -0.153991 -0.037931 -0.175478 0.244711 -0.156234 0.146701 -0.146336 -0.225054 0.005775 0.271813 -0.007933 0.344135 0.249154 -0.056107 0.453093 -0.132233 0.098983 0.308646 -0.004364 0.252756 -0.040522 0.332624 -0.198999 0.284816 0.156487 0.207112 
84 0.270012 -0.055479 0.084493 -0.301653 0.032274 -0.277719 0.025626 0.305636 -0.240491 0.291724 0.352163 0.624898 0.348635 0.087477 0.023049 0.353299 0.532949 -0.055838 0.185593 0.206424 0.397624 -0.074033 0.224770 -0.494391 -0.231035 -0.026047 0.194335 -0.366307 -0.019296 0.233227 0.110478 0.098628 -0.377083 -0.201299 -0.264896 0.062446 -0.064411 -0.125959 0.204300 -0.134778 0.160026 0.072021 -0.181080 0.297458 0.042714 0.185395 0.018097 -0.250158 0.452395 -0.327247 
45 0.241901 -0.057698 0.094787 -0.289341 0.033127 -0.270703 0.032377 0.293261 -0.226408 0.291902 0.343387 0.602033 0.348686 0.079412 0.006919 0.360943 0.540529 -0.076111 0.197656 0.201635 0.372435 -0.080902 0.218823 -0.486902 -0.225432 -0.019642 0.176740 -0.341681 -0.017852 0.219166 0.105657 0.092933 -0.365336 -0.177012 -0.237851 0.068065 -0.049630 -0.115662 0.209359 -0.131346 0.157014 0.078982 -0.183046 0.290907 0.033323 0.188325 0.013852 -0.226134 0.449461 -0.302799 
70 0.228465 -0.058758 0.094607 -0.271643 0.014519 -0.240173 0.025725 0.282115 -0.216966 0.271298 0.325451 0.554428 0.333456 0.079019 0.016524 0.337386 0.518762 -0.062862 0.189260 0.202002 0.361952 -0.089377 0.194460 -0.460126 -0.212047 -0.007400 0.169760 -0.326769 -0.029879 0.213605 0.098692 0.099127 -0.350128 -0.189431 -0.222098 0.067098 -0.058077 -0.120761 0.198194 -0.129459 0.150199 0.061166 -0.167420 0.278247 0.038442 0.160234 0.008786 -0.215150 0.406200 -0.295142 
92 0.260073 -0.063828 0.096169 -0.316614 0.036588 -0.287579 0.043409 0.315083 -0.255971 0.320576 0.362682 0.640632 0.382289 0.080954 0.008569 0.379878 0.579996 -0.085418 0.196927 0.216990 0.404555 -0.091685 0.227188 -0.518500 -0.245007 -0.020337 0.185312 -0.367994 -0.041207 0.235218 0.105471 0.106321 -0.383313 -0.206787 -0.263223 0.079203 -0.049193 -0.124494 0.228679 -0.148682 0.167026 0.082754 -0.190287 0.306300 0.036183 0.206284 0.002561 -0.228249 0.466930 -0.327441 
76 0.187426 -0.083941 0.084154 -0.262320 0.040632 -0.231725 0.033884 0.234604 -0.184943 0.238054 0.281849 0.472008 0.302302 0.047551 0.000289 0.297139 0.455919 -0.072624 0.180265 0.178864 0.300474 -0.066475 0.172861 -0.404180 -0.201506 -0.010059 0.142190 -0.247778 -0.040913 0.193169 0.065881 0.057505 -0.284612 -0.136446 -0.204648 0.066041 -0.025749 -0.100868 0.207424 -0.110991 0.135691 0.078359 -0.156717 0.266193 0.019132 0.174316 -0.014202 -0.171458 0.364131 -0.238615 
44 -0.102452 -0.401686 0.135198 -0.296556 0.260920 -0.152548 0.171870 -0.114851 -0.013014 0.006969 0.002189 -0.097406 0.127743 -0.227043 -0.265002 0.317407 0.305501 -0.286683 0.418234 0.301850 0.073902 -0.058487 0.040431 -0.432018 -0.169074 -0.022951 -0.168489 0.240128 -0.175524 0.155882 -0.138551 -0.225968 0.004836 0.259443 -0.006777 0.350843 0.227586 -0.061385 0.448560 -0.123707 0.100236 0.298123 -0.008743 0.245161 -0.043684 0.326937 -0.199843 0.282214 0.153162 0.201009 
46 0.269619 -0.048289 0.092486 -0.303634 0.014040 -0.268393 0.037000 0.310962 -0.253800 0.317467 0.374238 0.632953 0.379855 0.098761 0.024196 0.372918 0.576156 -0.070764 0.195433 0.209502 0.406749 -0.094048 0.215840 -0.507485 -0.239140 -0.025995 0.189592 -0.377437 -0.018175 0.234759 0.107878 0.097645 -0.392662 -0.218530 -0.263097 0.062643 -0.056126 -0.129235 0.215727 -0.139049 0.167256 0.067770 -0.188851 0.303645 0.032823 0.196566 0.012783 -0.245010 0.469162 -0.334348 
34 -0.102925 -0.399696 0.136714 -0.311623 0.252698 -0.151363 0.171981 -0.127234 -0.011705 -0.012038 -0.007212 -0.125847 0.109776 -0.241390 -0.275830 0.322125 0.293481 -0.289073 0.434513 0.320601 0.062877 -0.066262 0.046931 -0.428822 -0.158735 -0.030707 -0.181347 0.272756 -0.176882 0.162860 -0.134827 -0.240565 0.009656 0.280504 -0.018281 0.359113 0.264698 -0.076026 0.461745 -0.137892 0.094501 0.300257 -0.012439 0.252888 -0.056296 0.349937 -0.196988 0.301716 0.161776 0.219061 
54 0.103552 -0.141303 0.086206 -0.240534 0.077170 -0.189524 0.064393 0.119203 -0.124933 0.162379 0.185709 0.274568 0.227062 -0.008503 -0.057098 0.259016 0.364401 -0.111917 0.217104 0.196019 0.206914 -0.063798 0.122999 -0.370785 -0.164443 -0.017939 0.049720 -0.104638 -0.049202 0.156064 0.007155 -0.002227 -0.178774 -0.032678 -0.133041 0.123484 0.044119 -0.076938 0.238141 -0.106664 0.104719 0.115733 -0.104403 0.215255 -0.001098 0.189372 -0.052334 -0.041830 0.273962 -0.105911 
36 -0.117457 -0.434036 0.147582 -0.305389 0.271873 -0.151984 0.171770 -0.156512 -0.014338 -0.014883 -0.013212 -0.144182 0.121178 -0.242484 -0.291002 0.333823 0.322612 -0.326169 0.459956 0.340319 0.067914 -0.083338 0.052300 -0.470993 -0.171637 -0.043838 -0.210547 0.296667 -0.196741 0.166344 -0.165427 -0.255042 0.017662 0.316331 0.000085 0.383366 0.278563 -0.076142 0.485499 -0.149043 0.106707 0.318970 0.006613 0.275185 -0.057906 0.357478 -0.228301 0.332791 0.159715 0.242571 
19 -0.164014 -0.495684 0.162679 -0.336431 0.324253 -0.163034 0.215174 -0.189396 0.009166 -0.031339 -0.036740 -0.191512 0.118396 -0.283788 -0.342726 0.370080 0.331630 -0.355430 0.498904 0.365903 0.034338 -0.081361 0.048041 -0.491546 -0.172413 -0.031682 -0.236433 0.359610 -0.219901 0.168776 -0.176111 -0.296236 0.057832 0.377480 0.018253 0.432289 0.304854 -0.070441 0.539714 -0.154734 0.127930 0.372309 0.012167 0.296278 -0.074046 0.392158 -0.250292 0.392893 0.165256 0.288317 
24 0.222301 -0.063625 0.091439 -0.274087 0.031523 -0.248410 0.031254 0.255399 -0.219993 0.258061 0.316335 0.544018 0.314289 0.074195 0.012300 0.334806 0.509392 -0.070144 0.194641 0.199342 0.359518 -0.083200 0.194683 -0.446032 -0.208329 -0.026531 0.158173 -0.295179 -0.023786 0.204140 0.078599 0.073881 -0.340019 -0.167886 -0.224150 0.083801 -0.032307 -0.107848 0.218120 -0.122434 0.146380 0.080544 -0.166714 0.296323 0.030492 0.194082 0.002454 -0.186005 0.409550 -0.274745 
90 0.154174 -0.102670 0.088456 -0.248798 0.061231 -0.214584 0.045474 0.184596 -0.176223 0.220912 0.240276 0.421399 0.274298 0.029068 -0.027394 0.289187 0.434149 -0.083547 0.193045 0.193281 0.283953 -0.064421 0.170070 -0.405125 -0.184958 -0.014115 0.116872 -0.211795 -0.035011 0.182056 0.062452 0.049785 -0.266077 -0.100979 -0.187241 0.093936 -0.007193 -0.089974 0.207384 -0.103267 0.130093 0.091470 -0.137412 0.239777 0.025599 0.176959 -0.025316 -0.123249 0.326300 -0.204252 
41 -0.100021 -0.397343 0.150699 -0.317017 0.256098 -0.171732 0.169577 -0.116951 -0.029857 0.016642 0.013032 -0.076876 0.133408 -0.223910 -0.269220 0.335711 0.344987 -0.302263 0.441583 0.333623 0.082688 -0.073106 0.066590 -0.464880 -0.180072 -0.036748 -0.170728 0.233771 -0.179255 0.155222 -0.133024 -0.237311 -0.000420 0.281032 -0.023441 0.367624 0.236120 -0.074404 0.467547 -0.143280 0.117508 0.301170 -0.018642 0.278238 -0.044867 0.348625 -0.196945 0.279350 0.189036 0.194824 
