1001 50
</s> 0.008005 0.008839 -0.007661 -0.006556 0.002733 0.006042 0.001882 0.000423 -0.007207 0.004437 -0.008713 0.002499 -0.001503 -0.001914 -0.006631 -0.003764 0.005159 0.006051 0.005938 0.003195 0.003090 -0.007605 -0.008192 0.009939 0.007603 0.006180 -0.001208 0.008031 -0.000990 0.001469 -0.000298 -0.005966 0.002625 -0.002675 -0.007651 0.009508 0.008759 -0.002190 -0.000452 0.001018 -0.007275 -0.008014 0.009109 0.000126 -0.005165 -0.006084 -0.006153 0.003394 0.000403 0.002662 
917 -0.038867 -0.341412 -0.004599 -0.377649 0.075094 -0.489185 0.366425 0.376078 -0.006020 0.179727 0.312385 0.016563 -0.195796 -0.063321 -0.088551 0.372814 0.149305 -0.311169 0.345005 -0.373212 0.264491 0.297239 0.076863 -0.446478 -0.557470 -0.216140 -0.449277 0.092317 0.050667 0.018319 0.319583 -0.604505 0.012890 0.070285 -0.465465 0.403726 -0.071356 0.113052 0.684948 0.013429 -0.340643 0.489293 0.090250 0.080987 0.125946 0.349275 0.016989 -0.343762 0.020144 -0.508338 
638 0.134148 -0.457847 0.680880 -0.189937 -0.243483 -0.142729 0.011983 0.096989 -0.033751 -0.160759 -0.137681 -0.059428 0.105753 -0.184386 -0.056828 0.271612 0.083030 -0.138597 0.648942 -0.171211 -0.003360 0.460894 0.128348 -0.090986 -0.225282 0.061283 -0.266483 -0.107738 -0.223619 0.094976 -0.266431 -0.232419 -0.140902 -0.156366 0.010464 -0.026045 0.064114 -0.930133 0.142240 0.158070 0.067625 0.394609 -0.233338 0.145356 -0.067069 0.199866 -0.048918 0.033074 0.020264 -0.664069 
933 0.005295 -0.270749 0.298711 -0.017911 0.043124 -0.237781 0.460767 -0.334426 0.394134 0.082919 -0.057268 0.032755 -0.018727 -0.482767 -0.058838 0.215940 0.212190 -0.486784 0.106750 -0.341562 -0.074542 0.074056 -0.211115 -0.062441 -0.337129 -0.357489 -0.082214 -0.202728 0.732193 -0.270127 -0.487071 -0.406916 0.133390 -0.265961 -0.221964 0.136919 0.099684 -0.188079 0.181215 0.284304 0.351720 0.579831 -0.451486 0.037596 0.196713 0.031871 -0.130835 -0.078417 -0.079505 -0.425412 
402 0.095464 -0.304019 0.345033 -0.164533 0.072141 -0.232640 0.218263 -0.010721 0.077491 -0.086053 -0.029828 0.364202 -0.159697 -0.248990 -0.249415 0.241741 0.356815 -0.082497 0.368767 -0.158045 -0.038012 0.444065 -0.048243 -0.148502 -0.655379 -0.146760 -0.327704 0.196817 -0.162718 0.063286 -0.079994 -0.585922 0.209076 0.007641 -0.328921 -0.001333 0.160217 -0.406558 0.253519 0.069566 0.187316 0.302604 -0.273620 0.107875 0.092827 0.293747 0.071112 0.004553 -0.046252 -0.522340 
427 0.297817 -0.163900 0.202062 -0.242702 -0.032565 -0.369841 0.068447 -0.282863 -0.623215 -0.202458 0.378845 0.052373 -0.566104 -0.491826 -0.020562 0.586397 -0.122728 0.194099 0.379984 0.177026 -0.428363 0.510246 -0.088810 -0.229070 -0.620850 -0.022119 -0.196972 -0.177408 -0.027919 0.334915 -0.030817 0.111760 -0.560994 0.091318 -0.021698 -0.346923 -0.072032 -0.400195 0.316620 0.071632 -0.300852 0.059019 0.197587 -0.176168 0.004693 -0.055251 0.181964 0.276507 -0.174426 -0.069778 
124 0.137729 -0.066793 0.318275 -0.056230 -0.021097 -0.015024 0.241326 -0.136111 0.112530 0.041787 0.036936 0.326024 -0.112384 -0.539680 -0.092271 0.128379 0.474958 0.059140 0.381151 -0.434250 0.036351 0.462200 -0.224648 -0.172502 -0.422708 -0.283824 -0.449857 0.112913 0.360461 -0.106909 -0.411627 -0.642151 0.336303 -0.063662 -0.075802 0.076166 0.201544 -0.429471 0.176757 0.187074 0.262488 0.488451 -0.489406 -0.055201 0.124712 0.091159 -0.028321 -0.154932 0.099786 -0.607742 
738 0.329563 -0.009054 -0.084002 -0.255627 -0.232410 -0.352328 0.118696 -0.153514 -0.599149 -0.114512 0.446077 -0.024075 -0.495028 -0.560197 -0.009908 0.441614 -0.221366 -0.043591 0.493398 0.088567 -0.011834 0.178588 -0.145675 -0.293034 -0.582321 0.138341 -0.071939 -0.430916 0.357319 0.088049 0.065220 0.063377 -0.223507 0.100507 -0.101386 -0.117005 -0.073030 -0.107755 0.136499 0.145514 -0.341738 0.349397 0.109058 -0.159150 0.038553 0.154987 0.160100 0.145855 -0.229390 -0.110367 
798 0.291319 0.034987 0.187907 -0.378474 -0.123287 -0.216581 0.252595 -0.188281 -0.381072 0.054803 0.266678 -0.112297 -0.306083 -0.253789 -0.101492 0.695125 -0.132656 -0.145420 0.466683 -0.046389 0.072417 0.022521 -0.095723 -0.361745 -0.429110 -0.002758 0.099064 -0.362254 0.577264 -0.087493 -0.042262 -0.050144 -0.252491 0.031643 -0.208976 -0.070496 0.159509 0.091528 -0.086272 0.086233 -0.423099 0.416947 -0.096314 -0.139643 0.179544 0.054808 0.076846 0.261583 -0.355304 -0.246926 
854 0.210310 -0.368034 0.341118 0.104108 -0.127403 -0.129977 0.045647 -0.008284 0.107276 -0.005705 -0.096021 0.324568 0.027767 -0.445754 -0.149105 0.032657 0.310735 0.000037 0.594845 -0.211051 0.207367 0.319865 0.237430 0.019950 -0.539150 -0.164124 -0.449775 -0.206453 -0.008992 -0.030299 -0.340742 -0.520657 0.227550 0.129228 0.178170 0.209070 0.047756 -0.935783 0.218875 0.012427 0.351139 0.600190 -0.256890 0.010089 0.015965 0.402377 -0.101891 0.108997 0.121259 -0.955451 
378 0.349357 0.147458 -0.028180 -0.261975 0.084534 0.074143 0.080709 -0.300231 -0.371218 -0.137694 0.169188 -0.159121 -0.412751 -0.576632 -0.031611 0.625634 0.054558 0.224983 0.314166 -0.152920 -0.011888 0.137470 -0.066574 -0.429246 -0.310654 -0.091193 -0.074855 -0.464822 0.432179 0.091069 -0.481421 0.006159 -0.129846 -0.050598 -0.124725 0.058781 0.234904 -0.046243 0.135529 0.085075 -0.165007 0.482911 -0.162560 0.098508 0.017124 0.118070 0.032283 0.351571 -0.117151 -0.277937 
208 0.194950 -0.283668 0.281504 -0.257518 -0.009930 -0.413414 0.231098 -0.165949 -0.215455 -0.003974 0.072613 -0.062615 -0.216439 -0.323097 -0.044145 0.404412 0.020295 -0.113455 0.227252 -0.084256 -0.175647 0.129237 0.159377 -0.101239 -0.401986 -0.017207 -0.162690 -0.156832 0.051175 0.115490 -0.212055 -0.086842 -0.234583 -0.122594 -0.295009 -0.160073 -0.010748 -0.322444 0.013400 0.384746 -0.106614 0.305680 -0.186732 -0.009843 0.183855 -0.036916 0.048238 0.106456 -0.232753 -0.287480 
535 0.280004 -0.256691 0.254721 0.110094 -0.069346 -0.055394 -0.018900 -0.085346 -0.027953 0.046418 -0.014367 0.368947 -0.012373 -0.518334 -0.147722 0.082057 0.403134 0.206824 0.564440 -0.382803 0.235942 0.456124 0.107780 -0.074278 -0.418035 -0.201967 -0.522996 -0.151385 0.032861 0.009989 -0.356955 -0.529831 0.358777 0.170584 0.173008 0.165385 0.067960 -0.751010 0.238212 0.043831 0.220526 0.608360 -0.295251 -0.076519 0.024542 0.355193 -0.087425 0.006890 0.219663 -0.884892 
823 0.197246 -0.352117 0.495681 -0.439912 -0.309616 -0.086780 0.234550 -0.239950 -0.449597 0.010421 0.230403 -0.088608 -0.405107 -0.030288 -0.055652 0.739332 -0.097671 -0.207961 0.376728 0.032787 -0.246755 0.382211 -0.164463 -0.360595 -0.309553 -0.028360 0.018468 -0.079940 0.038561 0.255816 0.244439 0.017599 -0.379280 -0.028041 -0.277444 -0.170362 0.011329 -0.193745 0.350273 0.088540 -0.121743 0.145744 0.329744 -0.015028 0.211663 -0.063308 0.246720 0.147382 0.045879 -0.202460 
818 0.385594 -0.075341 -0.016023 -0.142324 -0.220833 -0.353744 0.114993 -0.316530 -0.449187 -0.214497 0.542965 -0.161145 -0.667924 -0.784066 -0.030201 0.494485 -0.224311 0.145126 0.363346 0.145538 -0.269465 0.336163 -0.065139 -0.124060 -0.691365 -0.089320 -0.040106 -0.318540 0.473608 0.180964 -0.234712 0.222652 -0.700642 0.121233 0.098013 -0.147081 -0.167977 -0.254885 0.308812 0.150091 -0.269489 0.263700 0.201938 -0.147028 -0.058382 0.002437 0.183015 0.396872 -0.315494 -0.091901 
445 0.147942 -0.158681 0.285325 -0.195723 -0.120653 -0.155058 0.122222 -0.244116 -0.380165 -0.072036 0.233367 -0.138429 -0.143321 -0.307697 0.023235 0.521637 -0.102441 -0.193315 0.520972 -0.146689 -0.126278 0.128674 -0.015438 -0.357968 -0.174661 0.120393 -0.099567 -0.350315 0.228328 0.020008 -0.081525 -0.058960 -0.229451 -0.035422 -0.139828 -0.105122 0.028410 -0.201528 0.041230 0.142780 -0.227320 0.454641 0.032781 -0.030857 0.053925 0.020714 0.039211 0.121610 -0.159150 -0.385103 
519 0.353459 0.020081 0.162248 -0.181684 0.068153 -0.261003 0.181547 -0.301549 -0.204245 0.036235 0.044661 0.035874 -0.087822 -0.324984 -0.105798 0.367358 0.080695 -0.023466 0.322178 -0.132912 0.004421 -0.045734 0.170399 -0.066582 -0.445301 -0.202362 -0.091244 -0.417401 0.283285 -0.110261 -0.375612 -0.127400 -0.083508 -0.099435 -0.128238 -0.003668 0.068654 -0.296795 -0.014226 0.201750 -0.205320 0.472761 -0.173001 -0.024697 0.175092 0.036184 -0.026383 0.238434 -0.205774 -0.389115 
241 0.112703 -0.094251 0.339590 -0.193855 -0.101535 0.046222 0.084175 -0.026448 -0.046805 0.053694 0.123346 0.434023 -0.299329 -0.225601 -0.200760 0.397531 0.265025 0.228115 0.356555 -0.166234 0.269609 0.346824 -0.047172 -0.240644 -0.628416 -0.115001 -0.243399 0.189975 0.216105 -0.050722 -0.038509 -0.621807 0.161083 0.132245 -0.157274 0.093847 0.212180 -0.240757 0.199622 -0.103413 0.085575 0.210703 -0.174150 0.048801 0.179467 0.319088 0.017601 0.090444 -0.026676 -0.541863 
332 0.468571 -0.398699 0.356410 -0.409329 0.227003 -0.375655 0.098602 -0.516133 -0.025884 -0.414986 0.019989 -0.247698 0.047828 -0.551514 -0.136070 0.701141 0.211580 0.094523 0.343546 -0.076549 -0.043903 0.290737 0.175257 -0.108088 -0.168415 -0.095666 0.041013 -0.346508 -0.085573 0.270799 -0.840564 -0.038203 -0.129360 -0.232380 -0.274030 -0.284008 0.186252 -0.260230 -0.100240 0.304378 -0.119026 0.179784 -0.255315 0.024275 0.217523 0.215068 -0.032139 0.434841 -0.356270 -0.090698 
827 0.539184 -0.222116 0.223895 -0.406250 0.062467 -0.645915 0.571597 -0.332745 -0.072381 0.140679 0.094103 -0.217043 -0.198251 -0.415494 -0.288852 0.622177 -0.031391 -0.344666 0.039198 -0.016867 -0.046723 -0.117109 0.091114 -0.035133 -0.469708 -0.092037 0.166676 -0.413361 0.153757 0.035660 -0.278341 -0.101343 -0.111158 -0.360176 -0.549683 -0.151163 -0.037178 0.005679 -0.148278 0.549211 -0.286053 0.321430 -0.208706 -0.036824 0.468055 -0.095903 0.115706 0.314128 -0.343271 -0.118012 
803 0.012437 -0.214979 0.273352 -0.132938 -0.074304 -0.111031 0.198802 0.094892 0.076863 -0.047434 0.136053 0.261065 -0.219562 -0.216110 -0.081187 0.266878 0.190453 -0.133557 0.400669 -0.012573 0.032196 0.285415 -0.197731 -0.196987 -0.534803 -0.240659 -0.320983 0.099442 0.241411 -0.048786 -0.062940 -0.614332 0.121806 0.071682 -0.127904 0.149337 0.097516 -0.440050 0.259847 -0.058194 0.319766 0.367295 -0.159072 -0.027986 0.014762 0.230650 -0.015780 0.058007 0.056344 -0.518458 
6 0.215824 -0.483568 0.178652 -0.336039 -0.347806 -0.064047 0.179299 -0.119671 -0.390377 -0.096742 0.410164 -0.136535 -0.721498 -0.536505 -0.023458 0.593396 -0.317009 0.117137 0.420255 0.000384 -0.376370 0.255462 -0.123085 -0.305882 -0.601848 0.067481 0.054839 -0.170035 0.235883 0.057654 0.071489 0.168555 -0.514879 0.030167 -0.023809 -0.292074 -0.100613 -0.169355 0.363795 0.058012 -0.095208 0.262443 0.359562 0.017892 0.031508 -0.016802 0.260155 0.168979 -0.132494 -0.011456 
691 0.240724 -0.252332 0.243387 0.165044 -0.114772 -0.086044 0.066416 -0.206414 0.014391 0.004361 -0.017529 0.307368 0.009567 -0.533877 -0.075877 0.092289 0.204132 0.019664 0.561170 -0.100072 0.231835 0.281096 0.181809 -0.011049 -0.469830 -0.146880 -0.400463 -0.271057 0.146733 -0.131996 -0.401486 -0.469194 0.087350 0.159766 0.270054 0.175905 0.059155 -0.775604 0.125400 -0.000146 0.297885 0.536849 -0.146356 -0.017550 0.020013 0.411484 -0.085218 0.214922 0.091410 -0.827257 
884 -0.009402 -0.248003 -0.394466 -0.030620 0.175790 -0.557331 0.258825 -0.099391 -0.042396 -0.091172 0.595716 0.024916 -0.176626 -0.480931 -0.226861 0.131483 0.113502 -0.391691 0.454570 0.036587 0.155289 0.365010 0.029148 -0.119394 -0.550174 -0.175345 -0.290572 -0.169089 0.113973 0.105393 -0.001152 -0.296765 0.237097 -0.161381 -0.009305 0.160497 -0.132223 -0.298565 0.531986 0.143330 0.173443 0.706689 0.253430 -0.180649 0.104278 0.375277 -0.108512 -0.361348 0.371507 -0.379004 
314 0.143712 -0.146941 0.081292 0.177782 -0.039861 -0.296217 0.031337 -0.149193 -0.108716 0.068433 0.220414 0.137799 0.129916 -0.321786 -0.113431 0.280433 0.157496 -0.208927 0.652704 -0.173912 0.074113 0.289035 0.155266 -0.087636 -0.385036 -0.156650 -0.307493 -0.387320 0.216083 0.039317 -0.103300 -0.296779 0.097551 0.191194 0.211577 0.148878 -0.115272 -0.631141 0.163448 -0.005644 -0.038713 0.639749 0.031354 -0.123788 -0.031565 0.299822 -0.213564 -0.075997 0.157235 -0.802087 
486 0.126308 -0.089470 0.146264 -0.060878 0.038391 -0.212720 0.198915 -0.251943 -0.117507 -0.198387 0.328271 -0.028631 -0.125924 -0.312601 -0.158270 0.332236 0.042785 -0.249495 0.491494 0.105407 0.016373 0.381316 -0.116474 -0.206042 -0.354383 -0.171932 -0.154512 0.058871 -0.045282 0.195036 0.016400 -0.287364 0.057096 -0.117217 -0.100436 -0.080017 -0.046676 -0.452210 0.144353 0.181461 0.290697 0.429515 0.260233 -0.019145 0.269873 0.223475 0.055721 -0.043357 0.210967 -0.372865 
900 0.137445 -0.473670 0.377457 -0.099509 -0.280557 -0.174774 0.085042 0.046693 0.113518 -0.087634 -0.019437 0.303742 -0.265743 -0.273153 -0.082351 0.137001 0.097440 -0.080408 0.416984 0.074463 0.078374 0.259784 0.178976 0.069880 -0.708474 -0.136911 -0.255340 -0.011097 -0.006701 -0.117558 -0.110174 -0.499568 0.014991 0.142900 0.002153 0.183755 0.037193 -0.858243 0.163367 -0.075783 0.550140 0.361421 -0.084129 0.067739 0.055419 0.383920 -0.020066 0.213722 -0.121556 -0.761770 
187 0.046667 -0.213637 0.502721 -0.075383 -0.065933 -0.066089 0.330627 -0.285373 0.345372 0.100941 -0.282752 0.222224 0.000072 -0.454282 -0.152774 0.096415 0.437302 -0.236147 0.381486 -0.350488 0.021497 0.266639 -0.070263 -0.038969 -0.377840 -0.328854 -0.307459 0.015514 0.339938 -0.216662 -0.441895 -0.607525 0.138109 -0.111449 -0.131795 0.078513 0.153502 -0.577353 0.191295 0.200569 0.514735 0.442527 -0.392977 0.233256 0.199547 0.089283 0.028824 0.011061 0.089112 -0.694165 
117 0.155148 -0.476086 0.553665 -0.502349 -0.224491 -0.156406 0.106212 -0.574528 -0.177822 0.043449 0.019926 -0.166369 0.006733 -0.306835 -0.008093 0.661995 -0.093450 -0.186488 0.273945 -0.285087 -0.160123 0.219535 -0.027884 -0.166264 0.092914 0.163127 -0.047176 -0.351464 0.226570 -0.038597 -0.446292 0.026819 -0.359045 -0.265085 -0.339164 -0.293545 0.212961 -0.123444 0.063743 0.292180 -0.073444 0.316168 -0.080645 -0.065621 0.195757 -0.104322 0.073838 0.087083 -0.001113 -0.367061 
451 0.280960 0.065524 0.169285 -0.355979 -0.298744 -0.057533 0.247527 -0.161327 -0.480833 0.044248 0.364681 -0.085303 -0.465824 -0.260708 -0.067102 0.673184 -0.170620 -0.170297 0.367055 -0.048467 -0.056622 -0.015138 -0.165936 -0.449777 -0.463320 -0.037556 -0.025180 -0.321600 0.686032 -0.212880 0.069247 -0.106410 -0.332425 0.105949 -0.173072 0.088611 0.151036 0.203978 0.042696 0.070778 -0.381845 0.409741 -0.028150 0.036826 0.070546 0.021285 0.214337 0.357094 -0.353946 -0.216561 
782 0.143761 -0.367924 0.159031 -0.277352 -0.234125 -0.321638 0.089199 -0.089007 -0.402083 -0.048975 0.350927 0.079087 -0.534584 -0.369770 -0.036118 0.493323 -0.148080 0.089968 0.300060 0.074140 -0.332313 0.395580 -0.107724 -0.219810 -0.671172 0.052056 -0.193679 -0.029138 0.091944 0.226693 0.103747 0.061874 -0.456543 0.145569 -0.149915 -0.284367 -0.109475 -0.279308 0.345338 0.106683 -0.147364 0.111730 0.213439 -0.093347 -0.008371 0.054267 0.240053 0.068288 -0.119964 -0.118049 
611 0.095513 -0.210098 0.215692 -0.119611 0.043522 -0.430864 0.340812 0.092666 -0.009597 -0.122648 0.237344 -0.047793 -0.240799 -0.241998 -0.309797 0.283053 0.057074 -0.348895 0.247366 -0.179644 -0.047482 0.128137 0.175463 -0.190011 -0.650718 -0.298251 -0.155668 0.022125 -0.011742 0.082353 0.185242 -0.334008 -0.171392 0.058558 -0.285837 0.222880 -0.193770 -0.131127 0.442799 0.033373 -0.187458 0.312185 0.076604 0.143486 0.069929 0.254884 -0.086768 -0.024111 -0.067742 -0.531512 
417 0.021610 -0.402003 0.104423 -0.164605 0.012462 -0.321115 0.219308 0.096585 0.058575 -0.063958 0.260200 0.098285 -0.233333 -0.424853 -0.081319 0.127229 0.138735 -0.069389 0.287823 -0.104121 -0.025785 0.289904 0.150159 -0.058084 -0.525952 -0.174868 -0.284081 0.068191 -0.054442 0.131739 -0.150806 -0.342440 0.148037 -0.091699 -0.190871 0.106389 -0.032348 -0.483105 0.274571 0.309788 0.224848 0.526026 -0.070963 -0.062937 0.226267 0.211317 -0.033414 -0.224427 0.012660 -0.470778 
749 0.137429 -0.393717 0.391464 -0.054135 -0.118688 -0.212898 0.178987 0.006873 0.029355 -0.021273 -0.013205 0.250314 -0.048824 -0.297526 -0.109278 0.096098 0.201201 -0.132263 0.432865 -0.170211 0.034529 0.260932 0.199231 -0.018052 -0.534369 -0.133498 -0.368114 -0.019207 -0.111012 -0.027694 -0.122941 -0.485121 0.095989 0.029641 -0.082722 0.081936 -0.006555 -0.672232 0.211194 0.107036 0.207736 0.442599 -0.176523 0.036543 0.081709 0.239821 -0.013360 0.007015 0.038050 -0.707346 
495 0.177646 -0.345101 0.615767 -0.364097 -0.146504 -0.216878 0.109972 0.228789 -0.078250 -0.202140 -0.130887 -0.009354 0.035954 -0.112340 0.193078 0.215319 0.243927 -0.105218 0.549075 -0.218875 0.196733 0.544542 0.105147 -0.187984 -0.337847 0.006174 -0.465827 0.038536 0.104369 0.046566 -0.283361 -0.316946 0.035641 -0.252203 -0.096611 0.043724 0.194468 -0.636025 0.169812 0.091004 -0.010277 0.332367 -0.417257 0.253365 -0.148280 0.332580 0.052142 0.046272 -0.259751 -0.468048 
589 0.070446 -0.195782 -0.220381 -0.110516 0.203119 -0.342507 0.115054 0.046233 -0.385795 -0.106773 0.459683 0.160914 -0.390465 -0.457529 -0.293316 0.257884 0.203062 0.006993 0.435008 -0.145714 0.087798 0.354766 0.049116 -0.390793 -0.526495 -0.071303 -0.321330 -0.186138 -0.204637 0.264999 0.132887 -0.263118 0.337988 0.054130 -0.282188 0.169832 -0.028062 -0.142273 0.550571 0.018014 -0.069847 0.570023 0.102972 -0.021343 0.133407 0.397994 0.044403 -0.239858 0.275365 -0.383181 
996 0.103172 -0.595015 0.261672 -0.341476 -0.348327 0.058621 0.185043 -0.176235 -0.254436 -0.089467 0.333155 -0.212115 -0.460931 -0.291951 0.009821 0.487273 -0.258341 -0.131401 0.557615 -0.054587 -0.315414 0.264258 -0.045285 -0.218314 -0.185320 0.104477 0.136146 -0.229455 0.049656 0.028573 0.094765 0.081510 -0.323332 -0.144434 -0.000050 -0.198243 -0.042411 -0.390736 0.304273 0.146662 0.170462 0.463649 0.440474 -0.008569 0.168072 -0.089054 0.156271 -0.019225 0.139772 -0.224028 
210 0.113937 -0.148316 0.254223 -0.244906 -0.075866 -0.263924 0.092351 -0.195015 -0.197364 -0.320143 0.145273 0.374668 -0.269363 -0.669473 -0.041171 0.307932 -0.006773 0.178237 0.268749 0.015416 -0.136817 0.539917 -0.005643 -0.049690 -0.500042 0.051762 -0.406881 0.364418 0.037148 -0.149786 -0.303518 -0.424430 -0.233832 -0.247775 -0.006823 -0.359636 0.181462 -0.416361 0.036017 0.070401 -0.059732 0.069865 -0.302290 0.001182 -0.115709 0.137368 0.207622 0.041613 -0.219521 -0.415366 
443 0.018119 -0.351290 -0.005345 -0.269654 0.125327 -0.501141 0.268763 0.047481 -0.163922 0.016860 0.280987 0.105040 -0.268303 -0.217065 -0.309405 0.358934 0.157620 -0.138523 0.220760 -0.134978 -0.006577 0.257449 0.155923 -0.287874 -0.625961 -0.123035 -0.289531 0.025567 -0.223990 0.202809 0.148701 -0.337985 0.039074 0.007439 -0.545538 0.144861 -0.089800 -0.061324 0.440044 0.166123 -0.114292 0.350260 0.132045 0.074471 0.238453 0.325163 0.089401 -0.214447 0.086816 -0.404624 
835 0.024572 -0.330821 0.447955 -0.358140 -0.100974 -0.247952 0.201902 0.278652 -0.094727 -0.020240 0.087444 0.225369 -0.159821 -0.024457 -0.029095 0.343054 0.256041 -0.094849 0.378901 -0.220383 -0.027920 0.556858 -0.091176 -0.317823 -0.629722 -0.179447 -0.515775 0.340795 -0.069143 0.157976 0.168214 -0.554380 0.024006 0.055639 -0.367086 0.048594 0.092979 -0.338844 0.465309 0.053592 -0.113658 0.174200 -0.150362 0.134019 -0.015357 0.216057 0.110661 -0.157292 -0.027957 -0.431152 
275 0.224663 -0.211083 0.386921 -0.249767 -0.288376 0.032703 0.077836 -0.079261 -0.113369 0.001347 -0.000025 0.296990 -0.349240 -0.124709 -0.075478 0.377305 0.095839 0.017730 0.421006 -0.094922 0.237444 0.180107 0.056013 -0.099601 -0.521435 -0.161254 -0.136733 -0.024765 0.303568 -0.148044 0.035349 -0.564847 0.039871 0.189656 -0.107242 0.202548 0.129488 -0.243834 0.152231 -0.186222 0.283407 0.215402 0.034739 0.145096 0.158569 0.281131 0.124060 0.356449 -0.182352 -0.395405 
751 0.311658 0.117180 0.078460 -0.282941 -0.157867 -0.338500 0.332674 -0.087523 -0.239423 -0.030794 0.368958 -0.142104 -0.390068 -0.230096 -0.231292 0.559962 -0.117791 -0.360861 0.332892 -0.014895 0.292089 -0.015195 0.021358 -0.248807 -0.664880 -0.144578 0.134016 -0.197270 0.588710 -0.072554 0.222513 -0.127649 -0.291928 0.061788 -0.192083 0.217441 0.028145 0.216904 0.183372 -0.106263 -0.394858 0.446308 0.051146 -0.076750 0.149906 0.178567 0.021716 0.299296 -0.370130 -0.309168 
922 0.115350 -0.313829 0.422692 -0.261001 -0.026309 -0.189179 0.176117 0.177788 0.107530 -0.104062 -0.005533 0.176492 -0.085527 -0.153884 -0.029211 0.223217 0.250811 -0.111305 0.404170 -0.205099 0.190895 0.417822 0.011875 -0.130439 -0.566772 -0.112046 -0.316830 0.113060 0.167337 0.006409 -0.192849 -0.481250 0.199088 -0.121841 -0.141010 0.094591 0.181098 -0.585355 0.141291 0.075570 0.167012 0.450779 -0.429061 0.061030 -0.002729 0.309449 -0.081019 -0.071996 -0.186976 -0.536390 
935 0.215175 -0.200472 0.269338 -0.346302 0.072814 -0.223192 0.242337 -0.129002 -0.192462 -0.111219 0.020090 -0.118758 -0.238523 -0.233578 -0.155999 0.665751 -0.072487 -0.084564 0.455877 -0.021603 -0.141591 0.019275 0.149539 -0.260002 -0.431298 -0.088347 0.169269 -0.305534 0.065955 0.069430 -0.101084 -0.086323 -0.290508 -0.102771 -0.376620 -0.084278 0.137282 -0.092104 0.063560 0.121272 -0.229406 0.294249 -0.050186 0.101299 0.261760 0.048391 0.017480 0.327236 -0.219996 -0.229615 
380 0.163734 -0.180648 0.146449 -0.469323 -0.440912 -0.138434 0.157651 -0.396490 -0.357581 0.023250 0.390083 -0.115534 -0.491461 -0.567117 0.033253 0.619010 -0.282180 -0.035689 0.204239 0.061008 -0.258685 0.231734 -0.180282 -0.285136 -0.296547 0.146971 -0.044722 -0.182484 0.590630 -0.088482 -0.163740 0.138282 -0.479906 -0.112804 -0.069292 -0.264062 0.089545 -0.043042 0.140394 0.301989 -0.196138 0.302874 0.070771 -0.001261 0.001219 -0.070870 0.254295 0.120316 -0.102834 -0.177184 
414 0.214693 -0.134143 0.289546 -0.317657 -0.307706 0.005415 0.184987 -0.247545 -0.431911 0.037020 0.313281 -0.144222 -0.448817 -0.289868 0.007142 0.675187 -0.125074 -0.212397 0.444199 -0.085113 -0.242141 0.075092 -0.137155 -0.477147 -0.141361 0.020306 -0.010401 -0.358401 0.436249 -0.173465 -0.021272 -0.053330 -0.423106 0.015368 -0.151487 -0.008141 0.147513 0.048069 0.100686 0.216289 -0.228356 0.398071 0.026928 0.085235 0.049416 -0.083431 0.211043 0.271187 -0.132235 -0.261994 
515 0.164739 0.279517 -0.000641 0.157622 0.161349 -0.429971 0.311737 -0.099280 -0.203934 -0.263939 0.379248 0.170921 0.115102 -0.284858 -0.020929 0.263948 0.133845 -0.216905 0.554908 0.264663 0.199088 0.386163 0.018599 -0.005793 -1.067341 0.011108 -0.361764 0.201252 0.356086 -0.082327 -0.114882 -0.417390 0.007851 -0.017611 0.043476 -0.118978 0.104694 -0.667715 -0.111577 -0.145803 -0.073880 0.503683 -0.165868 0.049594 -0.153556 0.514400 -0.008405 -0.210355 -0.135056 -0.750883 
968 0.199035 -0.506780 0.190301 -0.294541 0.055129 -0.128239 0.192987 -0.335231 -0.196056 -0.182627 0.163065 -0.233736 -0.392251 -0.441145 -0.177322 0.730429 -0.089101 -0.027379 0.522367 -0.042173 -0.251788 0.141739 0.157813 -0.269245 -0.193443 0.010260 0.282674 -0.454089 -0.096446 0.151859 -0.169906 0.094700 -0.357810 -0.161686 -0.243944 -0.199082 0.084307 -0.106701 0.229706 0.111658 -0.043988 0.324465 0.198120 0.060714 0.294772 0.027331 0.054981 0.275117 0.034040 -0.126789 
262 0.245285 0.007490 0.007261 -0.262811 -0.229316 -0.021063 0.195826 -0.041569 -0.318798 0.127782 0.215196 0.050408 -0.357478 -0.308736 0.029384 0.364276 0.058101 -0.112289 0.356507 -0.316565 0.032721 0.067579 -0.063762 -0.350485 -0.481695 -0.185967 -0.176791 -0.335703 0.595806 -0.173580 0.049957 -0.196565 0.007068 0.134483 -0.171141 0.216907 0.097216 0.068187 0.284342 0.107743 -0.247209 0.500010 -0.065038 0.121904 0.120819 0.060351 0.078119 0.052964 -0.109488 -0.272867 
357 0.152775 -0.344799 0.366937 -0.483141 -0.437458 0.211843 0.307910 0.069600 -0.235444 0.118265 0.181169 -0.309048 -0.542467 -0.118033 -0.113925 0.846533 -0.246069 -0.124684 0.527054 -0.013428 -0.178477 0.016029 -0.173443 -0.528921 -0.215843 -0.141789 -0.022938 -0.240050 0.389162 -0.099174 0.210218 -0.320649 -0.367548 0.098747 -0.210758 0.153479 0.006132 0.123644 0.331958 0.008332 0.009391 0.393096 0.334670 0.334746 0.223466 -0.174331 0.339147 0.403569 0.014666 -0.180397 
148 0.119843 0.079853 -0.056369 0.154001 0.142103 -0.302394 0.052272 -0.220815 -0.160699 -0.257263 0.382211 0.174059 -0.111734 -0.844451 0.050490 0.282556 -0.010314 0.109623 0.466504 0.152471 -0.072863 0.384195 -0.097354 -0.173758 -0.458065 -0.081827 -0.408984 -0.197051 0.344090 -0.012906 -0.554759 -0.307156 -0.094615 -0.024011 0.311928 0.021710 0.053923 -0.473962 0.009399 0.049174 -0.000135 0.473994 -0.166297 -0.175190 -0.162852 0.279449 -0.137305 0.187521 -0.044232 -0.476285 
731 0.310636 0.143462 0.172534 -0.094755 -0.090877 0.095035 0.110328 -0.170876 -0.272852 0.099082 0.091944 0.274270 -0.220889 -0.383487 0.016314 0.425668 0.253869 0.135265 0.330715 -0.537161 0.211380 0.273176 -0.204551 -0.342212 -0.393255 -0.263788 -0.313244 -0.179518 0.671356 -0.170391 -0.217005 -0.453121 0.261622 0.126937 -0.097787 0.157905 0.267278 -0.000669 0.041108 0.013202 -0.041803 0.539864 -0.407769 -0.073842 0.143362 0.101287 -0.040918 0.089668 -0.102049 -0.481843 
163 0.130340 -0.183259 0.192897 -0.055162 0.024604 -0.245146 0.306669 -0.343309 0.265667 -0.037594 0.165366 0.093816 -0.071817 -0.588320 -0.083848 0.179959 0.281527 -0.154730 0.327622 -0.159738 -0.015356 0.223932 -0.161802 -0.030019 -0.200611 -0.315172 -0.208928 -0.163512 0.453621 -0.159494 -0.668563 -0.446044 0.058710 -0.202242 -0.001666 0.067510 0.110709 -0.325954 0.026857 0.299631 0.347889 0.462166 -0.260875 -0.286864 0.167628 0.057031 -0.073439 -0.016165 -0.016875 -0.407347 
36 0.358683 -0.530314 0.032136 -0.322022 0.299902 -0.304625 0.069647 -0.428645 -0.269197 -0.446330 0.218615 -0.328882 -0.363327 -0.659929 -0.202164 0.814001 0.055191 0.118680 0.538198 -0.094110 -0.218918 0.205680 0.259836 -0.287579 -0.238890 -0.020031 0.286569 -0.618089 -0.223161 0.372359 -0.507991 0.232730 -0.279144 -0.135159 -0.263874 -0.257828 0.104600 -0.157687 0.266688 0.121081 -0.175071 0.264027 0.116486 0.054556 0.229252 0.183692 0.018855 0.396488 -0.057888 -0.023411 
785 0.122405 -0.094808 0.208285 -0.000320 0.062932 -0.147379 0.268729 -0.169609 0.088705 0.002758 -0.004632 0.282084 -0.097861 -0.301959 -0.130680 0.254114 0.286777 -0.224959 0.313566 -0.211356 0.017561 0.269345 -0.148322 -0.157429 -0.472195 -0.337425 -0.206734 -0.046737 0.348199 -0.115439 -0.180141 -0.519106 0.241387 -0.011539 -0.196290 0.083251 0.167392 -0.305761 0.171864 0.138243 0.292696 0.471852 -0.281183 0.040889 0.192514 0.159872 -0.031155 -0.023158 0.032893 -0.504041 
206 -0.058408 -0.352492 0.329969 -0.091173 0.007141 -0.213816 0.231282 0.131775 0.272741 -0.153252 -0.047086 0.235037 -0.215360 -0.296946 -0.165671 0.194886 0.185357 -0.206943 0.446583 0.007454 0.036654 0.251975 -0.013251 -0.106836 -0.598471 -0.242460 -0.197360 0.027478 0.121048 -0.129882 -0.176415 -0.596613 0.034681 -0.035615 -0.093428 0.174186 0.096515 -0.688366 0.243636 -0.088454 0.526343 0.406960 -0.294496 0.108579 0.025375 0.257107 -0.149490 0.099185 0.021271 -0.654937 
373 0.186996 0.008793 -0.005324 -0.138389 0.206988 -0.374295 0.150448 -0.006977 -0.226148 -0.073185 0.322434 0.052666 -0.336624 -0.376704 0.010536 0.487444 -0.016217 -0.046019 0.339210 -0.081068 0.143823 0.253104 0.013332 -0.255017 -0.524286 -0.115539 -0.056853 -0.214516 0.342972 0.165564 -0.042226 -0.249533 -0.151044 -0.006154 -0.149097 0.166826 0.009528 -0.057534 0.195285 -0.019687 -0.130466 0.394124 -0.077360 -0.202579 0.113346 0.170480 -0.058391 0.094719 -0.161910 -0.272109 
712 0.240884 0.060714 0.153046 -0.217204 -0.028183 0.092101 0.124762 -0.194860 -0.449088 -0.072697 0.209254 0.009547 -0.437547 -0.363763 -0.025994 0.485624 0.007995 0.063359 0.352347 -0.129347 -0.163633 0.095719 -0.167715 -0.440797 -0.360343 -0.082434 -0.198534 -0.344774 0.373373 -0.064961 -0.195803 -0.198294 -0.076407 0.004392 -0.222055 0.068938 0.196953 -0.045260 0.107982 0.090358 -0.142674 0.451549 -0.187594 0.086049 -0.048260 0.039608 0.147150 0.310299 -0.156048 -0.307966 
228 0.057646 -0.088324 0.190038 -0.078884 0.131937 -0.174708 0.270447 -0.038123 0.154333 -0.116253 0.156621 0.119150 -0.128612 -0.377344 -0.131392 0.253827 0.244756 -0.172133 0.395361 -0.084124 0.076622 0.231954 -0.137440 -0.213769 -0.345849 -0.272272 -0.212432 -0.050758 0.258711 -0.066358 -0.287380 -0.569060 0.105529 -0.093500 -0.117535 0.187383 0.098674 -0.321382 0.149054 0.041243 0.287146 0.455909 -0.215457 -0.075256 0.111393 0.195764 -0.098989 0.012103 0.057566 -0.500684 
90 0.135466 -0.099819 0.471565 -0.226838 -0.031628 -0.084005 0.166773 0.053233 -0.076316 -0.254090 -0.027358 0.189894 -0.046671 -0.339170 0.156415 0.243959 0.264124 -0.014381 0.429339 -0.160044 0.119742 0.602533 -0.149380 -0.155252 -0.578546 -0.014047 -0.578461 0.292084 0.227297 -0.080851 -0.377005 -0.554705 0.121565 -0.254100 -0.047419 -0.083324 0.283564 -0.660575 0.075778 0.060769 0.129682 0.327732 -0.559169 0.244757 -0.190739 0.250385 0.066389 -0.019828 -0.172712 -0.532183 
284 0.167114 -0.172409 -0.007785 -0.239732 -0.288166 -0.180786 0.161690 -0.002442 -0.108192 -0.013435 0.405121 -0.207446 -0.394558 -0.517604 0.146768 0.352457 -0.187280 -0.139709 0.540930 0.102990 -0.060787 0.182563 -0.179938 -0.202198 -0.477273 -0.108841 0.003980 -0.288571 0.612579 0.099771 -0.004847 -0.018156 -0.353277 0.052680 0.162954 0.115318 -0.077203 -0.158913 0.390442 0.082676 -0.117984 0.362995 0.308232 0.038104 0.064736 0.173028 -0.011763 0.176943 -0.089676 -0.094357 
204 0.199907 0.127816 0.217794 -0.243778 -0.136553 -0.282460 0.178571 -0.248209 -0.393606 0.026561 0.314518 0.112533 -0.156638 -0.153739 -0.063944 0.624103 -0.031989 -0.125201 0.401696 0.099568 0.044537 0.143405 -0.086346 -0.218085 -0.536652 0.033125 -0.047901 -0.190971 0.612983 -0.227942 0.025335 -0.063805 -0.308340 0.072143 -0.090929 -0.109476 0.221860 -0.117985 -0.103454 -0.109269 -0.302399 0.365612 -0.110030 -0.100588 0.069482 0.127840 0.119954 0.217182 -0.324010 -0.423259 
501 0.181654 -0.227742 0.069251 -0.340409 -0.359788 -0.188409 0.141667 -0.092355 -0.388651 0.018433 0.409262 -0.094900 -0.634524 -0.456045 0.018868 0.499623 -0.245606 -0.040530 0.346442 0.031584 -0.216820 0.221918 -0.183855 -0.319776 -0.658953 0.044024 -0.028032 -0.204616 0.494789 0.047737 0.143055 0.119078 -0.457705 0.110494 -0.066228 -0.096644 -0.031419 -0.046133 0.336280 0.103404 -0.203034 0.285632 0.244110 0.049030 0.038055 0.080956 0.246791 0.140850 -0.180054 -0.069880 
770 0.325914 0.001720 0.418463 -0.438109 -0.029832 -0.221414 0.262927 -0.277850 -0.528508 0.201057 0.344574 -0.014948 -0.161690 -0.143920 -0.248930 1.113944 0.018556 -0.078395 0.576994 -0.171210 0.284980 0.062197 -0.131896 -0.536047 -0.069741 0.010742 0.081603 -0.584552 0.451257 -0.142636 0.046089 -0.260136 -0.242038 0.136502 -0.271742 0.063414 0.291647 0.293178 -0.108553 -0.181772 -0.491152 0.359093 0.042839 -0.231488 0.367532 0.057402 0.089582 0.313300 -0.186989 -0.291639 
906 0.037590 -0.465539 0.126362 -0.112066 0.002809 -0.292272 0.291010 -0.135343 0.168539 -0.041704 0.203400 0.026432 -0.190929 -0.515148 -0.005562 0.201717 0.030548 -0.147924 0.244830 -0.169484 0.004709 0.102847 0.212382 0.017801 -0.314254 -0.244038 -0.237220 -0.038839 0.036091 -0.053120 -0.345700 -0.413464 -0.002207 -0.237006 -0.151684 0.052929 -0.086700 -0.379797 0.231560 0.323237 0.243046 0.498437 -0.020593 -0.097619 0.231711 0.097564 -0.097684 -0.149106 -0.027341 -0.401215 
75 0.263547 -0.167005 0.324252 -0.326971 -0.039230 0.075410 0.101981 -0.338468 -0.323130 0.064559 0.033074 -0.065797 -0.209155 -0.199406 -0.027215 0.447038 0.080287 -0.014948 0.404312 -0.417821 -0.136686 0.038356 -0.027636 -0.296543 -0.130405 0.006001 -0.114242 -0.466504 0.175842 -0.076886 -0.223209 -0.103445 -0.057936 -0.132066 -0.330473 0.004495 0.191271 -0.100416 0.154770 0.090333 -0.068145 0.538689 -0.073186 0.025466 0.112975 0.005783 0.070091 0.193773 -0.018493 -0.447295 
673 0.442541 -0.150360 0.260844 -0.386929 0.130819 -0.577668 0.524436 -0.295982 0.057856 0.065346 0.108445 -0.175683 -0.128665 -0.347573 -0.397844 0.537768 0.017635 -0.345807 0.059216 -0.017150 -0.066412 -0.041885 0.103562 -0.029802 -0.486434 -0.223027 0.099179 -0.260059 0.022646 0.022289 -0.295184 -0.170754 -0.123931 -0.369012 -0.626576 -0.018034 -0.005764 0.086819 -0.077416 0.522317 -0.231156 0.376990 -0.183153 0.018951 0.497187 -0.055352 0.130297 0.288001 -0.309779 -0.218518 
888 0.087799 -0.619180 0.489760 -0.082809 -0.175287 -0.157095 0.148467 0.043466 0.258772 -0.125115 -0.182530 0.279975 -0.214808 -0.330121 -0.185993 0.178676 0.174022 -0.116141 0.468442 -0.003431 -0.031189 0.257495 0.187539 0.075291 -0.618280 -0.177759 -0.216130 -0.067062 -0.145010 -0.142755 -0.203592 -0.509290 0.033194 0.022280 -0.062808 0.070146 0.074611 -0.948473 0.198395 -0.050997 0.648872 0.378525 -0.220550 0.221300 0.084569 0.282145 -0.097288 0.190775 0.034703 -0.758954 
636 0.311782 -0.742317 0.357885 -0.300693 -0.057448 -0.079684 0.247232 -0.363370 -0.334600 -0.063769 0.281285 -0.149307 -0.500319 -0.501737 -0.273656 0.947872 -0.134092 -0.005652 0.545735 -0.172999 -0.257598 0.152267 0.107422 -0.257600 -0.093206 -0.003992 0.295194 -0.595655 -0.193050 -0.009656 -0.091676 0.125242 -0.348212 -0.118724 -0.219518 -0.370439 0.000961 -0.080088 0.308518 -0.036997 -0.054718 0.237684 0.382124 -0.058247 0.288277 -0.048319 0.119479 0.224345 0.120288 -0.048663 
939 0.329916 -0.005137 0.095882 -0.310017 0.230801 -0.219719 0.150963 -0.335951 -0.226405 -0.149369 0.114626 -0.139614 -0.304482 -0.357107 -0.184826 0.792771 0.029047 0.028600 0.428917 -0.050491 0.075138 0.041996 0.141771 -0.291775 -0.392214 -0.122968 0.293775 -0.492808 0.220789 0.203056 -0.334231 -0.012787 -0.228175 -0.126225 -0.300008 -0.004942 0.161442 -0.041796 0.060748 0.087632 -0.206680 0.363660 -0.034560 -0.017712 0.302472 0.077568 -0.042152 0.408762 -0.176149 -0.211925 
976 0.303100 -0.242697 0.426621 -0.453136 -0.286918 -0.230542 0.213908 -0.562858 0.032744 0.071570 0.081567 -0.128902 -0.021684 -0.164057 -0.314170 0.806612 0.046587 -0.278542 0.258170 0.121001 0.130918 0.089387 0.019124 -0.054225 -0.098305 -0.188906 0.101826 -0.208158 0.259314 0.029224 -0.251490 -0.235671 -0.199949 -0.119448 -0.259006 -0.142576 0.033822 -0.110425 -0.005214 0.345496 -0.047319 0.197660 0.107612 0.021813 0.396349 -0.091934 0.094200 0.297425 -0.010776 -0.260460 
472 0.185724 -0.709595 0.350778 -0.208673 0.093885 -0.059559 0.134926 -0.342700 -0.281733 -0.282643 0.086678 0.023870 -0.461922 -0.509636 -0.219022 0.678407 -0.009308 0.109406 0.484092 -0.154918 -0.400979 0.265804 0.136805 -0.198291 -0.225283 0.014752 0.136723 -0.353309 -0.427262 0.095905 -0.216209 0.004368 -0.199324 -0.159778 -0.228792 -0.376830 0.129863 -0.343318 0.322318 -0.073551 0.118161 0.133250 0.124472 0.071306 0.166227 0.030038 0.034519 0.192595 0.078129 -0.145173 
811 0.202441 -0.272159 0.427569 -0.422476 -0.302171 -0.038829 0.138398 -0.316194 -0.253404 0.187251 0.094620 -0.186158 -0.136872 -0.005628 -0.065829 0.637759 -0.011714 -0.279293 0.617395 -0.264973 -0.039971 0.061244 0.035313 -0.309446 -0.023743 0.053910 0.084094 -0.515034 0.343914 -0.103088 0.148987 -0.097912 -0.436800 0.002126 -0.305948 0.084526 0.168221 0.039259 0.247821 0.035438 -0.140113 0.446186 0.268841 0.076622 0.314497 -0.051221 0.120545 0.264619 0.017749 -0.420348 
130 0.206586 -0.391056 0.376429 -0.263772 -0.147934 -0.380822 0.235541 -0.516570 0.254301 -0.077047 0.018034 0.054420 0.095255 -0.228892 -0.360816 0.404350 0.196531 -0.257783 0.260821 0.220832 0.071395 0.334408 0.141040 0.144182 -0.342350 -0.419479 -0.104833 0.073018 -0.129026 0.088243 -0.263206 -0.376778 -0.027457 -0.120362 -0.172513 -0.084928 0.019772 -0.627422 0.137575 0.466210 0.473818 0.263818 0.157910 0.108873 0.493957 0.216132 0.006548 0.055020 0.171741 -0.432055 
365 0.336840 -0.047149 0.292803 -0.193710 0.025702 -0.075096 0.234606 -0.286938 -0.338052 -0.017871 0.188143 0.017441 -0.274868 -0.362644 -0.117685 0.410984 0.010043 -0.003446 0.308247 -0.323446 -0.073263 0.084205 -0.057379 -0.205681 -0.369624 -0.143628 -0.078611 -0.289631 0.140422 -0.014731 -0.148402 -0.186070 -0.016516 -0.135808 -0.317537 0.032015 0.077769 0.002970 0.068091 0.131122 -0.121772 0.471958 -0.089015 -0.066848 0.255885 -0.046906 0.059073 0.231069 -0.191556 -0.263231 
572 0.168281 -0.637734 0.588802 -0.501567 -0.239904 -0.160548 0.115740 -0.547644 -0.170178 0.130886 -0.045954 -0.089283 -0.041403 -0.167272 -0.114117 0.714336 -0.078837 -0.278164 0.383888 -0.294786 -0.270435 0.225211 0.037993 -0.124085 0.132764 0.154312 -0.018581 -0.347770 -0.076425 -0.052398 -0.218609 -0.022061 -0.440566 -0.301061 -0.439899 -0.392284 0.112267 -0.246626 0.183960 0.222908 0.013603 0.270516 0.129982 -0.016853 0.307196 -0.213436 0.170933 0.056452 0.167506 -0.422445 
825 0.055919 -0.508305 0.444690 -0.036032 0.045282 -0.125615 0.154514 -0.043390 0.143562 -0.184396 -0.259002 0.214967 -0.267273 -0.471518 -0.233410 0.193901 0.216167 -0.047951 0.497702 -0.135189 -0.218877 0.253916 0.142534 -0.054650 -0.524767 -0.096782 -0.138240 -0.107992 -0.250934 -0.067665 -0.259927 -0.395535 -0.067859 -0.046219 -0.144764 -0.051302 0.118837 -0.726315 0.263470 -0.038502 0.476783 0.236670 -0.241439 0.379409 0.019326 0.193411 0.016269 0.216891 0.021687 -0.567664 
399 0.161571 -0.214312 0.275784 -0.312434 -0.069207 -0.659298 0.432031 -0.319121 0.278391 0.136296 0.157137 -0.106175 0.011135 -0.181888 -0.594157 0.453763 0.157600 -0.398877 0.008024 0.109063 -0.108710 0.230839 0.153488 0.074568 -0.610039 -0.491942 -0.115340 0.160113 -0.138719 0.229224 -0.121564 -0.271022 -0.186819 -0.118958 -0.594254 0.084041 -0.086373 -0.198749 0.144836 0.701460 0.089972 0.228833 0.073740 0.219018 0.565144 0.096100 0.070434 0.000322 -0.024932 -0.469723 
862 0.148123 -0.133097 0.374504 -0.330896 -0.066266 0.002615 0.170978 -0.387093 -0.021691 -0.006651 0.083723 -0.077707 -0.194413 -0.180792 -0.192571 0.773096 0.035941 -0.100279 0.432986 -0.115718 0.111984 0.039801 0.102376 -0.286031 -0.201341 -0.024304 0.234811 -0.272801 0.267188 0.040912 -0.191618 -0.181366 -0.279049 -0.081249 -0.316337 -0.030699 0.166778 0.083852 0.096043 0.118048 -0.100585 0.335696 0.018047 0.047958 0.322432 -0.009400 -0.035372 0.374002 -0.055718 -0.362448 
452 0.488877 0.010890 0.303403 -0.108092 -0.031357 0.117805 0.218584 -0.373487 -0.122460 0.058946 -0.000786 0.113490 -0.105235 -0.539612 -0.028809 0.396944 0.300350 0.282092 0.390464 -0.475507 0.292724 0.265685 -0.206715 -0.216310 -0.208203 -0.160087 -0.281728 -0.366093 0.474994 -0.263351 -0.750361 -0.345288 0.256246 -0.089703 -0.010235 0.040058 0.332497 -0.115469 -0.262952 0.113159 -0.004953 0.520895 -0.504214 -0.291961 0.151288 0.144574 -0.019713 0.213021 -0.176512 -0.531447 
953 0.242095 0.233596 0.043662 -0.177010 -0.024673 -0.081523 0.050854 -0.166136 -0.561533 -0.017648 0.388720 0.189607 -0.367292 -0.565204 0.037869 0.550347 -0.022249 0.175145 0.385274 -0.002624 0.148287 0.388569 -0.288553 -0.443601 -0.395587 -0.024800 -0.331153 -0.212516 0.501718 0.028739 -0.104261 -0.232813 0.002318 0.072327 0.103860 0.075793 0.252613 -0.077272 0.121774 -0.061366 -0.173422 0.395183 -0.146399 -0.094350 0.002345 0.174413 0.042373 0.210173 -0.070728 -0.236839 
992 0.152378 -0.272369 0.248472 -0.083771 -0.033733 -0.129148 0.165629 -0.143505 0.011931 -0.045444 -0.037058 0.185067 -0.093306 -0.347725 -0.030086 0.240479 0.236373 -0.154424 0.373632 -0.291218 -0.038523 0.312080 0.019938 -0.092184 -0.349050 -0.134014 -0.308490 -0.000847 0.172165 -0.127476 -0.259827 -0.422146 0.076442 -0.107543 -0.126054 -0.047640 0.096657 -0.425034 0.130034 0.113434 0.274767 0.396665 -0.222529 0.069324 0.093283 0.139162 0.062667 -0.051743 0.034588 -0.507658 
864 0.228306 -0.017465 0.013719 -0.229562 0.239418 -0.337547 0.225473 -0.200300 -0.126467 0.034721 0.239222 -0.075429 -0.312140 -0.355306 -0.106849 0.650734 0.026647 -0.112203 0.312178 -0.124660 0.211089 0.124868 0.007553 -0.274956 -0.373867 -0.155442 0.155466 -0.391059 0.417769 0.147180 -0.211021 -0.139962 -0.116581 -0.119557 -0.252258 0.178090 0.132226 0.057552 0.058705 0.075689 -0.101978 0.464817 -0.092060 -0.231388 0.310607 0.142083 -0.072909 0.177540 -0.150091 -0.231577 
167 0.191081 -0.223846 0.464532 -0.373502 -0.323019 -0.128088 0.213229 -0.095152 -0.292046 0.060787 0.114690 -0.010217 -0.263711 0.023400 0.127001 0.460803 -0.015947 -0.172290 0.325655 -0.016746 -0.043900 0.323752 -0.099860 -0.255916 -0.404568 0.051800 -0.047513 -0.108694 0.461973 0.005749 0.124078 -0.011739 -0.273291 -0.022967 -0.191956 -0.036927 0.185037 -0.279347 0.188959 -0.047195 -0.069470 0.248387 -0.038104 0.033547 0.109238 0.081768 0.185924 0.149503 -0.205910 -0.346450 
853 0.088881 -0.411257 0.360589 -0.087736 -0.042926 -0.249626 0.247693 -0.010909 0.038409 -0.053690 -0.098159 0.095921 -0.143806 -0.288092 -0.165007 0.166969 0.168300 -0.166945 0.378880 -0.183840 -0.132657 0.163718 0.236753 -0.079347 -0.448787 -0.157262 -0.281570 -0.073878 -0.168844 0.007913 -0.053195 -0.348744 -0.085521 -0.022767 -0.196932 0.042335 -0.034188 -0.594188 0.300285 0.143746 0.198003 0.350571 -0.115066 0.221938 0.121222 0.113721 -0.039582 0.030058 0.070154 -0.609997 
674 0.333124 -0.194909 0.535533 -0.207554 0.240399 -0.226618 0.423918 -0.433378 0.151352 -0.234142 -0.015973 -0.057891 0.066384 -0.621841 -0.168406 0.371280 0.167404 -0.055127 0.178601 -0.239222 -0.115255 0.128783 -0.073502 -0.144386 -0.242400 -0.162841 -0.201517 -0.225843 0.116688 -0.203642 -0.909606 -0.453287 0.090501 -0.472916 -0.434250 0.020053 0.251067 -0.015403 -0.250027 0.442569 0.010929 0.501259 -0.609425 -0.026136 0.233651 0.054395 0.047934 0.299117 -0.390777 -0.383133 
99 0.159651 -0.032605 0.006771 -0.241550 -0.149190 -0.392295 0.144147 -0.329014 -0.350348 -0.188931 0.468086 0.039443 -0.383346 -0.745744 0.008602 0.512075 -0.202085 0.030515 0.319800 0.199730 -0.145710 0.294256 -0.065886 -0.156699 -0.420334 0.097409 -0.131720 -0.103966 0.440617 -0.057115 -0.264356 -0.034392 -0.486381 -0.104726 -0.002525 -0.312710 0.050244 -0.109135 0.076856 0.165076 -0.267832 0.230127 0.010753 -0.158317 -0.052968 0.031958 0.159899 0.105679 -0.220418 -0.182935 
143 0.022307 -0.692366 -0.149327 -0.248653 0.174815 -0.624083 0.095605 0.084880 -0.164904 -0.093934 0.283073 0.045676 -0.301819 -0.332073 -0.324919 0.314395 0.222845 -0.128018 0.410783 -0.190385 0.036006 0.357260 0.367720 -0.259772 -0.525051 -0.084074 -0.253443 -0.129324 -0.499220 0.337463 0.115476 -0.194078 0.038322 0.058348 -0.406433 0.125609 -0.140508 -0.253461 0.665053 0.138181 0.007064 0.447403 0.312204 0.037754 0.235626 0.419000 0.130884 -0.242597 0.265655 -0.402961 
81 0.153392 0.190431 0.175964 -0.143335 -0.033272 -0.165014 0.068520 -0.102653 -0.467630 0.003109 0.257242 0.272993 -0.315190 -0.317474 -0.057693 0.567860 0.063171 0.069576 0.393676 -0.035893 0.045037 0.311561 -0.173671 -0.365979 -0.468515 -0.092956 -0.257136 -0.154379 0.484661 -0.039760 0.014387 -0.244077 -0.095447 0.180562 -0.047163 -0.019836 0.225113 -0.141242 0.016919 -0.065625 -0.186962 0.312605 -0.216082 -0.100268 -0.004129 0.122397 0.076257 0.211603 -0.134026 -0.388807 
541 0.049862 -0.474980 0.476425 -0.046473 0.000510 -0.103630 0.293986 -0.096088 0.178726 -0.102778 -0.289134 0.122535 -0.176426 -0.387124 -0.264231 0.185624 0.212114 -0.169053 0.447142 -0.200021 -0.256832 0.124483 0.146123 -0.082696 -0.421006 -0.138716 -0.217337 -0.079355 -0.222663 -0.163190 -0.157536 -0.451607 -0.107237 -0.108538 -0.251667 -0.050450 0.094100 -0.536052 0.242942 0.068409 0.404644 0.311800 -0.214634 0.407583 0.158546 0.043482 0.037910 0.185390 0.040601 -0.597994 
791 0.020818 -0.323422 0.431178 -0.034513 -0.063158 -0.182661 0.139911 -0.039419 0.154297 -0.188221 -0.201760 0.235472 -0.157684 -0.523934 -0.139352 0.121508 0.223614 -0.071281 0.467897 -0.046824 -0.082937 0.354464 0.083245 0.018314 -0.578070 -0.150434 -0.258707 0.005184 -0.000818 -0.107993 -0.335660 -0.421766 -0.053735 -0.078967 0.032822 -0.026216 0.128732 -0.852469 0.194982 0.018521 0.470306 0.283235 -0.294145 0.307255 -0.027090 0.216156 -0.019192 0.166003 -0.003506 -0.647809 
523 0.168332 -0.725952 0.312799 -0.185160 0.061398 -0.078161 0.151155 -0.265263 -0.145236 -0.201327 -0.001347 -0.001436 -0.416935 -0.446834 -0.283423 0.586108 0.026269 -0.054159 0.569553 -0.152157 -0.370981 0.183987 0.189610 -0.188452 -0.270926 0.019393 0.221680 -0.441648 -0.409222 0.045736 -0.116010 -0.002731 -0.168464 -0.131289 -0.245177 -0.334599 0.103001 -0.419626 0.333294 -0.036756 0.222731 0.250846 0.111278 0.215668 0.179614 0.029071 0.027824 0.222092 0.144035 -0.252037 
702 0.161623 0.121354 -0.002474 0.058469 0.148513 -0.097016 0.151546 -0.134592 0.011177 -0.035683 0.179754 0.181657 -0.127805 -0.442364 -0.073704 0.307467 0.142135 0.055258 0.388637 -0.129671 0.338738 0.259036 -0.046594 -0.200570 -0.613002 -0.118924 -0.180789 -0.136969 0.481112 -0.062786 -0.357930 -0.382473 0.103271 0.030725 0.062194 0.197045 0.146481 -0.330886 0.059040 -0.054000 0.089533 0.577388 -0.216974 -0.079768 0.040690 0.412540 -0.161564 0.036789 -0.042514 -0.616539 
982 0.215494 -0.045540 0.403159 -0.287318 -0.149042 0.142894 0.275599 -0.204891 -0.281464 -0.139024 0.150601 -0.101620 -0.353457 -0.387600 0.031264 0.549258 -0.045664 -0.049224 0.242902 -0.065954 -0.254731 -0.005266 -0.169066 -0.443793 -0.251975 -0.097246 -0.228798 -0.254722 0.424593 -0.303421 -0.430415 -0.359467 -0.243061 -0.114532 -0.260130 0.129985 0.282925 0.117836 -0.045075 0.241480 -0.080702 0.398623 -0.287175 0.199537 -0.037488 0.007765 0.251750 0.442484 -0.340354 -0.308222 
24 0.196252 -0.440401 0.213427 -0.187914 -0.327664 -0.284166 0.200677 -0.205265 0.156930 -0.172984 0.097412 0.325668 -0.227575 -0.352068 -0.121783 0.110961 0.053070 -0.192994 0.296363 0.242949 0.125941 0.328184 0.151978 0.213783 -0.648096 -0.321732 -0.195114 0.126805 0.103587 -0.168879 -0.018936 -0.492662 0.005183 -0.010087 0.103351 0.089154 0.073250 -0.660492 0.287936 0.104136 0.517110 0.288254 0.087946 0.072619 0.189055 0.361736 -0.011507 0.134485 -0.042839 -0.444465 
279 0.164848 -0.194556 0.585590 -0.346825 -0.035870 -0.179928 0.142914 0.180643 -0.095854 -0.216724 -0.056756 0.121638 -0.001610 -0.186736 0.133677 0.296336 0.289226 0.019838 0.487889 -0.190148 0.133431 0.675332 -0.109411 -0.226424 -0.499180 -0.030974 -0.567433 0.284784 0.080985 0.086401 -0.308105 -0.466570 0.122442 -0.227125 -0.131920 -0.071694 0.275272 -0.652732 0.160823 0.087131 -0.018149 0.265991 -0.533061 0.215165 -0.185244 0.266407 0.045808 -0.030884 -0.194769 -0.463792 
410 0.316374 0.035448 0.195683 -0.215985 -0.094942 -0.064951 0.101650 -0.166496 -0.361150 -0.061090 0.216631 0.099760 -0.363509 -0.257299 -0.015618 0.514258 -0.014475 -0.027231 0.425241 -0.172531 0.306242 0.203811 -0.046512 -0.245645 -0.410094 -0.143757 -0.100794 -0.168726 0.407012 -0.011770 0.051035 -0.350551 -0.018877 0.017071 -0.096894 0.164062 0.216667 -0.005340 0.105426 -0.085938 -0.023170 0.380960 -0.058720 -0.039832 0.217525 0.152805 -0.004697 0.251653 -0.177174 -0.253499 
822 0.154291 -0.376776 0.167062 -0.073287 -0.098436 -0.310451 0.248131 -0.112658 0.115740 -0.173958 0.113902 0.181654 -0.097193 -0.291987 -0.074839 0.065405 0.085571 -0.184252 0.399505 0.088277 0.260126 0.252046 0.241089 0.137133 -0.616866 -0.169468 -0.201540 0.014915 0.064119 -0.147478 -0.156614 -0.487204 0.117354 -0.003179 0.088876 0.209487 0.060951 -0.650577 0.218782 0.011107 0.422021 0.498841 0.074342 0.016047 0.126750 0.485148 -0.003340 -0.000514 0.000482 -0.688761 
416 0.169790 -0.406406 0.404475 -0.362021 -0.552308 -0.083018 0.139451 -0.232258 0.038000 0.003621 -0.124757 0.247445 -0.158990 -0.007812 -0.029930 0.089206 0.267476 -0.428598 0.508210 -0.046331 0.327695 0.305321 0.115984 0.120653 -0.499582 -0.365661 -0.217714 -0.097304 0.425676 -0.264201 0.099307 -0.502292 0.025426 0.022683 0.056980 0.230052 0.085863 -0.487951 0.443928 0.020241 0.550931 0.241551 0.201537 0.381550 0.180928 0.352233 0.105220 0.199231 0.039853 -0.366635 
527 0.173179 -0.147839 0.182659 -0.198487 -0.092596 -0.216408 0.078965 -0.349385 -0.415233 0.079963 0.233145 0.014986 -0.266883 -0.254772 -0.185964 0.743631 -0.044092 -0.139199 0.590023 -0.057434 -0.104239 0.110362 0.057786 -0.352740 -0.170551 0.066729 0.075777 -0.559337 0.319300 -0.018532 0.098498 -0.000099 -0.336413 0.120515 -0.169931 -0.093294 0.113180 -0.030615 0.062092 -0.000405 -0.296547 0.398116 0.086325 -0.073151 0.146123 -0.004346 0.022085 0.262645 -0.015027 -0.419560 
285 0.124202 -0.259188 0.329720 -0.011399 -0.038969 -0.175617 0.240764 -0.254676 0.183278 0.040807 -0.155401 0.165087 -0.064197 -0.421730 -0.141678 0.136480 0.287553 -0.260971 0.426922 -0.201354 -0.091655 0.246209 0.023097 -0.017715 -0.288232 -0.273515 -0.236909 -0.129482 0.140943 -0.197956 -0.311005 -0.440571 -0.032167 -0.045143 -0.049571 -0.008257 0.076340 -0.550950 0.208794 0.201304 0.395279 0.370944 -0.177520 0.175619 0.202955 0.078343 0.064140 0.044659 0.160343 -0.584387 
622 0.181884 -0.365169 0.056228 -0.294063 -0.440959 -0.243350 -0.008599 -0.081028 -0.195380 -0.067457 0.253823 0.134348 -0.544278 -0.225955 0.050103 0.335509 -0.123105 0.050318 0.293120 0.133014 -0.028178 0.257385 0.052273 -0.014101 -0.723431 0.149699 -0.044056 -0.011051 0.298783 -0.031607 0.017333 -0.135674 -0.319325 0.268177 -0.053308 0.055749 0.009365 -0.404259 0.138508 -0.133079 0.252516 0.169478 0.273028 -0.086131 -0.019392 0.363453 0.273029 0.196344 -0.373519 -0.414184 
583 0.174603 0.049683 0.021560 -0.159407 -0.133344 -0.388239 0.101128 -0.319110 -0.433086 -0.049338 0.348375 0.075632 -0.378894 -0.548472 -0.072056 0.540590 -0.083755 0.020397 0.314662 0.114382 -0.090867 0.304992 -0.093803 -0.214606 -0.446097 -0.004537 -0.112251 -0.276483 0.478991 0.004075 -0.138800 0.041005 -0.424468 0.062580 0.007635 -0.180655 0.074951 -0.169929 0.037029 0.157410 -0.262875 0.279308 -0.066176 -0.129357 -0.005044 0.032003 0.075350 0.227792 -0.175426 -0.313812 
465 0.249647 0.019751 0.021959 -0.192675 -0.063053 -0.529748 0.128214 -0.253108 -0.487474 -0.112240 0.364608 0.050813 -0.430106 -0.620764 -0.027866 0.518806 -0.152821 0.076486 0.308519 0.140783 -0.197266 0.302939 -0.038786 -0.175708 -0.612336 0.030977 -0.159251 -0.252785 0.333010 0.114919 -0.151651 0.058911 -0.479440 0.068340 -0.057633 -0.254747 -0.024463 -0.202699 0.038354 0.226667 -0.372153 0.217337 -0.056254 -0.174566 0.015494 0.009220 0.118649 0.241765 -0.272092 -0.190217 
84 0.117580 -0.240178 0.255998 -0.265554 0.085554 -0.346792 0.201419 -0.347776 -0.132353 -0.196384 0.285949 -0.120407 -0.039143 -0.527056 0.112649 0.538476 -0.045644 -0.121168 0.282319 -0.188776 -0.091818 0.078372 0.075851 -0.259719 -0.094340 0.109697 -0.187729 -0.226456 0.316933 -0.054524 -0.496174 -0.222446 -0.328155 -0.226283 -0.250169 -0.115892 0.095622 0.050700 -0.018187 0.227367 -0.257564 0.388928 -0.224442 -0.150454 0.012125 0.040062 0.003137 0.175655 -0.362418 -0.348904 
137 0.125483 -0.274344 0.350427 -0.095349 -0.049848 -0.245557 0.308095 -0.255733 0.233082 -0.133013 -0.042986 0.100394 0.084160 -0.254802 -0.177927 0.211731 0.156179 -0.259192 0.451199 0.141662 0.054578 0.318693 0.097216 0.091582 -0.451414 -0.322955 -0.119026 0.054700 0.012141 -0.104341 -0.222365 -0.492878 0.026434 -0.082668 0.010232 0.043492 0.174254 -0.722752 0.146285 0.286652 0.512656 0.419047 0.031121 0.172229 0.359336 0.308781 -0.031451 0.038420 0.164243 -0.603109 
491 -0.049303 -0.531704 -0.046630 -0.171177 -0.118818 -0.309318 0.249161 -0.194525 0.119197 -0.135848 0.592812 -0.021737 -0.318063 -0.475044 -0.013245 0.074653 -0.017641 -0.201348 0.393495 0.106200 -0.098024 0.468821 -0.070605 0.066272 -0.262625 -0.138340 -0.117346 0.076547 0.139030 0.080985 -0.236167 -0.258974 0.037241 -0.281219 0.218208 0.010943 0.005007 -0.654291 0.332739 0.410756 0.514295 0.649193 0.350134 -0.351730 0.221303 0.148836 -0.055129 -0.392254 0.279416 -0.378269 
49 0.128876 -0.423741 0.320733 -0.233994 -0.294511 -0.192288 0.028912 -0.025607 -0.004278 -0.104684 -0.019583 0.348569 -0.380777 -0.135741 0.004399 0.265400 0.110577 -0.060436 0.391474 -0.003314 0.072577 0.221142 0.169239 0.018108 -0.724477 0.013276 -0.156204 0.083210 0.134914 -0.136739 -0.008824 -0.507300 -0.085142 0.234558 -0.106414 0.185343 0.085963 -0.453092 0.170850 -0.238853 0.434799 0.165767 0.068215 0.159241 0.023575 0.453929 0.150341 0.253692 -0.321656 -0.567648 
516 0.026534 -0.185256 0.027682 -0.054786 0.054875 -0.280579 0.344577 -0.257328 0.390065 0.113969 0.162448 0.031407 -0.141565 -0.413146 -0.146441 0.235271 0.126117 -0.180523 0.208824 -0.047892 0.194582 0.202612 -0.004779 0.022535 -0.549017 -0.303693 -0.001705 0.003285 0.416527 -0.019010 -0.350251 -0.347511 0.016022 -0.217648 -0.076116 0.112621 0.065243 -0.301118 0.179876 0.326244 0.307773 0.502255 -0.066386 -0.058447 0.344272 0.218537 -0.167602 -0.112894 -0.035609 -0.430893 
39 0.128036 -0.104081 0.193068 -0.327782 -0.032805 -0.158526 0.175553 -0.023304 -0.635403 -0.049320 0.434151 0.203378 -0.587540 -0.218625 -0.175499 0.635744 -0.008474 0.068795 0.335226 0.025560 -0.114226 0.454641 -0.250794 -0.513149 -0.594493 -0.035944 -0.188021 0.037758 -0.050662 0.303922 0.368662 -0.233383 -0.091001 0.100047 -0.285272 -0.072294 0.039977 -0.034263 0.420609 -0.120590 -0.203295 0.138513 0.222897 -0.073177 0.165607 0.137404 0.185189 0.024351 0.077085 -0.150917 
18 0.186753 -0.090430 -0.091223 -0.251601 0.010076 -0.379283 0.436954 -0.339616 0.185624 0.218311 0.383297 -0.125301 -0.328737 -0.406822 -0.129128 0.300557 0.081479 -0.285921 0.147210 -0.063716 0.220960 0.276377 -0.283981 -0.101374 -0.398905 -0.202708 0.142260 -0.172093 0.721996 -0.024342 -0.412425 -0.102598 0.008458 -0.385773 -0.084845 0.073429 0.190597 -0.120036 0.005968 0.436730 0.165972 0.587234 -0.134240 -0.417154 0.388126 0.055995 -0.055432 -0.153298 -0.103023 -0.168154 
136 0.205229 -0.010055 -0.122505 -0.182562 0.062069 -0.218666 0.072072 -0.173551 -0.548414 -0.062746 0.393726 -0.007338 -0.448535 -0.431402 -0.185610 0.487000 -0.014109 0.039191 0.459806 -0.058932 -0.094898 0.134350 -0.001152 -0.409725 -0.411394 0.003578 -0.151473 -0.451187 0.063698 0.154303 0.028188 -0.053470 -0.038840 0.060090 -0.244906 -0.023002 -0.007202 -0.050737 0.268245 0.072031 -0.306921 0.481517 0.073300 -0.053545 0.035849 0.164498 0.100563 0.114555 0.030258 -0.263003 
413 0.187748 0.136032 0.008414 -0.132424 -0.040634 -0.511658 0.086182 -0.330450 -0.474638 -0.327943 0.379985 0.075740 -0.464951 -0.949212 0.009446 0.451326 -0.147987 0.228447 0.321721 0.293083 -0.275320 0.513244 -0.110630 -0.148995 -0.685666 0.041574 -0.255031 -0.102254 0.464611 0.039798 -0.459757 0.074245 -0.608755 -0.061514 0.194377 -0.368360 0.063437 -0.411924 -0.025572 0.217899 -0.306960 0.229412 -0.216804 -0.096895 -0.178482 0.024211 0.152837 0.308362 -0.315109 -0.236176 
578 0.222768 -0.251770 0.013980 0.042061 -0.167926 -0.357509 0.179373 -0.229582 0.138406 -0.194325 0.279479 0.003949 -0.261263 -0.647995 -0.041109 0.155202 0.011893 -0.196246 0.250030 0.061192 -0.050151 0.182425 -0.034664 0.094311 -0.561546 -0.346998 -0.054370 -0.242822 0.549085 -0.019113 -0.345495 -0.131464 -0.228808 0.046356 0.186290 0.127530 -0.142359 -0.372580 0.303284 0.095056 0.208208 0.349957 0.021282 -0.086127 0.001411 0.179296 -0.121799 0.222798 -0.157675 -0.245536 
219 0.189249 -0.483574 0.676069 -0.494291 -0.517206 -0.333186 0.100028 -0.590686 -0.021665 0.241851 -0.023435 -0.083882 0.144359 -0.008302 -0.272030 0.699419 0.070890 -0.367615 0.305039 0.059730 -0.052831 0.445161 -0.028849 -0.010192 -0.055628 -0.214196 -0.168479 -0.046898 -0.035119 0.308744 -0.142978 -0.113356 -0.412506 -0.073834 -0.277390 -0.244981 -0.110254 -0.528049 0.267875 0.546882 0.114918 0.091801 0.338098 0.071526 0.442864 -0.118581 0.197634 0.053131 0.352204 -0.415118 
128 0.290543 0.076371 -0.012148 -0.287246 0.071581 -0.203240 0.042810 -0.265093 -0.540382 -0.025574 0.276685 -0.020460 -0.427967 -0.450302 -0.103936 0.474036 -0.049786 0.101009 0.392409 -0.122893 -0.237553 0.080378 -0.015249 -0.289866 -0.466467 -0.047926 -0.101445 -0.466481 0.184271 0.089111 -0.171476 0.075978 -0.180065 0.017586 -0.126935 -0.157986 -0.044868 -0.247891 0.212193 0.089531 -0.329819 0.466172 -0.001962 -0.038130 -0.036345 0.049454 0.048518 0.199062 -0.119937 -0.277631 
750 0.134926 0.040571 0.192210 -0.111102 0.013392 -0.094598 0.174690 -0.124883 -0.250505 -0.038367 0.143888 0.206608 -0.258754 -0.313217 -0.082277 0.407587 0.098475 -0.035202 0.300265 -0.093709 -0.062360 0.216270 -0.208477 -0.306082 -0.468863 -0.131320 -0.252597 -0.128290 0.347560 -0.079182 -0.128425 -0.327295 0.049643 0.032816 -0.223567 -0.006552 0.203214 -0.159988 0.102500 0.020636 -0.004995 0.369840 -0.284501 -0.002371 0.004212 0.140956 0.077968 0.133262 -0.097069 -0.426981 
240 0.102265 -0.107699 0.428140 -0.079837 -0.123519 -0.215881 0.036707 0.039289 -0.094197 -0.312540 -0.083617 0.204801 -0.123502 -0.572368 0.031242 0.145756 0.134043 0.099327 0.516185 0.019139 -0.009229 0.600783 -0.024706 -0.048088 -0.621500 0.028503 -0.471281 0.161807 0.095784 -0.062577 -0.354043 -0.375882 -0.151684 -0.119560 0.186706 -0.116086 0.151796 -0.907045 0.066779 0.001189 0.127793 0.227708 -0.457939 0.252889 -0.270700 0.232546 0.052914 0.137226 -0.165330 -0.621540 
290 0.183890 -0.268872 -0.135048 -0.314690 -0.335944 -0.325740 0.188355 -0.317480 -0.118953 0.031178 0.529666 -0.214313 -0.670308 -0.542528 -0.050109 0.328412 -0.128668 0.007504 0.185401 0.087804 -0.108744 0.352894 -0.151208 -0.055867 -0.490006 -0.086494 0.041256 -0.101909 0.501752 0.117753 -0.272073 0.127127 -0.488073 -0.101967 0.070031 -0.049692 -0.022503 -0.249799 0.228092 0.387095 0.140316 0.286600 0.284917 -0.270626 0.171590 -0.006664 0.159397 0.030107 -0.180226 -0.059192 
165 0.243338 -0.157608 -0.171592 0.013988 -0.063201 -0.365739 0.094692 -0.281393 -0.067496 -0.317654 0.500444 -0.075440 -0.312492 -0.946325 0.130911 0.315038 -0.073583 -0.004646 0.481148 0.176136 -0.173154 0.323009 -0.091878 -0.045274 -0.459637 -0.210686 -0.130359 -0.330028 0.572199 0.156814 -0.549655 -0.035782 -0.380946 -0.015732 0.339272 -0.011239 -0.082904 -0.380990 0.290264 0.116034 0.019754 0.383921 0.093308 -0.179166 -0.110145 0.162057 -0.114663 0.305552 -0.172975 -0.091972 
311 0.134731 -0.382830 0.295636 0.119000 -0.133505 -0.249802 0.100685 -0.083993 0.119500 -0.026166 -0.024398 0.293573 0.007837 -0.414433 -0.129902 0.053828 0.228027 -0.119621 0.481405 -0.076497 0.143201 0.291268 0.226669 0.065804 -0.563977 -0.236542 -0.394546 -0.170770 0.062141 -0.077648 -0.275806 -0.474263 0.135957 0.109983 0.148956 0.206886 -0.023708 -0.831209 0.213733 0.059717 0.366772 0.507479 -0.140727 0.026308 0.045614 0.387981 -0.141674 0.128524 0.067129 -0.832311 
253 0.103344 -0.196166 0.417561 -0.153904 -0.032726 -0.127295 0.246143 0.170541 -0.031537 -0.116500 0.101966 0.416070 -0.168870 -0.183602 -0.067194 0.213439 0.346937 0.002650 0.402416 -0.212078 -0.033415 0.531393 -0.160920 -0.189133 -0.743270 -0.174726 -0.480139 0.356862 0.036542 0.052729 0.000688 -0.660315 0.231519 0.043015 -0.220001 -0.035596 0.155514 -0.533921 0.280357 -0.006466 0.080801 0.273767 -0.310763 -0.070757 -0.014761 0.241566 0.041451 -0.164787 -0.051827 -0.557699 
652 0.113162 -0.375722 0.332470 0.045841 -0.162180 -0.278074 0.010027 0.024414 0.048815 0.000849 0.000632 0.173188 0.121302 -0.296466 -0.133989 0.145280 0.241216 -0.114853 0.599320 -0.186510 0.090248 0.466143 0.187774 0.001058 -0.461889 -0.136904 -0.448141 -0.102403 -0.119650 0.146507 -0.202114 -0.369524 0.121439 0.101069 0.098881 0.118024 -0.064449 -0.919972 0.244391 0.159308 0.194832 0.550514 -0.120120 0.021911 -0.004519 0.320368 -0.124103 -0.078469 0.172274 -0.843230 
893 0.156214 -0.210178 0.439081 -0.336705 -0.203585 -0.048173 0.157837 0.124892 -0.071409 -0.031508 0.027728 0.358172 -0.212734 -0.018084 -0.065519 0.268565 0.233767 0.005533 0.389548 -0.188803 0.158330 0.427476 -0.131753 -0.171047 -0.747104 -0.047197 -0.301268 0.253721 0.247762 -0.085088 0.100635 -0.549208 0.130696 0.045880 -0.171460 0.020120 0.257529 -0.337253 0.170612 -0.076936 0.034034 0.287486 -0.289199 0.029410 0.063987 0.291436 0.068404 -0.007787 -0.225913 -0.454901 
376 -0.038573 -0.186444 0.046474 -0.003036 0.125704 -0.268077 0.225031 -0.161383 0.081421 -0.191444 0.397827 0.107027 -0.143375 -0.393294 -0.163593 0.240165 0.156058 -0.260387 0.481646 0.050949 -0.021373 0.381488 -0.175904 -0.196886 -0.318060 -0.226977 -0.279441 0.017430 0.081692 0.065780 -0.165448 -0.488425 0.121318 -0.127058 -0.052396 0.021632 -0.023190 -0.449415 0.265752 0.101726 0.420835 0.504759 0.094226 -0.147892 0.117428 0.221208 -0.097267 -0.160386 0.291972 -0.470691 
802 0.097699 -0.725197 0.581255 -0.113641 -0.204772 0.132510 0.394256 -0.308855 -0.122648 -0.078301 -0.165201 -0.222179 -0.511865 -0.379847 -0.346046 0.592734 -0.190078 -0.177020 0.697025 -0.191778 -0.581189 0.096704 0.087405 -0.293190 -0.155526 0.118999 -0.017888 -0.316799 -0.404782 -0.182685 0.280831 -0.219454 -0.593954 -0.200964 -0.461206 -0.337832 0.093001 -0.314519 0.361299 -0.022257 0.400163 0.409777 0.216301 0.546094 0.409325 -0.378415 0.172220 0.373848 0.320310 -0.519166 
789 0.191873 -0.323091 0.370752 -0.324532 -0.308527 -0.160538 0.230463 0.099942 0.056114 -0.052321 -0.044332 0.028882 -0.082407 -0.081033 0.048387 0.008161 0.290358 -0.280803 0.623342 -0.102397 0.437438 0.315674 0.141324 -0.031625 -0.342869 -0.219030 -0.295491 -0.159722 0.356148 -0.254609 -0.069938 -0.435059 0.074192 -0.076703 0.130855 0.332479 0.164709 -0.426358 0.365675 -0.002408 0.172510 0.389594 -0.003091 0.188309 0.089854 0.469026 0.064520 0.125270 -0.078310 -0.475688 
482 0.152083 -0.247946 0.339565 -0.222145 -0.074508 -0.104785 0.261953 -0.207312 -0.574788 -0.148451 0.390310 -0.081968 -0.524574 -0.281054 -0.189792 0.642684 -0.139187 -0.093803 0.432331 -0.113484 -0.318605 0.321830 -0.152959 -0.415572 -0.442798 -0.066044 -0.070154 -0.065452 -0.200407 0.287276 0.298096 -0.101707 -0.202008 -0.048994 -0.300570 -0.210711 -0.098001 -0.125076 0.366708 -0.041424 -0.132539 0.248217 0.370508 -0.009681 0.210337 -0.036013 0.145921 0.069512 0.082099 -0.219910 
140 0.215500 -0.201381 0.227093 -0.349287 -0.261828 -0.123385 0.225779 -0.199213 -0.209465 0.144100 0.150786 -0.066710 -0.267061 -0.164545 0.061947 0.355911 0.045851 -0.190495 0.337203 -0.199291 0.139727 0.194253 -0.105921 -0.198048 -0.326590 -0.015769 -0.026099 -0.351293 0.604085 -0.089585 -0.097425 -0.035120 -0.051017 -0.076588 -0.130425 0.085345 0.214099 -0.044723 0.131216 0.103002 -0.030513 0.459576 -0.108426 -0.088370 0.207161 0.134490 0.065824 0.047606 -0.135533 -0.251783 
714 0.449134 -0.109242 -0.118136 -0.167808 0.070272 -0.321109 0.063920 -0.416277 -0.341171 -0.412561 0.429873 -0.263853 -0.432441 -0.958793 0.052772 0.583327 -0.083559 0.203827 0.432078 0.135974 -0.237502 0.335103 -0.037205 -0.184602 -0.464519 -0.092155 -0.027298 -0.486853 0.399390 0.294302 -0.673559 0.169195 -0.531758 -0.021667 0.132040 -0.162942 0.013851 -0.249596 0.205561 0.166980 -0.216256 0.289736 0.038170 -0.101431 -0.052965 0.103388 0.030064 0.505434 -0.288034 0.006751 
828 0.129729 -0.487714 -0.221636 -0.219295 0.185697 -0.765740 0.331857 0.220093 -0.011490 -0.167755 0.472262 -0.114148 -0.268931 -0.506254 -0.341882 0.039258 0.101721 -0.305473 0.456851 -0.183290 0.426943 0.363715 0.417508 -0.224144 -0.571392 -0.198894 -0.333201 -0.072749 -0.388025 0.148504 0.186147 -0.358974 0.033083 -0.084121 -0.184152 0.409946 -0.174043 -0.120746 0.970147 0.016075 -0.173242 0.648083 0.239753 -0.069914 0.097015 0.540063 0.095408 -0.236346 0.251817 -0.564506 
131 0.342053 -0.622383 0.482988 -0.302153 0.026127 -0.160412 0.301762 -0.432245 -0.055052 -0.001504 -0.055274 -0.099899 -0.258545 -0.389700 -0.293111 0.723346 0.012245 -0.277729 0.443567 -0.259219 -0.295800 0.126607 0.124932 -0.144774 0.052802 -0.015310 0.184705 -0.520898 -0.246858 -0.171369 -0.276538 -0.069416 -0.301508 -0.349247 -0.408576 -0.404673 0.114370 -0.200965 0.164885 0.150315 0.069983 0.251520 0.006021 0.136037 0.327173 -0.207498 0.150965 0.279253 0.121745 -0.254998 
667 0.244067 -0.160198 0.104844 -0.360896 -0.093201 -0.339907 0.528205 -0.333281 0.115677 0.267383 0.177748 -0.145903 -0.296957 -0.361612 -0.090768 0.445710 -0.030273 -0.406480 -0.018338 -0.091624 0.115148 0.055641 -0.180406 -0.162554 -0.375487 -0.140227 0.178067 -0.271426 0.740307 -0.073722 -0.212537 -0.084467 0.073486 -0.365909 -0.306276 0.091852 0.136268 0.008906 0.042756 0.367644 0.029525 0.533243 -0.241642 -0.079536 0.408523 0.008934 0.040034 -0.027994 -0.137645 -0.198322 
556 0.119825 -0.278614 0.098844 -0.309726 0.124742 -0.422690 0.278362 -0.006490 -0.007558 -0.057604 0.229816 0.049744 -0.220524 -0.402150 -0.158300 0.264926 0.034153 -0.182349 0.277793 -0.117407 0.118451 0.200060 0.194897 -0.154726 -0.434733 -0.128110 -0.169851 0.063946 -0.191833 0.076704 -0.038830 -0.395265 0.071143 -0.296591 -0.372869 0.149870 -0.017486 -0.132047 0.232704 0.254788 0.014471 0.474511 -0.054328 -0.030920 0.344153 0.202161 0.084536 -0.099378 -0.010657 -0.381575 
481 0.172421 -0.353440 0.222052 -0.180140 -0.042618 -0.284264 0.199624 -0.142335 0.006456 -0.039069 0.032968 0.111357 -0.151418 -0.337424 -0.068097 0.242557 0.089046 -0.051528 0.242116 -0.084193 0.054579 0.065203 0.311091 0.017636 -0.456031 -0.230241 -0.255240 -0.046862 -0.010028 -0.075623 -0.240588 -0.359009 -0.005706 -0.104448 -0.191607 0.037328 -0.013416 -0.478256 0.165058 0.255213 0.133017 0.400746 -0.080278 0.102668 0.196660 0.195292 -0.047115 0.071542 -0.135492 -0.463764 
796 0.225070 -0.224343 0.046232 -0.430008 -0.447668 -0.164869 0.164347 -0.060926 -0.299547 0.068951 0.390305 -0.137519 -0.542701 -0.508450 0.127947 0.394916 -0.251520 -0.185010 0.464764 0.057619 -0.072567 0.175062 -0.307169 -0.277050 -0.639282 0.081148 0.034735 -0.365854 0.766383 0.040659 0.148321 0.148476 -0.291193 0.052413 0.061284 0.032714 0.001538 -0.067886 0.365227 0.083116 -0.142283 0.389619 0.255088 0.016000 0.083391 0.208982 0.136604 0.122366 -0.153080 -0.001682 
911 0.188871 -0.216101 0.420115 -0.353774 -0.119482 -0.226567 0.202122 -0.142840 -0.512403 -0.081501 0.302199 0.234158 -0.463415 -0.128740 -0.076258 0.632947 -0.000384 0.057164 0.290195 0.112711 -0.267932 0.537074 -0.239785 -0.325200 -0.576093 -0.044954 -0.197266 0.151443 -0.065746 0.311135 0.223573 -0.210999 -0.306481 0.049257 -0.259429 -0.290161 0.045445 -0.237132 0.319421 -0.002760 -0.208343 -0.012513 0.127253 -0.189876 0.125511 -0.011702 0.231764 0.101756 -0.058195 -0.129702 
963 0.021819 -0.079342 -0.005746 -0.014716 0.180890 -0.255532 0.184107 -0.038907 -0.065648 -0.112274 0.271521 0.218031 -0.211685 -0.364411 -0.211376 0.247731 0.159759 -0.079095 0.415186 -0.018829 0.084336 0.401147 -0.060570 -0.263071 -0.566315 -0.170951 -0.315104 0.053362 -0.041724 0.108207 -0.022147 -0.441183 0.181166 0.009813 -0.153256 0.125658 0.037410 -0.357585 0.273032 0.007101 0.202892 0.475583 0.030754 -0.046465 0.106800 0.362884 -0.046605 -0.106900 0.170694 -0.530909 
824 0.019375 -0.539603 0.027962 -0.221437 -0.155352 -0.186123 0.279780 -0.232520 -0.004906 -0.070591 0.116533 0.142383 -0.239661 -0.193251 -0.133193 0.128989 0.160196 -0.515512 0.471843 -0.105251 0.159386 0.306742 0.137789 -0.046881 -0.429021 -0.228648 -0.222479 -0.205715 0.162644 -0.207796 0.151914 -0.389889 0.131314 -0.246877 -0.059261 0.057209 -0.049831 -0.354518 0.612921 0.034877 0.533026 0.507899 0.210210 0.268433 0.150117 0.247634 0.005601 -0.137336 0.374280 -0.285228 
505 0.087109 -0.416461 -0.059432 -0.034982 0.074254 -0.460485 0.126259 0.007368 -0.028014 -0.061905 0.298600 0.121943 -0.102430 -0.413594 -0.348003 0.132451 0.257865 -0.146427 0.465479 -0.149277 0.119206 0.403665 0.209911 -0.097282 -0.488242 -0.194869 -0.366644 -0.130227 -0.291158 0.214361 -0.045740 -0.348272 0.248090 0.025784 -0.086184 0.151552 -0.125479 -0.467244 0.530412 0.133310 0.111463 0.576883 0.057876 -0.042432 0.098331 0.368730 -0.038141 -0.201048 0.325475 -0.582670 
299 0.051517 -0.256744 0.144568 -0.065733 -0.031976 -0.255074 0.319001 -0.281273 0.266350 -0.047580 0.249362 0.043921 -0.140852 -0.596091 -0.046496 0.220517 0.156776 -0.226172 0.259023 -0.146437 -0.056953 0.145484 -0.091412 -0.021871 -0.217081 -0.293397 -0.137940 -0.166279 0.504753 -0.122687 -0.512878 -0.374821 -0.021549 -0.185929 -0.031766 0.090404 -0.005691 -0.257558 0.190914 0.267143 0.278371 0.462964 -0.142135 -0.227292 0.153614 0.017685 -0.103944 -0.054103 -0.024329 -0.341813 
677 0.012392 -0.228897 0.429162 -0.253308 -0.128935 -0.126816 0.194166 0.266752 -0.115891 -0.020980 0.153499 0.286637 -0.185520 -0.087642 -0.076739 0.324168 0.267088 0.008023 0.409488 -0.153215 -0.080678 0.490552 -0.155085 -0.294172 -0.714698 -0.176894 -0.491845 0.359120 -0.001936 0.124264 0.132157 -0.624377 0.077500 0.131034 -0.323777 0.011109 0.131043 -0.454576 0.372163 -0.019540 0.009396 0.207887 -0.192257 0.068329 -0.019833 0.247282 0.098873 -0.119045 0.054173 -0.537975 
598 0.169680 -0.298582 0.380915 -0.395566 -0.191045 -0.157610 0.186338 -0.362780 -0.237268 0.130616 0.100345 -0.159559 -0.137357 -0.179271 0.034257 0.513986 0.000408 -0.181599 0.288136 -0.231849 -0.072102 0.149934 -0.011304 -0.218474 -0.105534 0.069336 -0.083430 -0.367862 0.316750 -0.001124 -0.216833 -0.002732 -0.240726 -0.133310 -0.293629 -0.097708 0.185381 -0.061927 0.117642 0.256614 -0.104527 0.418732 -0.072171 -0.049534 0.226800 -0.039162 0.068335 0.113318 -0.094453 -0.323023 
115 0.058458 -0.432975 0.420456 -0.332585 -0.292119 -0.351138 0.070111 -0.062804 -0.199976 0.178906 0.123349 0.167656 -0.122632 0.031836 -0.061559 0.488587 0.093741 -0.107990 0.286290 -0.026789 -0.156761 0.540229 -0.117194 -0.165670 -0.478617 -0.074605 -0.446264 0.132423 -0.074031 0.266331 0.160250 -0.153192 -0.327226 0.130000 -0.329848 -0.190780 -0.072934 -0.433779 0.389275 0.253686 -0.077220 0.104821 0.159832 -0.055788 0.099309 0.034206 0.242480 -0.109216 0.165884 -0.363489 
807 0.256841 0.150237 0.170744 -0.131003 -0.056665 -0.072501 0.114688 -0.136670 -0.312700 0.085113 0.187101 0.222028 -0.322291 -0.322936 -0.039739 0.592556 0.076983 0.053935 0.347172 -0.238974 0.254296 0.201082 -0.145545 -0.311820 -0.435022 -0.184292 -0.110517 -0.220545 0.660647 -0.086143 -0.048948 -0.318162 -0.007421 0.156805 -0.065085 0.127042 0.223842 0.008745 0.003702 -0.082681 -0.120809 0.423811 -0.254725 -0.148865 0.124407 0.108277 -0.043512 0.240859 -0.188416 -0.362878 
478 0.276155 0.040184 0.122885 -0.422578 -0.273382 -0.217736 0.275066 -0.160794 -0.355420 0.087749 0.382533 -0.168385 -0.412572 -0.211675 -0.119480 0.651087 -0.188164 -0.266579 0.336030 -0.028354 0.056933 -0.008221 -0.141178 -0.344158 -0.566486 0.025132 0.076215 -0.273388 0.728521 -0.152812 0.117033 -0.002974 -0.320794 0.042286 -0.176794 0.023782 0.104632 0.161091 0.032177 0.039324 -0.422444 0.461942 0.016095 -0.067145 0.122326 0.077564 0.162510 0.230502 -0.386711 -0.253261 
306 0.188369 0.044488 0.208918 -0.223393 -0.054955 -0.116022 0.103880 -0.116126 -0.480944 0.031573 0.323257 0.284979 -0.320532 -0.304893 -0.114397 0.582485 0.061207 0.136371 0.379521 -0.009364 0.101252 0.337021 -0.216854 -0.375326 -0.465913 -0.015392 -0.223549 -0.109397 0.263929 0.048558 0.091794 -0.332018 -0.025418 0.168726 -0.087130 -0.006815 0.176570 -0.126696 0.127855 -0.164913 -0.155769 0.217650 0.002727 -0.141701 0.147252 0.172463 0.089595 0.112004 -0.029194 -0.285180 
660 0.605211 -0.200413 0.392227 -0.473130 -0.033652 -0.472284 0.552870 -0.450026 -0.093885 0.030214 0.156098 -0.235604 -0.146376 -0.463788 -0.208313 0.724884 -0.038853 -0.262186 0.146425 -0.031474 -0.004858 -0.129588 -0.020217 -0.119304 -0.257022 -0.081091 0.073503 -0.436935 0.260608 -0.149254 -0.540108 -0.269072 -0.156028 -0.399998 -0.499086 -0.207592 0.084126 0.116408 -0.306778 0.514860 -0.315417 0.298835 -0.301374 -0.128512 0.376687 -0.127816 0.212276 0.429384 -0.441636 -0.091081 
346 0.361283 -0.260209 0.400425 -0.341905 -0.056246 -0.090473 0.174892 -0.415956 -0.322455 0.009926 0.208310 -0.050458 -0.180730 -0.383507 -0.136679 0.838156 0.075452 0.113676 0.457674 -0.281662 0.095771 0.195380 -0.090135 -0.285601 -0.006216 0.017723 0.056898 -0.550935 0.270059 -0.126440 -0.448328 -0.105805 -0.159808 -0.113478 -0.132741 -0.158443 0.255439 0.062777 -0.079831 -0.042426 -0.213980 0.286046 -0.062072 -0.293999 0.250279 0.051702 0.014770 0.225553 -0.172420 -0.219797 
423 0.107560 -0.559428 0.699744 -0.439665 -0.368152 -0.203681 0.048984 -0.381214 -0.000975 0.108064 -0.137463 -0.081065 0.190105 -0.084968 -0.119439 0.528042 0.052880 -0.314244 0.391232 -0.215931 -0.041328 0.379509 0.074857 -0.022623 0.016455 0.013112 -0.207335 -0.112033 -0.101414 0.094357 -0.281338 -0.183410 -0.265461 -0.217732 -0.237497 -0.211249 0.040144 -0.573587 0.200829 0.358816 0.087067 0.272145 0.044031 0.043931 0.222866 -0.020418 0.080598 -0.019531 0.241410 -0.549295 
540 0.084865 -0.164577 0.132708 -0.145864 -0.064840 -0.178089 0.262008 -0.304506 0.256074 0.058956 0.302846 0.172333 -0.170036 -0.548892 -0.067627 0.137955 0.345535 -0.091267 0.325927 -0.177172 0.038943 0.392392 -0.291524 -0.030474 -0.193268 -0.316519 -0.266402 -0.011250 0.587321 -0.106625 -0.593419 -0.511087 0.128818 -0.230893 0.117577 0.057637 0.136540 -0.408810 0.124602 0.343383 0.387145 0.442919 -0.229239 -0.391606 0.200313 -0.000774 -0.062274 -0.181977 0.077462 -0.377260 
33 0.133202 -0.576058 -0.253384 -0.115287 0.249622 -0.563837 0.133843 0.008641 -0.177828 -0.262375 0.406764 -0.032753 -0.316585 -0.592298 -0.388700 0.231251 0.212641 -0.051826 0.514734 -0.159698 0.096709 0.377347 0.340662 -0.231036 -0.468659 -0.117527 -0.203582 -0.261878 -0.538164 0.308402 0.005474 -0.162002 0.154584 -0.014498 -0.210421 0.145742 -0.137291 -0.241347 0.766129 0.077658 -0.007276 0.560023 0.241315 -0.012734 0.139818 0.455029 0.068348 -0.153609 0.366015 -0.347851 
20 -0.044368 -0.182943 0.223570 -0.246954 -0.036010 -0.169989 0.264848 0.196978 0.018690 0.133638 0.231166 0.251232 -0.208707 -0.174087 -0.236655 0.330343 0.314904 -0.020439 0.252643 -0.267752 0.009199 0.356937 -0.072610 -0.339941 -0.729077 -0.312629 -0.351208 0.220906 0.192692 0.085517 0.114897 -0.598485 0.218688 0.151294 -0.462777 0.234137 0.043934 -0.108439 0.415390 0.108311 -0.063607 0.288277 -0.137922 0.130546 0.240071 0.300486 -0.001375 -0.251239 0.055362 -0.555403 
116 0.096298 -0.365624 0.138331 -0.108834 -0.097751 -0.294208 0.309831 -0.192607 0.113322 -0.112886 0.148615 0.129357 -0.053011 -0.394076 -0.051140 -0.014871 0.074116 -0.248243 0.420358 0.040194 0.210358 0.258467 0.196699 0.141866 -0.490350 -0.232637 -0.225429 0.004993 0.106721 -0.112470 -0.191523 -0.444104 0.142505 -0.110656 0.147180 0.130284 0.006984 -0.733647 0.281232 0.179236 0.408068 0.614280 0.167716 -0.065783 0.167256 0.388316 -0.004280 -0.144597 0.161969 -0.707643 
844 0.388790 -0.001248 0.045594 -0.347212 -0.113618 -0.483667 0.282501 -0.203872 -0.469239 -0.056687 0.323381 -0.084176 -0.392899 -0.462992 -0.100390 0.577322 -0.171098 -0.143788 0.347661 0.071564 -0.015108 0.087136 -0.086197 -0.242116 -0.573088 0.108144 -0.021819 -0.292675 0.326076 0.033833 -0.038438 -0.014545 -0.280166 -0.011470 -0.228606 -0.227540 -0.012544 -0.049828 -0.059052 0.229401 -0.434686 0.282381 -0.064999 -0.142007 0.098582 0.067898 0.163111 0.214951 -0.400485 -0.145268 
497 0.253116 0.028211 0.470615 -0.287868 -0.033020 0.153292 0.066207 0.048352 -0.230331 -0.159432 -0.064560 0.176440 -0.171247 -0.405134 0.147250 0.303596 0.359552 0.282599 0.423725 -0.336189 0.220666 0.642253 -0.239519 -0.357849 -0.402399 -0.073208 -0.675552 0.196054 0.280942 -0.022858 -0.439957 -0.560621 0.301710 -0.161520 -0.013247 0.080711 0.417317 -0.511856 0.122053 0.068424 0.038424 0.416981 -0.637029 0.268295 -0.176854 0.243197 0.068150 0.087601 -0.156334 -0.525106 
904 0.112050 -0.372348 0.215316 -0.203114 0.010036 -0.462457 0.194545 -0.034596 -0.118288 -0.037951 0.055080 0.072965 -0.150283 -0.252519 -0.077153 0.270439 0.099248 -0.092225 0.237116 -0.079824 -0.040483 0.156849 0.336496 -0.104035 -0.464480 -0.109317 -0.346852 -0.023292 -0.122141 0.067825 -0.141342 -0.293930 -0.109026 -0.081776 -0.316677 -0.028090 -0.044088 -0.433774 0.211422 0.294365 -0.018827 0.313853 -0.076968 0.124811 0.166506 0.179342 0.004676 -0.003002 -0.134819 -0.401131 
763 0.071237 -0.125812 0.280553 -0.352505 -0.110593 -0.410941 0.326713 0.078140 0.007298 -0.066123 0.140628 0.347067 -0.260057 -0.035963 -0.080698 0.352003 0.136784 -0.270291 0.257437 -0.072679 0.100056 0.221606 -0.023553 -0.164027 -0.959924 0.010270 -0.307370 0.433367 0.201161 -0.234545 0.227331 -0.641273 -0.116319 0.164725 -0.323159 0.105202 0.106430 -0.013622 0.141659 -0.156843 -0.217749 0.236790 -0.067424 0.180329 -0.049011 0.444816 0.154441 -0.079171 -0.460346 -0.600062 
632 0.143811 -0.488110 0.469457 -0.055114 -0.222439 -0.082327 0.065158 0.031179 0.116282 -0.071190 -0.149960 0.271645 -0.161395 -0.296896 -0.121767 0.161719 0.132734 -0.031711 0.501996 -0.065293 0.073697 0.287092 0.174769 0.021954 -0.555740 -0.088860 -0.257507 -0.130187 -0.082433 -0.080746 -0.224015 -0.442321 0.057609 0.051050 0.042959 0.077266 0.083533 -0.920399 0.140600 -0.036848 0.496131 0.448053 -0.203711 0.081417 0.045446 0.285922 -0.080089 0.187744 -0.000545 -0.758673 
590 0.284603 -0.475298 0.383878 -0.421286 -0.022870 0.057067 0.101717 -0.462326 -0.375445 -0.094622 0.061908 -0.062625 -0.279314 -0.386148 -0.072183 0.755249 -0.038134 0.085317 0.404292 -0.379068 -0.108212 0.237470 0.015567 -0.256094 -0.038315 0.079031 0.020001 -0.388905 -0.011084 0.011058 -0.324893 -0.074099 -0.131608 -0.261270 -0.249147 -0.258988 0.255738 -0.117177 0.153136 -0.018288 -0.036303 0.269987 0.028995 -0.026540 0.195523 -0.027284 0.026272 0.132614 -0.044642 -0.220778 
504 0.022978 -0.127876 0.147453 -0.200938 -0.027110 -0.094733 0.194775 0.111930 0.008123 0.057632 0.184280 0.303457 -0.206970 -0.365068 -0.124546 0.199274 0.366795 0.042772 0.251939 -0.379708 0.036278 0.386186 -0.059064 -0.314263 -0.621413 -0.255508 -0.422980 0.159460 0.220715 0.007864 -0.039917 -0.596505 0.302223 0.080678 -0.338753 0.211215 0.097459 -0.176858 0.396128 0.143060 0.019583 0.421660 -0.275719 0.113639 0.188418 0.246110 -0.011102 -0.247770 0.071415 -0.546059 
337 0.025094 -0.156188 0.223724 -0.108282 0.094981 -0.269135 0.230927 0.156111 0.165206 -0.042351 0.041997 0.237798 -0.110876 -0.189737 -0.076293 0.307216 0.250258 -0.248062 0.317937 -0.245230 0.178657 0.294621 -0.075583 -0.157403 -0.676149 -0.247899 -0.232033 0.029063 0.495875 -0.078663 -0.159397 -0.550892 0.191329 0.003241 -0.199373 0.235643 0.102150 -0.405235 0.186901 -0.070676 0.205924 0.506503 -0.420285 0.040903 -0.025213 0.335128 -0.212847 -0.118984 -0.101222 -0.591514 
517 0.165281 -0.131886 0.218245 -0.081667 -0.104936 -0.214902 0.063597 -0.313170 -0.287528 0.108529 0.220927 -0.015834 -0.039007 -0.237228 -0.095548 0.647799 -0.016592 -0.213419 0.609403 -0.097400 -0.059517 0.112527 0.057465 -0.250725 -0.088778 0.031268 -0.022044 -0.561762 0.340481 -0.016182 -0.011071 -0.078164 -0.275404 0.124774 -0.022815 -0.037947 -0.004800 -0.213239 0.026056 0.051939 -0.246919 0.461942 0.119208 -0.108627 0.093052 0.012799 -0.041227 0.180227 0.005954 -0.514887 
942 0.208167 0.075559 -0.003939 0.069962 0.181418 -0.011733 0.028831 -0.177970 -0.126939 -0.087786 0.151670 0.293880 -0.180352 -0.643078 -0.040282 0.293708 0.150025 0.259832 0.370998 -0.129165 0.200009 0.366966 -0.101072 -0.308935 -0.446817 -0.075539 -0.413671 -0.151010 0.220337 -0.036898 -0.529244 -0.402812 0.159997 0.045611 0.057404 0.131239 0.207015 -0.375653 0.037111 -0.042713 0.088051 0.543418 -0.286441 -0.107410 -0.059547 0.394137 -0.060081 0.137999 0.014803 -0.617956 
656 0.117767 -0.493035 0.536759 -0.295925 -0.244956 0.006487 0.213083 -0.399427 -0.159446 0.128226 -0.006928 -0.183609 -0.171885 -0.114213 -0.214921 0.696102 -0.103905 -0.299328 0.625738 -0.252312 -0.255731 0.026796 0.079219 -0.277631 0.081395 0.147522 0.056685 -0.478928 0.027638 -0.151677 0.165816 -0.151311 -0.547271 -0.075523 -0.438485 -0.138460 0.145456 -0.034297 0.246502 0.011580 0.032470 0.403369 0.209925 0.203512 0.360818 -0.253363 0.101082 0.313006 0.167800 -0.529072 
400 0.236245 -0.420435 0.237385 -0.063052 -0.474431 -0.155763 0.118317 -0.188182 0.125056 -0.105260 0.044543 0.209579 -0.256991 -0.393052 0.027303 0.090086 0.033699 -0.239672 0.392322 0.121329 0.152110 0.215887 0.116502 0.208059 -0.649537 -0.295722 -0.099805 -0.191065 0.437860 -0.176766 -0.100472 -0.282698 -0.090827 0.154946 0.260906 0.226650 -0.012580 -0.661166 0.289725 -0.018191 0.489213 0.317398 0.099718 0.104804 0.060835 0.313989 -0.087664 0.319945 -0.116662 -0.422375 
642 0.363461 -0.135148 0.384593 -0.158586 0.076873 -0.147103 0.366444 -0.425364 0.111043 -0.023543 0.048640 -0.032519 0.037553 -0.559209 -0.102531 0.350831 0.273164 -0.001761 0.250454 -0.320211 0.073575 0.109845 -0.123203 -0.143244 -0.123807 -0.201279 -0.222178 -0.316731 0.347361 -0.225758 -0.874338 -0.431639 0.135878 -0.318544 -0.229421 0.049536 0.239235 -0.047833 -0.262495 0.399775 0.050726 0.511890 -0.532435 -0.226061 0.234655 0.070197 0.036160 0.220383 -0.274827 -0.431723 
83 0.161132 -0.733356 0.383130 -0.177943 -0.108353 0.074362 0.328996 -0.365936 -0.099287 -0.079787 -0.006159 -0.183089 -0.433833 -0.389828 -0.283028 0.586927 -0.129731 -0.176534 0.564248 -0.206971 -0.356666 0.197328 0.118846 -0.187049 -0.072299 0.071921 0.077735 -0.399687 -0.301928 -0.179707 0.011378 -0.095266 -0.374521 -0.334475 -0.312613 -0.395703 0.063708 -0.279846 0.347263 0.032395 0.340151 0.376276 0.198219 0.317203 0.319641 -0.263808 0.122585 0.205942 0.340465 -0.262712 
592 0.200553 -0.223291 0.215650 -0.288602 0.025261 -0.338941 0.210427 -0.104340 -0.252177 -0.074039 0.142497 -0.132580 -0.158206 -0.288522 -0.006876 0.471127 -0.022314 -0.117734 0.319946 -0.043541 -0.128196 0.123816 0.131077 -0.225856 -0.333803 -0.015956 -0.136424 -0.204279 0.097381 0.126342 -0.175766 -0.112253 -0.212493 -0.128286 -0.261688 -0.107413 0.035144 -0.236068 0.079422 0.270731 -0.221538 0.361443 -0.110056 0.025627 0.093325 0.043019 0.033295 0.143604 -0.209123 -0.265296 
733 0.313838 -0.254942 0.480763 -0.268819 0.027519 -0.156817 0.426327 -0.422614 -0.043513 -0.223570 0.135499 -0.124300 -0.086787 -0.537471 0.048923 0.430297 0.013791 -0.143678 0.064030 -0.219701 -0.153857 -0.048032 -0.042751 -0.212133 -0.188438 -0.019343 -0.232424 -0.199518 0.329966 -0.346799 -0.775014 -0.458930 -0.035740 -0.397918 -0.393371 0.037784 0.245109 0.133104 -0.212779 0.392153 -0.049472 0.457060 -0.496117 -0.060166 0.046932 0.053307 0.232947 0.275533 -0.494225 -0.382167 
892 0.378063 0.121048 0.159864 -0.021913 0.072713 0.288583 0.002665 -0.262316 -0.202387 -0.021863 -0.020297 0.199656 -0.246869 -0.600381 -0.034072 0.424892 0.270859 0.488002 0.427112 -0.444781 0.199075 0.358304 -0.185224 -0.400996 -0.291087 -0.080789 -0.365436 -0.275446 0.355350 -0.105894 -0.706816 -0.298420 0.222204 0.032106 -0.007645 0.119755 0.335613 -0.262392 -0.019684 -0.058139 0.023092 0.575804 -0.421536 -0.111498 -0.063926 0.280973 -0.026872 0.261149 -0.041184 -0.676007 
897 0.107237 -0.116582 0.257770 -0.169574 -0.017027 -0.194637 0.252245 0.103588 -0.010955 -0.129069 0.150722 -0.076286 -0.150435 -0.164028 -0.160248 0.294980 0.091708 -0.249204 0.453371 -0.156083 0.107286 0.174772 0.116516 -0.239518 -0.459647 -0.166208 -0.063251 -0.094241 0.161870 -0.028244 0.103486 -0.357180 -0.160325 0.014406 -0.147561 0.305127 0.013736 -0.177726 0.349047 -0.037607 -0.102187 0.433784 -0.046916 0.111840 0.081338 0.265735 -0.097503 0.043239 -0.026476 -0.556725 
569 0.068847 -0.436581 0.167415 -0.065384 -0.092151 -0.401323 0.287735 -0.290807 0.249196 -0.117574 0.182439 0.157396 -0.047491 -0.333123 -0.180079 0.137643 0.059228 -0.252149 0.342327 0.228831 0.065634 0.374353 0.139912 0.237098 -0.533944 -0.322005 -0.144857 0.099541 0.007167 -0.052938 -0.164651 -0.432250 0.053425 -0.089148 0.078050 0.081422 0.072115 -0.764882 0.231468 0.324866 0.607344 0.495069 0.183597 -0.039577 0.355562 0.328919 -0.068301 -0.143998 0.217594 -0.619136 
179 0.214263 -0.338587 0.365827 -0.358794 -0.053151 -0.383570 0.165940 -0.067581 -0.176951 -0.105730 0.024208 -0.058692 -0.042194 -0.229502 0.042928 0.379238 0.070530 -0.079190 0.310954 -0.113680 -0.038333 0.195537 0.207614 -0.158968 -0.295379 0.000659 -0.266911 -0.136078 0.051365 0.075033 -0.262354 -0.168196 -0.161725 -0.167578 -0.269860 -0.119779 0.066437 -0.368772 0.084266 0.278106 -0.167366 0.306447 -0.186816 0.051564 0.062084 0.119868 0.050616 0.094335 -0.268768 -0.321183 
197 0.196292 -0.425947 0.182161 -0.296495 -0.218409 -0.046944 0.217119 -0.259993 -0.347146 -0.075182 0.317877 -0.300555 -0.571236 -0.435806 -0.049192 0.679051 -0.263582 -0.021821 0.499525 -0.078740 -0.285451 0.173231 -0.025458 -0.344522 -0.260337 0.043209 0.117504 -0.351145 0.122181 0.094105 0.014331 0.113341 -0.486923 -0.102401 -0.129891 -0.220840 -0.038025 -0.123040 0.288251 0.105473 -0.065305 0.351066 0.339414 0.012976 0.206744 -0.104472 0.188983 0.208923 -0.003700 -0.087840 
316 0.175929 -0.380680 0.351365 -0.446418 -0.501124 0.090623 0.196581 -0.210919 -0.218325 0.114672 0.119699 -0.210973 -0.243830 -0.033423 0.075886 0.523751 -0.049472 -0.391191 0.604157 -0.194096 -0.011927 0.071395 0.013630 -0.262924 -0.189898 -0.060543 0.163437 -0.449975 0.470617 -0.055136 0.217364 -0.083673 -0.318748 -0.008130 -0.180791 0.219526 0.048160 -0.052673 0.334893 0.013927 0.000830 0.481359 0.329032 0.161238 0.290364 -0.010716 0.091464 0.223061 -0.003980 -0.352306 
630 0.507547 -0.227058 0.413283 -0.293301 -0.012642 -0.296631 0.445565 -0.465890 0.028610 -0.102619 0.075725 -0.166725 -0.006015 -0.566667 -0.048806 0.437856 0.114188 -0.141492 0.153027 -0.161396 0.027898 -0.040189 -0.038378 -0.087410 -0.179981 -0.122556 -0.161811 -0.350867 0.312405 -0.209316 -0.836762 -0.441987 0.019263 -0.364926 -0.348562 -0.048476 0.184207 0.001130 -0.343842 0.489411 -0.078935 0.368691 -0.457563 -0.163586 0.242433 0.019118 0.147211 0.376611 -0.463218 -0.282890 
832 0.217633 0.044860 -0.144489 -0.301455 -0.134265 -0.289693 0.188165 -0.074204 -0.406376 0.020801 0.470253 -0.019552 -0.476036 -0.538627 -0.033467 0.351985 -0.154654 -0.124689 0.399490 0.041117 0.121920 0.187974 -0.236798 -0.342375 -0.614367 0.035227 -0.108000 -0.331928 0.491012 0.043811 0.084389 -0.030283 -0.056463 0.006363 -0.070101 0.117464 0.042727 0.020933 0.295865 0.094771 -0.227179 0.467794 0.104192 -0.128860 0.116380 0.218241 0.091006 0.074639 -0.130822 -0.092166 
386 0.485748 -0.506333 0.412468 -0.358090 0.050629 -0.382519 0.473550 -0.411877 -0.016124 0.128679 0.057184 -0.161633 -0.269502 -0.360481 -0.462024 0.885050 -0.027397 -0.323845 0.329549 -0.106440 -0.139784 -0.022718 0.131297 -0.106886 -0.113218 -0.137706 0.319465 -0.584251 -0.075530 -0.113885 -0.213914 -0.077936 -0.241696 -0.357160 -0.526769 -0.285488 0.044782 0.018910 0.051936 0.272174 -0.131663 0.274600 0.026375 0.053890 0.482596 -0.212482 0.172185 0.395379 -0.032249 -0.118815 
962 0.247824 -0.190151 0.220844 -0.493852 -0.382325 0.030455 0.219403 -0.012023 -0.307265 0.091524 0.285179 -0.042414 -0.460822 -0.083099 0.003196 0.490085 -0.161021 -0.135693 0.339852 -0.117050 -0.006165 0.126719 -0.184735 -0.328387 -0.636031 0.104990 0.017233 -0.117810 0.702734 -0.207984 0.170213 -0.024334 -0.158979 0.042779 -0.099850 -0.025607 0.206094 -0.041022 0.148726 -0.127891 -0.154787 0.441376 -0.006343 0.028475 0.016823 0.156205 0.222880 0.134189 -0.317305 -0.263023 
125 0.234975 -0.529127 0.425536 -0.474002 -0.202905 0.061174 0.070959 -0.437228 -0.310252 0.050408 0.013129 -0.143117 -0.201076 -0.204153 -0.032161 0.617054 -0.091830 -0.054830 0.456140 -0.425140 -0.274108 0.142274 0.062459 -0.179652 -0.001434 0.182170 0.058807 -0.419412 0.016361 -0.015047 -0.226667 0.057269 -0.306234 -0.245658 -0.293159 -0.279309 0.142079 -0.288759 0.160980 0.046996 -0.021723 0.363517 0.184552 -0.047875 0.176070 -0.088251 0.087220 0.047068 -0.008844 -0.431623 
628 0.104273 -0.670698 0.545067 -0.519124 -0.335476 -0.347437 0.073895 -0.389703 -0.175664 0.341415 0.089651 0.189950 -0.024071 0.295497 -0.068948 0.717154 0.058264 -0.247546 0.356772 -0.059533 -0.184102 0.516425 -0.182383 -0.253214 -0.115575 -0.037990 -0.354738 -0.161592 -0.026101 0.244145 0.127995 -0.070159 -0.503897 0.052210 -0.504199 -0.279978 -0.023094 -0.363317 0.481365 0.272084 -0.043853 0.166811 0.373296 -0.215468 0.297418 -0.087410 0.332240 -0.118953 0.435567 -0.412057 
795 0.511971 -0.229833 0.310837 -0.482103 0.160123 -0.539731 0.505225 -0.371641 -0.037789 0.122166 0.040298 -0.164577 -0.174631 -0.277520 -0.433202 0.748861 0.019706 -0.306292 0.177943 -0.067875 -0.056441 -0.125949 0.177014 -0.066838 -0.404756 -0.220201 0.238206 -0.466362 0.015238 -0.019804 -0.292208 -0.105210 -0.144866 -0.403994 -0.662856 -0.133129 0.001085 0.059277 -0.041776 0.475660 -0.299928 0.375337 -0.112588 0.056533 0.537357 -0.161862 0.146929 0.391807 -0.257256 -0.151028 
932 0.182141 -0.199906 0.346632 0.040888 -0.058284 -0.089534 0.279750 -0.346209 0.280864 0.105541 -0.182823 0.166595 0.020740 -0.520066 -0.134904 0.013676 0.392242 -0.209081 0.508766 -0.230117 0.063152 0.196583 0.029207 0.028927 -0.256463 -0.366289 -0.288818 -0.260860 0.337175 -0.222005 -0.550648 -0.516813 0.092483 -0.071868 0.107397 0.103563 0.106228 -0.719745 0.147817 0.222669 0.518774 0.513840 -0.226855 0.069919 0.206811 0.153436 0.017987 0.122649 0.173512 -0.716156 
567 0.119272 -0.257202 0.536315 -0.230160 -0.148301 -0.177059 0.177785 0.105245 0.071743 -0.093904 -0.085153 -0.182137 0.078499 -0.026375 -0.134239 0.298570 0.079167 -0.335772 0.654918 -0.067188 0.074351 0.207686 0.176666 -0.156562 -0.256363 -0.093783 -0.043127 -0.199452 0.014806 -0.059163 0.000033 -0.306944 -0.333844 -0.061895 -0.043519 0.234132 0.100492 -0.491905 0.293932 0.075138 -0.014831 0.386307 0.008000 0.289945 0.137107 0.278859 -0.081739 0.141559 0.013390 -0.591393 
682 0.054500 -0.442218 0.286722 -0.192889 -0.130012 -0.419987 0.134263 -0.017954 -0.042728 0.030294 0.098459 -0.019886 -0.126941 -0.274849 -0.113988 0.280661 0.146972 -0.170719 0.233240 -0.084948 -0.146886 0.337679 0.187026 -0.032489 -0.463783 -0.164524 -0.370289 0.034467 -0.106681 0.259138 -0.116759 -0.161347 -0.106316 -0.037480 -0.270967 -0.071347 -0.117493 -0.532382 0.187280 0.493197 0.136437 0.342418 -0.037272 0.071138 0.232698 0.063903 0.093804 -0.096571 0.031367 -0.423388 
215 0.102487 -0.507361 0.361870 -0.240187 -0.298218 0.158826 0.311352 -0.196952 -0.307720 -0.025743 0.201547 -0.312230 -0.600336 -0.321900 -0.164737 0.710434 -0.276713 -0.119897 0.600521 -0.117769 -0.418100 0.135347 -0.129996 -0.439597 -0.182097 0.000895 0.069315 -0.298275 -0.032987 0.033421 0.251179 -0.083591 -0.483904 -0.068398 -0.264975 -0.196414 -0.054879 -0.124642 0.353779 -0.003078 0.172671 0.359431 0.446014 0.266438 0.293127 -0.239416 0.222782 0.267645 0.189238 -0.217858 
998 -0.053510 -0.327022 0.130449 -0.112744 0.002925 -0.283415 0.385877 -0.014567 0.263752 0.128501 0.050353 0.076932 -0.060318 -0.120282 -0.121222 0.249612 0.203069 -0.592380 0.191451 -0.387791 0.125949 0.158368 -0.071969 -0.167720 -0.588460 -0.361738 -0.151302 -0.174048 0.715036 -0.209707 -0.031700 -0.478246 0.238651 -0.075199 -0.257477 0.308143 0.011080 -0.148343 0.378867 0.001514 0.230504 0.600591 -0.267976 0.170654 0.096862 0.275640 -0.245346 -0.293319 0.033132 -0.530145 
507 0.129961 -0.240688 0.260275 -0.375090 -0.273911 -0.087703 0.292252 0.024033 -0.170470 0.056192 0.236159 -0.260820 -0.362605 -0.166543 -0.043525 0.651922 -0.182599 -0.193718 0.482870 0.045281 -0.161463 0.052315 -0.080022 -0.349241 -0.392148 -0.170548 0.056786 -0.233516 0.354797 0.075944 0.149432 -0.166926 -0.367672 0.024467 -0.223165 0.121718 -0.026727 0.007372 0.307327 0.045640 -0.141752 0.330067 0.243007 0.176507 0.228156 -0.026175 0.157697 0.280105 -0.072964 -0.221252 
595 0.119588 -0.404959 0.044361 -0.169608 -0.143794 -0.417543 0.288473 0.055379 0.079211 -0.115880 0.252255 0.036302 -0.122125 -0.267655 -0.068358 -0.060752 0.110749 -0.316571 0.469652 0.004035 0.399427 0.328528 0.222647 0.011883 -0.528657 -0.204680 -0.285495 -0.032575 0.098343 -0.134498 0.044444 -0.433600 0.097979 -0.050686 0.126771 0.321283 -0.022817 -0.470748 0.513177 0.034235 0.217319 0.550191 0.209955 -0.032613 0.106110 0.537726 0.046216 -0.149565 0.110513 -0.588160 
47 0.217513 -0.020712 0.114317 -0.182103 0.136633 -0.279032 0.203344 -0.056002 -0.188032 -0.028668 0.224980 0.055424 -0.324106 -0.321132 -0.050016 0.504807 0.008594 -0.100237 0.382958 -0.127080 0.264517 0.195751 0.057627 -0.261063 -0.424592 -0.135124 0.019616 -0.211926 0.271770 0.102896 0.053447 -0.304194 -0.035349 -0.071958 -0.202974 0.216826 0.105571 0.012936 0.127249 -0.008550 -0.038325 0.454436 -0.091901 -0.140116 0.299997 0.196498 -0.019770 0.137876 -0.128954 -0.300252 
317 0.275942 0.013450 0.329856 -0.351322 -0.190418 -0.163593 0.179197 -0.326239 -0.529386 0.155504 0.371909 -0.007135 -0.241211 -0.134711 -0.146435 0.903026 -0.075481 -0.139392 0.542357 -0.033675 0.005706 0.044766 -0.117674 -0.452223 -0.201942 0.088067 0.053830 -0.496841 0.592796 -0.197988 0.091622 -0.047038 -0.432817 0.135146 -0.194736 -0.003231 0.262287 0.124014 -0.084611 -0.101338 -0.447919 0.397016 0.046201 -0.147583 0.201877 0.005965 0.157387 0.362433 -0.243753 -0.378184 
737 0.335958 0.093834 0.209209 -0.368497 -0.214482 -0.102780 0.207417 -0.265002 -0.450208 0.102952 0.282594 -0.045743 -0.369126 -0.272334 -0.134095 0.806550 -0.096779 -0.108410 0.403371 -0.099385 0.119102 0.008923 -0.111617 -0.408264 -0.365438 -0.061579 0.060571 -0.403149 0.658958 -0.109226 0.021894 -0.140576 -0.213151 0.087738 -0.205713 0.043145 0.198604 0.166907 -0.030652 0.016995 -0.367354 0.409218 -0.065028 -0.061037 0.169338 0.025383 0.078155 0.359325 -0.279216 -0.246671 
409 0.204181 0.033266 0.084517 0.102142 0.093998 -0.215783 0.179350 -0.141022 -0.047941 -0.156744 0.163362 0.227250 -0.026539 -0.348108 -0.049784 0.194997 0.118934 -0.047862 0.439333 0.030924 0.279406 0.308642 0.059762 -0.028265 -0.728595 -0.088880 -0.253418 -0.040419 0.298220 -0.109089 -0.282756 -0.400086 0.039536 0.047617 0.109808 0.073658 0.133590 -0.565468 0.018854 -0.117145 0.125330 0.513017 -0.152970 -0.083062 -0.006768 0.460539 -0.061298 0.027648 -0.070707 -0.710051 
735 0.135168 -0.325420 0.402646 -0.343800 -0.163594 -0.276812 0.246083 -0.189508 0.027963 -0.178297 0.007157 0.554135 -0.253934 -0.199566 -0.243296 0.278088 0.187636 -0.103573 0.242653 0.165014 -0.045817 0.551529 -0.018922 0.072763 -0.834496 -0.238702 -0.338023 0.510747 -0.091780 -0.105931 0.079566 -0.641062 -0.028007 -0.072067 -0.183346 -0.182754 0.234646 -0.467840 0.225152 0.075832 0.304228 0.056921 -0.086811 0.102892 0.170112 0.278237 0.153809 0.061527 -0.158720 -0.388464 
545 0.093531 -0.411053 0.262152 -0.130555 -0.039993 -0.238355 0.213131 0.064777 0.077261 -0.098256 0.094876 0.215279 -0.220466 -0.371575 -0.083827 0.097685 0.116203 -0.112348 0.345973 -0.092148 0.039780 0.264550 0.142363 -0.022665 -0.541912 -0.117629 -0.275072 0.081304 -0.132792 -0.027068 -0.130715 -0.458328 0.122235 -0.107870 -0.128911 0.131101 0.016097 -0.550546 0.197156 0.149763 0.307348 0.471801 -0.154632 -0.011587 0.152322 0.263098 -0.000881 -0.042607 -0.033901 -0.567457 
500 0.281941 -0.149195 0.389818 -0.437716 -0.017103 -0.180180 0.267333 -0.094800 -0.443858 0.178715 0.282337 -0.185697 -0.241878 -0.166427 -0.237045 1.094658 -0.046401 -0.071919 0.604881 -0.170937 0.207882 0.065010 0.028724 -0.520560 -0.028183 -0.121136 0.097764 -0.584637 0.272137 -0.050795 0.150695 -0.242952 -0.350017 0.141505 -0.279481 0.194762 0.193285 0.285702 0.159266 -0.126157 -0.415737 0.356086 0.250101 -0.054015 0.373894 0.041493 0.133975 0.366968 -0.094476 -0.201676 
444 0.048138 -0.270102 0.050315 -0.126022 0.020938 -0.524619 0.421807 -0.258193 0.309939 0.017788 0.228812 0.089110 -0.048290 -0.321941 -0.280150 0.205115 0.100682 -0.339535 0.193863 0.152835 0.063078 0.323060 0.083607 0.154773 -0.679927 -0.355654 -0.130173 0.202503 0.093952 0.021683 -0.137273 -0.425936 -0.006128 -0.150232 -0.167564 0.092147 0.028251 -0.416490 0.223084 0.417890 0.328472 0.452254 0.100613 -0.010984 0.399841 0.258015 -0.062633 -0.184492 0.050767 -0.506453 
57 0.513891 -0.045372 0.265319 -0.409534 -0.011798 -0.538224 0.484417 -0.342296 -0.274674 0.067295 0.196986 -0.144151 -0.227725 -0.393791 -0.193536 0.693936 -0.113850 -0.239246 0.178975 0.038573 0.034560 -0.083160 -0.050448 -0.170487 -0.413230 -0.004755 0.059738 -0.348859 0.281416 -0.062253 -0.266120 -0.175741 -0.233766 -0.244405 -0.432355 -0.220068 0.040194 0.076657 -0.245662 0.383927 -0.429759 0.279145 -0.223848 -0.147793 0.323608 -0.083825 0.180732 0.350505 -0.417700 -0.119367 
144 0.020999 -0.374902 -0.285563 -0.293899 0.186990 -0.641601 0.287905 0.092684 -0.144324 -0.004584 0.494104 -0.031033 -0.360437 -0.390582 -0.334545 0.199860 0.137077 -0.230150 0.280541 -0.091504 0.170374 0.302535 0.223078 -0.313382 -0.593016 -0.094456 -0.258337 -0.080257 -0.254161 0.225879 0.177042 -0.276175 0.147993 -0.114279 -0.456285 0.307767 -0.076978 0.006237 0.676044 0.217151 -0.096981 0.566225 0.196276 -0.009610 0.289698 0.418239 0.094068 -0.317642 0.220352 -0.378415 
760 0.322113 -0.035284 0.264632 -0.285103 -0.083839 0.083272 0.038061 -0.217669 -0.486435 -0.083951 0.194185 0.123582 -0.392880 -0.376686 0.085070 0.578970 0.015190 0.180897 0.358436 -0.290331 0.143729 0.346138 -0.146268 -0.327177 -0.291909 -0.040306 -0.192791 -0.213659 0.394865 0.020803 -0.135193 -0.262028 0.003437 -0.025714 -0.042595 0.040282 0.312144 -0.044441 0.173314 -0.080255 -0.069869 0.340935 -0.164137 -0.019961 0.088034 0.089532 0.003658 0.226962 -0.162082 -0.206782 
233 0.115778 -0.031578 -0.027022 -0.314908 -0.360264 -0.292468 0.128620 -0.329680 -0.203121 0.061403 0.375375 -0.182557 -0.499545 -0.516004 -0.105946 0.427038 -0.103846 0.016601 0.087508 0.200013 -0.105208 0.409161 -0.116316 -0.139242 -0.401060 -0.114115 -0.203522 -0.031718 0.441261 0.122547 -0.288584 0.117020 -0.492415 -0.031290 -0.019267 -0.033672 0.037103 -0.221018 0.150466 0.507055 0.041721 0.262315 0.099437 0.072111 0.084562 -0.001133 0.219306 0.163453 -0.056806 -0.237215 
476 0.129373 -0.350624 0.282014 -0.343738 -0.292827 -0.006969 0.214123 -0.111901 -0.340742 -0.095745 0.356861 -0.230859 -0.449387 -0.218517 0.051572 0.556285 -0.209335 -0.232432 0.485129 -0.035898 -0.239010 0.190292 -0.073751 -0.388528 -0.257870 0.021911 0.107403 -0.182478 0.224358 0.065505 0.150303 0.047607 -0.433869 -0.072596 -0.099341 -0.007853 -0.045560 -0.125292 0.325755 0.103256 -0.129815 0.388712 0.298320 0.015530 0.106598 -0.028216 0.175648 0.096551 0.006426 -0.279026 
985 0.094327 -0.293823 0.438625 -0.369318 -0.058174 -0.264353 0.311946 0.053071 0.069241 -0.110650 0.006654 0.533876 -0.248669 -0.055000 -0.186687 0.277661 0.259299 -0.097752 0.261596 -0.048843 -0.066975 0.500554 -0.086360 -0.083162 -0.959559 -0.147252 -0.390510 0.589503 -0.114270 -0.056464 0.159575 -0.756031 0.054367 0.046593 -0.374821 -0.049424 0.235760 -0.310532 0.240575 -0.001152 0.098850 0.127903 -0.209405 0.138679 0.074146 0.355161 0.155958 -0.069484 -0.290657 -0.526999 
300 0.365144 0.008084 0.240648 -0.271157 -0.238781 0.036509 0.141036 -0.156635 -0.375857 0.049322 0.191669 0.143986 -0.331105 -0.229014 0.061321 0.423082 0.009816 -0.001461 0.405388 -0.317269 0.264259 0.192052 -0.139824 -0.222548 -0.450038 -0.082591 -0.111486 -0.246840 0.581240 -0.120729 0.045404 -0.293885 0.107139 0.038153 -0.091539 0.141648 0.229618 0.018742 0.101088 -0.056977 -0.062573 0.448659 -0.149964 -0.078708 0.190888 0.111529 0.030372 0.140071 -0.247802 -0.267841 
722 0.164315 -0.062089 0.393344 -0.125730 0.108554 -0.164813 0.282187 -0.318815 -0.054969 -0.282191 0.060439 0.019751 -0.113917 -0.653922 -0.077451 0.372051 -0.032660 0.031293 0.272956 0.081504 -0.359920 0.190388 -0.075897 -0.190561 -0.370175 -0.116443 -0.251848 -0.115830 0.101420 -0.214338 -0.643801 -0.317956 -0.255029 -0.253350 -0.166084 -0.059389 0.225982 -0.188244 -0.205168 0.302986 -0.023425 0.339403 -0.375870 0.089857 0.036374 0.055624 0.126125 0.385848 -0.337634 -0.356566 
159 0.117185 -0.227502 0.178759 -0.181863 -0.061847 -0.297419 0.190496 -0.454979 0.051743 -0.046989 0.337806 0.052932 -0.140628 -0.592051 -0.154623 0.593968 0.097590 -0.093738 0.424236 0.026018 -0.071373 0.183627 -0.089528 -0.050624 0.019191 -0.142049 -0.009650 -0.339785 0.394459 -0.031962 -0.445968 -0.240790 -0.203915 -0.144082 0.010980 -0.154186 0.013434 -0.151011 0.067006 0.173723 0.049455 0.265882 0.045494 -0.356523 0.178490 -0.108030 -0.041929 0.087848 0.035310 -0.237923 
