1001 50
</s> 0.008005 0.008839 -0.007661 -0.006556 0.002733 0.006042 0.001882 0.000423 -0.007207 0.004437 -0.008713 0.002499 -0.001503 -0.001914 -0.006631 -0.003764 0.005159 0.006051 0.005938 0.003195 0.003090 -0.007605 -0.008192 0.009939 0.007603 0.006180 -0.001208 0.008031 -0.000990 0.001469 -0.000298 -0.005966 0.002625 -0.002675 -0.007651 0.009508 0.008759 -0.002190 -0.000452 0.001018 -0.007275 -0.008014 0.009109 0.000126 -0.005165 -0.006084 -0.006153 0.003394 0.000403 0.002662 
419 0.248841 -0.699835 -0.572299 -0.255996 0.238854 -0.597377 0.291008 -0.338182 0.126525 -0.039009 0.397522 0.150004 0.400234 0.183557 0.502489 0.824929 -0.448853 -0.084639 -0.002442 0.105160 0.649477 -0.433110 -0.012724 0.075938 0.146976 -0.124975 -0.745558 1.156447 0.484618 -0.657762 0.005129 -0.464269 0.111864 -0.061279 0.099370 -0.507588 -0.412440 -0.357648 0.191427 -0.422717 0.436085 0.218910 0.066843 0.745427 -0.006630 -0.047997 -0.142212 0.521866 0.064295 -0.347291 
415 0.099405 -0.635038 -0.028469 0.103867 0.813079 -1.189239 -0.785220 -0.039116 -0.234066 -0.039083 0.549801 0.141354 -0.406501 -0.637109 -0.466683 0.703409 -0.318286 -0.819012 -0.401102 0.086196 -0.056598 -0.073937 0.189795 0.237329 -0.533379 -0.798707 0.071821 0.725116 0.849827 -0.194592 -0.306894 -0.131474 -0.480743 -0.771214 -0.732847 0.017518 0.236437 -0.539485 0.067294 -0.131120 -0.230184 0.100386 -0.385846 0.554931 -0.270474 0.475866 -0.252356 0.314004 -0.249468 -0.935774 
17 0.075175 -0.443224 -0.408038 -0.288519 0.222418 -0.818576 0.184883 -0.168284 -0.590798 0.106942 0.479782 0.145349 0.358410 -0.176407 0.586322 0.622984 -0.522721 0.058420 0.379202 -0.147544 0.013184 -0.394163 -0.028397 0.037841 0.016850 0.144186 -0.447095 1.026723 0.816440 -0.519755 0.566979 -0.572453 0.206455 -0.266826 -0.022533 -0.738814 -0.188223 -0.320884 0.323912 -0.295590 0.328044 0.378055 -0.060712 0.663620 -0.190631 -0.353693 -0.155642 0.606326 0.279021 -0.020099 
139 -0.045215 -0.528043 -0.791701 -0.378868 0.106616 -0.281836 0.340009 0.241226 -0.667749 0.233941 0.189864 -0.644007 0.945955 -0.473053 0.695022 0.506919 0.091494 -0.557223 0.210504 -0.288227 -0.105320 -0.101338 -0.173845 0.285140 -0.555932 0.349448 -0.346663 0.956603 0.669550 -0.556064 -0.029597 -0.231737 0.445790 0.575673 -0.549852 0.116743 0.349592 -0.350611 -0.080785 -0.042848 0.043372 0.545220 -0.060658 0.479560 -0.449476 0.198385 -0.568008 0.153496 -0.337908 0.673992 
121 -0.128163 -0.582613 -0.834381 -0.531000 0.308761 -0.732076 0.183355 -1.034020 -0.055810 -0.440453 0.347073 0.487771 -0.439825 0.680349 0.406869 0.154149 -0.617755 0.182842 -0.344168 0.214164 0.159307 -0.430783 -0.015201 0.200083 -0.305213 0.413184 -0.619132 1.478753 -0.197422 -0.320306 0.512649 -0.601477 0.056958 -0.013922 -0.267203 -0.186385 0.195293 0.038981 -0.094786 -0.208093 0.198540 0.283134 0.035584 0.749539 -0.329902 -0.112458 -0.381731 0.787856 0.372758 -0.250533 
691 -0.211206 -0.357253 -0.362974 -0.079861 0.936626 -0.899043 -0.072099 -0.107502 -0.678277 0.053931 0.397184 0.323011 0.321603 -0.532362 -0.004151 0.515692 -0.305889 -0.262338 -0.149082 0.123277 0.097825 -0.098566 0.061589 0.111630 -0.021074 -0.324907 -0.667426 0.805410 0.759502 -0.170103 0.153598 -0.239689 0.340900 -0.157984 -0.194595 -0.289824 -0.125895 -0.226737 0.088455 0.132071 0.268628 0.117756 -0.233344 0.831891 0.300011 0.292588 0.043078 -0.090850 -0.183710 -0.395751 
268 0.610368 -0.649862 -0.079438 -0.808008 -0.517099 0.466292 -0.756429 0.011703 -0.376490 -0.449987 0.331365 0.836290 0.075228 -0.474394 -0.134657 0.025780 -0.218877 -0.810148 0.086611 -0.200849 0.353155 0.394167 -0.344099 -0.157082 -0.656299 0.261330 -0.059787 1.175515 0.396614 -0.688577 0.783211 -0.335895 -0.644516 -0.109391 -0.414873 0.300926 0.537150 -0.896037 0.057090 -1.429788 -0.088710 -0.073861 -0.286224 0.883250 -0.836513 -0.951764 -0.035618 0.666885 -0.758672 -0.862464 
258 -0.024692 -0.943112 -0.323453 -0.748147 -0.442659 0.031370 -0.279009 -0.879738 -0.373932 -0.128929 0.575933 0.076167 -0.066364 -0.271713 -0.402851 1.395017 -0.827108 0.286859 0.147804 0.765465 -0.161703 0.457217 -0.036260 -0.506643 -0.399765 -0.296151 0.715363 1.025825 0.740592 -1.137921 0.495981 -0.125657 -0.797745 0.243847 -1.624365 -0.180012 -0.339281 -0.874102 -0.522994 -0.552410 0.117649 -0.299163 -0.686504 0.272920 -0.475159 -0.430560 -0.627466 0.266847 0.605795 0.609179 
834 0.240811 -0.690640 -1.416725 -0.388525 -0.150530 -0.898123 0.192060 -0.523904 0.074621 -0.090703 0.031330 1.164942 0.704817 -0.053401 -0.064084 0.533706 -0.202140 0.455321 0.039510 0.697484 0.807725 -0.640342 -0.127484 0.814819 -0.724226 0.240843 -0.327095 0.588573 0.416137 -0.015222 0.170542 -0.106403 -0.252067 0.050321 0.140043 0.389866 0.107155 -0.722524 -0.504990 -0.082405 0.502395 -0.118895 -0.755114 0.836424 -0.789003 0.621285 -0.060176 0.221465 0.088119 -0.795998 
9 -0.121264 -1.376951 0.235006 -0.161533 0.104528 0.001421 -0.834291 -0.094958 0.163217 0.508867 0.245229 0.226808 -0.489563 -0.584431 0.073623 0.015470 -0.119814 -0.089215 -0.034357 -0.279026 -0.293057 0.206176 0.437562 -0.376597 -0.459283 -0.436974 -0.076869 0.834173 0.481104 -0.291061 -0.223547 -0.111101 -0.774158 0.180299 -0.993752 -0.282438 0.229207 -0.341726 -0.125828 -0.515474 0.328220 -0.247038 -0.139433 0.341098 -0.829131 0.089166 0.030084 0.572570 -0.282324 -0.791636 
892 -0.048850 -0.798790 0.204397 -0.367897 0.347082 -0.901591 -0.855689 -0.274074 0.626372 0.369704 0.141178 -0.166062 -0.474152 -0.249463 0.119939 0.582833 0.185056 -0.342924 -0.174127 -0.222436 1.164547 0.204174 0.045391 -0.263344 -0.322392 -0.594305 0.184429 0.684805 0.102281 -0.682786 -0.122897 0.003114 -0.391979 0.274997 -0.452666 -0.172908 0.188891 -0.094252 0.346375 -0.170046 -0.047312 -0.030096 -0.024716 0.428539 -0.992097 0.452352 -0.520572 -0.287315 0.475561 -0.467602 
151 -0.141077 -0.408281 0.121145 -0.600851 0.102076 -0.710468 -1.268591 -0.418971 0.338788 0.393422 0.418664 -0.437091 -0.461431 -0.273106 -0.159125 0.204794 -0.166414 -0.149200 -0.373305 -0.178384 1.612343 0.089889 0.021523 -0.191169 -0.501674 -1.150120 0.043311 0.955887 0.148276 -0.740660 0.370989 0.241499 -0.478194 0.150886 -0.316205 0.146042 -0.162293 -0.080590 0.039087 -0.407258 0.164761 0.123859 -0.588619 0.863012 -0.743098 0.093682 -0.988410 -0.167606 0.801276 -0.146686 
503 0.166180 -0.610668 -0.359118 -0.369933 0.088067 -1.031504 -0.341153 0.004492 -0.220761 0.200553 -0.222611 -0.780760 0.176089 -0.975924 -0.331171 0.394986 -0.564990 0.093667 -0.261920 0.200777 -0.502435 0.048303 -0.900885 -0.473330 -1.179809 -0.003878 -0.066653 0.133817 0.424414 -0.280611 0.593112 -0.171708 -0.204068 0.318974 -0.268858 -0.400948 0.792424 -0.074246 -0.097054 -0.327183 0.457441 -0.279009 0.114283 -0.114669 -0.371602 0.242645 -0.260157 0.683368 0.252771 -0.908775 
230 0.353441 -0.636305 -0.078755 -1.067183 0.231111 -0.523093 -1.079768 -0.139704 -0.002616 -0.684773 -0.128448 0.542867 0.228737 -0.268909 -0.107222 0.716480 0.075012 -0.768081 -0.639069 0.013852 -0.200069 0.472641 -0.489447 0.111867 -0.519951 -0.218443 0.374964 0.527875 1.096832 -0.588805 0.296873 0.756154 -0.036958 -0.139598 -0.365184 0.485051 0.557767 0.126738 0.164923 -1.558776 0.085326 -0.092614 -0.208591 0.261613 -0.415938 0.113216 -0.191745 0.158226 -0.340863 -0.687352 
126 0.141956 -0.806627 0.055121 -0.814153 -0.217410 0.103214 -0.594038 -0.366682 -0.311346 -0.553703 0.150558 0.781611 0.098071 -0.218538 -0.162119 0.089454 -0.009540 -0.494824 -0.147143 0.072632 -0.294044 0.484715 -0.441861 -0.116223 -0.617284 0.057904 -0.140106 0.805678 0.932464 -0.913521 0.439849 0.391743 -0.212348 -0.156188 -0.420464 0.036258 0.224408 -0.169176 0.164628 -1.752379 0.049342 -0.268027 -0.126390 0.326627 -0.451102 -0.505278 0.113184 0.207608 -0.577414 -0.382490 
243 0.506095 -0.615993 -1.238858 -0.222563 -0.044730 -0.757527 -0.197575 -0.623617 0.108025 -0.235476 0.184637 0.784438 0.572564 0.179186 -0.042006 0.499702 -0.521588 0.269235 -0.070232 0.361411 0.517611 -0.504421 -0.403981 0.393093 -0.488161 0.506372 -0.454091 0.541450 0.133209 -0.119779 0.073175 -0.274849 -0.065114 0.130238 -0.067809 0.187672 -0.160777 -0.405190 -0.727868 -0.005209 0.483605 -0.148225 -0.444103 0.532960 -0.526621 0.670173 -0.173685 0.255996 0.212856 -0.699053 
61 -0.435795 -0.508830 -0.508996 -1.133080 0.286951 -0.632303 0.278943 -1.194345 -0.541156 -0.394838 0.429463 0.068012 -0.460719 0.641167 0.036230 -0.197406 -0.599684 0.418332 -0.750177 0.218262 0.338938 -0.196891 -0.308469 -0.062594 -0.669174 -0.294751 -0.530566 1.184617 -0.181181 -0.262107 0.665419 -0.388205 -0.144304 -0.055676 -0.422404 0.080461 0.563247 0.108467 -0.021413 -0.400838 0.476057 0.043373 0.208475 1.057771 -0.461330 -0.438156 -0.106584 0.467892 0.425583 -0.153954 
519 -0.157202 -1.417652 0.247735 -0.123384 0.331918 -0.275383 -0.706597 -0.182416 0.314051 0.733925 -0.028496 0.121878 -0.514885 -0.641057 0.307640 -0.048510 0.263075 -0.082142 -0.193435 -0.362598 0.181370 0.317889 0.432587 -0.524168 -0.725779 -0.467528 -0.145349 0.971291 0.299228 -0.463405 -0.135381 0.181216 -0.396181 0.557521 -0.705518 -0.193293 0.095811 -0.310078 -0.024906 -0.091467 0.193193 -0.216962 -0.172197 0.450604 -0.600453 0.243689 0.031813 0.287477 -0.333472 -0.679131 
984 0.139508 -0.917739 -0.366340 -0.304654 -0.240432 -1.218737 -0.574360 -0.668617 0.158317 0.471067 -0.039219 -0.264298 -0.317610 -0.712755 0.412686 -0.018301 -0.094460 -0.127048 -0.197005 -0.171153 -0.375872 -0.125505 -0.271844 -0.829559 -1.112101 -0.182173 -0.300937 -0.134455 0.336567 -0.125394 0.748587 0.225560 0.165406 0.809473 0.014462 -0.253352 0.302980 -0.292001 -0.122574 0.105233 0.187908 -0.129484 -0.469329 0.207330 -0.691664 0.012447 -0.258231 0.304782 0.126565 -0.355544 
647 0.107427 -0.711394 -0.768028 -0.653595 0.231469 -0.810832 0.150131 -0.655121 -0.059511 -0.399003 0.332770 0.300545 -0.209604 0.589500 0.463116 0.482988 -0.618374 0.331895 -0.261828 0.188291 0.111351 -0.428827 0.147817 0.062116 -0.176803 0.305139 -0.486675 1.315316 -0.207952 -0.445680 0.412026 -0.700978 0.189536 0.143951 -0.321167 -0.428662 0.085459 0.018504 0.066241 -0.348396 0.416683 0.449059 0.351720 0.640954 -0.246304 0.006037 -0.167324 0.571137 0.284474 -0.175117 
558 0.753407 -0.836728 -0.699030 0.685886 -0.022376 0.033030 -0.057026 0.234834 -1.074298 -0.170556 -0.609441 -0.368793 0.731978 -0.990880 -0.468854 0.866608 -0.680704 -0.048526 -0.567451 -0.232150 0.418457 0.014980 -0.641519 0.124362 -1.388472 -0.345514 0.358154 0.991397 0.411678 -0.601430 0.278289 -0.230552 0.085586 -0.134158 -0.293799 0.190257 0.415821 -1.052643 -0.913017 -0.563682 0.541293 0.457392 -0.285137 -0.039109 -1.627009 0.081765 -1.165283 0.218499 -0.000174 0.027235 
51 -0.773319 -0.476342 -0.085891 -1.184817 0.536109 -0.198231 0.090168 -0.855394 -0.517138 0.237815 0.387095 -0.283687 -0.181204 0.196596 0.394046 -0.288198 -0.457173 0.094704 -0.589669 -0.230858 0.197966 -0.174800 0.192040 -0.083590 -0.527515 -0.714694 -0.507742 1.029459 -0.008654 -0.289667 0.587500 0.039223 -0.205189 0.337973 -0.411382 0.254882 0.380305 0.078750 -0.030335 -0.051818 0.547496 -0.182212 -0.115903 1.311398 -0.281802 -0.535670 -0.154416 0.236248 0.455465 0.038996 
256 -0.179816 -0.482858 -0.962154 0.314986 0.275471 -0.380896 0.169774 -0.060888 -0.730845 0.351339 -0.165988 -0.006552 0.513392 -0.694300 0.261583 0.560968 0.361449 -0.142682 -0.182144 -0.120822 0.170420 0.413048 -0.523355 0.107224 -0.884281 -0.100675 -0.243780 0.856394 0.440972 -0.365807 -0.043303 -0.003927 0.968211 0.563074 -0.400901 -0.034350 0.261969 -0.295732 -0.139039 -0.100736 0.291860 0.504023 -0.114912 0.146722 -0.687754 0.559275 -0.477854 -0.345316 -0.286218 0.072851 
168 1.223537 -1.009427 -0.851162 -0.150495 -0.498004 -1.159866 -0.399763 -0.889295 -0.112139 -0.494269 0.001076 0.140353 1.051480 0.305637 0.189293 0.777199 -0.661969 -0.447071 0.061079 0.026685 0.906851 -0.389942 -0.610113 0.674727 -0.339159 0.107905 0.022651 0.685136 0.366107 -0.560097 -0.129662 -0.266605 -0.137912 0.107859 0.471136 0.423818 -0.673084 -0.925368 -0.685503 -0.024697 0.927463 -0.018383 0.043257 0.675582 -0.601742 -0.195206 -0.368497 0.217038 0.090956 -0.665266 
78 0.256732 -0.370210 -0.406689 -0.266878 0.491505 -0.966007 -0.113946 -0.131722 -0.362114 0.124876 0.615569 0.130744 0.412914 -0.019282 0.689766 0.777841 -0.778805 -0.182106 0.040104 -0.307171 0.010791 -0.505803 -0.025301 0.240045 -0.090875 -0.185821 -0.245734 1.137876 0.995372 -0.397856 0.344990 -0.252378 0.284425 -0.597587 -0.141798 -0.826804 -0.123298 -0.519505 0.076130 -0.136857 0.049378 0.547773 0.376738 0.740643 0.042550 -0.653147 -0.229211 0.463163 0.130712 -0.077940 
676 0.397256 -0.767781 -0.259970 -0.349269 0.272217 -0.454979 0.147420 -0.157914 -0.235618 -0.025955 0.479632 0.158069 0.211519 0.057418 0.624742 0.902377 -0.357135 0.176599 0.041498 0.136313 -0.118758 -0.168940 0.029112 -0.230709 -0.077118 0.300752 -0.518955 1.194078 0.251420 -0.729509 0.258041 -0.550383 0.112654 0.140875 -0.124058 -0.556296 -0.216608 -0.202654 0.443848 -0.278378 0.499957 0.275082 -0.003636 0.695993 -0.043087 -0.265379 -0.234121 0.637169 0.180621 -0.264220 
425 -0.297864 -0.459147 -0.641582 -0.417447 0.557834 -0.648786 0.280416 0.000675 -0.155366 0.221497 0.369241 -0.448512 0.579802 -0.509283 0.734465 0.867857 -0.364790 -0.259445 0.401695 -0.853360 -0.228790 -0.102419 -0.055536 0.090636 -0.390745 0.115995 0.048756 0.599580 0.470523 -0.305563 0.557284 -0.444662 0.233497 0.735302 -0.636599 0.026736 0.189217 -0.316797 0.249656 -0.118600 0.353790 0.376015 0.115094 0.662394 -0.002501 0.684019 0.173758 -0.266789 -0.067747 -0.120585 
339 -0.371485 -1.414189 0.040857 -0.162517 0.472931 0.021267 -0.660099 0.064985 0.000802 0.505344 0.063734 0.099130 -0.258178 -0.769877 0.447068 0.010781 -0.367616 -0.333627 -0.130160 -0.426982 -0.526154 -0.089545 0.185451 -0.149024 -0.129502 -0.710908 -0.261897 0.454328 0.412265 -0.177249 0.129098 -0.692471 -0.440129 0.114824 -1.178374 -0.420624 0.675976 -0.008134 -0.123258 -0.771785 0.301338 -0.207208 -0.343013 0.756169 -0.859028 0.511558 -0.062962 0.457827 0.143945 -0.849497 
417 -0.478322 -0.885369 -0.024925 -0.319492 0.798459 0.195450 0.009248 -0.138609 -0.334718 0.417465 0.310886 0.231975 0.138952 -0.425757 0.377517 0.043384 -0.172034 0.236410 -0.579809 -0.332835 -0.010851 0.065394 0.501850 -0.285799 -0.678899 -0.549573 -0.507440 0.728740 0.124959 -0.394410 0.206847 0.150565 0.055691 0.613426 -0.745968 -0.013316 0.192491 -0.255920 -0.204661 0.135953 0.481623 -0.165576 -0.274998 1.169412 -0.177415 0.375672 0.276337 0.006640 -0.047914 -0.555142 
911 -0.337640 -0.369187 -0.402742 -0.030526 1.001392 -0.652562 0.082541 0.001232 -0.277068 0.244361 0.150604 0.193509 0.617083 -0.476368 0.308066 0.435406 -0.256424 -0.298231 -0.208273 -0.269268 -0.214314 0.114704 0.025470 0.149758 -0.600287 -0.368901 -0.605906 0.694860 0.504472 -0.284458 0.544628 -0.009433 0.484313 0.247550 -0.455492 -0.277638 -0.028661 -0.290872 0.060559 -0.004251 0.299460 -0.104274 -0.003081 0.614270 0.338965 0.555051 0.208172 -0.333617 -0.388465 -0.480028 
536 0.279390 -0.652261 0.215123 -0.484187 0.754545 -1.102181 -1.069221 -0.179429 0.122504 -0.413415 0.145075 0.334718 -0.424467 -0.340256 -0.293239 1.081624 0.041208 -1.091627 -0.794513 0.095299 0.163821 0.089401 0.188140 0.304610 -0.350396 -0.867088 0.386414 0.618292 0.894817 -0.188743 -0.179428 0.413075 -0.285190 -0.362516 -0.593291 0.415252 0.246220 -0.335041 0.268634 -0.503388 -0.228591 0.174301 -0.389474 0.285343 -0.589111 0.480952 -0.374283 0.039781 -0.072949 -0.806662 
854 -0.128985 -0.277093 -1.595804 -0.793875 0.060550 -0.784002 -0.796191 -0.956795 -0.178371 -0.123594 -0.245114 1.106504 0.094087 -0.349886 0.073974 0.568045 -0.605067 0.165946 -0.334474 0.113287 0.581495 -0.144649 0.581609 0.686623 -0.395260 0.356828 -0.538876 1.005486 -0.203382 0.212821 -0.435189 -0.115823 -0.130468 0.450483 -0.403517 0.139534 -0.382767 -0.194668 -1.059770 -0.630710 -0.100952 0.534319 -0.331106 0.520976 -0.952627 0.698442 -0.667435 0.273834 -0.065750 -0.247365 
390 0.032983 -0.807896 -0.437545 -1.347400 0.222196 -0.161047 0.180784 -0.030830 -0.501543 0.438260 0.444380 -0.543792 0.549963 -0.110843 0.495186 0.359872 -0.496006 -0.204982 -0.220883 -0.038404 -0.615359 -0.434671 0.104453 -0.073746 -0.734751 0.137380 -0.580614 0.860541 0.193775 -0.428141 -0.028577 0.160305 -0.104356 0.881206 -0.049396 -0.029309 -0.103064 -0.335572 0.074943 0.096463 0.325465 -0.252993 -0.409507 0.808449 0.006049 -0.256451 -0.313263 0.769441 0.046486 0.166554 
487 0.146054 -0.303594 -0.629613 -0.331871 0.453267 -0.910663 0.113344 -0.106857 -0.581406 0.182638 0.594055 0.156443 0.561014 -0.155442 0.387754 0.579511 -0.515498 -0.222700 -0.019381 0.045732 0.230125 -0.353377 0.000548 0.276313 0.060288 -0.104868 -0.663270 0.999695 0.569357 -0.520077 0.158253 -0.363307 0.355425 -0.210017 0.146933 -0.562757 -0.276587 -0.267931 0.349247 0.148048 0.120388 0.086360 0.032319 0.884571 0.113919 -0.198104 -0.091755 0.402352 0.104984 -0.291535 
130 0.207573 -1.138227 -0.633188 -0.010334 -0.800123 -1.422480 0.506312 -0.367861 -0.182359 -0.598067 0.284164 0.435774 -0.306605 -0.586530 0.068492 0.832701 -1.179693 -0.843373 -0.137487 -0.237720 -0.106387 0.318998 0.006715 1.013223 -0.592321 -1.456274 0.565459 0.745014 0.401296 -0.445713 1.381185 0.362451 0.239335 0.613052 -0.500019 0.318737 -0.491235 0.186757 -0.398856 -0.536297 0.028348 -0.097677 -0.269469 0.073422 -0.685145 -1.118993 -0.134564 -0.560347 -0.810764 -0.378128 
367 -0.138275 -0.754766 -0.849516 -0.674602 0.270818 -0.308076 0.247445 0.135944 -0.052138 0.210572 0.415554 -0.437840 0.530154 -0.417906 0.479183 0.886603 -0.788856 0.033332 0.242216 -0.440620 -0.570416 -0.246782 -0.183580 -0.277210 -0.585577 0.411146 -0.177234 0.719059 0.279942 -0.526029 0.247365 -0.437031 -0.074465 0.893766 -0.625060 -0.001532 0.282802 -0.387470 -0.010456 -0.111327 0.517597 0.217774 0.011595 0.369178 0.194013 -0.046364 0.137458 0.351848 -0.089504 0.062855 
234 0.138800 -0.357480 -0.570253 -0.848059 0.546366 -0.844379 -0.961902 0.331551 -0.171917 -0.178812 -0.140019 0.135209 1.036771 -0.904752 0.191920 0.821498 -0.363245 -0.209333 -0.630425 -0.163879 -0.345125 0.326349 -0.587363 -0.017745 -0.453823 -0.082207 -0.004099 0.271044 0.743731 -0.280312 0.670738 0.451066 0.180601 0.079652 -0.436955 0.249638 0.600917 0.361276 -0.240860 -0.998128 0.768518 -0.173971 -0.454032 0.422685 0.120517 0.402756 0.040636 0.240380 -0.324249 -1.079301 
284 0.062116 -0.502209 -1.536139 -0.776148 -0.084694 -0.685456 -0.847421 -0.933638 0.049645 -0.062169 -0.124648 0.944362 0.164558 -0.061020 0.123615 0.342798 -0.536537 0.215023 -0.557109 0.168082 0.351036 -0.470381 0.610335 0.640798 -0.350601 0.313208 -0.616810 0.878431 -0.239790 0.206895 -0.308373 -0.108454 0.027458 0.441954 -0.317572 0.154073 -0.387290 -0.149060 -1.016916 -0.362036 -0.185696 0.319634 -0.399701 0.491346 -1.047651 0.583274 -0.560120 0.365570 0.128638 -0.334477 
293 0.161049 -0.739731 -1.096099 -0.300173 0.042857 -0.910747 -0.298677 -1.005305 0.362992 -0.300875 0.286903 0.530349 -0.291301 0.486346 0.110564 0.383478 -0.867918 0.201883 -0.261818 0.421904 -0.204443 -0.658356 -0.323003 0.268706 -0.429298 0.606700 -0.471695 0.815511 -0.192370 0.069575 0.232591 -0.579694 -0.280208 0.100939 -0.290137 0.212236 0.156926 -0.120183 -0.669157 0.036019 0.170191 -0.109589 -0.610069 0.405288 -0.467903 0.274409 -0.491174 0.767987 0.327629 -0.413132 
643 0.225773 -0.488256 -0.354619 -0.644746 0.104914 -1.232849 -0.462312 -0.170585 -0.356362 0.120237 -0.140936 -0.700281 0.416365 -0.749891 -0.673028 0.165559 -0.641280 0.237893 -0.273998 0.378384 -0.088134 -0.025228 -1.041692 -0.299071 -1.168205 -0.012117 -0.161275 0.273341 0.311912 -0.568552 0.467998 -0.168770 -0.248468 0.042519 -0.058022 -0.165808 0.442867 -0.047261 -0.048660 -0.300402 0.322769 -0.295523 0.269386 0.224180 -0.179896 0.096218 -0.213521 0.570831 0.153700 -1.137777 
996 -0.116057 -1.339316 0.056979 0.114904 0.601369 -0.607554 -0.754621 -0.183429 -0.035874 0.409041 -0.132026 -0.146435 -0.408305 -0.743057 -0.329375 0.088650 -0.400750 -0.258102 -0.340616 -0.109851 -0.483227 -0.274174 -0.190034 0.067614 -0.613054 -0.725325 -0.076200 0.564937 0.424204 0.004380 -0.120007 -0.665498 -0.769475 -0.384968 -0.983795 -0.093759 0.517438 -0.267211 -0.306461 -0.514510 0.151402 -0.137041 -0.335397 0.362726 -0.727857 0.493507 -0.102334 0.685933 -0.028423 -1.119905 
947 0.564815 -0.794994 -1.261079 -0.695739 -0.688799 0.012498 -0.526314 -0.770243 -0.934403 -0.163529 0.847153 1.024412 -0.489051 -0.470193 1.026763 0.239693 -0.506485 0.298086 -0.257449 -0.476919 1.608249 0.008739 0.751643 0.529954 -0.684928 -0.198877 1.308835 0.877439 0.744443 -0.563671 0.543185 -0.530329 0.479963 0.666628 0.373892 0.229032 0.506824 -1.821493 -0.956318 0.262221 0.400734 0.744776 -1.684310 1.625724 -1.284393 -0.148865 -0.688903 0.362031 -0.601435 -0.171562 
315 -0.586713 -0.366966 -0.642271 0.096349 0.392402 -1.179699 0.457624 -0.260765 -0.468369 0.166909 -0.113460 0.321343 0.053084 -0.906990 0.150516 0.422699 -0.344888 -0.319494 0.147794 0.191459 -0.169755 0.567776 -0.552452 0.226271 -1.269471 -0.637290 -0.137714 0.792041 0.900277 -0.409850 1.188743 0.314394 0.442650 0.591336 -0.243126 -0.461120 -0.087048 -0.022578 0.022728 -0.327043 0.239408 -0.133747 -0.206057 -0.226614 0.084740 -0.200831 -0.146301 -0.375680 -0.547706 -0.342402 
468 -0.042995 -0.780879 -0.524183 -0.224090 0.173186 -0.821506 0.800023 -0.310596 -0.000128 -0.190941 0.202648 0.028399 0.372241 0.057769 0.787589 0.476138 -0.354248 -0.204753 -0.019564 0.119601 0.801926 -0.352395 -0.230307 0.191551 0.302047 0.030268 -0.649232 1.219984 0.859145 -0.788627 0.336583 -0.232253 -0.228912 -0.235603 0.040376 -0.635664 -0.709008 -0.312373 -0.371936 -0.406332 0.421880 0.349713 -0.352439 0.576664 -0.299285 0.013458 -0.051974 0.562907 0.130452 -0.017477 
538 -0.248267 -0.616793 0.021146 -1.018535 -0.084975 -0.449111 0.038656 -0.568495 -0.557455 -0.545945 0.085680 0.136749 -0.034218 0.047186 -0.120095 -0.396036 0.107185 -0.653387 -0.045961 0.211236 0.009793 0.508843 -0.902722 -0.076896 -0.923749 0.026807 -0.422902 1.037543 0.850787 -0.695418 0.719185 -0.027054 -0.161679 -0.235572 -0.457544 -0.150408 0.663264 -0.008576 0.281578 -1.499559 -0.160199 -0.078402 0.396509 0.392763 -0.389680 -0.466222 -0.042656 0.151811 -0.519609 -0.141001 
311 0.371058 -1.067011 -1.028343 -0.491864 -0.404005 -1.201011 -0.130426 -0.299700 -0.990241 -1.030515 0.242688 -0.199413 0.648825 -0.299831 0.076407 0.054607 -0.386364 -0.723611 0.141668 0.452950 0.925991 0.475782 0.905104 -0.005651 -0.501146 -0.879484 1.009726 0.306569 0.330468 0.269713 1.116145 -0.136393 -0.571311 0.563672 -0.237910 0.534539 0.865043 -0.538812 0.252878 -0.743865 0.890027 -0.821899 -0.817157 0.636874 -1.089040 0.414750 -0.014068 0.158706 -0.849695 0.180999 
135 -0.704482 0.051193 -0.729606 -0.649771 0.371019 -1.115608 -0.315810 -0.155413 0.554870 0.569389 -0.055171 -0.427147 -0.027458 0.102140 -0.909188 0.449672 -0.360523 0.026432 -0.330686 0.694793 0.680558 -0.204319 0.070790 0.282563 -1.611051 -0.025299 0.066403 0.813479 0.853722 -1.091388 0.411819 0.378594 -0.990347 -0.098487 -0.256861 0.086767 1.068521 -0.499738 -0.524644 -0.787051 -0.040050 -0.727296 -0.028469 0.814350 -0.796307 0.991541 -1.220394 0.843600 0.369902 -0.842876 
383 -0.065392 -0.676670 -0.468490 -0.853760 -0.248268 -1.360055 -0.741625 -0.878227 -0.349026 0.766328 -0.008150 -0.451161 -0.275455 -0.595102 0.487669 -0.214789 -0.181072 -0.288185 -0.165957 -0.268861 -0.036037 -0.310506 -0.227783 -0.794708 -0.768740 -0.734986 -0.325224 -0.162822 0.659904 0.013783 0.665287 0.245947 0.113268 0.807151 0.281056 -0.159349 0.459078 -0.578528 -0.118470 -0.017055 0.026969 -0.052958 0.026930 0.623912 -0.699337 -0.561938 -0.575004 0.460669 0.649092 -0.164756 
511 0.587548 -1.010687 -0.132872 -0.698181 -0.024591 -0.445663 -0.291789 0.111217 -0.295172 -0.007926 0.443867 -0.561020 0.533237 -0.599836 0.176563 1.165784 -0.683611 0.478759 -0.117047 0.310214 -0.530150 -0.089383 -0.346050 -0.443117 -0.684289 0.059178 -0.133951 0.576424 0.112977 -0.805021 0.369531 -0.160733 -0.282291 0.386478 -0.148983 -0.299305 -0.091933 0.083085 0.330342 -0.734084 0.940425 -0.187967 -0.381238 0.161925 -0.297642 -0.169966 -0.081601 1.023332 0.113052 -0.617423 
819 0.503201 -0.648821 -0.842394 0.633934 0.428305 -0.403824 -0.133598 -0.030406 -0.978409 0.183890 -0.496541 -0.104084 0.555773 -1.077835 -0.279577 0.780925 -0.335802 -0.049487 -0.504196 -0.227751 0.079491 0.273244 -1.049603 -0.085161 -1.458222 -0.175907 0.122022 0.840254 0.451254 -0.376924 0.188198 -0.038465 0.542275 0.047423 -0.297770 0.135812 0.531688 -0.619173 -0.750461 -0.153801 0.506473 0.376464 -0.213957 -0.094401 -0.981726 0.463261 -0.782106 0.182207 -0.107221 -0.473445 
742 -0.191379 -0.582409 -0.267699 -1.134110 0.239509 -0.699796 0.142669 -0.925107 -0.603709 -0.536236 0.157051 -0.109307 -0.170298 0.300082 -0.477957 -0.407681 -0.306087 -0.004674 -0.476249 0.515834 0.123870 0.188815 -0.915811 -0.219989 -1.122294 -0.024250 -0.527732 1.041938 0.299523 -0.752502 0.622692 -0.146656 -0.283091 -0.335748 -0.283708 -0.159411 0.727067 0.272991 0.245546 -0.784210 -0.126297 -0.351102 0.754532 0.726764 -0.252150 -0.314261 -0.147087 0.421633 0.161567 -0.517463 
574 0.149282 -0.367248 -0.196132 -0.981926 -0.667842 -1.171754 0.591753 -0.229800 0.519149 -1.217970 -0.328505 -0.551233 0.273628 0.298414 0.291838 0.853501 -0.586544 -0.492937 -0.374071 0.631695 -0.244402 -0.133800 0.122277 0.755207 0.053783 -1.206694 0.357481 0.983309 1.238387 -0.928251 -0.286450 -0.829369 0.055200 1.094123 -1.677061 0.508031 0.288201 -0.826793 -1.208559 -1.116547 0.121937 -0.424332 -0.724908 0.716459 -0.646866 -0.042169 0.007424 -0.198841 -0.146707 -0.959921 
199 -0.357358 -0.298319 -0.327667 -1.390762 0.206806 -0.622913 0.011536 -0.870592 -0.441136 0.587267 -0.015108 -0.396477 0.099652 -0.219749 0.769918 0.102104 -0.568629 -0.270149 0.194976 -0.772429 -0.025162 -0.571414 0.124912 -0.101974 -0.080015 -0.720822 -0.263593 0.305919 0.425852 -0.003672 0.659806 -0.248146 -0.475798 0.579159 -0.064059 -0.042323 0.523303 -0.226388 0.103592 -0.060246 0.200578 -0.261023 0.320258 1.295321 -0.614727 -0.311102 -0.153821 0.552625 0.794558 -0.191637 
526 0.444390 -1.527347 -0.202760 -0.057656 0.055243 -0.435908 -0.850777 -0.552012 0.205634 0.115357 0.318912 0.274238 -0.133494 -0.070996 0.688006 -0.117085 -0.224460 -0.006844 -0.876891 -0.250447 0.116995 -0.267319 0.132813 -0.423754 -0.291705 -0.946855 -0.151750 -0.052213 0.040355 -0.428132 0.519356 -0.036342 0.513889 0.721019 -0.620903 -0.072344 0.042523 -0.569022 -0.486990 0.036034 -0.094247 -0.390078 -0.545020 0.927690 -1.289972 0.272502 0.309660 -0.172945 0.108088 -0.505597 
134 -0.572875 -0.384974 -0.389014 0.055365 0.539181 -0.745287 0.388587 -0.399177 -0.534150 0.221395 -0.108017 0.268247 0.181477 -0.765701 0.284480 0.086555 -0.067337 -0.433043 -0.027503 -0.050817 -0.147591 0.415680 -0.534643 -0.043764 -1.104460 -0.488971 -0.503059 0.644104 0.921337 -0.478953 1.010124 0.267443 0.705118 0.359923 -0.258282 -0.553985 0.086099 -0.132118 -0.048692 -0.338572 0.308844 -0.090856 -0.205643 0.038265 0.036727 0.159676 -0.039545 -0.355230 -0.296616 -0.258658 
6 -0.408506 -0.582661 -1.996332 -0.324595 -0.524891 -0.997880 -0.689780 0.021599 -0.804991 0.741882 -0.226450 -0.609497 -0.418680 0.233962 0.639371 1.210792 -0.599735 -0.248505 -0.437287 0.104509 0.247071 0.276866 -0.420696 0.058364 -0.839258 -1.305428 0.641470 1.597368 0.366034 -0.337222 0.812456 0.606322 -0.331108 -0.065928 -0.537015 0.164999 0.347342 0.171079 -0.594386 -0.720638 -0.992335 -1.116609 0.487373 0.304318 -1.177990 0.302251 0.089151 0.238139 -0.203609 -0.023185 
359 0.265238 -1.503350 -0.337468 -0.186282 0.195508 -0.130643 -0.695893 -0.412547 0.060082 0.147121 0.434750 0.444385 0.083407 -0.109722 0.571968 0.055034 -0.480711 0.168863 -0.892133 0.033390 -0.378164 -0.381240 0.247149 -0.369487 -0.150841 -0.984891 -0.382225 0.026887 0.183403 -0.398451 0.554314 -0.166004 0.537672 0.857729 -0.747059 -0.189576 0.121206 -0.548958 -0.498569 -0.104258 0.006223 -0.547782 -0.562406 0.968278 -1.015947 0.311296 0.475591 -0.034504 0.119608 -0.718552 
764 0.144046 -0.339769 -0.573820 -0.894009 0.246011 -1.240981 -0.428371 -0.400795 -0.678134 0.145448 -0.016001 -0.568273 0.343275 -0.591365 -0.577627 -0.048019 -0.569166 0.153910 -0.173170 0.388243 0.231587 -0.017770 -1.010567 -0.464997 -1.122331 -0.160491 -0.425014 0.127781 0.325698 -0.385638 0.195574 -0.267307 -0.452532 -0.003874 -0.065343 -0.262180 0.406029 -0.178013 -0.083018 -0.339298 -0.086733 -0.208435 0.637391 0.657175 -0.260112 0.113836 -0.217055 0.477098 0.378281 -0.913299 
129 0.105410 -0.893296 -0.422912 -0.377067 -0.278205 -1.350070 -0.603309 -0.725504 0.426175 0.359378 0.078692 -0.278191 -0.485076 -0.762690 0.568005 0.158758 -0.261684 -0.361893 -0.106319 -0.432114 -0.385312 -0.146320 -0.331377 -0.638620 -1.066801 0.146507 -0.258934 0.268251 0.208702 -0.044422 0.608632 0.238233 0.007739 1.131362 -0.009708 -0.058366 0.543663 -0.359549 -0.216575 0.336998 0.294193 -0.303399 -0.478717 0.147190 -0.450325 -0.307330 -0.200254 0.323996 -0.015795 -0.273956 
866 0.007153 -1.178838 -0.142146 0.102012 0.715305 -0.691577 -0.834736 -0.088737 -0.092862 0.228999 0.287335 0.044114 -0.430028 -0.502156 -0.383953 0.372949 -0.461019 -0.390691 -0.371704 0.080962 -0.366980 -0.339279 0.031650 0.217198 -0.594273 -0.606882 0.055474 0.662664 0.388606 0.046117 -0.387158 -0.628650 -0.677566 -0.435664 -0.946535 0.177121 0.386753 -0.358457 -0.235665 -0.204573 -0.120736 0.053859 -0.405812 0.414918 -0.514889 0.696033 -0.228026 0.682051 -0.153236 -1.240006 
275 0.773318 -0.574801 -1.055717 -0.332543 -0.031822 -0.979537 -0.220538 -0.792731 0.156882 -0.086058 -0.019434 0.455643 0.701810 0.182824 0.222818 0.785053 -0.701170 0.050130 0.185154 -0.078117 0.813966 -0.560459 -0.413119 0.472098 -0.328087 0.309734 -0.472446 0.522285 0.150546 -0.215256 -0.027630 -0.497106 -0.328908 0.147009 0.270276 0.095314 -0.477850 -0.528271 -0.571911 -0.030863 0.661984 -0.118020 -0.061643 0.890914 -0.637285 0.490207 -0.306279 0.302575 0.292024 -0.740000 
28 0.123300 -1.076542 0.019672 0.047556 0.218660 -0.619341 -0.890157 -0.207531 0.500046 0.581419 0.219009 0.098519 -0.514655 -0.374729 0.292661 -0.032109 0.198523 -0.358372 -0.157553 -0.183543 0.591050 0.205010 0.310175 -0.624606 -0.696441 -0.610213 -0.105500 0.335836 0.238539 -0.389093 -0.096144 0.173345 -0.300696 0.576236 -0.669817 -0.215333 0.307697 -0.335550 0.052130 0.036890 -0.151233 -0.357300 -0.134128 0.550541 -0.960191 0.414324 -0.105825 0.053347 0.092106 -0.623924 
170 0.001224 -0.521637 -0.292991 -0.644568 0.354891 -0.923584 -0.029327 -0.159441 0.802296 0.363692 0.109569 -0.298398 0.436850 0.053692 0.691461 0.742042 -0.289492 -0.460115 0.549460 -0.645477 0.938450 -0.468869 0.027321 0.110886 -0.006273 -0.264990 -0.145336 0.594101 0.424410 -0.564404 0.305684 -0.735500 -0.677520 0.157386 -0.233224 -0.230842 0.033330 -0.223624 0.276219 -0.391157 0.283765 -0.113750 0.255269 0.898718 -0.534228 0.390691 -0.299307 -0.067357 0.566392 -0.539329 
741 -0.946455 -1.011060 -0.348700 -0.658618 0.525402 -0.207032 -0.749144 0.679782 -0.931647 -0.056599 -0.587422 -0.129781 -0.093188 -0.252737 -0.373241 1.187293 -0.959431 -0.355922 0.354676 1.017526 -0.397885 -0.369852 -0.626217 0.589191 -0.203232 -0.420305 -0.067343 1.506261 0.692140 -1.125057 0.184037 -0.283731 -0.035660 0.790932 -0.848750 1.257451 0.159173 -0.770964 -0.566504 -0.511991 -0.536997 -0.918504 0.170690 0.937372 -1.354695 -0.398622 -0.944457 0.248563 0.833794 -0.375665 
388 -0.782710 -0.325884 -0.273018 -1.477232 0.405107 -0.443469 0.131792 -0.847391 -0.664689 0.416752 0.037304 -0.473094 -0.142696 0.022446 0.459511 -0.042084 -0.685921 -0.014671 -0.339949 -0.726075 0.191994 -0.395608 0.208333 0.084828 -0.301908 -0.846575 -0.105707 0.708457 0.027504 -0.368019 0.577499 0.124933 -0.328798 0.350366 -0.284169 0.243478 0.333951 0.048349 0.174242 -0.203142 0.388020 -0.007725 0.132291 1.401628 -0.502973 -0.417376 -0.304473 0.503843 0.827186 0.016839 
446 0.336785 -1.058986 -1.147745 -0.315078 -0.282298 -0.412613 -0.195724 -0.667950 0.111813 -0.096146 0.392817 0.871424 0.140192 0.418505 0.349693 0.560924 -0.342530 0.259495 -0.505715 0.372694 0.174838 -0.506592 -0.192847 0.494876 -0.113966 0.126614 -0.684402 0.790837 -0.103466 -0.225180 0.077724 -0.112003 0.258461 0.152673 -0.409847 -0.410261 -0.205288 -0.269119 -0.153566 -0.401938 0.230791 0.126670 -0.405546 0.128162 -0.926036 0.288445 0.124042 0.549017 0.315743 -0.081067 
384 0.317988 -0.714397 -0.456578 -0.735399 0.147121 -0.754758 -0.451242 0.344193 0.067422 0.050284 -0.006552 -0.520757 0.549794 -0.613047 0.028591 0.703071 -0.645234 0.160684 -0.260712 -0.111678 -0.721004 -0.087272 -0.640285 -0.418158 -0.888188 0.075952 0.037805 0.151752 0.493863 -0.383748 0.677614 -0.164660 -0.197413 0.318393 -0.273992 -0.161663 0.578133 0.099418 0.076314 -0.641264 0.608194 -0.032002 -0.150364 0.029367 -0.126036 0.137498 -0.097278 0.791561 0.091241 -0.846617 
461 0.132958 -0.233930 -0.691266 -0.635597 0.458584 -1.242827 -0.626408 -0.133542 -0.325307 0.165377 -0.016365 -0.192512 0.570545 -0.546125 -0.562196 0.240525 -0.335254 0.025407 -0.157287 0.449204 0.641751 0.088559 -0.674794 -0.168210 -1.192574 0.117106 -0.398991 0.242093 0.103430 -0.633322 -0.144532 -0.078310 -0.449524 0.013317 -0.234752 -0.332005 0.231590 -0.124028 0.056168 -0.250064 -0.315052 -0.319136 0.350495 0.605664 -0.327846 0.692604 -0.267158 0.323571 0.437007 -1.024938 
714 -0.538413 -0.011048 0.099280 -1.091512 -0.692626 -0.408652 0.804527 -0.741211 -0.540021 -0.692047 0.693557 -0.387686 0.077989 -0.517341 0.443202 0.204998 -0.277007 -0.534406 -0.454047 -0.277063 0.635237 0.846350 0.663705 0.272602 -0.562458 -0.652287 1.927073 0.647867 1.407440 -1.099591 0.904018 0.144115 0.397374 0.563177 -1.244901 0.448166 0.566272 -1.279971 -0.258761 -0.326645 0.556153 0.100564 -0.686440 1.006337 -0.561113 -0.205932 -1.156417 0.050842 0.254180 -0.292226 
675 0.277573 -0.774791 -1.265322 -0.220892 -0.170434 -0.797750 -0.430073 -0.774906 0.119589 -0.195660 0.250407 0.987677 0.199147 0.252120 0.210458 0.535019 -0.584062 0.215078 -0.430430 0.396230 0.171209 -0.540249 -0.195047 0.537144 -0.247516 0.613549 -0.615085 0.845114 -0.122773 0.038026 0.017565 -0.169581 0.008130 0.067196 -0.171345 -0.075100 -0.217951 -0.223844 -0.577651 -0.181538 0.368664 0.036238 -0.735779 0.203435 -0.556833 0.387368 -0.244608 0.582485 0.227347 -0.362696 
514 -0.363265 -0.794590 -0.371520 -0.693843 0.205596 -0.561434 -0.034811 0.022716 -0.055249 0.530394 -0.138469 -0.415388 0.346966 -0.361775 0.918639 0.273998 -0.360050 -0.541433 0.457122 -0.776007 -0.156022 -0.475027 0.011173 0.194448 0.160035 -0.633354 -0.319922 0.450526 0.628185 -0.041460 0.395746 -0.833991 -0.397109 0.136107 -0.619786 -0.315378 0.598101 0.167078 0.212509 -0.970064 0.388113 0.084503 0.177743 0.707090 -0.783144 0.283195 -0.158168 0.573913 0.301991 -0.273017 
847 0.143314 -0.924722 0.081442 -0.084775 0.061533 -0.836142 -1.011952 -0.479551 0.406407 0.345292 0.079518 -0.031775 -0.677277 -0.246198 0.151027 0.693948 0.452901 -0.251749 -0.258269 -0.284416 0.903293 0.404539 0.013200 -0.443679 -0.446059 -0.234904 0.198490 0.843637 0.032860 -0.989361 -0.300899 -0.164373 -0.136981 0.100147 -0.329954 -0.497358 0.181393 -0.152181 0.493931 -0.164040 -0.136760 0.226818 -0.119217 0.497690 -1.109980 0.435933 -0.827783 0.026148 0.397171 -0.333413 
940 0.623436 -1.847338 0.065349 0.021414 0.053627 -0.400953 -0.865229 -0.407408 -0.223341 -0.008031 0.147830 0.205081 -0.051083 -0.093833 0.991570 -0.062429 -0.263484 -0.080390 -1.030272 -0.425132 -0.011962 -0.276336 0.153641 -0.502727 -0.420766 -0.920586 0.086078 0.013419 0.089740 -0.467335 0.723073 -0.241294 0.613495 0.543081 -0.396747 0.020936 0.032146 -0.630968 -0.523683 0.003135 -0.245226 -0.159404 -0.468900 1.093926 -1.419896 0.103350 0.160865 -0.035376 -0.173511 -0.352766 
735 0.162011 0.002537 -0.924657 -0.056359 0.694744 -0.389080 -0.282386 -0.071686 -0.549246 0.034269 -0.044650 0.428189 0.936782 -0.506312 -0.016174 0.624536 -0.118092 -0.083300 -0.239609 -0.141443 0.082199 0.331839 -0.609311 0.003698 -0.908660 0.165951 -0.443651 0.284167 0.482484 -0.426834 0.237474 0.380653 0.381415 0.136682 -0.544255 -0.053647 0.098351 -0.253548 -0.401154 -0.217783 0.461724 0.024663 -0.293075 0.545718 -0.263887 1.040573 -0.103804 -0.072962 0.020856 -0.480593 
457 -0.255044 -0.704309 -0.157429 -0.231421 0.142410 -0.866282 0.403218 -0.015695 -0.578921 0.010728 0.264680 -0.042268 0.554391 -0.151850 0.851047 0.317154 -0.317492 -0.343444 0.397339 -0.193182 0.234031 -0.226432 -0.369137 0.244900 0.088761 0.028906 -0.436269 1.021651 0.994049 -0.535200 0.631247 -0.662447 0.047789 -0.309910 -0.175879 -0.657591 -0.184287 -0.053609 0.165537 -0.851020 0.682321 0.198124 -0.317936 0.391321 -0.309698 -0.437093 -0.108975 0.456344 -0.052668 0.137607 
420 -0.287069 -0.253258 -0.314885 -0.784993 0.399363 -0.509636 0.085272 -0.375801 -0.323456 0.558749 -0.012643 -0.428385 0.426420 -0.463036 0.889682 0.589410 -0.482843 -0.254646 0.468846 -1.079843 -0.078057 -0.378362 0.007210 0.184303 0.106340 -0.484455 -0.088888 0.584992 0.503318 -0.127975 0.557909 -0.691216 -0.451912 0.132710 -0.383475 -0.159055 0.502831 0.020012 0.304568 -0.394220 0.432696 0.147623 0.252035 1.098657 -0.675881 0.104675 -0.230077 0.438628 0.633356 -0.169499 
393 0.422765 -1.203267 -0.184884 0.125838 -0.099536 -0.936808 -0.931577 -0.415391 0.348370 0.543074 0.284279 -0.049494 -0.403211 -0.378420 0.396584 0.001971 0.175199 -0.047910 -0.452408 -0.286101 0.296080 -0.041897 -0.001320 -0.819631 -0.604852 -0.495917 -0.192983 0.044604 0.126445 -0.454478 0.201381 0.192482 0.269913 0.633605 -0.316685 -0.396993 0.209976 -0.379702 0.055539 0.224253 -0.092106 -0.189231 -0.156200 0.474727 -1.126193 0.223496 -0.043714 0.127970 0.150824 -0.541235 
913 -0.538390 -0.019879 0.124191 -1.102544 -0.740877 -0.358562 0.827860 -0.718230 -0.558763 -0.708449 0.662172 -0.417627 0.102838 -0.542572 0.405308 0.130607 -0.274130 -0.527777 -0.528345 -0.260516 0.558235 0.860698 0.663135 0.391948 -0.617669 -0.707965 1.922941 0.652020 1.310418 -1.197184 0.946114 0.152631 0.476204 0.632303 -1.254720 0.416671 0.566423 -1.268985 -0.334138 -0.366886 0.460597 0.037555 -0.669568 0.959039 -0.590275 -0.224932 -1.222557 0.048301 0.186122 -0.266120 
887 0.492811 -1.130782 -0.394825 0.190069 0.003099 -0.762981 -0.688000 -0.641050 0.174255 0.264533 -0.032763 0.171979 -0.360172 -0.277818 0.734881 0.727222 0.473924 -0.215450 -0.577217 -0.157468 0.424143 0.144013 -0.124431 -0.584080 -0.350135 -0.120282 -0.442340 0.720038 0.054958 -0.703884 0.065821 -0.065425 0.754599 0.537137 -0.039516 -0.602482 0.130778 -0.212116 0.231656 0.086347 0.038739 0.379652 -0.053083 0.325643 -1.020689 0.258388 -0.530704 0.054949 0.212799 -0.118452 
19 0.332472 -1.100565 -0.765087 0.303825 -0.032988 -0.458466 -0.278045 -0.492865 -0.062254 0.288743 0.383785 0.144663 -0.257152 -0.113994 0.681016 0.735147 0.310075 0.003458 -0.484800 -0.047783 0.301405 0.100823 -0.248940 -0.387472 -0.264093 0.056577 -0.484657 1.031911 0.037913 -0.666642 -0.007122 -0.093125 0.936687 0.556818 -0.262402 -0.634459 0.150566 -0.163974 0.241600 0.121845 0.133376 0.447538 -0.143763 0.210619 -0.904727 0.216335 -0.368548 0.244695 0.296575 0.016093 
525 -0.579817 -0.695246 -0.919021 -0.431850 -0.081323 -0.989249 -0.175080 -0.301493 -0.233808 -0.222406 0.397190 -0.230455 0.893894 -1.264745 0.900042 1.129900 -0.888467 -0.328205 0.594802 -0.538092 -0.451682 0.142985 0.019525 1.053747 0.253730 0.219714 0.394646 1.665200 0.224648 -0.491278 0.695963 -0.731044 -0.121078 0.823481 -1.120908 0.460651 0.071360 -0.118714 -0.060064 0.042904 -0.337287 0.022108 0.015440 0.455466 -0.530721 0.441903 0.281444 -0.495185 -0.089296 -0.137219 
279 -0.073780 -0.044633 -1.245505 -0.684904 0.457989 -0.923233 -0.582083 -1.044627 -0.412397 -0.243692 -0.442970 1.018309 0.304155 -0.582628 -0.206343 0.643750 -0.732033 0.332164 -0.109292 0.314861 0.441682 0.183242 -0.000439 0.539137 -0.653313 0.429522 -0.536503 0.416110 0.075900 -0.018234 -0.198429 0.112306 -0.430794 0.339449 -0.403519 0.117401 -0.350174 -0.379895 -1.275986 -0.583018 0.239456 0.089894 -0.251346 0.755708 -0.584281 0.806531 -0.240829 0.037959 -0.188194 -0.348538 
46 -0.175399 -0.268599 -0.509051 -1.078969 -0.191256 -1.239954 -0.622241 -0.737076 -0.543356 0.813210 0.140707 -0.771290 -0.047649 -0.623593 0.432309 -0.115645 -0.346637 -0.423643 0.041313 -0.319791 0.122245 -0.497065 -0.213857 -0.527546 -0.552328 -0.718056 -0.345309 0.097145 0.689932 -0.006085 0.546808 0.094944 -0.096894 0.906651 0.339337 -0.008176 0.493232 -0.584964 -0.077841 0.129152 0.070815 -0.148789 0.101968 0.832974 -0.450585 -0.672310 -0.624390 0.540378 0.705480 -0.055931 
658 -0.387497 -0.484721 -0.808374 -1.081854 -0.058129 0.073880 0.235468 -1.040692 -0.340533 0.176444 0.632116 -0.206170 0.268258 -0.794097 -0.538018 1.241852 -1.205021 0.510537 0.015037 0.659362 -0.057627 0.419542 0.070307 0.139283 -0.253263 -0.171061 0.784187 1.183039 0.898010 -0.936686 0.387603 0.441260 -0.770382 0.274524 -1.809849 0.345060 0.382315 -0.725277 -0.498213 -1.186893 -0.281134 -0.208112 -0.321317 0.163304 -0.343644 -0.403276 -1.049656 0.149773 0.752529 0.036638 
479 0.147853 -0.164264 -0.837824 -0.541854 0.056588 -0.727947 0.355751 -0.950000 0.038914 -0.731052 0.547681 0.465629 -0.699079 0.928857 0.176817 0.208584 -0.430395 0.335712 -0.106883 0.577147 0.051934 -0.417541 0.515228 0.416660 -0.773801 0.593558 -0.107799 1.721832 0.039190 -0.728710 0.854121 -0.608366 0.217712 -0.217228 -0.638676 0.282764 0.241609 -0.193299 -0.260536 -0.094805 0.122292 0.339062 -0.295945 1.058245 -0.822745 -0.197532 -1.025294 0.742375 0.250812 -0.215073 
986 -0.324376 -0.725623 -0.383634 -0.440681 0.086607 -0.741876 0.469216 -0.058393 -0.448399 0.091099 0.035411 -0.348084 0.495730 -0.060493 0.820169 0.093013 -0.086549 -0.598755 0.402684 -0.159555 0.179510 -0.169830 -0.444508 0.192689 -0.132927 -0.245174 -0.743953 0.850034 0.972090 -0.360775 0.586260 -0.589269 0.128445 -0.195407 -0.323248 -0.679372 0.170055 0.147989 0.210739 -1.075752 0.476886 0.403020 -0.019548 0.253492 -0.478227 -0.174414 -0.312256 0.309451 -0.136820 0.447767 
475 0.008453 -0.821555 -0.666733 -0.673563 0.229861 -0.667257 0.235012 -0.989245 -0.301301 -0.493043 0.470712 0.341496 -0.373118 0.780689 0.370934 0.290851 -0.755375 0.275745 -0.469440 0.189277 0.132665 -0.376446 -0.218460 0.062110 -0.257311 0.265778 -0.476493 1.479153 -0.144900 -0.427002 0.458983 -0.689324 -0.009332 -0.057818 -0.234921 -0.310892 0.191192 -0.075069 -0.017831 -0.300416 0.400302 0.265425 0.159786 0.773855 -0.225351 -0.315682 -0.276768 0.828280 0.354689 -0.116243 
789 0.446263 -1.065311 -0.361037 -0.608720 -0.260504 0.390204 -0.389017 -0.207923 -0.275444 0.146955 0.631155 0.437618 0.198262 -0.156297 0.017384 0.621040 -0.305639 0.258466 0.148978 0.280497 -0.465688 0.038439 0.163382 -0.331018 -0.159898 0.348437 -0.360188 0.908535 0.457712 -0.697431 -0.193026 -0.024585 -0.421977 0.243742 -0.514266 -0.366706 -0.360653 -0.500726 0.037744 -0.755268 0.430733 -0.107278 -0.225777 0.355722 -0.528296 -0.293139 0.184707 0.785515 -0.206974 -0.141565 
441 0.292711 -0.312704 -1.201827 -0.276627 0.183015 -0.657591 -0.194234 -0.623152 -0.307526 -0.208548 0.021970 0.789125 0.504030 -0.301626 -0.271955 0.646747 -0.453057 0.250382 0.119893 0.432561 0.297917 0.117703 -0.526807 0.206139 -0.734696 0.547441 -0.478838 0.367494 0.306247 -0.260970 -0.170531 0.036265 -0.131394 0.262007 -0.149038 0.049380 -0.426611 -0.518125 -0.699352 -0.193239 0.370948 -0.166057 -0.171758 0.498995 -0.251022 0.849614 -0.028143 0.204442 -0.104453 -0.552240 
731 -0.212439 -0.299165 -0.404784 -1.031519 -0.022924 -1.435215 -0.407563 -0.338515 -0.867063 0.691298 0.263964 -0.842410 0.663310 -0.626534 -0.150068 -0.477289 -0.548421 -0.414552 -0.147882 0.120234 0.433993 -0.332581 -0.332189 -0.307474 -0.714085 -0.594382 -0.476274 0.363419 0.482293 -0.448628 0.233446 -0.122492 -0.161727 0.098166 0.291164 -0.340114 0.045867 -0.598058 -0.027183 -0.174225 -0.059423 -0.197151 0.449940 0.940702 -0.028093 -0.408727 -0.468580 0.615628 0.354032 -0.409452 
906 0.281412 -0.867375 -0.245798 -0.596340 0.086963 -0.036646 -0.080388 -0.009559 -0.317585 0.112375 0.557284 0.034257 0.290237 -0.213062 0.452651 0.919262 -0.484714 0.191329 0.117903 0.012694 -0.546821 -0.031602 0.089326 -0.335574 -0.238380 0.369799 -0.294506 1.064623 0.415077 -0.660022 -0.067677 -0.108435 -0.168889 0.285295 -0.239274 -0.342932 -0.264912 -0.203208 0.246718 -0.408332 0.708761 0.035646 -0.092624 0.556056 -0.075891 -0.351751 -0.004546 0.845450 -0.068561 -0.174904 
501 0.503181 -0.895081 -0.768088 -0.208355 0.155954 -0.693722 0.207790 -0.530010 0.124789 -0.295710 0.398686 -0.005563 0.508441 0.470998 0.483829 0.787772 -0.497268 -0.403481 0.238529 -0.064418 0.983209 -0.284486 -0.262238 0.251962 -0.371093 -0.069864 -0.791456 1.124315 0.342191 -0.623227 -0.059513 -0.609896 0.034078 0.212273 0.204210 -0.071764 -0.827567 -0.541905 0.242013 -0.301755 0.851362 0.167370 0.212201 0.867344 -0.233544 -0.364785 -0.144596 0.558675 -0.169778 -0.275754 
955 0.053769 -0.854939 -0.910812 -0.461375 0.268827 -0.617580 0.285881 -0.436770 0.040283 -0.239750 0.370327 0.390819 0.167684 0.525565 0.662060 0.678530 -0.544277 0.088231 -0.247737 0.155903 0.396121 -0.407443 0.055643 0.185155 0.105003 -0.070382 -0.841914 1.116837 -0.062231 -0.497765 0.315219 -0.629069 0.431661 0.240237 -0.400671 -0.605393 -0.165983 -0.044029 0.157394 -0.512324 0.477833 0.315360 0.192220 0.564063 -0.296057 0.105339 0.112682 0.333317 0.097018 -0.045730 
965 0.195366 -0.924652 -0.733992 -0.698710 -0.138279 -1.079048 -0.342521 -0.428193 0.445616 0.292505 0.349679 -0.200547 -0.065151 -0.317846 0.574557 0.285208 -0.736033 -0.132658 -0.134523 -0.314121 -0.716248 -0.524620 -0.233503 -0.155430 -0.911400 0.489429 -0.271733 0.374447 -0.184526 0.001791 0.465492 -0.031217 0.013067 1.200994 -0.018355 0.105935 0.411416 -0.230516 -0.128919 0.338505 -0.018504 -0.394236 -0.805234 0.200217 -0.393857 -0.200916 -0.323297 0.508824 0.115619 -0.123930 
119 -0.018449 -0.123850 -0.605398 -0.317739 1.008183 -0.366511 -0.070995 0.173730 -0.381967 0.042364 -0.112729 0.482980 1.065286 -0.556610 0.242722 0.679016 -0.410025 -0.058021 -0.315314 -0.410657 -0.048697 0.233012 -0.345063 0.043711 -0.727131 -0.107771 -0.208514 0.316694 0.655913 -0.204904 0.440307 0.351683 0.200140 -0.029757 -0.438604 0.036712 0.160670 -0.076752 -0.460969 -0.388261 0.663636 -0.031137 -0.282119 0.601641 0.072514 0.613631 0.094309 -0.234175 -0.073304 -0.609615 
680 0.153824 -0.475704 -0.552381 -0.728529 0.186330 -0.869587 0.081693 -0.060629 -0.892612 0.481990 0.582047 -0.364149 0.880864 -0.440588 0.375835 0.205247 -0.478319 -0.529841 0.033176 0.083249 0.178727 -0.517890 0.103581 0.393298 -0.258730 -0.054369 -0.567559 0.943220 0.418327 -0.624854 0.032786 -0.125806 0.360759 0.089066 0.283093 -0.457929 -0.268896 -0.500116 0.145766 0.321125 -0.124895 -0.066199 0.140478 0.853249 0.235566 -0.314705 -0.392530 0.515084 0.032905 -0.171628 
619 0.543154 -1.112251 -0.692680 -0.394595 -0.249225 0.246517 -0.455143 -0.307983 -0.519866 -0.183258 0.645669 0.782739 0.194591 -0.173127 0.039600 0.608528 -0.538986 0.471562 -0.017095 0.372790 -0.420158 0.075866 -0.207863 -0.101320 -0.149724 0.518744 -0.374636 0.820910 0.150133 -0.599320 -0.055154 -0.170419 -0.156043 0.090156 -0.740934 -0.279353 -0.659482 -0.420495 -0.352745 -0.732100 0.473461 -0.204508 -0.434962 0.402270 -0.869648 0.144848 0.343754 0.669285 -0.104014 -0.267580 
661 -0.001582 -0.850948 -0.130784 0.131704 0.001918 -0.737223 -0.785864 0.132487 -0.508465 0.264641 0.629957 -0.119577 -0.670144 -0.792670 -0.305030 0.287909 -0.468321 -0.591598 -0.268915 0.004480 -0.313610 0.117276 0.383931 0.310610 -0.407870 -0.957071 0.323594 0.947759 0.786555 -0.023476 -0.389056 -0.289824 -0.621380 -0.604030 -0.908023 0.192523 0.443072 -0.291043 -0.276037 -0.183361 -0.063351 -0.064804 -0.068600 0.341464 -0.598601 0.424955 -0.210130 0.841489 -0.344939 -1.057048 
318 -0.388905 -1.680742 -0.063235 -0.344251 -0.234305 -0.209931 -0.984342 -0.197402 0.007190 0.814983 0.338591 0.305619 -0.390945 -0.462821 0.066191 -0.254119 -0.111856 0.278940 0.171354 0.095035 -0.113135 0.200215 0.711042 -0.301932 -0.354050 -0.236016 0.202663 1.351010 0.938054 -0.243458 0.066913 0.026969 -0.569648 -0.002018 -0.975281 -0.367238 0.300879 -0.255335 -0.417445 -0.220135 0.166536 -0.392510 0.262573 -0.020554 -1.271120 0.061354 -0.291090 0.466345 -0.940499 -1.107633 
751 -0.718157 -0.276293 -0.002784 -0.923476 0.342226 -0.996225 -0.625482 -0.663666 -0.572450 0.395556 0.463146 -0.435993 -0.130129 -0.233591 -0.003167 -0.310424 -0.302523 -0.096100 -0.633306 -0.042690 0.907025 -0.157497 -0.008334 -0.369734 -0.542314 -0.983909 -0.543148 0.678930 0.251929 -0.214703 0.324539 0.060368 -0.061688 0.182059 -0.049000 0.253895 -0.004517 -0.193491 0.027952 -0.161950 0.605919 0.018059 -0.291841 1.174095 -0.144509 -0.772390 -0.464893 -0.025047 0.394368 0.012898 
277 0.511495 -0.663431 -0.626603 -0.353643 -0.161723 -0.546510 0.351080 -0.518588 0.170542 -0.118525 0.773497 -0.172875 0.576736 -0.101463 0.586446 0.865985 -0.517208 -0.052838 0.013941 0.283640 0.844193 -0.162535 0.034004 0.123282 0.379803 -0.161253 -0.877482 1.431870 0.409052 -0.804680 0.246069 -0.769191 -0.044576 0.034603 -0.002631 -0.538483 -0.305692 -0.312885 0.243191 -0.287141 0.471428 -0.126816 0.092279 0.808455 -0.014304 0.058826 -0.287637 0.661365 0.003076 -0.445458 
467 0.226827 -1.067440 -0.895451 -0.599094 -0.598859 -1.124914 0.001310 0.512528 -0.531143 -0.344199 -0.031995 -1.263296 0.605680 -0.071309 0.575750 0.197934 0.017298 -0.631428 -0.387197 0.044832 -0.486073 -0.124197 0.348725 0.920461 -0.008688 -0.343082 0.351270 1.163445 0.663782 -0.433789 0.359086 -0.191198 0.817096 0.038883 -0.452417 1.002450 0.447458 -1.118179 -0.135690 -0.764915 -0.650652 0.570449 -0.207406 0.509848 -1.147681 0.325384 -1.096092 0.101449 -0.726367 0.126879 
266 -0.753693 -0.516826 -0.814301 -0.551701 0.024130 -1.059234 -0.112277 -0.267179 -0.210800 -0.194571 0.318528 -0.327491 0.975926 -1.157410 0.792668 0.923720 -0.801455 -0.347953 0.500075 -0.465728 -0.274038 0.140832 0.028335 0.950358 0.054733 0.139666 0.277510 1.504221 0.186374 -0.502749 0.652524 -0.480230 -0.158966 0.873231 -0.992800 0.528656 -0.034972 -0.174053 -0.003060 0.038202 -0.258640 0.044631 -0.049883 0.544315 -0.268402 0.417555 0.290776 -0.613651 -0.127303 -0.040590 
523 -0.140811 -0.468865 -0.800625 -0.263297 0.383521 -0.528330 0.262512 0.314155 -0.320051 0.372808 0.466144 -0.712432 0.708338 -0.399675 0.767943 0.864527 -0.269688 -0.343560 0.316532 -0.721346 -0.333146 -0.149610 -0.067814 0.248564 -0.553287 0.215045 0.054494 0.857009 0.704128 -0.376926 0.269013 -0.344618 0.253299 0.577932 -0.545822 -0.008107 0.234855 -0.427128 0.202312 0.055625 0.224233 0.596940 -0.064474 0.422225 -0.062743 0.343107 -0.254856 0.242518 -0.230855 0.113421 
352 0.079810 -0.767428 -0.330384 -0.999680 0.232170 -0.065214 0.198370 0.208774 -0.227920 0.139791 0.446513 -0.180023 0.442220 -0.264824 0.477696 0.673983 -0.541964 0.012730 0.004686 -0.254364 -0.515081 -0.318652 0.207363 -0.339412 -0.540286 0.336119 -0.276009 0.780511 0.161056 -0.615817 0.089709 -0.104571 -0.008770 0.897336 -0.216637 -0.146181 -0.068160 -0.386834 0.150730 -0.295909 0.581922 0.028308 -0.045547 0.776399 0.197884 -0.159864 0.141296 0.664379 -0.136253 -0.184674 
588 -0.496776 -0.597869 -2.020689 -0.294885 -0.512251 -1.045352 -0.683891 0.077778 -0.793764 0.774769 -0.221111 -0.756819 -0.429992 0.149706 0.591123 1.151933 -0.569896 -0.220100 -0.431576 0.114823 0.168850 0.242659 -0.542386 0.068862 -0.819675 -1.301814 0.553734 1.597337 0.346680 -0.364295 0.778811 0.636583 -0.199726 -0.027883 -0.598307 0.148582 0.463075 0.223662 -0.562060 -0.800219 -0.990219 -1.083688 0.511303 0.227456 -1.172964 0.270349 0.095713 0.298615 -0.256005 -0.141144 
869 0.442386 -0.577380 -0.198195 -1.100617 0.312077 -0.540348 -1.137506 0.107762 0.003739 -0.636951 -0.071396 0.413070 0.602247 -0.507291 0.046733 0.846500 -0.113005 -0.709037 -0.590829 -0.092204 -0.501437 0.402600 -0.467574 0.030352 -0.621423 -0.022440 0.270289 0.394824 1.098087 -0.523985 0.606342 0.666863 0.050070 0.051563 -0.357266 0.525878 0.794255 0.108905 0.043057 -1.456252 0.191341 -0.056702 -0.342822 0.317257 -0.247365 0.090742 -0.163476 0.224354 -0.421852 -0.901927 
690 -0.835223 -0.449365 -0.325291 -1.079555 0.072341 -0.868324 -1.004746 -0.737296 0.095750 0.576185 0.733025 -0.826526 -0.186987 -0.322425 -0.276480 0.223105 -0.510071 -0.028880 -0.005732 0.108015 1.479730 0.099117 -0.287131 -0.310122 -0.482838 -1.318661 0.195537 0.536380 0.417482 -0.410435 0.524261 0.217912 -0.450854 0.269771 -0.118135 0.085797 0.165460 0.115891 -0.241080 -0.681674 0.970934 0.300503 -0.731982 0.702865 -0.654123 -0.344814 -0.862827 -0.388051 0.438466 0.088261 
482 0.139511 0.041459 -0.901523 -0.379085 0.239356 -0.754349 -0.212313 -0.588440 -0.689288 -0.418143 0.066822 0.284161 0.503850 -1.088006 -0.213519 0.601414 -0.273406 0.334851 -0.232879 -0.608769 0.434086 0.547727 -0.656983 0.050979 -1.155277 0.608703 -0.121500 0.297095 0.614033 -0.632002 1.016271 0.757949 0.365764 0.379436 -0.661883 -0.015292 -0.070524 -0.304057 -0.712684 -0.032305 0.671918 0.058912 -0.588233 0.457973 -0.496197 1.101197 -0.117416 -0.198749 0.265810 -0.471777 
411 0.292035 -1.143418 -0.743066 -0.777530 -0.727557 -1.666070 -0.486017 0.333632 -0.228086 -0.591584 -0.054997 -1.084322 0.397222 0.096870 0.628071 0.168537 -0.267215 -0.618864 -0.638862 -0.043856 -0.231208 -0.191280 0.722447 0.843123 0.413201 -0.301703 0.616453 1.328092 0.284058 -0.546184 0.306377 -0.121778 0.446173 -0.260482 -0.468891 1.133648 0.247893 -1.397007 -0.405036 -0.872982 -0.486256 0.628807 -0.572534 0.492441 -1.129128 0.235938 -1.393397 -0.104654 -0.375160 0.149971 
24 0.109602 -1.181449 -0.167807 0.176602 0.187676 -0.639281 -0.496357 -0.131495 -0.306700 0.512877 -0.455243 -0.653557 -0.013757 -1.192265 -0.438121 0.330627 -0.513058 0.082774 -0.311407 -0.008249 -0.671426 -0.150716 -0.775714 -0.116687 -1.163571 -0.413780 -0.019444 0.344138 0.394224 -0.173222 0.215811 -0.403992 -0.349304 -0.023677 -0.614219 0.015317 0.527183 -0.297206 -0.553172 -0.502694 0.483638 -0.068652 -0.214325 -0.200073 -0.768230 0.332912 -0.284386 0.787331 -0.004219 -1.036790 
882 -0.231934 -0.228464 -1.470053 -0.883796 0.252115 -0.903025 -0.905217 -1.053441 -0.467529 -0.124171 -0.350470 1.114401 0.173793 -0.698997 -0.068971 0.515531 -0.641827 0.093596 -0.351314 0.136628 0.310854 0.057043 0.433574 0.498234 -0.553294 0.385969 -0.646598 0.867607 -0.040932 0.250369 -0.476536 0.043245 -0.240810 0.449538 -0.468903 -0.010316 -0.444813 -0.174545 -1.140118 -0.564219 -0.215728 0.351504 -0.299445 0.582402 -0.746263 0.606794 -0.473788 0.237729 -0.201615 -0.185576 
274 0.379898 -1.046777 -0.299719 -0.579786 -0.308012 0.373101 -0.363129 -0.562670 -0.386674 -0.372320 0.715214 0.336279 0.201360 -0.141633 -0.248248 1.175278 -0.580457 0.221996 0.105431 0.413088 -0.387032 0.219506 0.064422 -0.607949 -0.180308 -0.023199 0.366641 0.903245 0.739733 -1.021976 0.270743 -0.419942 -0.673265 0.147225 -1.218007 -0.242355 -0.429284 -0.952214 -0.249227 -0.659330 0.484314 -0.029824 -0.495115 0.361455 -0.352973 -0.384242 -0.197592 0.524708 0.296700 0.383070 
115 0.522731 -0.519603 -0.011713 0.179875 -0.563024 -1.283409 0.446453 -0.699519 -1.070576 -0.004016 -0.531465 1.133752 0.181668 -0.647138 -0.289581 0.808438 -1.045763 -0.219494 -0.114225 0.160888 0.394281 0.206097 -0.931502 -0.722757 -0.543316 -0.485478 0.976094 1.290950 0.606174 -0.222191 0.755227 -0.404897 -0.187200 0.485073 -1.132435 -0.431150 0.218306 -1.019885 -0.470201 0.316166 -0.129772 -0.619480 -0.579812 1.205961 -1.161359 -0.869237 -0.482408 0.066040 -1.039055 -0.206545 
82 0.525832 -0.649727 -0.169615 -1.226622 -0.081988 -1.729748 -0.306111 -0.340039 0.407426 -0.113044 -0.524114 0.052472 0.047703 -0.381136 0.607913 -0.327618 -1.160061 -0.103256 -0.435162 -1.266437 0.914118 -0.156756 1.101858 1.269727 -0.933957 -1.198354 0.425501 0.821085 -0.536377 -0.050783 0.571334 0.149556 0.559007 0.920644 0.371097 0.056077 -0.035638 -1.512336 -0.525929 -0.522174 0.473869 0.300772 -0.768537 0.901909 -0.563219 0.281068 -1.102069 0.474632 -0.656530 -1.109916 
867 0.949041 -0.254922 0.106314 -0.376906 -0.374577 -0.724456 -0.046678 -0.359249 0.154932 -0.413599 1.016466 0.361247 0.140022 -1.058297 0.107524 0.272850 -0.717344 -0.857637 -0.248446 -0.198312 0.929196 0.785192 0.396728 0.708083 -1.138094 0.182741 -0.066085 1.247814 0.929592 -0.782569 0.218069 -1.017043 0.534203 0.387500 -0.464643 0.182773 0.160581 -1.393171 -1.012421 -0.141692 0.965901 0.721427 -1.678705 0.157158 -0.881480 -0.474840 -0.719956 -0.972279 0.108658 -0.818866 
836 0.251738 -0.783596 -1.390170 -0.557858 0.234665 0.009674 -0.422655 -1.601175 -0.561227 -0.635931 0.428595 -0.760516 0.058194 -0.680486 0.103602 0.754831 0.130457 0.140076 0.078443 0.324049 1.132011 1.165938 -0.385895 0.707055 -1.009250 0.353498 0.765383 0.008068 0.679315 -1.107249 1.002914 -0.411178 0.097155 0.113549 -0.010670 0.377542 0.248088 -0.692920 -0.362503 -0.691200 0.091602 0.288563 -0.299086 0.598284 -0.918967 -1.224009 -0.301776 -0.290292 -0.440998 -0.649454 
721 0.154040 -0.877744 -0.028197 -0.709828 -0.830074 -0.021519 0.152854 -0.670566 -0.047357 -0.203880 0.265030 -0.091218 -0.252619 -0.920036 0.555473 -0.046385 -0.220518 -0.719518 -0.238713 -0.587756 1.224166 0.173614 1.253221 1.017446 -0.991883 -0.159006 0.659277 1.704071 0.876667 -0.841268 -0.104992 0.135041 -0.282125 0.492367 -0.489785 0.252580 0.013427 -0.801752 -0.699480 -1.014458 -0.259596 0.555719 -0.726295 -0.104674 -1.343549 -1.033743 -1.542203 0.505313 -0.487637 0.559823 
976 -0.442605 -0.727043 -1.391592 0.228255 -1.112808 -0.641132 0.680050 -0.721875 -0.121723 -0.904580 0.951420 0.343115 0.803724 -0.483164 0.999216 0.644130 -0.754819 -0.949565 -0.718577 -1.142183 0.448965 -0.687548 1.464104 0.929990 -0.110735 -0.857063 0.226003 1.382016 -0.321915 -0.661157 -0.027895 -0.327262 0.423731 0.522930 -0.211736 0.353728 0.769959 -1.056409 -0.553031 -0.190710 0.218655 0.452684 -0.894861 0.772346 -1.243220 -0.380884 -0.983577 0.781381 -0.592215 -0.420202 
752 -0.677243 -0.573306 -0.145413 -0.854325 0.029794 -1.039897 0.209186 -0.208863 -0.697863 0.395357 -0.040467 -0.555034 0.587907 -0.104207 0.601099 -0.487018 -0.045468 -0.828981 -0.093760 -0.296679 0.356472 -0.103166 -0.343086 0.330811 -0.549962 -0.616409 -0.684881 0.801463 0.543527 -0.652153 0.635574 -0.103618 0.431175 -0.310305 -0.237989 -0.496145 -0.048073 0.141042 0.285093 -1.135427 0.175727 -0.170782 0.131250 0.385872 -0.262848 -0.361357 -0.430236 0.138888 -0.009523 0.184004 
696 -0.473581 -0.306546 -0.598692 -0.004430 0.042629 -1.565225 0.421651 -0.044481 -0.359552 -0.052761 -0.514706 0.517844 0.236713 -0.715947 0.174742 0.605834 -0.386820 -0.443062 -0.033035 0.265506 -0.027953 0.523381 -0.125557 0.621321 -1.410981 -0.935380 0.228384 0.862023 0.737871 -0.585229 1.501636 0.331171 0.632811 0.638139 -0.288188 -0.365884 -0.327219 -0.117187 -0.064260 -0.502690 0.026652 -0.355372 -0.277469 -0.386669 -0.351577 -0.379233 -0.413443 -0.575374 -0.798668 -0.260309 
141 0.195338 -1.033215 -0.933127 -0.405659 -0.460935 -0.921801 0.200928 0.591989 -0.496689 -0.254157 -0.086292 -1.209973 0.671661 -0.218308 0.581025 0.383193 0.032020 -0.567054 -0.221185 -0.078506 -0.561296 -0.079174 0.184355 0.811923 -0.263208 -0.334091 0.257640 1.158533 0.772753 -0.432104 0.401367 -0.245787 0.842013 0.191671 -0.519180 0.895802 0.484242 -1.061598 -0.063354 -0.763102 -0.538397 0.631610 -0.159154 0.477607 -1.193020 0.408955 -0.936340 0.089081 -0.837354 0.123486 
759 -0.618139 -0.550696 -0.087912 -0.694293 0.146853 -0.640096 0.410162 -0.485697 -0.506587 -0.149834 0.001207 0.119486 0.258339 -0.097638 0.556922 -0.470738 0.016185 -0.741127 0.153174 -0.143079 -0.024819 0.196511 -0.481182 0.205131 -0.679662 -0.213973 -0.708322 0.837526 1.026098 -0.583665 1.017146 0.106990 0.330941 -0.130458 -0.183478 -0.491503 0.137352 0.027422 0.115968 -1.205508 0.223908 -0.009563 -0.004130 0.230030 -0.137953 -0.391273 -0.043607 -0.095334 -0.503576 0.255532 
632 -0.206472 -0.520330 -0.350193 -0.996545 0.198312 -0.991975 -0.038303 -0.705147 -0.697783 -0.290198 0.135053 -0.440842 -0.063359 0.001007 -0.638195 -0.261449 -0.559260 0.210148 -0.454400 0.684226 0.213576 0.190864 -1.011218 -0.389086 -1.071325 -0.203291 -0.318695 0.833868 0.350243 -0.592995 0.510190 -0.342684 -0.383552 -0.273174 -0.272694 -0.195148 0.774076 0.083619 0.005708 -0.740919 -0.096628 -0.379628 0.808812 0.674368 -0.245832 -0.159379 -0.284187 0.482857 0.281167 -0.676248 
142 -0.150307 -0.805596 -0.243243 -0.137700 0.050055 -0.970671 0.604352 -0.058160 -0.229986 -0.169169 0.050121 -0.054648 0.443648 -0.331168 0.872839 0.298464 -0.294778 -0.437679 0.370591 -0.017120 0.673555 -0.143001 -0.371252 0.282328 0.443987 0.207459 -0.382771 1.286530 0.886535 -0.848991 0.546999 -0.543921 -0.151340 -0.318272 0.022269 -0.815265 -0.434848 -0.122394 -0.084764 -0.679606 0.391456 0.218403 -0.216120 0.400277 -0.267897 -0.110243 -0.106511 0.585749 0.034981 -0.040175 
301 -0.097695 -1.267513 0.132897 -0.043811 -0.108116 -0.180393 -0.683077 0.123695 -0.157581 0.576288 0.533791 0.049915 -0.647265 -0.811967 0.133514 0.090010 -0.182682 -0.392230 0.019880 -0.171950 -0.351452 0.322512 0.771402 -0.244297 -0.416185 -0.554861 0.093856 1.148037 0.740463 -0.282292 -0.385248 -0.057072 -0.786482 -0.030494 -0.932625 -0.122803 0.370562 -0.409620 -0.120046 -0.154131 0.086100 -0.395526 0.108726 0.462673 -0.719166 0.018148 0.028454 0.790925 -0.481350 -0.839747 
535 -0.298326 -0.689169 -0.515170 0.028948 -0.337878 -1.455252 0.300263 -0.218422 -0.304485 -0.226543 -0.576310 0.398102 -0.049746 -0.595351 0.417048 0.503437 -0.711037 -0.608000 -0.197263 -0.067478 0.058715 0.341257 0.109148 0.887330 -1.235012 -1.326084 0.434773 0.768164 0.440341 -0.557942 1.578125 0.350415 0.525483 0.588139 -0.371395 -0.126188 -0.517468 -0.203560 -0.330228 -0.606048 -0.048197 -0.350321 -0.209205 -0.349010 -0.686421 -0.622673 -0.132454 -0.609068 -0.861674 -0.450730 
717 0.109587 -1.385667 -0.001010 0.088939 0.414265 -0.495316 -0.711548 0.026446 -0.189021 0.429396 -0.302110 -0.461025 -0.276092 -0.955074 -0.420161 0.455685 -0.495279 -0.207493 -0.299185 -0.056061 -0.526202 -0.286424 -0.550910 0.129951 -0.760553 -0.597556 0.008782 0.696692 0.297863 -0.177231 -0.137751 -0.694659 -0.624090 -0.295628 -0.916577 0.176137 0.521440 -0.247877 -0.346474 -0.679315 0.161678 0.047799 -0.054904 0.067544 -0.797624 0.308601 -0.132317 0.828068 -0.201582 -1.192777 
693 0.087758 -0.882825 -0.367881 0.006049 0.113610 -0.663862 -0.260612 -0.112639 -0.480657 0.372560 -0.267273 -0.885488 0.107819 -0.981530 -0.518113 0.187447 -0.560712 0.150242 -0.344281 -0.123595 -0.537062 -0.096547 -0.989235 -0.300673 -1.307883 -0.295887 0.014201 0.332570 0.408176 -0.260920 0.388903 -0.297944 -0.217835 -0.035355 -0.415352 -0.069046 0.662181 -0.136382 -0.422671 -0.431373 0.559305 0.014899 -0.009064 -0.207520 -0.696276 0.267406 -0.287736 0.735086 0.113258 -0.867236 
823 0.081034 -1.019516 0.318099 -0.037290 0.098046 -0.760409 -0.843192 -0.173703 0.827440 0.440468 0.227601 -0.017043 -0.590956 -0.455375 0.118773 0.310729 0.091961 -0.254428 -0.089450 -0.152947 0.876820 0.204768 0.180704 -0.535326 -0.564037 -0.483791 0.091412 0.533552 0.198894 -0.687067 -0.176834 0.189252 -0.549313 0.541922 -0.551328 -0.262846 0.201940 -0.361836 -0.020885 -0.250583 -0.026856 -0.364626 -0.160869 0.448953 -1.028164 0.299461 -0.252132 -0.086573 0.146219 -0.517787 
271 0.166973 -0.656674 0.174863 -0.165237 0.974728 -1.173934 -0.816161 -0.156011 -0.013952 -0.363496 0.237249 0.281303 -0.421355 -0.374163 -0.460367 0.951117 -0.120084 -0.964993 -0.760801 0.136592 -0.012476 -0.012400 0.164363 0.339425 -0.447451 -0.939431 0.249176 0.509725 0.748847 -0.212636 -0.246848 0.177367 -0.332362 -0.486887 -0.741683 0.358750 0.298901 -0.463518 0.216760 -0.280280 -0.375879 0.122955 -0.333017 0.473077 -0.479710 0.613898 -0.155998 0.021345 -0.130074 -0.948108 
879 0.189658 -0.584236 -0.667295 -0.902066 0.110179 -0.318733 0.157727 0.072329 -0.754159 0.589455 0.514419 -0.510479 0.881388 -0.279830 0.464844 0.294570 -0.385479 -0.503377 -0.120752 0.079164 -0.269232 -0.509585 -0.032250 0.189757 -0.489274 0.036945 -0.681531 0.925861 0.460989 -0.395205 -0.241455 -0.038201 0.202641 0.651258 -0.049199 -0.278241 -0.148974 -0.488927 -0.009856 0.324126 -0.149819 -0.212420 -0.145531 0.821664 -0.073094 -0.288589 -0.440242 0.681600 -0.067956 0.296528 
601 -0.443648 -0.434144 -1.364923 -0.298802 0.124846 -0.193529 -0.048657 -0.075742 -1.565237 0.073714 0.400889 0.288491 0.291170 -1.193886 -0.359472 0.496739 -0.016010 0.036123 -0.045929 0.526301 0.687308 0.538981 -0.558761 0.196937 -0.369569 -0.018858 0.141234 0.964185 1.031815 -0.367317 0.042645 -0.228155 1.014905 0.418878 -0.615093 0.343347 0.873830 -0.022212 -0.658414 0.156327 -0.455561 -0.015133 -0.067785 0.910520 -0.753965 0.383626 -0.423135 -0.361719 -0.043683 -0.384974 
340 -0.402381 -0.496424 -1.226140 0.122466 -0.037658 0.000620 0.198364 -0.236614 -1.120016 0.220443 0.256048 0.161229 0.167823 -1.053174 0.182712 0.504531 0.293578 -0.137848 0.074469 0.078696 0.649613 0.600605 -0.678201 0.135127 -0.575183 0.122122 0.204100 1.035564 0.873380 -0.542418 0.165486 -0.168304 1.130799 0.740023 -0.639281 0.129393 0.744574 0.166842 -0.532657 0.121557 -0.046813 0.172439 -0.133749 0.398830 -0.751289 0.395819 -0.529887 -0.266898 -0.027643 -0.079701 
516 -0.699791 0.039964 -0.175158 -0.509390 0.755951 -1.206907 -0.406751 -0.434514 -0.925659 0.052294 0.439412 -0.095313 0.189869 -0.676900 -0.135863 0.253482 -0.211248 -0.199563 -0.593496 -0.183409 0.881841 -0.097604 0.031758 -0.175060 -0.301713 -0.727325 -0.655753 0.803165 0.600046 -0.027837 0.101489 -0.007097 0.117059 0.186591 -0.042677 0.379583 -0.026343 -0.463525 0.075849 -0.008200 0.708881 0.382050 -0.296346 1.513422 0.099797 -0.509748 -0.260397 -0.264896 -0.034897 -0.164332 
917 0.313966 -1.078305 -0.417538 -0.695485 -0.262677 0.349077 -0.324523 -0.336618 -0.290360 -0.057779 0.624521 0.432655 0.399762 -0.093379 0.029333 0.684738 -0.447910 0.353063 -0.013334 0.199340 -0.595974 -0.070119 0.104345 -0.309855 -0.184298 0.222362 -0.168115 0.779524 0.589320 -0.719677 -0.046602 -0.225645 -0.399375 0.241167 -0.596039 -0.410164 -0.357752 -0.661343 -0.093681 -0.768943 0.284757 -0.034137 -0.339011 0.354995 -0.386491 -0.379822 -0.032699 0.627536 0.065170 0.275343 
508 0.018369 -0.995076 -0.642528 -0.007014 -0.701119 -1.493714 0.419403 -0.289996 -0.143839 -0.463793 0.034967 0.392181 -0.267477 -0.584426 0.150634 0.761535 -1.068207 -0.746830 -0.170928 -0.103344 -0.108399 0.372098 0.015712 0.955325 -0.798616 -1.450855 0.576648 0.758663 0.392477 -0.454485 1.498010 0.360640 0.303016 0.650753 -0.476217 0.202029 -0.459377 0.115515 -0.383105 -0.512563 -0.005210 -0.234509 -0.252592 -0.106811 -0.618606 -0.927043 -0.120808 -0.538932 -0.836795 -0.405918 
281 0.113884 -0.852394 0.537942 -0.541119 0.527702 -0.876942 -0.982893 -0.152392 0.491011 0.099886 0.149872 -0.095191 -0.608154 -0.305788 -0.084741 0.908713 0.250428 -0.564773 -0.255347 -0.065569 1.100919 0.363273 0.328924 -0.122002 -0.418480 -0.696203 0.312996 0.703884 0.595814 -0.465763 -0.085190 0.255572 -0.600125 0.151351 -0.555227 -0.059228 0.123928 -0.235880 0.375603 -0.290389 0.042003 -0.001969 -0.119516 0.334088 -1.048732 0.540763 -0.586090 -0.231170 0.528459 -0.613559 
102 -0.299447 -0.144443 -1.405164 -0.437662 0.372138 -0.930499 -0.152492 -0.100549 -1.370599 0.121075 0.345769 0.506761 0.234790 -0.965549 -0.450468 0.450728 -0.365325 0.160731 0.181222 0.626862 0.800761 0.374260 -0.549211 0.067940 -0.313995 0.097769 -0.370743 0.533060 0.732702 -0.293842 0.055260 -0.308566 0.477366 0.351738 -0.266302 0.095177 0.487728 -0.319784 -0.141976 0.140344 -0.555853 0.069481 -0.091095 1.188114 -0.604312 0.610485 -0.194406 -0.444498 0.045690 -0.586778 
321 0.296695 -0.871715 -0.594660 0.311168 0.249015 -0.426277 -0.149601 -0.098510 -0.713416 0.285118 -0.531116 -0.716245 0.345846 -1.006275 -0.440557 0.556272 -0.613821 0.152402 -0.441041 -0.194237 -0.292652 0.251235 -1.191198 -0.325040 -1.484522 -0.385759 0.269138 0.741249 0.498990 -0.384468 0.212940 -0.367204 0.123784 0.032065 -0.390300 0.017596 0.666570 -0.243872 -0.904657 -0.359169 0.508450 0.179977 0.115657 -0.339117 -0.924989 0.194582 -0.624425 0.462147 -0.050330 -0.837721 
207 -0.667923 -0.654101 -0.169583 -0.514711 0.058265 -0.793305 0.416606 -0.084305 -0.482306 0.184388 0.061734 -0.254279 0.368726 -0.111962 0.727957 -0.342653 -0.112529 -0.675765 0.289603 -0.260466 0.172579 -0.025569 -0.382848 0.179512 -0.389136 -0.294793 -0.742486 0.873866 0.791521 -0.569895 0.694769 -0.387259 0.352095 -0.142447 -0.332334 -0.588916 0.045592 0.063294 0.326029 -1.270736 0.227701 0.079542 0.005676 0.299440 -0.222058 -0.343785 -0.196494 0.053257 -0.145028 0.227406 
89 0.352844 -0.900091 0.106263 -0.795875 -0.280766 0.371714 -0.607530 -0.164011 -0.266067 -0.433699 0.213747 0.671834 0.032522 -0.326894 -0.057175 0.165073 -0.014931 -0.409519 0.107670 -0.024727 -0.248247 0.436610 -0.342582 -0.200709 -0.494588 0.228877 -0.097473 1.036937 0.606613 -0.754545 0.274766 -0.043490 -0.579646 -0.006702 -0.435201 -0.012183 0.272953 -0.321689 0.139053 -1.586457 0.107531 -0.174065 -0.016305 0.419923 -0.491784 -0.495194 0.178889 0.562854 -0.667557 -0.529093 
743 -0.185698 -0.822141 -0.567483 -0.006108 -0.585183 -1.522537 0.393888 -0.296135 -0.243237 -0.364280 -0.231716 0.409857 -0.208294 -0.563702 0.206952 0.639886 -0.889358 -0.764469 -0.151767 -0.031736 -0.001410 0.361834 0.047692 0.950191 -0.984427 -1.424653 0.522480 0.800981 0.457221 -0.512069 1.551628 0.352820 0.388805 0.576077 -0.424405 0.066156 -0.464909 0.007797 -0.332217 -0.604047 -0.058023 -0.276987 -0.221766 -0.229216 -0.665707 -0.843726 -0.156103 -0.600705 -0.859869 -0.414608 
755 0.160718 -0.929461 -1.171320 0.080308 -0.006808 -0.554077 -0.093920 -0.628080 0.019434 0.145378 0.157436 0.628683 -0.200169 0.189945 0.580483 1.022156 0.094249 0.280213 -0.438439 0.044134 0.541113 0.042133 -0.285646 -0.077245 -0.140688 0.078409 -0.520940 1.093522 -0.084848 -0.619040 0.141674 -0.174309 1.010199 0.559377 -0.245019 -0.748831 0.068323 -0.068201 0.203757 -0.138317 0.263924 0.507182 0.045719 0.176780 -0.988530 0.213220 -0.307032 0.123422 0.448099 -0.079693 
515 -0.447210 -1.311469 0.166443 -0.339826 0.797955 0.030085 -0.127470 0.071082 0.031746 0.631773 0.196989 -0.037247 0.054075 -0.479499 0.423827 -0.077378 -0.017308 0.131202 -0.465941 -0.414331 0.026885 0.133354 0.716268 -0.226866 -0.846862 -0.580226 -0.434917 0.975028 0.250508 -0.434579 -0.033236 0.303066 -0.118151 0.910163 -0.859287 -0.058643 0.170809 -0.390812 -0.210641 0.131757 0.289712 -0.247219 -0.202835 0.855263 -0.387523 0.370119 0.233482 -0.018175 -0.372270 -0.599914 
980 -0.208472 -1.449493 -0.037591 -0.059917 0.327736 -0.216879 -0.861043 -0.047218 -0.010411 0.664145 0.081695 0.090977 -0.274842 -0.698181 0.025648 -0.079923 -0.272460 -0.148164 -0.071705 -0.289985 -0.461680 -0.149179 0.119801 -0.092445 -0.365152 -0.573588 -0.206500 0.638609 0.489971 -0.060472 -0.102725 -0.504589 -0.674874 -0.202093 -1.078455 -0.225710 0.391858 -0.172817 -0.285921 -0.646907 0.262992 -0.224502 -0.313649 0.405955 -0.917222 0.327837 0.036416 0.626834 -0.238163 -0.966247 
977 -0.045908 -1.288559 -0.573795 0.035195 0.184391 -1.056654 -0.639846 -0.664199 0.177407 -0.153787 0.298050 0.381576 -0.842734 0.144517 -0.164934 0.342619 -0.817204 -0.212657 -0.365395 0.350569 -0.533749 -0.651534 -0.120060 0.579193 -0.543143 -0.012468 0.094246 1.059140 -0.060698 0.263304 -0.146823 -0.924192 -0.673519 -0.321417 -0.788237 0.425246 0.559967 -0.259617 -0.500002 -0.247573 -0.198776 0.032581 -0.578686 0.289913 -0.670990 0.350667 -0.480796 1.047712 -0.045970 -0.981541 
577 -0.080290 -0.472475 -0.437116 -1.069641 0.308057 -1.163437 -0.297888 -0.707286 -0.730987 -0.056911 0.042244 -0.508210 0.070271 -0.214136 -0.636036 -0.189355 -0.609603 0.227786 -0.253845 0.748455 0.150602 0.070840 -1.078670 -0.394466 -1.088272 -0.241420 -0.503575 0.520237 0.289800 -0.396690 0.343577 -0.440548 -0.536520 -0.167084 -0.295668 -0.276658 0.560808 -0.002008 -0.157728 -0.599352 -0.146639 -0.321571 0.742442 0.649766 -0.326412 0.056871 -0.230232 0.497669 0.382856 -0.702579 
724 0.426605 -0.639461 -0.347237 -1.292963 0.036301 -0.480487 -1.151110 -0.219210 0.208208 -0.636599 -0.360354 0.468644 0.418595 -0.085349 0.073957 0.847124 0.144576 -1.037385 -0.895470 -0.170920 -0.128324 0.315331 -0.465423 0.287395 -0.365078 -0.393442 0.775600 0.704741 1.141903 -0.620255 0.371731 0.918733 0.204174 0.006077 -0.231438 0.782453 0.668030 0.096634 -0.003757 -1.557618 -0.049708 -0.038103 -0.166837 0.211365 -0.480571 0.094544 -0.338174 0.206745 -0.349352 -0.586892 
624 0.108886 -0.356212 0.093987 -0.373428 -0.000794 -0.537587 -1.504249 -0.352398 0.362314 0.209735 0.690031 -0.509038 -0.513767 -0.268963 -0.208123 -0.089664 -0.377116 -0.402631 -0.459650 0.160377 1.652550 0.167710 -0.216567 0.060629 -0.518615 -1.442319 -0.012068 1.247867 0.243074 -0.663724 0.720362 0.307529 -0.319843 0.058091 -0.681097 0.373493 -0.066004 -0.212091 -0.216138 -0.476276 0.032001 -0.181024 -0.696979 0.384729 -0.730305 -0.129280 -1.182903 -0.094239 0.950270 -0.306310 
90 0.143381 -0.249345 -0.398040 -0.323427 0.084185 -1.444266 -0.134064 -0.760054 -0.226162 -0.243582 -0.141834 -0.179282 0.253869 -0.995311 -0.012545 0.345643 0.028092 -0.148006 -0.156511 -0.567132 0.034070 0.292968 -0.688528 -0.182575 -1.490674 0.361481 -0.321344 0.248504 0.792158 -0.486867 1.314090 0.813781 0.382444 0.357501 -0.269162 -0.395183 -0.135563 -0.318364 -0.315939 -0.082864 0.805581 0.080122 -0.584769 0.188063 -0.465064 0.861916 -0.161011 -0.020816 0.131500 -0.347913 
895 0.330685 -0.822713 -0.150039 -0.109120 -0.074785 -1.318556 -0.575542 -0.279983 -0.135937 0.089110 -0.194063 -0.575663 -0.007531 -1.002848 -0.157081 0.348443 -0.366956 0.152034 -0.298097 0.158245 -0.444781 0.206670 -0.941736 -0.729340 -1.291231 -0.246819 -0.100548 0.046283 0.381207 -0.350862 0.962303 0.194654 0.016764 0.438945 -0.148523 -0.295029 0.437725 -0.026145 -0.014730 -0.229869 0.360890 -0.437712 -0.140770 -0.127974 -0.632705 -0.017744 0.006036 0.261746 0.027524 -0.820872 
953 -0.431819 -0.759166 -0.531345 -0.776287 0.311625 -0.572445 0.220655 -0.121740 -0.000861 0.290540 -0.250950 -0.032343 0.345730 -0.100464 0.906686 0.197951 -0.357721 -0.633339 0.573877 -0.539850 0.018535 -0.484275 -0.177792 0.230933 0.129674 -0.427781 -0.467827 0.591119 0.819297 -0.173014 0.561758 -0.746447 -0.380999 0.067478 -0.568389 -0.568308 0.497512 0.336256 0.221449 -1.090331 0.360873 0.058923 0.185146 0.515194 -0.780660 0.281468 -0.137804 0.518181 0.256055 -0.222954 
875 0.876744 -0.747817 -0.986568 -0.313580 -0.274879 -0.989314 -0.148832 -0.835298 -0.027122 -0.369271 0.014947 0.272720 0.958171 0.324304 0.241765 0.681806 -0.665236 -0.319177 0.161685 -0.015663 0.930793 -0.476622 -0.594061 0.648952 -0.295967 0.362604 -0.315810 0.734809 0.285964 -0.471618 -0.021064 -0.353839 -0.208992 0.022962 0.437884 0.219597 -0.641562 -0.667839 -0.571541 -0.128887 0.774437 -0.084874 0.006621 0.724760 -0.465974 0.019294 -0.333566 0.368218 0.140244 -0.593442 
796 0.754011 -2.087455 0.159323 -0.068480 -0.050507 -0.390967 -0.965532 -0.363555 -0.232705 -0.133966 0.151949 0.191967 -0.154995 0.037982 1.279524 0.001153 -0.392287 -0.135828 -1.023105 -0.460592 0.081111 -0.341906 0.437559 -0.428926 -0.260328 -0.835492 0.251820 0.210772 0.097173 -0.397350 0.597766 -0.486953 0.270902 0.411697 -0.464376 0.166611 0.017435 -0.735826 -0.648640 -0.110860 -0.342481 -0.121458 -0.529740 1.401909 -1.528554 -0.038425 0.112196 0.173495 -0.232382 -0.277338 
252 -1.063591 -0.611450 -0.099960 -1.055381 0.063531 -0.987432 0.128659 -0.301060 -0.833454 0.412295 -0.086221 -0.452813 0.409558 -0.007292 0.605389 -0.562504 -0.186889 -0.607255 -0.392702 -0.354316 0.568783 -0.020547 -0.286025 0.336462 -0.576868 -0.645313 -0.579903 1.006084 0.358519 -0.776017 0.596792 0.029136 0.246509 -0.369218 -0.505386 -0.274871 -0.158394 0.266521 0.164577 -1.304034 0.283110 -0.253983 -0.123627 0.598405 -0.374187 -0.655146 -0.388758 0.169936 0.140762 0.362766 
962 0.076343 -0.630503 0.047986 -0.435283 0.382565 -1.024693 -0.563133 -0.136778 0.775545 0.281163 0.121117 -0.379102 -0.193704 -0.067790 0.102631 0.562755 -0.076787 -0.262122 0.161300 -0.218987 1.209167 -0.070107 -0.283291 -0.330350 -0.478452 -0.403443 0.028876 0.381327 0.244380 -0.802533 0.101550 -0.288787 -0.652442 0.274846 -0.372131 -0.266861 0.242238 -0.190182 0.274687 -0.362222 -0.154726 -0.129200 0.283638 0.579680 -0.846436 0.707981 -0.340716 -0.206166 0.673537 -0.553894 
829 0.085376 -0.753334 -0.402461 -0.531625 -0.231953 -1.214214 -0.531248 -0.945519 -0.267822 0.641254 -0.074368 -0.342142 -0.272139 -0.678388 0.535205 -0.025310 -0.164466 -0.317826 -0.167860 -0.179960 -0.214448 -0.163868 -0.294057 -0.967922 -1.109261 -0.425709 -0.263731 -0.144061 0.538182 -0.126524 0.800698 0.211418 0.324443 0.845569 0.280620 -0.267374 0.416950 -0.506378 -0.178106 0.198129 0.240904 -0.001256 -0.277979 0.507780 -0.690804 -0.180214 -0.595810 0.320699 0.309116 -0.136261 
998 -0.331896 -0.458727 -1.423498 -0.423492 0.150287 -0.346082 -0.106007 -0.151365 -1.592103 0.032306 0.470268 0.509096 0.272583 -1.078929 -0.334526 0.549003 -0.177894 0.157052 0.097728 0.620605 0.885027 0.481043 -0.578780 0.094097 -0.148547 0.081675 -0.073079 0.977767 0.922439 -0.432091 -0.065359 -0.424688 0.817898 0.365942 -0.624204 0.275154 0.823233 -0.036045 -0.516547 0.071211 -0.581286 0.049090 -0.018760 1.212588 -0.797273 0.317012 -0.335365 -0.329957 -0.017146 -0.334944 
711 0.315800 -0.987760 -0.356390 -0.097642 0.448029 -1.233207 -0.875653 -0.232909 0.294014 0.382597 0.298348 -0.077018 -0.289861 -0.115638 -0.176593 -0.206116 0.024621 -0.401723 -0.261346 0.218504 0.601805 0.054928 0.209211 -0.407459 -1.158946 -0.603606 -0.135168 0.390969 0.249717 -0.453101 -0.121134 -0.099568 -0.579164 -0.099741 -0.655855 -0.189857 0.114065 -0.395378 0.191759 0.245601 -0.774984 -0.432029 0.032563 0.802191 -0.704107 0.876130 -0.217471 0.374600 -0.084397 -1.176273 
76 0.295729 -0.857223 -0.790078 0.382754 0.170885 -0.310843 -0.107344 -0.072379 -0.695258 0.288655 0.037562 0.611848 -0.007715 -0.076233 0.741017 0.820231 0.391267 -0.343167 -0.198420 -0.030550 0.425856 0.441737 -0.264388 0.100039 -0.599696 -0.215877 -0.499605 1.010166 -0.022140 -0.624993 0.070214 0.118187 1.039707 0.741086 -0.608404 -0.241006 0.098986 -0.251217 0.319797 -0.192609 0.133587 0.681686 -0.080514 0.084323 -1.256171 0.493849 -0.491314 0.108441 0.049025 0.101345 
839 -0.388302 -0.609944 -0.246138 -0.048160 0.389866 -1.312950 0.160110 -0.537489 -0.312193 0.170311 -0.210703 -0.072026 0.004991 -0.935180 0.176337 0.065363 0.114283 -0.440801 -0.091034 -0.017181 -0.236144 0.406524 -0.689557 -0.393976 -1.200379 -0.354508 -0.590205 0.393375 0.915771 -0.334036 1.166834 0.387194 0.585576 0.527527 -0.290559 -0.587644 0.210313 -0.202958 -0.027201 -0.110139 0.285833 -0.055045 -0.279802 0.112154 -0.144416 0.318800 -0.013259 -0.307716 -0.213552 -0.248795 
896 -0.256617 -0.617292 -0.472231 -0.887237 0.345761 -0.923911 -0.030946 -0.092395 0.487811 0.406152 -0.047763 -0.047289 0.592876 0.141604 0.827679 0.505442 -0.307660 -0.662953 0.632758 -0.479522 0.676016 -0.489321 0.009653 0.200784 0.098238 -0.560988 -0.235497 0.450778 0.542539 -0.532982 0.366884 -0.987005 -0.387114 0.049827 -0.476101 -0.601085 0.442046 0.080366 0.332586 -1.166717 0.178264 -0.200517 0.129546 0.637608 -0.790009 0.460544 -0.347791 -0.001946 0.420765 -0.427313 
616 0.224722 -0.757291 -0.505725 -0.937409 0.251351 -0.660445 -0.765933 0.409258 -0.040616 0.035464 0.025821 -0.307779 0.768212 -0.820114 0.252567 0.630616 -0.637471 0.043581 -0.171836 -0.249097 -0.695229 -0.036892 -0.676711 -0.264217 -0.517204 0.046657 -0.006985 -0.035951 0.548312 -0.213343 0.719083 -0.043856 -0.102358 0.321112 -0.298335 0.046299 0.769842 0.422763 0.053107 -1.004344 0.741875 -0.161527 -0.406434 0.331163 -0.204529 0.187077 -0.113525 0.602511 0.089045 -0.935346 
172 0.045605 -1.075322 0.525399 -0.094190 0.179287 -1.078271 -0.653079 -0.217289 0.890016 0.208273 0.228009 0.095789 -0.440856 -0.476824 0.130731 0.238356 -0.191589 -0.337690 -0.232096 -0.331688 1.028427 0.234705 0.198237 -0.296784 -0.685454 -0.671590 0.221137 0.474079 -0.145359 -0.842205 -0.266002 0.336848 -0.473273 0.730678 -0.658944 -0.362491 0.164836 -0.509834 -0.039354 -0.444591 -0.142480 -0.392616 -0.116956 0.476429 -1.164454 -0.076418 -0.188742 -0.235590 0.214935 -0.422742 
627 0.068701 -0.845210 -0.159149 0.128371 0.761299 -1.164456 -0.764229 -0.025224 0.036646 0.240791 0.407826 -0.080450 -0.394257 -0.521362 -0.367755 0.412318 -0.241852 -0.571863 -0.161408 -0.007717 -0.045533 -0.153512 0.058363 0.071628 -0.749381 -0.683108 0.061109 0.537643 0.591121 -0.245909 -0.294529 -0.386042 -0.710051 -0.649875 -0.963288 -0.117474 0.326043 -0.449207 0.015819 -0.128401 -0.359127 -0.011048 -0.238012 0.576427 -0.477184 0.791616 -0.208718 0.470364 -0.137285 -1.071299 
687 0.110353 -1.013743 -1.094711 -0.353677 -0.057737 -0.600403 -0.028595 -0.547185 0.119627 -0.035685 0.222663 0.706260 -0.020531 0.488658 0.641149 0.709758 -0.310381 0.129075 -0.374238 0.212510 0.312275 -0.350442 -0.157955 0.244948 0.052843 0.058093 -0.653095 1.007328 -0.143285 -0.433372 0.017232 -0.307405 0.458597 0.184051 -0.378450 -0.706267 -0.222279 -0.066300 0.017242 -0.649507 0.326211 0.366217 -0.112589 0.120588 -0.747102 0.249474 -0.002277 0.522887 0.290834 -0.072207 
220 0.004662 -0.392755 -0.889539 -0.731010 0.043798 -0.278464 0.203965 0.154005 -0.759295 0.478743 0.316730 -0.635200 1.038467 -0.350336 0.550400 0.225433 -0.231654 -0.647847 0.028403 0.102586 -0.160528 -0.464679 -0.033577 0.410692 -0.759706 -0.016729 -0.575136 0.995951 0.526587 -0.482307 -0.188901 -0.114930 0.335920 0.780207 -0.157295 -0.134465 0.285074 -0.292956 -0.051453 0.212057 -0.011232 0.195915 0.169655 0.731253 -0.244677 -0.146225 -0.687994 0.617718 -0.289707 0.417430 
329 -0.581767 -0.591137 -0.344197 -1.366719 0.401064 -0.349096 0.395277 -1.106919 -0.507798 -0.094634 0.356687 0.024691 -0.250727 0.497487 0.333882 -0.141981 -0.480024 0.313500 -0.785650 -0.009918 0.227546 -0.213723 0.102698 -0.104927 -0.610438 -0.461114 -0.680892 1.154983 -0.088992 -0.287997 0.433460 -0.075671 -0.164138 0.260099 -0.372131 0.024972 0.420160 0.111149 -0.006181 -0.227659 0.445285 -0.221512 0.206595 1.283588 -0.323609 -0.528488 -0.087181 0.434813 0.374847 0.002347 
312 0.169291 -0.832613 -0.846869 0.439351 0.125137 -0.397126 -0.117500 -0.090639 -0.574969 0.492130 0.029209 0.354884 0.040199 -0.373782 0.697900 0.676288 0.416626 -0.158020 -0.321547 -0.003304 0.482451 0.352795 -0.287633 -0.118701 -0.441129 -0.144011 -0.391557 1.002214 0.054742 -0.548339 -0.089899 -0.030275 1.091419 0.598854 -0.289318 -0.344635 0.218793 -0.037073 0.166334 0.100499 0.115824 0.638359 -0.077729 0.145205 -0.968451 0.314616 -0.608832 0.081578 0.037036 0.007619 
276 0.108317 -0.401430 -0.198909 -1.001161 -0.633070 -1.148406 0.561155 -0.258498 0.496588 -1.183735 -0.274650 -0.509526 0.235847 0.292871 0.280173 0.848925 -0.615491 -0.484196 -0.364388 0.643863 -0.267454 -0.144657 0.148288 0.721864 0.058953 -1.190279 0.388620 0.993942 1.213114 -0.918175 -0.308102 -0.860961 0.003826 1.071185 -1.697765 0.492380 0.295099 -0.817999 -1.185883 -1.119760 0.096339 -0.420847 -0.739253 0.738815 -0.655495 -0.051963 0.020642 -0.147689 -0.145376 -0.994994 
432 -0.128919 0.077886 -0.881308 -0.384904 0.617691 -0.997364 -0.234032 -0.163543 -0.959563 -0.143185 0.261755 0.428742 0.476690 -0.783820 -0.622648 0.255946 -0.534439 0.304084 -0.052182 0.435463 0.621428 0.200094 -0.189746 0.070259 -0.463373 0.162638 -0.523378 0.507029 0.470435 -0.350648 -0.019481 -0.198492 0.111438 -0.106558 -0.254702 -0.100178 0.078812 -0.397002 -0.318122 0.103886 -0.255873 -0.063613 0.151174 1.071578 -0.073665 0.516972 0.020042 -0.201420 -0.125316 -0.658172 
872 0.480002 -1.903819 0.125900 0.268893 0.141650 -0.473475 -0.688223 -0.409404 -0.088001 -0.171627 0.236739 0.332600 -0.164848 -0.184926 1.078224 -0.104680 -0.387151 -0.304537 -1.069008 -0.589536 0.070865 -0.158236 0.163046 -0.311484 -0.399237 -1.081838 0.252064 0.150981 -0.030489 -0.508632 0.776882 -0.252876 0.776346 0.669720 -0.616485 -0.039897 0.217171 -0.691642 -0.452439 -0.013579 -0.310129 -0.203411 -0.553661 1.077204 -1.497817 0.054297 0.109325 -0.235007 -0.240400 -0.397775 
463 -0.171903 -0.464707 -0.406502 -1.370697 0.097230 -0.602846 -0.105627 -0.581811 -0.500303 0.780282 0.244809 -0.729657 0.119458 -0.252872 0.676831 0.205861 -0.551890 -0.321298 0.104744 -0.424457 -0.143802 -0.698645 0.052079 -0.268782 -0.355187 -0.736412 -0.289694 0.185352 0.632465 -0.097068 0.408646 -0.007081 -0.363992 0.922301 0.181207 -0.053642 0.374431 -0.473610 0.072849 0.061971 0.022711 -0.250431 -0.065298 1.070175 -0.518085 -0.331472 -0.403381 0.750301 0.825209 -0.006835 
845 0.213114 -0.823082 -0.863155 -0.508367 -0.174303 -0.423428 0.208446 0.440422 -0.891524 -0.339880 0.347670 -1.090641 0.721599 -0.028226 0.397185 0.437172 0.215801 -0.538807 -0.052250 0.082939 -0.367596 0.156069 0.097959 0.659617 -0.298896 -0.093667 0.016009 1.093108 0.882581 -0.416741 0.183253 -0.282311 0.560580 0.200616 -0.615796 0.611334 0.168056 -0.879181 0.035348 -0.662262 -0.364735 0.824741 -0.191227 0.643900 -0.730846 0.315203 -0.692937 0.090998 -0.753102 0.434773 
63 0.168957 0.057368 -0.891157 -0.264499 0.417643 -0.512627 -0.168697 -0.341401 -0.597986 -0.399500 0.200913 0.382052 0.670729 -0.853261 -0.079462 0.502535 -0.139250 0.101030 -0.265016 -0.497834 0.335724 0.426051 -0.490629 0.059048 -1.010990 0.431774 -0.254210 0.280219 0.474545 -0.593279 0.724346 0.529978 0.451542 0.268765 -0.765883 0.082611 0.165881 -0.322531 -0.530502 -0.038695 0.592584 0.045983 -0.479773 0.446594 -0.329357 1.172535 -0.092393 -0.223065 0.132491 -0.461883 
328 -0.716368 -0.358552 -0.094224 -1.084065 0.216588 -0.713595 -1.040893 -0.697285 -0.033360 0.545320 0.604255 -0.539015 -0.369025 -0.231657 -0.129718 0.142308 -0.355209 -0.069867 -0.307031 -0.089498 1.320219 0.071588 -0.048773 -0.297002 -0.413967 -1.193369 -0.001214 0.683945 0.233563 -0.454116 0.337997 0.290431 -0.305746 0.221779 -0.096210 0.172423 0.030066 0.011452 -0.063327 -0.383436 0.726051 0.251262 -0.691924 0.833946 -0.538107 -0.403530 -0.798929 -0.290650 0.564301 0.147602 
285 0.141886 -0.892818 -0.370253 -1.215902 0.075876 -0.476453 0.218224 -0.347691 -0.145305 0.460264 0.423780 -0.503224 0.399479 -0.164809 0.654802 0.387554 -0.702427 -0.159144 -0.183151 -0.334844 -0.790877 -0.627702 -0.005247 0.109928 -0.816384 0.197347 -0.493216 0.854817 -0.049334 -0.406079 0.368389 0.126377 0.025429 1.075775 0.047369 -0.128680 0.045816 -0.287358 0.135161 0.357106 0.098728 -0.556394 -0.583638 0.716993 -0.185198 -0.287746 -0.409929 0.800541 0.267403 0.079818 
100 -0.517047 0.091496 -0.744041 -0.553881 0.518962 -1.129739 -0.387741 -0.169051 0.278320 0.452779 0.046556 -0.256018 -0.030579 -0.039944 -0.788605 0.320592 -0.227367 -0.088657 -0.180958 0.607015 0.798315 -0.065676 -0.069777 0.089494 -1.315787 -0.029737 -0.067412 0.620190 0.721788 -0.974487 0.030346 0.158866 -0.845657 -0.178529 -0.311259 -0.117882 0.968695 -0.410990 -0.280121 -0.513077 -0.316394 -0.629210 0.151836 0.918246 -0.678013 1.047495 -0.868061 0.551137 0.388099 -0.882411 
136 -0.175613 -0.915918 -0.421276 -1.062723 0.544706 0.124635 0.343855 -0.154507 -0.695372 0.470579 0.775626 -0.588368 0.355020 -0.031506 0.670080 0.219268 -0.507414 0.005241 -0.582703 -0.159670 -0.341830 -0.246944 -0.010727 -0.027406 -0.676138 -0.433002 -0.495158 0.922991 0.140752 -0.527285 0.269575 0.104448 0.017648 0.672754 -0.192392 0.218646 0.014427 -0.138727 0.205728 0.372892 0.306664 -0.264450 -0.523467 0.946686 -0.178942 -0.501659 -0.100519 0.424679 0.017689 0.130882 
379 0.170307 -0.945924 -0.063476 -0.817011 -0.307175 0.266505 -0.593684 -0.505736 -0.394627 -0.645474 0.207273 0.719659 -0.094435 -0.400057 -0.256269 0.076309 -0.050819 -0.389918 -0.038129 -0.157319 -0.316872 0.266427 -0.470601 0.211034 -0.799111 0.064800 -0.204088 0.742006 1.071521 -1.129359 0.175393 0.550548 -0.138549 0.038972 0.006102 0.390811 0.351908 -0.129291 0.308667 -1.844672 -0.030068 -0.070872 -0.144187 0.587989 -0.648535 -0.505727 -0.165557 0.204330 -0.450360 -0.377522 
402 -1.186653 -1.101018 -0.610431 -1.014019 -0.011376 -0.773998 -0.564281 -0.580309 -0.873968 0.682393 0.363155 -0.008249 0.218822 -0.671732 -1.033851 0.420244 -0.327525 -0.635789 1.010322 0.325719 -0.054303 -0.223099 -1.003524 0.199555 -0.387730 -1.277682 0.617571 1.172564 0.388455 -1.035068 0.547710 1.002200 -0.164931 0.972027 -1.547582 0.388606 0.791217 0.146727 0.266642 -0.511617 -0.444383 0.202802 0.184947 0.770192 -1.357074 0.211449 0.515998 0.844180 -0.176826 -0.454909 
788 -0.082254 0.067732 -0.984011 -0.361195 0.719445 -0.984460 -0.351813 -0.403751 -0.682974 -0.046618 0.159938 0.506784 0.509483 -0.592656 -0.607991 0.320265 -0.441257 0.292757 -0.159398 0.357829 0.553558 0.278658 -0.431254 -0.186038 -0.965489 0.234810 -0.558835 0.433670 0.349236 -0.537215 0.029518 0.097607 0.000956 -0.091481 -0.363674 -0.275326 0.003363 -0.353120 -0.377854 -0.021181 -0.138634 -0.171950 0.177005 0.803170 -0.029500 0.801659 0.002613 -0.088025 0.150790 -0.727593 
590 0.148005 -0.433355 -0.865250 0.385176 0.494596 -0.257821 0.116312 0.050666 -0.756028 0.120007 -0.244298 0.125930 0.706168 -0.636957 0.027350 0.585728 0.207984 -0.025123 -0.391232 0.068494 0.239918 0.350403 -0.720980 0.087016 -1.227933 0.139288 -0.259294 0.815650 0.400500 -0.499771 -0.032860 0.015940 0.747244 0.213035 -0.385262 -0.042391 0.495350 -0.105635 -0.443895 -0.090689 0.597113 0.341833 -0.131534 0.065889 -0.547498 0.692126 -0.519989 0.123219 -0.193639 -0.358077 
106 0.117662 -0.795494 -0.279070 -0.123240 0.454238 -1.135927 -0.828240 -0.125966 0.073716 0.425502 0.279833 -0.345745 -0.312080 -0.315820 -0.379551 -0.053247 -0.116536 -0.305645 -0.215520 0.228749 0.536909 -0.007497 -0.026992 -0.375539 -0.919592 -0.665740 -0.110081 0.320816 0.318929 -0.337740 -0.108708 -0.366760 -0.694443 -0.364470 -0.639058 -0.248802 0.301529 -0.299764 0.079458 0.125480 -0.556967 -0.292763 0.002144 0.819491 -0.617547 0.904941 -0.418845 0.385401 0.191900 -1.118934 
552 -0.725164 -0.423414 -1.520891 0.028246 -0.014293 0.418942 0.077489 -0.611951 -1.264565 0.727934 0.490621 0.108530 0.098271 -0.759235 0.823771 0.257669 -0.025916 -0.300800 -0.152723 -0.295210 0.271192 0.657179 -0.987961 0.394435 -0.930172 -0.142223 0.719227 1.398382 1.102765 -0.511675 -0.301851 0.035682 0.567978 0.966922 -0.507772 0.040983 0.754790 -0.146768 -0.541173 -0.080735 0.179259 0.085495 -0.099755 0.428407 -0.446570 0.499286 -0.829307 0.365572 -0.144368 -0.641242 
306 0.000437 -0.845000 -0.433096 -0.857375 0.167850 -0.708582 -0.629928 0.416407 -0.071197 0.229247 -0.178519 -0.230912 0.747020 -0.910762 0.593880 0.370514 -0.793190 -0.142945 0.191818 -0.587974 -0.407156 0.029132 -0.507562 -0.229776 0.058294 -0.351633 0.014941 0.201851 0.897591 -0.057238 0.898299 -0.552595 -0.463908 0.045155 -0.498441 -0.385565 0.873079 0.525238 -0.246452 -1.205106 0.850393 -0.361717 -0.197240 0.427086 -0.608803 0.176165 -0.166703 0.631857 0.141361 -1.005798 
366 0.209643 -0.509485 -0.012409 0.028638 0.890137 -1.161269 -0.498804 -0.100258 -0.718406 -0.051885 0.543967 0.202551 -0.194024 -0.679925 -0.412563 0.860632 -0.258245 -0.892570 -0.475893 0.135228 -0.032645 -0.021384 0.221282 0.445864 -0.350722 -0.737179 -0.078867 0.908652 0.801640 -0.161701 -0.330532 -0.124069 -0.109264 -0.742077 -0.587271 -0.016121 0.042391 -0.586503 0.182537 0.109576 -0.208578 0.135186 -0.283608 0.547936 -0.001393 0.496724 -0.193755 0.197989 -0.247567 -0.875293 
912 -0.160024 -0.366942 -0.556985 -0.963077 -0.159640 -1.562881 -0.705202 -0.099581 -0.894332 0.770238 0.304562 -0.923694 0.782088 -0.686689 -0.118628 -0.384863 -0.714797 -0.438642 -0.217974 0.226925 0.451440 -0.395256 -0.484060 -0.285755 -0.595379 -0.783569 -0.455058 0.419551 0.578695 -0.313778 0.339231 -0.160727 -0.080736 0.150702 0.350878 -0.071859 0.066884 -0.706563 -0.163044 -0.244128 -0.107902 -0.122440 0.303605 0.921326 -0.060803 -0.585676 -0.508944 0.588877 0.345625 -0.518504 
66 -0.393521 -0.568952 -1.910228 -0.372498 -0.537887 -0.966709 -0.675748 0.021239 -0.767868 0.699893 -0.221446 -0.588499 -0.379359 0.221194 0.621604 1.164428 -0.608947 -0.242093 -0.432464 0.128506 0.253182 0.272471 -0.407434 0.075234 -0.832126 -1.278569 0.609846 1.575812 0.362843 -0.348510 0.829603 0.607974 -0.332197 -0.077258 -0.501873 0.138641 0.329012 0.157813 -0.571909 -0.740465 -0.949296 -1.064193 0.438527 0.299288 -1.139847 0.271729 0.076812 0.223159 -0.189031 -0.007170 
817 -1.124497 -1.038386 -0.595109 -0.979203 -0.135614 -0.775333 -0.501310 -0.584457 -0.810443 0.566320 0.327737 -0.002454 0.199792 -0.595050 -1.027073 0.355434 -0.346644 -0.616081 0.956111 0.350333 -0.052017 -0.225671 -0.962793 0.264361 -0.381084 -1.256307 0.698461 1.124581 0.310805 -1.022308 0.556486 1.024419 -0.121314 0.988714 -1.510375 0.441705 0.759894 0.117899 0.202381 -0.488659 -0.446519 0.178518 0.158056 0.690152 -1.344844 0.217949 0.485963 0.817701 -0.188906 -0.461727 
563 0.382173 -0.407193 -0.314009 -0.065283 -0.491410 -1.253954 0.324232 -0.623645 -0.124353 -0.871107 0.465994 1.071662 -0.704830 0.286985 0.933563 -0.275169 0.172348 -0.761661 -1.059716 -0.442728 1.489358 0.253484 0.495016 1.381038 -0.952606 -0.911718 0.434916 1.439830 0.366794 -0.995805 0.624150 -0.019269 1.058751 0.256701 -0.463518 0.058664 -0.019438 -0.660505 -0.694689 -0.349897 -0.293858 -0.163865 -0.435852 0.923899 -0.363449 0.674004 -0.726488 0.411640 -0.601642 -1.071160 
177 0.374021 -1.044821 -1.028326 -0.486389 -0.367812 -1.192604 -0.164962 -0.313229 -0.960930 -1.001766 0.255818 -0.150397 0.613131 -0.292760 0.077437 0.076226 -0.416331 -0.715167 0.136913 0.449058 0.914396 0.453312 0.863630 -0.026422 -0.499183 -0.887752 0.985549 0.314755 0.325743 0.277650 1.090055 -0.159615 -0.580205 0.563541 -0.245573 0.504795 0.881341 -0.508855 0.261034 -0.695942 0.854081 -0.800196 -0.815222 0.627123 -1.078796 0.419511 -0.012500 0.177631 -0.793537 0.163085 
55 -0.349837 -0.938184 -1.023152 -0.937966 0.141217 -0.526115 0.457386 -0.152383 0.134069 -0.221665 0.324507 -0.045024 0.107118 0.164522 0.807589 0.594201 -0.798344 -0.199908 0.445706 -0.390987 -0.091086 -0.451612 0.034558 0.484859 -0.339727 0.122389 -0.259816 1.009331 0.012654 -0.491436 0.669065 -0.575431 0.335692 0.714102 -0.709654 -0.277480 0.228497 0.237565 0.113937 -1.020652 0.565357 0.343883 0.368564 0.131026 -0.121315 0.380675 0.291804 0.379636 -0.241536 -0.098092 
381 -0.353538 -1.003026 -0.312611 -0.568048 0.239734 -0.287157 -0.298513 0.218690 -0.176560 0.562973 -0.109937 -0.294085 0.242617 -0.728512 0.739816 0.165354 -0.533063 -0.313171 0.367935 -0.827624 -0.275428 -0.181144 -0.202444 -0.047739 0.256354 -0.429678 -0.128768 0.456255 0.796768 -0.006903 0.459881 -0.732546 -0.542894 -0.016326 -0.651668 -0.392689 0.670393 0.277761 -0.005516 -1.023024 0.646986 -0.015126 -0.022773 0.582793 -0.718306 0.150276 -0.044011 0.695392 0.263484 -0.563773 
915 -0.386202 -1.444092 0.066915 -0.317807 0.620201 0.266796 -0.628062 -0.075319 -0.126281 0.445151 0.091244 0.311810 0.093304 -0.634911 0.525414 -0.054623 -0.448454 -0.062360 -0.553634 -0.226060 -0.538288 -0.193601 0.318866 -0.078862 0.007716 -1.052984 -0.354996 0.402594 0.462987 -0.183858 0.386681 -0.367179 -0.065718 0.455432 -1.080393 -0.232341 0.527180 -0.167887 -0.383496 -0.524651 0.204269 -0.487489 -0.520231 0.984044 -0.716777 0.395296 0.145815 0.112661 0.183706 -0.825831 
739 -0.315213 -0.378906 -1.212284 0.106855 0.178303 0.035440 0.336377 -0.228677 -1.079348 0.331280 0.138808 0.028883 0.282264 -0.804980 0.233771 0.626925 0.161562 -0.103065 -0.060511 0.084599 0.259696 0.577004 -0.760127 0.199776 -0.841547 0.044016 0.023637 1.184474 0.733875 -0.594631 -0.052841 -0.073899 1.036839 0.733597 -0.417321 -0.045709 0.510542 0.098272 -0.357124 0.042505 0.113375 0.258131 0.014716 0.263711 -0.455242 0.378889 -0.611707 -0.047953 -0.206332 -0.188297 
504 0.188402 -1.093898 -0.131156 0.112686 0.297303 -1.019907 -0.899674 -0.352949 0.430485 0.470568 0.312949 -0.147174 -0.618921 -0.283692 0.058278 -0.303411 0.128436 -0.318555 -0.306177 -0.046306 0.644887 0.146475 0.123883 -0.582518 -1.031485 -0.797781 -0.210953 0.486033 0.011296 -0.412066 -0.001146 -0.066774 -0.402706 0.187153 -0.729033 -0.144014 0.168415 -0.224271 0.087986 0.229484 -0.462609 -0.312427 -0.300251 0.690097 -0.758477 0.681353 -0.147714 0.112069 -0.034541 -0.839733 
636 -0.212486 -0.103122 -0.557195 -0.360355 0.536309 -1.029799 -0.501910 -0.149054 0.142922 0.360170 -0.053036 -0.200443 0.044364 -0.240754 -0.705064 0.221837 -0.136584 0.022714 -0.168178 0.460034 0.902180 0.120201 -0.302257 -0.211846 -1.294408 -0.056948 -0.116875 0.376856 0.533165 -0.910352 -0.011791 0.046581 -0.636728 -0.138156 -0.345828 -0.302911 0.778724 -0.343813 -0.160291 -0.354340 -0.261370 -0.510928 0.267092 0.711172 -0.736753 0.990742 -0.688125 0.295795 0.479456 -0.896553 
458 0.452035 -1.122048 0.605512 -0.660152 0.423643 -0.965190 -0.725728 -0.430336 0.394409 -0.512680 -0.127962 0.052860 -0.602459 -0.079665 0.127169 0.960103 0.120425 -0.590774 -0.304276 0.118336 1.232516 0.577595 0.588333 0.461751 -0.678788 -0.381010 0.501764 0.777342 0.690130 -0.301252 0.471491 0.264777 -0.665677 0.468469 -0.624824 -0.059481 0.106634 -0.475153 0.417074 -0.210561 -0.147871 -0.303856 0.019907 0.199983 -1.500782 0.363003 -0.824609 -0.077843 0.929668 -0.844022 
949 -0.108755 -1.110129 0.420549 -0.007309 -0.045616 -1.022398 -0.443366 -0.335992 0.720761 0.065679 0.267194 0.211976 -0.431667 -0.623374 -0.109411 0.093271 -0.384921 -0.180929 -0.308716 -0.373399 1.079942 0.422865 0.133337 -0.084449 -1.086906 -0.540684 0.272082 0.515164 -0.515564 -1.203649 -0.481689 0.472150 -0.470695 1.113338 -0.817284 -0.493107 0.209476 -0.755464 -0.181156 -0.626392 -0.263231 -0.399942 -0.060189 0.609592 -1.393664 -0.387642 -0.167469 -0.138088 0.299293 -0.306665 
888 0.322777 -1.356642 -0.056887 -0.643794 -0.175110 0.540046 -0.542377 -0.203085 -0.167943 0.092166 0.378956 0.512783 -0.154484 -0.162039 0.113701 0.332014 -0.101071 -0.153582 0.205152 0.047499 -0.591049 0.174215 0.030898 -0.320253 -0.303258 0.227322 -0.237105 0.978252 0.609810 -0.735795 -0.254007 -0.076995 -0.670325 0.101007 -0.702493 -0.251171 -0.201949 -0.392440 0.133896 -1.112860 0.283877 -0.250760 -0.210040 0.414046 -0.551123 -0.224941 0.214166 0.824915 -0.385081 -0.218850 
776 0.179748 -0.041757 -1.159194 -0.325867 0.489758 -0.765431 -0.204194 -0.338660 -0.634508 -0.144438 -0.026408 0.550103 0.760135 -0.511803 -0.389102 0.450601 -0.382889 0.246465 -0.115216 0.395964 0.442790 0.157598 -0.728261 0.111759 -0.773956 0.463421 -0.691427 0.308011 0.339750 -0.356840 0.080052 0.107862 0.097463 0.036465 -0.299336 0.004454 -0.084259 -0.262155 -0.641619 -0.147756 0.201843 -0.185141 -0.239630 0.706043 -0.299560 0.977538 -0.076411 0.003231 0.061880 -0.626907 
507 0.505571 -0.896668 -0.383158 -0.753695 0.137743 -0.728757 -0.536727 0.366087 -0.089975 -0.029302 0.220025 -0.581403 0.613237 -0.766649 0.053948 1.225754 -0.746150 0.423512 -0.222904 0.186034 -0.708919 -0.014055 -0.661848 -0.335420 -0.768301 0.151899 -0.049218 0.558574 0.123671 -0.647833 0.491090 -0.193262 -0.275464 0.333647 -0.398505 -0.321477 0.280915 0.320719 0.358042 -0.678782 0.672017 -0.071783 -0.269879 0.068740 -0.285719 0.039201 -0.205505 0.913858 0.171475 -0.846458 
164 -0.712706 -0.821273 -0.222114 -0.598152 0.812439 0.286462 0.266457 -0.274563 -0.468444 0.576696 0.442666 -0.089645 0.033914 -0.280858 0.403723 -0.041984 -0.449932 0.159096 -0.654631 -0.425571 -0.266593 -0.007197 0.352022 -0.107287 -0.699218 -0.892027 -0.466671 0.898152 0.049415 -0.589580 0.381266 0.264450 -0.014919 0.366292 -0.677278 0.098518 0.255415 -0.113849 -0.121534 0.248008 0.444894 -0.267222 -0.307844 1.160836 -0.174082 -0.057835 0.192400 0.095614 0.071041 -0.376310 
