4903 50
</s> 0.008005 0.008839 -0.007661 -0.006556 0.002733 0.006042 0.001882 0.000423 -0.007207 0.004437 -0.008713 0.002499 -0.001503 -0.001914 -0.006631 -0.003764 0.005159 0.006051 0.005938 0.003195 0.003090 -0.007605 -0.008192 0.009939 0.007603 0.006180 -0.001208 0.008031 -0.000990 0.001469 -0.000298 -0.005966 0.002625 -0.002675 -0.007651 0.009508 0.008759 -0.002190 -0.000452 0.001018 -0.007275 -0.008014 0.009109 0.000126 -0.005165 -0.006084 -0.006153 0.003394 0.000403 0.002662 
1210 -0.280352 -0.712502 -0.123212 0.204260 0.679440 -0.235623 -0.418945 -0.226548 0.741425 -0.154402 0.787250 0.126046 0.125405 -0.322226 0.903989 0.526682 0.124215 0.338118 0.279870 0.234132 0.062964 0.081977 0.623203 0.052231 -0.543047 -0.797921 -0.780930 0.235153 0.004017 0.349964 0.063873 0.413080 0.649673 -0.933235 -0.172587 0.069058 0.779999 -0.127561 0.695650 -0.533957 -0.635086 -0.063049 0.294261 0.140458 0.640271 -0.858635 0.674237 1.132578 -0.650964 -0.106439 
3018 0.277414 0.060832 0.323681 0.070954 -0.419805 -0.196404 0.540595 -0.128430 -0.471492 -0.046016 0.168949 -0.472225 -0.667749 0.520394 -0.224778 0.149443 0.637638 1.136979 -0.135681 0.202723 -0.508125 1.524154 0.743376 -0.196588 0.542987 -0.703662 0.442019 0.485887 0.452952 0.761201 -0.822726 -0.169617 -0.240478 0.109115 -0.026665 -0.199959 0.081050 -0.019822 0.372235 0.314332 -0.480695 0.300380 0.468094 -0.633320 0.333365 0.236622 0.295081 0.785320 -0.235671 0.339753 
283 -1.139062 -0.015945 -0.414431 -0.255220 0.481009 0.197338 -0.309995 0.607101 0.487700 -0.849403 0.045037 -0.661193 -1.052085 -0.201653 0.271218 -0.039767 0.809014 0.624343 0.487235 0.448451 -0.486615 -0.121232 0.497545 0.559859 -0.100002 0.057676 -0.322821 0.034160 0.373661 0.486716 -0.079976 0.278450 -0.370401 0.554529 -0.695549 0.860194 0.643474 -1.040269 0.818543 -0.525165 -0.123783 0.611519 1.261492 -0.498977 -0.080243 0.407886 0.076828 -0.223464 -1.108648 -0.106803 
2288 0.700051 0.431888 0.455099 0.125461 -0.265292 -0.395001 0.298264 -0.985245 -0.269012 -0.029443 0.435501 -0.763783 -0.774720 -0.114494 -0.663265 1.038085 0.277637 0.114321 0.757125 0.324244 -0.202517 0.741963 0.536164 -0.130041 0.517576 -0.193937 0.612352 -0.090608 0.505945 0.195226 -0.394804 -0.449994 -1.003246 0.491910 -1.193774 0.078409 -0.415360 -0.677635 0.660643 0.208875 -0.600728 0.328190 0.129151 0.397712 0.145873 -0.197906 -0.388666 0.025256 -0.985178 -0.213269 
1002 -0.744497 -0.550708 0.208609 0.503139 -0.486992 -0.914675 -0.196091 -0.471819 0.142238 0.115991 0.144990 -0.662252 -0.072882 0.284375 0.801038 0.455270 0.043893 0.513903 0.148045 -0.193679 -0.659574 -0.274047 0.089761 0.052262 0.006599 -0.660223 -0.408182 0.658755 -0.528138 0.460810 0.213535 0.176815 -0.645297 0.933303 -0.387382 -0.357629 0.745805 -1.089839 -0.597462 0.229609 -0.482160 0.795303 0.696365 0.613317 0.773063 -0.737947 0.341286 0.909236 -0.630261 -1.171966 
2525 0.544840 0.102756 -0.133377 0.627656 -1.129266 -0.616482 -0.407684 -0.286776 0.319540 -0.258357 0.087628 -0.035722 -0.448263 0.158165 0.016119 0.881963 1.095015 -0.562677 0.404928 -0.116862 0.601953 0.046035 0.980681 -0.282295 -0.563873 -0.902723 -0.017994 -0.163277 -0.010808 0.173050 -0.385424 0.127468 -0.941690 0.519675 0.076458 0.138510 -0.848454 0.191786 0.224487 -1.355366 -0.074823 0.595445 -0.407406 0.044338 -0.148235 -0.857510 0.735079 -0.281386 -0.886724 -0.100845 
2795 0.129112 1.148425 -0.250088 0.471027 0.103057 -0.863041 -0.408420 -0.162403 0.171245 0.265332 0.084707 0.435745 -0.960795 0.167970 -0.161617 1.621496 0.036121 -0.443364 0.243369 0.513582 0.206913 0.674557 0.771532 -0.644608 0.713203 -0.507440 -0.524267 -0.492506 -0.225970 -0.470190 -0.428420 0.426405 0.634851 0.305058 -0.025377 0.080832 0.699182 -0.020225 0.439341 -0.644644 -0.389149 -0.000644 -0.114985 0.604228 0.372593 0.142224 0.570382 0.368378 -0.834901 -0.017123 
3133 -0.554331 -0.088847 0.106197 0.228732 -0.460539 -1.144073 0.527346 -0.163268 -0.180679 -0.346397 -0.105277 -0.665487 -0.004892 0.385691 0.274764 0.661619 0.205714 0.523865 0.725156 0.939994 -0.526233 1.081196 0.587160 0.148777 -0.413036 0.146428 -1.268066 -0.750933 0.447964 -0.378012 0.040180 -0.244226 -0.543112 0.426403 -0.163545 -0.535130 -0.283750 0.347276 0.261657 -0.243666 0.124539 -0.369991 0.365641 0.415985 0.275017 -0.143027 0.450053 -0.095920 -1.346233 0.119674 
3161 0.504770 0.559923 0.663663 -0.428393 -0.108078 -0.166792 -0.190320 0.056764 0.573867 -0.610857 0.213628 -0.973328 -0.431971 -0.362477 0.059101 1.677521 -0.114286 0.592412 0.577063 0.140993 0.438650 0.605900 -0.142376 -0.181054 -0.999109 -0.011354 -0.468074 0.082284 1.040016 -0.251402 -0.112466 -0.668184 -1.012325 0.358901 -0.863219 0.358724 0.618990 -0.391992 -0.005973 -0.759668 -0.521730 0.105294 0.066470 0.142896 -0.433482 -0.905153 0.318701 0.472096 -0.034879 -0.163753 
4618 0.924900 0.076490 -0.484721 -0.144915 -0.264038 -0.744251 -1.275610 0.437024 0.504632 -0.309702 -0.222705 -0.435790 -1.112970 0.281530 0.252761 0.309910 0.676306 0.075190 0.161177 -0.557183 0.158810 0.390537 -0.001969 -0.319486 0.689729 -0.047821 -0.014170 0.150400 1.248898 -0.162571 -0.160368 -0.786560 -0.043308 0.256703 -0.855699 -0.541169 1.116329 -0.113444 0.160385 -0.591365 -0.263310 -1.247387 0.091391 0.230430 0.218413 -0.515399 0.323247 -0.258266 0.155097 -0.650781 
4462 0.656574 -0.619311 -0.512182 1.448079 0.198415 -0.588329 0.506518 0.151042 0.566072 -0.151139 -0.011791 -0.516646 -1.296175 0.362070 0.508651 -0.049386 0.792064 1.183972 0.565363 -0.485962 -0.137636 0.041947 -0.324007 0.129945 -0.023047 0.113726 0.636053 -0.290263 0.353461 -0.525498 -0.264256 0.418116 -0.204984 -0.565230 -0.116186 -0.433742 0.456235 0.066924 0.105242 -0.228859 0.981315 0.217623 -0.546563 -0.516276 0.318274 -0.484533 0.335174 0.582020 -0.158834 -0.525901 
4624 1.494368 0.072295 0.302230 0.920842 -0.889033 -0.821454 -0.500504 -0.075421 0.608806 -0.308577 0.420417 -0.602719 -0.014925 -0.585881 0.372434 0.395281 -0.350499 1.017744 -0.300622 -0.080632 0.613520 -0.428988 0.277594 0.201623 -0.234039 0.621883 0.623323 0.123835 -0.194911 -0.355763 -1.025345 -0.140679 0.607068 0.332183 0.037679 -0.045397 0.349386 -0.977644 -0.042530 -0.787994 -0.127011 1.003936 -0.286979 -0.229408 -0.011786 -0.244027 -0.115987 0.430860 -0.498327 -0.037834 
4481 0.498242 0.455340 0.228009 1.170041 0.692090 -0.808445 -0.131872 0.214426 -0.097858 0.062330 0.429380 -0.440011 -0.867105 -0.221928 0.761323 -0.405145 0.668095 -0.303693 -0.610874 0.526049 -0.998540 0.784405 0.944139 -0.096017 0.560147 -0.238108 0.403714 -0.461927 0.622586 0.084167 -0.399498 -0.866479 0.089319 -0.489037 -0.007809 -1.291168 0.530177 -0.256428 0.129441 -0.541594 -0.097784 0.806916 -0.180580 0.436873 -0.134111 -0.494108 -0.452678 -0.358551 -0.679579 -0.044397 
361 0.301453 -0.118463 -0.486426 0.440302 0.131752 -0.276640 -0.499049 -0.442289 0.486903 -0.506168 -0.113349 0.137378 0.470533 -0.106759 0.206035 0.295984 1.174560 -0.185537 0.906823 0.293205 0.238813 -0.051343 0.624809 -0.265804 -0.619857 -0.120977 0.375345 -0.422885 0.127880 0.261375 -0.626633 0.335843 -0.474383 0.991485 -0.628739 -0.147601 0.977162 -0.080886 0.568293 -0.746829 -0.101079 -0.405465 0.306711 -0.776194 1.012638 0.358511 1.165814 0.613237 -0.731753 -0.752353 
1245 0.004220 -0.380436 -0.117736 0.654044 0.016640 -0.791310 -0.362281 0.325603 0.244366 -0.045571 0.608451 -0.015582 -0.767392 -0.382411 -0.154666 -0.567364 -0.342810 -0.299602 -0.038230 -0.998802 0.107247 -0.656134 0.780376 -0.148228 -1.104256 0.272555 -0.746747 0.344220 0.270264 0.211718 -0.367404 0.073504 -0.087822 -0.513538 -0.872505 0.607786 1.187323 -0.375169 -0.089201 -0.806006 -0.545859 0.357374 -0.855472 0.028708 0.776482 -0.264596 0.583302 0.269415 -0.772224 -1.124155 
1125 1.216896 -1.150083 -0.412155 0.465645 0.154697 -0.494524 0.069292 0.224814 0.798723 0.986690 -0.062966 0.209240 0.063706 0.022456 0.118450 -0.617987 -0.189757 -0.105548 -0.135484 0.030231 -0.998430 0.578978 0.575155 0.107493 -0.170838 -0.820478 -0.756618 -0.432538 -0.295750 -0.683046 0.092156 -0.167600 -0.269740 -0.172091 -0.951772 0.241438 0.463335 -0.001794 0.334398 -0.012198 -0.385283 1.164299 0.593243 0.450966 1.197289 -0.798681 -0.018507 0.876028 -0.783470 -1.051319 
2742 0.448300 0.403244 -0.457732 -0.118350 -0.234977 -1.288800 1.030433 -0.466927 0.100591 0.030143 1.080040 0.132423 -0.775691 0.937087 -0.708906 1.173033 0.110649 0.796715 -0.113426 0.279868 0.254537 1.033994 0.442122 0.120074 0.412128 -0.484685 -0.012399 0.661847 -0.011974 0.931503 -0.016171 -0.062628 -0.314850 0.006615 0.416018 0.484306 0.336521 0.122936 0.026327 -0.572361 -0.606280 0.360062 0.329044 -0.047441 0.285327 0.180691 0.879793 0.588792 -0.078958 -0.002620 
1638 0.797368 0.097665 -0.027444 0.083583 0.386319 -0.258820 -0.330883 0.216187 0.059589 -0.431302 -0.563472 0.479827 -0.420141 0.275808 0.377054 0.159492 0.602710 0.176568 0.966653 0.642929 1.152490 0.078658 0.155782 -0.182290 -1.050051 -0.387287 0.161887 -0.419005 -0.420669 0.840025 -0.473284 0.625746 -0.544074 0.972547 -1.093052 0.531950 0.742360 0.286130 -0.119630 -0.384900 -0.344556 -0.245832 -0.069833 -0.469751 0.168763 -0.056918 0.553375 1.145331 -1.236936 -1.154268 
2056 -0.243103 0.558884 -0.867785 0.529182 -0.063342 -0.924271 0.327153 1.433618 -0.072737 -0.292247 0.207207 0.066608 -0.428090 0.426812 0.000387 0.542462 -0.524236 -0.295790 -0.317221 -0.272189 0.745247 0.893495 0.484199 0.214664 0.262390 -0.480094 0.791466 -0.656873 0.321723 0.058095 0.468256 -0.276684 -0.142259 0.456115 0.186378 0.712397 1.062423 0.382211 0.397932 -0.274682 -0.714022 1.073121 0.652667 -0.518075 -0.415905 -0.668118 -0.141985 -0.105638 -1.368436 -0.403618 
33 0.337951 -0.754591 -0.656560 0.319001 0.018046 -0.430241 -0.268143 1.159003 0.772350 0.358955 0.720114 -0.746960 0.468866 0.009237 0.265951 0.627169 -0.002517 0.458113 0.432124 -0.016085 0.129285 -0.010977 -0.235785 0.520870 0.474237 -0.074959 -0.498961 -0.402337 0.517676 0.290396 0.580301 -0.872314 -0.651443 0.203523 -0.474849 0.290279 1.194537 -0.174571 0.041773 -0.361604 0.461813 -0.371646 -0.140703 -0.196629 -0.660173 0.052890 -0.000044 1.288284 -1.227336 -0.954905 
3023 0.729249 -0.300214 -0.006514 0.233447 -0.052560 -0.640456 0.015845 0.834861 0.254935 -0.482144 0.672836 -0.278638 -1.567671 0.249561 -0.102131 0.773738 0.466200 0.612119 -0.505415 -0.000602 0.489896 0.674389 -0.217812 -0.342054 0.184772 0.255337 -0.160181 0.767545 -0.577757 -0.041486 0.598400 0.062374 -0.973102 0.287667 -1.438764 -0.315035 -0.495719 -0.026303 0.223286 -0.504849 -0.745786 0.767436 0.540068 0.235861 -0.684662 0.695245 0.183192 -0.265822 -0.718872 -0.567532 
1723 0.853450 -0.129210 -0.654409 -0.042163 0.136024 -0.715572 0.629141 0.608561 -0.063550 0.387921 0.699934 0.408875 0.035003 -0.080860 0.391581 1.123058 -0.237291 0.579192 -0.052272 0.821123 0.862091 0.807954 0.986055 -0.921883 0.158938 -0.035754 -0.403384 0.461839 0.349565 -0.144765 -0.265826 -0.775788 0.346706 0.536065 -1.024880 0.207591 0.721195 -0.072480 0.458077 -0.061165 -0.426703 0.680788 0.019068 -0.569488 -0.877107 -0.255558 0.112870 -0.170620 0.341144 -0.965432 
3319 -0.005465 -1.001978 -0.291170 0.389761 -0.158234 0.463793 0.408246 0.449615 0.897798 0.085297 0.176841 -0.255473 -1.185946 -0.534842 -0.334812 1.442380 0.070217 -0.057075 0.286436 -0.273117 0.498605 0.626483 -0.684952 0.059489 0.388563 -0.082826 -0.036048 -0.381835 -0.560459 -0.119035 -0.812151 -0.418912 -0.337578 0.855303 0.232619 0.418892 0.939685 -0.889764 0.924770 -0.152659 0.263229 -0.184385 0.634284 0.195353 0.084102 -0.586901 0.237877 0.478174 0.010187 -0.776891 
553 0.077630 0.611193 0.083977 0.825868 -0.050860 -1.325312 -0.644280 0.321564 0.659768 -0.603910 0.447904 -0.345879 -0.905440 -0.011872 -0.201970 0.121439 0.144593 0.575061 0.576601 -0.038335 -0.007991 -0.414471 -0.514918 -0.317430 -0.123797 -0.314763 -0.111315 0.005281 -0.386716 0.403623 0.010879 0.045312 0.379483 -0.051822 -0.406180 -0.046826 0.382334 -0.233602 0.877191 -0.003079 0.465487 0.596252 0.463501 0.403028 -0.426335 1.351029 -0.507435 1.604541 -1.242107 -0.342082 
508 0.453680 -0.970668 0.089035 1.103159 0.380804 -0.115995 -0.009933 0.858147 -0.118837 0.302286 1.508941 0.304857 0.378622 -0.303438 -0.219419 0.495150 -0.146574 0.262174 -0.046807 0.446088 0.462321 1.008078 -0.369686 0.625841 -0.319618 -0.019065 -0.314948 0.373860 0.834390 0.693726 -0.194830 0.699445 0.547808 0.284794 -0.100071 -0.206396 1.169665 0.193172 0.794840 -0.578185 -0.667223 0.120397 0.120269 -0.245422 0.629943 0.200121 0.238497 0.131239 -1.123557 0.058751 
4470 0.832256 -0.249147 0.282563 1.167882 -0.175265 -0.449643 0.661536 0.369311 -0.795274 -0.039718 0.281589 0.198321 -1.126970 -0.228775 0.587780 0.352008 0.609650 -0.017124 -1.090834 -0.433199 0.275066 0.481349 0.271825 -0.063766 -0.031898 -0.123823 -0.467110 -0.166049 0.764001 0.431987 -0.633018 -0.879061 -0.650355 -0.461354 -0.095447 -0.204902 -0.871459 -0.156279 0.096807 -0.662480 -0.231270 -0.048043 0.215488 0.757481 0.960632 -0.188822 -0.781785 0.320107 -0.863181 -0.227107 
4131 0.229441 -0.744051 0.098490 0.696829 -0.214990 -0.747588 0.422686 -0.131646 -0.735577 -0.370122 -0.210749 -0.299758 -0.213789 0.322395 -0.569912 0.409406 0.403470 0.706407 -0.784664 0.713021 -0.405411 0.653708 0.777356 -0.560804 0.664312 0.431924 0.505398 -0.215584 0.204033 0.551167 -0.311195 -0.023210 0.578218 -0.237223 -0.026151 -0.220529 0.205466 0.783211 1.209381 -0.010402 -0.386173 0.356946 0.819280 -1.123646 0.044459 0.541920 -0.354840 -0.252658 -0.360910 -0.966731 
3473 0.903562 -0.355508 0.614994 0.818621 0.136999 0.077731 -0.446569 -0.674769 0.163371 0.557297 -0.064800 -0.164296 -0.779939 0.228745 -0.078840 0.717953 1.301858 0.602312 0.176877 -0.409526 0.068507 0.946330 0.170757 -0.166975 -0.244700 -0.450545 -0.589337 0.772881 -0.606248 0.324449 -0.922598 0.009665 0.438162 0.720298 -0.509579 -0.377371 1.324338 0.205704 -0.323318 -0.819907 0.177981 -0.440365 0.796470 0.109784 0.134559 0.365050 0.089122 -0.753674 -0.336199 -0.306767 
2823 0.749596 -0.234738 1.160378 0.374200 0.203158 -0.803312 -0.282674 0.044610 0.799202 -0.069496 -0.146711 -0.170909 -1.542004 -0.090234 -0.482943 0.398213 0.345115 0.336139 -0.720526 0.650542 -0.085035 -0.328321 0.846766 0.452491 0.372886 0.105672 0.064414 0.822001 -0.319555 -0.722050 -0.298433 -0.403120 -0.583098 -0.045279 -0.334327 0.230355 0.741924 0.176596 -0.220697 0.295711 -0.457703 0.373016 0.013265 0.911857 -0.166919 -0.628263 0.745039 -0.129148 -1.822456 0.206887 
4674 -0.413363 -1.133071 -0.115090 0.495467 -1.043310 -1.198606 -0.461342 0.273835 -0.653081 0.042830 -0.352440 -0.020687 -0.880769 0.124288 -0.632235 -0.066969 0.606453 1.278899 -0.339950 0.104962 -0.397380 -0.002004 -0.272503 0.231455 -1.001362 -0.605464 -0.891250 0.074649 0.888741 0.641025 -0.585758 -0.110445 -0.270165 -0.523102 -1.002534 -0.163087 0.365207 -0.623477 -0.139520 0.162308 -0.235997 0.266127 0.286407 -0.014041 -0.080293 0.042074 0.328034 -0.318893 -0.099095 -0.392988 
1474 0.294833 0.334104 0.125973 0.214122 0.753210 -0.900813 -0.279498 0.498552 0.773486 0.093193 0.172125 0.611771 -0.640131 -0.422068 -0.161034 0.087811 -0.237785 -0.204930 -0.092886 -0.026137 0.438307 -0.351544 0.070677 -0.211750 -1.140951 0.202878 0.093444 -0.089473 -0.122853 0.305593 -0.409945 -0.372068 -0.286406 -0.302678 0.117621 0.623825 0.597750 -0.536295 0.124369 -0.328694 -0.420154 0.576505 0.583107 -1.059768 0.486654 -0.059105 -0.540914 0.034001 -2.272679 0.486629 
885 -0.812611 0.099392 0.642889 0.476380 0.521705 0.021774 -0.101303 0.548601 -0.055888 0.224356 -0.564146 -0.378726 -0.323063 -0.336063 0.619719 -0.380236 -0.708194 0.308803 0.790964 0.143254 0.073685 0.816088 0.671522 -0.045297 -0.304819 -0.224833 -0.789190 -0.802029 1.024128 0.297384 0.263209 -0.219790 -0.244991 0.123920 -0.977981 -0.878625 0.736356 -0.726762 0.869347 -0.502310 -0.276673 -0.045505 0.498929 -0.385200 -0.226850 -0.067099 0.031713 0.331991 -0.924524 -1.254701 
3347 0.707639 -0.044541 -0.202656 0.105187 -0.902467 0.269343 0.696898 0.401274 1.438188 -0.775160 -0.040018 -0.021231 -0.208694 -0.253097 0.087913 0.210854 0.874050 0.557978 -1.056912 -0.485651 -0.141546 0.509916 0.088562 -0.384266 -0.058173 -0.340265 1.332816 0.240818 0.882221 0.329815 -0.732534 0.231978 0.250781 -0.364199 0.039979 0.205714 0.608021 -0.590514 -0.396175 -0.296590 -0.747065 0.335471 0.281874 0.009385 0.363267 -0.541085 0.665122 0.344889 -0.445749 -0.867901 
4539 0.585602 -0.325841 -0.104393 0.828283 -0.734978 -0.202066 -0.291378 0.469913 0.548695 -0.119121 1.138022 -0.504016 -0.425565 -0.000650 0.008036 0.353317 0.053089 0.506700 -0.731511 -0.140025 -0.727782 0.350895 0.632484 0.280435 -0.072981 0.097657 1.574461 -0.306331 1.033142 0.392028 -0.780043 -0.164657 0.097217 0.657964 -0.358173 -0.195510 0.483456 -0.168102 -0.103957 0.535278 -0.071391 0.101697 -0.483882 -0.802949 -0.531601 0.279333 -0.061333 -0.457474 -0.663757 -0.119403 
1550 -0.605845 0.516159 0.488245 0.160469 0.427113 -0.189027 -0.887634 0.282318 1.055943 0.421103 0.361795 -0.576310 -0.875508 -0.382006 -0.059984 0.140227 -0.210934 0.273662 -0.205274 0.225447 0.273329 0.437856 0.300112 1.040557 -0.356706 0.435151 0.428134 0.302715 -0.166965 0.405050 -0.559753 -0.443820 0.073978 0.615148 -1.275365 0.679562 0.552763 -0.073275 0.257076 -1.385824 -0.048766 0.065909 -0.019064 0.351507 0.302177 -0.666187 1.301068 0.130046 -0.707558 -0.305275 
4851 0.631727 -0.200468 -0.025030 0.622399 -0.552414 0.033116 0.493222 0.452422 0.297157 -0.415535 0.557522 -0.129161 -0.782955 -0.080556 0.257169 0.240323 1.076992 0.466328 -0.982789 0.063679 -0.532192 0.433819 0.517127 0.865527 0.313606 -0.403232 0.806924 0.169005 1.142781 -0.188616 -0.827932 -0.452155 0.381091 -0.583307 0.292563 0.059212 0.448671 -0.564393 -0.215395 0.169857 0.370965 0.326906 0.133562 -0.405566 -1.024604 -0.079174 0.339789 0.087924 -0.691119 -0.388116 
1755 -0.550474 -0.448028 -0.716690 0.412183 -0.803048 0.060635 0.267409 -0.297674 0.367604 -0.210857 0.302654 -0.013191 -0.751558 0.673436 0.472747 1.179210 0.153606 -0.212897 0.956515 0.517744 0.491779 -0.348409 -0.003637 -0.106439 0.461269 -0.022001 0.045286 -0.385782 0.359678 0.677598 -0.454360 -0.900816 0.791176 -0.352847 0.164908 -0.640317 0.380243 -0.101292 0.762695 -0.502899 -0.640911 0.147038 -0.505904 -1.285386 0.132095 0.442421 0.277255 0.386488 -0.896197 -0.906239 
3984 0.451106 -0.221103 -0.774585 0.449924 0.588209 -0.292800 0.811586 -0.125082 0.880253 -0.462377 -0.077754 0.145964 -0.358536 -0.054477 0.204140 -0.021950 -0.432780 0.490123 0.239933 0.278609 -1.006470 -0.236723 0.526399 0.812101 -0.500974 0.115197 0.389973 -0.573153 0.789133 0.073894 -1.403372 0.272834 -0.008634 -0.400887 -0.452103 0.311006 0.621422 0.870058 0.403743 -0.790093 0.038527 0.483373 0.810166 -0.147319 -0.225563 0.252090 -0.556935 0.494502 -0.444159 -1.079964 
1449 0.059203 -0.473521 0.582225 1.004841 -0.362233 -0.099096 -0.105716 0.519846 0.010164 -0.005669 0.719829 0.111006 -1.323750 0.143561 0.148027 -0.107503 0.224546 -0.627905 -0.223946 -0.160576 -0.807909 -0.069161 -0.204805 1.260438 -0.863277 -0.900422 0.478540 -0.093005 -0.326014 0.236323 -0.143124 -0.173130 0.366841 -0.393139 -0.645954 -0.126092 -0.289303 -0.450270 0.457606 -0.643844 -1.027704 0.086855 -0.145092 0.514382 -0.092812 -1.253604 -0.512686 0.896803 -0.896662 -1.003600 
1111 -0.234969 -0.349808 0.932376 0.697325 -0.437184 -1.737556 -0.252318 1.200741 0.620003 -0.216887 -0.285166 -0.067440 -0.542252 0.096390 -0.049019 -0.152324 -0.411467 0.248179 0.528734 0.289712 -0.107917 0.038613 -0.229811 0.175271 -0.195768 -0.195283 -0.159660 0.002316 0.794665 0.689673 -0.670949 0.095003 -0.156711 0.659610 0.039759 -0.702992 -0.398582 -0.175136 1.046747 -1.100505 -0.581021 1.147163 0.821186 0.134703 -0.336160 -0.420815 0.048049 0.213594 0.355643 0.013719 
4101 0.624300 0.737142 -0.143585 -0.193104 -0.009685 -0.626894 0.327288 -0.403641 0.287027 -0.559310 0.547321 -0.176269 -0.437275 0.386579 0.898778 0.225046 0.550961 0.582510 -0.397531 0.388470 -0.396732 0.264726 -0.383285 0.165495 0.031870 -0.541366 0.147681 -1.121308 0.916747 0.489955 -0.653373 0.260504 0.166955 0.540608 -0.628975 -0.666856 0.673679 -0.144340 0.196569 -1.431313 -0.339836 0.308153 0.725510 0.149882 0.251656 0.167763 -1.184502 1.141323 0.184712 -0.680321 
3407 0.049648 -0.679383 -0.430509 0.460311 -0.155675 -1.097221 -0.520057 0.211731 0.776298 0.043881 0.409913 -0.040960 -1.501061 0.452972 0.332547 0.497810 0.242401 0.668691 0.213301 0.069294 0.763132 -0.140626 0.694180 -0.168064 -0.387408 -0.038136 -0.110676 -0.129668 0.347981 0.689417 -0.074831 0.596795 -0.344766 0.304510 -0.573593 0.725973 0.192024 0.055386 0.449580 1.014683 0.780519 -0.251341 0.081978 -0.185085 -0.956518 -0.110214 -0.637343 -0.040292 -0.604604 0.117444 
1149 -0.294126 -0.322419 -0.152649 0.088902 0.037907 -0.996314 0.116787 1.217431 -0.368641 -0.040613 0.613100 0.369731 0.148332 -0.582988 0.760640 -0.338680 0.487308 -0.752457 0.160697 0.237393 -0.122595 0.295017 1.253069 0.541898 -0.309961 0.288685 -0.241186 -1.320831 -0.117203 0.894687 -0.453603 -0.019322 -0.166351 -0.477031 -1.046570 -0.791046 0.801253 -0.174624 0.536384 -1.006211 -0.340367 0.520533 0.144470 -0.400868 0.210289 -0.550158 -0.273569 0.142803 -1.108764 -0.526315 
3985 -0.295952 -0.859441 0.281038 0.375278 0.529143 -0.836646 0.494993 -0.590063 0.911847 -1.123912 -0.230979 -0.061891 -0.644697 -0.217894 -0.143482 0.746789 0.933013 0.082230 -0.909845 -0.747283 0.390148 0.032686 0.668704 -0.723394 -0.142739 -0.838429 0.241047 -0.757280 0.773570 0.087770 -0.527426 -0.048396 0.184938 -0.186588 0.396075 0.064832 -0.088458 0.225380 0.718394 0.184234 -0.092828 0.569723 -0.489367 -0.218268 0.236172 -0.984435 -0.633811 0.528803 -0.567602 -0.710333 
1907 0.122170 -0.719362 -0.615570 0.300908 -0.156329 0.064443 0.437944 0.040284 0.268212 -0.230489 -0.489793 -0.823487 -0.746196 -0.713219 0.269417 1.042731 0.170694 0.211906 0.279580 0.006718 0.241304 0.903049 -0.318315 -0.416416 0.780360 -0.503914 -0.539086 -0.257852 -0.033608 -0.680026 -0.166324 -0.793315 -0.322530 0.448448 -0.399967 0.775800 0.558122 -1.195014 0.894161 -0.556775 0.597403 -0.184250 0.127975 0.425860 -0.400650 0.137346 0.737311 0.662762 -1.013006 -0.189675 
2838 0.114085 -0.104799 -0.950747 -0.462570 -0.726202 -1.449722 0.556862 -0.070024 0.058731 -0.147620 0.617555 0.064826 -0.474508 1.067111 -0.499512 0.923152 -0.380689 0.602686 -0.372656 -0.503395 -0.310929 1.175009 -0.251229 -0.208775 -0.351856 0.020801 0.264417 -0.083923 -0.279478 0.498557 0.103333 -0.778773 -0.719677 0.097033 0.092348 -0.056191 0.407663 0.195689 0.149940 -1.033724 -0.663378 -0.640164 0.386021 -0.022497 -0.250584 0.468155 1.011671 -0.067741 -0.674464 -0.325007 
905 -0.159455 0.227178 0.307076 1.174466 0.006449 -0.123002 -0.115540 0.972718 0.979789 -0.651490 0.768293 -0.138207 -0.710433 0.692413 0.190989 0.310200 -0.371916 0.429361 0.472684 0.215220 0.366735 -0.272583 -0.078646 -0.438728 -0.073232 -0.481295 -0.091431 -0.060091 -0.268482 0.266974 0.255960 -0.568305 0.917169 -0.032603 -0.169786 -0.596525 0.425725 -0.018180 0.441260 0.285497 0.429139 0.559631 0.980162 -0.514636 1.014846 0.793228 -0.473026 1.482345 -1.251997 -0.314001 
94 0.018803 -0.663441 0.837084 1.348258 -0.161089 -0.186260 0.040088 0.612802 1.078454 -0.039539 0.622770 0.651987 -1.168058 0.294311 0.426301 -0.014953 -0.746518 -0.644593 0.089554 -0.412534 0.156585 1.033443 0.113231 -0.428417 -0.969657 -0.608595 -0.851151 -0.501168 0.339727 -0.146578 -0.424618 -0.741179 -0.564937 0.300739 -0.024930 0.353884 -0.057853 -0.110711 0.559419 0.074790 -0.185899 1.220544 1.027569 -0.222204 0.090029 -0.658220 -0.108693 0.221822 0.254893 -0.125020 
3041 0.870586 -0.701565 0.155129 -0.807689 -0.505147 0.349157 0.066183 0.106998 -0.423400 -0.403934 0.304192 -0.396918 -1.111270 -0.671290 -0.204558 0.626334 -0.319117 0.178011 0.111513 0.076238 -0.014291 0.156374 0.133168 -0.714396 0.037012 0.045060 -0.758348 0.184028 0.646977 0.094676 -0.515082 -0.710463 0.182035 -0.242772 -0.101291 0.641530 0.806564 0.280041 0.932799 0.030077 0.441983 -0.468520 0.484760 -0.209544 0.613005 -1.359882 0.246747 -0.352831 -1.043176 -0.391700 
4737 0.171534 -0.052566 -0.928573 0.401087 0.750652 0.027174 -0.118607 -0.318211 0.366672 -1.039303 0.552428 0.107292 -1.077496 0.095555 0.065454 0.525985 -0.230540 1.150399 -0.512379 0.500565 -0.398421 0.723045 0.812907 -0.566833 -0.483795 -0.127235 -0.150775 0.458574 0.790221 0.427045 -0.632476 -0.214834 0.873137 1.005260 -0.023049 -0.342664 0.594330 0.122912 0.448773 -0.487174 -0.890853 -0.161212 0.132889 -0.696786 -0.347799 -0.288929 -0.489517 0.495379 0.595993 -0.279795 
1544 -0.158136 -0.761439 -0.326755 0.352669 0.022887 -0.191127 -0.172327 0.558397 0.588138 -1.007203 -0.006969 0.139720 -0.363944 0.463852 0.215597 0.268552 0.475685 -0.523230 1.264174 -0.795224 0.175366 -0.181222 0.022291 0.275285 -0.395817 -0.805300 0.022909 0.392585 0.171769 0.736328 -0.520785 0.213506 -0.508718 -0.400901 -0.253502 0.378895 0.970276 -0.627055 1.544241 -0.324418 0.330858 0.345770 1.022385 -0.291281 0.770361 0.330262 0.173650 0.671072 -0.290511 -0.972138 
2471 -0.017544 -0.047677 -0.205821 -0.356988 -0.109015 -0.615023 0.444980 0.570786 1.120722 0.058168 -1.019772 -0.733238 -1.625058 0.285003 0.551554 -0.050292 0.719377 -0.129667 0.473807 0.630044 -0.234451 0.742354 0.778582 0.169846 -0.144656 -0.609180 -0.155218 -0.666890 -0.008608 -0.046009 0.700150 0.421393 0.159006 0.046990 0.579919 0.499376 0.694219 -0.027065 -0.112431 -0.490289 -0.254343 -0.048915 -0.554648 0.601614 0.211995 0.566764 0.024569 0.285180 -1.365899 -1.135463 
1021 0.112844 -0.031892 0.687444 1.397908 -0.493172 -0.373102 -0.648724 0.891623 -0.107357 -0.165752 -0.208434 -0.786769 -0.897002 -0.720226 0.602516 1.089940 -0.223193 0.018690 0.325055 -0.357343 -0.935840 -0.953467 0.222185 -0.299815 -0.910088 0.022924 -0.229744 0.134391 0.559493 0.928341 -0.100150 -0.370104 -0.193154 -0.447788 -0.129275 -0.096266 0.205505 -0.239331 0.390452 -0.360579 -0.796398 -0.754261 0.863836 0.515927 0.445464 -0.019554 0.468985 0.994244 -0.257487 -1.002668 
4595 0.793331 -0.351884 -0.110943 0.462150 0.137912 -0.429346 -1.003631 0.424908 1.115225 -1.162008 0.581718 1.069883 -0.050525 0.466644 1.050936 0.922090 0.409199 1.053963 -0.198938 0.155243 -0.421982 0.529392 0.277979 -0.025320 -0.762969 -0.283608 0.452185 0.602493 0.411280 -0.574561 -0.642499 -0.118010 -0.074234 -0.172114 0.212323 -0.343057 0.356359 -0.764504 -0.524857 -0.634969 0.438230 0.221346 0.541573 -0.132875 0.411364 -0.533521 0.334930 0.027412 -0.354954 0.091584 
3449 0.628373 -0.160135 -0.651907 0.636400 0.113208 -0.591214 0.404750 -0.245047 0.202908 -1.104630 -0.426163 -0.140473 -0.452751 -1.050822 0.277475 0.661983 -0.503070 0.497913 0.288390 -0.400417 -0.003615 0.175389 0.348521 0.044513 -1.122619 -0.075935 -0.332287 0.047239 -0.277271 -0.274742 0.432428 -0.379120 -0.762714 0.123708 -0.436443 -0.771858 0.974253 1.107757 0.302762 -0.566947 0.195370 -0.191538 0.124397 -0.132317 0.525340 -0.887727 -0.496447 0.177103 -0.408529 -0.364900 
2495 -0.161074 0.243200 -0.392252 -0.291278 -0.261742 -0.804815 0.253091 -0.504021 -0.784615 -0.064320 0.084313 0.206951 -0.391931 0.970493 0.110503 0.141906 0.250461 0.086096 0.068035 -0.380710 -0.436753 0.044956 0.189976 -0.546364 0.227348 -0.868571 -0.075180 -0.186298 0.718906 -0.473499 -0.583311 -0.717157 -0.065329 0.069697 -0.869413 1.005364 1.026199 0.128289 0.993561 -0.264270 -0.407850 0.480431 -0.504576 0.445779 0.535031 -1.530215 0.458986 0.949759 -0.849546 -0.642932 
2243 0.857411 -0.489099 0.362832 0.137791 0.449932 -0.165503 0.058805 0.163067 1.270526 0.137352 -0.275875 0.732783 -0.685977 0.551829 -0.299539 0.740156 -0.396388 0.301790 0.035450 0.413570 0.610074 0.116944 0.611561 -0.360485 0.130473 -0.491479 -0.075769 -0.379100 0.573085 -0.269401 -0.244803 0.095955 0.432360 0.050098 -0.229382 0.459612 0.658336 0.963383 0.617103 0.101402 -0.750173 0.513614 -0.830470 0.300897 0.380661 -1.305178 0.722527 -0.249998 -0.986280 -0.164733 
2606 0.132351 0.424509 0.457382 -0.029924 0.215248 0.025362 0.166519 0.640617 1.361619 -0.584949 -0.226135 -1.106969 -1.235065 0.174809 0.031870 0.974966 0.465655 -0.206802 -0.163815 0.502166 -0.570915 0.598841 -0.098150 -0.051558 -0.439487 0.263761 -0.340265 0.057657 0.282486 0.305647 -0.143993 0.034278 -1.066935 0.425492 -0.765821 1.524810 0.422278 -0.471412 0.756703 0.341912 -0.319114 0.610730 0.143621 -0.311815 0.474505 -1.053839 1.103012 0.278796 -0.269003 -0.324796 
3175 0.959628 -0.545291 1.146467 0.059476 0.431204 -0.542582 0.061348 -0.014118 0.834155 0.277938 -0.310988 -0.634391 -1.399566 -0.357730 -0.555067 0.876990 0.370705 0.719019 -0.932671 0.404355 -0.030589 0.420085 0.515014 0.512577 0.106311 0.304223 -0.184434 -0.403104 0.525751 -0.166766 -0.292522 -0.301915 -1.295889 0.191767 -0.043418 0.462067 -0.041679 -0.022339 0.532840 -0.086794 -0.728487 0.176360 -0.136087 1.245855 -0.093469 -0.055869 0.756134 0.684692 -1.247015 -0.186663 
3563 1.450446 -0.693985 -0.281819 0.694428 0.029496 -0.763120 0.277750 0.414061 -0.027510 -1.187362 0.212757 0.248856 -0.955197 -0.243594 0.823785 0.588116 -0.816434 0.317022 -0.121171 -0.568381 0.384063 -0.151035 0.915019 0.491506 -0.446738 -0.741130 0.731321 -0.608258 -0.135757 0.870966 0.110514 -0.200512 -0.110428 -0.250997 0.472842 -0.626335 1.288094 -1.014697 0.282918 0.153441 -0.167026 -0.065092 -0.038037 0.161694 0.023902 -0.550886 0.617660 -0.142574 -0.091006 -0.211608 
1323 -0.919047 0.166714 0.264193 0.703517 -1.007912 -0.226332 -0.356142 1.070340 0.322086 -0.719660 0.799744 -0.032782 0.090724 -1.572531 -0.302391 0.410104 0.063907 0.362338 0.327651 -0.321915 -0.849183 0.249137 0.704579 -0.815524 -0.510257 -0.479798 -0.229717 -0.208616 0.391636 -0.160086 -0.512150 -0.770665 0.299354 -0.056931 0.497473 0.174691 0.879015 0.295786 0.321782 -0.205689 -0.037203 0.529981 0.474702 0.400359 0.435550 0.119806 0.355838 0.414074 -0.530600 -0.890138 
3401 0.136213 0.130307 0.102303 0.735329 -0.694823 -1.190574 -1.035897 -1.318248 0.641648 -0.360097 0.812522 -0.579104 -0.591690 0.410082 -0.322015 -0.419149 0.685288 0.508942 -0.351075 0.042697 -0.154168 -0.194515 0.904181 -0.038283 -0.037250 -0.900494 0.039280 -0.201406 0.801444 0.159618 0.336166 -0.544969 -0.279516 0.936283 0.433350 -0.109402 1.111525 -0.031519 0.569572 -0.622815 -0.575121 0.451460 0.496440 -0.217231 0.079740 0.221446 -0.232480 -0.340515 -0.316683 0.576681 
4840 0.289897 -0.046321 -0.231788 0.449046 0.408446 -0.682328 0.262029 -0.606200 -0.304621 0.117463 0.275946 -0.003827 -0.943508 -0.193815 1.184061 0.374296 0.722875 0.237653 -0.046712 -0.269078 -0.103650 0.308452 -0.718767 -0.650912 0.186824 -0.477577 -0.166721 -0.646433 1.079720 -0.306524 -0.044460 -0.139722 0.164616 0.685937 -0.140643 -1.128839 0.569328 -0.323334 0.591995 -0.804205 -0.549162 0.105679 0.979315 0.174436 0.405162 0.694426 -0.083291 0.175814 -0.271207 -0.588753 
3420 0.672707 -0.505174 -0.269929 0.816214 -0.008619 -0.758426 -0.288073 0.138689 1.072128 -0.175336 0.122544 -0.068266 -1.041149 0.150046 1.258116 0.025494 -0.251709 0.421520 -0.098647 -0.524297 -0.252922 0.369124 -0.035542 -0.378546 -0.495983 0.144198 -0.315759 -0.555778 0.563453 0.639749 -0.995919 0.483153 -0.323456 0.748504 0.315298 -0.316613 0.422784 -0.015716 0.924583 0.737509 0.975571 0.101653 0.218242 0.456506 -0.519051 -0.532023 -0.757991 -0.371645 -0.591539 0.002968 
4201 0.487171 -0.459015 -0.589386 0.701881 0.265954 0.085271 0.199615 -0.318888 -0.023009 -0.861743 0.813758 1.114311 -1.255077 -0.350357 -0.175567 0.847782 0.151331 0.335231 0.051364 -0.942158 -0.914071 -0.307441 0.340992 -0.201160 0.421819 -0.304541 0.762886 -0.017106 0.437427 0.026946 -0.798811 -0.143119 -0.539874 -0.179707 -0.841713 -0.195917 0.538663 0.211875 0.067871 -0.689743 -0.764261 -0.026257 0.003515 -0.395473 0.087221 -0.648520 -1.042492 1.041762 -0.133855 -0.838000 
4388 1.025408 -0.939352 -0.041021 0.431519 -0.779870 -0.484745 0.103534 0.998265 0.595067 -0.507371 0.049879 -0.054588 -0.158705 -0.144997 0.620115 0.352640 -0.025444 1.435132 0.012098 -0.320892 0.638358 0.535493 0.292962 0.802593 -0.525362 0.405787 0.743113 0.292793 -0.225346 -0.834525 -0.826693 0.286201 0.192712 0.028899 0.195786 -0.328453 0.690276 0.134698 -0.068870 -0.146879 -0.653772 0.627180 0.106691 -0.008949 0.167456 -0.510749 -0.285594 0.590179 -0.431829 -0.050426 
2131 -0.200536 -0.407718 1.096598 -0.076431 -1.438570 -0.080241 0.683352 -0.249442 -0.048117 -0.479349 0.092028 0.439199 -0.782431 0.189415 -0.539564 0.362470 0.993011 0.259666 -0.332670 0.519079 -0.818309 1.390168 0.409553 0.231979 0.530923 -0.343027 0.213659 0.465560 -0.104433 0.338885 -0.753809 -0.043002 0.064198 0.042013 -0.579527 0.019641 0.618849 -0.497201 0.142848 -0.049917 -0.244156 -0.097612 0.639761 -0.367146 -0.576318 -0.251795 -0.123078 0.843607 -0.654581 0.046311 
2662 -0.062460 -0.800770 -0.425072 -0.319158 -0.291921 -0.032625 0.104724 -0.816457 0.795346 -0.204716 0.604902 -0.668886 -0.924423 -0.509975 0.839125 0.493136 -0.505266 0.466430 0.512942 0.328744 -0.176780 0.914918 0.323639 -0.956167 -0.247998 -0.552219 -0.668572 -0.204601 0.436920 0.527998 0.672067 0.357503 0.518084 -0.370458 0.080612 -0.018258 0.589459 -0.032873 1.523571 -0.864402 -0.154417 0.476715 -0.390349 0.393237 -0.219647 0.049849 0.776384 0.382954 -0.549572 0.182324 
3329 0.459603 0.159204 0.526951 -0.035396 0.148284 -0.693398 0.999899 -0.516678 -0.841357 -0.199524 -0.359361 -0.000721 -1.087940 -0.537189 0.378679 0.936212 1.155870 -0.330974 0.873755 0.553912 0.571354 -0.529298 0.403374 -0.384540 -0.454808 -0.794326 -0.419933 -0.510574 0.243030 0.172329 -0.241111 0.041062 -0.649114 0.740795 -0.974308 0.237239 0.148863 -0.196168 0.661276 -0.135372 -0.331356 0.332652 0.380565 -0.136727 -0.150926 -0.786885 0.426902 0.530701 -1.344249 -0.246844 
4265 0.965302 -0.006172 -0.155314 0.141586 -0.490694 -0.904254 0.438505 -0.554323 0.546011 -0.669635 -0.243607 0.449739 -0.648945 -0.100996 0.049053 0.659576 -0.646725 0.761771 -0.609002 0.292173 0.118969 0.357487 -0.939698 -0.359024 -0.466564 0.005127 -0.374325 -0.097393 0.261787 0.134229 -1.064978 -0.531412 0.188549 0.088094 -0.024507 -0.832714 1.028995 -0.615016 0.827940 -0.010440 0.312131 0.244710 0.157306 -0.177925 -0.017401 -0.136381 -0.899671 -1.191592 -0.408841 -0.879032 
4945 0.284417 -0.063874 0.090303 0.083576 -0.266203 -0.291730 1.184958 -0.463135 0.693259 -0.544503 -0.332650 0.052826 -0.412161 -0.296889 0.145453 0.357575 0.253688 0.356132 0.023634 -0.614076 0.000401 0.530603 0.280893 0.464505 0.360340 -0.272723 1.152976 -0.210765 0.655472 1.465325 -0.827709 -0.057547 -0.183561 -0.534647 -0.361371 -0.247107 1.000036 -0.398896 -0.119872 -0.305786 -0.491297 0.083200 0.055167 0.145179 0.911058 -0.227520 0.130493 -0.527075 -0.325945 -1.128706 
2412 0.030417 -0.578725 0.326208 0.370183 -0.546609 -0.256011 -0.795707 0.184008 0.010647 -0.307135 0.388912 0.475678 -1.226724 0.442379 0.570357 0.283076 0.241745 0.179412 -0.138162 0.271645 0.023278 0.596424 -0.117651 0.053788 -0.416928 0.754705 0.144358 -0.500703 0.027294 -0.298249 -0.504092 -1.217339 -0.408227 -0.231403 0.478180 0.337046 0.006612 -0.080550 0.919701 -1.127855 -0.400099 -0.306563 -0.976541 -0.579522 0.944356 0.368387 0.913193 0.665259 -0.413923 -0.423764 
2240 -0.216379 -0.502247 1.043197 0.462995 -0.141650 -0.315806 0.156156 0.476386 0.162436 0.513861 -0.278450 0.326864 -1.036915 0.832076 0.349039 0.422171 0.567905 0.747657 -0.151209 0.634290 0.323922 0.072925 -0.558056 -0.717835 -0.273183 0.246256 -0.062021 -0.417079 0.435426 -0.344515 -0.585266 -0.655526 -0.325380 0.193674 0.344303 0.239831 0.063154 -0.599134 1.331772 -1.003617 0.217353 -0.130040 -0.763942 -1.090207 0.366463 0.052181 1.239761 0.518802 -0.752865 -0.506158 
1437 -0.481463 -0.172855 0.701489 1.145133 0.559406 0.592441 -0.305961 0.104996 0.603005 -0.381748 1.227191 -0.347081 -0.837025 0.552952 -0.114828 1.782309 -0.152040 0.247054 -0.226445 -0.583729 0.092548 0.872364 -0.596829 -0.269502 0.192490 -0.612127 -0.282455 0.522681 0.231300 0.921065 -0.057856 -0.897996 -0.080502 -0.031546 -0.783103 0.740272 0.021797 -0.193482 -0.575814 -0.660448 0.319980 -0.137708 0.031971 -0.744223 0.567790 -0.565943 -0.132288 0.519400 -0.735557 -1.220847 
3138 -0.095334 0.261001 0.684900 1.042185 -0.419933 -0.349809 -0.296177 -0.946137 0.124890 -0.477472 0.562058 0.191205 -0.628829 -0.084267 -0.477941 0.271297 0.380228 0.198031 0.732480 -0.754133 -0.001271 0.518001 -0.111469 -0.355474 0.245738 -0.911772 -0.457385 0.240517 0.606343 0.510339 0.716121 -1.107678 -0.066745 1.210967 0.131396 -0.603142 0.619031 -0.578541 1.268976 -0.759863 0.475027 -0.435711 0.219169 -0.295293 0.399303 -0.815535 0.277821 -0.169707 -0.835397 0.236349 
336 0.884466 -0.157593 0.916829 0.712190 -0.142126 -0.675869 -0.248216 0.789907 0.692082 -0.449515 0.252093 -0.023954 0.025068 0.570385 -0.049377 0.167610 -0.014005 0.046068 -0.503545 0.168235 -1.049439 0.422408 -0.605724 0.499825 0.577167 -0.885699 -0.783292 0.010185 0.585268 -0.072053 -1.115174 -1.157473 -0.297409 0.559212 -0.237023 0.363343 0.786577 -0.429610 -0.093483 -0.057516 0.164442 -0.778752 -0.338492 0.656690 -0.522767 0.098532 -0.251711 0.785150 -1.058123 -0.414948 
1863 1.037454 0.074829 0.596626 -0.202803 -0.329882 -0.175578 0.175370 -0.361118 -0.244411 -0.437831 0.207691 -0.496485 -0.834846 -0.465504 -0.662404 -0.075812 -0.088661 0.218302 0.191293 -0.088347 -0.191033 1.009751 0.836191 -0.919039 0.411280 -1.076629 -0.436771 0.102844 0.040169 0.306390 0.289317 -0.078794 -0.592813 -0.114043 -0.492391 0.470244 1.049123 -0.180526 1.246935 -1.181630 -0.603327 -0.931183 0.110450 -0.268529 -0.354556 -0.421207 0.783574 0.073122 -0.184034 -0.330313 
1354 0.186859 0.085842 0.161401 1.416125 0.151479 -0.371998 -0.179032 0.559832 0.162661 0.278863 0.274873 0.586027 -0.196488 0.599023 0.760320 0.453135 -1.664956 0.210182 0.598684 0.509610 -0.908353 -0.229396 0.712031 -0.343325 -0.390141 -0.844310 0.235650 0.155845 0.280564 0.155874 -1.036391 -0.280018 0.137857 0.949833 -0.085953 0.958400 0.093172 -0.477768 -0.176998 0.005830 -0.512736 -0.084999 1.011970 -0.325454 0.149544 -0.800180 0.156809 0.480919 -0.594446 -0.984895 
3674 0.021425 -1.435592 -0.337322 1.356860 -0.432964 -0.305878 0.018982 0.474738 0.091698 -0.388960 0.752603 -0.632267 -0.771963 0.303116 -0.202481 0.070193 0.495789 0.142050 -0.159062 -0.594957 0.470648 0.678353 1.495277 1.187402 -0.187703 -0.351590 -0.097244 0.319568 0.370026 -0.811883 -1.035294 0.221006 0.378557 0.136950 -0.479573 -0.995683 0.004303 -0.014593 0.525190 -0.006014 -0.031625 -0.105145 -0.094473 -0.008472 0.656571 -0.006835 0.229687 -0.522870 -0.239590 -0.546606 
1861 1.128350 0.142409 -0.738505 -0.174789 0.296244 0.123265 0.482377 0.472157 0.061122 -0.276817 0.657321 -0.766384 -0.188656 -0.021279 -0.885311 0.608691 -0.299139 0.571728 0.090728 0.561919 0.134511 0.768239 -0.332230 -0.417926 -0.122699 0.309414 -0.033474 0.742262 0.281287 0.505755 -0.135910 -0.341993 -1.072556 0.387915 -0.973051 0.193211 0.517316 -0.104419 0.513024 -1.178418 -1.161767 1.188693 0.053793 -0.254267 0.026911 -0.230011 0.241613 -0.066770 -0.617034 -0.201425 
2265 0.876101 0.433469 -0.640984 0.791523 -1.028088 -0.900015 -0.083590 -0.101553 1.017306 -0.435377 -0.091550 -0.286303 0.199839 0.373227 -0.118424 1.009659 0.822146 -0.041368 -0.070612 0.138026 0.008972 -0.343147 0.856751 -0.042324 0.185340 -0.999804 -0.413456 0.484064 -0.460550 0.532867 -0.566624 0.382808 -0.147070 -0.135110 0.186810 -0.039014 -0.322440 -0.154985 -0.546881 -0.851985 0.836483 0.838865 -0.123234 0.356249 0.452324 -0.234234 -0.453269 -0.260078 -1.223497 -0.122337 
671 -0.331984 -0.564085 -0.783035 0.010268 -0.823665 -0.994831 -0.484877 -0.958496 0.893585 -0.445810 0.440091 -0.056549 -0.120408 -0.680006 0.108722 0.046057 0.642416 -0.387029 -0.016552 0.126574 -0.452181 0.018464 0.702685 0.070539 -0.104871 -0.075398 -0.482233 -0.233987 -0.132135 0.742645 -0.052176 -0.322235 0.653433 0.310640 0.384631 0.698534 1.674372 0.422907 0.162266 -0.091501 -0.020362 0.678053 0.467204 -0.591721 -0.409051 0.120772 -0.179761 -0.670979 -1.041132 -0.472570 
3795 -0.410345 0.178232 -0.175050 0.874284 0.023936 -0.612856 0.323907 0.885693 0.468532 -0.550073 -0.090471 1.152773 -0.933389 -0.166082 0.362639 0.571754 -0.124385 -0.280775 -0.786333 0.238627 -0.073013 0.269437 0.604123 -0.110177 0.579674 -1.220993 0.411428 -0.237654 0.231918 -0.021310 -0.025596 0.414276 0.518935 0.302046 0.462399 0.185991 0.696364 0.315638 -0.223835 -1.110638 -0.144240 0.298926 0.306977 -0.674179 0.926747 -0.688532 -0.682711 0.336420 -0.067736 -0.787029 
1229 -0.559045 -0.727323 0.205937 0.018747 0.599928 -0.951820 -0.517965 0.508623 0.658935 -0.407437 0.578871 -0.198601 -0.166999 -0.259419 0.374668 -0.139653 -0.205291 0.020374 -0.008448 -0.546738 0.402278 0.074346 0.892206 -0.311041 -1.066327 -0.374530 -0.789322 -0.470304 0.276388 -0.165510 -0.695949 -0.391754 -0.615993 -0.647865 -0.708286 -0.737933 1.162389 -0.625978 0.337521 -0.018784 -0.634821 0.946009 0.785101 -0.964672 -0.153349 0.022485 0.559000 0.602829 -0.176074 -0.621394 
407 -0.958744 -0.095052 -0.326742 0.906980 -0.684464 -0.355841 -0.927089 -0.100465 0.531718 -0.178536 -0.031631 0.055449 -0.669938 0.241457 0.370822 0.406427 -0.194785 0.296478 0.924037 1.231789 0.549993 -0.411729 0.847068 0.224688 0.919415 -0.266524 -0.187305 -0.262512 0.775267 0.722004 -0.167409 -0.693228 0.329321 -0.487505 -0.284565 -0.225143 -0.422678 -0.309127 0.587821 -0.090595 -0.491484 -0.076051 0.340250 -0.138633 0.182570 0.408245 0.811135 0.077383 -0.984516 -1.638571 
3962 1.146242 -0.916632 -0.279352 1.272337 0.116062 -0.738354 0.163121 0.700831 1.062156 0.066486 0.089746 0.274811 -0.587955 -0.350905 0.345864 0.649994 0.229013 0.985863 0.124057 -0.118553 0.015934 0.096691 0.253234 -0.136920 -0.745491 -0.390704 0.684105 0.451937 -0.394414 -0.337230 -0.588960 0.499751 0.283136 -0.496043 -0.471175 -0.925190 0.083771 0.404025 -0.982472 -0.123240 -0.194779 0.044140 -0.138964 -0.171782 0.171800 -0.136837 -0.196342 0.411309 -0.208820 -0.458554 
4414 0.593903 0.612570 0.515660 0.696605 0.149830 -0.859773 0.584347 0.051251 0.180311 -0.051168 -0.139848 -0.475993 -1.127215 0.431866 0.460747 -0.315831 0.068421 0.700499 -0.456139 0.501598 0.215571 1.194198 -0.152143 0.206572 0.110295 -1.659906 0.801753 -0.175032 -0.056004 -0.558144 -0.610887 -0.359596 0.281241 0.296682 -0.161434 -0.502961 0.418618 1.223944 0.606615 0.232051 -0.129504 -0.051075 0.552030 0.584408 0.186691 -1.089165 -0.317848 0.349786 -0.442493 -0.239862 
4083 1.181159 0.216079 -1.131506 0.997680 -0.464942 -1.185767 0.001006 0.160786 0.559802 0.097613 -0.267016 0.446897 -0.476419 0.030471 0.182610 0.714992 0.985840 0.077833 0.151907 -0.667603 -1.160742 0.216203 0.231471 0.754904 -0.710324 -0.696656 -0.254649 0.627564 0.175182 0.400961 -0.234305 0.516218 0.175252 0.101573 0.679582 0.056393 0.187424 -0.716724 -0.110557 -0.307113 0.379945 0.588582 0.027356 0.719697 0.405531 -0.076554 -0.407264 -0.215911 -0.844255 -0.534669 
4381 0.672195 -0.061010 -0.127995 1.624620 -0.049242 -0.595212 -0.239121 -0.234816 1.130707 0.114918 0.049880 -0.561554 -0.536199 -0.030971 -0.824743 0.118988 0.081708 0.230716 0.486059 0.296443 -0.776627 0.673332 -0.172428 0.417176 -1.360441 -0.923266 0.708850 0.194783 0.435591 0.104022 0.041805 0.480545 0.458214 0.535244 -0.178860 -0.325156 -0.377706 0.129209 0.473376 -0.017142 0.141989 -0.395135 -0.006469 -0.263864 -0.521142 -1.036803 -0.506533 0.515701 -0.695364 -0.232668 
1382 -0.506039 -0.020839 -0.744233 0.241328 -0.009430 -0.444463 -0.517676 -0.022749 0.073681 -0.474210 0.710232 -0.094321 -0.039728 -0.493962 -0.139719 0.359605 0.268623 -0.568666 -0.151237 -0.122804 -0.272693 0.476710 0.605633 -0.154243 -0.363273 -0.148841 -0.966736 -0.796727 0.277192 0.220395 -1.265654 -0.283791 0.249846 0.086464 0.445267 0.667076 2.251562 0.126959 0.447285 0.578105 -0.324646 0.417878 0.070077 -0.732035 0.087606 -0.213812 0.118407 -0.005701 -0.783353 -0.257636 
3672 0.626557 -0.539748 -1.027600 0.213010 -0.411262 -0.640125 -0.082017 0.662912 1.600878 0.200633 -0.087029 0.031943 0.145869 0.268394 -0.204666 0.812529 0.664447 -0.224390 -0.330142 -0.015590 -0.256964 0.272053 1.087791 -0.287592 0.237104 -1.172248 0.480590 0.252207 -0.516411 0.542734 -0.494035 -0.628167 0.095985 0.490795 0.059978 0.429728 -0.083097 0.329128 -0.197360 -0.542145 0.873787 0.720032 0.610441 -0.273651 -0.111284 -0.326229 -0.776280 -0.592560 -0.751570 -0.473566 
732 -0.912710 -0.897509 0.100877 0.092750 0.772689 -0.077335 -0.650456 0.870613 0.871463 -0.762981 0.056367 -0.512573 -0.507100 -0.190165 -0.199346 -0.455663 0.286216 0.177708 -0.171896 -0.273652 -0.040267 0.384908 -0.321721 -0.794253 -0.462423 -0.312662 -0.734098 -0.563411 0.368890 0.183633 -0.913535 -0.006454 -0.387457 1.125820 -0.528094 0.187524 0.179114 -0.547124 0.486863 -0.397386 -0.044908 1.072010 1.078846 -0.538506 0.033633 0.134944 -0.048769 -0.147125 -1.197071 -0.599145 
4997 -0.070489 -0.941535 0.337546 1.005409 -0.093672 -0.668133 0.469842 -0.406500 0.015844 -0.640106 0.105641 -1.030078 -0.511683 0.450195 0.391228 0.154366 0.736621 -0.105012 -0.343293 -0.161645 -0.596220 0.337628 -0.262201 -0.426964 -1.018234 -0.180556 0.115868 0.930136 -0.220267 -0.254612 0.014436 -0.752435 -1.073471 -0.094666 -0.564889 -0.833743 0.663260 -0.614245 -0.686911 -0.011965 0.113508 0.911827 0.440824 0.686982 0.034433 -0.521808 0.268251 0.714426 -0.612338 -1.069880 
206 -0.551235 -0.854808 -0.014858 0.967811 -0.388338 -0.258637 0.158118 0.776609 0.351656 0.008706 1.126910 0.254306 -1.039937 -0.022400 -0.399562 -0.647681 -0.512227 0.145894 -0.132352 0.725475 -0.057614 0.819195 -0.462734 -0.366454 -0.118174 -0.263459 0.516218 -0.182537 0.400855 0.237415 0.136333 -0.375695 0.073965 0.309367 -0.445503 0.437074 0.573431 0.529198 -0.919326 -0.888862 0.121960 -0.239731 0.693257 -0.238240 0.547855 -0.061566 0.075641 0.615696 -0.457181 -1.236927 
4397 0.570060 -0.433960 -0.769688 0.537200 -0.524472 -0.538731 -0.739147 -0.010690 1.344641 0.046060 0.412328 -0.077593 -0.532148 0.555106 0.395656 0.694294 0.042362 0.004844 0.362973 0.314586 0.376639 -0.298776 0.971034 0.257662 -0.302903 0.195037 0.732798 -0.534252 0.354051 0.926043 -0.292682 0.405858 0.071294 0.099747 -1.434129 0.489690 0.354603 0.048818 0.393862 0.690891 -0.139434 -0.258318 1.183492 -0.149823 -0.345433 0.138616 -0.367481 0.085158 -0.364688 -0.533846 
874 0.325040 -0.592723 -0.156522 0.462945 0.631634 -0.343542 -0.434098 -0.317173 -0.052271 -0.116207 0.155178 -0.064975 0.278210 1.232250 -0.444733 1.018325 0.164881 0.661959 0.684163 0.292497 -0.198422 -0.466965 0.501143 -0.325707 0.300031 -1.972115 -1.075809 -0.387474 0.090851 0.435115 -0.118435 -0.419916 -0.354362 0.239350 -0.346468 0.526564 0.344630 -0.635181 0.790307 -1.190774 0.191348 0.981773 0.028501 -0.640220 0.293874 0.144703 -0.356053 0.169107 -0.464006 -0.637222 
2635 1.077550 -0.230361 -0.131326 0.444200 -0.041266 -0.489260 -0.168238 0.607380 -0.838991 -0.041956 0.962128 -0.607059 -0.377951 -0.146161 -0.237823 0.890029 0.750083 0.209601 0.320384 0.352085 -0.647756 0.321081 0.337797 -0.497386 0.844909 0.669373 -0.374091 -0.607734 -0.718239 0.201610 -0.921688 -0.292397 -0.192357 0.316082 0.297048 -1.017182 0.830439 0.139230 0.578710 -0.751813 0.609313 0.031523 -0.506479 -0.386189 -0.756276 -0.545405 0.707337 0.013192 -1.685915 0.241047 
1727 -0.063303 -0.278134 0.200922 0.135550 -0.279289 -0.629769 0.037178 0.382405 -0.169759 -0.235684 -0.206837 -0.315822 -1.030149 -0.167288 0.550376 0.692051 -1.226004 0.079980 -0.314521 0.606495 -0.007279 0.628311 0.285588 0.269639 -0.700503 -0.836245 -0.365542 -0.253483 -0.218619 0.773968 -0.585557 -1.503119 0.047959 1.042130 -0.906810 0.552367 0.784409 0.950827 -0.283079 -1.187745 -0.071358 -0.037420 0.596610 0.121117 0.679568 -0.288603 0.254656 0.297447 -0.084551 0.857305 
4637 0.750905 0.649799 -0.702906 1.299353 -0.326794 -1.092792 -0.148591 -0.073277 0.320798 0.277902 0.214099 -0.536808 -0.269061 -0.015129 -0.132507 -0.182546 -0.298256 0.925263 0.649105 0.790121 -0.191930 1.122040 0.369813 0.295522 -0.652347 -1.343088 0.594526 -0.641298 0.224373 -0.311357 -0.201274 -0.008549 0.207810 0.339598 -0.301918 -0.576988 0.074278 0.720835 0.944944 0.438166 -0.368880 -0.546151 0.215616 0.096942 0.595695 -0.718110 -0.755866 -0.364842 -0.464029 -0.101618 
1664 0.565433 -1.230307 0.006856 0.377328 0.362572 -1.020420 -0.665751 0.051221 1.559596 0.761509 -0.539321 -0.237716 0.233011 0.489628 -0.383698 0.218465 0.516733 0.197190 -0.219017 0.018524 -0.418289 0.440547 0.117857 0.191549 0.657586 0.107876 -0.286536 0.126581 -0.291786 0.803525 -0.588326 -0.618161 -0.094239 0.461720 0.060745 0.838881 0.570982 -0.192409 0.089628 0.185267 1.180372 0.573590 0.608430 -0.160209 0.530102 -0.673447 -0.106300 -0.449153 -1.175357 -0.321622 
3093 -0.703423 -0.105316 0.770059 0.528565 -0.203115 -1.435875 -0.272645 -0.469296 0.284877 -0.023156 0.212221 0.228343 -1.563488 0.581795 -0.642030 0.972804 0.416037 0.289784 -0.109319 0.516976 0.470923 0.048760 0.151106 -0.158897 -0.855017 -0.252573 -0.195731 -0.186421 0.160722 0.235236 0.238180 -0.154425 -0.301121 0.043845 -0.085908 1.145296 0.840839 -0.123494 0.301321 0.052713 0.482672 -0.796544 0.425903 -0.089279 -0.487619 0.001908 0.052883 0.146208 -0.228066 -0.057614 
2123 0.523458 0.345421 0.289742 -0.143924 -1.681106 -0.017646 0.255669 -0.418373 0.639010 -0.208254 -0.017985 0.467498 -0.798578 -0.158392 -0.463120 -0.044307 0.862402 0.062096 -0.390745 1.314336 -0.111757 1.351987 -0.006791 0.306728 0.116963 0.181051 0.300865 0.187292 -0.384894 0.534150 -0.281638 0.143764 0.230817 -0.204222 0.012620 0.042430 0.911650 -0.063452 0.327108 -0.274500 0.346611 0.118765 0.740447 -0.830451 0.310288 -0.982869 0.375023 1.350758 -0.714046 -0.545621 
763 0.292612 -0.385324 0.521389 0.866496 0.447264 0.393819 -0.341492 1.047922 0.157157 -0.547903 1.258445 -0.059995 -0.641093 0.037247 -0.019602 0.825691 -0.033477 0.061708 -0.101056 0.179395 0.679014 0.647582 -0.170520 0.704332 -0.347880 -0.162298 -1.006523 0.283104 1.081316 0.702355 -0.014781 0.474650 0.161653 0.210222 -0.288365 -0.221597 0.133598 0.078625 -0.055318 -0.009856 0.212464 0.504397 0.653814 0.744217 0.996835 0.655086 -0.027448 0.530061 -1.219694 -0.519819 
3766 0.684871 0.108110 -0.460722 1.559874 -0.421310 -0.632881 0.717874 0.808029 -0.110212 0.578163 0.266923 0.094872 -0.665328 -0.111562 1.395996 0.999925 0.249590 0.222132 0.061906 -0.282106 -0.414781 -0.392009 -0.028763 -0.402698 0.137123 0.410552 0.049753 -0.035601 -0.224320 0.119487 -0.440915 -0.402609 -0.455811 -0.100974 -0.400184 -0.196377 -0.382642 0.109422 0.297215 -0.808691 0.725776 0.420743 1.039652 0.118194 -0.564806 -0.709009 -0.248981 -0.277089 -0.964561 0.351292 
3609 0.599247 0.365673 0.101746 0.568627 0.122281 -0.335552 -0.244954 -0.688420 0.350926 -0.871995 -0.381878 0.053626 -1.108691 0.102773 -0.287377 0.705251 -0.168434 0.712046 -0.482901 0.630584 0.230423 -0.592370 -1.062672 -0.428587 -0.155258 0.064854 -0.136312 -0.375817 0.551305 1.004616 -1.160678 0.306519 -0.064350 0.308339 0.268716 -0.643454 0.625081 -0.136548 0.718799 -0.672490 0.088780 -0.321472 -0.236548 -0.339682 0.383190 -0.030772 -0.328451 -0.508065 -0.911070 -1.258405 
756 0.010777 -0.023587 -0.204688 0.864226 -0.896456 -1.293407 -0.193660 0.604638 0.692717 0.404429 0.540649 -0.527839 -0.354760 -1.127055 0.223598 0.436500 -0.364430 -0.352810 0.666452 0.783211 0.260454 0.632001 0.385954 0.123077 -0.486808 0.764976 0.072329 -0.053036 0.196401 1.087674 -0.100860 0.024697 0.501539 -0.009942 -0.770362 -0.118471 0.881145 -0.760114 0.028105 0.566530 -0.521250 0.457109 0.603391 -0.470325 -0.787994 -0.128131 -0.144801 1.246600 -0.520435 -0.442172 
184 -0.599165 0.085864 1.184602 0.503574 -0.614719 -0.603141 0.347997 0.963390 0.087603 -0.063347 -0.016785 -0.476403 -0.688204 -0.359875 -0.585194 0.781859 0.273735 0.844495 -0.049020 0.016285 0.473097 0.033330 0.093473 -0.951346 0.826064 0.378768 -0.094811 0.149882 0.857897 0.804592 -0.355895 -0.310770 1.076038 -0.431603 0.112677 -0.052978 0.026853 -0.255456 0.232317 -0.764984 -0.396075 0.578959 1.267406 -0.350706 0.088580 0.221292 -0.468359 0.339037 -0.569433 -0.793676 
2249 0.750664 -0.282124 0.156356 -0.089539 -0.079341 -0.436298 0.628075 0.277547 -0.164162 0.361964 -0.056502 -0.449472 -0.138869 0.128903 0.521341 0.637750 0.008056 0.152476 -0.033017 0.310418 -0.239068 0.747465 0.861031 0.088882 0.491659 0.557944 -0.982695 -0.263344 -0.401742 0.435066 -0.106963 -0.295363 -0.065090 0.519684 0.105179 -0.194233 0.669515 -0.856757 0.470406 -1.081462 0.391018 1.138006 -0.396723 0.344869 -0.235922 0.581308 0.353722 1.074908 -1.266975 0.465143 
1144 -0.006108 -0.556437 0.238359 0.362495 -0.000321 0.257299 -0.455081 0.627499 1.244657 0.172748 0.581293 -0.127594 -0.244230 -0.260676 -0.398350 0.607299 0.161093 0.100944 -0.707713 -0.206056 0.383590 0.262895 -0.202491 0.218656 -0.649122 -0.224035 -0.036478 0.497178 0.618493 0.419223 -0.414674 0.651614 -0.022596 0.041746 -0.751400 0.048985 -0.283693 0.290487 -0.539005 -0.898714 -0.187529 0.919718 0.804282 0.075348 1.070913 0.420359 0.303695 0.978319 -1.059703 -0.759607 
4348 1.146433 -0.540507 -0.621301 0.737013 0.308145 0.132556 -0.363655 0.280917 0.777481 -0.192541 -0.279355 -0.678509 -0.822132 0.318665 -0.492061 -0.098076 0.745153 0.565588 -0.069749 0.892407 -0.097497 0.110555 -0.338522 0.196041 -0.341324 -1.475681 0.221877 0.357290 0.448343 0.483912 -0.484541 -0.357657 0.269547 0.556480 -0.714897 -0.079642 0.403950 -0.043194 0.345818 -0.065368 -0.115769 1.291648 0.062071 -0.460717 -1.301737 -0.445684 -1.331745 -0.247194 -0.356370 -0.629944 
3861 0.463007 0.163568 -0.040077 0.847721 0.719922 -0.198248 -0.199889 -0.834271 0.568897 0.205646 -0.256047 -0.004379 -0.824030 -0.188040 -0.337168 0.825506 -0.655855 1.176849 0.016509 0.285743 -0.061068 0.773026 -0.106323 -0.638797 -0.540246 -0.082728 -0.051857 0.199971 0.265140 0.333431 -0.282752 0.300142 0.230521 1.553135 -0.015270 -0.630259 -0.193361 -0.120233 0.357061 -0.526341 -0.713412 0.074863 -0.227655 -0.126111 0.047024 0.170773 -0.209268 0.369226 -0.031883 -1.001434 
1738 -0.332979 -0.273968 0.208325 -0.128826 -0.038083 -0.265995 0.062967 -0.204568 0.122833 -0.197230 0.374948 -1.441276 -1.269286 0.422820 1.043030 1.664537 -0.485162 -0.066358 -0.393357 0.555624 0.306054 0.840501 0.735392 0.354798 -0.274766 -1.029050 -0.249381 0.749518 0.389318 0.738435 -0.044602 -0.353126 -0.088736 0.077623 -0.671676 0.369515 -0.093375 -0.075726 0.172562 0.174204 -0.811284 0.476745 -0.426425 -0.950026 0.907705 -0.216217 0.468153 0.021752 -0.226096 0.189670 
3274 1.091936 -0.425544 -0.154569 0.508500 -0.599387 -0.169969 0.229196 0.179265 0.192280 0.391658 -0.112874 -0.875787 -0.643768 0.181940 -0.182991 0.933242 0.485135 0.212952 1.224502 0.307776 -0.300270 0.726666 -0.461559 -0.644774 -0.378574 0.754756 0.109857 0.212246 0.270018 -0.683711 -0.064953 -1.076647 -0.742807 -0.242752 0.096478 0.706918 0.260365 -0.011604 -0.090088 -1.430224 -1.030262 0.176708 -0.128336 -0.376610 0.191646 0.064278 0.347295 0.832150 -0.741867 -0.024679 
4102 0.305716 -0.804524 0.578185 0.216365 -0.711456 -1.285904 -1.171858 -0.345970 -0.575352 0.152813 0.127022 0.118228 -1.230641 -0.234812 0.195977 -0.383874 0.513199 0.275849 -0.991338 -0.924274 0.149163 0.417579 0.419188 0.492709 -0.191996 -0.618313 0.771646 -0.752415 0.202510 0.041014 -0.691399 -0.059813 -0.061340 -0.284050 -0.150226 0.028734 0.182420 0.002686 -0.237927 -0.367929 -0.370584 -0.016191 -0.006011 -0.597955 -0.556340 -1.210020 -0.013301 -0.169700 -0.817369 -0.939371 
2090 0.029956 0.070270 0.419132 0.309199 -0.035494 -0.696204 0.445557 -0.712838 -0.171433 -0.006548 0.273334 -0.959061 -0.179570 0.810181 0.009766 0.602605 -0.759867 0.577637 0.179807 -0.560612 0.183244 0.368453 1.030453 -0.172169 0.507619 -1.474504 -0.238753 0.326898 -0.419408 0.503798 -0.725316 -0.247468 -0.071786 0.743705 -0.408828 -0.422121 1.289818 1.109823 0.604529 0.010967 -0.051242 0.686608 -0.224841 -0.311588 0.123129 -0.274427 -0.106588 -0.051047 -1.625195 0.431944 
1532 0.448028 0.351961 0.187005 1.260255 -0.867316 -0.916766 -0.000819 1.626434 1.111975 0.204530 0.880360 0.195302 -0.230616 -0.449796 -0.109033 0.104695 0.424020 0.190355 0.744047 0.490059 -0.184882 0.253020 0.681864 -0.231591 0.409799 -0.231099 -0.937749 0.394237 0.512525 1.010771 0.121307 -0.670842 0.414532 -0.641242 -0.991782 -0.417180 0.637197 -0.431153 -0.126560 -0.031601 0.084084 -0.563203 0.036032 -0.521721 -0.482123 0.010913 -0.410683 0.419346 -0.481240 0.175964 
2440 0.814094 -0.660667 -0.484658 -0.083477 -0.254627 -0.964478 -0.106921 -0.530030 0.520314 -0.021250 1.043753 -1.188114 -0.412361 0.516702 -0.190904 0.702529 0.312006 0.484723 1.039960 0.959267 -0.099139 0.564901 0.779298 0.094499 -0.557831 0.213095 0.554051 0.466980 0.673125 0.425754 -0.220461 0.181753 -0.801943 -0.108891 0.222448 0.527161 -0.063233 -0.906297 0.671994 -0.605286 0.036788 -0.966543 -0.444563 -0.178043 -0.005037 -0.110417 0.768120 -0.509471 -1.009036 -0.457370 
2947 -0.013360 -0.555552 -0.160363 0.568175 -0.233899 0.318042 -0.211286 -0.281091 0.075634 -0.617167 -0.452261 -0.007122 -0.877151 1.191875 0.056672 0.024956 0.459436 0.652013 -0.616333 0.707346 0.167407 0.242127 1.085461 -0.405812 0.222048 -0.144067 0.310243 0.039090 0.104903 -0.674221 -0.157947 -0.975199 0.113776 0.010285 -0.944662 -0.633827 0.792473 -0.747705 0.761309 -0.368208 -0.448840 -1.081018 -0.319722 -0.055287 0.029970 -0.937786 -0.096704 0.210521 -1.453669 0.226317 
2743 0.881460 -0.537147 -0.089433 0.956409 0.301624 -0.201459 0.335850 -0.717629 1.571339 0.999791 -0.404249 0.601893 -0.719181 0.853887 0.241814 1.306377 -0.281513 0.163568 0.221873 0.667780 0.020460 0.454433 0.294268 -0.367001 0.186948 -0.548369 -0.425747 -0.501990 -0.355121 0.323806 -0.659432 0.352512 -0.003891 0.237803 -0.305847 0.257812 0.604038 0.254354 0.515272 -0.203298 -0.514530 -0.205767 -0.587508 0.013273 0.188252 0.027411 0.475965 -0.242947 -0.162753 -0.219836 
4503 0.439134 -0.558329 0.083473 0.259790 -0.606764 -1.192970 1.232000 0.634179 -0.209495 -0.258774 -0.094979 0.111557 -0.662152 -0.461393 1.060437 -0.246952 0.861712 -0.256510 -0.939200 0.252579 0.787345 0.326129 0.606528 0.272962 0.124143 -0.403649 0.420822 -0.456531 0.836621 0.764100 -0.858621 -0.335214 -0.396748 -0.502537 -0.259568 -0.359262 -0.135762 0.372280 0.060782 -0.915631 -0.460532 0.681279 0.398596 -0.061237 1.319287 -0.496038 -0.809096 0.351256 -0.742771 0.037946 
4926 1.175969 -0.678889 -0.510739 -0.133221 -0.122353 -0.907749 0.552994 -0.081064 0.359415 -0.097960 0.591608 0.175807 -1.379062 -0.474684 -0.526888 1.233722 0.100266 0.269978 -0.281976 0.433093 -0.660046 0.559446 0.636892 -0.090459 0.045880 -0.290240 0.098090 -0.768067 1.012190 0.698870 0.779791 0.685550 0.322751 -0.002038 -0.849865 0.151609 0.669920 -0.825677 0.228029 -1.231125 0.256554 0.456880 0.696347 0.178045 0.372592 -0.238834 -1.641022 -0.157940 0.208341 0.421946 
815 -0.016468 0.612637 0.204350 0.923434 -0.171569 -1.053444 -1.107526 -0.117919 0.709861 -1.191234 0.782881 0.972167 -0.046626 -0.517803 0.371120 1.048441 -0.158849 0.450966 0.576100 0.249631 0.417220 0.202205 -0.334094 0.723969 0.504737 0.105627 0.080536 -0.136185 0.650402 0.470383 -0.241015 -0.583383 0.090303 -0.738851 -0.043946 0.485207 0.434511 -0.579145 0.785210 -0.252801 0.788324 0.138520 0.524356 -0.331116 0.315155 -0.455282 0.506524 0.166584 -0.388995 -0.670036 
2167 0.659490 -0.707092 0.106373 0.584982 -0.913307 -0.470161 1.014453 -0.423887 0.112058 -0.169491 -0.101437 -0.259221 -0.192078 -0.011459 0.683595 0.308957 0.277816 0.748906 -0.145409 1.421317 -0.207917 1.054946 0.988336 -0.565776 0.064319 0.293330 0.276298 0.503386 0.059079 -0.307597 0.160361 0.054278 -1.111197 0.083430 -1.104173 0.472408 1.396149 0.162279 0.136832 -0.604479 0.308370 0.600182 -0.244759 0.586201 0.270159 -0.128295 0.036580 -0.082583 -0.868997 0.422200 
1435 -0.072754 0.152099 0.450217 0.777405 -0.195119 -1.901210 -0.753300 -0.361050 0.437387 -0.410773 0.144126 0.058132 -0.438727 0.211861 -0.396049 0.511930 0.391996 0.667016 0.492703 0.197921 0.063916 -0.580796 0.169490 -0.271798 -0.800235 -0.058121 -1.007205 -0.861048 0.175100 0.070717 0.336397 -0.718221 0.361595 -0.081098 -0.496211 1.064130 0.742965 0.090833 0.895380 -0.441091 -0.185587 -0.875052 0.311191 0.350342 0.389668 0.426544 -0.704757 0.021662 -0.462659 0.192212 
4186 0.190292 -0.518674 -0.634831 0.663514 -0.900437 -0.263936 -0.464929 0.429844 0.421299 -0.385162 -0.232980 0.595078 -1.333087 -0.236680 -0.083004 0.066579 1.327047 0.348596 0.029209 -0.882372 -0.047767 0.191945 -0.227265 0.674400 -0.538485 -0.790994 0.467425 0.186409 0.466003 1.313154 -0.636159 -0.403264 -0.368400 -0.322853 -0.497966 0.553987 0.360712 0.281594 0.401481 -0.703239 0.683563 -0.373163 0.773743 -0.228118 0.930927 0.344825 -0.466569 0.466190 -0.261387 -0.007673 
4045 0.971423 -0.278432 0.158168 0.281913 -0.771806 -0.561472 0.297341 0.290016 0.320034 0.203796 -0.006327 0.398447 -1.389658 -0.119115 0.194393 -0.436691 0.306308 -0.194187 -0.696562 0.697251 0.165537 -0.424633 0.539795 -0.605757 -0.465825 -0.751104 -0.604545 0.412142 0.523477 0.402704 -0.534990 0.388634 -0.419413 0.035056 -0.120382 -0.084785 0.780413 -1.411265 0.525072 0.310953 0.851477 0.523152 0.457331 0.052694 0.438740 0.191137 -0.640807 -0.623785 -0.267698 -1.242904 
4357 0.257713 -0.354020 -0.235463 0.980956 -0.567995 -1.199572 -0.105725 -0.447800 -0.695351 0.145265 -0.338832 -0.303244 -0.570105 -0.264511 -0.602374 0.786810 0.898924 0.549780 0.355960 -0.250433 -0.838981 0.490156 -0.053004 0.744857 -1.137086 -0.446626 -0.206751 0.396988 0.006786 0.568574 -0.612884 -0.345341 -0.231410 -0.179194 -1.592000 -0.486604 0.632805 -0.515256 0.294226 0.535937 0.281185 0.609718 0.221521 0.039750 -0.662429 -0.445660 -0.312549 -0.192637 0.254418 -0.766142 
3421 0.379351 0.426252 -0.416156 0.462592 0.019367 -0.474797 -0.282938 0.077778 0.135686 0.291361 -0.408308 -0.239678 -0.911077 -1.134413 0.384374 0.828234 -0.575684 0.816148 -0.161652 -0.321016 0.480189 0.227787 1.563267 0.573370 0.240608 -1.045572 0.221708 -0.294685 -0.268473 -0.416256 -0.655344 0.044833 -0.088961 -0.195958 -0.861891 -0.835225 0.531829 -0.251334 0.576725 -0.776076 0.624594 -0.323683 0.380095 -0.564835 0.173416 0.929627 -0.675619 0.506007 -1.214064 0.268101 
2407 0.521279 0.669896 -0.988217 -0.167115 -0.657329 -0.100124 0.375831 -0.169724 0.594378 0.726722 -0.292529 -0.226224 -0.757405 0.504204 -0.240958 0.758765 0.503407 -0.244937 -0.065015 0.172832 -0.211396 0.630832 1.079071 -0.706828 -0.195230 -0.331188 -0.607745 0.058213 0.148332 -0.110160 -0.503007 0.222109 -0.634031 0.744498 -0.279555 -0.295337 0.487001 0.062961 -0.374611 -0.783959 -1.458428 0.185951 -0.211636 -0.644200 -0.602091 -0.662649 -0.237093 0.246131 -1.543328 0.143154 
3736 0.694231 0.007258 -0.050295 -0.220818 -0.009174 -1.293761 0.434013 1.007627 0.014754 -0.308467 0.928965 -0.004919 -0.396977 -1.004414 0.823806 -0.451909 0.487152 -0.745260 -0.462032 0.600461 0.143188 1.176176 1.203589 0.768660 -0.037321 0.096039 0.121213 -0.794963 0.158539 0.574116 -0.655949 -0.167603 -0.234476 -0.409787 -0.636512 -0.844166 0.051965 0.282673 0.355578 -0.753137 -0.144953 0.861776 0.337171 0.200403 0.572872 -0.342386 -0.605469 0.122124 -0.768040 -0.404421 
3108 -0.343806 -0.156536 -0.578130 -0.165370 -0.151185 -0.270111 -0.039317 -0.526234 -0.797525 0.635701 0.243478 -0.166752 -0.877951 0.108461 0.136141 0.607904 -0.462515 -0.400627 -0.274970 0.156752 -0.460842 0.007167 0.347851 -0.818249 -0.596304 -0.435558 0.214665 -0.204257 0.679826 -0.324419 -0.951284 -0.831664 -0.501263 -0.275418 -0.051958 0.232749 0.819920 -0.403282 1.259893 -0.762043 -0.235799 0.570638 -0.793484 -0.158537 0.732999 -1.081282 -0.026400 1.090746 -0.703698 -0.568351 
4983 1.404668 0.550362 0.108193 1.054412 -0.169364 -1.215375 -0.315499 -0.840210 0.336661 0.073863 -0.326530 0.630981 -0.152120 1.146181 0.435919 0.557331 0.602440 -0.242792 -0.143997 0.651083 -0.767719 0.100153 0.286998 0.063369 -0.442472 -0.590816 -0.024476 0.361620 0.776609 0.192424 -0.001887 -0.042334 0.126239 0.421784 0.294975 -0.012081 0.078721 -1.087599 0.561454 -0.690364 -0.972524 0.591445 -0.320953 0.006261 0.846501 0.017708 -0.341314 -0.158927 -0.378122 -0.795889 
4089 0.377061 -0.369990 -0.976250 0.145394 0.924077 -1.124305 -0.165471 0.814264 0.204253 0.224448 0.440045 -0.353138 -1.100234 -0.449057 0.979693 0.636766 0.393893 0.851269 -0.451758 0.565646 -0.573478 -0.376714 -0.692958 -0.285024 -0.065064 -0.123226 -0.092227 -0.603525 -0.816107 0.133505 -0.187695 -1.138801 -0.117011 0.007657 0.546894 -0.414123 0.393332 -0.385322 0.861429 -0.451007 -0.091938 -0.052983 0.713029 -0.309120 0.025744 -0.955520 0.451829 0.130879 0.307335 -0.579812 
3928 0.102182 -0.209897 -0.182263 1.256287 0.416915 -0.007206 0.313642 0.323503 -0.217685 -0.370635 0.730504 0.449718 -1.316546 -0.019764 0.612429 0.745586 0.695822 0.184251 -0.330446 -0.148166 0.539450 0.500762 -0.434986 0.215436 -0.264885 -0.081764 -0.250632 -0.060450 1.548052 0.631506 -0.063258 -0.215513 -0.266559 0.583413 0.096597 -0.504007 -0.098181 -0.099619 -0.018897 -0.526109 -0.625603 0.689503 0.429964 1.266611 0.878327 0.671667 -0.267053 0.358534 -0.775487 -0.294609 
3492 -0.090021 -0.671979 -0.540084 1.088269 -0.926619 -1.007756 0.062090 0.022523 -0.866700 -0.312107 0.616174 -0.416420 -0.217764 -0.098338 -0.279808 -0.184562 0.102385 0.551710 -0.486904 -0.410584 0.334907 1.108790 1.066916 0.483562 -0.058429 0.009465 0.723551 0.000875 -0.025085 -0.029451 -1.076852 -0.226955 0.550606 0.484141 -0.826461 -0.927000 0.366724 0.229218 0.176312 -0.353073 0.941089 0.657751 -0.354830 -0.272480 0.076486 0.312072 0.004973 -0.760383 -0.782051 -1.637083 
4923 0.362128 -0.049990 -0.508059 0.711755 -0.294389 -0.583723 1.133445 0.099854 0.223015 -0.020824 1.255463 -1.159515 -0.645268 -0.409832 0.147360 0.226677 0.364306 1.093162 -1.222847 0.854413 0.470272 0.129001 0.158001 0.430807 -0.406339 -0.323574 0.382803 0.146439 -0.010436 0.199255 0.887290 0.085852 0.641917 -0.108604 -0.150333 -0.177291 0.383856 0.190261 0.574704 -0.129843 0.162013 -0.347702 0.962448 -0.389902 0.911543 -0.777842 0.717832 -0.276997 -0.094775 -0.860035 
269 -0.089079 0.138743 0.775109 0.193458 0.722141 -0.693407 -0.081656 1.036546 0.709706 0.218243 0.381471 -0.114022 -1.051021 -0.960954 -0.060139 -0.017034 -0.220740 0.090431 0.043771 -0.560143 0.579917 0.305957 -0.345385 -0.369129 0.163578 0.200844 0.332506 -0.208427 0.686580 -0.236197 -0.023793 -0.178952 -0.080225 0.162659 -0.095964 0.734896 0.594040 -0.178264 0.456516 0.101562 -0.642182 0.922774 1.554069 -0.781336 0.419770 -0.598430 -0.536023 -0.324473 -1.570757 -0.008659 
1667 0.026849 -0.089445 -0.986411 0.466247 -0.343997 0.150807 0.637484 -0.048761 -0.566027 0.286376 0.479097 -0.670437 -0.224038 0.210465 -0.159794 0.678534 -0.245259 -0.324414 -0.042423 0.281854 0.165649 -0.056770 1.328569 -0.452382 -0.413625 0.005147 -0.993728 -0.386245 0.308738 0.358024 -1.316963 -0.892480 -0.143648 0.330653 -0.300869 0.575979 1.427726 0.088732 0.771405 0.742222 -0.655155 -0.091552 0.503573 -0.354055 -0.310698 -0.142653 0.072295 0.271883 -0.867368 -0.124561 
1803 -0.095482 0.041642 0.092159 -0.489299 -0.287191 -0.738343 -0.018107 0.874816 -0.238371 -0.043047 0.662950 -0.356850 -0.403623 -0.782691 -1.268015 0.562053 -0.476448 0.700289 0.214061 0.446438 -0.617340 0.445822 0.635723 -0.517740 0.598813 -0.307825 0.315536 0.275130 -0.098310 0.736152 -0.528408 -0.283664 0.033827 0.003430 -0.070247 -0.150621 0.512244 -0.159387 0.951640 -1.628888 -1.210261 0.652403 -0.532524 -0.047147 -0.962038 -0.501368 0.166875 -0.032713 -1.028707 0.291465 
4959 0.928597 0.117042 -0.119810 0.671128 -1.018149 0.025829 0.165693 0.679295 0.935551 -0.349711 0.388337 -0.171205 0.449242 -0.337700 -0.045469 0.039830 0.775325 0.743688 -0.637064 -0.160142 -0.337973 0.237908 0.517554 -0.431710 -0.943175 -0.169518 1.201494 -0.941310 0.721689 1.104691 -0.609030 -0.539072 0.465834 -0.175210 -0.040394 -0.163065 0.712042 -0.345647 -0.034884 -0.455226 -0.474524 0.246556 -0.226898 -0.448772 -0.508629 -0.282859 0.561938 -0.493396 -0.432514 0.013215 
1540 0.557306 0.314133 0.473241 -0.132769 -0.613678 -0.963496 -0.526056 0.573016 -0.115754 0.416626 0.198859 -0.437425 -0.765578 -1.077146 -0.501359 -0.162802 -0.148309 -0.032176 0.067540 -0.639693 -0.434777 0.925217 0.235227 0.630416 -0.432745 -0.629679 -0.722210 -0.904644 -0.026838 0.183183 -0.339347 -0.205601 -0.421691 -0.023904 -1.633949 0.448078 0.386366 0.071059 -0.311003 -0.248124 0.059383 0.359771 0.132023 -0.939929 0.112728 -0.369239 -0.641854 -0.210706 -0.473912 -1.180065 
1472 -0.218148 0.335995 0.139037 0.128419 -1.028917 -0.262325 -0.193948 0.597889 0.901344 -0.082725 0.420187 -0.218538 -0.179450 0.835842 0.392875 0.351905 0.564759 1.053708 0.443681 0.222730 -0.241929 0.150350 0.236009 1.567238 -0.157198 -1.276103 -0.747253 -0.084515 -1.020470 -0.309053 -0.028005 -0.311007 0.854964 0.271323 -0.126596 -0.152166 0.616442 0.317625 0.380375 -0.910491 -0.597585 0.225839 0.972248 -0.551076 -0.115584 -0.537821 -0.366523 1.410440 -0.407394 -0.538907 
4017 0.655588 0.180610 -0.595531 0.626848 -0.605877 -0.591557 -0.212724 0.145935 0.130485 -0.378637 0.847593 0.660781 -0.987997 -0.337946 -0.453298 0.456041 0.264690 0.564162 0.625987 -0.193360 -1.041736 0.828456 -0.293779 0.003574 0.532977 -0.680257 -0.293226 0.104151 0.732704 0.757220 -0.814419 0.596098 0.695733 1.180774 -0.755094 -0.475457 0.808764 0.397438 0.399392 0.412274 -0.313295 1.007352 -0.620867 -0.659027 -0.307541 0.164051 0.285079 -0.457155 -0.085598 -0.320171 
2754 0.594961 0.038331 -1.115159 0.142411 -0.464577 -1.301178 -0.024604 -0.207287 0.181086 0.419672 0.178114 -0.788242 -0.999271 -0.536693 -0.098171 -0.315821 -0.084894 0.765876 -0.417410 0.288013 0.579286 0.510436 0.592435 -0.510739 -0.915602 0.522645 -1.180005 0.182827 -0.247284 0.556280 -0.418418 0.334639 -1.350778 0.323671 0.578072 0.897915 0.138069 0.146754 1.260519 -0.101392 0.011941 0.899257 -0.400264 -0.651121 -0.256363 -0.147706 0.597259 0.458918 -1.032402 -0.519356 
1615 -0.724944 -0.895184 0.119569 0.690037 -0.545626 0.267279 -0.620018 0.311778 0.326505 -0.879800 0.025082 -0.559822 0.144815 -0.187467 -0.166648 -0.126512 0.094327 0.262400 -0.288752 -0.165972 -0.157356 0.764128 0.006259 -1.132834 0.089377 0.089500 -0.755932 -0.632501 0.489012 -0.503726 -0.537767 -0.164699 -0.073268 1.156538 -0.521210 0.140677 1.181973 0.488369 0.231398 -0.794876 -0.132178 0.809274 0.474032 -0.536751 0.538735 0.488525 0.125566 -0.670930 -1.387828 -0.306838 
3367 1.298000 -0.280904 0.713328 -0.051900 0.512878 -0.099017 0.443607 0.178192 0.761175 0.031300 1.352859 -0.427018 -0.101543 -0.425653 0.271612 -0.559868 0.584783 0.345951 -0.184569 -0.246873 -0.018329 -0.444399 0.251308 -0.167618 0.681553 -0.555313 -0.347812 -0.242642 0.597813 0.210101 -0.837181 -0.605708 -0.191658 1.206091 -0.205232 -0.474180 1.261386 0.355616 0.723879 0.416081 -1.058736 0.546056 -0.395484 -0.415697 0.496118 -0.404436 0.108462 0.185136 -0.749227 -0.887334 
2482 0.067279 -0.203882 0.241997 0.201335 -0.226936 -1.812962 0.025907 0.519117 0.761760 -1.452005 0.666285 0.590047 -0.264027 0.521424 -0.156138 0.368534 -0.059771 0.454969 0.299249 0.551327 -0.331087 0.841543 0.415278 -0.491473 0.668869 -0.936082 0.107914 -0.007140 -0.221746 -0.948779 0.460595 -0.409670 -0.344947 -0.322312 -0.636454 0.027019 0.442073 -0.001479 0.173205 -0.065088 -0.951717 0.942813 -0.425786 -0.446279 -0.989485 0.369142 -0.437742 -0.189305 -0.940560 -0.621351 
4895 0.654001 -0.184164 -0.134905 1.008823 -0.081831 -0.064462 -0.362247 -0.024640 0.913850 -0.385525 0.294731 0.079492 -1.132868 -0.043535 1.685366 0.364440 -0.478866 0.940674 -0.447838 -0.495207 -0.392989 0.509505 0.216572 -0.417172 -0.193595 -0.059476 -0.094904 -0.415954 -0.105155 0.114594 -0.641729 1.110654 -0.017276 0.383118 0.282006 -0.341954 0.041208 -0.355168 0.395893 -0.825049 -0.325514 0.200013 0.564882 -0.043824 -0.906045 0.012785 -0.958419 -0.236078 -0.884592 -0.075046 
1627 0.281175 -0.649562 0.761148 -0.265743 -0.187155 -0.524522 -0.515388 0.296724 0.307646 -0.143121 -0.963821 -0.143903 -0.276948 -0.149306 -0.086227 0.222405 -0.326093 0.162080 0.028145 -0.329758 0.662561 0.268178 0.210102 0.041912 -0.163485 -0.083804 -0.420362 -0.028664 0.143706 1.711484 -0.209710 -0.425503 1.038176 0.351591 -0.603440 -0.704050 1.430613 -0.353942 1.238701 -0.333772 -0.052273 -0.686113 0.758499 -0.412210 -0.123532 -0.686397 -0.146625 1.103592 -0.554907 -0.184800 
4021 0.850115 -0.195739 -0.890810 0.107631 -0.120212 -1.095973 0.671721 -0.446073 0.012517 -0.790845 0.114014 0.066225 -0.404501 0.116220 0.593177 0.292131 0.381956 0.082317 -1.679882 -0.113601 -1.052891 0.288407 0.169727 0.245858 0.320288 -0.106146 -0.403135 0.240722 0.085892 0.525366 -0.912814 0.499050 0.685262 0.030556 -0.534594 0.309169 1.069684 0.582118 0.789722 0.223311 -0.566494 0.013306 0.289301 0.638410 0.170643 0.347632 -0.321416 -0.404722 -1.369828 -0.246913 
2424 0.510429 -0.629965 0.342413 0.418763 -0.276207 -0.780534 0.022260 -0.702902 -0.700236 -0.319109 0.253005 -0.353176 -1.243354 0.033895 0.458522 1.309845 0.777321 -0.484704 0.751209 0.540640 0.616651 -0.289499 1.065442 -0.392330 -0.254323 -0.748087 -0.039002 -0.476596 -0.069927 -0.268773 -0.232318 0.117476 -0.551938 0.869636 -0.223261 0.035443 -0.207889 0.209667 0.843596 -0.399945 -0.261031 0.484919 -0.369320 0.556592 0.001061 0.107400 1.014175 0.590768 -0.780632 0.309485 
3850 0.865070 0.124974 -0.251834 0.499926 -0.215185 -0.596181 -0.815904 -0.439253 0.147119 -0.215126 -0.485222 0.287793 -1.168611 -0.244839 0.010294 0.196406 0.473746 0.924502 -0.125031 -0.703957 -0.592665 1.315589 -0.667051 0.306055 -0.213125 -0.735919 -0.308852 0.271595 0.071703 1.205534 -0.609695 0.301684 0.669953 0.669479 -0.650643 -0.672357 0.710217 0.053568 -0.068294 0.381308 -0.372621 1.061670 -0.177684 -0.977452 -0.771380 -0.272249 0.273021 -0.038088 -0.528911 -0.741513 
176 0.109224 -0.386006 1.313788 1.101798 0.268366 -1.518248 0.454221 0.470595 0.322092 -0.463385 -0.137857 0.138130 0.254390 0.181424 0.633174 0.593690 0.114530 -0.705335 0.407575 -0.500773 0.225560 0.294013 0.037020 0.580231 0.244693 0.071364 -0.069617 0.688109 1.087305 0.379718 -0.524939 -0.114152 -0.238667 0.386534 -0.471658 0.469336 -0.203600 0.150307 0.544107 -0.780259 0.055847 0.764703 0.830954 0.242611 -0.845745 -0.031933 0.424400 0.300176 -1.093626 -1.095815 
1064 0.484086 -0.598695 -0.056286 1.026813 -0.349563 -0.119830 -0.784445 -0.668276 0.656780 0.721613 0.437743 -0.387002 -0.274800 -0.232698 0.510543 0.017608 0.079713 0.133790 0.863679 -0.012498 -0.176606 0.327495 0.140133 0.125062 -0.126630 -0.357567 -0.069052 -1.174334 0.547447 0.246526 -1.338549 -0.684206 0.379758 0.461182 -0.323180 0.001731 0.662636 -0.237688 0.091582 0.542584 1.451443 0.897152 0.102636 0.855136 0.614809 -0.032064 0.050656 1.157774 -0.799598 -0.617563 
3645 0.691263 -0.606126 -0.778014 0.583998 0.028611 -1.181844 -0.211499 0.353053 0.793546 1.028782 -0.192461 0.074973 -1.043196 0.304300 0.421786 0.609401 0.064042 1.160068 -0.073321 -0.210578 -0.742407 0.061245 -0.043832 0.466507 -0.389317 -0.314798 0.147334 0.863263 -0.712764 0.445396 -1.114786 -0.479860 -0.760524 -0.918411 0.091251 -0.686562 0.301472 0.172594 -0.899057 -0.287228 -0.108002 0.038751 -0.220684 0.217467 -0.057391 -0.029668 -0.165934 -0.165362 -0.582985 -0.356008 
162 0.423721 -0.749436 -0.908656 0.032618 -0.134687 -0.596567 0.213624 0.027890 0.005483 0.059922 0.221130 0.795550 0.018431 -0.277004 -0.292557 0.592554 -0.977517 0.424299 -0.126697 1.193154 0.607403 0.242107 0.222308 -0.029782 -0.194492 -0.011208 -0.837231 -0.306262 0.570032 0.449172 -1.505702 -0.320788 0.585902 0.383052 -1.771743 0.315039 0.411608 0.356037 -0.496551 -0.857434 0.582382 1.080638 0.246879 0.272932 0.298065 -0.569741 0.058651 0.725852 -0.662558 -0.295030 
325 -0.211167 -1.013708 -0.568078 0.895906 0.015053 -0.452361 -0.170372 -0.426345 0.461042 -0.550554 0.534298 -0.803022 -0.050918 -0.070359 -0.290258 -0.124030 0.030242 -0.365880 0.086070 0.218806 -0.237951 0.377590 -0.638596 -0.855930 0.786654 0.063513 -0.732000 -0.748532 0.637410 0.407694 -0.064249 -0.627403 0.389076 1.305993 -0.336104 -0.143030 1.144861 0.571239 0.178135 -0.561348 0.383576 0.317128 1.035040 -0.296344 0.162405 0.469087 -0.080381 -0.295203 -0.789921 -0.852648 
107 0.566671 -0.047744 0.805112 0.051679 -0.429761 -0.894779 -0.036649 -0.610017 0.702688 -0.932231 -0.240994 0.133413 0.014784 -0.477986 -0.233505 -0.012669 -0.049871 -0.597784 0.618595 0.414575 -0.598344 -0.263754 0.892321 -0.362825 -0.177237 -0.428493 0.215699 0.652588 -0.034966 0.750319 -0.960271 -0.018119 0.667938 -0.612280 -1.187711 -0.420257 0.660237 0.542741 0.090745 -0.108626 -0.173134 0.015941 1.098979 -1.010919 0.958131 -0.424170 0.811903 0.731005 -1.273250 -0.104625 
834 0.340732 -0.371372 -0.013350 0.370494 0.165617 -1.091954 -0.651632 0.787588 -0.248908 -0.031469 -0.845177 0.327868 -0.448396 -0.859863 0.316833 1.229230 -0.623402 0.050656 0.408643 0.280711 -0.047463 -0.331421 0.600417 0.124103 -0.484984 0.403433 -1.087378 0.442048 0.599251 0.418358 -0.062596 -0.569342 0.700297 -0.235241 -1.128691 0.077617 0.906093 -0.605215 0.465913 -0.773113 -0.482110 -0.959935 0.696960 0.463642 0.582339 0.689474 -0.221670 0.337077 -0.643266 -1.031034 
3013 0.113212 -0.666002 -1.114923 0.347941 -0.831884 -1.040129 -0.152612 0.301668 -0.011561 0.503544 0.950456 0.795039 -0.809698 -0.059905 -1.020446 0.999232 -0.265476 0.763724 0.065059 0.060580 0.302532 0.684645 -0.820439 0.019162 -0.653287 -0.454828 -0.392890 -0.081072 -0.517224 0.705283 -0.702796 -0.077404 -0.675162 -0.066110 0.204063 0.264771 0.064912 0.639068 -0.108852 -0.610041 -0.666578 -0.340214 -0.112761 -0.537270 0.344551 0.528443 -0.157976 0.490419 -1.446749 0.187653 
2706 0.049111 0.138339 -0.072091 0.879460 -0.731098 -0.999220 0.378937 0.018967 -0.080203 -0.292098 0.377100 -0.956126 -1.037302 0.679391 -0.303791 0.236843 -0.464836 0.945085 -0.101742 0.679632 0.510831 0.055959 1.436022 0.450732 -0.086321 0.889172 -0.254219 0.026189 0.263137 -0.069065 -0.743338 -0.777892 -1.152354 0.009897 0.041783 0.794677 1.311709 0.292139 0.045089 0.287392 0.328067 0.399185 1.113148 0.259187 0.337545 -0.279190 0.435106 -0.494730 -0.621257 0.441653 
2730 -0.661814 -0.392472 0.082568 -0.130684 -0.673417 -0.835439 -0.554998 -0.249038 0.090581 -0.365345 0.055839 -0.402305 -0.960737 0.248611 0.253616 1.304252 0.551169 -0.020447 -0.428716 0.128445 0.295949 0.831761 0.113722 -1.400532 0.279669 0.127207 -0.056425 0.114793 0.433535 -0.136990 -0.732818 -0.639893 0.080719 -0.948117 -0.426615 0.350722 1.072379 -0.658493 -0.035077 -0.246738 0.032975 0.687355 0.183490 0.682460 -0.769045 -0.423774 -0.172265 1.101164 -0.330435 -0.235757 
1069 -0.716553 -0.779215 0.615723 0.248430 -0.237814 -0.704253 -0.344511 -0.231159 -0.040126 0.787977 0.867381 0.537701 -0.152601 -0.778505 -0.657981 0.262932 -0.293167 0.531029 0.023750 0.311627 -0.584461 0.046768 1.100737 -0.179388 -0.010223 -0.258797 0.586759 -0.438120 -0.010227 1.169560 0.476246 -0.584841 -0.303493 -0.064271 -0.553504 0.459801 1.208672 -0.544125 0.946472 -1.124881 -0.799848 0.381175 -0.003492 -0.044867 -0.523962 -0.467890 0.629305 0.551201 -0.335746 -0.252917 
1859 -0.137548 0.037154 -0.204479 0.250433 -1.183168 0.183210 0.189241 0.403878 0.673575 -0.462962 0.268504 -0.079765 -0.884246 1.529546 0.048614 0.646703 0.243476 0.925126 -0.388980 -0.077556 0.891945 -0.401815 0.166355 -0.135779 0.139063 -0.218935 -0.991828 -0.320723 0.322445 -0.404154 -0.445993 0.323496 -1.034679 0.197224 -0.396959 -0.504911 -0.340186 -0.029293 1.420968 -0.628439 0.026262 0.144669 0.065777 -0.495787 0.269766 -1.016285 0.590882 0.400597 -0.930395 -0.654658 
1061 -0.073586 -1.071067 -0.389050 0.423464 0.073091 -0.922690 -0.191780 0.730685 -0.395273 0.677143 0.973325 0.637581 -0.312274 -0.214321 -0.706935 1.005016 -0.453752 0.744588 -0.274730 -0.095439 0.345665 1.111483 -0.781579 0.331131 -0.337662 0.396489 -0.319295 -0.688306 -0.169524 0.893724 -0.734298 0.353470 0.573146 0.453810 -0.689553 0.603926 0.495324 0.320896 0.027469 -0.674431 -0.083919 -0.464495 -0.032682 0.058720 0.772992 -0.308494 0.063092 0.398887 -1.413231 0.308761 
1512 0.417976 -0.113286 0.717001 1.012382 -0.715441 -0.207057 -0.441691 -0.441959 0.335870 0.877827 0.573829 -0.267037 -1.286942 -0.858401 -0.359267 0.347055 0.122004 -0.272286 0.928318 -0.054956 -0.851235 -0.391059 0.234099 0.009002 0.176287 -0.273980 0.366637 -0.576038 0.070631 -0.257314 -0.324485 -0.697370 0.159170 0.372564 -0.055371 -0.403065 0.251631 0.332930 -0.177656 0.549452 -0.207629 0.647352 -0.092708 -0.045898 0.849415 -0.666560 -0.526461 1.564293 -1.215291 -0.800942 
3589 1.230761 0.316314 -0.542091 0.877308 -0.331569 -0.343645 -0.769939 0.371893 0.653610 -0.042471 0.746778 -1.168817 -0.898667 0.104443 -0.104330 0.543793 -0.695789 0.349006 -0.435013 -0.155746 -0.536187 -0.309842 1.631377 0.306314 0.211666 0.415729 0.881541 0.014609 0.187329 0.159111 -0.951377 -0.581888 0.013560 -0.105303 -0.443509 -0.350344 1.001366 -0.076755 0.018448 0.067107 0.449516 0.140461 -0.268003 -0.171497 0.307625 0.309515 0.185342 -0.349016 -0.062505 -0.113405 
2429 -0.178056 0.122671 -0.821399 0.348491 0.174909 0.608536 0.167954 -0.135167 -0.022733 0.244229 0.245250 -0.423282 -0.521709 0.337046 0.362429 0.285418 0.435311 1.154324 -0.368741 0.705721 -0.329550 -0.173796 -0.100165 1.175060 -0.133815 -0.774646 -0.727213 -0.066517 0.663591 0.352775 -0.690530 -0.317488 -0.985517 -0.447286 -0.213102 0.116134 1.118853 -0.663941 0.460510 -0.620995 0.063712 1.056742 0.625231 -0.704724 -0.512935 0.374922 0.906045 -0.020752 -0.698308 -0.907161 
4149 2.035890 0.254497 -0.274984 0.187263 0.033284 -0.832027 0.701831 0.515291 -0.327288 -0.360655 0.745136 0.441021 -0.462600 -0.005590 -0.094846 0.851572 -0.061315 0.231495 0.127136 -0.386078 0.976520 0.758830 0.186477 -0.487170 -0.038196 0.361742 -0.060823 0.302042 1.092727 0.020293 -0.371227 -0.462724 0.454602 0.198649 -0.406712 0.518481 0.562181 -0.353746 0.533717 0.305725 0.222272 0.180162 -0.188100 -1.293628 -0.446189 -0.549183 -0.574311 -0.444369 -0.579544 -1.218907 
3187 0.201137 0.313449 -0.075115 0.034134 -0.511531 -0.537328 -0.115171 -0.091378 1.238733 0.567061 -1.004419 -0.182211 -1.070433 0.306928 0.215952 1.413538 0.115497 0.451595 0.643541 0.473626 -0.794366 0.577367 0.642921 -0.688179 0.571981 0.395202 0.791241 0.326964 0.539057 -0.053345 -0.475887 -0.537354 -0.200084 -0.481160 -0.489564 -0.041878 0.565635 -0.250149 1.024577 -0.294570 0.730040 1.173101 -0.390013 0.187746 -0.207759 0.172252 0.825437 0.088179 -0.247275 -0.496092 
3054 0.086813 0.484331 0.685992 -0.185010 -0.092895 -0.393949 0.542572 -0.396527 0.399415 -0.554983 0.269594 -0.546769 -1.104163 -0.520262 -0.178249 0.677258 0.045860 0.158501 0.315452 0.043351 0.717598 0.382942 0.957843 1.140616 1.030889 -0.704011 -0.818377 -0.378220 0.077184 0.124944 0.301729 -0.239602 -0.671684 -0.079023 -0.114268 -0.077637 0.545110 -0.242368 -0.143005 -1.059427 -0.107183 0.113387 0.373087 0.696742 0.433810 0.607862 0.604504 -0.300798 -0.852882 -1.212386 
2938 0.431501 -0.081830 -0.455486 0.098377 -0.446795 -0.162479 0.445054 0.151823 0.042770 -0.329512 -0.448589 0.146387 -0.292365 0.625193 0.243253 0.410673 -0.330352 0.068614 0.476967 -0.347232 0.060185 -0.018607 0.284823 -0.429381 -0.035600 -0.769626 0.091961 -0.568839 0.595220 -0.042850 -0.906436 -0.191219 0.928133 -0.028291 0.022421 1.065036 1.335986 0.424439 0.587784 0.323328 -1.398667 0.569399 -0.199703 -0.018779 0.168078 -1.197472 1.026553 -0.009810 -1.085452 -0.328643 
595 -0.388802 -1.626755 0.763918 0.130079 -0.495868 -0.618971 0.217112 0.419061 0.290602 -0.548097 -0.607868 0.125772 0.099052 0.054833 0.256093 -0.570325 0.052536 1.151469 -0.178608 0.329712 0.127980 0.618527 0.568585 -0.396648 -0.281250 0.424617 0.374375 0.618583 0.308416 -0.151803 0.849636 -0.673761 -0.735026 0.238188 -1.082287 0.131743 1.602878 0.010984 0.314624 -0.963977 -0.012145 0.532827 0.224273 -0.140166 0.344524 0.112777 0.382291 0.029556 -1.025468 -0.021703 
4333 -0.046573 0.260470 -0.355097 0.144272 -0.604449 -0.711642 0.023855 0.116561 0.701358 -0.950045 -0.370582 0.213895 -0.779110 -0.835558 0.455109 0.802118 -0.407167 0.011130 -0.194629 -0.204988 0.317828 -0.260374 -0.254807 0.195768 -0.453614 0.143836 0.013346 -0.778624 0.368744 0.295602 -0.700188 -0.458553 -1.114465 0.423970 0.430608 -0.012143 0.039708 0.757884 0.149492 -0.900329 -0.434013 0.202835 -0.388281 -1.364499 0.158420 -1.030833 -0.545893 -0.219376 -1.329028 -0.636241 
1053 -0.506338 -0.341616 0.331779 0.457456 0.105718 -1.045604 -0.173169 0.274757 0.161350 1.237349 1.291219 -0.031957 -0.752679 0.048685 0.174372 -0.532387 -0.657459 -0.065431 0.409280 0.748190 -0.893617 0.484194 0.989004 -0.471665 0.189801 -0.242816 -0.059183 -0.923466 0.777469 0.659209 -0.232617 -0.160184 0.505868 0.625916 -0.337983 -0.413331 0.298479 -0.692811 -0.511016 -0.980174 -0.210658 0.764316 0.185186 -0.515085 -0.196072 -0.232829 -0.076631 0.139057 -0.511426 -0.689313 
522 0.347795 -0.194182 0.587030 0.806723 -0.241889 -0.661568 0.492439 0.878548 1.161286 -0.107096 -0.010204 -0.088557 -0.388429 -0.450466 0.378853 -0.012557 0.093324 -0.953131 -0.528635 -0.791559 -0.180776 0.918798 1.019230 -1.205192 -0.545589 -0.805172 0.189948 -0.478725 0.477186 1.018227 -0.193740 -1.069988 0.155184 0.960861 -0.771081 -0.342144 -0.463825 0.543773 0.489233 -0.038230 -0.186035 0.169507 0.107853 -0.605926 -0.139881 -0.253598 0.447025 0.964980 -0.230267 -0.306502 
2892 0.787238 -0.092458 -0.041041 -0.171511 -0.455181 -1.659436 0.205666 0.528154 -0.761241 -0.035449 0.353212 -0.074634 -0.988243 0.658347 -0.686330 0.004035 -1.094029 0.800023 -0.174138 -0.375089 0.789325 0.591415 0.030071 -0.103557 -0.568414 -1.401007 -0.359176 0.284743 0.130004 -0.433131 -1.082034 -0.584810 -0.495854 0.453822 -0.212000 -0.092532 0.114666 0.582229 0.808834 -0.143182 0.426478 0.030181 -0.392696 -0.350321 0.429166 -0.916045 0.544981 0.542821 -1.231946 0.033278 
189 -0.276329 0.241199 0.454752 1.055635 -0.655311 -1.139341 -0.305700 1.120522 0.544953 0.419505 0.580568 -0.840693 -0.482898 -1.053580 0.152784 0.283706 0.262154 -0.476000 1.272167 0.434718 -0.507989 0.430029 0.715801 -0.360271 -0.182422 -0.050508 -0.666270 0.024705 0.659727 1.121313 0.049809 -0.847631 0.491585 0.131495 -0.451328 -0.086330 0.597332 -0.247478 -0.404906 0.058129 -0.541205 -0.031662 0.234434 -0.603955 -0.499973 0.196062 0.067725 1.185197 -0.135331 -0.091737 
4477 1.185148 -0.550733 0.389745 0.323037 -0.504875 -0.542779 1.047252 -0.211817 0.412555 0.069628 0.035463 -0.050545 -0.796769 -0.149775 0.792209 0.420578 0.513174 -0.084448 -0.577199 0.500650 0.733855 -0.705146 0.773019 0.476982 -0.083399 -0.429688 0.041951 -0.041728 1.044543 1.115615 -1.150975 -0.138698 0.293606 0.004887 0.052934 0.031757 0.750861 0.164861 -0.420184 -0.157083 -0.613701 0.079696 0.344721 -0.342350 0.354390 0.134092 -0.547908 0.526268 -0.154925 -0.243507 
1252 0.038800 0.316890 -0.867463 -0.158457 -0.438700 -0.644447 -1.294609 0.639308 0.326497 -0.372455 -0.260891 -0.773651 -0.684388 0.103584 -0.050998 0.490645 0.792221 -0.151767 0.882449 -0.764949 0.019692 0.437730 -0.023718 -0.046770 1.076211 -0.346119 -0.045881 -0.010694 0.661585 0.169604 -0.518249 -0.453083 -0.623281 0.291532 -0.699734 -0.085212 1.332402 -0.572747 0.795929 -0.039884 0.192524 -0.111151 0.254570 0.426587 -0.148474 0.378893 0.162771 0.690619 -0.892316 -0.170404 
3317 0.771642 -0.204606 0.930746 -0.303630 -0.014426 -0.476640 -0.061236 -0.648496 -0.261999 0.050952 -0.161335 -1.054840 -0.582902 -0.163866 -0.623888 0.823927 -0.447967 0.323977 0.073116 -0.014171 -0.506678 0.880454 0.982098 -0.414364 0.351181 0.090400 0.434578 -0.109906 0.852086 0.008613 -0.531213 -0.066571 -0.494001 0.847180 -0.243157 0.048627 -0.093225 -0.724413 1.299118 0.348621 -0.798542 -0.216728 0.168338 1.011985 -0.225159 0.350503 0.064842 -0.003642 -1.545088 -0.754304 
2984 0.265780 0.058775 -0.203996 0.994801 -0.065235 -0.893975 0.001643 -0.073721 0.301846 0.572954 0.416481 0.179181 -0.598227 0.957058 -1.364568 0.761978 0.762084 0.598454 -0.399254 0.038884 0.075364 0.694493 0.413674 0.192407 0.475523 -0.388454 -0.307925 -0.297723 -0.181714 0.415465 0.153710 0.370835 -0.440091 -0.037822 0.531617 0.153800 0.579418 0.695581 0.007977 -0.433471 -0.273314 1.363094 0.419598 -0.028755 -0.242216 -0.720370 1.035023 1.088762 -0.176435 -0.340126 
2899 0.222998 0.094151 -0.776511 1.419536 -0.815684 -0.209645 0.093324 -0.138411 -0.296425 -0.792841 -0.252619 -0.747957 -0.915905 0.001915 0.839652 0.258290 -0.210904 0.190314 -0.536523 0.506391 0.250802 1.404701 0.133735 -0.030966 -0.175949 -0.500901 -1.077973 -0.311408 -0.051437 0.209941 0.453661 -0.309723 0.030491 -0.393254 -0.676199 0.382369 0.517752 -0.546497 0.129685 -0.821814 -0.893083 -0.293182 -0.226133 0.217040 -0.489743 0.320499 0.908049 -0.288741 -0.713715 -0.001383 
75 -0.260479 -0.012778 0.090789 1.328117 0.072173 -0.136185 -0.125187 0.756331 0.879770 -0.562976 0.138972 0.554154 -0.294610 0.212780 0.080601 0.052608 -1.205947 0.468334 0.084843 1.291429 -0.592033 -0.221224 0.607712 -0.554673 0.269590 -0.835819 -0.315185 0.032942 -0.277562 -0.089539 -1.072009 -0.147212 -0.452680 0.424540 -0.443738 0.156771 -0.246691 -0.565689 0.050003 0.185854 -0.305753 0.158806 1.025465 -0.435859 0.413940 -0.049198 -0.595082 1.020331 -1.154200 -0.446460 
2324 -0.405655 0.256234 0.216198 0.874726 0.630083 -1.287264 0.429050 -0.498274 0.385688 -0.059851 0.245482 -1.302224 -1.200760 0.241069 0.144854 -0.259489 0.535443 0.883313 0.699535 0.316251 -1.043735 0.557554 0.120519 -0.419898 0.144839 0.193354 -0.612250 0.509935 0.813524 0.046686 0.262528 -0.447741 0.030660 -0.114444 0.394420 -0.019808 -0.314515 -0.543770 0.598674 -0.844058 -0.479063 -0.476590 -0.142155 -0.220055 -0.777333 -0.353391 0.114481 0.888691 -0.817844 0.145105 
3128 0.974209 -0.457632 -0.926103 0.604630 0.363137 -0.205893 0.354484 0.070226 -0.017444 0.580409 0.255963 -0.906295 0.120096 0.160038 -0.822766 0.909534 0.280112 0.447728 0.498831 0.136516 0.159374 1.447653 -0.302814 -0.297256 -0.451872 0.297695 -0.052537 0.458467 0.361103 -0.072165 0.173827 -0.537185 -0.715176 0.005067 -0.090414 0.197517 0.279682 -0.191088 0.413708 -1.508685 -0.379440 0.922782 -0.227677 -0.573556 0.978597 -0.209834 0.594024 0.104318 -0.811354 0.131391 
118 -0.170447 -0.430229 0.310329 0.378449 0.444111 -0.242890 -0.638927 0.483262 1.190134 -0.178858 0.505846 0.136718 -0.561077 -0.339275 0.134832 -0.567968 -0.132369 -0.019517 0.079066 -0.752956 0.176931 0.718988 0.404391 -0.545822 -0.961948 -0.405482 -1.165837 -0.473971 0.499628 -0.185069 -0.895301 -0.390202 -0.388093 0.410580 -0.539666 -0.018805 0.407817 -0.768406 0.580845 -0.160550 -0.658028 0.997328 1.412076 -0.695672 0.075417 0.225820 0.516602 -0.285046 -0.140692 -0.211388 
1248 -0.347904 -0.416713 0.217011 0.634350 0.532826 -0.389450 -0.092440 0.886143 1.008534 -0.562855 0.554578 0.128724 -0.496786 -0.151826 -0.461353 0.606433 -0.837418 0.723970 0.380920 0.461600 -1.570068 0.509598 0.786602 -0.200572 -0.810193 -0.937782 -0.694945 0.585555 -0.604556 -0.048290 -0.119769 -0.760571 0.012220 -0.333175 0.363322 0.084966 0.107290 -0.301601 0.399876 -0.058125 0.133710 -0.320528 0.474052 -0.326222 1.122130 0.540122 0.231064 0.794060 -0.437053 -0.188282 
3224 -0.258587 0.085254 -0.210711 0.468940 -0.848907 -0.849081 0.475812 1.279355 0.238665 -0.388033 0.087715 0.149277 -0.601892 -0.044286 -0.313060 0.703854 -0.434865 -0.229173 -0.075025 -0.065196 0.316745 1.092296 0.155397 -0.044989 1.026152 -0.776523 0.203770 -0.497604 -0.323427 -0.284058 0.504907 -0.241727 -1.252870 -0.071022 0.219673 0.228928 0.878559 -0.137236 0.054873 -0.252983 -0.767836 0.489101 0.426804 -0.388106 -0.535793 0.104200 0.386451 0.369700 -1.034763 -0.240984 
4241 -0.416430 -0.225765 -0.848183 0.162865 -0.880975 -1.071210 -0.601796 0.741776 0.326504 -0.245450 -0.382471 0.373535 -0.973678 -0.167427 0.226616 0.591787 1.008067 0.940552 -0.167809 -0.136340 0.041270 0.521169 0.384665 0.149025 -0.394037 -0.809791 -0.402412 0.053333 0.591364 0.970774 -0.850025 0.027168 -0.503726 -0.870350 -1.193413 0.515681 0.539621 0.137104 -0.104409 0.129655 0.809210 -0.470951 0.182047 -0.192721 0.213953 0.351656 -0.812124 -0.086365 -0.702182 0.205249 
3307 0.452269 -0.284705 0.816139 1.022504 -1.236894 0.060912 -0.308900 0.005216 -0.405372 -0.509680 -0.012835 0.466149 -1.170566 -0.115434 0.173010 0.599532 -0.228377 -0.089726 -0.123121 0.229317 0.345436 0.902629 0.262173 0.399697 0.002969 0.102739 0.095376 -0.436650 0.221123 0.088537 -0.773561 -0.725326 -0.757440 -0.059297 0.492100 0.265046 -0.249829 1.043070 0.454170 -1.393283 -0.778872 -0.523423 -0.568161 -0.555722 0.327559 0.151176 0.233672 0.162436 -1.154135 -0.580752 
3884 -0.094461 0.338917 0.218494 1.187565 -0.283746 -0.759587 0.862664 0.340199 0.496324 -0.112844 0.036291 0.229513 -0.773341 0.345831 1.679935 -0.350694 0.834933 0.219137 0.043013 -0.298123 0.655067 0.382195 0.154283 0.172930 -0.210653 -1.669206 1.001900 -0.157450 0.239319 0.576321 -0.945231 -0.056902 -0.094565 -0.338653 -0.791190 -0.436046 0.558478 -0.095150 0.689741 -0.218192 0.091048 0.040599 0.032083 0.054938 1.192214 -0.585081 -0.276130 -0.434262 -0.592551 -0.338424 
1214 0.283457 0.279184 -0.242339 0.297973 -0.137688 -0.474147 -0.637365 1.122555 -0.268322 -0.258168 0.550008 0.899441 -0.742832 -0.175573 -0.820787 0.132022 -0.240465 0.462401 -0.001199 0.536446 -0.951304 -0.496879 0.646443 0.790157 0.137467 0.359812 -0.423502 0.339382 -0.467560 0.246204 -0.768257 0.484484 -0.114482 0.077753 0.376113 0.582461 1.353577 0.174465 1.029715 0.106598 0.296152 0.582217 0.516956 0.350539 0.581881 -0.835674 -0.107398 0.676135 -0.888888 -1.300122 
128 0.561820 -0.674434 0.771941 0.471364 0.663764 -1.086384 0.073148 -0.690297 -0.003798 -0.646307 0.838814 0.200365 -0.081230 0.008601 0.164217 0.175546 0.021106 0.574972 0.524673 0.438601 -0.907709 -0.252777 -0.096396 -0.118222 0.101960 -0.210663 -0.106445 0.384824 -0.104244 0.788749 -0.113555 0.323635 -0.153533 -0.527373 -1.360295 0.670974 0.041914 0.544890 0.389538 0.197580 -0.574251 1.291878 1.106989 -0.389434 0.133979 -0.200130 0.037600 0.956168 -1.113284 -0.495004 
1577 0.556215 -0.581506 0.623072 0.805206 -0.594499 0.377148 -0.035886 0.457320 0.473673 -0.051353 1.198083 -0.373295 -0.569872 -0.179532 0.075001 0.317199 0.266453 -0.032040 0.241720 0.546964 -0.769062 0.070848 0.227328 -0.582678 0.293980 -0.139062 0.992219 -1.577991 0.079578 -0.621500 -1.064898 0.401982 -0.149976 0.643989 -0.281923 0.089463 0.337702 -0.470042 0.075180 -0.822353 -0.010550 -0.473575 0.724428 -0.011307 -0.657205 0.416344 0.054005 0.437723 -0.754045 -0.540652 
1968 0.686566 -0.914273 0.341572 -0.764953 -0.350059 -0.284086 0.204004 0.436712 0.852418 -0.136368 1.314456 -0.428526 -0.408688 0.343679 0.482204 0.613086 0.514827 0.729827 0.860665 0.441105 -0.272371 0.764493 0.608839 -0.014082 -0.300513 -0.147472 0.213663 -0.414840 0.041407 -0.080016 -0.583589 0.056304 -0.474869 -0.008874 -0.220188 0.717380 -0.154645 -1.183709 0.416628 -0.357487 -0.082751 -0.714067 -0.644910 -0.777006 -0.408064 -0.053122 0.580764 -0.551541 -1.130118 -0.120026 
793 -0.025522 -0.627081 0.048809 1.300019 -0.401340 -0.289785 -0.211313 0.856822 0.002129 0.627188 -0.153889 0.811485 -0.018142 0.282969 0.796654 0.034178 -1.020845 0.897183 0.125950 -0.488852 -0.943429 -0.069045 0.960926 0.386734 -0.461352 -0.277749 0.330924 0.016949 0.439568 -0.073640 -0.495034 0.156948 -0.594368 0.362695 -0.158552 1.084352 1.283469 -0.109251 -0.007872 0.082899 -0.601901 0.224092 0.883475 -0.511906 0.078896 0.274219 0.038948 0.462454 -0.682045 -1.656735 
2111 0.443643 -0.737898 0.515129 0.559692 0.421746 -1.659217 0.021115 -0.563960 -0.518057 -0.075927 0.221337 -1.160337 -0.946469 0.391616 0.485952 0.636056 -0.364429 -0.112316 0.755142 0.925083 0.445929 -0.415465 -0.155565 0.513361 0.227212 -0.827051 -0.374204 0.138388 0.929751 -0.198699 -0.840823 -0.997163 -0.219975 0.357523 0.329651 0.314583 -0.218948 0.465754 0.527470 -0.397753 -0.064459 0.148479 -0.219762 0.038756 0.139221 -0.596775 0.396652 -0.280704 -0.430209 -0.746322 
3742 0.927301 0.035874 -0.110806 1.025509 -0.199024 -0.161782 0.032245 -0.065507 0.459925 -0.713046 -0.259329 -0.105495 -0.963268 1.019334 -0.197233 -0.192686 0.073159 0.625850 -1.202430 0.379599 -0.639058 0.649402 0.346850 -0.452411 -0.140251 -0.615172 0.127642 -0.809754 -0.018181 -0.256454 -0.392674 1.072403 -0.278760 0.833803 0.431575 -0.073083 0.484720 0.031184 0.150083 -1.361483 0.032925 0.243703 0.691192 0.416066 -0.880601 -0.769740 0.197153 0.337236 -0.313936 -0.223045 
4947 0.437372 -0.506542 -0.006232 0.871654 -0.039943 -0.863837 0.174346 -0.207701 -0.636486 -0.266341 0.783477 0.041469 -0.003680 -0.075901 0.151971 0.503091 0.502037 -0.177114 -0.403898 0.698943 0.030027 0.407940 0.021928 -0.475919 -0.751647 -0.636610 0.402058 -0.908088 0.552295 0.675651 0.262845 0.210153 -0.268194 -0.490257 0.355937 0.243751 0.177102 0.246477 0.003321 -0.543868 0.217846 -0.445416 0.698241 -0.852515 -0.184762 -0.247515 -0.933877 -0.834003 -1.127431 -1.645379 
2105 -0.925881 0.583938 -0.786437 0.594704 -0.307209 -1.285009 1.153121 1.025451 -0.026932 -0.762211 -0.383154 -0.485923 -0.893102 0.570486 -0.763627 0.562243 -0.377104 -0.210494 0.127589 0.192610 0.171529 0.666128 0.669316 -0.103624 0.071014 0.471649 0.308314 0.283124 0.027597 0.646841 -0.700554 -0.473117 -0.064459 0.335984 -0.322171 -0.096237 0.244293 0.603123 -0.212215 -0.153366 0.116974 0.568077 0.441377 0.426970 0.164028 -1.142851 1.141325 0.969391 -0.716666 -0.666060 
1270 -0.722667 0.022346 0.672354 0.224263 -0.160223 -0.574094 -0.351610 0.705702 -0.197016 0.364098 -0.239314 0.073801 -0.134798 -1.095791 0.282750 0.481254 -0.472912 0.843531 1.043946 -0.084629 0.165018 0.343878 0.830410 0.198015 -0.591702 0.263115 -0.551500 -1.488773 0.172765 0.496069 -0.074952 -0.274261 0.221546 0.610911 -1.118197 -0.201037 0.501701 -0.945440 0.336771 0.053332 -0.212690 0.357052 -0.031682 -0.250252 -0.110928 -0.314211 -0.085617 -0.026014 -0.889484 -1.470625 
4716 0.416746 -0.336960 -0.526020 0.410871 -0.602598 0.282151 0.448252 -0.759616 -0.619445 -0.414969 0.347547 1.255248 -1.144943 -0.299158 -0.425769 0.965964 0.573273 0.685805 -0.183455 -0.252483 -0.840767 0.476995 0.393793 -0.063801 0.178452 0.043150 -0.215846 -0.417746 -0.138460 -0.214657 -0.847109 -0.470176 0.086047 -0.389345 -1.021353 -0.416241 0.891308 0.163548 0.982721 -0.656325 -0.730991 0.361089 0.365924 0.267767 0.061194 -0.109131 -0.756463 0.212499 0.128641 -0.479277 
1272 -0.103461 -0.026424 1.078257 0.831696 -0.153751 -0.380371 -0.108413 -0.209152 -0.093611 -0.384080 -0.435445 0.790962 0.210502 0.774644 0.680290 0.309464 -0.438861 0.911067 0.089800 0.021517 -0.397350 -0.420273 1.125628 0.459975 -0.208105 0.222411 -0.999328 -0.413274 0.037568 0.820212 0.148486 -0.528633 -0.390045 1.127044 -0.392808 0.452003 1.158648 -0.116512 0.952526 -0.306162 -0.064079 0.775029 -0.098251 -0.825638 -0.597988 0.042255 -0.022373 -0.286082 -0.614561 -1.404464 
1677 0.208192 -0.007241 1.006809 0.172532 -0.188251 0.020839 0.258545 0.096349 0.714388 0.563177 -0.737996 0.409914 -0.477517 -0.290722 -0.105512 0.484302 1.029048 0.449427 -0.152108 0.963294 -0.329651 0.288070 0.375096 0.432418 -0.227243 -0.691504 -0.217123 -0.203733 1.601491 -0.312235 -1.062582 -1.235311 0.635032 -0.236278 0.028309 0.426917 -0.043405 -0.494780 0.041082 -0.580921 0.557484 -0.098897 0.354237 -1.104138 0.725028 -0.432743 1.010231 0.198930 -0.976168 0.045158 
1012 -0.109864 -0.155874 1.349957 -0.558587 0.179423 -0.863964 -0.386445 -0.508672 0.680907 -0.636744 0.767360 -0.055035 -0.355604 -0.163451 0.640500 0.161327 0.000004 -0.025585 0.259589 0.257384 -0.659087 0.463978 -0.118662 0.345864 0.023607 0.306834 -0.140327 -0.219899 0.573840 1.654018 -0.915280 0.214291 0.773312 0.087497 0.010321 -0.373623 0.019566 -0.196762 0.572142 -0.817599 -0.221783 0.038791 0.443485 -0.676281 0.210433 -0.458138 -0.152159 1.001921 -0.636344 -0.831273 
