101 64
</s> 0.006254 0.006905 -0.005985 -0.005122 0.002135 0.004720 0.001470 0.000330 -0.005630 0.003466 -0.006807 0.001952 -0.001174 -0.001496 -0.005181 -0.002941 0.004030 0.004727 0.004639 0.002496 0.002414 -0.005942 -0.006400 0.007765 0.005939 0.004828 -0.000944 0.006274 -0.000773 0.001148 -0.000233 -0.004661 0.002050 -0.002090 -0.005977 0.007428 0.006843 -0.001711 -0.000353 0.000796 -0.005684 -0.006261 0.007117 0.000098 -0.004035 -0.004753 -0.004807 0.002651 0.000315 0.002080 -0.006584 -0.005950 -0.000203 0.001787 0.003984 -0.004953 0.006374 0.001448 0.001750 -0.000951 0.004666 -0.003575 -0.003277 0.003372 
72 0.037835 0.187994 -0.009410 -0.036804 -0.007360 -0.062372 -0.050930 -0.252474 -0.055059 -0.051899 -0.081033 -0.323923 0.115515 0.027465 0.136501 0.034099 -0.008729 0.085777 1.004438 -0.030567 0.014688 0.085887 -0.056922 0.051197 0.496219 -0.078274 -0.033194 -0.062880 -0.020441 0.159213 0.005559 0.077974 -0.037874 0.028784 0.093392 -0.207555 0.151839 0.088046 0.063115 -0.023584 0.123169 0.046670 -0.145118 -0.129912 0.041101 -0.064139 -0.072651 -0.010915 -0.023434 0.034708 0.033582 0.067108 0.013896 0.090474 -0.055525 0.115226 -0.137937 -0.007400 -0.003510 -0.026245 0.010288 -0.150656 0.004629 0.083140 
87 0.033367 0.181511 -0.011180 -0.034765 -0.008188 -0.073587 -0.056540 -0.251197 -0.048402 -0.053908 -0.085590 -0.325203 0.111046 0.020754 0.130070 0.037549 -0.011079 0.094280 0.966625 -0.037392 0.014174 0.084483 -0.068289 0.048163 0.472247 -0.066237 -0.029915 -0.050797 -0.019557 0.145284 -0.002638 0.068979 -0.038623 0.020211 0.090915 -0.205687 0.149103 0.097750 0.057424 -0.019344 0.126642 0.051605 -0.144602 -0.126792 0.041368 -0.057239 -0.069895 -0.012671 -0.023341 0.022902 0.039663 0.052658 0.017577 0.099209 -0.066051 0.104545 -0.124558 -0.002550 0.001245 -0.021453 0.011792 -0.145006 -0.002067 0.085118 
46 0.033821 0.187277 -0.010722 -0.028110 -0.004603 -0.065474 -0.059484 -0.255722 -0.056434 -0.051561 -0.072502 -0.319922 0.115170 0.020077 0.133580 0.030221 -0.009754 0.094708 0.984398 -0.042259 0.018335 0.074062 -0.061767 0.050838 0.485739 -0.069173 -0.024111 -0.053981 -0.015422 0.157961 0.009566 0.083377 -0.036191 0.033147 0.094263 -0.206055 0.138457 0.100472 0.057148 -0.026119 0.122567 0.046933 -0.146342 -0.123959 0.046661 -0.065105 -0.083639 -0.010054 -0.021308 0.032158 0.036367 0.057229 0.021216 0.099652 -0.057732 0.118192 -0.130736 -0.009717 -0.006267 -0.029900 0.001342 -0.141173 0.009711 0.075807 
3 0.036503 0.168601 -0.004748 -0.031739 0.000349 -0.067961 -0.055212 -0.243803 -0.041732 -0.046818 -0.068875 -0.310142 0.117505 0.021347 0.118692 0.041361 -0.003938 0.079841 0.948316 -0.042516 0.008690 0.079445 -0.066579 0.042005 0.467825 -0.064576 -0.027718 -0.048881 -0.006672 0.152319 0.006314 0.064559 -0.029242 0.016981 0.082331 -0.194044 0.142618 0.087788 0.058764 -0.030761 0.117152 0.044217 -0.136885 -0.113777 0.038645 -0.050743 -0.072253 -0.003275 -0.012825 0.029771 0.034405 0.050132 0.014827 0.097136 -0.059251 0.114306 -0.126155 -0.013299 -0.009419 -0.016472 0.012156 -0.142580 0.010265 0.069329 
31 0.028650 0.178047 -0.011230 -0.032868 -0.004644 -0.066748 -0.050974 -0.236382 -0.041677 -0.053004 -0.078008 -0.306516 0.111181 0.027231 0.127063 0.041556 -0.011291 0.086172 0.940951 -0.037224 0.019550 0.075610 -0.067485 0.051932 0.464712 -0.074427 -0.028446 -0.059303 -0.010472 0.138785 0.010126 0.070650 -0.034133 0.021569 0.077125 -0.199089 0.136878 0.096212 0.048534 -0.029521 0.118634 0.047314 -0.129279 -0.115918 0.050882 -0.050359 -0.076808 -0.008111 -0.017378 0.031316 0.038434 0.063272 0.012948 0.088393 -0.058359 0.103387 -0.120902 -0.013786 -0.009565 -0.031914 0.011015 -0.127604 -0.001505 0.067419 
11 0.041879 0.177881 -0.014902 -0.030490 -0.005871 -0.063336 -0.057298 -0.242609 -0.052193 -0.040545 -0.068597 -0.302807 0.110928 0.021280 0.124697 0.029662 -0.013825 0.081523 0.934629 -0.029827 0.018898 0.078158 -0.065816 0.051392 0.456587 -0.063397 -0.027911 -0.049019 -0.011049 0.145661 0.000002 0.080798 -0.036139 0.029219 0.092343 -0.187975 0.138341 0.094950 0.060217 -0.025893 0.126101 0.038425 -0.134235 -0.117986 0.051840 -0.061836 -0.077595 -0.010307 -0.017929 0.036661 0.031893 0.048890 0.014233 0.099596 -0.054340 0.112681 -0.129983 -0.010270 -0.004723 -0.028690 0.012765 -0.142090 0.008374 0.072393 
66 0.040575 0.176404 -0.013504 -0.022998 -0.003538 -0.054597 -0.057804 -0.239804 -0.041282 -0.038575 -0.070017 -0.301859 0.111448 0.019101 0.124257 0.038085 -0.011788 0.079455 0.922693 -0.033766 0.023748 0.079945 -0.057874 0.037489 0.455349 -0.064967 -0.036850 -0.048623 -0.021466 0.138230 0.010848 0.075640 -0.033166 0.026118 0.076841 -0.198091 0.140404 0.093827 0.058985 -0.017291 0.117390 0.048213 -0.131593 -0.112129 0.040574 -0.052751 -0.070955 -0.007348 -0.014418 0.029010 0.026472 0.053587 0.019308 0.095460 -0.061605 0.108123 -0.115670 -0.002027 -0.012099 -0.018630 0.002404 -0.133927 0.004597 0.078050 
30 0.030924 0.174005 -0.009544 -0.029638 0.003553 -0.060722 -0.059189 -0.246847 -0.046796 -0.050657 -0.071010 -0.317083 0.123106 0.022975 0.118706 0.035273 -0.006298 0.086631 0.957061 -0.035615 0.016395 0.076063 -0.065170 0.046061 0.471721 -0.064735 -0.026550 -0.064515 -0.014263 0.143959 0.009655 0.080793 -0.027782 0.027302 0.087393 -0.200657 0.137685 0.088343 0.048118 -0.023260 0.121774 0.049174 -0.132899 -0.125596 0.050830 -0.058410 -0.082304 -0.001312 -0.023444 0.027933 0.027941 0.064169 0.013334 0.085168 -0.051949 0.111684 -0.120355 -0.006320 0.000165 -0.023310 0.013043 -0.131163 0.005151 0.075242 
8 0.036061 0.171700 -0.014928 -0.027772 -0.002016 -0.057260 -0.050569 -0.223757 -0.042740 -0.039729 -0.075721 -0.293919 0.110158 0.027626 0.120006 0.033804 -0.013192 0.072171 0.893361 -0.028591 0.009715 0.067641 -0.063548 0.038185 0.441216 -0.070380 -0.026019 -0.054271 -0.017677 0.136011 -0.003134 0.064715 -0.030945 0.029962 0.076531 -0.179144 0.124771 0.090977 0.051135 -0.020830 0.115816 0.049913 -0.132425 -0.106831 0.044050 -0.054900 -0.065447 -0.006318 -0.010766 0.027985 0.029351 0.059003 0.010721 0.086193 -0.046518 0.109173 -0.123141 -0.005125 0.001257 -0.022254 0.010609 -0.123340 0.010244 0.070193 
44 0.034710 0.179769 -0.018575 -0.027354 -0.003138 -0.056467 -0.059935 -0.242333 -0.040424 -0.043215 -0.070906 -0.304907 0.115392 0.023007 0.123508 0.039448 0.000066 0.088214 0.932263 -0.039392 0.010065 0.073006 -0.064228 0.038716 0.455542 -0.063316 -0.024368 -0.064001 -0.017159 0.151290 0.004143 0.077978 -0.034150 0.024661 0.079986 -0.191263 0.132050 0.094796 0.049648 -0.018098 0.113595 0.042374 -0.127224 -0.112328 0.048134 -0.053149 -0.070160 -0.008357 -0.012958 0.034737 0.038698 0.063281 0.012476 0.085641 -0.061068 0.108057 -0.122384 -0.002104 -0.010229 -0.018480 0.012477 -0.129666 0.003895 0.077187 
70 0.035906 0.189538 -0.018151 -0.039020 -0.000183 -0.067282 -0.048748 -0.254274 -0.048577 -0.043730 -0.076289 -0.323912 0.122617 0.022279 0.129506 0.032950 0.000848 0.090861 0.980831 -0.029261 0.015420 0.082307 -0.061011 0.043927 0.484032 -0.068294 -0.035769 -0.051244 -0.013944 0.151858 -0.001579 0.078637 -0.034751 0.022024 0.086258 -0.198330 0.141572 0.100082 0.050252 -0.027421 0.129308 0.054819 -0.133702 -0.114234 0.040979 -0.063346 -0.085666 -0.006509 -0.027249 0.030672 0.036545 0.055252 0.018751 0.088639 -0.055735 0.110429 -0.131153 -0.009642 -0.001940 -0.027154 0.003193 -0.145415 0.000220 0.072016 
22 0.039540 0.174105 -0.012694 -0.026211 -0.009375 -0.068847 -0.061443 -0.243157 -0.050803 -0.053906 -0.072237 -0.315157 0.109815 0.023609 0.132390 0.028427 -0.009393 0.090959 0.943863 -0.027430 0.021986 0.069443 -0.063732 0.049237 0.464234 -0.063067 -0.023439 -0.064004 -0.020807 0.145817 -0.003876 0.077213 -0.026048 0.021768 0.090128 -0.203573 0.145938 0.085951 0.052301 -0.030304 0.123359 0.052924 -0.140889 -0.118297 0.046889 -0.048238 -0.074440 -0.014975 -0.016922 0.026221 0.035384 0.063214 0.012560 0.087689 -0.056355 0.105859 -0.126734 -0.012609 -0.005278 -0.031589 0.012847 -0.131370 0.000100 0.080122 
97 0.032865 0.172388 -0.004011 -0.027886 0.000689 -0.069898 -0.057618 -0.242980 -0.049715 -0.044567 -0.084826 -0.320771 0.123466 0.014580 0.128310 0.030870 -0.000156 0.085611 0.968128 -0.040157 0.018510 0.068304 -0.067238 0.043986 0.477526 -0.074453 -0.026381 -0.058033 -0.009552 0.152594 0.000152 0.067982 -0.032754 0.026717 0.087216 -0.200101 0.146885 0.097301 0.061234 -0.030474 0.129359 0.040935 -0.136773 -0.126626 0.045213 -0.048853 -0.079598 -0.005403 -0.022882 0.028512 0.040276 0.061831 0.010285 0.097204 -0.058443 0.114389 -0.125355 -0.012917 -0.005358 -0.030837 0.011402 -0.137348 0.005589 0.082164 
94 0.045179 0.185386 -0.007777 -0.025260 0.000019 -0.065367 -0.047389 -0.246837 -0.046038 -0.048592 -0.074051 -0.313158 0.121937 0.025465 0.125484 0.034137 -0.002512 0.078797 0.949002 -0.032300 0.016745 0.069601 -0.063904 0.043281 0.462747 -0.064905 -0.023953 -0.063994 -0.011080 0.142973 0.006039 0.076946 -0.033547 0.019123 0.084690 -0.201145 0.144912 0.094851 0.055611 -0.027173 0.118865 0.048371 -0.141133 -0.126424 0.044795 -0.061687 -0.079022 -0.007132 -0.022045 0.033659 0.031354 0.063374 0.010578 0.090590 -0.053133 0.106191 -0.132092 -0.008978 0.000324 -0.025880 0.013376 -0.134775 -0.000887 0.084459 
40 0.029724 0.176993 -0.006394 -0.035639 0.002221 -0.059985 -0.050844 -0.254318 -0.053630 -0.048318 -0.078509 -0.326641 0.111926 0.024333 0.131267 0.043538 -0.001744 0.081551 0.982286 -0.037423 0.021327 0.076267 -0.059621 0.047844 0.484503 -0.067343 -0.032896 -0.051904 -0.021373 0.157771 0.001619 0.075892 -0.032307 0.031839 0.090750 -0.205461 0.138247 0.097237 0.055688 -0.019843 0.117152 0.044627 -0.144131 -0.126452 0.051719 -0.054004 -0.077594 -0.004901 -0.019665 0.027748 0.029097 0.055248 0.016474 0.091862 -0.062079 0.105945 -0.123994 -0.001903 -0.008224 -0.019874 0.004454 -0.148420 -0.005126 0.077687 
13 0.034088 0.177125 -0.016112 -0.023516 -0.006780 -0.061555 -0.048212 -0.244827 -0.055304 -0.041129 -0.073841 -0.304758 0.114962 0.024887 0.132421 0.038701 -0.011508 0.082515 0.949291 -0.037386 0.012737 0.082306 -0.063072 0.052411 0.466736 -0.063756 -0.023279 -0.063570 -0.013273 0.152321 0.001045 0.075238 -0.040165 0.032121 0.078555 -0.194206 0.141600 0.085953 0.057543 -0.023172 0.112143 0.041601 -0.135377 -0.115512 0.043973 -0.055701 -0.068488 -0.013642 -0.012256 0.024766 0.027161 0.062910 0.010033 0.091381 -0.064178 0.103283 -0.120286 -0.004907 -0.011507 -0.022862 0.014581 -0.134535 -0.004656 0.070117 
19 0.040771 0.164445 -0.007267 -0.022959 0.002913 -0.059806 -0.058097 -0.229422 -0.051994 -0.046902 -0.066405 -0.291216 0.105736 0.015306 0.120977 0.038109 -0.002214 0.086075 0.913954 -0.032113 0.007111 0.075595 -0.063259 0.046158 0.450732 -0.071775 -0.021902 -0.054190 -0.016216 0.134171 0.003847 0.076830 -0.028843 0.019930 0.086742 -0.193035 0.131402 0.091445 0.046393 -0.021578 0.110130 0.043204 -0.123072 -0.114628 0.038899 -0.053735 -0.068948 -0.003537 -0.016051 0.025246 0.030830 0.057636 0.022482 0.094161 -0.060461 0.103612 -0.126584 -0.006391 -0.010512 -0.021659 0.012821 -0.130978 0.000957 0.067417 
42 0.037814 0.170411 -0.011096 -0.021398 0.002508 -0.057679 -0.050665 -0.244830 -0.049526 -0.051018 -0.074915 -0.313321 0.108740 0.026382 0.124140 0.028030 -0.005140 0.085022 0.937712 -0.041657 0.008327 0.080335 -0.061949 0.045868 0.457202 -0.062464 -0.036859 -0.061598 -0.016730 0.147272 0.008983 0.073496 -0.031596 0.029699 0.088557 -0.203521 0.138447 0.092722 0.058288 -0.019473 0.120591 0.051926 -0.132757 -0.119389 0.041871 -0.050732 -0.072404 -0.004880 -0.016443 0.031212 0.038958 0.061550 0.010354 0.092192 -0.059251 0.100991 -0.123046 -0.000500 -0.005923 -0.017983 0.013702 -0.135672 0.009102 0.072374 
12 0.037399 0.173427 -0.009271 -0.032290 -0.011269 -0.068147 -0.053262 -0.247798 -0.040931 -0.051183 -0.078946 -0.306692 0.113010 0.024335 0.125856 0.035446 -0.003780 0.085920 0.955805 -0.030271 0.012814 0.069925 -0.057130 0.049937 0.470524 -0.064997 -0.030705 -0.064303 -0.012468 0.143181 0.003627 0.071486 -0.030376 0.025978 0.091847 -0.205119 0.145469 0.094917 0.059077 -0.026832 0.116880 0.047071 -0.133715 -0.117656 0.047610 -0.057821 -0.068718 -0.003499 -0.014562 0.025878 0.035613 0.052682 0.016257 0.091587 -0.052062 0.113867 -0.127689 -0.008322 0.002062 -0.025848 0.004063 -0.132262 0.005041 0.081718 
96 0.042723 0.180300 -0.005175 -0.036985 -0.004754 -0.070655 -0.052479 -0.246189 -0.043941 -0.044545 -0.076946 -0.309282 0.120222 0.026934 0.130886 0.032478 0.001815 0.088748 0.952963 -0.030794 0.018698 0.077390 -0.061907 0.040178 0.468097 -0.063002 -0.035162 -0.062537 -0.020307 0.143293 0.003251 0.073162 -0.039176 0.027059 0.083476 -0.200456 0.136664 0.084783 0.046964 -0.015120 0.116075 0.045578 -0.130442 -0.125526 0.040724 -0.062499 -0.077130 -0.012275 -0.022445 0.022733 0.035846 0.062324 0.009469 0.095024 -0.055555 0.114166 -0.129061 -0.012405 -0.001874 -0.029553 0.013908 -0.138141 0.006537 0.077384 
23 0.033791 0.167627 -0.010410 -0.021765 -0.010280 -0.068534 -0.060518 -0.230482 -0.041640 -0.049462 -0.068599 -0.295734 0.111166 0.016320 0.119920 0.031751 -0.005229 0.077367 0.918324 -0.040707 0.014352 0.071363 -0.061735 0.049543 0.452092 -0.070308 -0.020076 -0.053134 -0.008431 0.139647 0.005876 0.075695 -0.027584 0.029298 0.075311 -0.184043 0.127475 0.091617 0.051701 -0.013714 0.114854 0.047787 -0.133627 -0.110800 0.051299 -0.059880 -0.078237 -0.001776 -0.010813 0.023028 0.038370 0.056253 0.022761 0.082555 -0.052651 0.099466 -0.120229 -0.012521 -0.000865 -0.028847 0.012746 -0.134826 -0.004732 0.072932 
95 0.033254 0.178396 -0.014993 -0.035367 -0.010996 -0.068991 -0.055683 -0.253434 -0.056061 -0.040785 -0.079399 -0.326443 0.117573 0.028201 0.126251 0.037964 -0.007966 0.093652 0.970010 -0.035615 0.015031 0.077546 -0.062579 0.051454 0.472581 -0.065303 -0.035589 -0.062935 -0.009372 0.157877 -0.002830 0.074481 -0.031436 0.024912 0.080062 -0.200038 0.138976 0.095207 0.050680 -0.028185 0.128491 0.041708 -0.147007 -0.119683 0.040865 -0.059441 -0.084248 -0.003351 -0.012333 0.030339 0.032238 0.062272 0.024855 0.099938 -0.051753 0.115536 -0.135361 -0.007690 -0.012255 -0.026377 0.014393 -0.143678 0.003818 0.081607 
67 0.030651 0.168634 -0.012543 -0.028312 -0.008526 -0.056720 -0.054444 -0.237565 -0.043388 -0.052205 -0.077009 -0.296676 0.112598 0.024867 0.118374 0.028515 -0.005343 0.087973 0.914170 -0.037370 0.016716 0.077300 -0.052965 0.051357 0.449540 -0.062504 -0.026470 -0.060191 -0.020061 0.140692 0.007118 0.066582 -0.026742 0.019332 0.077561 -0.185555 0.132256 0.091809 0.046322 -0.017784 0.115855 0.048927 -0.138094 -0.107714 0.041822 -0.047450 -0.074115 -0.000370 -0.023990 0.021964 0.026472 0.047820 0.013628 0.092014 -0.056035 0.104896 -0.115664 -0.000553 -0.003417 -0.016037 0.004873 -0.128455 0.000994 0.068694 
89 0.035387 0.177533 -0.008181 -0.033304 -0.001345 -0.062386 -0.054096 -0.239141 -0.046222 -0.047557 -0.076578 -0.303206 0.106434 0.027270 0.126180 0.040914 -0.000416 0.077683 0.926442 -0.038813 0.009085 0.070464 -0.059303 0.043569 0.454297 -0.059893 -0.032054 -0.060616 -0.011618 0.143034 0.006048 0.069274 -0.036377 0.020280 0.084385 -0.199313 0.142517 0.082029 0.050467 -0.022389 0.116449 0.048941 -0.135974 -0.118568 0.051384 -0.051835 -0.067357 -0.010219 -0.016556 0.019481 0.026390 0.059509 0.023691 0.095470 -0.060941 0.107851 -0.117447 -0.003801 -0.006352 -0.020098 -0.000884 -0.137221 0.001103 0.080404 
5 0.024879 0.153943 -0.014231 -0.031268 -0.007547 -0.055192 -0.042785 -0.209846 -0.041064 -0.034243 -0.063631 -0.271713 0.105123 0.015527 0.108977 0.023183 -0.006648 0.075747 0.836112 -0.031063 0.019621 0.060772 -0.054902 0.033934 0.410940 -0.064657 -0.032274 -0.047583 -0.014494 0.132028 0.008281 0.066889 -0.022785 0.022395 0.071968 -0.172502 0.127191 0.082895 0.053138 -0.020154 0.107716 0.047062 -0.115975 -0.111739 0.044102 -0.045588 -0.064422 -0.014820 -0.018297 0.018989 0.027232 0.050273 0.019365 0.078021 -0.055018 0.102040 -0.101204 -0.003398 -0.006773 -0.017649 0.012211 -0.126303 0.005574 0.072014 
52 0.040163 0.171918 -0.018197 -0.031311 -0.007396 -0.058183 -0.055254 -0.240650 -0.041962 -0.042534 -0.077400 -0.299191 0.115786 0.027639 0.119452 0.030398 -0.010068 0.080550 0.924652 -0.027527 0.020612 0.069031 -0.058948 0.038196 0.449449 -0.061690 -0.031777 -0.059294 -0.015407 0.138831 0.000673 0.068891 -0.027978 0.017868 0.079406 -0.195951 0.141340 0.089832 0.053485 -0.019287 0.110855 0.043328 -0.134984 -0.109169 0.049852 -0.047267 -0.072007 -0.001259 -0.021259 0.027353 0.038420 0.058050 0.023519 0.098436 -0.056534 0.106451 -0.121746 0.000087 -0.002062 -0.031253 -0.000616 -0.138876 -0.000425 0.067796 
78 0.042298 0.177770 -0.017077 -0.024937 -0.005484 -0.067649 -0.059939 -0.246848 -0.049548 -0.041342 -0.081463 -0.310447 0.120480 0.027242 0.122075 0.039524 -0.007633 0.081839 0.946008 -0.033255 0.008888 0.074153 -0.054064 0.040431 0.465410 -0.063592 -0.025259 -0.062445 -0.011521 0.151985 0.011210 0.067751 -0.025611 0.029970 0.084133 -0.198124 0.132682 0.093133 0.053251 -0.026434 0.122865 0.040437 -0.136224 -0.122367 0.040345 -0.054309 -0.069678 -0.014541 -0.018022 0.021023 0.035834 0.065253 0.013417 0.097762 -0.050396 0.103953 -0.128575 -0.007506 -0.009667 -0.023430 0.004680 -0.135281 -0.004011 0.076353 
53 0.029607 0.180382 -0.012392 -0.030168 0.000769 -0.071011 -0.056269 -0.240776 -0.051308 -0.050703 -0.078894 -0.307735 0.109934 0.028384 0.126801 0.035322 -0.002748 0.082642 0.929698 -0.032265 0.016511 0.066848 -0.058596 0.046532 0.456101 -0.061571 -0.030985 -0.059117 -0.018412 0.149601 0.009243 0.067313 -0.035232 0.030898 0.089243 -0.189640 0.137859 0.081899 0.055514 -0.014592 0.119413 0.053070 -0.130736 -0.113687 0.048813 -0.057882 -0.076499 -0.008457 -0.011313 0.034544 0.034756 0.058037 0.021984 0.082960 -0.052208 0.104182 -0.126341 -0.011304 -0.013011 -0.026648 -0.000983 -0.139476 -0.002971 0.070798 
64 0.033900 0.158908 -0.002288 -0.029459 -0.004810 -0.049620 -0.046981 -0.213490 -0.047191 -0.038133 -0.066712 -0.279247 0.095248 0.016365 0.109449 0.032441 -0.009093 0.068524 0.850662 -0.025655 0.010514 0.073431 -0.055566 0.038168 0.418187 -0.064165 -0.030329 -0.047564 -0.005199 0.124464 0.011322 0.066261 -0.022056 0.017399 0.077219 -0.179377 0.123293 0.084083 0.042629 -0.013062 0.113103 0.036586 -0.127551 -0.107840 0.041671 -0.052573 -0.074442 -0.013162 -0.014102 0.033326 0.036246 0.049712 0.019362 0.082610 -0.047356 0.099851 -0.111505 -0.010831 -0.012264 -0.024480 0.012966 -0.115818 0.001451 0.063243 
47 0.034112 0.173054 -0.006780 -0.029000 -0.006075 -0.066883 -0.057856 -0.240516 -0.044995 -0.045476 -0.079194 -0.300774 0.104840 0.013875 0.118234 0.040043 -0.012149 0.086896 0.920840 -0.036556 0.012484 0.079851 -0.057866 0.041296 0.447250 -0.060316 -0.031142 -0.058002 -0.007219 0.143826 0.002065 0.065746 -0.027314 0.027743 0.082070 -0.199220 0.135970 0.088063 0.057605 -0.027089 0.113389 0.048006 -0.128138 -0.119850 0.046562 -0.053206 -0.080653 -0.014714 -0.016773 0.025105 0.030694 0.056571 0.021258 0.084981 -0.063505 0.102270 -0.114732 -0.007194 -0.007675 -0.022576 -0.000925 -0.141815 0.009669 0.073181 
4 0.034684 0.176045 -0.005414 -0.022077 -0.002870 -0.059245 -0.061038 -0.241674 -0.053142 -0.044248 -0.081801 -0.307642 0.108269 0.028108 0.119479 0.032431 -0.010212 0.085364 0.928545 -0.039833 0.014294 0.069033 -0.052270 0.043313 0.456351 -0.062902 -0.022447 -0.059716 -0.018736 0.138912 -0.002187 0.064098 -0.039573 0.024330 0.086604 -0.199031 0.139947 0.090557 0.056782 -0.019921 0.124755 0.042857 -0.128481 -0.116303 0.051380 -0.061470 -0.078071 -0.012809 -0.013262 0.035359 0.027297 0.062913 0.010630 0.083878 -0.054103 0.098180 -0.118238 -0.000189 0.001118 -0.031357 0.006845 -0.135842 0.006565 0.081207 
7 0.038967 0.170625 -0.016518 -0.029513 0.003676 -0.064777 -0.060390 -0.244783 -0.040934 -0.039900 -0.082109 -0.315936 0.117120 0.015702 0.126828 0.029632 -0.004503 0.091014 0.947059 -0.041533 0.022744 0.079538 -0.058247 0.051967 0.463950 -0.061098 -0.028681 -0.060279 -0.010478 0.140978 -0.003919 0.067305 -0.034761 0.024876 0.079627 -0.198429 0.134953 0.082766 0.045693 -0.023064 0.125993 0.042471 -0.127234 -0.111356 0.047199 -0.050368 -0.071684 -0.007210 -0.022207 0.034505 0.028034 0.057918 0.020049 0.087543 -0.060364 0.101220 -0.121531 -0.003828 -0.003035 -0.019309 0.000285 -0.129264 0.006858 0.078481 
68 0.032747 0.180400 -0.008060 -0.029470 -0.002400 -0.065291 -0.055211 -0.239257 -0.039463 -0.047127 -0.076448 -0.315159 0.112544 0.020901 0.121116 0.029697 -0.012245 0.082131 0.947501 -0.038041 0.019303 0.076109 -0.060344 0.046477 0.464894 -0.071074 -0.031904 -0.052392 -0.014128 0.144300 -0.001135 0.071203 -0.040137 0.029743 0.089528 -0.189025 0.132194 0.091771 0.053601 -0.023505 0.112807 0.045876 -0.135849 -0.115586 0.043619 -0.050068 -0.075525 -0.011591 -0.026678 0.034967 0.031840 0.054968 0.018607 0.094568 -0.059742 0.107441 -0.118198 -0.003868 -0.002872 -0.018032 0.013445 -0.132496 -0.003330 0.076999 
91 0.043095 0.172540 -0.010186 -0.024823 -0.003256 -0.058446 -0.059828 -0.236440 -0.049278 -0.048388 -0.079994 -0.299009 0.107127 0.014634 0.114718 0.034467 0.001001 0.075002 0.905240 -0.028919 0.017039 0.073537 -0.056326 0.043583 0.438990 -0.060546 -0.027758 -0.055584 -0.014100 0.146276 0.006262 0.062541 -0.024442 0.021763 0.085238 -0.186087 0.127779 0.087295 0.046716 -0.019584 0.115859 0.051184 -0.135311 -0.112646 0.041861 -0.059757 -0.073004 -0.013029 -0.009909 0.023948 0.038403 0.054696 0.019943 0.087227 -0.052862 0.111425 -0.120082 -0.015417 0.001612 -0.029241 0.000309 -0.125474 0.005907 0.077890 
57 0.028249 0.181260 -0.009377 -0.037075 -0.001079 -0.068744 -0.048069 -0.246164 -0.042340 -0.048785 -0.069914 -0.315663 0.114508 0.029782 0.120839 0.027929 -0.012665 0.078123 0.947686 -0.034624 0.021091 0.081348 -0.066644 0.048161 0.464224 -0.064055 -0.022389 -0.060929 -0.010865 0.146531 0.001179 0.077271 -0.038723 0.019380 0.091419 -0.192231 0.137677 0.091291 0.047859 -0.026749 0.113659 0.047849 -0.140209 -0.113395 0.048975 -0.053369 -0.071463 -0.011275 -0.023216 0.033914 0.035554 0.062555 0.010222 0.088806 -0.062495 0.111902 -0.129181 -0.007188 -0.005871 -0.022298 0.006221 -0.141187 0.001537 0.071529 
73 0.032781 0.172697 -0.004633 -0.025284 -0.009405 -0.057851 -0.048206 -0.245084 -0.045065 -0.044039 -0.067805 -0.304183 0.121764 0.016427 0.126287 0.039985 -0.006957 0.082164 0.947697 -0.035050 0.013966 0.074232 -0.057830 0.039508 0.464124 -0.062020 -0.027273 -0.058232 -0.017867 0.146663 -0.000345 0.079814 -0.032943 0.020289 0.082328 -0.203022 0.145855 0.082069 0.050740 -0.016241 0.112986 0.047317 -0.136107 -0.121928 0.042828 -0.056433 -0.080334 -0.004631 -0.016292 0.031658 0.036242 0.056746 0.018731 0.091443 -0.051277 0.112763 -0.129579 -0.010994 -0.008790 -0.026285 0.001180 -0.132209 0.002077 0.082834 
6 0.040361 0.178335 -0.010953 -0.025580 -0.000331 -0.056044 -0.056534 -0.234255 -0.042839 -0.049975 -0.078566 -0.296403 0.114750 0.022468 0.117549 0.039551 0.001333 0.087261 0.929324 -0.029985 0.008452 0.069278 -0.058753 0.049713 0.456002 -0.070598 -0.027499 -0.050900 -0.021873 0.146620 0.002318 0.066868 -0.037184 0.023528 0.075991 -0.190669 0.139089 0.090381 0.056856 -0.015202 0.113807 0.048813 -0.127670 -0.109203 0.037947 -0.055163 -0.065293 -0.010410 -0.021056 0.032831 0.038453 0.053450 0.015748 0.096871 -0.049759 0.100034 -0.122364 -0.010599 -0.007804 -0.024115 0.014666 -0.130412 0.007276 0.081949 
27 0.037332 0.178184 -0.012856 -0.024086 -0.000702 -0.068659 -0.048617 -0.241091 -0.055214 -0.052918 -0.067339 -0.308093 0.113701 0.016336 0.115915 0.027713 -0.001076 0.083186 0.924054 -0.038460 0.008792 0.071231 -0.055885 0.049142 0.447997 -0.060023 -0.025749 -0.057242 -0.020970 0.139043 0.008203 0.078097 -0.038639 0.032618 0.076720 -0.193988 0.140218 0.088304 0.052321 -0.027328 0.121050 0.040596 -0.131843 -0.109923 0.040134 -0.051212 -0.067486 -0.011359 -0.020988 0.023205 0.031298 0.054743 0.018476 0.091192 -0.060988 0.109000 -0.116132 -0.007439 -0.003914 -0.021270 0.001555 -0.131357 0.000429 0.068633 
63 0.035905 0.173905 -0.013121 -0.032003 0.001235 -0.058243 -0.048488 -0.235353 -0.044463 -0.050443 -0.067302 -0.288682 0.112455 0.013926 0.113974 0.035060 0.000309 0.079997 0.899537 -0.025883 0.012343 0.073302 -0.063046 0.050055 0.440620 -0.060512 -0.035238 -0.056014 -0.017625 0.145195 0.003069 0.072508 -0.035448 0.028487 0.075267 -0.186670 0.140998 0.086185 0.049555 -0.019131 0.111255 0.049801 -0.127669 -0.117628 0.042758 -0.056130 -0.076794 -0.008269 -0.017055 0.030653 0.026333 0.058043 0.023763 0.087134 -0.051672 0.102483 -0.115838 -0.015318 -0.011711 -0.027210 0.007282 -0.137296 -0.003991 0.073893 
26 0.041935 0.176177 -0.008481 -0.023131 -0.007543 -0.067336 -0.051861 -0.249290 -0.050635 -0.047260 -0.072012 -0.310573 0.111943 0.017324 0.126344 0.034661 -0.010034 0.089204 0.958763 -0.029887 0.019775 0.070978 -0.057177 0.043148 0.468609 -0.077784 -0.025556 -0.057475 -0.009569 0.154372 0.002228 0.077436 -0.031647 0.029735 0.088088 -0.194263 0.142796 0.098266 0.055707 -0.024824 0.118050 0.051499 -0.132887 -0.118582 0.039704 -0.063336 -0.074003 -0.003598 -0.011853 0.030258 0.027991 0.055626 0.019095 0.096075 -0.058734 0.110155 -0.124041 -0.003082 0.000370 -0.016878 0.001126 -0.136663 -0.001971 0.074327 
41 0.035174 0.168108 -0.015373 -0.023748 0.002322 -0.066305 -0.060286 -0.239655 -0.049512 -0.039378 -0.079447 -0.305174 0.121143 0.023742 0.120083 0.034173 -0.001373 0.080085 0.948936 -0.040639 0.015264 0.083372 -0.058704 0.038573 0.464894 -0.071267 -0.027257 -0.051193 -0.013608 0.140094 0.005003 0.067460 -0.036486 0.018412 0.081711 -0.199457 0.137727 0.091177 0.046629 -0.024817 0.120265 0.053957 -0.139493 -0.122236 0.051275 -0.062745 -0.077294 -0.008653 -0.015280 0.031498 0.031861 0.052604 0.015430 0.085879 -0.057003 0.114705 -0.118167 -0.003670 0.001668 -0.017464 -0.000017 -0.137465 0.003275 0.072145 
69 0.031196 0.182791 -0.017762 -0.036692 0.001649 -0.061824 -0.050918 -0.244322 -0.043087 -0.041127 -0.070207 -0.313823 0.119288 0.017565 0.116641 0.038437 -0.002881 0.089733 0.932154 -0.032594 0.015695 0.066700 -0.055451 0.052604 0.451379 -0.076610 -0.025460 -0.056470 -0.013216 0.145810 0.011143 0.076798 -0.038139 0.027696 0.080534 -0.201447 0.137518 0.088214 0.059210 -0.020153 0.124633 0.045023 -0.126890 -0.122331 0.053745 -0.058411 -0.076328 -0.009258 -0.015403 0.020908 0.038868 0.053753 0.017191 0.095323 -0.053701 0.107207 -0.125701 -0.015054 -0.010292 -0.027646 0.002036 -0.136055 -0.004612 0.075583 
16 0.030634 0.169429 -0.016696 -0.030794 0.003405 -0.069182 -0.054108 -0.245286 -0.050400 -0.039431 -0.074111 -0.304789 0.106827 0.015954 0.118565 0.030389 -0.003267 0.090220 0.942438 -0.036635 0.019226 0.071933 -0.064692 0.039649 0.461693 -0.063319 -0.034295 -0.057362 -0.009502 0.140033 0.007042 0.072802 -0.035944 0.024400 0.083066 -0.201052 0.140874 0.089836 0.057341 -0.026204 0.121046 0.040202 -0.127996 -0.119018 0.042743 -0.050834 -0.073973 -0.007336 -0.013125 0.030250 0.036277 0.059669 0.023360 0.095011 -0.060093 0.103729 -0.129078 -0.007376 -0.001706 -0.020786 0.007367 -0.130269 0.007427 0.083578 
38 0.035842 0.176197 -0.011808 -0.035136 -0.004953 -0.058216 -0.052945 -0.244580 -0.053597 -0.049758 -0.072104 -0.309604 0.114496 0.017696 0.124240 0.028480 -0.011659 0.078415 0.945630 -0.037678 0.010104 0.081370 -0.056101 0.046713 0.462256 -0.077275 -0.023743 -0.056104 -0.016229 0.140924 0.006670 0.075379 -0.029056 0.024452 0.090757 -0.196732 0.134262 0.096683 0.061626 -0.016277 0.120542 0.038804 -0.139227 -0.111903 0.051857 -0.053731 -0.081724 -0.001635 -0.021182 0.028442 0.035693 0.054326 0.016947 0.098177 -0.049489 0.105381 -0.129632 -0.011119 -0.006003 -0.023685 0.002217 -0.136044 0.009046 0.079042 
56 0.044231 0.172223 -0.003507 -0.037892 -0.010094 -0.057932 -0.048094 -0.240631 -0.052541 -0.042036 -0.083599 -0.309881 0.110079 0.024547 0.119833 0.027942 -0.003676 0.086082 0.950184 -0.033857 0.023874 0.077374 -0.056870 0.041720 0.464498 -0.071926 -0.025900 -0.050515 -0.020725 0.144817 0.009114 0.064624 -0.035177 0.028701 0.085858 -0.189472 0.147578 0.089646 0.052720 -0.016019 0.123342 0.042801 -0.134078 -0.117890 0.048998 -0.053334 -0.069799 -0.006943 -0.026601 0.029989 0.040189 0.051658 0.014186 0.089661 -0.065353 0.110576 -0.125986 -0.010729 -0.004882 -0.023915 -0.000205 -0.140633 -0.002708 0.078656 
86 0.039736 0.166537 -0.006578 -0.034546 0.003584 -0.068883 -0.053680 -0.241032 -0.048129 -0.044132 -0.071002 -0.297772 0.107351 0.019249 0.129300 0.032025 -0.005885 0.080062 0.921224 -0.040853 0.020874 0.077117 -0.054486 0.040060 0.446285 -0.075574 -0.021707 -0.055111 -0.020964 0.148801 -0.000197 0.073649 -0.036155 0.020841 0.083635 -0.188751 0.129737 0.086407 0.047076 -0.027851 0.112264 0.048328 -0.134983 -0.115548 0.048257 -0.049149 -0.068923 -0.008000 -0.025322 0.034817 0.031149 0.052479 0.015188 0.098295 -0.059245 0.100916 -0.116525 -0.006674 -0.000168 -0.019338 0.002387 -0.135950 0.006851 0.080549 
79 0.039329 0.166880 -0.005503 -0.026789 -0.009279 -0.060400 -0.054951 -0.239960 -0.053406 -0.042510 -0.072818 -0.300788 0.109127 0.016996 0.115263 0.040441 -0.003501 0.078956 0.920887 -0.028772 0.008819 0.064607 -0.062926 0.042877 0.450234 -0.060967 -0.031025 -0.056606 -0.016241 0.142847 0.009455 0.069471 -0.033198 0.017963 0.084852 -0.185198 0.132844 0.087127 0.045354 -0.018789 0.120987 0.043298 -0.134146 -0.111293 0.036672 -0.055785 -0.079771 -0.005051 -0.022569 0.028544 0.026635 0.056635 0.020376 0.095699 -0.049781 0.112812 -0.119199 -0.014523 -0.008006 -0.026554 0.008033 -0.129286 0.003627 0.070926 
18 0.029613 0.175088 -0.016274 -0.031361 -0.002211 -0.066284 -0.054987 -0.240887 -0.042145 -0.038167 -0.071754 -0.306796 0.116689 0.019594 0.121364 0.035801 0.000905 0.082476 0.928795 -0.030914 0.016847 0.075519 -0.053749 0.049851 0.453729 -0.074552 -0.020982 -0.054980 -0.007992 0.143891 0.008335 0.071862 -0.027676 0.018748 0.077946 -0.199002 0.142814 0.093910 0.049373 -0.024277 0.121580 0.043417 -0.132187 -0.120943 0.046599 -0.059151 -0.073528 -0.014788 -0.014428 0.026332 0.027739 0.051754 0.014636 0.083815 -0.054557 0.098663 -0.120857 -0.002376 -0.010558 -0.030536 0.002582 -0.137881 0.004481 0.067588 
71 0.036069 0.161728 -0.007000 -0.031656 -0.008119 -0.063277 -0.047187 -0.223081 -0.038136 -0.042272 -0.063107 -0.290123 0.107024 0.024926 0.108843 0.035361 -0.005250 0.070511 0.883537 -0.039590 0.011558 0.067429 -0.051866 0.042621 0.431731 -0.066188 -0.021571 -0.046057 -0.011798 0.140300 0.010718 0.073606 -0.031891 0.022213 0.083740 -0.180062 0.132364 0.083414 0.054002 -0.022654 0.118630 0.043375 -0.117982 -0.104938 0.041703 -0.057253 -0.073738 -0.004597 -0.018586 0.026162 0.029299 0.047156 0.011866 0.086134 -0.051150 0.098655 -0.110487 -0.001646 -0.010035 -0.029103 0.000023 -0.132569 0.008528 0.063711 
39 0.031174 0.158733 -0.009843 -0.029544 -0.008865 -0.058902 -0.052874 -0.227288 -0.048840 -0.045251 -0.068452 -0.282931 0.105064 0.018501 0.121418 0.039051 -0.007198 0.081264 0.866334 -0.032771 0.012063 0.068065 -0.048672 0.041746 0.418283 -0.071496 -0.034079 -0.050586 -0.010391 0.130223 0.001672 0.066797 -0.032252 0.029603 0.082073 -0.181790 0.132851 0.080498 0.048137 -0.018567 0.108165 0.049100 -0.121973 -0.104576 0.042798 -0.051834 -0.073642 -0.005285 -0.019615 0.031352 0.037113 0.046669 0.013466 0.080113 -0.046850 0.106305 -0.118064 -0.014301 -0.005861 -0.024813 0.002368 -0.131163 0.001090 0.065693 
17 0.032703 0.164771 -0.008313 -0.024183 -0.005981 -0.069446 -0.057395 -0.234257 -0.041190 -0.045087 -0.073085 -0.295944 0.110306 0.017290 0.109368 0.032113 -0.006586 0.082211 0.894781 -0.037775 0.016310 0.075220 -0.060344 0.045381 0.436788 -0.058442 -0.028426 -0.053871 -0.006564 0.144054 -0.003019 0.065745 -0.031123 0.026884 0.086775 -0.185517 0.140717 0.083534 0.048765 -0.027265 0.105077 0.046491 -0.124165 -0.103555 0.049813 -0.043942 -0.071521 -0.003863 -0.016219 0.026302 0.034361 0.055137 0.020058 0.082073 -0.056284 0.105148 -0.123557 -0.005464 -0.012651 -0.017532 0.008350 -0.128463 -0.001975 0.075411 
10 0.037365 0.171159 -0.003592 -0.028384 -0.000268 -0.056677 -0.055845 -0.231747 -0.044188 -0.039866 -0.070859 -0.298327 0.101032 0.019179 0.115245 0.028967 -0.001539 0.085449 0.890796 -0.037960 0.022782 0.066562 -0.049996 0.037077 0.434024 -0.072646 -0.032827 -0.052556 -0.014181 0.142296 0.011666 0.067746 -0.024554 0.027138 0.078300 -0.180579 0.132195 0.090403 0.052711 -0.015394 0.105385 0.045401 -0.120992 -0.111966 0.042543 -0.047930 -0.063402 -0.013463 -0.024876 0.023660 0.033190 0.048248 0.012944 0.083627 -0.059464 0.105963 -0.123458 -0.009836 -0.000588 -0.021869 0.002888 -0.134113 -0.000787 0.070650 
20 0.027442 0.155830 -0.009997 -0.029022 -0.005160 -0.053487 -0.048243 -0.212911 -0.040724 -0.044601 -0.061871 -0.280887 0.107112 0.024913 0.103396 0.027705 -0.007273 0.073750 0.846177 -0.032383 0.017297 0.060649 -0.048584 0.044756 0.412437 -0.061658 -0.033105 -0.043782 -0.018698 0.123086 -0.003012 0.068199 -0.028402 0.014455 0.069484 -0.178236 0.122362 0.079078 0.040534 -0.014343 0.101419 0.046449 -0.122541 -0.111258 0.037487 -0.044913 -0.063694 -0.002376 -0.012626 0.023643 0.035774 0.043660 0.009889 0.085846 -0.056545 0.088960 -0.113806 -0.008363 -0.000012 -0.019994 0.000844 -0.114555 0.003111 0.066648 
100 0.042974 0.169638 -0.014817 -0.027205 -0.006726 -0.054248 -0.058498 -0.238203 -0.039877 -0.050762 -0.074394 -0.299676 0.114034 0.020916 0.127540 0.035069 -0.011189 0.074705 0.908032 -0.026246 0.019534 0.066217 -0.050996 0.046651 0.438232 -0.073611 -0.034843 -0.053016 -0.019589 0.142061 0.004391 0.067998 -0.032443 0.026132 0.073612 -0.196457 0.133272 0.083788 0.056927 -0.027551 0.116723 0.040833 -0.137586 -0.121365 0.041751 -0.060923 -0.069370 -0.004692 -0.013690 0.030722 0.031023 0.049794 0.012862 0.086890 -0.056301 0.107222 -0.115507 -0.005701 -0.011939 -0.017937 0.003104 -0.139994 -0.003787 0.075397 
48 0.042815 0.173170 -0.012931 -0.022250 -0.004198 -0.063586 -0.045635 -0.242918 -0.047027 -0.050715 -0.077992 -0.309638 0.118752 0.020221 0.129420 0.027247 -0.008990 0.076566 0.927488 -0.031643 0.022549 0.072763 -0.060437 0.049803 0.452659 -0.059675 -0.028014 -0.055226 -0.015728 0.138547 -0.000620 0.066002 -0.030798 0.022510 0.078202 -0.198354 0.139317 0.086115 0.055452 -0.019797 0.113486 0.052575 -0.139000 -0.118962 0.046715 -0.052984 -0.066689 -0.002352 -0.011603 0.024284 0.027351 0.055983 0.018363 0.086785 -0.049119 0.104788 -0.120397 -0.013019 -0.003130 -0.024857 0.008230 -0.135855 0.008288 0.068207 
88 0.033029 0.183439 -0.008786 -0.027120 0.002127 -0.067557 -0.061544 -0.245938 -0.051355 -0.046595 -0.077189 -0.303224 0.113162 0.023071 0.121866 0.041184 -0.003822 0.081205 0.945889 -0.032788 0.013277 0.066309 -0.067301 0.042294 0.460061 -0.075748 -0.033608 -0.054544 -0.008860 0.141135 0.000085 0.068530 -0.025559 0.023988 0.086918 -0.196646 0.133818 0.093416 0.060099 -0.023299 0.114143 0.051636 -0.138438 -0.113737 0.040858 -0.059013 -0.076587 -0.010752 -0.020649 0.023558 0.028190 0.050470 0.011556 0.093493 -0.052614 0.108782 -0.123982 -0.002450 -0.007419 -0.029467 0.003852 -0.129324 0.009491 0.079984 
49 0.041114 0.173908 -0.015043 -0.027138 -0.002895 -0.067388 -0.055439 -0.234762 -0.049547 -0.052165 -0.070089 -0.294880 0.104360 0.027574 0.128664 0.040903 -0.010610 0.085795 0.924503 -0.028280 0.010393 0.077799 -0.052423 0.036764 0.450497 -0.068521 -0.034231 -0.062485 -0.011329 0.141187 0.001665 0.072215 -0.030368 0.027100 0.080107 -0.183726 0.143911 0.085943 0.050931 -0.024473 0.114753 0.038379 -0.127652 -0.115936 0.037633 -0.056328 -0.079167 -0.001086 -0.023510 0.025031 0.030450 0.062855 0.009537 0.097501 -0.051799 0.110220 -0.116232 -0.001247 -0.007241 -0.029501 0.001781 -0.128266 -0.001477 0.078885 
85 0.038861 0.181875 -0.017915 -0.026067 -0.004847 -0.066481 -0.049286 -0.252708 -0.046873 -0.041936 -0.080201 -0.321898 0.110599 0.023974 0.132393 0.031021 -0.013494 0.086209 0.966194 -0.038176 0.009990 0.081806 -0.069219 0.053753 0.482358 -0.078166 -0.032642 -0.055609 -0.011471 0.156059 0.008126 0.069957 -0.033310 0.020989 0.083468 -0.196879 0.136672 0.089274 0.047854 -0.021216 0.128198 0.048648 -0.140181 -0.123380 0.039691 -0.055585 -0.083605 -0.002545 -0.026228 0.031030 0.040471 0.051106 0.011113 0.096628 -0.050015 0.109408 -0.131427 -0.013876 -0.001807 -0.026547 0.005349 -0.133667 0.006864 0.085910 
76 0.039496 0.183591 -0.017178 -0.035350 -0.002099 -0.058146 -0.051991 -0.253888 -0.054629 -0.040778 -0.082519 -0.312336 0.112418 0.022806 0.134400 0.038652 -0.012542 0.086001 0.972444 -0.042577 0.013328 0.071922 -0.062227 0.041381 0.474344 -0.064115 -0.027111 -0.057022 -0.008322 0.151521 0.003219 0.066783 -0.030390 0.032815 0.085676 -0.195244 0.140386 0.089937 0.047518 -0.028728 0.122616 0.042920 -0.139818 -0.119166 0.044881 -0.062462 -0.079369 -0.000553 -0.022628 0.024862 0.036886 0.056270 0.017006 0.095096 -0.057298 0.105683 -0.135323 -0.005929 -0.009116 -0.018579 0.010518 -0.144932 0.004435 0.076160 
98 0.040440 0.160371 -0.012254 -0.022474 -0.011263 -0.057470 -0.045626 -0.232721 -0.037584 -0.047911 -0.075467 -0.289101 0.109948 0.022051 0.115258 0.033139 -0.006750 0.082015 0.894181 -0.039655 0.019740 0.073709 -0.063300 0.044126 0.434907 -0.072020 -0.029764 -0.050222 -0.013981 0.138521 0.001768 0.062524 -0.037202 0.016770 0.085962 -0.191661 0.137790 0.088270 0.046883 -0.015677 0.111831 0.038180 -0.125830 -0.118293 0.035286 -0.046023 -0.065786 -0.009308 -0.013181 0.020015 0.033880 0.046421 0.010153 0.090086 -0.056936 0.098139 -0.109193 -0.008789 -0.012983 -0.019480 0.003254 -0.124079 0.004560 0.066839 
99 0.029460 0.153328 -0.002116 -0.021273 0.000542 -0.051791 -0.050841 -0.202476 -0.047853 -0.033647 -0.061236 -0.257405 0.094507 0.010864 0.111269 0.029349 -0.011575 0.066484 0.802527 -0.032887 0.014263 0.063372 -0.043393 0.034394 0.390696 -0.059152 -0.028408 -0.054491 -0.016223 0.126797 0.004024 0.061423 -0.023674 0.018731 0.072478 -0.163312 0.120413 0.073633 0.047841 -0.013948 0.102618 0.036984 -0.119272 -0.096182 0.043512 -0.040299 -0.062826 -0.013935 -0.016387 0.018866 0.034429 0.053754 0.021833 0.072001 -0.051225 0.092308 -0.108993 -0.007957 -0.011216 -0.017964 0.000685 -0.113919 0.009206 0.057588 
33 0.031583 0.178860 -0.006178 -0.023144 -0.002159 -0.057412 -0.050761 -0.247220 -0.050796 -0.043354 -0.080070 -0.316660 0.111750 0.024251 0.128869 0.040263 0.000096 0.090622 0.940028 -0.030970 0.016311 0.075869 -0.066490 0.040455 0.468224 -0.075925 -0.029543 -0.053834 -0.017832 0.141788 0.012341 0.066301 -0.029637 0.031146 0.084798 -0.197810 0.143170 0.085167 0.051684 -0.029429 0.112498 0.050520 -0.130225 -0.115685 0.051773 -0.060177 -0.073899 -0.001581 -0.019589 0.028548 0.031926 0.064957 0.010678 0.097641 -0.055772 0.102588 -0.120471 -0.005387 -0.008127 -0.017200 0.004677 -0.134082 0.002616 0.072953 
77 0.029972 0.175310 -0.005612 -0.031696 0.000993 -0.063173 -0.050716 -0.240274 -0.040071 -0.041124 -0.080144 -0.296899 0.111296 0.022499 0.126094 0.031664 0.002169 0.086721 0.918262 -0.034086 0.018614 0.078349 -0.058730 0.042147 0.447351 -0.059446 -0.022693 -0.052903 -0.013169 0.147380 0.005399 0.076263 -0.027213 0.026012 0.085044 -0.188926 0.142346 0.083915 0.048678 -0.020162 0.118868 0.043572 -0.125967 -0.107359 0.040168 -0.050157 -0.068901 -0.013343 -0.016590 0.022051 0.027065 0.051863 0.014246 0.093021 -0.060998 0.111401 -0.121131 -0.014010 0.000365 -0.023046 0.010258 -0.139084 -0.000349 0.077508 
37 0.034220 0.164782 -0.014517 -0.020968 -0.008309 -0.067303 -0.050135 -0.237202 -0.042781 -0.051978 -0.078144 -0.297832 0.116987 0.023976 0.114719 0.027676 -0.009156 0.075048 0.909438 -0.034702 0.010310 0.070993 -0.063418 0.047863 0.441668 -0.072651 -0.027967 -0.050818 -0.021931 0.145911 0.005010 0.061605 -0.037216 0.026192 0.076387 -0.184187 0.134923 0.089888 0.052253 -0.024277 0.117067 0.044033 -0.137036 -0.116233 0.047884 -0.053576 -0.075254 -0.007736 -0.025457 0.034959 0.027080 0.061275 0.008145 0.096025 -0.049820 0.110624 -0.119309 -0.000279 -0.001813 -0.027049 0.004302 -0.129141 0.000400 0.073563 
21 0.041598 0.167921 -0.005965 -0.020139 0.002146 -0.064547 -0.042748 -0.221215 -0.040334 -0.040887 -0.069217 -0.283671 0.107406 0.013152 0.119395 0.025956 0.000805 0.079133 0.872697 -0.029162 0.021627 0.065022 -0.062943 0.041937 0.424645 -0.064203 -0.028336 -0.057131 -0.009440 0.127810 0.007462 0.064618 -0.025133 0.030295 0.083694 -0.183077 0.125661 0.080140 0.057347 -0.024045 0.115928 0.043862 -0.123409 -0.115925 0.044410 -0.050469 -0.061396 -0.013225 -0.012400 0.019716 0.029432 0.057063 0.021430 0.082589 -0.046796 0.096651 -0.110245 -0.000638 -0.002040 -0.026889 0.002321 -0.126235 0.005158 0.069391 
90 0.038759 0.173538 -0.009641 -0.035042 0.000555 -0.063864 -0.051011 -0.236117 -0.051780 -0.045618 -0.079747 -0.290218 0.110528 0.024404 0.121951 0.030871 -0.002029 0.077197 0.897165 -0.038267 0.022947 0.067568 -0.062364 0.042289 0.447002 -0.072363 -0.026839 -0.050019 -0.009285 0.139619 -0.000949 0.075450 -0.027619 0.023986 0.085280 -0.194022 0.131501 0.080411 0.054441 -0.020246 0.111041 0.037260 -0.133854 -0.105113 0.047263 -0.047376 -0.063997 -0.014597 -0.013320 0.025063 0.038764 0.060419 0.008558 0.080996 -0.060407 0.108595 -0.122195 -0.011989 0.002029 -0.022733 0.003776 -0.129817 -0.002600 0.075738 
1 0.040718 0.176460 -0.008151 -0.028020 0.002541 -0.055802 -0.054054 -0.238448 -0.044393 -0.044773 -0.065598 -0.298017 0.113889 0.023103 0.124349 0.040213 -0.001310 0.076594 0.910695 -0.026214 0.009795 0.073653 -0.056653 0.045910 0.442704 -0.074295 -0.020618 -0.053113 -0.021608 0.136060 0.009595 0.074226 -0.024631 0.020661 0.088455 -0.193431 0.137100 0.083509 0.053976 -0.028300 0.122354 0.048642 -0.135152 -0.118880 0.035712 -0.056549 -0.076115 -0.012116 -0.009550 0.035105 0.033743 0.051226 0.013734 0.096042 -0.052100 0.106908 -0.111790 -0.004336 -0.005381 -0.031339 0.011321 -0.125351 0.009580 0.068178 
50 0.028670 0.170091 -0.003369 -0.033842 -0.006099 -0.061667 -0.053112 -0.239928 -0.047853 -0.040114 -0.081062 -0.304610 0.107160 0.025659 0.115978 0.037107 -0.011804 0.081181 0.921034 -0.027250 0.016519 0.067453 -0.063870 0.037514 0.446748 -0.073343 -0.025949 -0.051662 -0.012829 0.137293 0.007744 0.076764 -0.034625 0.021738 0.081481 -0.190802 0.130641 0.090183 0.057584 -0.016485 0.122356 0.048024 -0.133150 -0.112789 0.045327 -0.060781 -0.069347 -0.006700 -0.018504 0.032994 0.035076 0.062033 0.023278 0.084232 -0.056501 0.109010 -0.114049 -0.008511 -0.008385 -0.018886 0.005662 -0.133380 -0.004690 0.079374 
29 0.035209 0.158113 -0.010569 -0.033830 -0.010612 -0.058714 -0.045940 -0.224505 -0.045067 -0.044972 -0.072882 -0.291525 0.113437 0.015288 0.120561 0.036010 -0.002143 0.085485 0.885627 -0.038193 0.013101 0.076169 -0.062549 0.045955 0.430195 -0.064308 -0.027552 -0.058637 -0.016598 0.134893 0.010689 0.063625 -0.024035 0.025112 0.072664 -0.191645 0.138519 0.080255 0.047645 -0.015272 0.105011 0.048965 -0.120276 -0.113031 0.042120 -0.056991 -0.071674 -0.010898 -0.021855 0.033339 0.037618 0.057413 0.020599 0.087319 -0.054274 0.093478 -0.120239 -0.007111 -0.008762 -0.018571 0.002856 -0.130242 -0.000715 0.076521 
93 0.032982 0.177935 -0.013578 -0.031807 0.002988 -0.057558 -0.055003 -0.238978 -0.042266 -0.050480 -0.066485 -0.297018 0.116814 0.026764 0.122462 0.025860 -0.004963 0.085095 0.909950 -0.032625 0.012239 0.079770 -0.062189 0.047352 0.453709 -0.073015 -0.024735 -0.050419 -0.016672 0.147180 0.001589 0.074425 -0.026423 0.019408 0.074552 -0.185742 0.142904 0.081500 0.043660 -0.028778 0.115558 0.042416 -0.130075 -0.118289 0.043136 -0.056198 -0.072862 -0.013033 -0.024166 0.023927 0.031756 0.060645 0.022358 0.083917 -0.052108 0.106443 -0.117768 -0.004664 -0.002776 -0.029631 0.004871 -0.134572 0.008669 0.066501 
65 0.033494 0.162159 -0.011743 -0.025277 -0.009374 -0.065303 -0.056810 -0.239001 -0.048833 -0.048460 -0.067420 -0.300845 0.103110 0.023576 0.123340 0.034818 -0.002307 0.083108 0.912051 -0.036156 0.016371 0.068696 -0.055683 0.049202 0.443283 -0.074540 -0.034080 -0.051016 -0.012225 0.141304 -0.004397 0.071658 -0.024040 0.029961 0.077549 -0.183034 0.131924 0.082271 0.058841 -0.021796 0.109807 0.037147 -0.127953 -0.113133 0.048531 -0.046898 -0.069209 -0.010193 -0.020322 0.034671 0.026684 0.049698 0.012528 0.082158 -0.059325 0.102011 -0.120616 -0.012240 -0.011248 -0.021707 0.011483 -0.127697 0.004864 0.073159 
84 0.035393 0.157606 -0.006437 -0.028146 -0.003124 -0.064631 -0.051913 -0.220988 -0.048390 -0.040055 -0.061842 -0.283516 0.102659 0.025400 0.105799 0.028578 -0.012616 0.080683 0.847132 -0.033645 0.007809 0.071336 -0.057632 0.036034 0.410291 -0.067012 -0.022050 -0.045207 -0.019334 0.130611 0.010078 0.067940 -0.030812 0.029653 0.078974 -0.181641 0.130632 0.081952 0.043100 -0.023490 0.100987 0.048411 -0.116063 -0.098971 0.038887 -0.046488 -0.072018 -0.004094 -0.011612 0.029365 0.024520 0.055964 0.020795 0.079488 -0.043657 0.095927 -0.111695 0.000328 0.001729 -0.024246 0.005109 -0.125511 0.005504 0.063872 
32 0.029244 0.164639 -0.013681 -0.032558 -0.008230 -0.069374 -0.050175 -0.231158 -0.049942 -0.050001 -0.077320 -0.303005 0.105429 0.017139 0.122508 0.030772 -0.004887 0.078668 0.912953 -0.032457 0.019885 0.074187 -0.063179 0.050448 0.443540 -0.065501 -0.024986 -0.058396 -0.008150 0.143245 -0.001837 0.062502 -0.038291 0.020233 0.079182 -0.185709 0.136085 0.082319 0.053555 -0.023669 0.111622 0.039438 -0.133853 -0.110885 0.038707 -0.050127 -0.065776 -0.009889 -0.017530 0.032977 0.031534 0.057251 0.020086 0.092197 -0.046852 0.108288 -0.116530 -0.000238 0.001856 -0.025209 0.003438 -0.137125 -0.005113 0.068444 
83 0.042798 0.161592 -0.017289 -0.028048 -0.010839 -0.065073 -0.057706 -0.236258 -0.044912 -0.038045 -0.067054 -0.296103 0.104500 0.026885 0.119648 0.035742 -0.006741 0.073946 0.898595 -0.040103 0.018929 0.074267 -0.061698 0.050320 0.446749 -0.071835 -0.022197 -0.048177 -0.008495 0.134232 0.004110 0.071169 -0.024640 0.028378 0.077044 -0.187967 0.136735 0.079651 0.048645 -0.021050 0.117048 0.045499 -0.122358 -0.110898 0.038816 -0.045522 -0.064838 -0.011278 -0.018452 0.023180 0.038533 0.058413 0.020620 0.087949 -0.057947 0.100992 -0.123728 -0.012321 -0.009447 -0.020870 0.006160 -0.134317 0.003987 0.072270 
82 0.042241 0.160191 -0.016079 -0.020882 -0.006366 -0.055551 -0.058379 -0.232084 -0.051860 -0.050675 -0.067019 -0.294514 0.104073 0.024546 0.119129 0.027138 -0.005362 0.070527 0.881380 -0.028576 0.022076 0.061462 -0.052685 0.035458 0.427730 -0.070911 -0.031296 -0.048402 -0.019567 0.142538 -0.000433 0.066967 -0.036386 0.024433 0.077895 -0.181738 0.136900 0.078597 0.046206 -0.028814 0.108839 0.039906 -0.118793 -0.104789 0.043297 -0.051800 -0.075867 -0.007775 -0.013809 0.031016 0.033232 0.046855 0.011260 0.083789 -0.048139 0.094485 -0.109019 -0.003729 -0.000691 -0.028166 0.011667 -0.125889 0.001039 0.076133 
43 0.029393 0.163223 -0.011083 -0.026047 -0.000498 -0.057388 -0.055975 -0.225084 -0.037943 -0.044952 -0.064533 -0.275794 0.108989 0.026959 0.106581 0.038552 0.000150 0.072838 0.861992 -0.028018 0.013173 0.069242 -0.057150 0.041650 0.417346 -0.068076 -0.020408 -0.045591 -0.011918 0.138709 -0.002470 0.067425 -0.029628 0.024419 0.082960 -0.173259 0.127227 0.083089 0.048259 -0.016521 0.106029 0.038130 -0.128960 -0.111325 0.035186 -0.054443 -0.066663 -0.001755 -0.022582 0.027861 0.032820 0.054767 0.018752 0.084069 -0.050974 0.093432 -0.106851 -0.007753 -0.003849 -0.015426 0.006587 -0.130313 0.001211 0.070779 
45 0.039523 0.170266 -0.018774 -0.030732 -0.006589 -0.062480 -0.053570 -0.235898 -0.038898 -0.038807 -0.079579 -0.295756 0.112750 0.019415 0.124105 0.040946 -0.006034 0.086312 0.929123 -0.026916 0.011211 0.070560 -0.063326 0.040035 0.451369 -0.066709 -0.024385 -0.059087 -0.016382 0.135793 0.000486 0.077871 -0.037876 0.030257 0.084076 -0.194205 0.132935 0.083028 0.058452 -0.016464 0.116341 0.044229 -0.130889 -0.108699 0.052273 -0.057512 -0.076119 -0.007902 -0.013602 0.031206 0.039296 0.057226 0.018143 0.096213 -0.055149 0.106574 -0.127856 -0.008192 -0.004550 -0.016749 0.004446 -0.126469 0.005389 0.075119 
25 0.036167 0.165535 -0.005654 -0.027583 -0.007617 -0.057880 -0.060244 -0.238172 -0.050278 -0.041217 -0.068642 -0.301396 0.109696 0.012876 0.120049 0.029257 -0.009056 0.081020 0.903914 -0.034200 0.010033 0.070238 -0.059373 0.038468 0.449035 -0.071002 -0.020965 -0.048069 -0.016154 0.141283 0.007540 0.070366 -0.038489 0.023009 0.082691 -0.194606 0.132207 0.079041 0.053310 -0.028678 0.121316 0.050156 -0.132424 -0.107438 0.036885 -0.052394 -0.075614 -0.008955 -0.012957 0.020991 0.031474 0.057286 0.020248 0.091128 -0.049542 0.096872 -0.117854 -0.004023 -0.001007 -0.028517 0.006569 -0.123827 -0.002031 0.077264 
62 0.034307 0.156848 -0.004322 -0.034168 -0.005347 -0.062078 -0.044278 -0.224928 -0.038167 -0.037212 -0.067318 -0.273577 0.105890 0.025426 0.113510 0.036137 -0.006810 0.075672 0.856819 -0.035808 0.012219 0.070718 -0.050361 0.038362 0.415192 -0.068430 -0.028179 -0.046221 -0.010978 0.127672 0.001620 0.063144 -0.034497 0.018515 0.080344 -0.181748 0.128053 0.075620 0.049767 -0.019468 0.110031 0.042592 -0.124058 -0.113271 0.038624 -0.057666 -0.067383 -0.006392 -0.023672 0.028930 0.025437 0.044265 0.009174 0.084103 -0.053437 0.103175 -0.113875 -0.011493 -0.006609 -0.018753 0.012379 -0.125884 -0.004199 0.065128 
14 0.038884 0.161316 -0.015165 -0.022623 0.001210 -0.051043 -0.042059 -0.220131 -0.040629 -0.047260 -0.064697 -0.272624 0.096025 0.012469 0.118833 0.031841 -0.001718 0.077567 0.842732 -0.035467 0.020243 0.062158 -0.055219 0.045156 0.407183 -0.066066 -0.033833 -0.044120 -0.017874 0.125495 -0.000262 0.064062 -0.027525 0.018715 0.070258 -0.174591 0.119446 0.079708 0.052352 -0.023955 0.107287 0.041257 -0.118974 -0.104974 0.047928 -0.044489 -0.073972 -0.000120 -0.016625 0.026221 0.024670 0.053355 0.017446 0.085482 -0.056017 0.104080 -0.113534 0.000086 -0.009636 -0.023348 0.006708 -0.114020 -0.003739 0.075514 
60 0.035705 0.178507 -0.006618 -0.028399 -0.002907 -0.058076 -0.059104 -0.243894 -0.046161 -0.043689 -0.069186 -0.308691 0.119536 0.020405 0.128114 0.036541 -0.009076 0.079264 0.943697 -0.036503 0.017207 0.068491 -0.064260 0.044685 0.465359 -0.069569 -0.022684 -0.059705 -0.008162 0.145753 0.004510 0.077603 -0.037454 0.026146 0.091823 -0.205719 0.147910 0.084765 0.050765 -0.025586 0.124317 0.049292 -0.144145 -0.122994 0.050323 -0.051003 -0.071045 -0.007268 -0.023531 0.031351 0.032668 0.058197 0.017508 0.088946 -0.063554 0.106069 -0.123721 -0.000549 -0.010277 -0.025710 0.005970 -0.132784 0.001823 0.083996 
55 0.030301 0.170820 -0.009574 -0.024255 -0.004485 -0.067906 -0.048563 -0.242460 -0.040354 -0.044863 -0.072768 -0.309243 0.114853 0.014071 0.121782 0.039653 -0.011603 0.088672 0.920715 -0.029002 0.017257 0.068138 -0.059979 0.042727 0.457146 -0.072610 -0.035219 -0.048090 -0.007037 0.148983 0.010153 0.069547 -0.037923 0.018149 0.088010 -0.186458 0.144081 0.080774 0.059954 -0.021186 0.112032 0.039750 -0.128025 -0.120265 0.049770 -0.060069 -0.069674 -0.007928 -0.023743 0.036078 0.039394 0.056981 0.018304 0.095161 -0.057880 0.111002 -0.128148 -0.011576 -0.005536 -0.019760 0.007254 -0.128222 0.009329 0.069129 
51 0.026879 0.157782 -0.007645 -0.031828 -0.002149 -0.055230 -0.045877 -0.222414 -0.041557 -0.040435 -0.068684 -0.273470 0.109057 0.026742 0.111734 0.029364 -0.009314 0.080670 0.832845 -0.029411 0.019071 0.064539 -0.048850 0.041154 0.410247 -0.066845 -0.026897 -0.044933 -0.018071 0.131154 0.004864 0.060000 -0.033363 0.027757 0.067755 -0.169770 0.120760 0.074360 0.054515 -0.026178 0.111793 0.046512 -0.117401 -0.106674 0.035037 -0.047037 -0.058937 -0.005050 -0.018663 0.027055 0.033124 0.057712 0.023043 0.086805 -0.044758 0.098845 -0.105275 -0.002746 -0.012072 -0.025537 0.011706 -0.126367 0.006185 0.070057 
9 0.032197 0.164629 -0.002796 -0.020187 0.004343 -0.059090 -0.045390 -0.222321 -0.045288 -0.035547 -0.067595 -0.277491 0.100562 0.013564 0.118734 0.026301 -0.004662 0.068914 0.849791 -0.028917 0.010722 0.074431 -0.055350 0.032714 0.410047 -0.066494 -0.031779 -0.043311 -0.010282 0.131862 0.003076 0.062388 -0.026728 0.028863 0.075053 -0.181307 0.130052 0.080269 0.041606 -0.016259 0.111572 0.046244 -0.114477 -0.100486 0.043708 -0.050976 -0.067696 -0.014098 -0.011142 0.024838 0.032710 0.052741 0.016513 0.090018 -0.047739 0.100084 -0.105851 -0.006555 0.000279 -0.030099 0.006658 -0.117800 0.007400 0.065353 
80 0.042503 0.169665 -0.010244 -0.024043 -0.000630 -0.061764 -0.057949 -0.229024 -0.047746 -0.044623 -0.065724 -0.292962 0.101572 0.020546 0.118753 0.027482 -0.011313 0.080404 0.884115 -0.027752 0.023570 0.075715 -0.058927 0.045985 0.435381 -0.064547 -0.035300 -0.055775 -0.014537 0.141636 0.006561 0.071638 -0.033436 0.018593 0.073469 -0.182264 0.134103 0.079044 0.051435 -0.017624 0.121041 0.051641 -0.130025 -0.110854 0.043903 -0.053937 -0.076092 -0.003792 -0.017458 0.027293 0.038336 0.052347 0.015117 0.084898 -0.051215 0.110688 -0.123754 -0.007249 0.000834 -0.030774 0.005016 -0.128244 -0.003592 0.067938 
35 0.037619 0.165660 -0.012415 -0.020163 -0.001746 -0.056853 -0.048788 -0.230510 -0.041509 -0.046491 -0.070873 -0.282143 0.098573 0.015062 0.114482 0.031928 0.001725 0.074622 0.872410 -0.034669 0.022484 0.074234 -0.056056 0.043882 0.432685 -0.068880 -0.030996 -0.044731 -0.014253 0.130489 -0.002360 0.064137 -0.034630 0.027209 0.072536 -0.182166 0.132008 0.091161 0.046545 -0.028395 0.109179 0.041469 -0.131837 -0.109493 0.044284 -0.048323 -0.074293 -0.005589 -0.016897 0.032654 0.029521 0.053014 0.015636 0.078779 -0.046002 0.101688 -0.113954 -0.002786 -0.010597 -0.026358 0.007541 -0.123901 0.004124 0.070758 
59 0.038238 0.164481 -0.011415 -0.029069 0.000573 -0.064875 -0.050916 -0.228265 -0.047505 -0.044727 -0.070993 -0.283352 0.100229 0.013041 0.113667 0.023392 -0.012690 0.072022 0.850942 -0.038779 0.010235 0.062343 -0.048288 0.046070 0.418728 -0.069677 -0.025213 -0.045548 -0.010255 0.139248 0.007905 0.060479 -0.031274 0.023171 0.073684 -0.178511 0.134897 0.075357 0.044975 -0.020728 0.102850 0.036263 -0.129798 -0.105771 0.048935 -0.054842 -0.070152 -0.003623 -0.013613 0.025781 0.025326 0.058305 0.022192 0.091689 -0.052117 0.096900 -0.115685 -0.010203 -0.002653 -0.018695 0.012346 -0.116797 0.001883 0.076915 
36 0.028727 0.167970 -0.008110 -0.036794 -0.009760 -0.056784 -0.052707 -0.245351 -0.054252 -0.043347 -0.076368 -0.310166 0.116149 0.016265 0.128922 0.039453 -0.007104 0.083467 0.938796 -0.041188 0.018313 0.077313 -0.059087 0.041338 0.453310 -0.072129 -0.032944 -0.062755 -0.018651 0.149799 0.007576 0.067295 -0.027404 0.025206 0.086629 -0.189234 0.138345 0.088842 0.051726 -0.025208 0.111280 0.038238 -0.137233 -0.122754 0.044620 -0.063173 -0.067950 -0.013140 -0.023510 0.025643 0.028196 0.055316 0.017024 0.086633 -0.060407 0.106721 -0.125162 -0.016331 -0.007008 -0.022684 0.009261 -0.133568 0.002796 0.078007 
75 0.036632 0.176473 -0.014981 -0.021420 0.001961 -0.055544 -0.046805 -0.235364 -0.052399 -0.049351 -0.069682 -0.303977 0.108973 0.023398 0.121066 0.038895 0.001520 0.087799 0.908276 -0.037327 0.013664 0.073096 -0.059537 0.050519 0.447707 -0.066297 -0.033566 -0.055316 -0.006654 0.135374 0.009895 0.071025 -0.032771 0.030012 0.080614 -0.191673 0.131552 0.080797 0.058759 -0.025345 0.111279 0.040834 -0.127623 -0.109617 0.040915 -0.062693 -0.070491 -0.002082 -0.012161 0.027263 0.031843 0.052455 0.012974 0.090299 -0.058605 0.109602 -0.120157 -0.015855 -0.005346 -0.021653 0.006697 -0.134912 0.007656 0.075993 
58 0.034396 0.178951 -0.017256 -0.035631 0.000183 -0.069811 -0.053780 -0.245701 -0.049332 -0.053287 -0.076651 -0.304491 0.110437 0.017668 0.121497 0.027544 -0.000341 0.086243 0.934195 -0.030816 0.014688 0.074400 -0.058546 0.051081 0.462865 -0.071849 -0.030453 -0.063058 -0.007010 0.145256 0.000900 0.067220 -0.035289 0.023665 0.082073 -0.200571 0.136450 0.095354 0.055348 -0.022423 0.120123 0.048363 -0.133969 -0.112328 0.044215 -0.058525 -0.071931 -0.004929 -0.012469 0.032156 0.040530 0.055626 0.015591 0.087675 -0.056551 0.104321 -0.130563 -0.011556 -0.001760 -0.019421 0.008010 -0.136337 0.000366 0.081322 
15 0.032977 0.172010 -0.015690 -0.028281 0.003110 -0.059298 -0.054403 -0.236782 -0.038514 -0.049123 -0.077124 -0.297118 0.108279 0.015053 0.117493 0.034417 0.000409 0.081730 0.885510 -0.033656 0.017252 0.075763 -0.050244 0.035541 0.435242 -0.071611 -0.023983 -0.046413 -0.017806 0.133802 0.011156 0.075293 -0.031746 0.017944 0.080605 -0.190542 0.133620 0.078013 0.052255 -0.029007 0.110425 0.041665 -0.128546 -0.103914 0.047281 -0.047746 -0.064783 -0.001863 -0.024532 0.025102 0.034782 0.058628 0.020537 0.082906 -0.061648 0.096142 -0.113318 -0.003310 -0.008242 -0.025156 0.014044 -0.123988 -0.002904 0.069677 
81 0.033645 0.149370 -0.009590 -0.030189 -0.005884 -0.058017 -0.049541 -0.215822 -0.036820 -0.040472 -0.068844 -0.275308 0.106764 0.015247 0.112406 0.028570 -0.008762 0.078957 0.823066 -0.031469 0.006858 0.063350 -0.050915 0.038544 0.396013 -0.064127 -0.026009 -0.055495 -0.008594 0.121796 0.010222 0.056633 -0.022704 0.017514 0.080293 -0.169569 0.114450 0.076758 0.050603 -0.014841 0.098910 0.036723 -0.113698 -0.102290 0.036587 -0.046906 -0.067509 -0.010145 -0.016459 0.020613 0.031603 0.048501 0.013004 0.078720 -0.044678 0.088141 -0.103330 -0.005751 -0.011667 -0.026744 0.007976 -0.119214 -0.002671 0.059055 
28 0.026325 0.159671 -0.016551 -0.030903 0.004331 -0.057529 -0.044199 -0.209634 -0.036120 -0.031980 -0.064432 -0.273396 0.101207 0.021286 0.107310 0.029213 0.000077 0.070383 0.808866 -0.027157 0.019171 0.059312 -0.051575 0.032883 0.397850 -0.058186 -0.028431 -0.049472 -0.012578 0.124687 -0.002324 0.060572 -0.027856 0.021964 0.075520 -0.177941 0.128060 0.070424 0.042139 -0.014831 0.101801 0.040089 -0.123020 -0.108199 0.033493 -0.046869 -0.070875 -0.000605 -0.019774 0.021711 0.036161 0.045796 0.010978 0.084094 -0.043980 0.093334 -0.114650 -0.005648 -0.011220 -0.027223 0.005852 -0.122000 0.002190 0.059126 
34 0.038906 0.157507 -0.004078 -0.028116 0.003909 -0.055573 -0.051083 -0.215245 -0.047549 -0.034919 -0.069467 -0.268258 0.099684 0.016104 0.104459 0.032951 -0.002684 0.065591 0.812395 -0.035742 0.018442 0.060407 -0.050114 0.032728 0.402130 -0.063157 -0.025484 -0.055614 -0.011331 0.131822 0.002571 0.070782 -0.029521 0.014088 0.074763 -0.164689 0.128865 0.082634 0.052870 -0.027959 0.108428 0.047037 -0.110368 -0.107979 0.035384 -0.041766 -0.071152 -0.001564 -0.019824 0.027820 0.027732 0.048343 0.012796 0.079155 -0.056378 0.085339 -0.107355 -0.001426 -0.006265 -0.022574 0.008252 -0.120508 -0.005022 0.062170 
92 0.038701 0.156468 -0.002625 -0.021204 -0.008931 -0.061282 -0.052497 -0.211067 -0.038042 -0.032849 -0.069875 -0.267887 0.100748 0.013985 0.103140 0.024774 -0.000812 0.063541 0.785792 -0.023427 0.006699 0.063409 -0.058379 0.034515 0.386537 -0.063400 -0.018831 -0.040251 -0.007632 0.123544 -0.001914 0.066400 -0.026392 0.025418 0.075431 -0.159014 0.113800 0.083476 0.050758 -0.019611 0.101751 0.041277 -0.108614 -0.102807 0.038878 -0.048442 -0.066132 0.000212 -0.017333 0.021041 0.023082 0.052548 0.017925 0.075707 -0.046804 0.096791 -0.108386 -0.008956 0.002332 -0.014939 -0.001752 -0.111743 0.007526 0.067096 
54 0.028983 0.158589 -0.014629 -0.028094 -0.003536 -0.053629 -0.053778 -0.226016 -0.044078 -0.047239 -0.073831 -0.275608 0.099840 0.018065 0.117515 0.023738 -0.012229 0.072383 0.861832 -0.026226 0.014433 0.062030 -0.052171 0.045029 0.415235 -0.066885 -0.026058 -0.056921 -0.016116 0.133389 -0.002847 0.072256 -0.022057 0.028473 0.071960 -0.182769 0.131367 0.079371 0.042182 -0.024360 0.107366 0.043332 -0.130211 -0.103086 0.034608 -0.055528 -0.062798 -0.008461 -0.011051 0.020290 0.025870 0.049646 0.012458 0.084440 -0.053536 0.104383 -0.116911 -0.014417 -0.001425 -0.019311 0.008353 -0.128110 0.008449 0.067334 
61 0.029795 0.115760 -0.003763 -0.023396 -0.008419 -0.040568 -0.038364 -0.169021 -0.032900 -0.028307 -0.052912 -0.209779 0.087297 0.019233 0.084318 0.017306 -0.001218 0.062094 0.651393 -0.031055 0.006842 0.058417 -0.040916 0.030237 0.320024 -0.046087 -0.021531 -0.038768 -0.017475 0.105630 -0.001441 0.046467 -0.021187 0.011577 0.065096 -0.133309 0.098851 0.070535 0.038221 -0.019701 0.085749 0.036339 -0.094056 -0.083519 0.037693 -0.044212 -0.051943 -0.012698 -0.012020 0.016006 0.022388 0.034334 0.006208 0.056518 -0.041620 0.070751 -0.087075 -0.012295 0.000196 -0.014056 0.005310 -0.102474 -0.002936 0.051397 
74 0.032358 0.158088 -0.008161 -0.025399 -0.010096 -0.046681 -0.052667 -0.213595 -0.035723 -0.038992 -0.069693 -0.267994 0.103702 0.016686 0.102823 0.026963 -0.003987 0.071493 0.804249 -0.028284 0.009023 0.071267 -0.047955 0.036854 0.397263 -0.062365 -0.023834 -0.053870 -0.019452 0.120218 0.006069 0.068027 -0.027306 0.024526 0.077568 -0.167814 0.122240 0.081902 0.041453 -0.019897 0.095132 0.034801 -0.119213 -0.102493 0.046200 -0.048299 -0.064476 0.000293 -0.015010 0.025454 0.035144 0.045009 0.010578 0.081826 -0.045981 0.096849 -0.098773 -0.009899 -0.012772 -0.014570 0.008628 -0.122270 0.005473 0.066301 
24 0.027195 0.121875 -0.005515 -0.015690 -0.007006 -0.047057 -0.033183 -0.183226 -0.036075 -0.031418 -0.048290 -0.219337 0.076804 0.012862 0.087640 0.031150 -0.002289 0.060203 0.677175 -0.028296 0.009596 0.050184 -0.050380 0.033650 0.332666 -0.055364 -0.028184 -0.048579 -0.012717 0.112279 0.000022 0.055437 -0.021114 0.017179 0.053797 -0.141201 0.107845 0.072013 0.033789 -0.024324 0.090724 0.039207 -0.102305 -0.083890 0.029978 -0.032856 -0.050594 -0.011446 -0.009598 0.015571 0.027084 0.044177 0.014209 0.068313 -0.046254 0.079588 -0.086865 -0.000983 -0.003196 -0.018193 -0.001578 -0.099012 0.002328 0.048778 
2 0.033335 0.135228 -0.001437 -0.021123 -0.000475 -0.052262 -0.049995 -0.189863 -0.041325 -0.027873 -0.064232 -0.232312 0.087237 0.015312 0.098017 0.028186 0.002092 0.066094 0.721383 -0.029724 0.018559 0.061317 -0.042576 0.041769 0.345687 -0.056247 -0.019902 -0.048224 -0.005435 0.116195 -0.000343 0.059960 -0.030689 0.018921 0.062889 -0.143170 0.105114 0.065541 0.039122 -0.013610 0.093321 0.040228 -0.103705 -0.096110 0.040982 -0.038301 -0.061348 -0.006091 -0.018098 0.029645 0.028524 0.039800 0.008798 0.074638 -0.036401 0.084195 -0.090763 -0.004866 -0.006571 -0.023555 0.008302 -0.109795 0.003581 0.062230 
