4980 50
</s> 0.008005 0.008839 -0.007661 -0.006556 0.002733 0.006042 0.001882 0.000423 -0.007207 0.004437 -0.008713 0.002499 -0.001503 -0.001914 -0.006631 -0.003764 0.005159 0.006051 0.005938 0.003195 0.003090 -0.007605 -0.008192 0.009939 0.007603 0.006180 -0.001208 0.008031 -0.000990 0.001469 -0.000298 -0.005966 0.002625 -0.002675 -0.007651 0.009508 0.008759 -0.002190 -0.000452 0.001018 -0.007275 -0.008014 0.009109 0.000126 -0.005165 -0.006084 -0.006153 0.003394 0.000403 0.002662 
3082 -0.484851 -0.116313 0.140574 0.072008 -0.989546 -0.460153 -0.396528 -0.199470 0.147584 -0.140905 -0.098109 -0.239257 -1.117790 0.019344 0.356994 0.199004 0.126317 0.085874 0.295105 -0.084258 -0.261765 0.325921 -0.147772 -0.651512 -0.337734 -0.494181 -0.565051 0.560792 0.017506 -0.003192 -0.162961 -0.096629 0.850485 -0.175998 -0.412737 0.001343 -0.188940 0.214703 0.029647 -0.067076 0.090816 0.043427 -0.013663 0.666462 0.266572 0.126278 0.682565 0.069467 -0.055575 -0.645267 
2324 0.159642 0.178383 0.288933 0.573277 0.560367 -0.632241 -0.336070 0.225270 -0.196053 -0.547711 0.729684 -0.386906 -0.113628 -0.230673 0.010296 0.302298 0.282576 -0.181685 0.414504 0.013085 -0.464997 -0.230942 -0.438125 -0.382416 -0.131563 -0.264616 -0.368033 -0.104050 0.208378 -0.590822 0.108009 0.154957 -0.944691 -0.403982 -0.340430 -0.359890 0.226998 0.266791 -0.314185 -0.206285 -0.501995 0.195177 0.298101 -0.010539 0.131212 0.496189 0.087133 -0.075493 -0.052378 -0.536642 
444 0.305997 0.197724 0.148043 1.002149 0.081873 0.138074 -0.251063 0.053330 0.137470 -0.248487 0.215900 -0.102815 0.020637 -0.410467 0.145924 0.395520 0.187231 0.370576 0.182731 0.507646 -0.034160 0.208932 -0.047208 -0.326955 0.599342 -0.367616 -0.406149 0.401286 0.182069 -0.117748 -0.151795 -0.364773 -0.724722 -0.060157 -0.394688 -0.135634 0.284137 0.281756 -0.153461 -0.420694 -0.916983 0.242890 -0.135115 0.427415 0.182359 0.112902 -0.267017 0.271028 -0.206454 -0.613776 
2436 -0.610681 0.128528 -0.123074 0.380803 -0.480919 -0.180511 0.027582 -0.046784 -0.020814 0.046362 0.240324 -0.042024 -0.420118 -0.614218 -0.301793 -0.044086 0.561570 0.207470 -0.122175 0.053919 -0.190335 0.136784 0.017889 -0.075985 0.089594 -0.213225 0.118464 0.139486 0.071020 -0.470768 -0.051947 -0.021186 0.091975 0.281852 -0.740178 -0.257693 0.441095 -0.190705 -0.124640 0.069650 -0.465816 0.101129 0.849274 -0.212490 0.550902 0.224770 -0.076165 0.169432 -0.138813 -0.822029 
1207 0.223028 0.102130 -0.080498 0.554833 0.214463 -0.396943 0.331901 0.201263 0.227165 -0.172988 0.067562 -0.338492 0.117201 -0.361340 -0.267263 0.110631 0.469776 -0.214946 -0.007600 0.287755 -0.549667 -0.095122 0.099383 -0.142096 0.820943 -0.713616 -0.103494 0.374427 -0.167966 -0.709225 -0.500151 -0.219052 0.205002 0.455738 -0.449287 -0.039558 0.474099 -0.025695 0.203794 -0.347290 -1.325114 0.134592 0.378045 0.381856 0.308116 -0.275130 0.167482 0.312130 -0.094819 -0.608910 
4071 -0.193552 -0.475137 0.466233 0.741373 -0.125793 -0.145044 -0.049263 -0.147573 -0.118574 -0.128560 0.013069 -0.231725 -0.747135 -0.235496 -0.142205 0.168593 0.165307 -0.000427 0.475760 -0.615028 -0.832876 0.253668 -0.135976 -0.190290 -0.114336 -0.518018 -0.555796 0.614664 -0.043445 0.044948 -0.300317 0.318511 -0.172675 0.072178 -0.093442 0.195809 0.040184 0.675766 0.241723 -0.483352 0.508728 0.387380 -0.255163 0.214585 0.822346 -0.121123 -0.009966 0.270395 -0.950631 -0.682710 
4967 0.090570 -0.398620 -0.047797 0.133881 -0.472489 -0.178157 -0.170005 -0.059551 0.130744 -0.351124 -0.229052 0.134387 -0.495934 0.444598 0.806646 -0.265977 -0.114905 -0.236267 -0.159798 -0.520779 -0.257276 -0.180508 0.013531 -0.945511 0.023494 -0.722622 -0.468426 -0.218508 -0.222113 -0.038662 0.406671 0.372283 0.486842 -0.483722 -0.670923 -0.138810 0.199968 0.463257 0.249097 -0.271694 0.041602 0.109238 -0.299051 0.439388 -0.068643 0.529724 0.063058 0.397433 -0.457004 -0.660818 
4677 -0.182503 -0.077927 0.485605 0.031898 0.214494 -0.096609 -0.540280 -0.064457 0.080457 -0.594169 0.279455 0.058982 -0.493553 0.466120 0.296452 0.595713 0.237908 -0.046716 0.375032 -0.316438 -0.610010 -0.129849 0.832168 -0.607633 -0.091851 -0.258030 0.041239 0.423421 0.071948 0.249014 0.032019 0.036628 0.594784 0.181365 -0.294408 -0.694704 -0.130919 0.322389 0.194785 0.151547 -0.255999 0.425038 0.018652 0.171697 -0.169404 0.218241 0.039277 0.105056 -0.344850 -0.537798 
1092 -0.374382 -0.036852 0.070697 0.442380 -0.225823 -0.069381 -0.383360 0.479052 0.388917 -0.241392 0.130127 0.416001 -0.759975 -0.705825 -0.022189 0.153184 0.694391 0.006375 0.351291 0.455314 0.266218 -0.250989 -0.264511 0.014166 0.281066 -0.263634 0.234395 0.334551 0.520594 -0.048052 -0.095440 -0.091772 -0.380420 0.086290 -0.504889 -0.363505 1.039843 0.560181 0.011277 -0.554966 -0.856564 0.254054 0.387278 0.503215 0.300911 0.177359 0.337516 -0.358367 0.303206 -0.705641 
1960 0.544290 0.254300 -0.245213 0.383942 0.236762 0.244151 -0.156583 0.691319 0.194079 -0.161772 0.534751 -0.169629 -0.567749 -0.346111 0.013655 0.317961 0.509247 -0.289576 -0.078429 0.495077 0.047157 0.012227 -0.015268 -0.401740 0.262970 -0.014941 -0.293430 -0.070630 0.122821 -0.176522 0.029159 -0.372786 -0.611617 -0.164927 -0.679651 -0.211727 0.677749 0.245572 0.062150 -0.291927 -0.633488 -0.007970 0.516313 0.237314 0.156701 0.061161 0.306593 -0.029323 -0.331829 -0.354876 
2657 -0.327567 -0.298804 0.169870 0.443495 -0.384854 -0.315060 0.135345 -0.016879 0.033262 0.034994 -0.125358 0.437651 -0.748235 0.306533 0.220353 0.095939 0.129588 0.188560 0.414316 -0.060971 -0.651506 -0.027252 0.808071 -0.425257 -0.333906 -0.858336 -0.445040 0.487868 -0.038349 -0.028396 0.095022 0.020190 -0.216885 -0.100322 -0.464824 -0.020731 -0.091967 0.237478 0.036073 0.306354 0.098775 0.766548 0.133237 -0.326966 -0.049369 0.047649 0.202094 -0.072838 -0.280195 -0.513500 
3110 0.406769 -0.482136 0.233432 0.285967 -0.578291 0.061066 -0.139681 -0.623888 -0.127063 0.152227 0.015721 0.119749 -1.029623 0.242768 0.680416 0.107434 0.074698 -0.170691 -0.079435 0.073395 0.023937 0.638608 0.309236 -0.232333 0.159347 -0.522905 -0.700502 0.363976 -0.532742 -0.253878 0.669283 0.362837 0.514331 0.139338 -0.492949 -0.085129 0.384742 0.339699 0.158255 -0.036109 0.040879 0.642458 -0.036615 0.424096 0.187216 -0.064008 0.135026 0.421411 -0.101381 -0.665469 
4438 0.659746 0.006693 0.830089 0.409034 -0.853354 -0.132726 -0.048001 0.218951 -0.366907 -0.443172 0.393327 0.221805 -0.904513 -0.126380 0.414066 0.822579 0.520057 -0.339521 0.219629 -0.374891 0.103275 0.233405 0.413242 -0.281345 -0.221793 -0.995194 -0.666468 0.558995 -0.208612 -0.099453 0.506100 -0.204374 0.850514 0.111347 -0.138801 0.230499 0.868631 0.502888 0.145143 0.069863 0.226244 0.333234 0.425200 -0.357910 -0.321579 0.349885 0.522831 0.893134 -0.231423 -0.468141 
2218 0.349985 -0.016716 0.239695 0.479067 0.080862 0.279168 0.263895 0.355665 0.335648 -0.234901 0.138441 0.223718 -0.463165 -0.285376 0.054744 -0.030400 0.230013 0.337794 -0.232332 0.486718 0.189540 0.065960 -0.200777 -0.409247 0.275273 -0.490389 0.009044 0.131416 0.250909 -0.114545 0.021732 -0.041850 -0.443679 -0.002625 -0.488183 -0.323413 0.387122 0.065735 -0.030434 -0.885031 -0.495792 0.240792 0.257252 0.750801 0.471219 0.773213 0.335299 0.184979 0.015975 -0.605426 
4238 -0.629315 0.363165 0.138125 0.251852 -0.110666 -0.049085 -0.330018 -0.041733 0.159517 -0.355054 -0.035722 -0.199085 -0.510636 0.024595 0.426270 0.294876 0.023310 -0.094568 0.197567 -0.251704 -0.716899 -0.084885 0.233458 -0.208608 -0.679297 -0.319764 -0.181407 -0.043483 -0.032147 0.142320 -0.073541 0.363457 0.468077 0.048035 -0.659928 -0.075151 0.067853 0.553599 0.535241 0.034111 -0.218813 1.053290 0.233932 0.388470 -0.237187 -0.087872 0.128933 -0.106788 -0.876903 -0.006422 
2677 0.477722 -0.490703 0.549575 0.332110 -0.328838 -0.086270 0.264088 -0.364307 0.238927 0.322324 0.154390 -0.051228 -0.857922 0.396725 0.368501 -0.090569 -0.092206 -0.032249 0.569700 -0.245426 -0.367469 0.390305 0.488378 -0.140623 -0.347204 -0.354613 -0.557758 0.407055 -0.029777 -0.061338 0.159382 -0.082236 0.161547 -0.262213 -0.479292 -0.181026 -0.249501 0.107097 0.069332 0.250316 0.077421 0.400814 0.253059 0.034738 -0.059341 -0.186353 0.450800 0.311551 -0.520657 -0.768593 
3557 0.329702 -0.115758 0.406846 -0.145193 -0.568310 -0.308010 -0.042338 -0.203648 0.894694 -0.828582 0.701902 -0.049275 -1.164049 -0.378731 0.719532 0.043944 0.864491 -0.099296 0.506736 -0.005522 -0.121040 -0.287489 0.243643 0.097088 -0.284034 0.001241 -0.779446 0.338081 -0.021348 -0.083297 -0.092045 -0.222000 0.949112 -0.049156 -0.583506 -0.516670 0.272694 0.089317 0.209347 -0.380684 0.287100 -0.079426 0.249433 -0.208405 -0.433560 -0.142336 -0.007568 0.842881 -0.316301 -0.340535 
2161 0.265787 0.171808 0.136434 0.435601 -0.150628 0.105604 -0.065875 0.082683 0.443574 0.356412 -0.023914 -0.217510 0.126620 -0.691671 -0.119649 0.136426 0.704754 -0.636552 0.035817 -0.101589 -0.334079 0.516527 -0.141375 -0.422901 0.413051 -0.222273 -0.073287 0.023698 0.285593 -0.921787 -0.292985 -0.195948 -0.105428 0.369073 -0.469422 -0.699900 0.080810 0.388780 -0.000845 -0.651599 -0.991377 0.236943 0.402607 -0.139079 -0.210123 0.494636 -0.032420 0.504289 -0.620963 -0.386057 
1251 0.178264 -0.092330 -0.506688 0.615678 -0.152020 -0.403726 -0.093839 0.147165 0.137694 0.192536 0.149402 -0.140746 -0.264060 -0.613760 -0.440779 0.248711 0.233582 0.371620 -0.211675 0.428367 -0.110449 -0.472796 -0.244723 -0.215086 0.305684 0.340660 0.196937 0.249607 0.792871 -0.502038 0.092138 0.030434 -0.354714 -0.018012 -1.075212 -0.620100 0.307393 0.174988 -0.134066 -0.077165 -0.669145 0.072059 0.714262 0.676518 0.117485 0.011530 0.371312 0.611818 -0.334165 -0.740480 
4950 -0.018370 -0.260553 0.288056 0.380665 -0.457044 -0.451393 0.070927 -0.286535 -0.215863 -0.089982 -0.445243 -0.066709 -0.569681 0.038860 0.191386 0.246561 0.152087 -0.120975 -0.132662 -0.105619 -0.280527 -0.043226 -0.189561 -0.053657 -0.640805 -0.374120 -0.776620 0.050939 -0.104335 -0.169486 -0.016534 -0.145757 0.308274 0.340125 -0.439268 -0.438067 0.159468 0.160858 0.419046 0.155739 0.082287 0.520781 0.782755 -0.260538 -0.455463 0.503900 0.467389 0.631185 -0.060161 -0.218528 
798 0.631047 -0.302546 0.128944 0.424582 -0.103164 -0.300822 0.220662 0.187407 -0.067769 -0.298006 -0.276856 -0.346328 -0.052961 -0.299277 0.069417 0.062224 -0.304110 -0.413186 -0.092246 0.186761 0.413376 -0.599648 -0.156836 -0.056344 -0.320700 -0.428451 -0.105270 0.204345 0.232587 -1.085693 -0.080296 0.180046 -0.455608 -0.282188 -0.879902 -0.183692 0.022104 -0.078400 0.659538 -0.363103 -0.650934 0.451592 0.961223 0.106013 0.076371 0.397501 0.269003 0.386865 -0.683228 -0.239565 
59 -0.141591 0.081358 -0.175239 0.648034 0.142275 -0.230428 0.376125 -0.005642 0.202718 0.015006 0.195951 -0.259246 0.028333 -0.371681 0.342936 -0.085209 0.171220 -0.397847 0.001856 0.178266 -0.047802 -0.129740 -0.153302 -0.268301 -0.184829 0.298726 -0.408467 0.050229 0.175381 -0.355735 0.183472 -0.172458 -0.439671 0.321432 -0.672329 -0.660010 0.392978 -0.015802 -0.343263 -0.035289 -0.704357 0.559772 0.563283 0.032556 -0.222252 0.181769 0.051999 0.142674 -0.269849 -0.704098 
4098 0.295839 -0.241561 -0.047480 0.399624 0.000788 -0.252202 0.174393 -0.006729 0.100074 -0.552821 0.287113 -0.021670 -0.780376 0.155320 0.118666 0.224544 -0.347327 -0.303581 0.194328 -0.416468 -0.500095 -0.303545 -0.264359 0.340460 0.263082 -0.236422 0.110276 0.821439 -0.477767 -0.188656 -0.051568 0.185929 0.939175 -0.262113 -0.528869 -0.643485 0.052360 0.257200 0.527682 0.266261 -0.171334 0.218237 0.412492 0.188318 0.024768 0.155967 0.129351 0.075941 -0.146699 -0.322007 
3072 -0.296861 0.308533 0.313094 0.494178 -0.461177 0.533033 -0.191988 -0.417966 -0.102792 -0.470973 0.457613 0.019353 -0.463016 0.745380 0.415161 0.020501 0.245868 -0.231216 0.139892 -0.343482 -0.263631 -0.341513 0.716556 -0.584569 0.115171 -0.553630 -0.142319 0.408591 -0.001735 0.048277 0.039400 0.053204 0.507007 -0.393296 -0.549903 -0.139621 0.305195 0.630278 0.502421 -0.020190 -0.005142 0.539334 0.088655 -0.003738 0.131497 -0.240981 0.235262 -0.023331 -0.073455 -0.523764 
2133 0.309310 0.025922 -0.175360 0.627269 0.151509 -0.168075 0.186526 0.356067 0.883873 0.355867 -0.189549 -0.029459 0.085234 0.019448 0.090714 -0.242306 -0.178195 -0.540759 -0.054480 -0.482788 0.414488 0.067182 0.074536 -0.435038 -0.040403 -0.134852 -0.411496 0.450393 0.497342 -0.280115 0.202273 -0.451633 -0.178165 -0.187651 -0.895465 -0.814973 0.549690 0.006774 0.537776 -0.322362 -0.773724 0.045782 0.475180 0.419922 -0.292174 0.418088 0.042547 0.527418 -0.101959 -0.280189 
4932 0.202319 0.298158 0.232290 -0.022212 -0.051666 0.122250 -0.250071 -0.110397 -0.141140 -0.318036 0.339856 0.040503 -0.785360 0.235692 0.206641 0.031543 -0.118675 -0.624708 0.106403 -0.151326 -0.790135 -0.447650 0.085515 -0.570143 -0.110875 -0.260834 -0.336015 0.132335 -0.277442 -0.186111 0.373090 0.693131 -0.096700 -0.299169 -0.537943 -0.786471 -0.169804 0.294140 0.620802 -0.491828 0.394249 -0.093271 -0.279404 0.463750 -0.283005 0.060988 0.018512 0.290628 -0.811809 -0.680614 
310 -0.147387 0.140351 -0.346674 0.519632 -0.300798 0.085294 -0.095064 0.147672 0.246960 -0.676789 0.167512 0.056210 -0.297252 -0.308933 0.467777 0.125410 0.342040 0.152333 0.173672 0.360851 0.175849 -0.032697 -0.477591 -0.459921 0.166894 -0.105231 0.223465 0.204324 0.324523 0.229755 0.059661 -0.058801 -0.049413 0.088430 0.030279 -0.341816 0.650913 0.532090 0.233211 -0.821427 -0.663625 0.447145 0.420905 0.161722 0.511353 0.137623 0.145181 -0.172512 -0.231587 -0.576837 
4174 0.036068 -0.352346 0.474069 0.572086 -0.241565 -0.348471 -0.536696 -0.425015 0.149519 -0.522169 0.104927 -0.157887 -0.941799 0.791561 0.161487 -0.061578 0.344050 0.398857 0.378258 -1.114559 -0.528588 0.815140 0.299098 -0.366403 -0.102010 -0.590570 -0.561573 -0.026943 -0.021245 0.461485 0.018182 0.583293 0.090033 0.111255 -0.875116 -0.428944 0.415237 0.418824 -0.161472 -0.364083 0.051353 -0.024930 -0.286203 0.510224 -0.312368 0.100059 -0.524165 0.197984 -0.021666 -0.897034 
4209 0.023535 0.115475 0.400201 0.215938 -0.700329 -0.078736 0.040732 0.099951 0.174515 -0.299704 0.373027 0.395216 -0.604021 0.395802 0.407666 0.248023 0.132025 -0.428091 0.253472 -0.223211 -0.326828 0.102341 0.104917 -0.614662 -0.069967 -0.357454 -0.802103 0.581190 -0.287430 0.213016 0.182699 0.020108 0.569199 -0.502151 -0.419432 0.093980 -0.067079 0.143235 0.637024 0.336064 0.386671 0.432188 0.124269 0.316114 -0.261612 -0.066376 0.318278 0.120677 -0.511509 -0.970822 
3809 0.217669 0.044582 0.269554 0.419828 0.089774 -0.580983 -0.338044 0.144338 -0.388762 -0.288766 0.194865 -0.016405 -0.542716 0.286592 0.661247 0.089041 0.379323 0.286401 -0.145305 -0.193622 -0.915344 -0.076847 -0.172113 -0.428818 -0.239271 -0.291178 -0.348024 0.029483 0.105883 0.142965 -0.146448 0.179490 -0.091932 -0.183792 -0.534267 -0.005049 0.580330 0.162235 0.042436 -0.546500 0.162984 -0.101348 -0.026500 0.205039 0.086125 0.188715 -0.187206 0.208734 -0.319058 -0.543887 
243 0.374056 -0.021121 0.099517 0.638987 0.371945 -0.314482 -0.292368 0.023414 0.118228 -0.202299 0.429786 0.122873 -0.276071 -0.351153 -0.075308 -0.223769 0.174887 -0.364605 -0.189430 -0.188974 0.128624 -0.008879 0.015653 -0.307156 0.116940 -0.140199 -0.242235 0.314676 0.331217 -0.460123 0.264499 -0.237030 -0.472335 -0.003989 -0.293675 -0.504046 0.010168 0.583699 -0.313966 -0.102773 -0.963125 0.219090 0.524508 -0.095651 -0.031499 0.144459 -0.009400 -0.230040 -0.257077 -0.443882 
144 0.032109 -0.091750 -0.446716 -0.184846 -0.258028 -0.153476 0.203959 0.145956 0.269246 0.054202 0.195162 0.095566 0.145884 -0.340734 -0.432533 -0.193061 -0.056257 -0.210313 0.308018 0.047095 0.753734 0.075624 -0.071444 -0.364420 0.383465 0.039034 -0.665480 0.191537 0.248816 -0.516597 -0.058475 0.125817 -0.073466 -0.278032 -0.774368 -0.803159 0.451014 0.534508 0.260036 -0.207784 -0.260728 0.147645 0.550523 0.639363 0.160774 0.422766 -0.124699 0.302475 -0.598451 -1.108566 
3127 -0.077231 -0.357258 0.356444 0.363877 -0.701639 -0.138173 0.422827 0.274610 0.221177 -0.096075 0.390510 -0.126967 -0.530206 -0.166543 0.994214 0.815067 0.354464 -0.129763 0.579757 0.150963 -0.179596 0.178009 0.567784 -0.533949 0.055227 -0.264786 -0.349293 0.775455 -0.461438 -0.148430 0.351169 -0.184486 -0.067380 0.305651 -0.388776 -0.154859 0.344212 0.013648 -0.567488 -0.069085 -0.350820 0.772169 -0.332792 -0.185919 -0.304785 -0.609027 0.455577 0.146391 -0.499526 -0.805084 
467 0.251262 0.034118 -0.279232 0.933200 -0.217279 0.094047 -0.391775 -0.102279 0.626263 -0.463548 -0.013359 0.171059 -0.205861 -0.230349 0.067085 0.317616 0.587624 0.068896 -0.199881 0.566342 0.210045 0.387445 -0.126687 -0.515863 -0.179499 -0.155112 0.017459 0.116899 0.010628 0.293652 0.167075 0.015409 -0.181254 0.300122 -0.091741 -0.711939 0.338999 0.099876 -0.468837 -0.466486 -0.590380 0.301486 0.490904 0.406979 0.726088 0.010395 0.462251 -0.096255 -0.369271 -0.454596 
1437 0.101828 0.299307 -0.032660 0.621263 0.613414 -0.367307 0.179724 0.325500 0.384820 -0.301880 0.371119 -0.296402 -0.043403 -0.393604 -0.021964 -0.014551 0.315105 -0.217074 0.061477 0.202327 -0.411128 -0.323548 -0.299007 -0.226612 0.080518 0.095487 -0.348083 -0.235798 0.232920 -0.299782 -0.009316 0.149782 -0.273659 0.108908 -0.605278 -0.820888 0.318996 0.096612 -0.254506 -0.310718 -0.910454 0.344308 0.466920 0.111740 0.033459 0.271041 0.221699 0.077377 -0.176090 -0.536466 
3545 -0.024659 -0.615263 0.235558 0.180733 -0.311117 -0.002578 0.088329 -0.282647 -0.255812 -0.452374 0.055222 -0.391853 -0.648797 -0.115516 0.234885 -0.258771 -0.025396 -0.083268 0.295609 0.110491 -0.113188 0.256135 0.232319 -0.326990 -0.089740 -0.475476 -0.002154 0.747419 -0.248959 -0.818473 0.211583 0.512625 0.679574 0.052734 -0.287649 -0.110020 -0.015204 0.500172 -0.008694 0.122698 -0.208944 0.427178 -0.012920 0.085979 0.587572 -0.283889 0.547845 -0.302737 -0.485248 -1.011961 
1252 0.318347 0.408891 -0.340739 0.639695 -0.431841 -0.483445 0.321196 0.191023 0.397783 -0.186684 -0.144929 0.645584 0.096151 -0.465773 -0.058617 -0.129766 0.384254 -0.285081 -0.385111 -0.085828 0.165660 0.247200 -0.066697 -0.494049 0.348115 -0.385482 -0.347548 0.198502 -0.408010 -0.195446 0.359545 -0.005645 -0.225921 -0.019348 0.135721 -0.817229 0.319565 0.194088 0.116928 -0.334623 -0.306605 0.615153 0.485390 -0.183491 -0.342451 0.701467 0.912806 -0.257275 -0.318054 -0.727733 
226 0.136701 -0.326609 0.005208 -0.031290 -0.121234 0.170896 0.275416 -0.119869 0.335000 -0.165160 0.027562 0.400366 -0.192467 -0.525873 -0.184144 0.111865 0.964490 0.007415 -0.040852 0.096263 -0.323195 0.039179 0.350970 -0.056698 0.414178 -0.218017 0.157395 0.218055 0.289488 -0.281834 -0.422877 -0.211355 -0.016046 -0.221481 -0.688422 -1.004982 0.106025 0.157912 0.050313 -0.852560 -0.537405 0.352527 0.885744 0.113934 -0.191066 0.350982 0.601950 -0.028368 0.357994 -0.239605 
158 -0.013086 -0.119484 -0.247126 0.554936 0.261137 -0.130693 -0.461758 0.100177 0.203399 -0.655756 0.135147 -0.095121 0.171700 -0.101539 -0.110056 0.320704 0.037250 -0.073581 0.078542 0.453019 -0.147033 0.485461 -0.230749 0.369647 -0.464323 -0.501364 0.148158 0.134224 0.278600 -0.174418 -0.089490 -0.201122 -0.174394 -0.421909 -0.745749 -0.717159 0.673358 0.139571 0.202365 -0.345895 -0.929542 0.143665 0.829281 0.333546 -0.125321 -0.101832 -0.174104 -0.089411 -0.347543 -0.474029 
4728 -0.194197 -0.337577 0.590905 0.210734 -0.160138 -0.052169 -0.332676 0.349053 0.558815 0.030148 0.171498 -0.526246 -0.608259 0.410961 0.116710 -0.055310 -0.356343 -0.021251 -0.322519 -0.922909 -0.686458 0.432489 0.441543 -0.070032 0.099666 -0.442508 -0.171426 0.436906 -0.227733 0.116205 -0.182796 -0.177477 0.259434 0.450788 -0.595830 0.085840 -0.092458 0.465239 0.088210 -0.021899 0.059431 1.139708 0.452878 -0.200636 0.202706 0.009508 0.166341 0.401580 -0.230169 -0.610028 
1414 0.029786 0.009184 0.016228 0.177927 -0.141224 -0.371242 -0.541079 0.307465 -0.668858 -0.055490 0.205516 -0.037897 -0.289711 -0.028106 0.168388 -0.013007 0.261757 -0.239161 -0.229549 0.166978 0.070081 -0.233777 -0.200153 -0.043152 0.580007 -0.328041 0.056023 -0.134541 0.025711 -0.310932 -0.169027 -0.192461 -0.451215 0.301945 -0.962018 -0.799687 0.020534 0.340010 0.120713 -0.698434 -0.401907 0.263279 0.193088 0.630275 -0.079066 0.319506 0.122172 -0.047669 -0.016514 -0.374780 
4089 0.487789 -0.168841 0.317515 -0.117915 -0.775539 -0.449145 0.241328 0.302723 -0.545327 -0.318074 -0.473285 0.170254 -0.767242 0.483625 0.133428 -0.143980 0.062370 -0.415906 -0.054605 0.040139 -0.262626 -0.340886 0.027846 -0.360187 -0.558611 -0.669552 -0.214487 0.223704 -0.354917 0.122289 0.215784 0.184317 0.783658 -0.009413 -0.935927 -0.472045 0.156558 0.258455 -0.053319 -0.165615 0.386276 0.274997 0.264782 -0.108539 0.053788 0.384755 0.241221 0.473150 -0.545893 -0.560640 
3245 0.081977 -0.140731 0.243800 0.228138 -0.766667 0.301175 -0.084346 -0.205422 0.161127 -0.841611 -0.030510 0.117467 -0.979346 0.047071 0.739609 0.463584 0.322703 -0.354100 0.429138 -0.122709 0.074242 0.100759 -0.012006 -0.263675 -0.129941 -0.486424 -0.533502 0.070575 -0.271595 0.193420 0.334106 0.221787 0.549416 0.071778 -0.367984 -0.045493 0.040719 0.218478 0.626455 -0.069295 0.318233 0.657845 0.345714 -0.751539 -0.191984 0.113557 0.360875 0.358616 -0.295431 -0.835950 
3213 0.086674 0.136051 0.349551 0.831716 -0.531776 -0.043248 -0.322863 -0.175522 0.538515 -0.309944 -0.040100 -0.018160 -0.987431 0.014047 0.407331 -0.066051 -0.124292 0.405421 -0.011003 -0.745556 -0.229234 0.396850 0.300188 -0.617810 0.051091 -0.477260 -0.153119 0.676019 0.178327 -0.122134 -0.069593 0.117352 0.225738 -0.439549 -0.118398 0.000558 -0.484762 0.503393 -0.220952 0.140843 0.092780 0.233226 0.148718 0.073642 -0.011394 -0.026104 1.113619 0.054506 -0.052085 -0.561650 
3149 -0.172765 -0.135890 0.131595 0.608695 -0.261798 -0.324279 -0.255097 -0.228546 0.156213 -0.113638 0.114742 -0.507535 -0.693744 -0.263919 0.153880 0.494539 0.660483 -0.380926 0.196717 -0.456529 -0.924996 -0.054962 0.026028 -0.310467 0.076205 0.180929 -0.635590 0.129534 -0.059628 -0.383138 -0.757561 0.306231 -0.117287 0.346533 -0.196050 -0.218989 -0.547027 0.359806 -0.011208 -0.147499 0.140073 0.555486 0.001265 0.249728 -0.071073 0.419461 0.144641 0.312761 -0.482364 -0.096869 
4130 -0.189438 -0.260968 0.448253 0.285012 -0.174517 -0.198185 0.011253 -0.114751 -0.288629 -0.183731 0.479493 -0.037347 -0.305068 0.347612 0.449112 -0.133408 0.293074 0.058812 0.317850 -0.337118 -0.618732 0.218383 0.467902 -0.384234 -0.138176 -0.376550 -0.643840 0.101587 -0.148190 0.368051 0.049371 -0.382729 0.634334 -0.420604 -0.955557 -0.375064 0.279679 0.263160 0.507566 0.057424 0.399239 0.116345 -0.014834 0.353396 0.123966 -0.034899 -0.101380 0.128347 -0.624280 -0.721595 
4854 -0.431666 0.021240 0.126549 0.361093 -0.266360 -0.565402 0.101742 -0.431236 0.089699 -0.320804 0.107830 0.076253 -0.665277 0.126315 0.509161 0.143370 -0.104268 0.210150 -0.052827 -0.136019 -0.596671 0.107453 0.443053 -0.130592 -0.043980 -0.311558 -0.277164 0.144394 -0.156255 0.030157 0.044854 -0.056824 0.129229 0.016754 -0.499747 -0.097556 0.226770 0.217185 -0.037217 -0.517895 0.242627 0.368074 -0.107061 0.485122 0.039133 0.085034 -0.159888 0.191287 -0.457422 -0.419212 
3076 -0.434721 0.285647 -0.009677 0.483255 -0.205267 0.061943 -0.227899 0.096946 0.079360 -0.199408 0.048200 -0.289940 -0.688886 0.256377 0.474605 -0.172718 0.387469 0.146519 0.793807 -0.488323 -0.251491 0.348965 1.041580 -0.474767 -0.123140 -0.679747 -0.261651 0.450701 0.464087 0.179423 0.281203 0.234183 0.606898 -0.009907 -1.070671 -0.061380 0.597729 0.167172 0.211129 -0.179548 -0.144268 -0.105099 -0.447241 -0.048251 -0.120176 -0.009574 -0.215443 0.028906 0.118975 -0.820980 
3162 0.090613 -0.200329 -0.242693 0.008231 -0.151037 0.320616 -0.605583 -0.123930 0.356614 -0.543770 -0.077874 0.191782 -0.412664 0.196684 0.501409 -0.038689 -0.032972 -0.142356 0.067719 -0.499101 -0.759874 -0.723168 -0.153347 -0.923122 -0.183677 -0.325728 -0.710775 0.305523 0.216805 -0.280756 0.197968 0.258234 0.309358 -0.175089 -1.061789 -0.273552 -0.246535 0.556912 0.313419 0.319536 0.289728 0.184625 0.201228 0.144439 -0.349947 -0.137360 -0.100641 0.449230 -0.135658 -0.465840 
2228 0.045334 0.216193 0.052008 0.848252 -0.064812 -0.393998 0.058345 0.111984 0.328360 0.277971 0.130146 0.048693 -0.012798 -0.652524 0.132274 0.115921 0.424717 -0.046612 -0.639244 0.433975 0.072048 -0.347740 -0.196186 -0.554671 0.421317 0.215982 -0.070386 0.513211 -0.014790 -0.493271 -0.045672 0.085613 -0.124760 -0.035989 -0.918781 -0.464550 0.074662 0.388079 -0.385502 -0.273777 -0.444719 0.000866 0.145661 0.694874 0.091847 0.260835 -0.166395 0.449055 -0.052556 -0.613334 
352 0.165847 -0.226147 0.196945 0.359663 -0.449548 -0.288276 0.067566 -0.347466 -0.039514 -0.195924 0.093426 -0.190546 -0.126814 -0.404964 -0.342652 0.314203 0.111183 -0.527435 -0.231666 -0.014100 0.230786 0.225155 -0.049898 0.259968 0.508695 -0.116198 0.035159 0.336779 0.917827 -0.241518 -0.089360 -0.261076 0.178182 -0.065680 -0.435213 -0.706324 0.125225 0.032696 0.131199 -0.202847 -0.504565 0.581585 0.629688 0.348737 -0.096796 0.488101 0.248084 0.173077 -0.265623 -0.316900 
1708 0.001878 0.532150 -0.097918 0.591379 -0.101769 -0.102014 -0.267808 0.026859 -0.173529 -0.094984 0.004116 -0.023804 -0.004113 -0.443646 0.054545 -0.446356 0.241656 0.215454 -0.130519 0.516461 -0.073399 -0.324071 -0.314349 -0.343709 -0.181025 -0.464738 -0.408545 0.546788 0.655824 -0.571672 -0.300758 -0.712324 0.165849 0.348377 -1.325224 -0.327357 0.205870 0.313380 -0.349539 0.073313 -0.508324 -0.036708 0.258295 0.136606 0.065028 0.465120 -0.160338 -0.314227 -0.124010 -0.524415 
909 0.204211 -0.220235 0.177732 0.064850 0.129178 0.031166 -0.069599 0.243707 0.228181 0.229881 -0.376633 0.123357 -0.894489 -0.243776 0.049212 0.368680 -0.154934 -0.618472 -0.545803 -0.179800 0.284968 0.188482 -0.088120 0.217185 0.585546 -0.232533 0.290593 -0.035057 0.083039 -0.181863 0.526975 -0.001826 -0.126203 0.378221 -0.881299 -0.388966 0.160875 -0.098112 -0.036832 -0.545573 -0.836873 0.093705 0.415018 0.046992 0.242611 0.388866 0.330015 0.754443 -0.347308 -0.835836 
1095 0.184336 -0.214050 -0.557138 0.140847 0.174958 0.119015 -0.008577 0.997382 0.287893 -0.222871 0.315393 0.068314 -0.406644 -0.574482 -0.057150 0.543761 0.394675 0.015275 0.343433 0.665353 -0.441574 0.104001 -0.226835 -0.579754 0.194203 -0.155815 -0.240409 0.528434 0.468802 -0.129320 0.284041 -0.523105 -0.337674 0.017177 -0.745654 -0.607431 0.497321 -0.128693 -0.172175 -0.201490 -0.956231 0.360961 0.680985 0.083928 -0.073645 -0.307204 0.244024 -0.175886 -0.061084 -0.560306 
1556 0.056319 -0.163875 -0.322443 0.153267 -0.268624 -0.224217 -0.136581 -0.574229 -0.553890 -0.462623 -0.105058 0.282838 -0.025472 -1.052740 0.114712 -0.253755 -0.034937 0.079339 -0.346426 0.213890 0.289897 -0.065298 0.230688 -0.127897 -0.134597 -0.747739 -0.083218 0.449268 0.162090 -0.595199 -0.663159 -0.104031 0.488623 0.034945 -0.888589 -0.530564 -0.422192 -0.195899 -0.334860 -0.237634 -0.560473 0.248777 0.985302 0.182602 0.424360 -0.002745 -0.012762 0.358826 -0.390970 -0.656061 
1614 0.174579 0.720988 0.040168 0.893538 0.291361 -0.093572 -0.566215 0.180126 -0.005422 -0.190855 0.538076 -0.424763 -0.258173 -0.063165 -0.122953 0.277779 0.490324 -0.445275 -0.185081 -0.187178 -0.100980 -0.404601 -0.770986 0.171383 0.084192 -0.224931 0.432227 0.058606 -0.061763 -0.217884 -0.254302 -0.060380 -0.168004 -0.095380 -0.677390 -0.416420 0.195209 0.388161 0.465117 -0.261025 -0.737266 0.357387 0.451647 0.645425 -0.460549 0.363133 0.276758 -0.099878 -0.285814 -0.361942 
111 0.415335 -0.315679 -0.686560 0.851801 -0.289713 0.017554 0.190121 -0.234859 -0.545150 -0.044727 0.780823 0.021388 -0.573844 -0.898322 -0.021362 0.009298 0.363197 -0.164703 0.258345 -0.318735 0.142647 -0.116431 0.014497 -0.127131 0.191630 -0.288464 0.173546 0.026911 0.608742 -0.474676 -0.130815 -0.161853 0.551889 -0.215440 -1.070699 0.191665 0.112404 0.345512 -0.092171 0.598626 -0.605296 0.270859 0.467383 0.407917 -0.149639 0.121966 -0.101071 0.173564 -0.279442 -0.406134 
3384 0.182260 0.247766 0.290323 0.418980 -0.296879 0.013070 0.126176 0.099670 -0.078875 0.283074 0.202360 -0.002727 -0.680507 0.477446 0.639791 0.420298 0.206400 -0.027478 0.095636 -0.195634 -0.210676 0.042139 0.333508 0.052415 -0.252465 -0.173198 -0.183549 0.422831 -0.287257 0.204077 0.148602 -0.213150 0.321126 -0.480398 -1.029168 -0.211818 -0.128534 -0.241839 0.245568 -0.434257 0.079690 0.276100 -0.106491 0.255056 -0.028731 -0.187676 -0.207465 0.283410 -0.700913 -0.671590 
3479 0.081602 -0.015118 0.385623 0.239674 -0.600150 0.380895 -0.423144 -0.277336 0.785118 -0.488813 0.623891 -0.173234 -0.826491 -0.222846 0.341180 0.189163 0.742287 -0.363369 -0.151980 -0.254272 0.204391 0.021082 0.242065 0.226307 -0.205096 0.467453 -0.533374 0.293448 0.072089 -0.030757 -0.462572 0.157636 0.429447 0.130896 -0.452607 -0.464097 0.063392 0.255553 0.298529 -0.405230 -0.101874 0.505570 -0.096915 -0.316644 -0.227345 -0.001569 0.300128 0.747451 -0.319526 -0.397536 
4446 0.618313 -0.093353 0.220382 0.278751 -0.216925 -0.361027 -0.079281 -0.331397 0.023142 -0.455412 0.391152 0.025459 -0.929116 0.427329 0.251195 -0.292999 -0.626033 0.173687 -0.000832 -0.224300 -0.798230 -0.347486 -0.168920 -0.082172 0.455208 -0.490749 -0.280269 0.547885 -0.441531 -0.301421 -0.055942 0.128473 0.786563 -0.177324 -0.183779 -0.838533 -0.281970 0.197335 0.697143 0.205745 -0.280694 0.003999 0.322760 0.420857 0.054762 0.104179 0.227966 -0.036244 0.148168 -0.713530 
4 0.099825 0.083401 -0.334879 0.256025 -0.454526 0.062905 -0.625344 0.251572 0.064564 -0.117678 -0.210131 0.533957 -0.484788 -0.411647 0.050336 -0.136567 0.570354 -0.386859 -0.180198 0.567826 -0.143758 0.091386 -0.391626 -0.319412 -0.022192 -0.170688 0.339195 -0.079701 0.306400 -0.145816 -0.114553 -0.526139 -0.216106 0.300571 -0.951236 -0.460083 0.020983 -0.078653 0.323049 -0.492624 -0.801368 0.299896 0.555331 0.085379 -0.016696 0.406749 0.395584 -0.555437 0.101940 -0.757038 
1501 -0.395886 0.231414 -0.169020 0.709651 0.074454 -0.510832 -0.131309 0.115934 0.806062 0.124765 0.083105 0.239479 -0.119362 0.178656 0.137658 -0.468015 0.467610 -0.968680 -0.121989 -0.760387 0.244186 -0.202488 -0.977746 -0.525064 -0.018936 -0.608888 -0.462029 -0.303765 0.152400 0.135798 0.198972 -0.407243 -0.312316 0.360901 -0.467960 -0.468301 0.455456 0.013681 0.134761 0.066036 -0.291818 0.307752 0.680630 0.080368 0.107796 0.122097 0.737271 -0.285583 -0.647880 -0.890697 
1879 -0.246083 0.373900 0.032504 0.199218 0.003428 -0.438830 -0.296998 0.140720 0.121315 -0.242794 0.311809 -0.018130 0.219981 0.095240 -0.092982 0.562524 0.335139 -0.069779 0.034943 0.141067 0.072179 -0.357224 0.177078 -0.151561 0.230506 -0.527865 0.337853 0.437839 0.695286 -0.307506 -0.169563 -0.018102 -0.448779 -0.139178 -0.845690 -0.605638 0.458355 -0.059628 -0.218587 -0.234188 -0.363896 0.201581 0.617306 0.559813 -0.561478 0.263710 0.095385 0.132439 0.105580 -0.583745 
4149 0.255240 0.284914 0.229046 0.290337 -0.066987 -0.249028 -0.340716 -0.005798 0.099328 -0.403517 0.223840 -0.082127 -0.653661 0.032074 0.792901 0.265768 0.050693 -0.082768 -0.078439 -0.435518 -0.139576 0.032294 0.304568 -0.560648 0.065372 -0.448642 -0.149655 0.136249 -0.597870 -0.061429 -0.032033 0.224976 0.403007 -0.037121 -0.499101 -0.179521 -0.104461 0.061939 0.637256 -0.372602 0.012397 0.555391 0.061565 0.124646 -0.213061 -0.245262 0.009970 -0.064810 -0.371936 -0.333797 
2962 0.061884 0.141326 -0.023286 0.489505 0.339518 -0.285728 -0.527813 0.119277 0.075457 -0.196134 0.147343 -0.388250 -0.545747 -0.158459 0.403504 0.009812 0.107742 0.268571 0.293959 -0.240860 -0.552124 0.142612 0.085565 -0.326848 -0.606353 0.308283 0.105434 0.231433 0.029447 -0.016750 -0.556892 0.210653 0.219982 -0.261871 -0.803383 -0.189686 0.311027 0.255032 0.554293 0.036296 0.091453 0.408951 0.607598 0.270382 -0.028606 -0.031791 0.305944 0.100138 -0.021908 -0.351237 
1992 0.623628 0.063567 -0.081828 0.516610 -0.186909 -0.173637 0.298441 0.212740 0.312104 0.258759 0.320883 0.156220 -0.235430 -0.527129 -0.134309 0.127693 0.361002 -0.133887 0.202264 0.373809 -0.137478 -0.078141 -0.196319 0.213635 0.459317 -0.248394 -0.094259 0.196863 0.294149 -0.366025 -0.052458 -0.262908 -0.512725 0.328772 -0.468410 -0.441728 0.118183 0.205964 -0.056401 -0.473655 -0.710008 0.491624 0.439213 0.012174 0.002169 0.207737 0.442660 -0.173383 -0.371586 -0.662717 
1549 0.659074 -0.534750 0.050356 -0.118994 -0.335869 -0.144014 -0.569067 0.246344 0.551183 -0.376795 0.226960 0.494611 -0.009513 -0.335153 -0.339871 0.033180 0.093723 0.843263 -0.227644 -0.142929 0.384986 0.031882 0.127091 -0.137579 0.437761 -0.718054 0.042533 -0.078089 0.071209 -0.637916 -0.028131 0.022734 0.085825 0.141069 -0.534241 -0.402335 -0.066232 -0.477590 -0.234033 -0.293388 -0.647901 0.554598 1.047533 0.525222 0.473657 0.147069 -0.181109 0.240345 -0.317587 -1.270273 
1451 -0.084270 -0.140351 -0.194899 0.535930 0.087996 0.081347 0.300786 0.058155 0.094649 -0.624736 0.021258 0.184987 -0.223718 -0.485557 -0.196837 -0.067443 0.000413 -0.660818 -0.293901 0.328680 0.163857 -0.241848 -0.354972 0.232684 0.118055 -0.920734 -0.157917 -0.017326 0.328078 -0.480829 -0.172619 0.207971 -0.172518 0.279381 -0.846312 -0.494019 0.091950 -0.056068 0.036299 -0.663650 -0.259737 0.310957 0.570332 -0.023446 0.192852 0.390041 0.024565 -0.108488 -0.439253 -0.462201 
714 0.685945 0.495941 -0.907801 0.676916 -0.107608 0.153652 0.360040 0.364612 0.023935 0.214915 0.039830 -0.043787 -0.387674 -0.109182 0.315959 0.004658 0.405145 -0.572181 -0.137226 0.172322 0.215886 0.213125 0.061256 -0.501714 0.111996 -0.345195 -0.255242 -0.120547 0.200070 -0.235419 -0.194672 0.073414 -0.317537 0.183674 -0.684161 -0.583449 0.320593 0.218049 -0.127112 -0.462205 -0.840957 -0.384132 0.696746 0.211470 0.211177 0.098015 0.287019 0.015159 -0.269620 -0.771603 
2317 0.071119 -0.041263 0.117005 0.081675 -0.165545 0.166967 -0.403256 -0.527868 -0.025293 -0.614481 -0.030275 0.101531 0.057227 -0.830460 -0.294010 0.282650 0.126093 -0.296419 -0.093617 0.010901 0.499057 0.287754 0.055325 0.210282 0.298846 -0.697845 0.421271 0.151633 0.457117 -0.496901 -0.885685 -0.103792 0.268884 -0.147504 -0.731495 -0.978695 -0.139786 -0.337310 0.288734 0.060138 -0.802723 0.667888 1.185925 0.417242 0.184790 0.500753 0.111013 0.228943 -0.343261 -0.762098 
4287 -0.506729 0.132525 0.103067 0.206416 -0.305620 -0.219595 0.070910 -0.483564 -0.193962 -0.212000 0.047278 0.299553 -0.692055 -0.316572 0.067059 0.141457 0.215303 0.396999 0.382163 -0.173126 -0.641183 0.169693 0.466353 -0.128976 -0.015953 -0.409326 -0.320923 0.327672 0.173979 0.165192 0.220653 -0.174466 0.751866 0.136926 -0.709616 0.103693 -0.061389 0.357058 0.283252 -0.257007 -0.297717 0.265800 -0.557743 0.335982 0.296159 -0.138389 0.195840 -0.090217 -0.774696 -0.501424 
2207 0.367266 0.150024 -0.123202 0.279750 0.101482 -0.650121 0.189677 -0.203327 -0.078458 0.384538 -0.487115 0.370928 -0.152887 -0.422204 -0.195177 -0.485104 0.327440 0.036277 -0.189142 -0.203149 -0.208190 -0.106184 0.131336 -0.343605 0.105181 -0.111288 -0.201354 0.076391 0.003977 -0.458404 -0.438023 -0.145874 0.117615 0.114559 -0.613814 -0.788860 -0.037436 0.337253 -0.126824 -0.717951 -0.215282 0.275388 0.651999 0.266199 -0.222995 0.555827 0.690797 0.418541 0.040465 -0.421691 
2190 -0.364065 0.136259 -0.116661 0.480275 -0.350995 -0.486975 -0.326165 -0.028068 0.328181 -0.005000 -0.217991 0.561622 0.101476 -0.077174 -0.547415 0.432112 0.584142 -0.318270 0.345149 0.136817 0.465987 -0.356315 0.062518 -0.275442 0.417804 -1.027499 0.448092 0.456057 0.031809 -0.638199 0.196567 0.131625 -0.616220 0.301992 -0.720844 -0.493686 0.322291 0.308842 -0.233195 -0.776439 -0.504413 0.357157 0.727255 -0.011013 -0.232590 0.235259 -0.017012 -0.517271 -0.686499 -0.589137 
163 0.385899 0.263071 -0.061257 0.762766 -0.786026 -0.507935 -0.161411 0.011668 0.005980 0.395848 -0.000047 0.340554 -0.216084 -0.339206 -0.585251 0.023664 0.225418 -0.036486 0.588843 -0.008221 0.470130 -0.172880 -0.293892 -0.566026 0.505503 -0.963880 0.474181 -0.567643 0.108202 -0.305051 -0.090782 0.343484 -0.672896 0.135625 -0.984854 0.043802 0.481397 0.063305 0.086206 -0.069809 -0.441036 0.386141 0.997594 0.055821 -0.096589 0.119748 -0.033773 0.212854 -0.771156 -0.850657 
4534 -0.099804 0.384604 0.352266 0.515106 -0.201329 -0.628849 -0.294741 0.050166 0.249044 0.134296 -0.285156 0.278993 -0.855982 -0.084782 0.256135 0.166668 0.028399 -0.282583 0.302916 -0.735574 -0.803071 0.722979 0.250704 -0.298056 -0.123443 0.053069 -0.656500 0.828364 -0.007070 0.106342 0.333385 -0.177767 0.511960 -0.164494 -0.850383 -0.137887 0.211641 -0.178236 0.499837 0.269598 -0.267277 0.361193 -0.269609 0.287113 0.313981 -0.773602 0.074768 -0.588876 -0.620802 -0.834911 
1478 0.304102 0.228298 0.300323 0.643952 -0.171275 -0.076365 0.352800 0.152962 0.855202 0.190140 -0.124413 0.512489 -0.253127 0.355067 -0.378435 0.321238 0.439231 -0.498819 -0.410645 -0.273433 -0.303804 -0.081325 -0.391082 -0.166084 0.080711 0.008234 -0.076480 0.279903 0.137319 -0.387681 -0.171343 -0.238995 -0.112419 0.549793 -1.354325 -0.167592 0.020493 -0.381537 0.102578 -0.026095 -0.495792 0.184223 0.631848 0.539449 -0.373292 -0.058137 0.558064 -0.228328 -0.058775 -0.412885 
638 0.037033 0.224577 0.428599 0.934156 0.197418 -0.230286 -0.253432 0.017038 0.107952 -0.037547 0.568587 -0.015649 -0.453792 -0.124408 -0.250423 -0.158679 0.226126 -0.171964 -0.427904 -0.051804 -0.126106 -0.076845 -1.079495 -0.364944 0.587417 -0.071801 0.066123 -0.076914 0.181418 -0.251977 -0.071968 -0.541494 -0.205669 0.114032 -0.531317 -0.333050 0.236281 0.539774 0.185373 -0.484914 -0.704784 0.234137 0.377762 0.295625 -0.177650 0.372591 0.724974 -0.076554 -0.444087 -0.348773 
1328 0.400529 0.709759 0.044031 0.219537 0.027453 -0.020753 0.441836 0.041746 -0.133543 -0.494499 0.261214 0.026219 -0.286252 -0.299999 0.095937 0.034008 0.301073 -0.312145 0.306753 0.578580 -0.491897 -0.291299 0.437324 -0.096315 0.354146 -0.337090 0.261225 0.180160 -0.127028 -0.540660 -0.333716 -0.315013 -0.515764 0.136473 -1.031973 -0.384505 0.297605 -0.175265 -0.089313 -0.826993 -0.777032 -0.019471 0.726511 0.563294 0.411516 -0.074939 -0.120175 -0.134682 0.235769 -0.747889 
3687 -0.306979 -0.646321 0.432869 -0.084282 -0.279551 -0.075861 -0.112475 0.324735 -0.005610 -0.361913 -0.333803 -0.095022 -0.381776 0.298691 0.082196 0.179734 0.349521 0.003179 0.071310 -0.636571 -0.781321 0.165755 0.493412 -0.573689 0.285524 -0.550774 -0.341022 0.861067 -0.191673 -0.466788 0.012409 0.119032 0.141360 -0.124299 -0.393958 0.125939 -0.089907 0.218540 0.274339 -0.241389 -0.012251 0.665655 0.237853 -0.299877 -0.089347 -0.538735 0.102960 0.167570 0.159162 -0.985334 
4009 0.058987 0.030597 0.169444 0.702225 0.247825 -0.311488 -0.043309 -0.329088 0.345884 -0.662250 0.071618 -0.811838 -0.581306 0.050242 0.193511 0.012393 -0.065978 0.050813 0.100685 -0.131488 -0.168064 0.213225 0.468661 -0.392135 -0.060323 -0.594993 -0.569672 0.760327 0.109811 0.035200 0.026372 0.244675 0.225185 -0.864293 -0.193135 -0.801107 0.204735 0.241603 0.193802 0.211551 0.147021 0.269745 -0.164593 0.119748 0.388122 0.375470 0.222126 0.172634 -0.086078 -0.429610 
712 0.675805 0.336361 -0.113140 0.958739 0.078053 -0.024975 -0.014840 0.034702 0.215179 0.136830 0.170078 0.194338 -0.024164 -0.381838 -0.152965 0.232504 -0.127554 0.002046 0.266708 0.568247 -0.167422 -0.059732 0.258343 0.162983 0.840070 0.200282 -0.254924 0.531746 0.434029 -0.402167 0.063643 -0.176428 -0.691112 0.277633 -0.515811 -0.535104 0.281678 0.640872 -0.182263 -0.519264 -0.676176 0.247883 0.545043 -0.024404 0.192896 -0.154248 0.208389 -0.048351 -0.846587 -0.728918 
3727 -0.212593 -0.192117 0.062929 0.505152 -0.393862 -0.341817 -0.199153 -0.173036 0.096280 -0.367441 -0.241567 -0.215500 -0.829220 0.211388 0.551282 -0.250541 -0.394470 -0.312093 -0.194481 -0.265075 -0.502829 -0.484671 0.400524 -0.205439 -0.096326 -0.404222 -0.566084 -0.413109 -0.143369 -0.270528 -0.053480 0.462248 0.170033 -0.216308 -0.337009 -0.000119 0.444987 0.396712 -0.155971 -0.018757 -0.166104 0.158391 0.053823 0.594768 -0.032069 0.388869 -0.216794 0.095461 -0.669393 -0.501847 
2711 -0.192227 0.412292 0.089396 0.465008 0.100943 -0.718841 -0.228086 0.166845 -0.268673 -0.513607 0.240592 -0.109992 -0.477702 0.106414 0.594758 0.157705 0.203365 0.174753 0.023126 0.048013 -0.699498 0.394808 0.682145 -0.634121 0.184784 -0.295764 -0.291447 0.420229 0.019514 0.114092 0.255351 0.106490 -0.498121 -0.381426 -0.011479 -0.121288 -0.111200 0.411444 0.089654 -0.835374 0.245174 0.231455 0.163824 0.817858 0.317759 0.388981 -0.169547 -0.125755 -0.700963 -0.220443 
2025 0.567863 0.134858 0.256695 0.161984 -0.008432 0.075481 0.522175 0.042867 0.102325 -0.628512 0.209943 -0.146109 -0.072642 -0.447670 0.007208 -0.274126 0.488959 0.190854 0.481342 0.398903 -0.622389 -0.347122 0.577303 0.172274 0.271750 -0.560324 0.024249 0.532280 0.170844 -0.703993 -0.247731 -0.064558 -0.337290 -0.019950 -0.965798 0.028144 0.471411 -0.072937 -0.256955 -0.732328 -0.629662 0.319379 0.751690 0.281674 0.900649 -0.243363 -0.047495 0.002539 0.064564 -0.671713 
1041 -0.362848 0.398494 0.082605 0.354227 -0.220664 0.401765 0.342449 -0.092076 0.578131 -0.338639 0.093503 -0.182537 -0.008111 -0.141481 -0.567252 0.216147 0.445339 -0.117276 -0.041795 -0.091132 0.117032 -0.121610 -0.099470 0.391138 0.344277 -0.537273 -0.239097 -0.131747 0.123015 -0.215147 -0.789018 -0.021147 0.377777 0.248897 -0.671750 -0.853264 0.243387 0.245753 0.267169 0.070258 -0.908418 0.335937 0.863016 0.319447 0.249095 0.166479 0.003471 0.145177 -0.150620 -0.666997 
4834 0.448578 0.156567 0.648830 0.743153 -0.133690 0.225260 -0.242201 0.303970 -0.007855 -0.180972 0.139188 0.651672 -0.579256 0.223357 0.697437 0.470066 -0.410250 -0.016774 0.435616 -0.229080 -0.256742 -0.344595 1.198470 -0.329351 -0.140161 -0.768072 -0.008252 0.417342 -0.171503 0.389475 0.353041 -0.314552 -0.071352 -0.481312 -0.833978 -0.607770 0.863497 0.662951 0.068086 0.463464 -0.088378 0.440436 0.241829 0.210630 -0.086884 0.379485 0.009048 -0.146646 0.321900 -0.447393 
262 0.387704 -0.212766 -0.496308 0.505347 0.255598 -0.428510 -0.354790 0.164171 0.110760 -0.011938 0.053609 0.091861 -0.029541 -0.724500 -0.257967 0.176748 0.589937 -0.163474 -0.507182 0.119154 0.525077 0.152161 -0.016481 -0.268991 0.223457 -0.790096 -0.157286 0.061833 0.158395 -0.289314 0.159728 0.232537 -0.041761 0.399781 -0.555687 -0.582898 -0.123174 0.253933 -0.134454 0.168530 -0.284747 0.397978 0.262164 0.319449 0.433625 0.382151 0.374553 -0.305539 -0.569117 -0.774903 
180 0.232390 -0.079167 -0.438691 0.897614 0.165822 -0.305131 -0.232462 0.325504 0.464245 -0.160531 -0.037182 0.292970 0.154816 -0.192477 -0.383871 0.071063 0.653795 -0.345409 -0.264794 0.010678 0.226206 0.414491 -0.004869 -0.445381 -0.027885 -0.625745 -0.102036 0.126462 -0.368896 -0.419033 0.300159 0.516721 0.049705 0.077327 -0.271353 -0.884934 0.273862 0.453086 -0.080743 0.175854 -0.068176 0.357987 0.391663 -0.300758 0.252784 0.436957 0.696741 -0.148474 -0.291281 -0.623203 
4779 -0.316520 -0.606369 0.588651 0.673664 -0.465513 -0.160079 0.060585 -0.076809 0.223982 -0.322072 -0.098757 -0.086017 -0.291823 0.239324 0.379288 0.678825 0.232373 -0.000349 0.041141 -0.531945 -0.906746 -0.071421 0.184631 -0.652581 -0.439074 -0.268521 -0.725946 -0.207767 -0.139359 0.688280 -0.612621 0.184172 -0.153118 0.021552 -0.552054 0.047607 0.392562 0.546973 0.132061 -0.325198 0.719099 0.473609 0.517260 0.435771 0.197814 0.206539 0.412577 0.397872 -0.856823 -0.471803 
3347 0.053340 0.475419 0.395850 0.470117 -0.075883 -0.937462 0.146119 -0.314867 -0.238920 -0.127204 0.242807 -0.132119 -0.658664 0.325433 0.260066 0.406358 0.594699 -0.015870 -0.132774 -0.708253 -0.708704 0.296049 0.480408 -0.687759 -0.112057 0.233349 -0.772544 0.327214 -0.175332 0.201262 -0.287371 0.158606 0.030637 -0.114739 -0.281036 -0.331874 0.489665 0.187691 0.170154 -0.199860 0.206188 -0.077749 0.272809 0.101776 0.003429 -0.090431 0.286735 -0.018691 -0.998933 -0.350185 
2564 -0.195317 -0.142563 0.034649 0.394149 0.200973 -0.327687 -0.248691 -0.238095 0.163069 -0.362740 -0.067558 -0.075265 -0.748311 -0.258944 0.326726 0.320618 0.494991 -0.188304 0.024902 -0.664686 -0.522769 0.251531 0.137415 0.066977 -0.206053 -0.410097 -0.258863 0.377398 -0.055288 0.100007 -0.268043 0.094013 0.299318 0.042872 -0.714444 -0.522286 -0.265737 0.149692 0.344358 0.127606 0.567011 0.168437 -0.102524 0.324260 0.195762 0.107029 0.191158 -0.199794 -0.197485 -0.476425 
473 -0.398989 -0.447828 -0.071294 0.677000 -0.005657 0.351963 -0.036813 -0.049035 0.401220 -0.674255 0.119498 0.009134 -0.357162 -0.400813 -0.433358 0.227374 0.599329 0.244707 -0.350338 -0.092774 0.023352 0.314546 -0.095994 0.065473 -0.179340 -0.596800 0.187283 0.046864 0.086479 -0.256610 -0.095342 0.102418 -0.194618 0.168822 -0.758095 -0.518600 0.142949 0.097448 0.067057 -0.179893 -0.618144 0.390194 0.783871 -0.372021 0.452383 0.438053 -0.470655 -0.017131 -0.199798 -0.470099 
285 0.386579 0.294388 0.455958 0.347444 -0.257889 -0.132717 -0.013101 -0.098067 -0.133404 0.188000 0.039088 -0.090518 0.348007 0.046688 0.087487 0.437935 0.366382 -0.402574 0.166778 0.117745 -0.208355 -0.005261 -0.414203 -0.029123 0.314090 -0.233259 -0.312623 -0.140815 0.476405 -0.474231 -0.216387 -0.219519 -0.603480 -0.388292 -0.729585 -0.792334 0.229117 0.121858 0.348763 -0.367057 -0.078017 0.425755 0.680978 -0.110251 -0.115772 0.169864 -0.205112 -0.282702 -0.274282 -0.822160 
1191 0.107257 0.001169 -0.369356 0.298681 -0.450354 -0.768375 -0.606582 0.303384 0.337477 -0.568963 -0.210263 0.010680 -0.089543 -1.025602 -0.142481 0.331285 0.261488 0.003112 0.480771 -0.384082 0.314356 -0.294673 -0.078721 -0.247878 0.419074 -0.838203 0.719821 0.236994 0.112420 -0.364436 0.113026 0.227155 -0.352200 0.006734 -0.546484 -0.535294 0.182162 -0.162014 -0.344503 -0.333734 -0.484288 0.374237 0.846300 0.318406 -0.390397 0.265168 0.236428 -0.418953 -0.471377 -0.471981 
3812 0.341308 0.225051 0.433851 0.462626 -0.279144 -0.518797 -0.201867 -0.040493 0.014360 -0.208833 0.483041 0.436825 -0.460259 0.532130 0.410680 -0.045361 -0.060901 -0.590666 0.474689 0.016663 -0.471104 -0.149142 0.055840 -0.445065 -0.274693 -0.147793 -0.636727 0.549641 -0.101945 0.266303 0.049667 -0.012521 0.907323 -0.343409 -0.467341 -0.362052 0.210666 -0.086435 0.608810 0.168942 -0.199384 0.083580 -0.200787 0.166284 -0.392435 0.141548 0.717230 -0.057648 -0.577830 -0.678615 
1777 -0.239454 -0.430662 -0.182235 0.359079 -0.308220 -0.039816 -0.154789 0.126776 -0.028017 -0.295459 -0.459679 0.134789 -0.346450 0.002189 0.216240 -0.530349 0.133413 0.044061 -0.119422 -0.089457 0.210622 -0.577740 0.004549 -0.405509 0.622918 -0.754946 -0.485813 -0.169023 0.084296 -0.007001 0.135852 0.175947 0.052754 -0.204168 0.118143 -0.242908 0.640380 0.128351 0.046955 -0.261221 -0.708123 0.484039 0.295220 0.679441 0.436419 0.507827 -0.199194 0.476125 -0.232972 -0.837955 
1081 -0.028237 -0.483366 -0.422566 0.630649 0.316585 0.005018 0.353058 -0.161574 0.473978 -0.452902 0.257711 -0.252625 -0.408281 -0.471486 -0.345436 0.487027 0.466633 -0.210137 -0.207198 0.618227 -0.068808 0.032426 0.097437 0.168061 -0.274736 -0.184678 -0.094967 0.122770 0.223552 -0.534363 0.126235 0.025072 -0.283499 0.224577 -0.866244 -0.697611 0.321311 0.072145 -0.221058 -0.848465 -0.495427 0.338414 0.918502 -0.299315 0.048003 0.532189 -0.112035 0.093365 -0.371153 -0.261254 
2983 -0.090930 0.369691 0.471912 0.041852 -0.400836 -0.552236 -0.124418 0.102091 0.002267 -0.384587 -0.246061 0.357954 -0.435869 0.373589 0.119979 -0.180889 0.413412 0.049206 0.178619 -0.232679 -0.383753 -0.031806 0.211374 -0.196445 -0.543516 -0.711140 -0.213915 0.665644 0.616456 0.677670 0.301457 -0.234814 0.761227 0.124900 -0.690790 -0.423394 -0.128755 -0.172193 0.102224 0.318681 -0.255835 0.447192 0.153309 0.665203 -0.400962 0.292188 0.434476 0.366766 -0.310112 -0.340229 
2844 -0.470795 0.174419 0.067248 0.242577 -0.311263 0.114825 -0.248951 -0.098602 -0.281884 -0.274852 0.190983 0.424530 -0.566732 0.022233 0.554437 -0.053765 0.377317 0.214605 0.389838 -0.439397 -0.207856 0.048687 0.287227 -0.179786 -0.477200 -0.382585 -0.308764 0.615590 0.188963 0.575648 0.305923 -0.221254 0.598530 -0.003292 -0.891868 -0.309629 -0.098059 0.241346 0.287559 0.176747 -0.077305 0.544108 -0.252299 0.076428 0.116786 -0.112456 -0.064406 0.245179 -0.928814 -0.568315 
2212 -0.016253 0.317925 -0.018258 0.549235 -0.470091 -0.199524 -0.127411 -0.261590 -0.250311 0.045958 0.072500 0.328256 -0.045192 -0.244093 -0.246610 -0.154367 0.467797 -0.707322 0.542116 0.033388 0.191101 -0.052632 -0.020084 0.027308 0.088498 -0.143889 -0.422761 0.431818 0.157938 -0.761478 0.408651 -0.303044 -0.120021 0.804433 -0.632684 -0.167237 0.008611 0.475678 -0.499004 -0.652076 -0.393399 0.036282 0.636499 0.482585 0.133487 0.111944 0.068938 -0.269432 -0.698057 -0.602606 
1419 0.322991 -0.286691 0.601460 0.280829 -0.058866 0.436350 0.105415 0.175963 0.640778 -0.751479 -0.165017 0.228619 -0.022736 -0.159930 -0.289323 0.323782 0.490346 -0.115614 -0.294352 0.150715 -0.317923 0.060005 0.075634 0.098978 0.110885 -0.412481 -0.292886 0.326231 0.733690 -0.159998 -0.065780 0.064804 -0.579992 0.239258 -0.186884 -0.120707 -0.027819 0.007156 0.033749 -0.507964 0.043629 0.305777 0.189886 0.066634 0.362533 0.431641 0.340267 0.400991 -0.894589 -0.700804 
4787 -0.437065 -0.263426 -0.189397 0.172488 -0.410466 0.256588 -0.396805 -0.322113 0.015620 -0.449256 0.504463 0.145999 -0.758441 0.098121 0.633449 0.158408 0.499512 0.153125 -0.122364 -0.355797 -0.455803 -0.225875 0.007395 -0.562604 0.160297 -0.369279 0.142064 0.194351 -0.181218 -0.278820 0.302159 0.107451 0.181510 -0.181118 -0.497600 -0.043928 0.190465 0.128316 0.334344 -0.466973 0.168467 0.347455 -0.268595 0.411822 0.016296 -0.447937 -0.458471 0.670125 -0.843401 -0.827462 
3760 -0.244106 -0.190681 0.455376 0.361372 -0.090984 -0.244516 -0.312980 -0.289771 0.206239 -0.554710 0.540993 0.146099 -0.652374 0.037464 0.697369 0.255110 -0.005736 0.664115 0.414453 -0.700305 -0.775454 0.533923 0.674508 -0.399177 -0.579269 -0.227730 -0.461641 0.672857 -0.117844 0.275577 0.411592 0.095195 -0.062218 0.597119 -0.820436 -0.172159 0.219622 0.320031 0.094090 0.083988 0.020206 0.979416 0.236216 0.314476 0.068453 0.525835 0.248583 0.120337 -0.070063 0.023914 
2766 -0.220363 -0.124934 -0.056956 0.311437 -0.369695 -0.427796 -0.516224 -0.532333 0.031044 0.037828 0.139499 -0.073238 -0.690675 -0.163068 0.449621 0.165895 -0.147454 0.031613 0.446776 -0.361726 -0.329834 -0.289341 0.042471 -0.570074 -0.535423 -0.562334 -0.458620 0.235579 0.142353 0.323488 0.309373 0.206585 0.203274 0.201043 -0.668275 0.012992 0.099468 -0.099049 -0.118057 -0.451861 0.449840 0.718893 -0.160794 0.209536 -0.159235 0.327402 -0.123340 0.473860 -0.589795 -0.504691 
4524 0.098518 0.251387 0.366768 0.319015 -0.276885 -0.454070 0.007907 0.119039 0.057007 -0.598154 0.459866 -0.077068 -0.766916 0.612184 0.251377 0.116686 0.648708 0.664184 0.067776 -0.370301 -0.779953 -0.081533 0.079440 -0.627819 -0.344950 -0.110351 -0.378860 0.363840 -0.332862 -0.087598 0.146892 -0.484348 0.151597 0.170936 -0.376151 -0.323981 0.092765 0.278322 -0.175647 0.039671 0.148892 0.409647 0.443840 0.012516 0.372781 0.013175 -0.061461 0.056952 -0.153664 -0.312735 
3331 -0.093447 -0.278897 0.107602 0.261010 -0.567899 -0.335320 -0.274836 -0.031233 -0.196809 0.013031 0.297265 -0.451996 -0.889861 0.445168 0.544489 0.135107 0.335275 0.273570 0.146154 -0.781089 -0.566552 -0.590537 0.349730 0.264642 0.239532 -0.125137 -0.456096 0.118142 -0.279699 0.294687 -0.110449 0.124502 0.472112 -0.219853 -0.503691 0.124628 0.159806 -0.050528 -0.173308 -0.301010 0.138755 0.542494 0.699988 -0.018500 0.144795 0.361571 -0.525365 0.521658 -0.606124 -0.822847 
1869 0.321009 -0.138953 -0.156002 0.166142 0.290102 -0.104423 -0.187176 0.125375 0.669455 0.243354 0.235529 0.007959 -0.260275 -0.007788 0.142613 -0.086776 0.201934 -0.186275 0.220789 0.028046 -0.788967 0.067439 0.063965 -0.133219 0.206707 0.067850 -0.296950 0.628014 0.094198 -0.420037 -0.033150 -0.184711 0.223551 -0.017929 -0.413352 -0.309403 0.275408 0.107520 0.012193 -0.540447 -0.320928 0.259232 0.875769 -0.154569 0.329932 0.017868 0.154254 0.014690 -0.215229 -0.102346 
1737 0.361533 -0.012683 -0.857184 0.962433 -0.089108 -0.414177 -0.066657 -0.375021 0.378284 0.178151 -0.101740 0.378160 -0.331730 -0.484517 -0.612660 0.335153 0.410576 0.270396 -0.072804 0.627111 -0.402981 -0.289008 0.119000 -0.857424 0.197805 0.138114 -0.008995 0.176332 0.060712 0.355810 -0.102393 0.230158 -0.078591 -0.187057 -0.327858 -1.338447 -0.123283 0.133899 -0.158332 -0.450089 -0.177357 -0.060544 0.698466 0.530777 0.251637 0.077755 0.448579 0.606849 -0.284627 -0.445050 
2911 -0.116176 -0.209053 0.064501 0.022898 -0.518593 -0.631969 -0.652584 -0.064477 -0.597744 0.142978 0.467468 -0.104414 -0.629426 0.116970 0.547978 0.123054 -0.333144 -0.012725 0.184203 -0.163317 -0.759091 -0.194086 0.013557 -0.941174 -0.447666 -0.413741 -0.248024 0.021668 -0.362124 0.162489 0.337358 0.182974 0.366030 -0.098527 -0.802208 -0.869128 -0.301674 0.256357 0.313591 -0.203630 0.181468 0.031291 0.138096 0.448183 0.266739 0.477860 -0.223428 0.303866 -0.152886 -0.855676 
3457 0.085474 -0.279444 -0.240572 0.420480 -0.163191 0.551543 0.245135 0.088334 -0.191181 -0.561703 0.032009 0.163308 -0.200578 0.396908 0.645284 0.217862 -0.318890 0.198270 -0.118333 -0.453790 -0.008259 -0.478046 0.292856 -0.579876 0.468684 -0.341792 -0.435342 0.226833 -0.086068 -0.129590 0.209591 0.045766 0.409533 -0.765927 -1.417027 -0.835546 -0.191977 0.674210 -0.304545 0.291025 -0.055200 0.580371 0.059174 0.142471 0.163229 -0.018049 -0.121259 0.320464 0.061588 -0.314722 
1762 0.446831 0.186293 -0.828621 1.276481 -0.144655 -0.440768 -0.128586 -0.369908 0.742948 -0.232038 -0.388205 0.625281 0.142577 -0.456094 -0.349543 0.107985 0.483279 0.258224 -0.141667 0.497319 -0.156090 -0.089347 -0.018486 -0.572877 -0.054715 -0.140990 -0.282546 0.102007 -0.123141 0.304393 -0.003649 -0.204007 -0.086761 -0.127663 -0.155141 -1.167171 -0.168708 0.013656 -0.387566 -0.433100 -0.347741 0.488256 1.017994 -0.220530 0.148459 0.805587 0.965475 0.348017 -0.518640 -0.505651 
3900 -0.170241 -0.207732 0.346754 0.357542 -0.171636 -0.338395 -0.118493 -0.365494 -0.030700 -0.608091 -0.212978 0.271430 -0.927497 0.231720 0.589153 -0.058482 0.209153 -0.056447 0.073313 -0.138086 -0.457062 -0.308170 0.571724 -0.432334 -0.301402 -0.652132 -0.138950 0.071469 -0.013270 -0.055903 -0.207052 0.012464 0.024256 -0.386544 -0.640936 -0.468230 -0.599550 0.342687 0.077506 0.291529 0.229451 0.639972 -0.176763 -0.004967 0.039540 -0.050913 0.179726 -0.000868 -0.451035 -0.440437 
1668 0.146578 0.266352 -0.002412 0.006568 -0.272958 -0.352993 -0.859779 0.376313 -0.189315 -0.553222 -0.360783 0.083448 -0.135305 -0.944539 0.109033 0.313569 0.089828 0.283651 0.018563 0.064024 0.052288 -0.232735 -0.227105 -0.131750 0.478267 -0.786953 0.279347 0.218239 0.701843 -0.397673 -0.166598 -0.049382 -0.511565 -0.219115 -0.367329 -0.620523 0.010680 0.017637 0.084273 -0.491661 -0.836496 0.222687 1.022645 0.433184 -0.010627 0.349818 0.171548 0.147508 -0.071904 -0.784506 
164 0.190979 0.132544 -0.191006 0.314541 -0.225527 -0.601844 -0.378826 0.450904 -0.242542 -0.474055 -0.205380 0.134889 0.122227 -0.149147 -0.220993 -0.182668 -0.175816 -0.031109 0.026783 0.437600 -0.290908 -0.029881 -0.355573 -0.345114 0.404082 -0.906137 0.352299 0.189501 0.626364 -0.340807 -0.118428 0.090769 -0.188449 -0.192400 -0.440688 -0.303603 0.025000 0.493618 -0.050919 -0.253484 -0.760878 -0.091404 0.682599 0.238560 0.582940 0.256122 0.178114 0.246714 -0.048665 -0.903178 
1589 0.176832 -0.236857 -0.410067 0.210477 0.073026 -0.246871 -0.284379 0.033305 0.230494 0.448621 -0.007867 0.241381 -0.780240 -0.354269 -0.130935 0.163656 0.481487 -0.742846 -0.196549 -0.025353 -0.007651 0.154950 -0.293772 -0.607343 0.612942 -0.543416 0.090315 0.057745 -0.051910 -0.460352 0.368919 -0.246690 -0.167436 0.600151 -0.515589 -0.574521 0.232292 0.034075 0.582651 -0.891288 -0.843568 0.149308 0.117892 0.541787 -0.717312 0.040239 0.170981 0.417761 -0.227655 -0.505965 
3293 -0.074352 0.209423 0.060149 0.433369 0.011338 -0.488896 0.488714 -0.284468 0.670207 -0.366532 0.443157 -0.321439 -0.720495 0.091618 0.227096 -0.176471 -0.210848 -0.294908 0.995958 0.127502 -0.396051 -0.027956 0.253165 0.112351 -0.445083 -0.142239 -1.023986 0.169606 0.564860 -0.116776 -0.317010 -0.209995 1.085661 -0.722016 -0.965485 -0.531058 0.472884 -0.569510 0.332611 -0.142172 0.259297 0.261515 -0.291516 -0.003462 -0.067572 0.063968 0.169298 -0.291392 -0.764509 -1.221827 
422 -0.070457 0.410276 -0.151574 0.309215 0.164683 -0.277874 -0.017411 0.301890 0.107579 -0.112108 0.237000 -0.063667 -0.683071 -0.396140 0.251678 -0.023494 0.481031 -0.481196 0.035544 0.219262 -0.367695 -0.051557 -0.368009 -0.211134 0.123186 -0.088575 0.161140 -0.149074 0.045555 -0.266817 0.174811 -0.103288 -0.405630 0.238390 -0.425167 -0.145268 0.399949 0.147116 -0.224047 -0.648286 -0.399872 0.030811 0.196734 0.169184 -0.026298 0.063748 0.108528 0.110288 -0.479768 -0.845981 
4500 0.278004 -0.537668 0.140521 0.314603 -1.147143 -0.002987 0.162625 0.221450 -0.153675 -0.905802 -0.607201 0.220745 -0.826096 0.649415 0.426002 -0.384372 0.039456 -0.402350 0.129273 -0.347923 -0.015819 -0.602831 0.378183 -0.652244 -0.519838 -0.546823 -0.257057 0.256679 -0.342103 0.517237 -0.005399 0.180793 0.443331 -0.156687 -0.820840 -0.286163 -0.005415 0.446867 0.052027 -0.317517 0.066770 0.334185 0.580339 -0.364130 0.259481 0.310786 0.309115 0.217202 -0.259938 -0.489845 
4848 -0.221491 -0.001752 0.538445 0.516983 -0.337574 -0.095579 -0.035908 -0.152098 0.264959 -0.391191 0.035663 0.011647 -0.270894 0.455768 0.672205 0.214872 -0.042025 0.013552 0.005324 -0.228491 -0.445713 -0.022130 0.285612 -0.249617 -0.112529 -0.175779 -0.550875 0.084951 -0.183224 -0.225480 0.060245 0.493235 0.125500 0.019086 -0.696169 -0.130598 -0.083525 0.151928 0.422899 0.043193 0.078368 0.729365 0.332618 0.241225 0.025498 -0.133487 -0.404808 0.005560 -0.329724 -0.400482 
2279 0.304241 0.063158 0.472941 0.812323 0.192779 -0.231995 0.636607 0.491366 -0.139733 -0.695878 0.032644 -0.676953 -0.219806 -0.514882 0.060047 0.003424 0.254873 0.275550 -0.073064 -0.066526 0.165944 -0.120290 -0.141364 0.147971 -0.021500 -0.476150 -0.229830 0.507743 0.608401 -0.803021 -0.312444 0.340472 -0.046345 -0.545268 -0.695809 -0.298899 0.118702 -0.261577 0.101867 -0.739598 -0.384623 -0.062477 0.650344 -0.026992 0.127960 0.017693 0.526485 0.708303 -0.085206 -0.514697 
4371 -0.014220 -0.238801 0.628854 0.552323 0.023988 -0.281950 -0.440185 -0.157106 -0.000575 -0.455166 -0.062021 0.346454 -0.757602 0.541916 0.314276 0.251325 0.043443 0.155292 0.231819 -0.357990 -0.724732 -0.387089 0.738193 -0.417238 -0.057649 -0.743876 -0.237683 -0.099556 -0.198394 0.299848 0.191276 0.082135 -0.019830 -0.512211 -0.685251 -0.532954 -0.171461 0.222743 0.063882 0.507984 -0.077226 0.376639 -0.161373 0.111856 -0.182363 -0.022997 0.087490 0.074382 -0.264785 -0.620771 
3588 -0.093476 -0.178290 0.203491 0.546456 -0.624422 -0.161174 0.049553 0.529079 0.824370 -0.321198 -0.356094 0.191989 -0.669691 0.302613 0.109653 -0.062019 -0.063636 0.039861 0.448522 -0.497820 -0.305596 0.132625 -0.181195 -0.080737 0.076041 0.140896 -0.612626 0.818141 -0.025446 -0.277440 -0.043556 -0.168131 0.577028 -0.127642 -0.876013 0.086760 0.052656 0.108299 0.561830 0.538342 0.476566 0.083726 0.875502 0.161105 -0.007415 0.380004 0.171366 0.384296 -0.800170 -0.224311 
3126 -0.371911 -0.217778 0.461377 0.114583 -0.618624 0.122986 0.064812 -0.277719 0.034834 -0.673456 -0.242348 -0.085215 -0.304166 0.297501 0.529934 0.339949 0.129104 -0.006826 -0.206861 -0.576120 -0.029147 0.030627 -0.479352 -0.655105 -0.559142 -0.385096 -0.462837 0.239071 -0.348185 -0.216094 0.004526 0.569744 0.485408 -0.438942 -0.615466 -0.201375 -0.292837 0.523150 0.430368 -0.340904 0.083798 0.467216 0.317188 0.208414 0.081303 0.080460 0.345395 0.044886 -0.604237 -0.534247 
488 -0.186263 -0.347679 0.123599 0.726948 -0.106699 -0.151419 0.269241 0.133326 0.115420 0.025823 0.510802 -0.041546 -0.690401 -0.384650 -0.009450 -0.089514 0.198079 -0.180199 0.122097 -0.007234 0.067276 0.526995 0.131193 0.110199 0.636089 -0.404244 -0.267718 0.212877 0.091063 -0.137003 0.031465 -0.232620 -0.128093 0.046895 -0.735166 -0.555674 -0.313749 0.130589 -0.605786 -0.343137 -0.341034 0.375369 0.470308 0.195759 0.397465 0.198178 -0.141110 0.205664 0.264437 -0.202645 
3966 -0.140012 0.120545 0.278777 0.209410 -0.092013 -0.375535 0.133768 -0.173868 0.715608 -0.452136 -0.438608 -0.558810 -0.508420 0.339924 0.577160 0.301192 0.279118 -0.213459 0.054810 -0.338967 -0.228447 0.147340 0.445682 -0.454292 -0.123033 -0.147272 -0.236610 0.542882 0.096814 0.430756 -0.057261 0.178440 0.265573 -0.371997 -0.231451 -0.611037 0.311335 0.016871 0.000850 -0.358061 -0.149515 0.386466 -0.015451 0.567752 0.244490 0.007852 0.279663 -0.282873 0.088133 -0.733351 
1533 0.262502 0.124604 -0.121730 0.161940 0.302995 0.069751 -0.021941 0.080674 0.445145 -0.394219 -0.147228 -0.272003 -0.477171 -0.401621 -0.646538 0.480757 0.164332 -0.415833 0.740063 0.621941 0.161238 -0.315409 0.450410 -0.344334 0.272842 0.120713 -0.060971 0.303188 0.434377 -0.456003 -0.095275 -0.474266 0.192722 -0.735538 -1.048655 -0.149407 0.316897 -0.016676 0.407175 -0.003318 -0.742095 0.210322 0.980963 -0.191500 0.153404 0.304949 -0.165851 0.267758 -0.668769 -0.235521 
2775 0.491583 -0.136219 -0.116799 0.525024 -0.226744 -0.277503 -0.031793 -0.328693 -0.013493 0.142704 -0.027901 -0.295577 -0.946044 0.195436 -0.477774 0.425407 -0.223867 0.017506 0.028893 0.067927 -0.867859 -0.033880 0.370275 -0.427305 -0.067779 -0.405180 -0.132031 0.229260 -0.316799 0.369497 0.001573 0.279911 0.164976 -0.662587 -0.314597 -0.873841 -0.538855 0.029194 0.564080 -0.133349 -0.298148 -0.384048 0.077940 0.503104 0.021330 0.057566 0.079086 0.618868 -0.453665 -0.681870 
1563 0.355637 -0.131955 0.706041 0.894389 0.012740 -0.211233 -0.778151 0.049233 -0.047588 -0.121541 0.049163 -0.157662 -0.577796 -0.781558 -0.399687 -0.170080 0.214970 0.275961 0.489786 0.087450 -0.018095 0.042405 -0.065259 0.015069 0.818049 -0.589549 -0.263781 0.207008 0.028603 -0.021666 -0.194101 0.020806 -0.760408 -0.100950 -0.074814 -0.012429 0.537852 0.419588 0.404566 -0.111033 -1.075029 0.046084 0.416828 0.319019 0.618916 0.199263 -0.036754 0.082079 -0.487413 -0.597341 
2885 0.182890 0.117150 0.037739 0.505143 -0.265095 0.405547 -0.359055 -0.079985 0.031623 -0.805875 0.374171 0.009270 -0.486855 -0.118467 0.531576 0.010231 0.435539 0.102120 0.241968 -0.589074 -0.674773 0.346961 0.030552 -0.615128 -0.533229 -0.144632 -0.249620 0.574116 -0.378851 0.332549 0.289083 -0.148649 -0.137400 -0.137453 -0.740229 -0.127987 -0.035754 0.124624 -0.334364 0.125707 -0.114602 0.322593 0.118733 0.267531 0.153860 -0.310403 -0.186390 0.142073 -0.502908 -0.307158 
2563 -0.062103 0.366747 0.336318 0.819908 0.147652 0.093045 -0.133732 0.241427 0.063867 -0.599560 0.294279 -0.209436 -0.608230 0.106644 0.612937 0.501217 -0.410471 -0.055880 0.918089 -0.540701 -0.269403 -0.270933 0.772815 -0.313623 -0.147745 -0.348970 -0.204809 0.499016 -0.077010 0.305657 0.155407 -0.238672 0.477181 -0.264437 -0.552360 -0.297976 0.344944 0.233006 0.456271 0.188890 0.026383 0.679571 0.052076 -0.450824 -0.022941 0.273777 0.324880 -0.235953 -0.265732 -0.571361 
1046 0.520302 0.199382 -0.310029 0.769784 -0.329985 -0.613325 0.216461 0.109951 0.210016 0.416906 -0.310225 0.129535 -0.152405 -0.595384 -0.130738 -0.216314 0.372542 -0.467304 -0.387975 0.393266 0.179435 -0.346403 -0.260310 -0.696909 0.543031 -0.525627 0.230115 -0.205012 -0.041616 -0.425630 -0.231824 0.314887 -0.191814 0.094303 -0.359290 -0.459145 0.265786 0.227201 0.314560 -0.251946 -0.885801 0.485020 1.032141 0.015481 -0.006550 0.556505 0.612106 0.622973 0.092756 -0.952818 
3085 0.522475 -0.359846 0.451107 0.121886 -0.118373 -0.456706 -0.350387 -0.077840 -0.185486 -0.263839 0.026859 -0.299584 -0.435865 0.545889 0.096090 0.275066 -0.175472 -0.489954 -0.160665 -0.336755 -0.878198 0.342527 0.053364 -0.302169 0.213441 -0.662808 -0.165903 0.080995 -0.262161 0.475656 -0.421747 0.156543 0.797220 -0.740131 -0.512363 -0.528767 -0.139360 -0.174497 0.397937 -0.305910 -0.763758 -0.399044 0.098402 0.388703 -0.268669 0.139659 0.334140 0.299844 -0.675030 -0.733901 
3102 0.233586 -0.200092 0.341604 0.549599 -0.446620 -0.030923 -0.139012 0.292815 -0.012175 -0.043840 0.141305 0.446979 -0.321643 -0.105570 1.033207 0.611965 0.676237 0.022699 0.384496 -0.655867 -0.245319 -0.322005 0.637785 -0.604929 0.154452 -0.237309 -0.593778 0.566261 -0.465006 -0.151405 -0.098984 -0.194008 0.179144 -0.001837 -0.742057 -0.298083 0.237437 -0.137426 -0.149914 0.123093 -0.061143 0.812592 -0.326465 0.121406 -0.220760 -0.394142 0.396120 0.081623 -0.222420 -0.285924 
1299 0.068365 -0.215155 -0.469666 0.494832 -0.287581 -0.113168 -0.300406 -0.206955 -0.337130 0.171332 -0.006570 0.187078 -0.566082 -0.157612 -0.237966 0.098597 0.508989 -0.107107 -0.097583 -0.148401 0.026357 0.352551 -0.369658 -0.171014 0.897722 -0.195464 0.021136 0.146002 0.160850 -0.090204 -0.212710 -0.192177 0.188407 0.423593 -0.502605 -0.954540 -0.622101 0.829130 -0.210580 -0.234600 -0.838839 0.318962 0.818608 -0.011918 -0.206286 0.368104 0.206005 0.069292 -0.330749 -0.238987 
1249 0.666528 0.631658 -0.160207 0.136599 -0.023709 -0.504463 0.022113 -0.068694 -0.117963 0.026307 0.184664 0.354507 -0.212070 -0.669613 -0.069039 0.066789 0.434594 -0.335172 -0.281570 0.962840 -0.450707 -0.402788 0.091396 -0.322260 0.559743 0.336397 -0.252293 0.243976 0.154413 -0.119228 -0.153046 0.211399 -0.422070 -0.062287 -0.860127 -0.885008 0.035587 0.374545 -0.229481 -0.679618 -0.590932 -0.047734 0.670189 0.361704 0.230498 0.075568 -0.098458 0.090274 -0.226650 -0.899954 
435 -0.293465 0.032925 -0.163640 0.389276 -0.183443 0.096393 0.420112 0.123843 -0.148541 -0.411527 0.267773 -0.514693 -0.352041 0.056935 -0.181910 0.125024 0.403016 0.123001 0.053513 0.150927 -0.066100 0.012243 -0.331872 -0.562863 0.228662 -0.223580 -0.030471 0.103734 0.499896 0.044305 -0.168919 -0.622552 0.024674 0.523709 -0.457665 -0.398181 -0.175783 0.679274 -0.004688 -0.894362 -0.812163 0.351521 0.545208 0.275165 0.140849 0.044931 -0.434291 0.154343 -0.312430 -0.554611 
1899 0.543838 -0.284256 0.329534 0.644986 -0.226547 -0.031671 0.466712 -0.321097 0.239651 -0.408390 0.297851 -0.213344 -0.472814 -0.781855 -0.153727 -0.196528 -0.537601 -0.449323 -0.452939 0.183701 0.130693 0.220958 0.013407 0.372188 0.570722 -0.456430 -0.284329 0.391817 0.617362 -0.616018 -0.014736 0.053456 -0.208917 -0.167264 -0.480778 -0.487619 0.087119 0.136343 0.034962 -0.391764 -0.471541 0.501259 0.593927 0.249479 -0.109383 0.069722 -0.183057 0.401178 -0.457265 -0.327117 
4198 -0.282192 -0.176855 0.267401 0.207542 -0.221577 -0.177638 0.116394 -0.343070 -0.629566 -0.099742 0.299960 0.591749 -0.906208 0.498547 0.313756 0.066454 0.269830 0.214539 0.446566 -0.266441 -0.307857 0.416958 0.496306 -0.169641 0.130749 -0.609164 -0.390083 0.566638 0.060567 -0.046007 0.234971 0.228249 0.484785 -0.508805 -0.813714 -0.395007 -0.510277 0.457356 0.728580 0.253405 0.689793 0.134146 0.484469 0.243535 0.143012 0.233859 0.366076 0.136154 -0.101319 -1.097948 
1932 -0.142759 0.877352 -0.082904 0.423040 -0.160940 -0.200299 0.053006 -0.194767 0.208981 -0.057117 0.280132 -0.126188 -0.418044 -0.584386 -0.490247 0.321813 0.217291 -0.493511 0.134422 -0.128922 0.117612 -0.043455 -0.056315 0.333543 0.818542 -0.491381 -0.013808 -0.103359 0.267514 -0.077086 -0.129163 -0.251834 -0.634312 0.226098 -0.659387 -0.359420 0.061104 -0.042607 0.337953 -0.308454 -0.607011 0.619151 0.635230 0.394600 -0.242914 -0.049387 0.146769 -0.101145 -0.224318 -0.947743 
2848 -0.129788 -0.183062 0.046171 0.355301 -0.364532 -0.445371 0.021093 0.112344 0.288671 -0.702704 0.151106 0.001518 -0.655690 0.358836 0.353442 0.446562 -0.006728 -0.229900 0.259463 -0.354207 -0.196480 0.131613 0.383465 0.039204 -0.212063 -0.198266 0.081741 0.376813 -0.463152 0.165459 -0.418529 0.416237 0.906244 -0.395829 -0.183699 -0.698652 0.304590 0.418732 0.591406 -0.027744 -0.032710 0.270938 0.499954 -0.044248 -0.106812 -0.072441 -0.048269 -0.042158 -0.409777 -0.625276 
4931 -0.030807 -0.241441 0.298110 0.336029 -0.545223 -0.163727 -0.576343 -0.053586 -0.179050 0.012236 -0.173153 0.516950 -0.337816 0.376277 0.487040 0.376727 0.557180 -0.137629 -0.264826 -0.625622 -0.446679 -0.087522 0.693235 -0.513450 0.184723 -0.539030 -0.316890 0.397416 -0.629643 0.453632 0.276936 -0.229079 -0.167341 -0.447244 -0.418541 -0.612854 0.193289 -0.199908 0.045353 -0.190357 -0.077407 0.515184 -0.151954 0.262271 -0.180664 0.268320 0.155562 0.169722 0.152740 -0.872908 
3591 -0.110948 -0.143211 0.176938 0.387353 -0.189004 -0.334991 -0.141384 -0.501384 0.488848 -0.514647 0.460091 -0.237560 -0.768908 0.411072 0.641788 0.031549 0.258750 0.334397 0.000578 -0.160093 -1.014647 -0.001040 0.209969 -0.819262 -0.333800 -0.325388 -0.013456 0.503848 -0.047101 0.023503 -0.300095 0.080210 0.383489 0.200087 -0.774502 -0.040016 0.131773 0.089064 0.377267 0.042535 0.576723 0.432356 0.076509 0.305688 0.343911 0.117837 -0.345525 0.313947 -0.304537 -0.586311 
2373 0.255685 0.447950 0.487913 0.561785 -0.135351 -0.059531 -0.512573 0.210303 -0.008791 0.238330 0.221751 0.334156 -0.297364 -0.183593 -0.079867 0.657999 0.234895 -0.132254 -0.346923 0.779567 -0.084771 -0.474437 0.042840 -0.266110 -0.027599 -0.619536 0.252272 0.335708 0.216530 -0.375324 0.237550 -0.156184 -0.254378 -0.449284 -0.512895 -0.452828 0.828290 0.333824 0.006002 -0.215381 -0.334542 -0.041705 0.616014 0.583250 -0.483758 0.530417 0.237676 0.204170 0.343869 -0.580937 
1769 -0.044101 0.019458 0.215976 0.821120 -0.262970 -0.852742 0.015821 -0.141702 0.212204 0.132267 0.057473 0.006709 -0.004770 0.209824 0.044390 -0.013229 -0.057160 0.154003 -0.045534 -0.081310 -0.298916 0.032778 -0.218361 -0.035137 -0.167808 -0.324615 -0.442490 0.312209 0.324363 0.156586 -0.177308 -0.146051 -0.529609 0.491226 -0.658697 -0.696746 0.421516 0.484061 -0.588022 0.222207 -0.432351 0.256477 -0.067448 0.325084 -0.132941 -0.375793 0.005224 0.296603 -0.411135 -0.446434 
996 -0.205963 0.069925 0.085701 0.798986 0.032941 0.073964 0.179191 0.205511 0.357124 0.108867 0.371582 -0.173618 -0.101153 0.003408 -0.365445 0.561733 0.759185 -0.208413 0.235514 0.135419 -0.212019 -0.269994 -0.242110 0.528159 -0.012131 -0.480985 -0.111775 -0.007863 0.378174 -0.031527 0.141679 -0.084686 -0.472861 0.537624 -0.570890 -0.523381 0.135411 0.509176 0.223954 -1.112128 -0.980153 -0.014327 0.668098 0.179597 0.158541 0.302828 0.261813 -0.095982 -0.299784 -0.626266 
3584 0.002064 0.338527 0.195954 0.199687 -0.577423 0.038655 -0.227446 -0.271071 0.051599 -0.289931 0.278215 0.372166 -0.326896 0.136672 0.908520 0.001206 0.066783 0.308340 0.163678 -0.399480 -0.318748 -0.246316 0.524762 -0.556569 0.002927 -0.177185 -0.243560 0.398755 0.042548 -0.374625 0.069778 0.304815 0.515801 -0.473812 -0.775943 -0.604854 -0.442023 0.349098 0.302801 0.360570 -0.230868 0.125393 0.243383 0.194247 0.139367 -0.277649 0.516111 0.068623 0.112818 -0.440865 
1603 0.100907 0.138825 0.169558 0.541127 0.122176 -0.107224 -0.372463 0.110799 -0.023304 0.174108 0.352722 -0.037712 -0.165746 -0.177923 -0.070518 -0.101258 0.663258 -0.504147 0.122120 -0.074122 -0.306108 0.341273 -0.189969 -0.269686 0.086530 -0.604318 -0.665076 0.103265 -0.112178 -0.474657 -0.055342 0.066410 -0.544959 0.207732 -0.599624 -0.499482 0.451915 0.627245 0.089147 -0.861888 -0.415293 -0.075768 -0.366737 -0.421503 -0.277721 0.131931 -0.075588 -0.226265 -0.258223 -0.514212 
1926 0.278499 0.143269 0.394783 0.444286 -0.650202 -0.176612 0.418125 0.033141 0.047973 0.264300 0.525154 0.065194 -0.811911 -0.485147 0.035715 0.592763 0.525080 -0.419073 -0.071982 0.187585 0.517015 0.521918 -0.105738 -0.256067 0.375801 -0.341713 -0.116814 0.261907 -0.021530 -0.351784 0.367844 -0.214550 -0.130706 0.370377 -0.425338 -0.146586 0.428247 0.160584 -0.703102 -0.365737 -0.566921 0.299880 0.142897 -0.247114 -0.023268 -0.103312 0.269223 0.453856 -0.565934 -0.545317 
3800 -0.506175 -0.108263 0.301617 0.320376 -0.628832 -0.560209 -0.312137 -0.273927 -0.010918 0.011751 -0.525535 -0.124234 -0.324399 -0.161930 0.471286 0.218801 0.079350 -0.180664 -0.026366 0.073597 -0.601054 0.382529 0.535933 -0.585425 -0.191643 -0.326684 -0.317350 0.589448 -0.118249 0.342125 0.350205 0.087578 0.531572 -0.361848 -0.393141 -0.974466 -0.187939 0.301686 0.529921 0.577199 0.017198 0.506519 0.468816 0.206092 0.013578 -0.063198 0.093072 -0.107538 -0.591317 -0.352660 
4293 0.173106 -0.003963 -0.329002 0.248554 0.441736 -0.208596 -0.178012 -0.039020 0.222751 -0.344068 0.071260 -0.061192 -0.714098 0.077156 0.603866 0.225240 0.758949 -0.472136 -0.218459 -0.516516 -0.780711 -0.204653 -0.145905 -0.433029 0.069584 -0.308782 -0.648747 0.378652 -0.270712 -0.348332 -0.005310 0.550616 0.328402 -0.266361 -0.753237 -0.287685 0.274185 0.013034 0.277667 -0.185022 0.550940 0.202553 -0.102669 0.577493 0.365745 -0.100343 0.268772 -0.290556 -0.142931 -0.466665 
1844 0.722366 -0.522172 -0.264248 0.283272 -0.511177 0.459474 -0.025837 0.248766 0.184285 -0.357002 0.584155 -0.438402 -0.656133 -0.717493 -0.407655 0.203812 0.428090 -1.149961 0.149898 -0.337237 -0.283244 0.254595 -0.035705 -0.585282 -0.446703 -0.430933 -0.024375 -0.167242 0.419732 -0.391942 0.372105 0.051168 0.149665 -0.204921 -0.919095 -0.146061 -0.655388 0.391047 0.372291 0.070470 -0.870098 0.139776 0.052603 0.354964 -0.398960 0.348441 0.376952 0.201089 -0.448718 -0.089229 
2232 0.274211 -0.024659 -0.213033 0.538433 0.042071 -0.236567 -0.259250 -0.177527 -0.617655 -0.331775 0.081070 0.478294 -0.063462 -1.136262 -0.276008 -0.388472 0.081227 0.472920 -0.268593 0.224404 0.005682 -0.016234 -0.224819 -0.102961 -0.427155 -0.648184 -0.510540 1.158099 0.446657 -0.817541 -0.653757 -0.196098 0.392251 0.133457 -0.950139 -0.408173 -0.401753 0.274887 -0.561200 -0.108340 -0.848279 0.311712 0.610971 0.192487 0.600358 0.278433 -0.096038 0.056379 -0.715243 -0.616621 
4110 0.095258 0.319610 0.127016 0.405917 0.069259 -0.394271 -0.127128 0.149812 -0.188838 -0.945722 0.123553 0.409400 -0.486821 0.264931 0.451397 0.264268 -0.265893 -0.106650 0.134923 -0.484536 -0.599347 -0.204243 0.211088 0.405589 0.458669 -0.438831 -0.093044 0.732523 -0.500928 0.328313 0.467609 -0.035129 0.717037 -0.137417 -0.937899 -0.461977 0.089589 0.089062 0.425262 0.190489 -0.298988 0.561066 0.239631 0.158283 -0.253508 0.223561 0.126224 -0.023863 0.245080 -0.218145 
361 0.626714 -0.196874 -0.924043 0.590091 -0.681211 -0.059171 -0.039271 0.096249 -0.445888 0.331427 0.125057 -0.044967 -0.731108 -0.844570 0.469468 -0.528110 0.258204 -0.338937 0.361602 -0.395069 0.265779 -0.264087 0.209964 -0.436236 0.381141 -0.162638 -0.040228 -0.345004 0.380156 -0.359123 -0.476474 0.219622 0.223996 -0.009013 -1.042691 0.038282 -0.006318 0.073636 -0.395114 0.434883 -0.658297 0.244658 0.746934 0.473413 0.179895 -0.015279 -0.166069 0.437793 -0.448356 -0.737921 
3148 -0.489673 -0.673926 0.346936 0.288549 -0.093130 0.126045 -0.087954 -0.430313 -0.214843 -0.642581 0.650887 -0.115028 -0.172796 0.848512 0.441237 0.291726 0.489510 0.393881 0.051223 -0.660573 -0.395971 0.192570 0.190970 -0.483709 0.002387 -0.316480 -0.575136 0.069440 -0.298661 -0.161523 0.011429 0.389939 0.124446 -0.109582 -0.907809 -0.598238 0.202772 -0.086416 0.329969 0.087497 0.111798 0.418199 0.479504 -0.329659 0.189470 0.552456 -0.060461 -0.046282 -0.313384 -0.694596 
2487 0.046917 -0.201462 -0.639206 0.493160 -0.152249 -0.446127 0.086036 0.054347 -0.687287 -0.488787 -0.098658 0.122200 -0.414266 -0.298439 0.236654 -0.364336 -0.211371 -0.341148 -0.049056 -0.035295 0.133419 -0.122469 0.137680 0.023584 0.173583 -0.799641 -0.072691 0.282128 0.152584 -0.737981 -0.547096 0.062841 0.233245 -0.034444 -0.995212 -0.116623 -0.287945 -0.055096 -0.388127 -0.658826 -0.592015 -0.026424 0.621240 0.039880 0.504182 0.270577 0.031019 0.012029 -0.052168 -0.447045 
1803 0.475560 -0.198499 0.237514 0.551450 -0.322920 0.012713 0.181789 0.220049 0.735713 0.128062 0.152506 0.066249 -0.244972 -0.737040 -0.373733 -0.029275 0.229657 -0.234922 0.311278 -0.162560 0.105525 0.506669 0.130675 -0.125296 0.253359 0.009780 -0.131502 0.220430 0.358010 -0.792979 -0.054431 -0.270207 -0.161900 0.186241 -0.383819 -0.302443 0.158320 0.258986 0.064466 -0.287079 -1.040338 0.340720 0.479502 0.078318 0.220149 0.538772 -0.002889 0.465588 -0.398161 -0.460547 
4734 -0.108105 0.228358 0.144230 0.502131 -0.221252 -0.086813 -0.036291 0.096561 0.084860 -0.351236 -0.252753 0.748574 -0.395365 -0.242948 0.486269 0.185500 -0.021212 -0.238479 -0.267446 -0.674100 0.045333 0.042754 0.476204 -0.291228 -0.102286 -0.345100 -0.327235 0.125478 -0.321974 0.430282 -0.074775 0.020583 -0.213721 -0.086287 -0.178244 -0.623600 0.305498 0.159108 0.027772 -0.033543 0.159004 0.897710 0.295442 -0.119377 -0.362680 0.331252 0.239502 0.010231 -0.281465 -0.520168 
3029 -0.323235 0.095919 -0.040486 -0.010860 -0.503500 -0.102300 0.258021 -0.633234 0.078286 -0.152394 -0.528430 -0.079608 -0.662602 0.124776 0.189940 0.361061 -0.112613 -0.051759 0.432300 -0.235615 -0.341916 0.574962 0.104362 -0.392424 -0.253119 -0.445393 -0.636144 0.197419 0.027851 0.687733 0.269006 -0.410473 0.313174 0.029199 -0.748830 -0.429736 0.469004 0.353748 0.176436 -0.634027 -0.033148 0.054864 0.783745 0.569442 -0.307311 0.201254 0.430197 -0.286170 0.007380 -0.188871 
2527 0.002730 -0.230050 0.104934 0.433815 -0.505195 -0.078456 -0.595865 0.332918 -0.343365 -0.113829 -0.130762 0.636768 -0.048223 -0.084914 0.747312 0.369977 0.744588 0.014506 0.126027 -0.806190 -0.677573 -0.112059 0.348586 -0.810802 -0.035763 -0.464602 -0.731224 0.787924 -0.135621 -0.088737 0.225226 -0.836468 -0.176202 0.122920 -0.759867 -0.381051 -0.106628 -0.315888 0.113574 0.484292 -0.356020 0.673706 -0.420774 0.298321 -0.309281 -0.667156 0.186904 0.153975 -0.444236 -0.751514 
383 0.378901 0.327264 -0.022532 0.212939 -0.008084 -0.378972 0.298901 0.193444 -0.096722 0.164787 -0.155304 0.252841 -0.208894 -0.100180 0.253511 0.394865 0.200487 -0.470330 0.017293 -0.132168 -0.097073 -0.017832 -0.218611 0.084747 0.331997 -0.130588 -0.097562 -0.011191 0.107323 -0.214374 -0.028410 -0.212262 -0.127033 -0.060331 -0.937195 -0.703059 0.017682 -0.178501 -0.012616 -0.451454 -0.445557 0.304963 0.450363 -0.047627 -0.286994 0.189691 0.002730 -0.398150 -0.201573 -0.656104 
18 0.231426 -0.043359 -0.459798 0.479433 0.048383 -0.354551 0.265153 -0.326471 -0.092094 -0.347568 0.252103 0.355250 -0.350199 -0.387778 -0.372661 0.200681 0.280662 -0.373346 0.176577 0.385400 -0.228158 0.412874 -0.523739 -0.016686 0.641520 -0.233291 -0.340596 0.510804 0.419406 0.290981 0.419160 -0.232440 0.490485 0.545684 -0.588877 -0.837877 -0.073782 -0.158811 -0.153167 -0.834085 -0.883449 0.551845 0.745560 0.195410 0.003777 -0.074443 0.516972 -0.269335 -0.117590 -0.252855 
618 0.516939 0.374386 -0.247010 0.367867 -0.050587 0.002067 -0.367439 0.014907 0.143663 -0.143302 0.244414 0.361728 -0.013796 -0.244140 0.213940 0.119013 0.155369 0.269156 -0.073021 0.143971 0.400474 0.008615 0.125585 -0.599443 0.441518 -0.095095 -0.055014 0.085693 -0.157447 -0.163284 -0.069071 -0.349465 -0.518192 -0.144866 -0.491080 -0.561695 0.425994 -0.018975 0.056132 -0.160597 -0.454506 0.650124 0.105438 0.100880 -0.455385 0.241352 0.025731 0.257108 -0.580763 -0.706493 
686 -0.025560 -0.145741 -0.187915 0.415738 -0.000612 -0.543182 -0.223841 0.149787 0.269092 0.172079 0.082535 0.289595 -0.018351 0.259863 -0.481785 0.253870 0.076199 -0.290154 0.029489 -0.052105 0.427334 -0.136893 0.088221 0.215847 0.579453 -0.723503 0.073520 0.429590 -0.189648 -0.811412 -0.048123 -0.415755 -0.742239 0.224623 -0.420114 -0.616108 0.248886 0.737126 -0.098138 -0.797648 -0.852737 0.328036 0.547554 -0.106364 0.007624 0.277422 0.519769 0.040004 -0.614611 -0.765409 
3804 0.272897 -0.452778 0.256343 0.574083 0.203090 -0.500378 -0.085160 -0.397139 0.098397 -0.482577 -0.075989 -0.217802 -0.664257 0.492468 0.035083 0.214147 0.079637 -0.103920 -0.396102 -0.400512 -0.365620 0.209962 0.101323 0.245576 -0.582876 -0.244947 -0.937931 -0.229812 -0.109773 -0.024391 -0.037970 0.413460 0.006931 0.038335 -0.623362 -0.704072 0.792489 0.111971 0.109614 -0.538955 -0.382510 -0.344194 0.453153 0.391812 -0.494383 0.223410 -0.138159 0.508532 -0.268511 -0.135754 
952 -0.177810 0.535437 -0.354025 0.683440 0.180929 -0.287964 0.272390 0.155611 0.407308 -0.533848 0.199256 -0.295215 -0.249180 -0.483302 -0.206489 -0.115295 0.490557 -0.221280 -0.269690 0.249102 -0.170783 -0.390272 -0.498557 -0.018683 -0.103505 -0.078851 -0.523254 0.053284 0.463250 -0.166422 0.066835 0.153425 -0.001642 0.028329 -0.633960 -0.587898 0.392765 0.186457 -0.207568 -0.071033 -0.812990 0.058138 0.833611 -0.023010 0.153967 0.604877 0.598421 -0.171091 -0.343722 -0.366529 
1553 -0.018106 0.036312 -0.205840 1.125833 0.517905 -0.132758 -0.478214 0.152508 0.422002 -0.245508 -0.133089 -0.116390 -0.598757 -0.327373 -0.402041 -0.053602 0.295039 -0.033513 0.054203 -0.298835 0.691612 0.454284 -0.135815 -0.421500 -0.116994 -0.398775 -0.042316 -0.133956 0.096738 -0.187559 0.560454 -0.110174 -0.305171 -0.306621 -0.631742 0.022701 0.024042 0.368630 0.566502 -0.242148 -0.700296 0.062064 0.608544 -0.339401 0.096365 0.071416 -0.186375 0.500699 -0.252217 -0.724783 
1181 -0.505430 -0.095901 -0.467594 0.378413 -0.245074 0.258300 -0.564819 -0.268399 0.161237 -0.557753 -0.067586 0.254834 -0.288777 -0.352780 0.073796 0.259369 0.249149 0.049168 -0.256971 0.498870 -0.134232 0.532836 -0.164788 -0.175437 0.246318 -0.506243 -0.065134 0.233306 -0.063294 -0.002742 -0.023152 -0.545207 -0.468756 -0.210243 -0.695978 -0.884679 0.405022 0.020986 0.060094 -0.519765 -0.450505 0.474859 0.695030 0.323338 0.229221 -0.123666 0.076853 0.027658 0.159373 -0.183242 
3824 0.485509 0.421610 0.285636 0.235865 -0.322827 -1.032283 0.408992 -0.066293 -0.103462 -0.572261 0.288317 -0.345117 -0.757128 0.578960 0.339863 0.210364 0.457543 0.014829 -0.105638 -0.253060 -0.639212 0.403492 0.567728 -0.881361 0.048208 -0.244380 -0.364512 0.157892 -0.159261 0.078713 0.032108 0.100947 0.315412 -0.101951 -0.162162 -0.212921 0.256834 0.229771 0.126320 0.080342 0.072001 0.297709 0.019535 -0.175978 0.472345 -0.039777 0.395738 -0.073239 -0.633424 -0.538036 
3092 -0.120134 -0.080472 0.063149 0.234242 -0.131464 -0.065401 -0.258473 0.438192 0.614180 -0.240959 -0.036330 -0.198020 -0.607782 -0.022724 -0.023926 -0.075855 -0.109710 -0.198487 0.447615 -0.438226 -0.476331 -0.125276 -0.090920 0.033061 -0.003139 -0.172082 0.218628 0.699477 -0.291084 -0.279325 -0.130926 0.011449 0.731006 -0.053953 -0.547643 -0.340772 -0.134965 0.698899 0.261242 0.284959 0.250156 0.768066 0.464627 -0.310087 -0.119629 0.235456 -0.104852 0.327750 -0.133567 -0.620897 
4222 0.062516 -0.141831 0.767310 0.086614 -0.303380 -0.350012 -0.283119 0.246198 -0.111095 -0.630698 0.114589 0.123309 -0.351305 0.339668 0.666821 0.208698 0.446990 0.338155 0.385193 -0.045270 -0.873207 0.113281 0.186277 -0.212769 -0.305694 -0.311645 -0.222968 0.270365 -0.202087 -0.092316 -0.275517 0.278717 0.322987 -0.237160 -0.365634 -0.294046 -0.033748 0.158605 0.378051 -0.286178 -0.032795 0.474185 -0.223368 -0.048777 0.054861 -0.082009 0.177774 0.135391 -0.738903 -0.647210 
3438 -0.339406 -0.461166 0.411362 0.348457 0.217895 -0.478295 -0.333027 -0.119633 0.527504 -0.579016 -0.175514 0.209245 -0.622270 0.400607 0.422589 -0.392868 -0.082598 0.010372 0.055169 -0.313272 -0.562273 0.312566 0.642239 -0.126430 0.261307 -0.792665 -0.186142 0.108234 0.330331 0.029643 -0.271497 -0.135861 0.026605 -0.111368 -0.794374 -0.293868 0.376660 0.208464 0.345939 0.245542 -0.060687 0.382027 -0.157248 0.332749 0.687091 -0.045120 -0.256034 -0.002430 0.296752 -0.627027 
980 0.502551 0.132052 0.226520 0.295467 0.005566 0.293995 0.243899 0.635603 0.332653 -0.301211 0.361787 -0.117042 -0.374499 -0.214567 -0.075636 0.001089 0.374779 -0.110021 -0.320040 0.299785 0.062768 0.324734 0.000648 -0.205564 0.274894 -0.319203 0.105883 -0.004213 0.057310 -0.307516 0.240406 -0.027816 -0.349139 0.084297 -0.250453 -0.520750 0.254325 -0.047783 0.098850 -0.457309 -0.522837 0.651412 0.271421 0.078741 -0.004804 0.303378 0.343643 0.229765 -0.117026 -0.802342 
2712 0.095167 0.608661 0.429887 0.080263 -0.131769 0.111614 -0.133093 -0.031875 0.043371 -0.375025 0.051350 -0.200669 -0.391713 0.067766 0.376695 0.471995 0.173874 -0.499154 0.035489 -0.401867 -0.440016 0.099449 0.453049 -0.683407 -0.036790 0.032941 -0.382989 0.082813 0.493097 0.102498 0.139252 0.369532 0.197308 -0.113898 -0.662208 0.048596 -0.087060 0.358960 0.328997 -0.403890 0.039458 0.730671 0.272955 -0.042713 -0.043974 -0.538660 0.237347 -0.197935 -0.138420 -0.523921 
2555 -0.251838 -0.169840 0.198771 0.131568 -0.318472 -0.264400 0.302917 0.148907 -0.276602 -0.436122 0.568311 -0.384805 -0.142541 -0.154506 0.510845 0.245218 0.210326 -0.148972 0.273003 0.192157 -0.364667 -0.092687 0.485736 -0.644482 -0.255565 -0.344831 -0.155595 0.241092 -0.150907 0.100030 0.112640 -0.148809 0.320729 -0.404280 -0.747677 -0.451199 0.141871 -0.035819 0.069358 0.088740 -0.216057 0.148685 0.038524 0.031545 0.199293 0.148657 0.117719 0.159421 -0.518186 -0.236701 
4152 0.342621 0.024568 -0.005752 0.132040 -0.581753 -0.120389 -0.256520 0.145025 0.443258 -0.644203 0.666442 -0.796635 -0.414727 -0.364194 0.168333 0.076202 -0.534036 -0.746151 0.195827 -0.303903 -0.723211 -0.008564 0.545504 -0.612360 -0.663019 -0.735899 -0.496839 0.039424 0.484417 0.178427 -0.408304 -0.128400 0.394260 -0.382242 -0.689863 -0.214808 -0.290953 0.224709 0.053071 0.087808 -0.323304 -0.291649 -0.274631 0.305669 -0.211627 0.108420 0.599742 0.231644 -0.736761 -0.488547 
4674 0.262120 0.027955 0.294078 0.042885 -0.329946 -0.459383 -0.445706 0.004857 0.241752 -0.254910 0.045895 -0.085021 -0.633269 0.360911 0.663749 -0.050568 -0.379535 -0.360225 -0.123452 -0.069283 -0.542622 -0.203075 0.330651 -0.040433 -0.197711 -0.446858 -0.262304 -0.046801 -0.077963 -0.364020 -0.383489 0.246784 0.027504 0.031630 -0.748127 -0.532453 -0.037488 0.204295 0.252437 -0.313478 0.039289 0.008351 -0.256716 0.674702 -0.037995 0.609156 0.244935 0.111524 -0.440878 -0.215276 
1518 0.609802 -0.359436 -0.357725 0.229073 0.277894 -0.196680 0.052895 0.094206 -0.142566 -0.565636 0.260501 0.343423 -0.349540 -0.486910 -0.070591 -0.151873 0.571209 -0.100098 0.112590 0.535783 -0.439598 -0.043467 -0.445874 0.220422 0.172823 -0.519807 -0.175677 0.149977 0.503843 -0.131844 -0.170218 -0.196305 -0.142690 0.182876 -0.565745 -0.198640 0.415880 0.139403 0.051627 -0.429821 -0.675976 0.533288 0.516751 0.292527 0.236193 -0.182370 0.432908 -0.170300 0.039936 -0.646329 
2795 -0.125851 0.095218 -0.065686 0.289402 -0.168535 -0.488716 -0.793294 0.012441 0.353873 0.197312 0.018945 -0.168439 -0.813397 0.173710 0.314879 0.018329 0.444928 -0.218378 0.328470 -0.192324 -0.139457 0.315416 0.378944 -0.649781 -0.577986 -0.461613 -0.937540 0.325114 0.006587 -0.038198 0.401208 0.153075 0.493826 -0.089866 -0.362862 -0.214901 0.348571 0.095981 0.114606 -0.136012 0.195984 0.565569 -0.020734 0.510282 0.013474 0.500401 -0.255691 0.269517 -0.154048 -0.339841 
3734 -0.008154 -0.383677 0.202511 0.629809 -0.250030 -0.166624 0.111695 -0.425824 -0.131034 -0.409580 0.295728 -0.203845 -0.352122 0.049109 0.308021 0.310541 0.277430 0.046030 0.118202 -0.662289 -0.574190 -0.039704 0.173556 -0.298473 -0.349311 -0.342147 -0.381220 0.356552 0.076947 0.211242 -0.191308 -0.167678 0.466818 -0.332914 -0.460077 0.028713 0.226623 0.506963 0.028342 0.083194 0.127053 0.414958 0.280219 0.125314 0.121020 0.168466 0.055533 0.016605 -0.704537 -0.044031 
4860 0.332827 -0.396147 0.221490 0.327317 -0.421469 0.175790 0.247558 -0.369921 -0.137956 -0.284908 0.276942 0.267291 -0.838628 0.291919 0.420852 0.471448 0.005235 0.164378 0.189994 -0.137257 -0.013474 0.588247 0.334425 -0.163598 0.063352 -0.569850 -0.533886 0.215736 -0.391619 -0.050839 0.663034 0.049904 0.602865 0.137254 -0.468828 -0.090443 0.098191 -0.032958 0.263362 0.120637 0.144097 0.597051 0.361292 -0.128896 -0.237538 -0.109005 0.273729 0.247199 -0.135250 -1.094116 
3265 -0.230738 -0.164393 0.099338 0.330288 -0.063521 0.253681 -0.449731 -0.892118 0.786848 -0.716019 0.202691 0.304190 -0.813478 0.259548 0.179801 0.389052 0.738066 0.438970 0.178225 -0.447362 -0.368747 0.358970 0.644314 -0.508142 -0.145740 -0.384703 0.193328 0.432992 0.024847 0.613494 -0.040117 0.485641 0.293719 0.225871 -0.297896 -0.746779 -0.139874 0.041233 -0.481098 -0.222985 0.037356 0.651623 -0.097054 0.267926 -0.010707 0.243731 0.402769 0.127712 -0.175678 -0.658042 
3992 -0.197937 0.337916 -0.154684 0.271256 0.139066 -0.081591 0.305807 -0.304388 0.310777 0.022448 -0.015038 -0.500972 -0.926621 0.225046 -0.055088 0.095765 0.173988 -0.062467 0.257325 0.230932 -0.431770 -0.026017 0.764190 -0.478027 -0.194665 -0.655948 -0.807414 0.321319 -0.035138 0.168996 0.376198 0.099247 0.066231 -0.674738 -0.568876 -0.269032 -0.175387 0.241903 -0.106289 0.240892 -0.039793 0.405833 -0.238046 0.240461 0.001580 0.624936 0.195052 0.136231 -0.327713 -0.652840 
2841 -0.470972 -0.348167 0.230692 0.475379 -0.143156 -0.054559 -0.077197 -0.273817 0.777716 -0.961620 0.561183 -0.055665 -0.644829 0.366290 0.461664 0.121495 0.230969 0.178653 -0.027726 -0.513264 -0.863469 0.215503 0.231845 -0.744156 -0.559111 -0.462494 -0.283913 0.451718 0.190548 0.068863 -0.040464 0.292029 -0.142908 0.273259 -0.624298 0.051913 0.404517 0.079886 0.219116 -0.111551 0.762897 0.725331 0.057167 0.657179 0.373278 0.202421 -0.129287 0.173502 -0.604259 -0.387732 
3582 0.027841 -0.371622 0.159969 1.200867 0.198626 -0.347249 -0.384711 -0.633513 0.125128 -0.369309 0.735819 -0.305913 -0.502849 0.682280 -0.403190 0.099839 -0.149300 -0.663791 -0.155964 -0.079009 -0.748437 0.046115 0.290772 -0.036302 -0.114998 -0.648566 -0.646679 0.405770 -0.505597 0.438328 0.170858 0.649725 -0.281045 0.443220 -0.523225 -0.100406 0.372116 -0.062413 -0.554608 -0.186198 -0.391042 0.097465 -0.018192 1.001876 0.157092 0.047182 0.099058 -0.067263 -0.750118 -0.521614 
3243 -0.035994 -0.306238 0.196043 -0.046961 -0.384558 0.188737 -0.289138 -0.294707 0.205526 -0.306494 0.094480 -0.043819 -0.235061 0.197248 1.004445 0.574556 0.223858 -0.044569 -0.106006 -0.289077 -0.214403 0.594689 0.087273 -0.430594 -0.199514 -0.956846 0.150047 0.430724 0.188397 0.496967 -0.079154 -0.339037 0.223449 -0.415488 -0.475117 -0.618364 -0.041671 0.255071 0.388290 -0.115396 0.190469 -0.158128 0.223920 0.660859 0.509274 0.391351 0.255412 -0.334753 -0.340775 -0.769364 
3982 -0.204076 -0.349655 0.158285 0.267829 0.085693 -0.242014 -0.164233 -0.010347 0.209420 -0.423193 0.315128 -0.437258 -0.396060 0.288586 0.510030 0.040944 -0.284763 -0.242227 0.002297 -0.079975 -0.688690 0.236434 0.484214 -0.898191 -0.062477 -0.696537 -0.049686 0.259698 0.543263 0.202934 0.062677 0.059995 0.103519 -0.753135 -0.228644 -0.440861 0.271786 0.142515 0.353202 -0.146923 0.042015 0.000557 0.087525 0.623260 0.389336 0.096564 0.150432 -0.102890 -0.915413 -0.347145 
4781 -0.056543 0.198344 0.589517 0.755438 0.031207 -0.614139 -0.585017 0.340590 -0.018273 -0.261682 0.388857 -0.336338 -0.734714 0.124297 0.559565 0.154979 -0.469820 -0.159129 0.075743 -0.383035 -0.666604 -0.074459 0.712372 -0.656324 0.210620 -0.732366 -0.980594 0.190033 -0.143968 0.133092 -0.086519 -0.146514 -0.191811 -0.267203 -0.163638 0.070542 0.196951 0.942637 0.214977 -0.433663 0.527456 -0.225427 -0.222315 0.620530 0.400764 0.416841 0.592648 0.256334 -0.529694 -0.609227 
1196 0.102289 -0.290715 0.047931 0.641012 -0.393526 -0.510672 0.359496 0.083552 0.244936 -0.107131 0.225681 -0.350183 0.092810 -0.031904 -0.119676 -0.202854 -0.164136 -0.515269 0.145731 0.253036 -0.085795 -0.170561 -0.060433 -0.137533 -0.399850 -0.047724 -0.071976 0.030742 0.554221 -0.565031 0.287208 -0.443325 -0.480593 -0.194363 -0.744051 -0.403164 0.163367 0.289854 -0.023895 -0.851430 -0.741324 0.208880 0.729587 0.228087 -0.161911 0.171905 0.590020 -0.177200 -0.750896 -0.169037 
3510 -0.027948 -0.001698 -0.111758 0.698741 -0.160245 -0.352467 -0.382147 -0.238602 0.329985 0.157267 -0.479143 -0.035405 -0.431208 -0.337637 0.549862 0.088649 -0.390850 -0.097926 0.258528 0.140709 -0.766343 0.208968 0.793699 -0.643640 -0.620749 -0.457541 -0.513043 0.223569 -0.164320 0.528245 0.446673 0.035860 0.132557 -0.546659 -0.386133 -0.674192 -0.093745 0.363606 0.157380 0.519835 0.185735 0.510625 0.621258 0.196620 0.141770 0.328248 0.775010 0.357719 -0.577180 -0.305978 
1186 0.194811 -0.348273 -0.468819 0.771388 -0.337992 -0.126276 0.343199 -0.258110 -0.124675 0.404468 0.061505 0.384221 -0.502318 -0.043535 -0.387775 -0.299408 0.271737 0.322136 0.054658 -0.014790 0.170709 -0.096708 -0.391991 -0.476576 0.699917 -0.264540 -0.097638 0.226403 -0.010258 -0.318107 -0.265867 0.221862 -0.560945 0.246425 -0.633400 -0.575866 0.585239 0.062453 -0.382032 -0.263248 -0.313403 0.226129 0.784101 0.177307 0.538476 -0.141076 0.101167 0.310986 -0.403903 -0.817670 
4527 -0.595016 0.482261 0.478885 0.409432 -0.379778 0.173801 -0.161765 -0.148558 -0.062809 -0.212102 0.180882 -0.034076 -0.856287 0.180795 0.558378 0.158571 -0.236813 0.305888 -0.050026 -0.789206 -0.469979 -0.466505 0.078354 -0.525451 0.093665 0.038443 -0.699886 0.467986 -0.120040 0.052959 -0.008527 -0.108683 0.398829 -0.509290 -0.882810 -0.105351 -0.211089 0.287974 0.095267 -0.007070 0.339495 0.300180 -0.019249 -0.032677 -0.113355 -0.098805 0.367386 0.199860 -1.039567 -0.715152 
4577 -0.037177 -0.547091 0.561437 0.395696 0.125460 -0.062544 -0.399818 -0.054606 0.006144 -0.850479 -0.055446 0.148868 -0.792546 0.089533 0.069092 0.070419 -0.020689 -0.310317 0.258738 -0.527110 -0.550395 0.045782 0.690875 -0.246127 -0.032530 -0.166167 -0.062440 0.326818 0.200289 0.939544 -0.249324 0.257361 0.439894 0.180169 -0.466027 -0.190103 0.318743 0.205796 0.263817 -0.094410 0.241531 0.484667 0.132535 0.342972 0.181653 0.424383 0.061933 -0.054774 -0.415557 -0.645727 
3430 0.063640 -0.081496 0.533285 0.004954 -0.087450 -0.696658 -0.617996 -0.045471 -0.137890 -0.293976 0.168489 -0.127633 -0.492158 0.273981 0.303255 0.200984 -0.547156 -0.209448 -0.059606 -0.084216 -0.552785 -0.159337 0.550981 -0.320436 0.392873 -0.437093 -0.559500 0.106791 -0.189121 0.001512 -0.222874 0.328220 0.015807 -0.284194 -0.189667 -0.562171 -0.145601 0.669411 -0.125030 -0.854205 -0.040085 0.130418 -0.253365 0.837421 0.294069 0.799474 0.283896 0.309847 -0.552170 -0.244185 
4800 -0.144679 -0.299332 0.905294 0.253273 -0.522720 0.288649 -0.749027 -0.149870 0.281276 -0.365972 -0.191084 0.207006 -0.476481 -0.278726 -0.295733 0.281026 0.493344 -0.484806 -0.304011 -0.343929 0.012194 0.127895 0.378022 -0.198280 1.039468 -0.107121 -0.013805 0.730141 0.333936 0.235225 -0.369563 0.099716 0.340551 -0.252885 -0.172662 -0.459084 0.451594 0.010814 -0.026659 -0.116782 -0.413112 0.641690 -0.092759 0.151743 0.023252 0.718710 0.087833 -0.573851 0.104630 -0.992699 
3562 -0.073208 -0.076675 0.097995 -0.082801 -0.127801 -0.287224 0.144201 0.083369 0.251931 -0.560695 0.182121 -0.575344 -0.429857 0.083706 0.541645 0.181715 0.199894 -0.261957 0.220096 -0.084000 -0.675234 -0.071479 0.877056 -0.776711 -0.321602 -0.601806 -0.012233 0.288776 0.226573 0.356266 0.223298 0.080448 0.738550 -0.469525 -0.345991 -0.434214 0.052663 0.025701 0.356294 -0.034264 -0.285703 0.122984 -0.177902 0.294225 0.084247 0.178519 0.225695 0.001760 -0.868494 -0.488528 
4748 0.243196 -0.341473 0.205165 0.618505 -0.217912 -0.191405 -0.134158 -0.537607 -0.168212 -0.526736 0.252710 -0.324682 -0.571746 -0.187861 0.808204 0.059817 0.114053 0.040422 0.278452 -0.647186 -0.913411 -0.015873 0.704586 -0.624965 -0.504428 -0.336775 -0.261524 0.383888 -0.278859 0.498380 -0.003932 0.323948 0.526896 -0.076412 -0.473606 0.044376 0.343184 0.789202 0.180519 0.034997 -0.121195 0.659795 0.555335 -0.206301 0.161414 -0.136112 0.344879 0.438885 -0.323300 -0.255790 
424 0.748672 -0.362863 0.080226 0.960799 0.105936 -0.588127 0.334548 0.133461 -0.096591 -0.399171 0.080791 -0.101885 -0.452078 -0.657997 0.215145 -0.025707 -0.446004 0.226485 0.028111 0.215157 -0.246455 -0.075317 -0.322399 -0.333849 0.530429 -0.262343 -0.020791 0.437021 0.226853 -0.102339 -0.490906 -0.380895 -0.093670 0.060256 -0.449656 -0.565109 0.315269 0.000353 -0.255999 -0.752622 -0.989213 -0.033174 0.517444 0.170394 0.182959 0.239090 0.434304 0.091572 0.181884 -0.292340 
1026 -0.041669 0.046904 -0.301789 0.215069 -0.283493 -0.302237 -0.513491 0.252527 -0.072426 0.024244 0.323212 0.132975 -0.361084 -0.010691 -0.285598 -0.020899 0.610239 -0.104871 0.089920 0.344659 0.343188 0.048815 -0.277492 -0.134550 0.132589 -0.478510 -0.204233 -0.262028 0.025605 -0.473696 0.024303 -0.372013 -0.719776 0.311178 -0.967071 -0.744933 0.191719 0.190883 0.283878 -0.722580 -0.577911 -0.014075 0.371701 0.839374 -0.519196 0.318888 0.300689 0.137998 -0.169189 -0.542270 
1837 0.062250 0.210744 -0.227060 0.073992 0.260388 0.182711 -0.244355 0.144528 0.014873 -0.164067 0.362727 0.055981 -0.430172 -0.632049 0.179821 0.153979 0.191281 0.184101 -0.554936 0.280609 -0.270613 0.125516 -0.078097 -0.029072 0.744295 -0.173838 -0.134878 -0.094993 0.360395 -0.665402 -0.281714 -0.670716 0.056864 0.461882 -0.559101 -0.665439 0.429890 -0.069980 0.200700 -0.426746 -1.071951 0.483010 0.371918 0.670852 -0.138623 -0.058604 0.128617 0.507722 -0.031116 -0.934206 
1669 -0.679902 0.591269 -0.558810 0.303020 -0.164372 -0.267178 -0.115897 0.395617 -0.465698 0.167978 -0.249725 0.697027 -0.250322 -0.639594 0.076819 -0.084370 -0.247684 -0.058344 -0.277993 -0.404116 -0.404944 0.070118 -0.119759 -0.629278 0.451717 0.354345 -0.224789 0.490381 0.376773 -0.025226 -0.351723 0.124445 -0.068129 0.153973 -0.660184 -0.527238 -0.089701 0.486726 -0.312565 -0.351883 -0.352985 0.507609 0.410530 0.531601 0.187873 0.347125 0.674178 0.338443 -0.050142 -0.741347 
1244 0.525176 -0.050491 0.067654 0.393779 0.028269 -0.430781 -0.492164 0.302671 -0.489014 -0.276874 0.123483 0.260935 0.432085 -0.689487 -0.004403 -0.174379 -0.098977 0.395562 -0.212974 0.139879 -0.020687 -0.159528 -0.191025 -0.213727 -0.022128 -0.476639 -0.249232 0.545182 0.407412 -0.377734 -0.041125 0.035882 -0.066695 -0.118307 -0.435157 -0.572554 -0.065854 0.235552 -0.382825 -0.060201 -0.994345 0.040527 0.608548 0.294003 0.605865 0.225913 0.140470 0.214232 -0.449277 -0.866886 
836 -0.117895 -0.482749 -0.082694 0.484095 -0.133209 0.072241 0.294934 -0.132140 0.077054 0.102936 -0.019690 0.006621 -0.243588 0.159530 -0.279625 -0.103594 0.300476 0.348024 -0.252799 -0.060994 -0.172112 -0.320391 -0.551922 -0.446870 -0.032054 -0.421891 0.026773 -0.142742 0.421451 0.118474 -0.289515 -0.508099 -0.247230 0.479749 -0.599422 -0.508864 -0.248469 0.119596 0.142913 -0.562319 -0.614304 0.445091 0.597048 0.427648 -0.047721 0.418883 -0.456448 0.472095 -0.520294 -0.634532 
4768 -0.032831 -0.443540 0.657410 0.331464 -0.318678 -0.277186 -0.298167 0.142175 -0.359318 -0.750855 0.450009 0.091911 -0.098125 0.208291 0.547159 0.072066 0.142956 0.192447 0.306972 -0.242537 -0.751571 -0.197849 0.151325 0.136296 -0.175110 -0.475255 -0.320191 0.041411 -0.273158 0.101639 -0.337600 0.067212 0.237691 -0.147805 -0.297976 -0.340782 -0.259433 0.244018 0.287126 -0.124634 0.196957 0.449323 0.313093 0.126424 -0.125698 0.259222 -0.130482 0.175319 -0.991180 -0.553227 
3930 0.037023 -0.231592 0.470704 0.636840 -0.220440 -0.428108 -0.217426 -0.142533 0.401003 -0.087260 -0.398051 0.031026 -0.439082 0.047164 0.625276 -0.049011 -0.374134 -0.034014 0.227509 0.184276 -0.711075 0.017982 0.663522 -0.541780 -0.667779 -0.359414 -0.520628 -0.123248 0.016020 0.087841 0.005754 0.118680 -0.299437 -0.617819 -0.741875 -0.754640 0.107418 0.118198 0.201356 0.328223 0.137303 0.313083 0.602968 0.134239 -0.251003 0.480048 0.519955 0.198174 0.007903 -0.153961 
3030 -0.161267 -0.276812 0.348222 0.020233 -0.644796 0.034266 -0.049088 -0.193732 0.296703 -0.491074 0.049080 0.234099 -0.801069 -0.002910 0.464182 0.408657 0.370230 0.042706 0.438491 -0.158505 -0.459393 -0.162529 0.262274 -0.185437 -0.342489 -0.369246 -0.139295 0.363470 0.147184 0.685418 0.014879 0.044794 0.521822 0.115980 -0.572479 -0.454387 0.074058 0.284697 0.413069 0.092695 -0.279147 0.204611 0.238123 -0.231936 -0.287882 -0.074644 -0.002747 0.241682 -0.399302 -0.351002 
