6672 50
</s> 0.008005 0.008839 -0.007661 -0.006556 0.002733 0.006042 0.001882 0.000423 -0.007207 0.004437 -0.008713 0.002499 -0.001503 -0.001914 -0.006631 -0.003764 0.005159 0.006051 0.005938 0.003195 0.003090 -0.007605 -0.008192 0.009939 0.007603 0.006180 -0.001208 0.008031 -0.000990 0.001469 -0.000298 -0.005966 0.002625 -0.002675 -0.007651 0.009508 0.008759 -0.002190 -0.000452 0.001018 -0.007275 -0.008014 0.009109 0.000126 -0.005165 -0.006084 -0.006153 0.003394 0.000403 0.002662 
648 0.517564 -1.135999 0.456515 0.027411 0.245421 1.084272 1.928758 1.264374 1.014753 2.647632 1.970617 1.526332 0.062710 0.959934 2.426389 -0.449140 2.947524 -1.673244 2.151734 0.670806 1.906182 1.086049 -1.479404 0.251648 0.085344 -0.146232 0.178196 -0.093912 -0.305676 1.417211 0.289590 -1.045286 -2.543640 -0.101885 -2.570225 -0.746364 -0.050039 -0.743043 -0.563648 -0.098158 0.905210 0.211407 -0.935199 0.964991 2.142780 -0.567075 -0.145235 -1.818753 0.449197 -0.015974 
8673 2.254090 -0.161346 -0.474085 -0.689106 -0.510943 -0.105756 1.793654 -0.082654 1.625380 0.976516 0.088777 2.222486 -1.445720 0.630400 -1.488726 0.940755 1.290729 -1.533881 1.159219 -0.867366 -1.618192 -2.060846 0.601435 -1.703538 0.558168 -1.509917 -0.302372 1.091967 -1.149188 0.249985 -0.464926 0.338396 -2.535610 -1.570742 -1.160878 -0.144876 -1.804758 0.922442 -2.238859 0.772802 -0.090246 -1.153230 -1.400411 0.146962 -1.345451 0.032464 0.339567 -0.880206 -0.402819 -0.899048 
8454 1.215057 -0.087484 -0.491633 -1.621464 0.400881 1.940164 -0.158343 -0.172559 -1.685895 0.311288 -0.968742 2.492939 0.190827 0.266407 0.445546 0.059258 -0.497899 0.602845 1.568543 -0.686307 -2.693026 -0.873590 -1.196808 -0.936640 -0.288645 -0.210753 -0.914851 -1.272789 1.800085 -0.957808 -0.966248 -0.302386 -1.580953 -0.055050 -0.294270 0.770540 -0.185976 -0.095898 -0.812504 3.360765 1.004331 0.087771 -2.879299 1.021660 0.843285 0.536623 0.217776 -1.210945 2.308101 1.591787 
4595 -0.953285 0.552842 -0.970824 -1.096593 -0.532900 2.054426 1.001829 0.396459 1.207855 0.750905 1.116393 0.887338 0.931909 0.323019 -0.228414 -0.605086 2.381558 0.926430 2.607040 -0.319388 -0.068546 0.399996 1.496823 1.066564 0.858033 -0.279295 -0.294026 0.871135 -0.683441 2.886560 0.288376 -0.122392 -2.433775 0.496800 -1.729096 -1.023751 -1.558738 -1.376647 -2.580678 0.494192 -0.236580 -0.526685 0.044819 -0.353021 2.796202 0.497225 0.014602 -0.788348 1.312516 -1.223234 
6206 1.058982 -1.625500 -1.668880 -0.527129 0.045990 0.411170 0.368277 0.885482 0.352658 -0.975297 -0.195059 2.784861 -1.970923 1.656948 0.974756 1.993614 2.253907 0.519714 1.238739 0.382857 -0.726390 -0.044896 -0.489969 -1.349797 -0.800973 -2.563732 -0.968738 0.113150 0.603798 -1.701799 1.278087 1.364497 -0.128326 1.821054 -0.626002 2.019717 -1.464736 -0.376239 -1.533061 -0.017952 -0.099748 0.129686 -0.669798 1.185457 0.285831 -0.210800 0.289174 -1.842382 0.295457 0.121854 
5862 0.655244 -0.133595 -0.406173 -0.295963 0.599198 -0.690142 1.181938 1.020253 0.300677 0.339696 -1.207863 2.238367 -1.067855 1.778605 2.597551 1.439881 1.766208 -0.695429 0.781710 -0.021782 -0.837469 0.641194 -0.176131 -2.209772 0.776981 -1.323662 -0.568923 1.155187 0.172819 0.959158 1.757695 -0.624597 -0.077713 1.704830 -0.461848 1.443285 -2.182517 0.607251 -0.135137 0.063870 2.173809 -1.245242 -0.415919 -0.273890 1.809453 2.236177 0.073367 -2.693358 1.223104 -1.072994 
3985 1.602823 0.837478 -0.786399 -0.320068 -2.477448 -2.233704 0.635446 0.156876 -0.390030 0.127062 1.066400 3.750139 -0.799530 -0.140008 0.691705 1.407401 0.567530 0.927108 0.937371 0.861464 0.713811 1.181905 -0.286868 -1.209996 -0.735325 -0.241513 -0.842194 0.266696 -0.116304 0.399850 1.500202 0.365843 -2.171285 0.381159 -1.581190 0.721052 -0.851715 -0.152596 -1.262585 1.403032 0.182875 -1.120278 -2.087577 2.211571 0.338018 0.464470 0.837508 -2.542571 -0.199082 -0.517067 
8692 1.017307 -0.234504 -1.233453 -0.478404 -0.507928 0.739138 0.780568 2.014894 0.794124 0.239780 0.696211 1.117837 2.070021 0.846729 0.410941 2.615384 -0.824108 -1.595055 1.821432 0.988312 -1.800727 -0.128437 1.540155 -0.262677 1.002677 -1.848643 0.777160 0.275188 0.406673 -1.190176 -0.714007 -0.700279 -1.232222 2.118224 -1.677163 -0.361926 -0.549028 0.174939 0.361688 0.700488 -0.201739 -0.464587 -1.627744 -0.048728 1.634317 -0.185392 0.933615 -0.987649 2.184035 2.449049 
5825 1.026076 -0.807000 -0.700293 0.065821 -0.725618 -0.222010 1.833198 1.859962 2.907325 0.252580 0.743694 0.827364 -0.606843 -0.560284 -0.572991 1.538089 1.473635 -0.114893 2.220414 0.492530 -1.666368 -2.505733 -0.376788 -0.598307 -1.231730 -0.444629 -1.064477 -1.444582 1.812666 -0.653800 -1.772631 0.356357 -3.130681 -0.053922 -0.764634 0.286208 1.485693 -0.711469 1.253334 1.079947 1.356822 -0.224035 -0.000434 0.187925 0.913997 -1.534239 -1.736746 -1.527441 1.453338 -0.119119 
1830 0.145294 0.144978 -0.137761 -0.640355 0.471380 -0.253332 -0.520657 1.791804 1.488432 -0.598063 1.864679 4.412821 0.173760 -0.126832 1.641491 -0.665882 0.646362 0.824174 0.510167 -0.090650 -1.109400 -1.469788 1.768253 -0.124896 1.373352 -0.284373 -0.255071 -0.066197 0.739078 0.708625 1.070043 -1.497385 -1.052901 0.724471 -2.199059 0.876100 -0.645362 0.748970 -0.955601 0.249578 1.790530 -0.713511 0.069159 1.144399 0.668611 0.867743 1.334693 -1.252763 1.627874 1.369143 
8877 1.028739 -0.838427 0.355217 -0.661247 -0.147729 1.433939 0.401102 1.967945 1.418659 0.166055 -1.174980 1.175147 0.152956 2.276915 1.475719 -2.881541 -0.366076 0.612272 2.421962 -1.502276 0.686283 0.294277 1.594458 0.232212 -0.577359 -2.637372 0.446759 0.903683 0.289317 -0.682547 0.325284 0.355743 -1.059745 1.316395 -2.713528 0.859865 -0.713608 0.311057 0.401831 1.406912 1.270177 -0.956829 -0.380222 -0.523056 1.519935 1.118438 -0.312219 -1.483084 -0.147647 1.031223 
223 1.313393 0.033944 -0.829534 -3.089272 -1.247008 -0.840000 -0.897677 -1.150666 0.673932 1.047587 0.601916 2.110204 -0.862098 0.744329 1.171589 0.279113 1.068244 1.104775 0.013469 1.507722 0.948596 -0.154630 -1.150619 0.753802 1.579158 0.575789 -0.507830 1.365545 -1.449514 -0.470212 0.560289 0.864968 -2.662629 1.181115 -1.111173 0.456015 -0.160250 0.956775 0.519096 1.771072 -0.508335 -0.198984 -2.194144 0.979192 0.973993 -0.097445 -1.275761 -1.297063 2.611529 2.336079 
5186 2.337885 0.175737 -0.880992 -2.377666 0.153232 0.510953 2.365314 0.281610 0.862968 0.050080 -0.288655 2.974028 -0.511874 -2.058330 0.387208 1.920560 2.247182 -1.383212 0.609842 0.007114 0.411657 -0.705137 -1.496299 -1.034080 0.076869 -1.514720 -1.858550 0.913878 -0.576120 0.488562 -0.565703 -0.104883 0.075520 1.531091 -1.971905 0.119732 -0.167622 0.280688 -0.013530 0.955658 0.353035 0.041639 1.056786 1.420336 -1.359894 2.088828 0.924771 -2.069449 -0.065394 0.505783 
8863 0.441952 0.819970 -0.021255 -0.041068 0.839328 2.153746 1.521433 0.095421 2.385821 1.585678 -0.310864 2.520923 -0.672314 0.034396 -1.459185 0.998680 1.702581 -0.286615 0.987806 0.122392 0.867085 -1.039323 0.365224 -1.004470 -0.976865 0.458477 -0.463411 -0.091687 -2.318070 0.030684 -0.941406 1.135954 -1.587554 0.423055 -1.364673 0.598267 -0.705321 0.387900 -0.751168 0.064035 1.441992 -2.009523 -0.870253 0.509159 1.495405 -0.790450 1.873194 -3.100502 -0.937946 -1.563246 
2288 -0.055982 -1.410503 -1.226451 -2.012209 -0.696552 1.216043 1.475677 -0.549900 3.423591 0.535467 0.481279 1.036528 0.237657 1.176981 0.080644 -1.212185 0.171345 -1.523874 2.546918 -0.634821 0.234293 -0.905452 -0.847169 0.811983 -1.374697 -1.047934 -0.361367 -0.936857 0.332163 -0.409663 0.007564 0.551691 -0.188433 -0.349368 -1.379869 0.622525 -0.869893 0.984332 -0.680126 1.313447 -2.518014 0.396585 -2.515593 -0.447820 0.360235 -0.160990 -0.003185 -1.915854 0.880914 0.944793 
2168 0.477428 1.294098 -0.012062 -2.277419 -0.591267 0.055805 -0.142780 -1.248508 2.447709 0.048074 -0.948845 0.317352 -0.052512 2.012879 -0.038513 -1.199922 1.145027 0.741587 1.950105 -0.315633 -0.102171 -1.441260 -0.955259 -0.636405 -0.786140 0.902944 -1.074769 -0.955219 -0.690774 1.075152 -0.719383 -0.049075 -1.021922 -0.998737 -1.223215 -0.167890 -1.947054 -1.150311 0.816298 0.287846 0.637101 0.134253 -0.253001 1.444058 2.555291 -2.251672 -0.856903 -2.444335 2.272852 -0.537355 
5286 1.028059 0.603679 0.012826 -1.083901 1.789533 -0.774358 0.790439 0.131844 2.024439 0.696482 0.071162 1.564301 -1.739951 0.776386 -1.236408 0.831216 1.404211 0.459904 0.425704 -0.430857 0.044135 -1.798576 0.473744 -1.437196 -0.643531 -1.298166 0.272058 0.617846 -0.256821 -0.481474 0.903254 -0.717211 -0.558361 2.063507 -0.956041 0.166173 0.464087 -1.625893 -1.105310 1.318684 1.050020 -1.065187 0.070594 -1.748173 1.364939 -1.235143 0.389796 -2.413218 2.380995 2.551995 
5663 1.818419 -0.239368 0.524242 -2.377982 -0.036898 -0.103870 0.681922 0.146919 1.370668 1.065300 -0.177178 1.869553 0.324631 -1.044096 -0.953909 -0.131022 1.203926 -1.774128 0.593693 -0.007590 -2.053962 -0.217203 -0.835762 -2.169670 1.676812 -0.386264 0.655313 0.845585 1.028921 1.765216 -1.285068 -0.021678 -2.967561 1.425968 -0.935239 -0.230152 -1.643891 0.056725 -0.603199 -1.322526 0.890713 -0.392195 -2.443330 0.805203 1.645652 0.008915 -0.080786 0.048932 1.029154 0.177277 
4618 2.479165 -2.478202 -0.962063 -3.598437 -0.323946 0.352799 2.062717 -0.754939 1.093293 2.317098 -0.860965 -0.072899 0.498850 -1.305646 -0.317040 1.124719 1.070934 -0.286095 0.529410 -1.030306 -1.212184 -0.305735 -1.715606 0.474410 1.008988 0.089480 -0.674446 -0.097388 -0.091909 0.378949 -0.018131 -0.995743 -2.521795 0.406966 0.807257 0.621750 -1.635699 0.877670 -1.387036 1.203649 0.434899 -1.127066 -1.803511 1.597708 0.728914 -0.642835 -0.130165 -0.899217 0.242664 0.725703 
1627 0.359375 0.775331 -1.422858 -1.887419 2.037519 0.940171 0.299920 0.678462 1.146626 -0.171825 0.241081 1.538983 -0.286037 1.220728 0.128494 0.330907 1.965942 0.844060 2.606615 -1.064197 -0.359514 -2.710520 -0.313994 0.183372 -0.587325 -2.182667 -1.253947 1.800128 0.586357 1.578797 1.858384 -0.432057 -1.282162 1.919332 -0.506485 0.040046 0.318683 0.427778 1.377057 0.184913 0.366514 -0.442096 -0.863235 -1.363929 1.451580 0.654726 0.815897 -0.411624 0.415818 -0.175185 
5747 0.024604 -1.395177 -0.066811 -3.372038 0.482366 0.163226 1.933367 1.073205 0.073267 -1.276242 0.557824 1.713645 -0.416090 1.721057 -1.674629 1.376646 0.140393 -0.839634 0.128105 -2.271596 -0.283874 -1.988292 -0.812387 -0.722430 0.442155 -0.768609 -0.883121 1.921905 -1.975696 -0.261670 -0.859125 0.056409 -1.282554 -0.181473 -0.656481 -0.581133 -0.860727 -0.299935 0.446629 1.205305 2.057693 -0.040149 -0.242260 0.205913 0.137133 -1.385150 -0.221387 -1.482178 1.623997 2.227702 
2501 0.383935 0.654027 -0.639394 -0.729271 -0.060402 1.807181 -0.530944 0.199739 1.259859 0.718617 -1.287673 1.932340 0.688545 -0.308582 0.516452 0.278527 1.175682 -0.044912 1.674395 1.091537 0.330323 -0.972242 0.018876 -1.855068 -0.206779 1.065859 -2.449692 0.487365 0.075173 1.440244 0.793970 0.318787 -0.315450 0.936730 -3.425775 -1.576077 -0.903092 -1.331448 0.398525 1.807245 1.901783 -0.041865 -1.116008 -0.905119 -0.148448 -1.162830 -0.491527 -2.331434 1.080607 -2.003698 
4504 1.184546 -0.887699 -1.611593 -2.605235 -0.685207 1.407223 1.329389 0.964596 1.528463 0.010842 0.418260 1.614902 0.524977 1.664647 0.102493 1.188494 -1.444239 -0.154053 -0.331842 -0.277344 -0.331511 -1.647709 -1.485379 0.368322 -0.768927 -1.484141 -1.455108 1.675270 -2.148499 0.383813 -0.508264 0.616236 -0.720676 -0.752128 0.156418 0.415007 -0.434573 -1.094489 -0.019637 1.542758 2.983517 0.385051 -0.327875 0.442097 1.410523 -1.026262 -1.958454 -1.002931 1.663899 0.896531 
4220 1.668819 -0.523433 -0.181734 -1.521196 0.223927 0.950575 -0.351176 -0.687586 1.299930 0.143551 0.650585 -0.051064 2.135578 -1.148343 0.564409 1.058029 0.848753 -0.750786 2.327424 1.218956 -0.331895 -1.960369 0.432574 -0.570912 0.895307 -1.924163 -1.404673 0.202178 0.036558 1.415932 1.485168 1.521517 -0.505438 1.453732 0.090857 1.311678 -1.361727 -0.930572 -0.167340 0.804689 2.594657 -1.185432 -0.758504 -0.944204 1.410662 -1.322914 -0.017815 -1.070447 1.067170 1.806517 
3540 2.801401 0.342156 1.079115 -0.576606 1.496538 -0.072305 -0.393536 0.625982 1.390754 0.075144 -0.069134 1.899167 0.119549 1.567974 1.052109 0.582665 0.026374 0.920306 2.878406 0.280474 -0.230332 -1.185974 -0.573453 0.488900 2.716281 -0.430815 -0.675192 1.210709 0.552246 -0.370146 0.435235 -0.014280 -0.728822 0.997195 -0.535666 -0.563215 -0.393618 0.983312 -1.323676 -0.029844 1.033373 -1.727602 -0.368183 2.879558 1.738569 -0.581972 0.040176 -0.886912 1.078151 0.244084 
4914 0.540598 1.084278 -1.586527 -1.696116 0.500603 0.882285 -0.756462 -0.198363 0.840360 0.512288 -0.266305 2.249829 -0.387659 0.962166 0.037384 0.926706 0.425027 -0.557314 2.356557 0.569307 -0.416415 -0.067288 -0.938906 -1.436905 -1.347585 1.374249 -1.672775 2.250182 0.432218 0.571595 1.611145 1.528692 -1.452029 -0.291515 -1.881293 -0.454809 -0.628232 -0.109225 0.539398 1.559842 -0.697262 -1.658185 -0.812524 1.826083 -0.708004 -1.538388 -0.245924 -3.153256 0.238003 -2.209829 
8556 -1.120515 1.787819 -1.406046 -2.114887 -0.344932 1.471050 1.502180 1.410590 1.127528 0.929885 0.901285 1.702609 1.250124 -0.183256 -1.066777 0.105801 1.265637 1.965064 1.534211 -0.896607 0.591594 1.086496 0.939023 0.671187 1.534815 0.806934 -1.007032 0.916070 -0.168740 1.723067 0.412334 0.135697 -1.720940 1.049840 -1.584625 -1.414262 -1.295327 -0.698911 -0.578135 1.427936 -0.727701 0.682741 -0.168381 -0.639529 3.244589 0.126504 -0.909789 -2.259653 1.248300 -0.519537 
2763 0.812423 -2.194694 0.994243 -0.072280 0.645349 -0.146191 0.201288 1.754680 1.187810 1.091531 0.086960 2.511328 -1.070791 1.448460 1.856161 -0.189049 0.122682 0.644909 0.970773 -1.271544 0.328876 1.628937 -1.692567 -0.553962 -1.338229 0.145638 -1.122470 -0.390260 -0.501313 1.572411 0.694311 -0.807712 -2.927990 0.103754 0.137285 0.247578 -1.961302 -0.951197 -0.722294 1.826214 0.713081 0.260106 -1.959104 -0.421697 0.840587 1.253273 -0.907477 -1.737081 1.496566 -0.970151 
4750 0.231107 -0.981880 -2.495127 -0.504298 -1.377763 0.627889 1.155374 -0.555831 1.083101 0.026980 0.514059 2.777830 0.643153 0.489349 -0.700574 1.180442 -1.259095 -1.248818 2.360737 -0.510679 0.190296 -0.559646 -0.886626 0.560852 0.987109 -2.034094 1.004218 0.193890 0.594771 -1.739671 0.100371 -0.610171 -2.132688 0.957092 0.479429 1.118410 -0.860270 -1.629356 0.394408 1.541492 1.397954 -0.541672 -1.247784 0.046231 1.538677 0.300887 2.214963 -1.193764 -1.108637 -0.047582 
7353 1.360683 -1.660161 -0.036389 -2.214056 1.174825 -0.659913 0.934899 0.762257 1.115346 1.461134 0.886743 1.666160 -1.631966 1.207850 0.142658 -0.201500 0.845379 2.620784 0.530094 0.912316 -0.886864 -2.796342 -0.342208 -1.770566 0.830551 0.902799 0.592763 1.212739 -0.347454 2.838234 -0.605763 -0.413232 -1.894244 0.499340 0.277818 1.736622 -0.819529 -0.055234 1.241843 0.389016 0.448241 -0.293956 -1.613251 0.594987 1.138970 0.521593 0.156841 -1.229175 0.318623 1.606115 
2223 1.261092 -0.843269 0.631505 -1.564627 -0.239418 0.303150 -2.708466 0.749989 1.537823 -0.061651 -1.281080 2.576042 0.905026 -0.374669 -0.004433 1.140030 1.366352 1.070840 2.449980 -1.146164 0.055239 -0.063970 0.610090 -0.651841 0.936486 -0.830936 -0.677153 0.312893 -0.306686 -0.948848 -0.902384 -0.892054 -0.691321 0.002604 -0.723683 -0.227475 -0.652081 -2.878997 -0.600067 0.997884 -0.820014 -0.586405 -1.998930 0.213492 2.100666 -0.538878 -0.734460 -0.925404 0.612208 -0.363271 
203 0.536050 -0.640223 -2.437367 -2.033279 0.231794 -0.129397 0.571747 0.907751 0.539909 1.725586 2.210736 2.085568 -1.149954 0.018809 -0.107525 -0.456376 -0.234636 0.683672 2.710091 0.030808 1.028373 -1.051873 -0.244328 -1.875805 0.347357 0.452510 -1.544896 -1.362819 -0.130246 0.990678 1.019382 -0.319071 0.296291 -0.720678 -0.797840 1.163771 -2.173520 0.184770 0.241845 1.039802 1.660699 0.492394 -0.218937 -0.421121 1.241192 0.689754 0.478121 -3.035222 0.340323 -0.473861 
5644 0.523751 -0.682042 -0.187372 -1.938649 -1.379822 3.101871 2.619858 0.744709 1.130254 1.426440 -0.291542 0.384391 -0.250249 0.821706 -0.433250 -0.063840 -0.886166 0.402819 0.111511 1.291435 -1.753758 -0.497142 -0.290484 0.243957 0.418941 0.449743 -0.184749 1.407598 -1.096931 0.765415 0.590470 -0.144930 -2.004116 1.763395 -0.928847 0.881211 1.192265 -2.167320 0.964407 1.928169 -1.095464 -2.254975 -2.056391 -0.387792 1.229537 -1.161765 0.134041 -0.769938 0.591529 0.480867 
5146 2.384321 -0.170443 0.684064 -1.332977 -1.705086 -0.065703 0.124532 1.816859 0.476421 0.418587 -1.030086 1.560476 0.375667 1.391476 1.936325 -0.137152 2.301868 1.148090 0.758954 0.029446 -0.148132 -1.341006 0.040552 0.502350 0.158955 -0.689924 -0.312100 -0.238631 1.909957 -0.384143 -0.905578 0.185143 -3.265903 -0.352681 -2.275492 1.269467 -1.541515 0.596890 -0.541543 1.376206 1.938479 0.053188 0.334669 1.561046 -0.936086 1.648386 -0.549920 -0.751597 -0.366330 -0.240609 
9435 -0.196978 -0.337233 0.139406 -4.079849 0.348133 0.341211 0.875355 1.209168 0.351582 -1.144284 -0.120201 1.829044 -0.579754 2.288116 -1.514980 1.241097 -0.853655 -0.259330 -0.266685 -2.076919 -0.084872 -2.085793 -0.264330 -1.398969 1.093145 -1.236464 -0.355645 1.632608 -1.291497 0.453956 -1.422228 0.244285 -1.425909 0.049912 -1.702098 -1.078032 -1.285585 0.881531 0.792206 1.327118 0.667018 0.355224 -0.878490 0.759438 0.878837 -0.062412 0.100379 -1.875357 0.989952 1.751571 
2011 1.031683 -1.428362 0.705094 -0.434540 -0.565942 1.372414 2.009125 0.786583 1.119151 1.589674 0.557547 2.616810 -0.557352 -0.584233 2.057411 1.376006 0.410727 0.276851 1.314179 -0.009496 -2.458590 -1.235004 0.924837 -0.138881 1.346819 0.722235 0.919516 0.583985 -0.303881 -0.462597 -0.334026 1.279673 -0.626607 1.448288 0.563929 2.223464 -0.186900 0.388137 -0.736165 1.871016 1.780200 1.512898 0.252877 -0.660834 -0.021181 -1.106182 1.622873 -1.636016 1.449086 1.480138 
1083 0.077066 1.619548 -2.637152 -2.284276 0.172495 -0.029872 1.612454 0.824893 1.155196 -0.143087 0.275558 1.069539 1.421947 -0.101293 0.293792 0.442530 0.621087 -1.517373 0.844912 -0.635841 -0.604600 -1.319825 0.904642 -0.641385 2.516698 0.426121 -1.602152 0.800318 -0.354533 -0.019214 0.159789 0.700003 -1.916009 1.110442 0.499951 -0.053461 0.272897 0.255280 -0.891732 2.145614 1.074526 -0.961494 -0.268139 -1.592361 -0.075468 0.899817 -0.107668 -2.559006 0.225017 0.737739 
3829 0.439914 0.037822 0.180882 -1.591218 -1.680109 1.325012 1.434562 0.860374 2.699597 0.351120 1.761623 -0.111810 -1.261228 -0.060641 -0.144831 1.339083 0.498142 0.313202 0.671405 -0.868503 0.301395 0.008495 0.632763 -0.738120 2.075564 -0.335185 -1.000407 -0.007066 -0.114025 0.033247 -1.119089 -0.683222 -2.449869 0.410894 -0.905891 0.098564 -2.117188 -0.587021 -0.568179 -1.072798 0.096040 0.469857 -0.595856 0.508336 0.509914 2.271384 -0.678229 -1.515338 3.355227 0.150748 
5549 -1.237000 -0.634734 0.176370 -0.254902 0.804384 1.667437 0.998231 1.329092 3.294679 0.113874 0.448001 1.694679 1.079333 -0.010487 1.650257 0.982511 -0.789138 -1.034828 3.391474 -0.693874 0.295035 -0.165409 1.597725 -1.021720 -0.786832 -0.290373 0.817197 1.016216 -2.376373 1.599616 -1.519369 -0.564150 -0.948636 0.400060 -0.396515 -0.199047 -0.965920 -1.524401 -1.025407 1.561298 -0.364358 -0.511680 -1.131693 1.048981 1.289727 -1.368910 0.961065 -1.822214 0.179068 -0.293677 
7525 0.039004 -0.090626 -1.678008 -1.866743 -0.535069 1.998050 2.190899 -0.804680 0.658278 1.010030 1.261365 -0.144916 -0.370461 0.897063 1.084827 0.255034 0.485947 2.637398 2.511029 -1.489986 -1.520339 -0.336726 0.859734 -1.378511 0.541048 -0.341919 -1.971098 -0.283387 0.664532 1.254339 -0.919487 -1.969101 -0.735118 2.538937 -0.502241 1.622826 -0.735841 0.223810 -1.560482 1.004350 0.709171 -0.402730 -2.816548 0.279082 -0.300802 -1.390549 0.538923 0.680319 0.736939 0.594680 
6715 0.524063 -0.265209 -0.497665 -1.500190 -1.442617 -0.113558 1.809983 2.472847 -0.664514 -0.837065 0.405549 1.296888 -0.834364 1.009415 -0.081656 1.598535 2.238460 -0.284885 3.415514 0.391676 -0.478947 -0.362840 -0.646256 1.852972 0.994809 0.156763 -0.211342 -0.152278 -1.953349 -0.482903 -1.639631 0.094711 -2.309192 -0.187083 -0.841297 -0.918569 -2.290045 -1.111506 1.210887 0.615752 0.963557 2.096228 -0.681894 1.269658 1.430906 -0.506438 -0.530128 -0.953302 -0.091137 0.329026 
9843 0.924540 0.699248 -1.070844 -3.518849 -1.305223 0.906506 0.312774 0.930604 1.472887 0.211219 -1.196769 1.837463 1.438139 0.526687 0.812010 1.030761 -0.007045 1.563773 -0.141878 -0.006590 -0.623876 -1.721167 -0.467005 -1.421760 0.050601 -0.135058 -1.235522 0.947963 -0.608257 0.294462 -0.375398 -0.779119 -1.987022 -0.127413 -1.513395 -0.065327 -0.226566 0.931667 1.128794 1.267409 -0.093008 1.486655 -0.649972 0.356128 1.542156 1.775173 1.171945 -1.155347 -0.675767 1.141273 
7377 0.005722 0.084896 -0.072136 -0.323306 -0.766047 1.434008 0.956590 0.511396 0.932399 -0.162719 -0.393957 1.932841 -0.204590 0.009439 0.146613 1.070663 2.492993 -0.366188 3.350687 -0.605279 -0.238984 -0.588695 2.113991 -0.796597 -1.992515 -1.627255 0.207969 0.799817 0.437186 0.119344 0.832695 0.248253 -1.074381 1.183129 -2.295976 -0.533175 -1.184385 -1.131987 -1.012239 -0.787422 0.429305 0.619706 -0.614417 -2.596580 0.104710 -1.006602 0.614817 -2.262700 -0.763602 0.494693 
3658 0.381092 -1.011041 -2.031063 0.107279 -1.165741 1.704150 -0.061732 0.405894 1.528058 -1.243679 -0.588507 2.329941 -0.694646 0.377077 0.584097 -0.756734 0.712723 0.943203 0.358918 -0.018791 -1.315310 -0.920032 -0.633555 -3.282903 0.142581 0.546078 -0.321785 2.091287 -0.024812 -0.131475 -0.838151 -0.778446 -0.054866 -1.623688 -1.661255 -0.171735 -2.284019 0.245412 -0.841286 2.027966 -1.113759 -0.882605 -0.979276 0.304017 2.282143 -0.683565 -0.425251 -1.686689 1.391370 0.574241 
9330 1.964171 -1.149727 -0.131640 1.103711 -0.720087 0.064778 -0.069567 -0.086482 1.872717 -0.177639 0.762162 1.762579 -0.832786 0.599441 -0.338880 1.352724 0.159154 0.005108 2.225008 -1.271485 -0.220737 1.082482 -1.981367 0.299761 0.066095 -1.420510 -1.231587 2.127974 0.428032 0.596959 -1.398437 0.084747 -0.803418 0.373640 -0.918478 2.130178 -0.601615 -1.327535 -1.344229 1.131585 1.564215 1.872103 -1.616300 0.746408 0.333764 -0.928545 -1.636363 -1.991229 0.480649 1.887223 
5800 0.992064 -1.263363 -0.245886 -0.750014 -1.538434 0.364151 2.015641 0.841606 0.759626 0.332654 0.131830 1.753985 -0.068847 -1.068759 2.819699 0.201012 2.178917 0.853024 1.201727 2.082154 0.773651 -1.009914 0.567204 1.060921 1.506176 -1.958879 -1.090602 -1.572010 -0.855456 0.807238 0.672837 -0.631424 -1.389212 -0.356058 -0.807916 1.310225 -0.308977 -1.311903 0.653147 0.862629 1.412700 -1.415818 0.722279 1.033756 0.949034 1.158729 0.243612 -1.402997 0.888438 0.194107 
9327 0.385698 -0.121311 0.192591 -0.928357 -1.042813 1.758001 1.834042 -0.209021 1.316647 1.424521 -1.047296 1.582235 -2.125654 0.111113 -1.454803 1.578755 0.507890 0.825939 1.176207 0.705531 -0.095775 -1.384784 1.220123 1.022114 -0.642052 -0.309131 -0.181557 1.351600 -1.700838 0.082520 -1.024187 0.559733 -1.769520 1.223394 -0.143943 1.693354 -0.124981 -0.866254 -1.798102 0.978832 1.455945 -2.577785 -0.864233 0.068568 -0.099022 -1.519359 0.551167 -1.651550 -0.052791 -0.265817 
7901 2.501502 -0.391764 0.223282 -2.163890 0.077973 1.025101 1.870244 2.095501 0.485828 1.079608 0.981109 2.014839 -0.107273 -0.788343 1.001193 0.579200 1.113079 0.507482 0.202812 0.042238 -1.333265 -0.487901 -0.656802 -0.256206 1.337216 0.967845 -1.303846 0.887592 -0.304093 -0.440591 -0.761513 -0.097777 -1.374597 0.771130 0.106882 2.303820 -0.543001 -1.032539 1.225021 1.698952 -1.159547 -0.996313 1.587582 1.467224 0.653131 -0.640542 -0.278632 -1.330577 2.694473 1.555810 
5052 0.937425 0.746653 -0.348650 -2.108703 0.052923 1.435515 0.382383 1.653790 1.009544 -0.978682 -0.841700 0.133310 0.533365 2.687772 2.359392 2.584720 1.480200 -0.180366 1.747303 0.327711 -2.181893 -2.167365 0.201830 0.617642 1.544232 -0.098064 -1.207595 0.461831 -0.444042 -0.161438 0.036775 -0.289253 0.317500 0.207891 0.958993 -1.539090 -1.688818 0.114394 0.376577 -0.419795 0.144126 -0.303621 -2.683699 0.086636 1.393705 -0.582255 -1.295516 -1.509563 0.985060 0.574491 
1562 1.984957 -0.450014 -1.032040 1.398610 -1.041569 2.141084 1.932187 -1.072546 1.190203 1.161376 -0.972829 2.402522 0.307088 0.730358 1.917483 -0.086538 0.085046 0.283737 1.790556 2.365728 1.502710 -0.127161 -1.706458 -1.181933 0.958564 -0.861461 -0.398292 0.762808 -1.331867 0.441782 1.534256 -0.561091 -1.524135 0.573980 -1.746423 -0.683585 -0.969855 -0.004609 0.171125 2.255963 -0.903922 -0.599857 -0.037615 0.639710 -0.498609 0.839086 0.077225 -1.237855 1.688977 1.630229 
8234 1.725768 1.242746 -0.101612 -1.402107 -0.083227 0.442820 0.597481 -0.417257 2.662249 0.786593 0.252258 0.947384 1.928108 0.399975 -0.047776 0.254079 2.209173 0.698152 1.704343 0.541708 0.691370 -0.997984 -0.819675 0.152910 -0.366520 -1.230456 0.543615 0.496204 0.083220 0.445059 1.883243 -2.234561 0.358599 1.731634 -0.896730 0.552405 -1.960308 -2.215590 0.483494 0.370915 -0.123251 -1.313365 0.298707 -1.364136 0.950556 -0.714150 2.098845 -1.948918 0.649423 -0.616065 
3028 -0.075036 1.992079 -0.926866 -0.937396 -0.419820 -1.069244 1.904132 1.380296 1.059417 1.531332 0.372122 1.780597 0.195023 -0.206792 -0.225926 0.535234 0.851893 2.088106 2.713109 -0.253707 -0.820801 0.368219 0.698733 -0.864076 -0.484648 -2.038570 -0.791437 1.654428 0.981880 -1.682410 -1.852603 -0.021469 -0.914204 1.740233 -1.379527 2.156191 -0.627769 0.519532 -0.906992 1.574210 1.085050 -1.461712 0.261628 -1.083937 0.162236 0.658376 0.886532 -2.392961 -0.712773 -0.527814 
1236 2.317939 -0.293498 -0.978869 -2.627420 -0.730727 0.824421 0.155081 -0.046217 0.941556 0.410873 -1.159110 2.123254 1.083187 -0.420545 0.348076 2.506525 -1.375374 -1.146103 3.291449 -0.032173 -1.634840 0.614448 -0.121490 0.951886 -0.296046 0.454223 -0.138487 -0.241042 0.053137 1.977371 0.333733 -0.240513 0.090711 1.948747 -1.292243 -0.991429 -0.749888 0.081473 -0.977627 0.267227 -1.306414 -1.555135 0.473989 0.176451 0.244993 -0.427902 1.061856 -2.410172 0.373090 -1.066197 
1648 0.239646 -0.812594 -0.088425 -0.572089 -1.271678 2.215447 0.990985 1.356589 4.132721 0.398845 -0.776879 1.890843 0.867451 1.013075 0.666228 0.073399 1.508527 -0.619983 1.709299 1.308046 -0.245898 0.883723 0.153518 -0.835822 -0.207570 -1.155328 0.150166 0.127139 0.280358 -0.491356 0.345612 -2.246008 -1.537534 0.727949 -0.355753 -0.361296 -0.040354 0.391291 1.333762 -1.008611 -0.083021 -1.657903 -1.894531 1.363087 1.748765 -0.582493 -1.777128 -0.434108 -1.257873 -0.064520 
876 -0.934629 -1.719911 -1.229688 -2.839584 -1.576232 0.814204 2.794909 -0.737180 0.966138 -0.124643 -0.959751 1.091298 0.892135 -0.197549 1.205094 0.933595 1.609926 -1.240085 1.450633 2.044644 -0.401963 -0.662535 1.724942 -0.292126 0.341058 -0.705954 -0.595587 0.076203 0.729637 0.808699 -0.361579 -1.132116 -0.903788 1.354479 -1.670870 1.648078 -0.341772 -0.661203 -0.143524 0.322262 1.436206 -0.533706 -0.027826 -1.019842 1.951954 0.372556 0.916466 0.450804 0.313298 1.038666 
3682 2.418722 -0.437094 0.153229 -0.935344 0.681115 0.788806 0.931521 -0.629591 1.070890 1.932741 0.567381 1.868246 1.242959 0.458850 1.636096 -0.194933 2.413614 0.243872 0.586576 -1.424361 -1.542007 0.371587 -0.715425 -0.607207 -1.411730 -2.060698 0.293436 0.034612 -0.235263 -0.528753 1.095286 -1.866939 -2.014243 1.641474 -0.220599 0.141972 -1.064192 0.417940 0.168136 1.230286 1.872350 -1.883051 0.302959 0.873417 -2.168713 -1.011690 -0.186479 -1.039670 1.556541 0.509528 
6315 0.664627 -1.047302 -0.750539 -1.369619 -0.624343 1.423311 0.543206 -0.556680 -1.627488 -0.092201 0.128039 1.813864 -0.734574 2.164691 2.175346 2.067028 0.391148 -0.276666 1.227773 -0.458500 -1.602871 -1.069742 0.246778 -0.608548 -0.876750 -1.341250 -0.897840 -0.008003 -0.210400 0.552679 1.704633 1.180059 -0.200433 -0.381152 -1.072261 0.672651 0.849788 -1.025741 0.360064 3.663558 -0.058944 -0.688968 -1.215611 0.720227 0.419123 -0.462211 -0.192483 -1.411327 1.449814 0.276522 
6943 2.458692 0.624101 0.983146 -1.128238 1.616146 0.252409 2.015276 2.606949 0.387893 -0.558122 1.060005 -0.490598 -0.877218 1.910315 0.932269 1.674900 2.838857 0.105357 1.092071 0.098492 1.247255 -1.253816 -0.343529 0.353182 1.119669 -1.008100 0.213468 -0.367374 -1.865520 0.683700 2.027496 0.046366 -1.623599 0.165841 -1.755632 0.280421 -0.250432 -1.231090 -0.678564 0.122553 -1.036406 -0.973241 -1.311541 0.630313 1.880332 -0.008584 -0.165074 -2.273266 1.103327 -2.234296 
7692 1.611196 -1.034137 -1.708599 -1.310570 0.828582 3.142834 0.773517 0.743039 0.719206 0.147576 -0.718377 1.355389 -0.905354 0.341361 2.812482 1.488269 1.342099 -1.752052 -0.735874 0.175432 1.177409 -0.048595 -0.284840 -0.541676 -0.545746 -0.489363 0.375801 0.198030 -0.028668 -0.429939 -0.821836 -0.432043 -1.547944 -0.712193 -1.079793 1.569144 -1.761104 -1.736854 -0.274720 2.172827 0.904628 -1.758187 -0.012691 1.415282 1.367385 -0.996690 0.545847 -0.516131 0.808566 -1.209677 
2443 1.285538 0.284305 0.812801 1.045877 -0.237901 2.172802 1.884812 0.368520 0.826775 -0.212531 0.729629 2.076028 -1.594285 1.087082 0.385674 -0.017544 1.120016 -0.138213 1.456421 -0.967708 -0.339594 -1.768800 1.109456 0.597942 -0.794308 -1.431290 1.161527 1.370458 -0.454044 0.148809 -0.479958 -0.359914 0.059737 0.243399 -2.272841 -0.161712 -1.911392 -1.125339 -0.374888 0.276896 1.331125 -1.983526 0.376055 0.289075 1.413742 1.060478 -1.190176 -1.131720 2.035263 -0.061047 
5907 1.203828 0.687722 -0.844032 -1.776922 -1.158308 -0.314115 0.332030 1.350352 -0.400398 0.301337 0.464544 1.769736 -0.152017 1.859891 0.372259 -0.576127 0.657341 -1.715497 2.002090 -0.658097 -1.337458 -0.817083 -0.991969 2.068123 -0.120950 -0.948960 -0.902819 -0.124236 -0.340922 0.211609 0.189334 2.216101 0.211188 0.008585 -1.331114 -0.937161 -0.593382 -0.771477 0.456855 1.534331 0.599683 1.204493 -1.209937 -0.825441 2.160595 1.116111 1.690784 -2.404335 2.166748 2.153462 
9344 1.150420 -1.076455 -0.425338 -1.437779 -0.226805 0.292003 -0.458975 0.912113 1.707971 0.242615 -0.599063 1.699281 -0.491915 0.700069 -1.044108 0.701861 0.576446 0.458478 0.573977 -0.689339 0.056772 0.365791 0.045883 -1.480370 0.288622 -1.720254 0.751157 -1.255844 -0.991171 0.375803 -1.528527 -0.077404 -2.851890 0.046753 -2.453163 -1.879887 -0.516367 -0.504278 0.431711 0.638740 1.504158 0.150529 0.646927 1.500927 3.319443 -2.433971 1.626811 -0.721267 1.959038 1.132743 
7537 1.534761 0.291836 -0.281304 -2.785357 1.265413 0.084583 0.373682 -0.060462 2.289393 0.784073 0.168763 1.793065 2.015407 -0.241123 -0.146869 0.078150 0.346249 1.724149 1.566284 -1.522152 -0.492071 -0.425496 1.082506 -1.398239 1.544204 0.366433 0.372305 -0.081949 1.523794 2.380650 -1.158236 -1.770806 -0.950809 1.293591 -0.539346 0.289671 -1.621418 -2.594393 -2.179474 0.137281 1.558535 0.089902 0.085763 1.032517 -0.116081 -0.829130 -0.610261 -2.143459 0.457427 -1.671145 
4882 0.749223 -0.436190 -0.960299 -1.344106 -1.741435 2.431196 0.405938 1.197536 0.328287 0.454868 0.573751 3.894057 0.230577 0.197228 0.651080 2.036094 -0.204411 1.946616 0.769743 1.949949 -0.659102 -1.255107 0.570005 -0.353136 -1.134443 -0.470924 -0.612075 0.491456 -0.986380 -0.919893 -1.578549 1.540736 -0.493085 0.830778 0.538140 0.575719 -0.314409 -0.408301 -0.958627 2.146307 -0.114314 1.448415 0.110060 0.622630 1.267356 -0.576624 0.450930 -1.168355 0.916579 -0.570716 
9670 3.226512 0.004322 -0.169085 -1.246580 -1.039837 2.554545 -0.240674 0.436383 0.731500 -0.604747 0.538766 -0.076334 0.775777 -0.168667 1.196110 0.209467 1.646908 0.695483 2.018975 -0.635808 -0.555042 -1.086359 1.902049 -0.383074 0.759390 0.086619 -0.193028 0.500619 -1.838781 -2.113194 -0.244929 0.909287 -0.050523 -0.143972 0.917083 -0.209563 -1.975828 -2.308374 -0.857233 1.607731 0.362559 -0.367737 -0.955022 0.600015 1.665750 -0.543931 -0.839490 -1.038403 1.697016 -0.215951 
8511 0.943171 -0.445418 -0.680382 -2.167338 -0.010579 0.825928 0.966995 1.941297 1.781244 0.503649 0.593646 0.931512 0.116959 2.189496 1.709933 -0.098729 1.729696 -0.270897 0.472232 1.206356 -1.322331 0.712650 -2.146265 0.722123 0.931630 -2.112052 -1.579591 0.241437 0.205123 -0.553607 0.560151 -0.530406 -0.717561 2.112510 -0.568263 -0.543283 -0.009722 -0.378664 -0.700203 -0.360502 0.355079 0.273133 -2.608074 2.394337 0.042910 2.443140 1.457819 -1.259718 1.339421 -0.591201 
3035 2.142773 -0.364705 0.084293 -1.414868 -0.253556 1.064499 0.254794 1.629880 1.530287 -0.583458 0.501208 1.493517 -0.985092 1.047283 0.645869 2.751853 0.215963 1.278647 2.002226 -0.081604 1.644701 0.411315 -0.050397 0.631332 -0.464872 -1.225996 1.003670 -0.555467 0.783964 -0.775040 0.030203 -1.451423 -1.654876 1.747842 -2.951468 -1.923040 0.278750 -1.500984 0.383030 0.333675 0.681685 -0.692160 0.159458 -0.487706 -0.074410 -1.496569 -0.713193 -1.885226 0.450727 0.999961 
3333 1.413323 -0.217994 0.830161 -1.398848 -0.246086 1.944705 0.749770 -0.454161 0.128300 -1.078695 1.691846 0.233934 0.894786 -0.344314 0.876646 1.464797 1.660756 -0.601364 1.308964 1.532686 -0.626191 -1.385076 -1.815263 1.204345 0.030871 -1.872896 -1.889714 -0.781000 -0.864705 -0.129764 0.268362 0.227952 -2.638276 1.290914 0.086842 -0.720096 -2.154268 0.006032 -0.309398 1.817628 -0.009118 -1.095456 1.214140 -0.221663 0.248362 1.031000 0.143538 -1.860525 -0.135602 1.187221 
3743 0.956216 0.188050 -1.403635 -0.074899 0.260199 0.572188 2.111846 0.564369 0.082087 -0.221895 0.632512 3.261744 -0.160084 -0.376348 2.074034 -0.495249 0.534178 -1.050818 0.937112 0.804814 0.886943 -0.314757 0.357488 -0.178119 -0.228476 0.859368 1.439986 -0.006423 1.051258 0.587450 1.084830 -0.059355 -1.824375 0.768504 -2.122707 0.931821 0.779041 0.233335 1.028716 1.151905 -0.451021 -1.669532 -2.230784 0.532862 0.954071 -0.089190 0.207635 -3.512011 -1.152128 -0.921754 
3625 1.615937 -0.813616 1.135123 -0.716267 0.235928 0.033213 0.939977 -0.452047 0.401661 -0.387222 0.929798 2.136930 1.897185 1.998004 0.365730 -0.076149 0.666992 -2.142095 0.856458 -0.197394 -1.526787 -2.559671 -0.728879 1.002019 -0.353155 -0.398071 0.881808 -0.481220 -0.140123 -0.316234 -0.779344 -1.473126 -0.169735 1.509025 -0.689174 -0.911456 -2.174641 -1.024641 -0.884169 2.134762 3.182080 -0.764503 -0.995799 0.541005 0.334218 0.516440 0.632398 -1.928381 -0.022322 0.599599 
6698 0.294128 0.265713 -0.840687 -1.048962 -0.397180 1.089305 0.540283 0.243479 0.209496 -1.090470 -0.978699 2.632466 -1.279056 1.796587 -1.654762 0.069014 1.700726 0.423889 1.976361 -0.182570 -1.618529 -0.492719 1.704633 -1.450205 0.316056 -0.613952 -0.930406 0.703810 0.497144 -0.549697 0.597422 -1.606663 -2.145618 0.979488 -1.155350 1.346139 -2.058859 0.679208 -0.361613 1.167340 -1.183013 -0.762665 -1.397390 1.434222 2.016776 1.388809 -1.134563 0.393581 -0.774349 1.430962 
9488 1.084751 -0.762752 -0.376016 -2.373899 -0.051637 0.060913 0.768666 0.347558 0.391095 0.294282 0.447137 0.927863 0.597078 -0.129852 1.355737 -0.641966 1.905970 -1.132021 1.697165 -1.162650 0.444807 -0.381177 1.429027 1.641223 -1.343635 0.339484 -1.091547 1.596994 -0.591589 -0.343200 -1.628660 -2.549356 -0.833667 -1.012703 -2.119130 -0.035452 -0.873963 -1.215643 1.028311 1.564929 0.143111 -0.372550 -1.953145 -1.868819 0.320842 1.426614 0.311596 -1.684814 1.432860 1.234259 
440 1.465203 -1.511996 -0.290762 -2.566313 -0.052710 0.370933 0.644017 1.230482 0.530290 0.176557 -0.815121 2.084011 1.157134 1.882328 0.603018 1.695728 2.070241 1.828574 0.006071 0.184163 0.870084 -1.282322 -1.770011 0.071815 0.158823 -1.869079 0.721398 -0.368003 -1.406281 -0.561061 -0.617248 -0.165616 -0.596735 0.054568 -0.194616 0.753941 -2.522279 0.483307 -0.838317 -0.780253 1.655694 -1.467238 -1.863267 1.156441 -0.030449 1.128441 -0.571166 -1.396707 1.214974 1.028448 
1220 0.502844 -1.185621 1.122429 -1.707464 -0.932502 0.549390 0.338854 -1.200009 0.932819 1.570920 -0.541422 2.732146 -1.023331 0.119820 0.538395 2.235080 0.858548 1.378322 2.292572 -1.369444 0.321484 0.732837 -1.203718 -0.697566 -0.489416 -1.166337 -0.828342 -1.553400 -1.321743 0.362528 0.572187 -1.512225 -1.888727 0.642117 -0.757886 2.153802 -1.177196 0.002947 -1.444060 0.783303 2.154444 -0.542145 0.344371 -1.012850 0.718788 0.289115 -1.247856 0.345553 1.437084 -1.064816 
1382 0.518884 0.934732 0.840990 -0.643795 -1.291400 0.191876 1.458660 1.292100 -0.071511 1.858479 -0.302087 1.801491 1.572317 -0.201056 0.658928 0.726796 2.160280 0.659865 0.293789 -2.197672 -0.325434 -1.031674 -1.752393 0.571930 0.885926 0.371160 -0.352796 1.011003 -0.979619 0.422999 0.665990 1.044057 -0.858641 -0.285770 -0.764697 1.516941 -1.475434 -0.376892 -1.669241 1.077320 1.826238 1.127309 -1.290123 -0.665518 2.291317 -0.698772 0.939414 -1.768545 0.716607 -0.783582 
5329 -0.140357 0.578234 1.391121 0.072673 1.645045 0.946017 1.747068 0.376180 1.540015 0.395435 -0.340457 2.227404 -0.254140 0.428249 0.714862 -0.436527 0.402930 -0.299268 2.053883 -0.192296 -0.132441 -2.528699 0.702619 2.439849 -0.200756 -2.139263 -0.358601 0.065542 0.453306 0.392843 1.520917 -1.106952 -3.535590 -0.692863 -0.472635 1.317816 -0.330068 -0.057783 -0.293387 -0.268185 0.243721 -0.664655 -1.603714 1.047026 -0.487051 -1.620931 0.452802 -2.001699 1.493070 0.523082 
5468 1.801100 -0.605869 -1.783740 -0.666106 -1.920303 1.055885 1.604999 1.005975 -0.295593 -0.001775 -0.225166 1.459783 -0.132468 0.428237 0.413473 -1.992542 3.405284 0.577151 2.050286 -0.187612 0.009104 -2.000712 -2.189431 -1.282771 1.426283 -1.427049 0.230360 -0.201624 -0.071175 -0.528500 0.956509 -1.237923 -0.128185 -0.340940 0.048153 0.063163 -0.589098 0.418426 0.739704 0.340151 -0.258207 -2.881614 -0.913719 0.339484 0.977131 0.936326 0.943358 -0.837631 1.286495 0.625201 
7607 -0.230188 -0.054162 0.520408 -1.460102 1.373492 2.377849 1.950123 1.077838 -0.072155 0.336342 -0.184968 1.322811 0.162744 0.805466 0.966481 0.929958 -0.657480 0.730809 2.595668 -0.465795 -0.080615 -0.068212 -0.155855 0.757801 0.376260 -0.347888 0.962208 -0.904325 -0.134246 2.717294 -0.405187 -1.071314 -1.493660 1.887446 -1.352438 0.626058 -0.937011 0.289426 -0.771921 1.125466 1.306973 -0.690072 -0.881700 -1.114208 0.000643 -0.653328 -1.144387 -1.474240 0.723977 2.994651 
550 2.165185 -2.570426 -0.611987 -1.465049 1.589187 1.854151 0.383115 -0.559086 0.557079 1.109525 -0.579261 1.997614 0.235105 -0.105250 0.163094 0.775174 1.669976 -0.566035 0.789929 -0.144592 0.767136 -1.670967 0.711819 -1.556047 -0.446551 0.122569 -1.253551 1.034471 -0.603223 2.019279 -0.245064 0.570977 -0.434488 -0.534749 -1.047801 0.379454 -0.725588 0.923469 0.481847 0.672228 -1.347283 0.772260 -2.214457 0.726616 -0.037770 -1.343216 0.089302 -2.063273 1.352942 -1.285028 
2064 2.982788 0.241999 -0.429517 -0.320205 -0.471572 0.428407 0.073144 0.012600 1.804684 0.307542 0.542818 0.347808 0.886530 0.897816 0.554774 2.209900 1.029684 -1.060344 1.634281 1.175762 0.322313 1.397200 -0.243135 0.614362 0.106068 -0.764300 -1.544199 1.996684 -0.445115 0.571395 1.653950 -0.556323 -2.864021 1.407412 0.550190 0.515467 -1.285430 1.141658 0.690407 -0.062046 -0.426723 0.275161 -2.549963 -0.464599 0.286784 0.500956 1.847926 -2.073735 0.941176 0.450963 
1359 0.944091 0.003104 0.284849 -1.313755 -0.826575 0.481126 2.012590 1.132097 0.932218 -1.180125 -0.190178 1.964702 0.227551 -0.778760 -0.353574 0.534069 -0.219185 0.029642 2.344147 -0.398097 -0.166351 -0.731700 0.941667 -1.053228 -0.158182 0.439840 -1.154505 -0.164299 0.937897 -1.045476 1.570301 0.336202 -1.279859 -0.656390 -1.475145 1.947608 -1.037394 2.252698 0.390372 0.971178 1.824904 1.072067 0.578896 -2.020545 0.673315 -0.237605 0.475023 -1.840010 1.707520 0.273093 
3182 1.039176 -0.027972 -0.433255 -3.266922 -1.670743 -0.353509 -0.012510 -0.832046 1.122232 0.631856 0.121777 0.301393 -1.735335 -0.608476 1.990273 0.332360 -0.540423 -0.951059 1.872267 -1.566351 -0.617733 -0.370305 0.568973 -1.075708 0.552582 -0.704773 -0.132191 -0.550920 0.097050 2.592700 -0.229033 0.941347 -1.151874 0.691659 0.755736 0.070230 -0.784727 -1.346586 -1.438606 0.153972 1.304524 0.643358 -1.659248 1.115445 1.392304 -0.601231 0.339379 -0.873245 0.901814 1.976171 
3610 2.573372 -1.498831 -0.565516 -0.017655 0.240625 -0.835876 2.113152 -0.268985 0.781408 1.000998 0.447973 1.919693 1.319022 -0.971715 0.523805 -0.892262 1.008802 -0.622922 1.713614 -0.649991 -0.226162 0.564664 0.201507 0.235072 -0.568324 -2.233138 -0.469756 0.530370 0.447080 -0.141815 1.322983 0.478195 -1.892544 -0.733518 -0.895111 0.158792 -1.893193 -2.155383 1.362779 -0.882358 -0.212674 -0.002685 -0.663546 1.848768 2.977920 0.488469 0.119335 -0.731220 1.638616 -0.556223 
8073 0.030626 0.461683 -0.135149 -0.551724 -0.984189 0.081676 0.531539 0.892435 1.374282 -0.152027 -1.772061 1.914176 0.023401 0.850089 -0.015343 -1.013008 0.961147 1.132698 3.448289 -0.979010 0.006155 1.312693 2.216172 0.022950 0.710394 -0.310620 0.219063 -0.026868 2.154843 0.772735 0.853980 -1.117795 -0.741682 -0.084324 -0.688502 -0.270150 -1.332204 -1.971894 -1.456649 0.841420 0.017458 -1.195232 -1.010202 -0.692515 0.283078 -0.249909 -1.742191 -3.099226 1.646582 -0.299172 
120 -0.300936 1.009545 -0.987513 -0.394622 -0.875896 2.089088 2.868586 0.881758 1.501330 -0.483137 -1.161139 -0.142452 0.028972 1.749151 0.945061 -0.585608 0.025301 1.556552 1.610374 1.663659 0.811776 -2.559527 0.369182 -1.185431 1.393267 -0.725032 -1.641307 -0.451587 0.171749 1.701304 -1.250514 -1.386084 0.957319 0.415626 -0.904500 0.734479 -0.330939 -0.957188 -0.126797 2.376500 0.629658 -0.352994 -0.310597 0.161296 1.291316 -0.465823 1.365296 -2.015848 1.018639 0.586149 
2020 1.262826 1.644586 0.416536 -0.970435 -0.829794 -0.059589 0.518360 0.990006 -0.836883 0.663972 0.123112 1.730391 0.919162 1.974636 0.607874 -0.412722 0.574875 0.050122 1.557242 -0.122444 0.456802 -0.561641 1.150869 0.468552 0.670748 -0.606076 0.654489 0.088775 0.952422 0.225914 -1.867842 -2.265322 -1.249540 1.147363 -1.752836 0.816978 -0.962038 0.239398 0.219051 0.786493 0.468898 -0.098186 -0.335288 1.696870 1.449046 -0.551215 0.313391 -1.830317 2.098505 1.793644 
8416 2.117194 -1.617943 0.771551 -1.186802 0.701540 -0.485551 0.572193 1.591499 0.769238 -0.273808 -1.377397 1.010625 -1.201883 -0.400406 -1.450668 -0.120142 1.515996 0.169518 0.335607 -0.623089 -0.567775 -0.179736 -0.374157 -1.552390 1.045129 -1.186044 -0.255892 2.149931 -2.986025 -0.150876 1.158342 -1.918488 -0.999483 1.037314 -0.355707 0.193136 -1.702162 -1.749975 -0.168303 2.373060 0.394763 -0.322172 -0.529484 0.044424 0.599542 -1.441191 1.466182 -1.495703 1.829807 1.256934 
7274 0.205079 0.017027 -0.530815 -0.799337 1.149425 0.952783 1.233606 2.366125 1.390483 1.245608 -0.553981 2.248726 -0.274048 2.238068 0.528051 0.850828 0.850845 -0.474947 1.396525 -0.978497 -1.670439 -0.425180 1.600092 1.258743 0.673272 -1.220604 -0.093025 -0.916747 0.559538 -0.812234 1.067490 0.168980 0.033349 1.071614 2.184715 0.623703 -1.224656 -0.855349 0.858440 1.137242 -0.167942 -0.526792 -0.972194 -0.958449 1.426068 1.371201 -0.142245 -2.730355 1.260496 0.548593 
5586 1.681309 0.992408 -0.231731 -2.363262 0.331048 1.626542 -0.227596 2.016777 1.799352 0.838130 0.745715 1.131280 -0.133475 0.543735 -1.870584 1.113695 1.548595 0.837486 0.434284 -0.898027 0.096811 -1.919773 -0.960733 -0.301095 1.554613 0.083572 -1.210333 1.022823 1.037718 0.571146 0.193518 0.398351 -2.629136 -0.877447 0.141547 1.116250 -1.613440 -0.564449 0.698146 0.646460 1.174189 1.065277 1.211134 1.740680 1.737087 -0.953421 -1.615970 -1.610609 -0.377974 0.919890 
9194 0.386925 1.101022 -1.044731 -0.435346 0.913145 0.986256 1.019670 -0.364294 2.815976 1.716436 -0.338424 2.507395 -0.459057 0.459580 -1.609115 -0.129938 1.972182 -0.705873 0.960043 -0.756142 0.151812 -1.188193 -0.034243 -1.534159 -0.734511 0.763969 -1.145693 -0.191840 -2.358540 0.568793 -1.127819 0.797905 -2.160675 -0.710292 -0.877395 0.411960 -1.425337 0.454484 -0.348708 -0.037754 0.735378 -1.688186 -0.817567 0.174356 1.018186 -0.872386 1.183846 -2.466520 -0.627641 -0.780158 
4469 -0.229653 -1.552510 0.699577 -0.399097 -0.059040 -0.216080 0.287919 1.138941 2.652083 -0.082645 0.204285 1.742939 1.036508 0.859093 -0.783601 -0.377836 -0.861261 2.335147 2.146943 -0.476038 -1.751817 -0.904234 -0.108533 0.798924 -1.386310 -1.300372 -0.855165 1.222981 0.116563 0.183400 0.700914 -1.191669 -1.519162 -0.354184 -0.440176 -0.729077 -2.432759 -0.148812 -0.219545 2.314503 0.171035 -0.053488 -1.039524 1.522011 1.113510 -0.689668 -1.019328 -1.666687 0.330326 0.611255 
3556 1.511867 0.420470 0.595729 -0.297494 -1.068548 0.990456 2.044601 0.124160 0.932162 0.621848 0.378515 -0.409183 -0.756871 0.776361 0.489825 -0.059342 -0.319760 0.193554 2.266238 -1.612245 -0.226637 0.054202 0.919928 1.240714 0.019553 -0.874555 -0.754414 0.137049 -0.826989 -0.470456 -0.719728 -0.435946 -2.643077 0.638891 0.013864 0.674703 -1.784904 1.547424 -1.794395 1.459327 0.538150 0.482172 -0.611535 0.508702 1.020678 1.246964 0.719277 -3.266395 -0.695918 2.085201 
4005 1.374207 0.188885 -1.070950 -0.296528 0.535983 1.217256 2.652376 1.058231 1.548184 0.486901 1.218844 2.443840 0.386180 -0.066196 -0.583865 0.532879 0.300869 -0.460486 1.073314 -0.808024 0.383277 -0.420390 -0.666698 -2.521851 -0.907528 -2.768966 -1.627620 0.405521 0.116731 0.853744 -1.369210 0.256852 0.255002 -1.243710 -1.861595 -1.491429 0.358051 0.213249 -2.133404 0.276756 1.825652 -0.349968 0.180821 1.870098 0.180020 -0.656438 0.460663 -2.527150 1.460404 -0.190620 
3377 2.374602 0.545818 -0.659506 -1.628877 -1.738652 1.105043 2.496663 0.978951 -0.737116 -0.549951 -0.556538 0.745417 -0.311114 -0.539328 -0.401717 1.487397 -0.002964 -0.419777 2.061393 -0.956463 0.399425 -0.940589 1.393770 -1.206753 0.094398 1.394916 -1.074068 0.275188 0.923677 0.220801 0.475978 -0.506405 -2.021091 0.900837 -1.344816 1.280704 -0.248868 0.928184 -0.057675 1.248034 1.204207 0.172352 1.264105 -2.505406 1.164437 0.222353 0.977436 -1.650453 0.332696 0.297431 
7275 1.077700 -0.537301 -0.313460 -1.720617 -1.984599 -1.414219 -0.382911 -0.160303 1.437843 2.058559 -0.451135 0.666274 0.750401 1.594491 2.541549 -1.250178 0.109159 0.078746 3.274279 1.939011 -1.682340 0.617971 0.551519 -1.169770 -1.012792 -0.337691 -0.286358 -0.355941 0.060977 0.469351 -0.925965 0.974869 -1.023425 0.152197 -1.680590 0.896156 -1.078882 0.697921 -0.147114 1.232252 0.867539 0.390640 -1.623604 -1.508303 0.394778 -0.738638 -0.275744 -1.020017 1.501007 -0.233437 
4927 0.776041 -1.322268 0.188318 -0.264204 -0.086811 2.166515 -0.564090 0.008554 1.239431 0.458385 0.297139 -0.104952 -0.359997 0.381164 0.685710 -0.111259 0.280067 -0.879960 4.174513 1.610886 -0.226823 -0.787595 -0.499171 0.040153 -1.232540 -1.121292 -0.718123 1.648123 -0.870085 1.188474 -1.760246 0.560238 -3.093508 1.293120 -2.022492 1.477487 -0.941424 -1.607425 -0.595118 -0.548281 -0.253648 -0.369342 -0.075818 0.410144 1.061071 0.487315 0.162087 -1.962868 -1.195137 0.823458 
6834 1.666970 -0.902500 -0.965001 -0.438451 0.724443 -0.304432 1.819722 1.088460 2.217368 -1.860920 0.466204 1.552918 0.286038 0.636949 -0.562697 1.014067 0.567016 0.210259 2.351083 -0.963539 -0.833236 -0.437824 0.495443 -0.695640 0.334531 -1.687580 -1.303111 1.390360 -0.801841 0.386937 2.109008 -0.760641 -0.450219 1.170385 -2.045356 -1.723786 -0.748130 0.584282 -2.481540 -1.620518 2.032107 0.574579 -2.033865 1.027418 0.345152 -1.157389 0.452591 0.061318 0.995933 0.201887 
7359 1.523320 0.209535 0.613087 -0.486900 -1.429914 0.876179 1.447545 0.114446 0.656455 0.973662 0.267944 -0.055911 -1.149057 1.308217 0.786814 -0.093551 -0.323124 0.146689 2.097852 -1.786313 0.204625 0.208046 1.019182 1.497042 0.186218 -0.978717 -1.201358 0.201441 -0.414970 -0.608331 -0.618732 -0.565068 -2.667483 0.623019 0.085069 0.867728 -1.332608 2.023108 -1.674055 1.719906 0.685651 0.410128 -0.782365 0.916288 0.996527 1.418803 0.884256 -3.143878 -0.835840 2.157764 
1628 0.422033 1.361353 0.288777 -1.030590 1.907473 1.260777 2.575545 -0.206719 2.691127 0.165218 0.818955 3.031198 -0.306846 1.560453 0.345031 0.418254 0.419891 0.237769 1.978019 -0.993383 -0.976975 0.910061 0.229374 -1.652364 -0.459539 0.225955 -0.279207 2.700226 0.019912 1.462914 0.234115 0.492279 0.498069 1.640720 -0.124881 0.106504 -0.594716 0.252184 -1.667202 0.041095 1.597954 -0.236586 -1.028088 -1.162629 0.357510 -0.355334 -0.254678 -1.579881 -0.954435 0.378312 
2437 0.974173 -0.734666 -0.691664 -0.874543 0.031217 -0.512866 1.334160 0.645236 0.327884 0.156445 -1.735735 1.779375 -0.266164 2.222677 0.363937 0.318444 0.912062 -1.068234 0.925588 0.138231 -0.979088 -1.647569 0.377603 0.769307 -0.472136 0.010693 -0.435145 0.328139 -0.016554 -2.718422 1.304223 -0.220180 -1.100169 -0.971258 1.137634 0.888673 -1.684629 -1.236682 -1.435352 1.416557 2.165874 -1.094996 -1.148297 -1.253243 0.152783 -0.457620 -1.161426 -1.800787 0.300800 0.904256 
5738 1.970752 0.207120 0.284390 0.919156 -0.636252 -0.620553 1.905539 2.083816 1.263959 -1.515794 -0.443170 1.165933 0.694966 0.384119 0.619964 1.538602 0.876251 -0.544483 -0.117459 0.028083 -1.896956 -0.559003 -0.676968 0.438470 0.771156 -1.170206 -1.744658 0.628201 -1.070758 -0.678252 0.799734 -0.200645 -1.001038 1.260787 -2.469486 -1.463366 -2.334841 -0.791936 -0.334735 1.622092 0.784908 -2.227402 -0.898819 -0.311080 0.060170 -0.657987 1.086834 -1.983657 -0.090682 0.012077 
2583 1.480566 -0.229003 0.876421 -1.529127 -2.532235 1.762360 0.940577 -0.299015 2.716272 0.814761 1.024602 1.865182 1.155376 -0.435797 1.437876 0.556064 1.064061 0.429074 0.589613 -0.381139 0.102233 0.407809 -0.474121 -1.332808 2.144145 -0.228635 0.515532 -1.152884 -0.032069 0.456054 -0.744130 0.152766 -2.148033 0.087066 -0.047158 0.302535 -1.275915 -0.798639 0.060916 -1.416543 0.956993 -1.055327 -0.941109 0.140582 -0.223756 1.508793 -1.159007 -1.262630 2.257884 0.220432 
6332 -0.082279 0.261670 -0.413582 -1.752271 -0.540855 0.371600 0.629054 -0.187015 0.558552 -0.772317 -0.804981 2.142466 -1.807487 1.474653 -1.058448 -0.343044 1.389463 0.559921 1.764777 0.206817 -1.892975 -0.564057 1.169377 -1.552590 -0.470467 -0.279285 -0.728229 0.953829 -0.099405 0.766595 0.539381 -1.553835 -2.410172 0.097425 -0.592638 1.117834 -1.579603 0.080426 -0.619223 0.824142 -1.425385 -0.565767 -1.256700 1.284687 1.395915 1.349990 -0.878157 0.062466 -0.337440 2.032624 
6145 0.747958 -0.518309 -2.037263 -1.735174 0.060430 1.026229 -0.647988 0.400559 2.305135 -1.296614 1.845792 0.929111 0.318912 0.295348 -0.472696 1.259281 -0.123371 -0.544927 2.683731 -2.313117 1.272190 -1.175418 -0.504544 -0.071493 2.119721 0.202223 -1.106140 0.892290 -0.369581 0.371187 1.038670 -0.401823 -1.424148 -0.713817 -1.922421 0.142213 -0.748830 -2.067936 -1.954198 0.146179 0.437616 -0.051145 -1.373258 0.380479 1.455513 -2.046730 -0.569490 -0.437519 0.340504 -0.255522 
9322 1.073870 0.235049 -0.378179 -2.667140 -0.457616 -0.142615 2.161045 0.693047 0.924556 -0.314130 1.414309 3.836373 0.798080 0.620328 1.240145 -0.330712 -0.369665 0.570959 1.639201 -0.413878 0.193575 0.536634 0.856657 0.317158 -0.295950 1.115764 -0.376077 0.920332 0.826257 1.385571 0.421242 -0.446419 -0.133171 1.403919 -1.329416 -0.951926 0.834647 0.829789 -1.149248 0.655138 1.162248 -1.749358 0.414771 -0.202603 1.212138 -0.327457 0.089462 -0.102295 2.957947 0.778010 
3970 1.598639 0.875195 -0.827160 0.136788 -1.680561 0.014037 0.616253 -0.754661 2.653412 0.244042 0.310244 -0.060261 -0.473298 0.097166 0.996710 0.890812 0.997482 0.607591 2.758885 -0.809573 -0.548336 -0.405826 -0.251760 0.511477 0.920512 -0.512013 -2.039792 -0.902006 -1.453683 0.906205 -1.320503 0.605921 -0.904815 1.944436 -2.414924 0.948194 -1.332253 0.480169 -1.645304 1.684884 0.441843 -0.707946 -0.270877 -1.364976 -0.720177 0.377036 0.294406 -2.106518 -0.367851 -1.307167 
9439 1.621165 0.098131 -0.857671 -1.483908 1.365389 1.781615 0.144571 2.273516 2.066845 0.895988 0.186751 0.291353 -0.060499 0.189353 2.357448 0.343909 0.874361 -0.258043 1.532565 -1.672766 -1.297587 -1.941178 1.458929 -2.418533 0.437890 -1.055223 0.273566 1.006727 0.178451 0.326327 -1.241521 -1.861547 0.827225 -0.052756 -0.684434 0.432346 0.250350 -0.759061 -1.855366 0.325962 0.275058 -0.400773 -0.861510 -0.585856 1.640413 0.145311 -0.249462 -0.864605 1.233273 -1.096847 
5666 0.110779 -1.178657 -0.389877 -0.311881 -0.507078 -0.010000 -0.230748 -0.472362 0.791328 1.706972 0.236206 2.680169 0.229778 0.551831 -0.323844 0.644640 0.351012 -0.053396 2.141545 -1.198894 -1.989191 -1.523532 0.368235 -1.620131 1.419417 0.360564 -0.723332 0.010096 -0.474723 2.474555 -0.516098 -0.299646 0.041354 2.379523 -0.914440 -0.001105 -0.683188 2.212133 -0.314232 1.572661 2.257843 0.546215 -0.960097 1.036738 1.254654 -0.360590 -1.077871 -2.037889 0.105956 -1.047656 
4385 1.541851 -1.049205 -2.284307 -1.229675 0.341216 -0.740598 -0.214831 0.654462 -0.613171 1.278487 2.389257 2.212217 -2.261724 1.342287 1.332704 0.479941 -0.082312 0.226622 1.854685 0.384569 0.981104 -0.479094 -0.146388 -0.511399 0.150967 -0.535542 -0.695138 -1.143538 -0.317154 1.488591 1.978680 1.158773 -0.670752 0.016260 -0.548818 1.233820 -2.227862 -0.674620 -0.472773 0.411028 2.239100 -0.532246 -0.907299 -0.413954 1.866412 0.508170 -0.144561 -1.795202 0.535936 0.139611 
7003 0.764010 0.709176 -2.212396 -2.815852 0.380441 -0.067074 0.472953 2.795145 0.172122 -0.035798 0.960244 1.345825 1.037705 -0.388729 0.335529 0.642529 -0.073350 -1.529685 1.316122 -0.626887 0.348495 -0.825204 0.630698 -1.588480 2.731391 0.556364 -0.857644 0.305833 0.808491 -0.737355 -0.332840 1.003141 -1.787801 1.125117 -1.112413 -0.945895 0.093208 1.142516 -0.932792 1.452405 0.237683 -0.725717 -0.869770 -1.611124 0.812364 -0.848960 -0.162606 -1.904279 1.397821 1.036557 
3213 1.174044 0.300987 0.831520 1.155730 -0.315354 2.280089 1.662388 0.339808 0.986635 -0.333117 0.791146 1.988619 -1.855144 1.027162 0.355862 -0.300580 1.121408 -0.223764 1.476213 -0.850324 -0.478869 -1.807061 1.281181 0.759527 -0.872738 -1.579117 1.008282 1.167085 -0.446589 0.186146 -0.575870 -0.444613 0.036976 0.005478 -2.434136 -0.168060 -1.889286 -1.126670 -0.460645 0.028329 1.567914 -1.716049 0.273546 0.150385 1.447673 1.183513 -1.207481 -0.995152 2.245300 -0.200658 
6812 2.456179 -0.790685 -1.281886 -1.277449 0.025737 0.151631 0.633050 1.519069 0.187803 1.131640 1.112064 1.650707 2.912496 0.368188 -0.900178 0.279628 1.158303 -0.911944 1.674422 -0.709555 -1.509607 0.037976 -0.498497 -1.105049 -1.609843 0.596449 -0.367713 1.072071 1.207487 -0.028755 -0.872805 0.428852 -2.151473 0.769972 -1.199544 0.323644 0.276797 -0.779723 -0.866036 0.296261 -0.913990 -1.441808 -0.695298 -0.148056 1.022243 -1.590385 0.614934 -0.629719 0.547565 -0.351977 
1963 1.582955 0.762011 -1.793882 -0.774943 0.326036 0.636000 0.757719 -0.398495 1.121419 -1.138680 -1.205155 1.203623 0.663361 -0.109323 0.736452 -0.693399 0.519633 0.972489 1.431464 -1.160878 0.287536 -3.157484 -0.411288 -0.958298 -0.691489 -1.908683 -1.781382 -0.555833 3.017732 0.147990 -1.265494 -1.572716 -2.199596 0.307603 0.058650 0.774358 -1.331783 -0.242089 -1.354181 0.048565 -0.051497 -0.159259 -0.768462 0.262900 0.839982 -0.454995 0.901737 -0.749182 0.254959 1.744360 
7478 2.412853 -0.350927 -1.521684 -1.235250 -0.530685 -1.062596 1.715746 1.166226 1.288167 1.724817 0.886428 1.207721 -0.744538 0.081442 -2.091806 -0.114655 1.125065 -0.460395 0.008588 0.934638 -1.393592 -0.962750 0.401419 0.478769 1.030803 -1.032777 -0.469295 -0.851471 0.232036 0.403767 -0.243202 -1.363595 -2.395630 -0.899870 -0.511357 1.035856 -0.584079 -2.139837 0.441001 1.989673 0.278986 -0.770926 -1.112609 0.937120 1.371435 0.499593 -0.687394 -1.537186 -0.736188 -0.315129 
4666 1.172011 1.340170 0.056125 -1.911114 -1.526546 1.130483 1.290519 1.268429 1.064892 0.346157 -0.552401 1.278868 -1.915406 -0.175232 0.054978 0.362104 1.786623 0.030668 0.940448 -1.402636 -0.911763 -2.113140 -2.513286 0.050889 0.548373 0.293206 0.700888 1.315324 -1.309010 0.887015 -0.515210 -0.737749 -0.575027 1.763993 -1.480170 0.096154 -0.006542 -2.170850 0.720452 -0.140111 1.643056 -1.919485 -1.093726 0.056520 0.392309 -0.638551 -0.687342 -0.609204 -0.131743 -0.553275 
9500 1.405606 -0.862667 -1.136619 0.079956 -0.108828 0.596239 1.134976 0.328108 1.461083 0.276794 0.221765 2.601089 0.984390 -0.399287 -0.899415 0.921649 1.043091 0.451049 2.197479 -0.760193 -0.853131 0.917676 0.014510 1.351608 -0.978500 0.110042 -2.094249 1.568293 1.635045 1.033790 -0.754125 -1.226573 0.969774 0.466791 -1.874576 0.067909 0.091105 -0.175120 -0.980244 1.313400 -0.059999 -1.425209 -1.149373 -0.828805 1.858026 0.333578 -1.301289 -1.981513 -0.674961 1.042800 
2865 1.173847 0.054065 1.271642 -2.037998 -0.381504 -0.034304 -2.600013 0.115461 0.870167 -0.951920 -0.774381 2.227766 0.726038 -1.614478 0.485491 0.482873 1.486520 1.097319 1.376424 -0.113912 0.861166 -0.393285 -0.152773 -0.599214 -0.190861 -0.588491 -0.114977 -0.098097 -0.868504 -1.867000 -0.016828 -0.820326 -1.303195 0.242568 -1.103867 0.090151 -0.545451 -2.084098 -0.669670 1.741886 0.377051 -0.858428 -1.577258 -0.536512 1.647818 -0.465654 -1.332877 -2.585008 -0.135371 0.623330 
281 1.439586 -1.865379 0.096219 -0.091465 -1.066554 1.709419 -0.356991 -0.543341 0.148955 -1.000136 -0.058065 1.280323 -0.951742 -0.639771 0.475426 -0.535756 0.745353 0.238706 2.331539 -0.883475 1.143295 -1.685490 -0.287876 -0.303744 -0.967216 -0.254539 -0.459526 0.463651 -0.292126 0.263647 -0.084246 -0.485264 -1.915019 -0.008509 -1.029275 -0.470842 -0.846464 -0.805164 -0.936531 1.836344 0.640161 -0.830356 1.688283 -1.061889 1.550225 -0.414583 -1.714419 -3.367949 1.403139 1.410972 
3375 0.775317 -1.957006 -1.076643 -1.556953 1.108518 1.327389 2.071481 0.778928 3.227688 -1.600877 0.416261 1.402324 0.914788 0.279696 0.076034 0.604934 0.270320 0.559686 0.759357 -0.293497 0.264263 -1.227238 0.007464 1.081699 0.620259 -0.277651 -0.370495 1.236012 -0.736506 -0.966792 -1.125110 -0.757973 -1.917395 -0.256414 -0.717356 1.422327 -0.823684 -1.179918 -0.461927 -0.222459 -1.402241 0.476961 -1.318881 1.678757 0.160209 -1.017158 -0.491892 -0.670293 1.674973 2.924315 
4845 0.702442 -0.433995 1.898628 -1.706759 -0.983431 1.350516 1.497998 -0.938462 1.450591 0.660200 -1.520673 2.395683 -0.190806 0.893876 0.456898 -1.291293 1.266171 0.448977 2.469686 1.057685 -0.892404 -0.822464 -1.159529 0.189044 0.284407 1.062696 -2.495102 0.221184 0.268810 1.259550 -0.943092 0.683893 -0.847616 -0.143730 0.346675 -0.003474 -0.774660 -2.223438 0.331490 -0.721765 0.500129 -1.431290 -2.174397 -1.031109 0.590560 0.457942 1.721782 -0.784177 0.120514 -0.002295 
6170 1.917290 0.427907 0.223897 0.998464 -0.479326 -0.600112 1.901948 1.874500 1.183817 -1.447574 -0.482757 1.176163 0.701404 0.531860 0.634575 1.535795 0.817143 -0.533908 -0.259164 0.158575 -1.828933 -0.752030 -0.690436 0.218834 0.733327 -1.029631 -1.809499 0.625490 -1.254648 -0.643040 0.822142 -0.023902 -0.806015 1.208016 -2.471638 -1.598602 -2.286005 -0.710690 -0.307792 1.557400 0.571360 -2.094946 -0.804347 -0.228147 0.049110 -0.544107 0.903740 -1.944346 -0.245494 -0.034330 
8973 1.248649 -0.304942 -2.427379 -2.018158 -0.976020 -0.719968 0.108055 1.412840 1.508198 1.234086 0.724309 2.166229 2.181367 1.207685 0.344124 1.854891 0.582560 -0.748355 1.619448 0.713342 -1.283392 -1.060453 -0.115734 -2.379386 -0.187592 0.951599 -0.494844 1.549939 0.285702 1.066540 -0.944725 0.883726 -0.945492 1.332688 -1.022472 1.074770 -0.550651 -0.811201 1.011163 0.241333 -1.032759 -0.983499 -0.192885 0.177818 1.263728 -1.636150 -0.002274 -0.082412 0.596799 -0.667717 
7912 0.004338 -0.109093 -0.181188 -0.416338 -0.869953 1.492934 0.893152 0.365178 0.981004 -0.119193 -0.662773 1.563921 -0.327565 0.219707 0.104382 0.791008 2.199975 -0.129668 3.305905 -0.830296 -0.336780 -0.590149 1.876457 -0.855078 -2.176466 -1.618110 0.279115 0.935590 0.374231 0.115076 1.025310 0.090099 -0.997929 0.804516 -2.147254 -0.561616 -1.216083 -0.858867 -1.104001 -0.830082 0.531290 0.563893 -0.442630 -2.384537 0.204380 -1.380958 0.339603 -2.379091 -0.903924 0.332280 
1542 -0.376356 -0.046602 0.753817 -1.662063 -2.065734 1.535920 1.734131 0.795167 1.975007 -0.445591 1.033262 -0.377507 -1.004606 -0.020213 -0.328088 0.990613 -0.064661 0.308646 0.816927 -0.951119 0.255203 -0.225467 -0.723833 0.541258 0.691760 -0.074550 -2.765480 0.293181 -0.120683 0.499320 -0.904585 -0.521441 -2.399187 0.647704 -1.477662 0.265811 -2.201214 -0.553364 -0.758278 -0.330019 0.036532 0.132834 -0.336384 0.580304 1.375679 1.270770 -1.762493 -1.365028 3.217570 0.937075 
8483 2.030648 -3.070090 1.369411 -0.467186 0.883250 1.230684 -0.052668 1.117626 0.993598 -0.702653 -1.246628 1.176646 -1.279870 -0.435343 0.241693 -0.114346 1.459283 1.150985 -0.014003 -1.537897 -0.490550 -0.291206 -0.871156 0.005216 0.924824 -0.814532 0.090152 2.226538 -1.967341 -0.500585 0.910489 -1.975078 -1.043165 -0.085994 0.069802 1.043603 -2.267163 -1.111870 -0.519213 2.011609 1.012808 -0.265576 -0.896309 0.344178 0.676761 -0.835554 1.394152 -1.902350 1.256642 -0.340543 
5856 0.590879 -1.608530 -0.425328 0.215226 -2.015144 0.468656 1.913882 1.288801 1.404521 0.423251 0.100991 2.334980 -0.761036 0.376827 0.945422 1.362520 1.820040 -0.381738 1.472168 -0.090828 -0.070504 0.969238 -0.523655 -0.963073 -1.216670 0.266523 -1.520347 -1.298920 -0.301587 -0.800778 -0.392757 -0.525271 -2.395184 1.090476 1.087547 1.098093 -0.794031 -1.846029 0.778247 2.136218 -0.505697 -0.963691 -0.250074 -0.204961 1.500253 1.977102 0.115835 -0.095671 1.972628 -0.171462 
9942 0.841973 0.401565 0.488292 -0.290412 -1.850632 1.691339 0.601015 -0.003240 0.239402 0.855056 0.089643 1.645510 0.027545 0.770201 1.254895 -0.515380 1.191428 0.744418 1.772328 0.958841 -0.875236 1.619575 0.472537 1.100156 0.121571 -2.733473 -0.550058 0.770321 -2.541510 1.662029 -0.071619 1.664971 -0.833373 0.729754 -0.697085 -0.963510 -1.119421 0.074483 -0.726859 2.057281 1.017373 0.160183 -1.533878 1.904274 0.540247 0.198262 0.543958 -2.313822 1.274240 -0.264699 
9321 1.485843 0.996261 -0.806877 -2.652619 -0.541068 1.253266 1.458548 0.004337 1.607651 -0.194768 -1.778388 0.236207 1.449112 0.384669 1.237057 1.470271 0.620034 1.510953 0.089717 1.009627 -0.324956 -1.466918 -0.185025 0.381794 0.264979 -0.555898 -1.116809 0.106180 -0.747616 0.695170 -0.125169 0.275861 -2.014313 0.021138 -1.450293 0.978391 -0.694721 0.316034 1.347985 1.392184 1.419535 1.467391 -2.057057 0.141989 1.663769 1.568985 0.594061 -0.280166 0.631123 0.168853 
5654 0.725489 -0.239678 -1.952864 -1.803033 0.075957 2.003178 0.719830 0.827536 0.905868 -2.668572 0.312482 0.381443 -0.114900 0.170488 -0.015029 0.378048 0.710293 1.417826 0.903473 -1.945274 1.083468 0.073054 1.235744 -0.628452 0.731816 -0.074118 -0.021191 1.192281 0.194621 -0.131870 0.486303 -1.205191 -3.470906 2.054032 -0.418518 -0.315150 -0.868198 -1.135459 -0.296464 1.555918 1.871380 -0.357397 0.090417 1.199914 1.981927 0.701308 -0.064531 -0.786728 -1.143878 -0.270685 
877 -0.107077 -0.476699 0.831265 0.533699 0.810631 0.833543 1.136293 1.078805 1.359494 2.083334 1.939447 0.953686 0.629375 0.032708 0.715073 -0.252216 2.018895 -1.729724 1.937150 0.476279 0.968983 0.791520 -0.234140 -1.112375 -0.736247 0.173169 1.038739 0.060344 -0.217414 -0.141987 -0.133711 0.215078 -2.299844 -0.039634 -1.956004 0.020667 -0.380187 -1.290598 0.149442 0.966713 -0.238844 -0.457516 -0.925821 2.020215 1.375926 0.290082 -0.403423 -2.114942 0.845978 0.874349 
4500 2.424914 -0.010818 -0.132828 -2.131773 -1.194990 0.543459 0.274611 0.099923 1.728622 -0.359252 0.547619 0.476466 -0.180469 -1.336797 0.659343 -0.617818 1.549441 -1.279910 0.638559 -1.019813 -1.770698 0.022338 -0.225079 0.117679 -0.400356 -2.868466 -0.427192 1.314131 -0.546991 -1.279080 0.892079 -0.233226 -1.216671 1.204641 -1.633704 1.440877 -1.551103 0.262634 0.167658 0.284395 0.556776 1.148276 -1.546707 -0.887558 -0.071578 -0.188190 -0.751251 -0.587339 1.386444 -1.063192 
2106 0.840381 1.830012 0.851500 -1.042667 -1.322213 0.528276 0.450601 0.184847 -0.572708 0.885571 -0.207965 2.164461 0.554809 2.731286 -0.003651 -0.679561 1.083093 -0.100096 1.830215 -0.118594 1.776963 -0.885401 0.425727 0.682064 0.989816 -0.593883 -0.137185 0.166968 0.056577 0.641623 -1.805102 -2.550356 -0.787589 0.918171 -1.457834 0.972570 -0.897996 -0.450832 -0.256019 0.568875 -0.391936 -0.410150 -0.302024 0.943736 1.294532 0.061676 0.739105 -1.566300 1.802493 1.736799 
4043 0.374622 -1.123089 0.381011 -0.057182 -0.838444 0.135596 1.679537 0.599572 1.478029 0.245066 -0.343270 1.385718 1.627306 0.487623 0.554304 -0.037294 0.478695 3.258201 1.657129 -1.440485 -0.692356 -0.887834 -0.471579 0.887493 -1.165513 -1.064950 -1.620645 0.893331 -0.566613 -0.679655 0.303353 -0.872753 -1.971663 -1.804051 -0.825534 -0.796203 -1.902724 0.226384 -0.356218 0.873316 1.603076 0.100458 -1.738894 0.367399 -0.228108 -0.146412 -0.914638 -2.571544 0.086362 0.149276 
617 1.471771 -1.030044 -0.257305 -1.960691 -0.449315 2.619042 1.116719 1.161702 -1.059562 0.132133 -1.275829 2.031461 0.844642 0.257759 1.140052 -0.754626 0.317087 -0.787934 0.514331 0.755403 0.478103 -1.819895 -0.506019 -0.247699 0.097973 -0.192214 -1.148378 -0.303896 -0.475202 -0.849764 1.322784 -1.244108 -2.892119 1.625112 -2.119092 0.238869 0.317718 -0.199317 -0.609268 2.245799 -0.286448 -0.830797 0.301301 0.916346 1.456535 0.075242 -0.759607 1.178474 0.281018 0.687942 
6754 0.956240 0.977538 -0.174960 -2.657225 0.073484 -0.086932 1.923812 1.382800 -0.783958 -0.641107 -1.121088 0.791236 -0.887875 -0.708963 -0.413413 1.133911 0.219731 -0.345945 1.995593 1.217348 0.583327 -2.567714 -1.221409 -0.081248 1.625716 1.106858 0.393491 0.769271 -0.872140 -1.289329 0.108414 0.111852 -2.125205 -0.320398 0.239743 -1.167764 -1.243109 0.368905 -1.172806 1.245534 -0.058606 -2.540863 -1.681708 -0.109103 1.466356 0.286715 -0.629308 -2.083148 0.512857 0.353352 
5104 0.640062 -1.104420 -0.326632 -0.938415 0.278703 -1.853099 0.245407 1.796172 1.651173 -0.589066 -0.584090 1.320206 -0.401693 2.540786 0.537136 0.697601 0.812238 0.532335 0.446087 0.583736 0.085460 -0.235393 1.244878 -0.417858 -1.245711 0.486578 -0.895762 1.771216 -0.062659 1.095026 0.193990 -0.288256 -1.096426 2.308834 -0.790642 0.130385 -2.521656 -0.647151 -0.735769 -0.501310 1.504043 0.097879 -1.486835 -1.796896 2.047451 1.406621 0.030711 -2.130851 0.927108 -0.085132 
3730 0.730281 -0.973408 -0.513981 -2.155200 0.083400 0.792674 1.854510 -0.265947 2.306019 0.389681 -1.985421 1.735131 -0.408393 -1.499063 0.034769 0.255921 -1.409447 0.112613 0.909877 0.190530 -0.742791 0.098626 -0.434962 -1.276894 0.995094 -1.609682 -1.547146 1.358067 0.652111 -0.178099 -1.120710 -0.539530 -0.451690 0.443019 -2.216994 0.984804 0.635607 0.377367 -0.050629 1.007500 -0.348708 -2.193776 0.281014 -0.020686 1.675398 -0.765375 0.129047 -0.230329 1.349639 0.249990 
3733 0.835838 -0.779068 -1.437980 -1.953869 0.824971 1.325333 1.183357 -0.009288 -0.509771 -1.435377 0.572084 1.900667 -1.990982 0.880846 0.557935 -0.150257 1.853368 -1.279841 1.106574 -0.024009 -0.197698 -0.116532 0.983670 -1.092324 -0.434346 0.136946 0.115654 -0.350457 -0.354374 -0.286381 0.563960 -2.445154 0.123637 0.789487 0.534158 -0.460541 -1.497446 -0.218861 0.050910 2.389004 0.777418 -1.875957 -2.060930 1.395007 0.105744 0.713914 -0.510476 -1.673892 1.104849 -0.880037 
5332 0.514795 0.733333 -0.623966 -0.899909 -1.352208 0.340926 1.455987 1.430043 -0.050934 0.666426 0.810612 1.457176 0.210878 -0.382180 0.152950 0.430823 1.203050 -1.823712 1.994552 0.394653 -0.424376 -0.789212 1.275430 -1.057932 1.743046 0.029776 -0.335700 0.288617 -0.855316 1.432258 0.957430 -1.749304 -0.452439 1.062754 -0.627256 1.390482 -0.101167 1.172417 -0.901471 0.220150 1.097898 1.705173 -2.107817 0.834902 -0.923778 -0.084670 -1.294693 -2.869188 1.059200 0.164910 
1298 0.712486 1.332926 0.346697 -0.613763 1.568536 1.218410 2.246814 -0.171173 2.472811 0.235800 0.685454 2.503284 -0.544919 1.376488 0.508097 0.389173 0.062106 0.359287 1.931668 -0.823231 -1.017773 0.759925 0.127473 -1.620784 -0.336008 -0.012289 -0.175117 2.228434 0.026086 1.222368 0.115769 0.470853 0.472698 1.563021 -0.157815 -0.043139 -0.474459 0.026034 -1.174651 -0.199741 1.333919 -0.004470 -0.743498 -1.125301 0.463210 -0.380286 -0.042648 -1.636322 -0.704688 0.540530 
5265 1.885490 0.114698 -1.239607 -0.608125 0.095603 0.306073 0.351029 0.585827 0.924396 0.664281 0.465982 0.696491 0.108523 -0.674443 0.778129 -1.194730 2.058634 0.875270 2.533018 -0.930617 0.414264 -0.699131 0.731623 -1.610918 -0.631638 -1.179220 -0.564415 -0.396113 -2.304496 2.203032 -0.077842 -0.954627 -2.474535 -1.366802 0.229448 -0.592528 0.696252 -0.621999 -0.597310 0.459141 2.600942 -1.206047 -1.351223 0.910949 -0.133632 0.781918 0.217826 -1.075492 2.213460 0.365425 
1776 1.902214 0.948651 1.186540 -1.594922 -1.003716 -0.052230 1.397857 0.110018 1.497596 2.038389 -0.699578 0.168661 0.666024 1.216192 0.360289 0.265814 2.276028 -0.101303 0.078686 0.417136 -0.885767 0.315820 -1.164804 0.698321 -0.159238 -0.756677 -1.571119 -0.945001 -0.749665 -0.553800 -0.089761 -1.236264 -0.377434 2.058303 0.299387 0.686196 0.445456 0.135222 -0.268037 0.214827 1.380313 0.141186 -1.782322 0.280901 0.973415 -0.766230 -0.336537 -3.621974 0.104488 -0.104505 
8449 -0.034837 -1.533374 -0.210140 -1.925120 -0.354233 -0.364099 0.220307 -0.340274 3.500333 1.573487 0.279562 1.651279 0.219266 0.609847 -0.625313 1.126258 1.327983 -0.714596 2.026659 1.173584 1.390810 -0.789884 -0.184383 -0.509606 -1.457924 -2.029955 -2.082324 -0.140068 0.300908 -0.791307 1.040176 0.408470 0.203514 -0.207449 -1.012699 0.904520 0.150976 0.751886 -1.305149 1.327747 -1.062604 -1.043897 -1.241343 0.077629 2.143564 0.801844 0.499557 -0.899856 -0.009743 0.565213 
7310 0.641876 -0.261081 -0.262617 -4.051969 0.096327 0.871350 3.073684 -1.665681 -0.130492 -0.923231 1.228772 1.909333 -0.457805 1.044959 1.472906 1.320364 0.607241 -0.318310 1.165908 -0.928288 -0.289399 -0.980582 -0.289543 0.590463 -0.022927 0.000696 -0.679023 0.549116 0.650238 -0.534216 -1.070480 -0.588649 -1.811765 -0.414806 -0.923820 -0.761242 -1.337392 0.599356 -1.529168 0.903834 0.968407 0.578530 -1.271933 0.039313 -0.023692 -0.344083 -1.359332 0.200717 0.148584 0.587507 
1140 0.501113 0.940659 -1.248074 -1.580234 2.149706 0.546936 0.151229 0.506519 0.973413 -0.139194 0.128807 1.390256 -0.406390 1.123211 -0.149439 0.333693 1.825310 0.881392 2.454578 -1.358083 -0.238989 -2.097193 -0.263363 0.277496 -0.994458 -1.994557 -1.291127 1.506185 0.656391 1.341721 1.904652 -0.448129 -0.870641 1.981822 -0.166912 0.000478 0.182990 0.120267 1.046860 -0.031165 0.314363 -0.319391 -0.916084 -1.324354 1.614611 0.772705 1.035505 -0.439211 0.480606 -0.455645 
9906 1.105580 -0.367056 0.949806 -2.255946 -2.189038 0.701959 -0.084383 1.012702 0.912262 -0.056172 0.596480 1.133435 -0.226448 -1.101985 -0.446818 0.412286 0.843297 -0.862838 2.576833 0.236957 0.076303 0.221563 0.687675 -0.580850 0.425213 0.490719 1.192612 1.011168 1.415099 -0.135806 -0.150820 -1.305288 -1.075538 0.123964 -0.106269 -0.560549 -0.683605 0.265859 0.306727 1.086868 0.645326 -0.380011 0.353632 1.484749 3.072670 -1.879091 -0.415792 -3.063528 0.343979 0.754517 
9627 0.538368 1.438445 0.750981 -1.298442 0.439749 1.181664 2.211001 0.728830 0.774998 0.344886 1.073140 1.334199 0.525255 -0.107507 -0.453659 0.230378 0.052714 0.128564 1.661731 0.005350 -0.637625 -1.827582 -0.016341 -1.093983 -0.779539 -1.202960 -0.654081 0.295583 -1.203653 -0.243884 -0.831840 -0.244497 -2.240115 1.361389 -0.724959 -0.116839 0.881158 0.302622 -1.247983 0.139303 -0.311230 -2.109132 -3.605608 -1.096840 -0.808471 -0.690855 -0.741879 -0.336799 0.249314 0.614607 
9595 2.349752 -0.773866 0.174811 -1.241100 -1.192424 1.836461 0.474444 0.506598 -0.510553 -0.055212 -0.928217 3.767232 -1.151188 0.882533 0.984452 -0.375863 -0.012940 -0.734184 1.493482 -0.721375 -1.344305 -0.228547 -0.655532 1.316728 -0.837621 0.151718 -1.344583 -1.831408 0.777340 1.483796 -0.189568 0.057553 -1.149861 -0.740708 0.076367 0.520934 -0.816078 -0.251644 -0.372901 -0.012945 -0.871466 -0.649062 -2.277147 -1.098693 -0.175676 -0.304054 0.393201 -0.824278 1.308856 1.736889 
8446 1.066221 -2.529596 1.996624 -0.918276 -1.398845 0.743502 0.728666 0.557676 1.678219 1.634160 -1.007037 0.437197 -0.363738 1.697437 1.115680 0.527082 0.858949 0.464521 1.224221 0.343227 -0.700465 -0.370124 0.340098 -1.018894 1.657650 -0.849898 0.721216 0.628905 -0.906410 0.850417 -0.240622 1.285648 -0.645144 0.900684 -0.008633 0.457225 -0.508455 -1.705188 1.358619 3.101519 1.099216 -0.371249 -0.880964 -1.113751 1.293105 1.109282 0.112802 -1.775996 0.696427 1.527771 
2091 0.214256 -0.490127 -1.600074 -1.957370 0.113733 1.073061 0.197026 0.829966 0.518625 0.609304 1.793815 1.787125 -0.465623 -0.272960 -0.022291 0.064539 0.060109 0.246093 2.716927 -0.210269 0.306435 -0.613815 0.259255 -1.318236 -0.043872 1.473790 -1.500812 -1.071974 0.146700 0.045541 1.070569 -0.633798 0.287747 -0.956924 -1.138296 0.861093 -2.110814 1.216056 0.110437 1.503885 1.580568 0.614497 -0.068402 -0.276578 0.814782 0.712676 0.586774 -3.429989 1.452536 -0.716356 
4992 0.748311 -0.627909 0.782710 -1.367090 -0.910674 -0.341681 2.222784 1.051869 0.998826 -1.712649 -0.698187 2.305130 0.210252 -1.237846 0.531346 0.751395 0.060909 0.243731 1.819014 -0.063208 -0.315248 -0.420849 -0.206449 -1.006974 -0.852877 -0.842261 -0.723436 0.699848 1.190306 -1.118427 0.635624 1.462885 -0.775189 -0.564310 -1.594108 1.814254 -0.910567 2.099546 0.199134 0.918833 1.865391 1.220511 -0.523368 -1.012241 0.539157 -0.240889 1.188489 -1.162145 1.485300 0.153956 
8228 2.378047 -0.478458 -0.394367 -0.020536 1.633371 1.121569 0.720848 0.379101 0.750732 0.080258 0.206600 2.505985 0.490301 -0.278334 -0.724514 0.767450 2.124151 1.643348 1.451415 -0.059292 -1.574018 1.912911 0.348102 -0.674202 -1.287850 -0.797722 -0.625059 0.296105 -0.274591 1.013586 -0.871075 -1.368469 -0.417576 0.249439 -0.263354 -0.118832 -0.744412 0.356609 -1.236562 0.678745 0.468274 -1.283961 -0.847319 -1.988767 1.171262 0.646500 -1.385069 -2.289451 0.786884 0.692986 
5431 0.978810 1.367628 -0.407485 -0.193862 0.002275 1.818740 2.124393 0.460303 0.782770 0.469684 0.086580 1.569839 1.290489 1.111917 1.442580 2.336336 1.356278 -0.155463 0.434521 1.603282 0.796078 -3.517448 -0.369813 -0.151577 -0.265987 -0.473028 -1.529948 1.101766 2.007710 -0.101953 -0.709053 -0.449517 -0.634732 -0.675872 -1.086012 0.603484 -1.096181 -0.953234 -1.580799 -0.646503 1.017923 -0.092135 -1.073796 1.968796 0.109947 -0.747527 0.038021 -1.414222 0.873780 0.869562 
4033 1.404904 -0.498030 -0.224625 -1.567574 0.436587 0.971347 -0.548549 -0.299204 1.155465 -0.334986 0.505787 -0.246731 1.934460 -0.940291 0.021345 1.051619 0.796304 -0.538174 2.315860 1.226826 -0.015857 -1.639035 0.383409 -0.475842 0.598926 -1.555566 -0.997683 0.304219 0.323109 1.636086 1.188330 1.504347 -0.808872 1.285042 -0.167309 0.993647 -1.005089 -0.590341 -0.219129 0.797736 2.214767 -1.199580 -0.394943 -0.645101 1.474117 -0.885023 0.258909 -0.875002 0.873657 1.586996 
6539 0.252843 -0.638827 0.576339 -1.774164 -0.668825 1.174305 0.505228 -1.357682 -0.124581 -0.325871 1.996846 0.761936 -1.003959 0.389755 0.691318 -0.396586 1.470026 -0.426003 2.093776 0.333257 -0.559390 -0.663230 0.309107 1.998100 0.991049 -0.915588 -0.505683 -0.442537 1.679034 1.434597 -0.203657 -0.487753 -1.206687 -0.353415 -0.413392 -0.115234 -1.060517 -2.515115 0.527113 1.337780 -1.067040 -1.020947 -0.717587 1.365213 1.082571 -0.694376 -0.492285 -3.604543 2.290240 1.218204 
683 2.206772 -1.083399 0.551287 0.392786 -0.743032 0.408059 -0.382592 -0.005044 1.127324 -0.141147 0.445627 1.493641 -0.682076 0.739813 0.238861 1.782050 0.367306 0.349280 1.801580 -1.204169 -1.056889 0.345630 -2.211613 -0.693719 0.345090 -1.850508 -1.083971 1.911454 0.072933 0.772237 -0.869139 0.228591 -1.433648 0.479373 -0.556684 1.916682 -0.982217 -0.579560 -1.022245 0.890373 1.344939 2.067015 -0.805506 1.050857 0.081976 -0.912090 -0.904445 -1.383084 1.125013 1.638638 
7646 0.606587 -1.498202 -0.101401 0.242916 -1.580142 0.229507 1.477944 1.308629 1.312575 0.653315 0.553583 2.233347 -0.644153 0.394134 1.034489 0.961950 1.171180 -0.158127 1.286560 -0.559431 -0.191519 1.294553 -0.966330 -1.173169 -1.074827 0.324654 -1.800164 -1.196937 -0.341057 -0.228206 0.172759 -0.913493 -2.809094 1.061795 1.149738 1.024403 -0.857043 -1.529010 0.601491 1.826052 -0.443977 -0.729596 -0.441514 -0.253628 1.342893 1.962300 -0.412277 -0.508085 2.187776 -0.160817 
9254 2.761954 1.098838 1.457885 -0.460514 -1.774264 -0.495626 1.028356 1.175755 1.303183 0.984626 -0.921139 2.127414 0.617612 -0.137886 0.667515 1.064955 -0.112381 0.330612 1.596896 0.186747 0.433564 0.001644 1.822478 0.227716 -0.277553 1.942849 -1.180302 -1.098402 0.226495 1.284514 -0.978197 -0.840255 -2.997130 1.585248 -0.824305 0.530634 -1.432491 -0.848266 -0.743491 1.301630 1.965512 1.221086 0.575409 -1.667326 0.580193 0.086549 0.321736 -1.779384 0.274931 0.647697 
4130 0.587844 -1.344681 -0.853509 -1.978135 0.023473 0.969494 1.668259 -0.179836 2.145196 0.263365 -2.028717 1.410625 -0.708402 -0.877554 -0.043887 0.567634 -0.823988 0.582815 1.228461 -0.021594 -0.449982 0.503760 -0.060084 -1.337170 0.515325 -1.510047 -1.656765 1.793801 0.603009 0.271108 -0.669032 -0.714604 -0.286739 0.630936 -2.166275 1.080089 0.852284 0.440409 0.373740 1.319086 -0.036227 -1.975430 -0.370579 0.448086 1.266801 -0.808533 0.744160 -0.830274 1.924833 0.888439 
4803 2.593611 -1.385057 0.154180 -0.719477 -0.229256 0.053794 0.770316 1.129072 0.657594 -0.323754 -0.041289 1.333949 0.708679 1.594427 1.344730 0.206414 -1.063684 0.560355 1.740853 -0.858023 0.473736 0.183464 0.874773 -2.974866 0.093715 0.052668 0.690492 2.332114 0.589998 -0.073114 0.574980 -0.490545 -1.855666 1.547455 -1.379739 0.816991 0.219921 -0.139760 0.882286 0.076587 -0.780601 -1.860842 -0.734013 -0.334285 0.626765 -0.576142 1.359866 -1.904701 -0.345362 0.507761 
7942 2.011695 -0.422535 0.002407 -0.925588 0.428746 0.874411 -0.347970 0.587691 2.100374 -0.694888 0.047669 1.061037 0.209505 0.440559 1.087756 1.468268 0.194289 0.786807 -0.230262 -0.270250 -0.630308 -1.208706 1.028896 -0.154335 -0.906869 0.796543 -0.920636 1.378902 -0.058079 0.974419 -0.914711 -0.168785 -0.631963 0.681960 -3.482241 -0.641113 -2.172468 -2.100836 -0.468937 0.267396 1.910319 -0.109514 -2.565174 0.792364 -0.661834 -1.066130 0.536086 -0.990301 0.780872 -1.036387 
2500 0.639643 0.075541 -0.167545 -0.336198 0.088055 -0.119395 2.117620 1.693837 -0.526670 -0.821352 -0.986591 1.580398 0.906179 0.577780 0.214128 1.614934 0.117490 0.377205 2.914086 1.888958 0.456903 -0.881026 0.984820 -0.703335 -0.069023 0.938348 0.016029 0.617068 -0.451646 -1.689476 0.895515 -1.021852 -1.302878 0.060621 -0.153595 -0.448953 0.056935 0.191798 -0.754294 0.194260 0.070490 -1.188642 -1.205124 -0.520373 1.835869 -1.116764 -0.557569 -2.944180 0.696463 -0.764229 
3019 0.191654 -0.988618 -0.303121 -0.599608 0.514267 1.101192 -0.741407 -0.633060 1.450831 1.412334 -0.784805 2.083691 0.073854 -0.303215 0.875469 1.778952 1.371614 -0.280839 1.993137 -0.056556 -0.953465 -0.556439 1.148418 -2.413738 0.404847 0.675944 -1.997297 -0.918547 0.365493 0.834635 0.052574 0.503817 -2.200843 0.597321 -1.420831 -1.429283 0.446165 -0.743380 -0.570038 1.014190 -0.776634 0.532855 -2.374035 0.184013 -1.032311 -0.580349 -0.305744 -1.273766 -0.400537 0.168940 
38 1.205858 1.130280 -0.073379 -1.359554 -0.058115 0.414249 0.837100 1.032834 1.371470 0.945111 0.487564 0.758513 -0.735171 2.227943 -0.048814 0.020552 -0.057076 -0.073249 1.148943 1.239415 -1.945278 -0.889722 -0.896711 0.487548 -0.706116 -0.519249 -0.158518 2.299069 -0.114325 -0.540255 0.846180 -0.327871 -1.034701 1.255144 -0.634208 -0.295959 -1.468085 -0.015313 -2.192522 0.680483 -0.966149 -0.440536 -0.163281 2.718575 1.219889 -0.272921 1.065644 -2.461875 -0.659396 -0.668544 
6007 1.077413 -0.474399 0.602814 -1.027531 -0.931262 0.970594 1.481405 0.147552 1.752177 1.199796 -0.817990 1.558501 -2.324225 0.576233 -1.276533 1.821412 0.427809 0.401923 1.524372 0.542193 -0.001062 -1.069985 0.994210 0.955868 -0.731780 -0.577335 -0.516759 1.788004 -1.305409 0.569532 -1.182709 0.497741 -1.442586 1.764016 -0.356665 0.971111 -0.049564 -1.017935 -2.050280 1.131887 1.353030 -2.563609 -1.126106 0.198820 -0.235919 -2.014323 0.070133 -1.342907 0.170663 -0.290942 
784 1.522861 1.590796 -1.598602 -0.033108 -0.182056 1.288577 0.626848 -0.474204 0.578954 -0.795484 -0.875533 1.223990 1.086351 0.105824 1.449028 -1.351732 0.866937 1.255819 1.774717 -1.093310 -0.139436 -2.040622 0.145198 -0.078289 -0.694788 -1.885172 -2.212076 -0.369901 2.261858 0.595795 -1.563629 -0.901530 -2.319860 0.129253 0.288983 0.484051 -1.677003 -0.084706 -1.476429 0.649602 0.235089 0.065435 -1.218034 0.288468 0.404969 0.214591 0.723728 -0.909506 0.254255 1.569939 
5137 0.169205 -0.158941 -0.549020 -1.432659 -0.138619 1.548103 1.780493 1.792619 1.268524 0.295719 0.440652 0.937204 -0.319389 0.342467 -0.806636 -0.366745 -0.331046 0.205223 -0.427849 0.656966 -1.518736 0.393052 -0.806643 -0.371719 -0.260305 0.091726 -0.449504 1.497286 -0.133135 0.492727 -0.220132 -0.513722 -2.210674 1.083626 -0.921019 0.476416 0.307127 -1.801700 1.967919 0.790247 -0.668714 -1.436952 -2.005100 0.024173 2.519508 -1.095811 0.595468 -1.105234 1.455381 0.242405 
3800 -0.112319 -1.021933 -1.497020 -0.756702 0.444874 0.888974 1.743497 -0.539016 1.151172 0.359934 -2.696402 1.684281 0.229151 0.587925 0.382550 1.525909 0.302605 -0.653003 1.788412 0.267825 -1.248873 1.330673 1.073380 -0.313301 0.234892 -1.819689 -1.861472 1.765458 0.023151 0.395263 0.216554 -0.811177 -0.125680 0.693711 -1.932900 0.722835 1.295862 -0.294653 0.650558 1.082556 -0.096519 -1.025124 -0.538319 -0.077096 0.489567 -1.086933 0.913299 -1.478608 2.096507 0.966052 
5379 1.970891 0.788652 -0.577883 -1.225852 1.084280 0.430324 2.990530 -1.337050 -0.245234 0.027717 1.490863 0.356731 -1.040083 0.407603 0.078964 1.166819 1.217981 0.724463 1.254690 -1.450644 -0.870695 -0.453377 1.039666 -0.346959 0.241663 1.241759 0.053187 -0.398245 0.510592 0.478934 0.921622 0.251220 -1.126890 -0.449057 -0.273296 0.439684 0.004988 -0.408000 0.222899 1.110176 0.944620 -0.541733 -2.045956 -0.222967 -0.222665 -0.377250 -0.489730 -2.177565 3.203821 0.718180 
6821 0.752351 -1.063150 -0.880205 -1.634341 -1.480157 2.323707 0.582065 1.235345 1.240990 0.228657 0.414584 3.469834 -0.573313 -0.002008 0.932064 1.671320 -0.530041 2.173227 1.235614 1.407953 -0.877544 -1.535844 -0.009036 -0.109742 -1.217927 -0.023535 -1.417249 0.509601 -0.677726 -0.683040 -0.967765 1.467914 -0.017492 0.939144 0.792684 -0.100850 -0.280191 0.531238 -1.171393 1.549891 0.315065 0.732718 0.599891 -0.027593 0.721076 -0.680410 -0.355504 -1.307621 0.422556 -0.154562 
1796 0.888731 0.947000 1.160380 -2.398250 0.643849 -0.871469 0.424538 0.264954 2.246982 -0.196764 -0.534837 1.127901 1.508840 -0.077157 0.020662 1.162670 1.106067 0.893163 0.551125 -0.235009 -0.465788 -0.086444 0.019108 -0.008279 -0.182607 -0.986220 0.127483 -0.141886 -0.052218 -2.142742 1.944191 -0.884652 -0.527895 1.059359 -1.266453 0.171759 -0.950547 -1.665124 -0.961103 0.977379 1.509768 -2.075046 -0.898686 -1.081610 0.730592 -1.371445 0.485808 -2.006341 0.504769 0.517895 
8983 1.859766 -0.287598 0.494463 -1.607112 0.473993 -1.138162 1.622689 1.579117 0.583294 0.443513 1.194579 2.459337 0.542149 1.295376 -1.087776 2.335215 -0.787259 0.324580 1.948328 -0.415533 -2.051032 0.287093 -0.830039 0.437789 -0.088692 0.378148 -1.575153 0.523040 -0.599093 0.875569 -1.329707 0.567541 -0.814731 0.417244 0.337332 1.655067 0.395274 0.033376 1.159917 -0.785286 -0.310113 -1.685173 -0.506929 0.272632 0.750227 0.244174 -0.179858 -1.961485 2.982577 0.486361 
7056 2.276704 -1.890442 -0.353218 -1.888056 1.989528 0.734949 1.986201 1.729933 2.398601 -1.097737 -0.598456 1.614601 1.299695 1.180719 0.281874 0.657165 1.026257 1.245279 0.043802 0.994366 -0.745985 -0.416340 0.071638 1.184452 0.250957 0.311476 -0.294389 0.948176 -1.513867 -0.424035 -0.743084 -0.994180 -1.979396 0.344647 -0.702637 1.096920 -0.266236 -1.719869 -0.068297 -0.393905 -0.347608 0.389435 -0.961421 0.553187 0.418276 -0.457792 1.452621 -0.398138 1.116436 2.002918 
7684 -0.164734 -0.534846 -0.132128 -0.735993 -0.375167 1.134177 1.268527 -0.151395 -1.353927 -0.275999 0.074360 1.063130 -0.097611 1.528829 1.968480 1.250095 0.269477 -0.030834 1.465800 -0.700353 -0.897274 -1.271421 0.943757 -0.968996 -1.465338 -2.055948 -0.717542 -0.523325 -0.251804 -0.269980 1.462264 0.636245 -0.708695 -0.328065 -1.159873 1.184012 0.568920 -1.226049 0.520038 4.059766 0.299299 -0.640432 -0.508668 0.335755 0.868960 -0.872128 0.008826 -2.267802 0.870035 0.299075 
6524 0.316651 -0.067613 -1.427176 -1.906523 0.107941 0.301956 2.238379 1.641657 0.648678 0.540781 1.118546 0.111281 0.571826 -1.123944 0.211076 1.138264 1.630229 0.278113 0.755456 -0.661242 -1.468034 -0.770918 0.778698 -0.551020 0.310195 -0.400708 1.439715 -0.858583 -0.306850 1.549816 1.560325 -1.419398 -1.516854 -0.200465 -1.088815 -0.981639 -1.933186 0.804025 -1.101949 1.318584 -1.438158 -1.512310 -1.311562 1.101853 1.459391 -1.776410 -0.589853 -0.650183 0.894270 0.479113 
843 0.944553 -0.329909 0.146398 -1.975487 -0.118347 0.667451 1.780888 -0.202968 2.419539 0.185676 -1.500433 1.727953 -0.060544 -1.517401 0.866521 -0.143716 -1.119033 -0.389102 0.726850 0.570712 -1.214286 -0.668832 -0.809740 -1.022726 1.517651 -1.830599 -1.489747 0.554663 0.019213 -0.797510 -1.661747 -0.189237 -0.597412 -0.102782 -2.063820 0.349346 0.275632 -0.450714 -0.392858 0.481419 -0.876063 -1.720790 0.864201 -0.771655 1.866542 -0.427557 -0.509993 -0.512876 0.819568 -0.194456 
259 -0.036623 -0.244019 0.228782 -0.754575 -0.668507 1.456405 -0.453812 0.008258 0.255277 -0.343468 -0.486846 2.690923 0.314667 0.912442 -0.759634 -0.805172 1.665952 -1.212297 -0.155129 -0.313866 -0.131597 -0.514217 0.244470 0.946186 0.784745 -2.152097 -1.798491 0.948965 0.876352 0.885020 -0.444897 -0.989297 -1.183547 1.833353 -0.589158 0.348790 0.337126 -0.432407 -1.054505 1.133247 -0.149856 -1.565231 -2.118620 0.670004 1.868504 -1.116948 -0.009931 -1.945605 -0.141494 1.223964 
9275 1.303442 -0.180409 -1.350884 -1.619496 -1.052410 -1.361440 0.683346 0.497954 1.823687 -1.444166 0.998454 1.814359 -1.001419 0.177467 2.124337 0.623139 1.269585 0.661382 0.798538 -0.242819 -1.580981 -0.591672 0.135851 -0.981634 1.266077 -1.782979 -1.886668 0.232592 0.427190 0.308681 0.282700 -0.494808 -1.851112 0.125053 0.561253 0.160782 1.536082 -1.265739 0.312839 1.084893 0.716406 0.255764 -2.380269 0.131800 0.702796 -1.152343 0.246990 -0.103897 0.117161 1.330807 
7716 0.648520 1.472953 0.540360 -1.292427 0.022585 1.642611 2.124090 0.544228 0.755098 0.587649 1.006497 1.200649 0.617876 0.084243 -0.215000 0.606079 0.334449 0.021956 1.841336 0.029272 -0.616927 -1.493730 -0.006293 -1.317242 -0.807599 -0.955937 -0.665501 0.412216 -1.183387 -0.242669 -1.121221 0.099528 -2.010549 1.582476 -0.877769 0.015513 0.947975 0.254445 -1.220584 0.221538 -0.014645 -2.132077 -3.949727 -0.850274 -1.038744 -0.740871 -0.813026 -0.423526 -0.066505 0.420426 
8262 1.565692 -0.622599 -2.347256 -1.813032 0.171445 -0.387583 0.697642 1.533725 0.788780 1.224213 0.769747 1.659300 -1.448485 0.719356 -1.180534 -0.159371 0.281707 0.413866 -0.684617 0.461984 -1.665722 -1.040644 -0.652976 -0.273687 -0.362901 -0.777011 -2.028582 0.072090 1.002770 0.703426 -0.513860 -1.341165 -2.280935 -1.160246 -0.619398 1.080345 -0.823911 -1.909800 1.789951 1.556702 -0.575040 -1.102502 -0.962708 0.164008 1.918524 -0.346300 -0.734337 -1.975567 -0.182109 -0.291574 
7862 -0.030147 0.600641 0.410459 -0.614035 -0.310348 1.016826 1.705151 0.248009 0.973849 0.301157 0.703824 1.473604 0.447253 0.174081 -0.248531 1.269303 2.321723 -0.620050 2.996401 -0.458192 -0.154620 -1.029455 2.003778 -0.719495 -0.924824 -1.127405 -0.390946 -0.398261 0.383264 -1.032177 1.054413 0.387505 -1.834186 2.371931 -1.810352 -0.835089 -0.667953 -0.772487 0.174928 -0.159667 0.937929 0.373955 -0.824546 -2.694655 -0.636283 -0.206298 0.834717 -1.748246 0.005210 0.314076 
2674 1.180394 1.387513 -0.489627 -1.302816 0.222576 0.935321 0.674506 -0.122496 1.022682 0.381575 0.143096 1.616500 -0.852184 0.672695 -0.486798 0.670787 0.206910 0.200842 2.025265 0.646076 -1.364887 -0.476384 -0.444972 0.821110 0.018558 0.046154 -0.619176 2.692347 0.486671 0.063215 1.798511 0.270847 -1.169350 -0.160407 -0.568518 -0.227931 -1.053544 1.034604 -0.911476 0.749194 -1.526404 -0.234880 -0.239525 2.290838 0.318822 -1.273317 0.273943 -1.908166 -0.026333 -0.529909 
748 0.639832 1.487030 -0.161696 -0.221180 -0.919516 0.512152 3.070124 -0.413771 2.858748 0.663217 0.568774 1.117283 -0.598283 -0.226149 -1.113760 -1.154628 0.612771 0.754291 3.053193 -0.905935 -0.723580 -1.879603 1.117170 0.095964 0.906258 -0.777276 -1.104006 0.575507 1.410815 0.263879 -0.155229 0.829075 -1.073577 0.514741 0.557594 1.064871 -0.948509 -1.117692 0.218349 1.201828 -0.381888 0.261862 0.251792 0.181683 -0.293194 -0.819952 -0.102365 -0.574594 1.930459 -0.130623 
1876 2.183960 1.025201 -1.009531 -0.006749 -1.390111 1.736469 1.255438 0.540895 2.131502 1.689118 -0.791444 1.458317 -0.586638 0.023845 0.378857 -2.206142 -0.222042 -0.649323 2.003874 1.193632 0.196131 0.683734 0.763950 -1.469861 -0.045989 -0.309151 0.554808 -0.327030 0.875010 0.428700 -0.094512 0.506631 -0.827523 0.550309 -1.278147 1.003296 -1.005373 0.172964 -1.785154 0.443658 1.319378 0.479318 -0.475962 0.432922 -0.598651 -1.041899 0.241014 -2.396075 0.036939 1.548418 
9349 0.444468 -0.086097 -1.157656 -0.982513 -1.204789 0.535847 0.521095 2.049258 -0.216666 -0.394213 -0.382408 1.769727 0.429286 -0.312370 -0.249968 0.825448 0.730246 -1.251641 1.754928 0.091534 -0.946403 -0.495011 0.243354 -1.461022 1.565561 -0.679395 -0.364141 -0.628589 -0.666835 1.750819 0.866999 -0.224589 -0.223385 1.029110 -1.280735 0.826490 -0.252737 1.046720 -1.812732 0.743760 0.774286 1.999942 -2.546112 0.967292 -0.933373 -0.242752 0.987348 -2.567345 0.004309 0.549025 
6561 -0.704446 0.282508 -0.822113 -1.505304 -0.852486 0.745889 2.746498 0.985902 -0.155906 1.164752 -0.351434 0.420713 0.781141 1.726373 0.765002 2.014030 1.112990 0.247410 1.273458 -0.548526 -0.016396 1.279572 0.454516 -0.815446 0.346647 -0.406453 -0.437936 1.529681 0.463088 -0.285432 -0.072073 -1.860086 -1.031447 -2.169551 -0.487018 -1.100762 -1.375178 -0.862947 -0.230395 0.761081 1.915000 -0.060345 -1.547549 1.358483 1.968101 -0.273658 -0.830597 -1.010669 0.415052 1.952867 
1197 2.859747 -0.686563 0.533685 -0.635053 -0.345769 2.290733 0.010752 -1.025190 1.288265 0.476753 1.262772 1.529408 -0.610550 0.903878 -0.066651 -0.109735 0.489372 -1.954460 2.584748 0.321236 -0.347840 -0.785799 0.321738 -0.441280 0.901815 0.530186 -1.232580 1.936369 -0.800646 1.030051 -1.796567 0.196095 -1.463341 -0.689994 -1.060122 0.205505 0.177283 0.967292 -0.287280 -0.158062 1.245006 -1.031570 0.905939 -0.882027 1.600941 1.065035 -0.382824 -1.286092 0.451736 -0.488317 
8903 0.351844 -0.153552 -0.802276 -0.373583 -0.478409 0.538924 0.971635 1.608762 0.649189 -0.163511 0.123915 0.531919 -0.655921 2.026706 1.062729 1.274478 0.317879 1.283565 0.849384 1.954074 -0.509412 -1.136134 1.171000 -1.451346 1.847983 -1.977226 -1.414080 1.223967 -0.981471 0.674379 0.101908 1.452313 -2.261566 -0.280732 -0.199482 0.447126 -0.511028 -0.058055 -1.691381 -0.407270 1.472500 -1.542273 -1.158393 1.881775 0.438291 -1.672556 1.392465 -0.259658 1.539867 0.075706 
7210 1.701397 -0.888638 1.220892 -0.849661 -0.962672 0.312577 1.732373 0.687469 1.267223 1.071885 1.335829 1.352122 0.681331 1.137169 1.902725 -0.669771 -0.079877 0.326755 1.390988 1.246692 0.929659 -0.623678 -0.806723 1.323578 -0.423367 -0.087960 0.829969 1.356244 0.651523 -0.405021 0.623287 -0.119636 0.027429 0.051782 0.175840 0.350798 -0.674562 -1.891059 -1.055773 1.808289 1.941299 -1.323398 0.056195 0.243747 2.104475 0.678076 1.291933 -2.121492 -0.150773 0.119627 
4650 -0.306887 -1.780642 0.352087 -3.564697 0.187666 0.279544 1.431760 0.300169 -0.496325 1.451766 0.087572 2.070030 -0.153103 -0.205052 -0.589673 1.094848 -0.688559 0.252732 1.682922 -0.380257 -0.884524 -1.293647 -0.157854 1.398367 0.915144 -1.702916 -0.618965 -1.861971 0.574540 0.773513 0.047003 0.282164 -1.122346 0.294289 -1.359562 0.840796 0.160999 0.331378 -0.723458 -0.932557 0.368943 -0.137885 -1.184179 0.186167 1.928728 -0.945930 0.490512 -1.946972 0.246273 -0.066088 
1221 2.491144 -1.029609 -0.611068 -0.422349 0.922170 1.290890 2.046326 -0.098496 1.241202 -1.229161 0.393319 1.706059 0.248079 -1.883868 -0.105744 0.729434 -0.172985 0.132573 1.290167 -0.372134 -1.978746 -1.285820 0.726216 -1.539601 0.695666 -1.065487 -1.077073 -0.894395 0.131036 1.375811 -0.246181 1.114548 0.111971 0.795523 -1.084027 0.231490 0.352279 -0.751081 -1.035265 0.708681 -0.027535 -0.144025 -1.100554 1.083162 2.736509 -1.049764 -0.341830 0.231186 0.001677 -0.450825 
335 0.947298 1.485220 0.108641 -0.246478 -0.740540 1.909588 1.854488 -0.434432 0.759167 1.233176 0.830107 0.854696 0.951209 0.340628 0.073318 1.477628 1.195651 0.243421 1.653656 0.034229 -0.982319 -0.308123 0.061247 -0.965216 -0.554807 -0.465283 -0.861193 1.246428 -1.521295 -0.307113 -1.304857 0.340099 -1.627726 1.502697 -1.489826 0.503265 -0.085982 0.450692 -0.271264 0.555557 0.529721 -1.645798 -3.936041 -0.130027 -1.144654 -0.869007 -0.652843 -0.525832 -0.742335 -0.221484 
9013 2.564473 0.531143 0.377587 -1.267490 -0.511848 0.258284 -0.062169 1.435612 0.998648 0.155084 -1.084950 1.594088 0.747631 1.619479 1.972297 -0.615530 1.343834 0.605790 -0.113026 -0.792834 -0.357828 -0.908417 1.038227 -0.443517 -0.045373 -0.592304 -1.303838 -0.783741 1.524375 -0.183533 -0.156008 0.129108 -3.158070 -0.379784 -1.593287 0.906310 -0.065344 -0.003798 0.571656 0.985210 1.950675 0.414539 -0.384996 0.704334 -0.080108 1.305797 0.185598 -0.665281 -0.168505 -0.435260 
2542 0.017111 -1.565386 -0.317328 -1.756814 -0.427570 -0.506228 0.083181 0.056061 3.191495 1.117104 0.117527 1.760105 -0.061116 1.254398 -0.583226 1.710656 1.183686 -0.271651 1.865748 1.046445 1.573862 -0.768212 0.017022 -0.406151 -1.273316 -2.258940 -1.889131 -0.001697 0.354377 -0.678125 1.263337 0.704201 0.251610 0.276812 -0.671003 0.714234 0.131191 0.816464 -1.590931 0.610161 -0.533226 -1.084033 -0.947434 0.730988 2.312064 0.499241 0.807748 -1.087474 0.298482 0.644229 
8700 1.348911 -2.486195 1.433651 -1.465338 -0.691180 0.390602 0.558556 0.254271 1.424022 1.249902 -0.379525 0.823099 -0.977860 0.872810 0.462351 -0.077974 0.204726 1.497924 0.815466 0.302658 -0.990714 -1.029402 -0.124653 -1.426320 1.439731 -0.108116 1.011970 0.763523 -0.710669 1.150112 -0.435125 0.547586 -1.026247 0.912031 0.682042 0.403660 -0.517273 -0.981500 1.301769 1.606926 1.005311 -0.070881 -1.488030 -0.784247 1.197706 0.554048 0.032355 -1.302968 0.709809 1.890882 
8554 0.719419 -0.235528 0.140053 -1.749879 0.673578 0.701936 0.304168 1.186817 1.307118 0.620546 -0.137320 0.769376 1.769685 1.272046 1.090145 1.342333 2.910904 0.288702 1.540165 -0.228704 -0.038704 -0.434736 1.474467 -1.347295 1.637686 0.187185 -0.832416 0.728504 0.712321 -0.275008 -0.894188 -1.311684 -0.234957 1.900041 -0.201266 -2.369017 -1.559895 -0.011586 -0.043598 0.215099 1.009485 -0.516825 1.196785 -0.137475 0.466695 -0.023046 0.979474 -1.988567 0.998684 -1.068662 
9978 2.277376 0.459321 -0.789335 -0.940539 0.260166 0.590110 1.499372 0.345626 2.433916 0.655090 0.308069 0.757371 2.266951 -0.255165 0.841051 0.710842 1.619675 0.357813 2.193363 0.622352 0.683458 -0.888902 -0.029507 -0.161371 -0.305414 -1.135106 0.490648 -0.799806 -0.166873 -0.058318 0.351388 -2.296824 -0.013318 1.550169 -1.091165 -0.206317 -2.400249 -1.130962 1.330234 0.372035 0.236700 0.140615 1.137467 -1.559209 1.138021 0.191887 1.143170 -1.981605 0.547962 -0.421661 
7208 2.545496 0.405343 -0.509166 -1.543457 -1.125798 -1.551887 0.848943 0.459041 -0.786306 0.456863 -0.707809 0.505853 1.296018 1.570591 -0.879515 1.139097 -0.385255 -0.528246 1.727151 1.040971 0.572769 -0.386771 -0.182458 -0.315294 0.632877 0.197195 -1.622189 0.744795 0.480970 0.792925 0.571652 -0.350750 -3.382131 0.923178 -0.261456 0.003309 -0.015909 0.179335 -1.897700 0.726378 1.708728 0.052623 -1.784384 1.894146 1.428983 -0.843068 0.328059 -0.320456 1.381492 2.333041 
3466 0.016277 1.282857 -1.026133 -0.878683 0.174387 0.457266 0.265113 -0.948678 2.708182 1.413059 -0.835808 1.489877 -0.252102 1.097075 -1.161531 -0.573475 1.608292 0.047149 1.475435 -0.379974 0.196926 -1.140691 -0.533281 -1.027159 -0.965025 1.192710 -1.279690 -0.530388 -1.646472 0.857271 -0.900519 0.229540 -1.678797 -1.155270 -1.160045 0.091994 -1.544394 -0.354375 0.473974 0.089078 0.619203 -0.412243 -0.772820 0.462116 1.522156 -1.112541 0.765647 -2.413562 0.721083 -0.272848 
4722 2.321584 -1.324974 -0.112916 -0.651817 0.920211 -0.421923 0.876962 0.102583 1.554270 0.402337 0.390147 2.510298 -0.097519 0.615137 2.373523 0.662870 -0.710865 0.982247 2.275166 -1.113781 -0.355356 1.230099 1.677610 -1.808571 0.068312 -0.438810 1.177254 1.241594 0.941186 0.865011 0.830762 -0.996034 -2.178331 1.170800 -1.954508 0.228854 1.116996 0.354197 -0.114834 1.034410 -0.913244 -0.155757 -1.296006 0.008862 -0.024710 -0.588925 1.215887 -0.687957 -0.969067 -0.823010 
160 1.148792 -0.753895 0.523956 -0.788908 -0.146118 0.673080 1.230561 0.590780 0.622880 0.740043 1.055468 2.383710 -0.227300 -0.018995 1.628164 1.407515 0.473278 0.534320 0.665037 0.473504 -1.888435 -1.023011 -0.259353 -0.651278 1.787822 0.787416 -0.105443 0.489939 -1.132321 -0.745545 -0.458945 1.087743 -0.784013 0.512716 0.763561 1.813071 -1.003845 0.165606 -0.078675 1.827432 -0.080098 0.257374 0.010648 1.608241 -0.066899 -0.003704 1.545583 -1.302392 2.662250 1.441479 
2733 1.707092 -0.842821 0.077396 -1.787916 -0.351420 0.903144 0.898902 1.659092 0.295425 1.194468 1.417628 2.441188 -0.311567 -0.553423 1.425637 0.023150 1.607844 0.673015 0.705964 1.018059 -0.396173 -0.753834 -0.969936 -0.625011 0.739499 0.250365 -0.575719 1.048047 -0.271113 0.050133 -1.360344 -0.043548 -1.225388 -0.063183 0.333873 1.486496 -1.259660 -0.428187 0.635881 0.497486 -0.913836 -0.499046 0.822926 2.783567 0.864681 0.165784 0.836060 -1.083777 2.708645 0.679191 
5562 0.807809 -0.140939 0.284357 -1.709275 0.293786 1.756665 0.207227 -0.018893 -1.053466 0.867722 -0.561294 1.604649 0.125933 -0.199826 0.462860 -0.768020 -1.130248 0.574028 0.874437 -1.119450 -1.816473 -0.717112 -1.226852 -1.027021 -0.460913 -0.857611 -0.301143 -0.657704 1.864473 -1.153991 -0.604443 -0.757648 -2.303095 1.063393 -0.220745 0.738335 -0.052838 -0.311705 -0.473372 3.078912 1.183346 -0.337455 -1.976151 0.894482 0.809488 0.990647 -0.513114 -0.895440 1.288989 0.529504 
7764 2.461404 -1.736510 0.542845 -1.946419 -2.635483 2.606441 1.471597 0.621057 -0.043712 -1.544697 -0.568555 2.876817 -0.180254 0.470145 0.823008 0.949899 -0.124425 0.982012 1.317988 0.368856 -0.418313 0.106865 -1.376450 0.169543 1.256903 0.381291 -0.026386 -0.012790 -1.016293 -0.216020 -0.148696 0.451797 -0.168238 0.500064 -0.387719 0.754767 0.265065 0.586136 -0.270803 1.304505 1.517527 -0.339915 -0.438329 0.419380 -0.311857 0.278579 -1.115860 -1.956804 -0.997060 0.577241 
4233 0.658007 0.261614 0.284192 -0.528321 0.009590 0.407451 1.601125 0.582180 2.652548 -0.862808 -0.260065 1.324009 -0.020249 -1.339660 1.360016 -0.109602 0.014882 -0.205468 1.397207 0.197833 -1.046080 -0.981179 -0.427029 -1.346228 0.974663 -1.980021 -0.410429 -0.873691 -1.162644 -1.287900 -2.266766 0.428207 -0.959406 0.138390 -1.126963 -0.033558 0.224671 -2.612101 -0.396645 0.321774 0.977687 -0.360318 0.798034 -1.041859 1.476964 0.960668 -0.104325 -1.200474 1.429462 0.480125 
5775 0.549681 -1.099899 0.499504 -1.408920 -0.887157 0.952276 0.625455 -0.880094 0.554432 -0.554250 1.120580 0.280635 -0.723130 0.045811 0.411927 -0.163897 1.360365 -1.023508 2.169689 -0.412843 -0.301054 -1.116118 0.117033 1.778770 0.602066 -0.329934 -0.363160 -0.513810 2.090781 0.747201 0.121238 -0.856716 -1.335187 0.457000 -0.265937 -0.444199 -1.313452 -1.949648 1.181946 0.569092 -0.643057 -1.540367 -0.034991 0.987429 1.349425 -0.661635 -0.963946 -2.871174 1.451484 0.339287 
872 0.086732 -1.324293 -1.882874 0.026268 0.203391 0.707656 0.936206 0.746383 1.789066 -0.569418 -0.560125 1.793814 0.656969 0.716354 -0.857963 -0.365630 0.753735 -0.652480 0.565734 -0.623735 0.545158 0.706600 0.615011 -0.761797 0.846150 -0.242146 -2.129876 -0.302056 -0.838530 -0.802517 0.571125 -0.728076 0.043041 1.373540 -0.215476 1.085925 -0.867399 -0.606618 0.319845 0.694460 0.942947 -0.055592 -2.269781 -0.159236 0.086834 1.159259 0.132278 -1.429100 0.451677 -0.284014 
