649 50
</s> 0.008005 0.008839 -0.007661 -0.006556 0.002733 0.006042 0.001882 0.000423 -0.007207 0.004437 -0.008713 0.002499 -0.001503 -0.001914 -0.006631 -0.003764 0.005159 0.006051 0.005938 0.003195 0.003090 -0.007605 -0.008192 0.009939 0.007603 0.006180 -0.001208 0.008031 -0.000990 0.001469 -0.000298 -0.005966 0.002625 -0.002675 -0.007651 0.009508 0.008759 -0.002190 -0.000452 0.001018 -0.007275 -0.008014 0.009109 0.000126 -0.005165 -0.006084 -0.006153 0.003394 0.000403 0.002662 
328 0.977818 0.393052 1.280843 1.916501 -0.713329 -1.108007 0.858210 0.158217 -0.646806 -0.021445 1.511838 0.103733 0.402803 -0.768300 -0.029715 0.403362 0.056959 -0.433687 0.128122 0.156825 -0.862462 0.540804 -1.937274 0.317071 2.277385 -0.025270 -0.061297 1.455742 -1.729263 0.006096 0.166611 -1.507142 -0.105402 0.713828 0.518013 2.577271 0.736457 -0.795057 -0.001078 -1.548562 0.530224 0.090173 -1.024424 1.754370 -0.293846 0.298482 1.335275 1.552045 -1.524133 0.613965 
201 0.352733 0.113090 1.656115 0.302513 -0.330562 0.800737 -0.138169 0.719168 -1.108833 -1.273985 0.834379 0.000197 -0.865399 -0.087402 -0.377579 0.356454 -0.445366 -0.647247 0.187030 -0.397371 -2.207891 0.056036 -0.378052 -0.366683 0.448346 0.331554 0.174856 1.446207 -0.541278 0.734265 0.011295 -1.884828 -0.217594 -0.147005 0.073745 1.519967 2.171494 -1.703858 -0.071389 -1.149876 -1.153742 -0.172237 -1.329425 0.438037 -0.643424 -0.339887 -1.249695 -0.590770 -0.612542 0.160552 
823 -0.219531 0.181039 0.109765 0.116389 -0.216940 0.687358 -0.039018 0.868738 1.113348 -0.157417 -0.590950 1.108075 0.074311 0.342411 0.238895 -0.201122 0.769937 -0.701681 1.263023 -0.551667 -1.561520 0.942983 0.933567 -0.506740 1.070719 -0.705681 0.287207 0.126663 -1.794810 -0.117361 1.586848 0.722152 -0.215401 -0.185239 1.795280 1.515750 1.491838 -1.233031 -0.392170 -0.914030 -0.651169 -0.734007 -0.297476 0.250330 -0.522625 -0.644912 -0.621015 1.356768 -0.806535 -0.582575 
94 1.369036 -1.115394 0.452589 -0.463318 -0.063043 0.389697 0.025414 -1.069542 0.171117 1.355829 1.615747 0.213234 -1.388365 0.046423 0.151355 0.730602 0.841147 -0.644813 0.469717 -0.110478 -1.095943 0.882767 -0.384191 0.077753 -0.386281 -0.221665 0.132771 -0.112466 0.415507 1.485793 1.039555 -1.948602 -0.307355 -1.037292 -0.212097 0.727802 0.761164 -0.394053 -1.385386 -0.526438 -0.127163 -0.782485 -0.798260 0.740072 0.306690 -0.372192 0.087202 2.197248 -0.467322 -0.077717 
535 -0.364099 -0.603333 1.099981 1.875877 0.919399 -0.238838 -0.120938 0.968518 0.217082 -1.292334 -0.097107 0.735536 0.875115 -0.441052 -0.241188 0.804725 -0.305023 -0.052123 -0.312975 0.166583 0.584511 0.696465 0.613179 -0.535589 -0.102573 -1.526016 -0.225897 -0.101366 -0.548729 0.500196 0.418766 -0.203789 -0.881930 0.297813 -0.299622 1.823353 0.504384 -0.237494 -0.229492 -0.046630 0.611897 -0.745702 -1.028333 0.164310 -0.329479 0.662378 -1.000411 1.552063 -0.370006 -0.786118 
275 -0.974851 -0.463097 0.429894 1.254570 -0.367767 -2.164196 -1.025531 0.678770 0.669058 0.267462 -1.258577 0.633227 -0.315602 -0.770084 0.063396 0.830347 -0.175861 -0.599413 1.133915 -0.743567 -1.446082 0.548577 0.068844 -2.099462 2.509689 0.350516 -0.932125 1.396139 -0.267421 0.125176 1.352559 0.213903 -1.252408 0.925713 0.456947 2.316609 0.013293 -1.133643 0.259844 -1.001150 -0.313202 -0.233227 -0.404427 3.069842 -0.026723 -0.327241 0.622465 1.162097 -0.735793 -0.656769 
242 1.370388 0.109886 1.064206 1.413278 0.219671 -0.742949 1.495412 0.375399 0.357493 -0.953116 -0.409883 1.178602 -0.680104 -1.110341 0.183128 0.162913 0.132502 0.705730 1.202739 -0.072010 -0.276952 0.837669 -1.541285 0.403981 0.240109 0.877257 -1.389720 -0.091354 -0.577668 0.843198 0.929868 -0.674471 -0.448512 0.433158 0.539543 2.285291 1.276815 -1.020970 -0.624694 -1.109669 -1.233672 -1.012440 0.632401 2.763099 -2.205274 0.161708 -0.771668 1.310790 -1.578501 0.369204 
620 0.033113 0.669278 1.590318 -0.094515 -0.223784 0.378386 -0.445673 0.068863 -1.001723 -0.946564 0.562161 0.911324 0.826038 -1.028533 -1.955692 0.758329 -0.522483 -0.294301 1.489586 -0.027098 -1.850020 0.592343 -0.178066 -0.368903 1.232216 0.714653 0.257802 0.980286 0.387137 0.425007 0.406323 0.305079 -1.773005 0.653627 2.375388 1.534661 0.450277 -0.485511 -0.249962 -0.109095 0.178376 -1.023294 -1.883828 0.022384 -0.920770 -0.647284 0.851857 0.861809 -0.486687 0.142064 
911 0.459501 0.715775 0.609115 0.092200 0.559331 0.273351 0.282166 1.133742 0.192454 0.088157 1.800390 1.002107 0.575284 -0.413151 0.215148 0.444509 -0.877732 -0.018207 0.433290 0.322078 -0.489451 -0.109981 -0.105006 0.436508 -0.164661 -0.063636 -0.487852 -0.366004 -0.903894 1.044483 0.720031 -0.438235 0.346405 -0.395422 0.117008 2.254673 0.584626 0.396558 -0.305858 0.436922 0.020360 -0.937867 -1.420294 0.405396 0.015447 0.336033 -0.502521 0.305471 -0.109812 -0.394146 
569 1.074882 0.778606 0.092568 1.323467 0.357958 0.367209 0.347372 1.263377 0.775533 -0.273296 -0.849801 0.339170 -0.637605 0.301229 0.243659 0.114906 -1.900610 0.149006 0.513790 -0.705244 -1.449348 0.175868 -0.322038 -0.395529 0.586879 0.219599 -1.594083 0.301843 -1.216200 0.731695 1.008504 -0.677734 0.392788 -0.314614 -0.489452 1.107804 1.218272 -0.419394 -1.491225 -1.586306 0.143908 -0.164464 -0.071641 0.817690 0.028052 0.198852 0.420621 1.268862 -0.962896 0.742157 
566 -0.450951 -0.279011 0.485557 0.826984 0.889048 -0.197204 0.866190 0.751530 0.001117 0.385563 0.555892 0.131171 -1.555938 1.231023 -1.191946 0.908086 -0.050966 -1.038962 0.751698 -0.480059 -0.042446 0.470010 -0.646305 -0.176727 0.495573 0.293885 -0.886060 0.977073 -0.559655 -0.515364 0.105748 -0.801338 -0.581521 0.456118 0.502966 0.851296 -0.236807 -1.287842 -0.105465 -1.382952 1.414621 -0.762080 0.102485 0.180717 -0.914389 0.128621 0.837951 0.188641 -1.019708 -0.223733 
689 1.089149 -0.352574 0.929357 -0.519657 -0.691569 -0.080879 -0.262958 -0.559670 0.504850 0.809683 0.620775 0.395662 -1.183915 0.475936 -0.182330 0.955194 1.361312 0.430975 1.681042 -0.006259 -0.591855 0.947589 0.386145 0.008232 0.051390 0.083240 -0.337608 1.041034 -0.427158 1.242957 1.517104 -0.937586 -0.959870 0.171347 -0.195186 1.122347 1.021342 0.160010 -0.920075 -0.348417 -0.013352 -0.132076 -0.826903 1.486617 0.131322 -0.894797 0.031680 2.408973 -1.119825 -0.188536 
816 -0.300363 -0.298558 0.626089 0.843063 0.937096 -0.243535 0.747628 0.638373 0.070912 0.086507 0.452794 0.012869 -1.555802 0.962050 -1.018048 0.930781 -0.164778 -1.001866 0.804077 -0.323833 -0.216823 0.596040 -0.577473 -0.409783 0.568607 0.096568 -0.876567 0.718587 -0.855312 -0.268854 0.197786 -0.868691 -0.456277 0.342080 0.839629 1.334568 0.030725 -1.482327 -0.168532 -1.331034 1.066408 -0.845251 -0.156002 0.325091 -0.729258 0.124001 0.562771 0.413629 -1.373635 -0.260281 
497 0.206152 -0.251735 0.969637 1.015856 0.277505 0.451602 -1.133456 0.130471 0.820506 0.491180 2.478764 1.232141 0.489508 0.309866 -2.095983 0.476082 0.498880 -1.413341 1.053588 -0.151737 -1.550235 0.782153 0.472191 -0.510731 1.005370 0.310972 -0.909694 1.328352 1.091822 0.831927 1.594958 -2.090291 -1.476156 0.862703 -0.770744 2.431120 0.172022 0.071043 -0.557345 -2.009419 -0.755276 0.969234 -0.908324 0.738791 0.132780 0.152317 0.233045 -0.368506 -1.349262 -0.621950 
904 1.099236 0.840692 1.526197 0.213618 0.611496 0.357689 1.751595 1.266473 1.149521 -1.322825 1.523346 -0.227278 0.693627 -0.508524 -0.365245 -0.502458 -0.414253 -1.905531 0.908633 -0.310408 -0.519825 0.594489 0.375862 -0.203840 0.809699 -0.059493 0.032329 -0.475024 -0.216489 0.114483 0.720662 -0.358472 0.596235 -0.828026 1.089396 0.427723 1.059857 -1.179130 -2.692797 -0.519898 0.186329 -0.664571 -0.547872 -0.410061 -0.917316 -1.271502 0.238762 0.896747 -2.830245 0.414789 
940 1.693397 0.362628 0.586476 0.376310 1.751226 -0.430704 -0.716304 0.878929 0.209030 -0.720706 0.440230 1.699894 -1.493770 0.533001 0.385313 0.233516 0.426010 -0.693964 0.954448 -1.310059 -0.761297 -1.124105 -0.195027 -1.107363 1.786057 -0.207560 -0.295714 -0.078573 -0.833944 0.492244 0.015854 -0.989299 -0.261937 0.302857 1.361998 2.506495 1.118291 -0.975851 -0.619395 -0.521926 -0.811824 -0.930203 -0.979813 2.170268 -0.020873 -0.103221 0.025077 -0.737360 -1.945716 0.257363 
674 0.312029 0.416447 0.941701 0.342725 0.811293 0.070559 0.356968 0.963295 -0.112920 0.023532 1.468806 0.729219 0.536421 -0.200775 0.348121 0.669737 -0.686681 0.142851 0.121678 0.367247 -0.328333 0.084506 -0.039460 0.357384 -0.327593 -0.451657 -0.479116 -0.558599 -1.233060 0.923849 0.746974 -0.101029 0.313113 -0.141312 -0.149909 2.154825 0.428931 0.023152 -0.406865 0.283999 0.233819 -0.919469 -1.210224 0.380284 -0.172230 0.628951 -0.832132 0.686342 -0.111195 -0.189251 
665 1.133922 0.318310 1.164899 0.112723 0.393521 0.882696 -0.004734 1.074012 0.258185 0.444785 0.805023 0.412317 -0.280080 -0.522894 -0.582749 0.438150 -0.837503 -0.690370 -0.210226 0.112870 -0.549037 0.534920 -0.026066 0.161122 -0.178004 -1.019793 -0.281398 0.084759 -1.623146 0.376827 0.858997 -0.800123 0.349485 0.873968 0.660115 1.914925 0.988627 0.266413 -0.654342 -0.007335 -0.842425 -1.300494 -1.234695 0.467381 0.218787 0.608320 -0.495743 1.441750 0.099890 -0.311350 
780 -0.251120 -0.787122 0.657735 1.039620 0.164162 1.159474 0.011329 0.412855 1.110640 0.678778 -0.558739 0.499537 0.396561 -0.229880 -0.714135 1.400067 -0.651508 -0.957046 1.598067 0.739567 -0.493020 0.218103 -0.694332 0.193093 0.851131 1.015069 0.234709 0.452040 0.048616 -0.745296 1.001821 0.082168 0.670201 -0.805773 0.769060 0.660460 1.085208 -0.435546 -0.489371 -0.357650 0.012895 -0.521018 -0.388986 0.155437 -1.019295 0.324088 -0.195680 0.994471 -0.342026 0.183262 
739 0.241220 0.164057 1.110362 0.728832 1.063412 -0.093858 0.199134 0.978060 -0.081989 -0.065553 1.074521 0.567715 0.728136 -0.455667 0.296405 0.685577 -0.707499 -0.076540 -0.221234 0.509331 0.186264 0.445027 0.168421 0.166674 -0.496396 -1.152546 -0.207076 -0.585432 -1.460610 0.752409 0.977464 -0.190251 0.128233 0.177428 0.019503 2.011063 0.689640 0.203909 -0.414889 0.354256 0.122642 -0.956447 -1.439303 0.170408 -0.037118 0.973937 -0.972703 1.124252 0.266939 -0.570749 
915 0.158976 -0.649901 -0.058550 0.579452 -0.398014 -0.175246 -0.140049 0.789380 0.213675 1.629425 1.383074 -0.692671 -0.555278 -0.779194 -0.375369 -0.727155 -0.724595 0.199444 0.591143 -0.301578 -0.865288 -0.555415 0.384488 -1.141713 0.937789 -0.186797 0.563327 0.627221 -0.802001 0.385177 0.029617 -0.643054 0.290184 0.537605 0.998012 0.770904 0.853796 -1.779632 -0.186269 -0.717035 0.330859 -0.427030 -0.732383 0.948493 0.711251 -0.431342 -0.351980 0.507783 -0.613827 -0.792397 
78 -1.005513 -1.055542 0.392384 0.197183 0.856733 1.663023 1.675303 -0.297619 -0.276791 0.541482 1.283151 -0.142884 0.506574 -0.708462 0.234709 0.300768 -0.894269 -1.401810 0.876521 0.803618 -0.263250 1.084333 -0.180993 -0.370664 0.233328 0.882501 -0.828840 1.612315 -0.666030 1.598367 0.291186 -1.606290 0.544526 0.084218 0.658138 0.553273 -0.280429 0.089408 0.014985 -0.522469 0.488872 0.299635 -0.451838 0.091717 -1.129621 -0.781255 -0.643892 0.241578 -1.119839 -0.176747 
778 0.007970 -0.615334 -0.001560 0.159344 -0.698610 0.358126 0.594474 -0.482509 0.725068 0.504762 -0.250418 -0.224169 -0.062300 -0.899758 -0.901490 0.816015 -0.960969 -0.600816 1.842067 0.412321 -0.018473 0.531431 -1.245437 0.500313 0.518785 -0.111093 -0.821674 1.293704 0.210315 -0.077147 0.880522 -0.679999 0.313032 -0.652826 1.200291 1.245826 1.679745 -0.651937 -0.374478 0.436494 -0.279386 0.350542 -0.620714 0.671555 -0.824941 0.357871 0.505452 0.848099 -0.500783 -0.806677 
933 0.436260 0.512636 1.830285 1.255290 0.315520 0.027297 -0.350452 0.659805 1.616695 0.972515 0.002844 0.577439 -0.163461 0.036630 0.089571 0.162646 0.025607 -1.126850 0.062298 -0.618662 -1.793725 0.828871 -0.641602 -0.103486 1.358446 -0.187487 0.449507 1.142926 -0.118054 1.369373 0.495786 0.045945 0.674552 0.147924 1.164873 2.856375 -0.714684 -1.237574 0.071339 0.498687 0.719120 -1.588001 -1.035475 -0.417301 1.326242 -1.191046 -0.256005 1.013036 -0.855994 1.204928 
536 0.323913 -1.092292 0.655524 0.161306 0.520418 -0.575003 0.737921 0.052283 0.624358 1.585350 1.250719 1.141748 0.206930 0.266480 -0.239745 0.273152 -1.190765 -0.356644 0.654670 0.662285 -1.176562 1.553579 -1.070558 -0.439502 2.626590 0.246737 -0.539644 1.507653 -0.152892 0.905865 2.054901 0.940049 -0.541233 0.639914 0.621238 1.469287 0.062342 0.220310 -0.893836 -1.043813 -1.334653 -1.122265 0.462209 1.106238 -0.279822 -0.429338 -0.075959 1.410169 -1.602221 -0.701752 
800 -0.218311 -0.420596 -0.196500 -0.736821 1.328919 1.033116 -0.585184 1.050140 2.105370 1.456997 0.918714 1.197871 -0.653176 0.306507 -1.531034 0.128428 -1.138163 -1.443065 0.231511 0.616756 -3.191456 0.839611 0.742973 -1.105010 0.004482 -0.072188 0.263505 0.007127 1.271639 1.342808 1.008896 0.393949 0.182113 -0.256678 0.141261 0.945257 0.488126 -0.624186 -0.496069 -0.292069 -0.208152 -1.286843 -1.092562 1.356469 -0.567745 -1.110351 -0.916811 1.361042 -0.969513 -0.967592 
65 -0.992730 -1.148740 0.321371 -0.117803 0.469458 1.454400 1.514284 -0.652190 -0.193014 0.513925 0.977054 -0.346134 0.551444 -0.923173 0.090581 0.245811 -1.187031 -1.086679 1.090552 0.871958 0.201507 1.024762 -0.602316 -0.324658 0.194663 0.609936 -0.572200 1.421404 -0.356569 1.329354 0.119164 -1.310744 0.504142 -0.329953 0.845461 0.260621 0.218262 -0.082614 -0.214009 -0.348327 0.435662 0.185229 -0.576391 0.065724 -1.098858 -0.419970 -0.360334 0.136025 -1.032949 -0.379148 
376 0.046867 -0.223138 1.193347 -0.489666 0.325547 0.126327 -0.729381 1.187643 -0.309351 1.616019 -1.238700 -0.091918 -0.655640 1.696344 -1.167246 1.286023 -0.849776 -0.920393 2.059680 -0.929867 -0.371906 1.666165 0.695734 -1.110638 -0.010457 -0.723295 -0.125516 0.538539 -0.719987 1.555034 0.777298 -0.105540 0.361343 -0.531005 0.811626 1.711483 2.099196 -0.243479 -0.823809 -0.432209 1.711160 -0.613641 -1.330315 2.151184 -0.954587 0.764850 -0.250306 -0.382020 -1.008620 0.501153 
48 0.123114 0.141117 0.088275 -0.391709 -0.271825 0.271752 -0.197705 0.015163 0.575572 -0.732541 1.628988 1.304516 1.087458 -0.798318 0.466628 0.456299 0.098777 -0.936816 0.050692 -0.822784 -0.328458 -0.871517 -0.617046 -0.723961 1.325321 0.577953 -1.490099 0.384000 -1.495879 0.313802 0.696379 -0.639109 -0.108304 0.032504 0.573611 0.691268 0.318998 -0.748815 -0.250374 0.918048 -0.008040 -0.266606 -0.767356 0.453747 -0.500992 0.634596 0.417926 0.356474 -0.712132 -0.338009 
223 -0.326782 -0.531310 0.309701 -0.108088 0.234557 0.562662 -0.396247 1.354483 0.563252 1.012966 1.169444 1.802191 -1.575795 1.623222 -2.265494 1.467715 -0.123940 0.200026 0.639602 0.458509 -2.473338 0.156960 -0.758717 -0.997005 0.234217 0.380176 -0.828290 1.276811 -0.065919 1.936756 0.350244 -0.658549 0.730065 0.028164 0.252609 2.429904 0.518551 -0.368213 0.763415 0.222057 0.257040 -0.182238 -0.829055 1.155313 -0.700157 1.025842 0.069061 1.063971 -1.507758 -0.679676 
38 0.840764 0.536962 0.543999 1.338689 1.536571 -0.110853 0.016924 0.161856 -0.158524 -0.215011 -0.572413 0.129972 -1.018872 -0.391613 0.165402 1.259634 0.376037 -1.339178 1.032159 0.265951 0.107387 -0.235542 0.012252 -0.494513 1.929625 -0.625847 -0.325007 1.022036 -1.387376 0.891804 1.186180 -1.435673 0.790557 -0.498070 1.910399 -0.498718 1.005926 -0.888455 0.659634 -0.134115 -0.409669 -0.271680 -0.627577 1.915076 -0.373489 -0.006484 -0.569300 1.913826 -1.478580 1.483338 
549 1.126278 -0.455352 -0.036026 0.956459 0.388164 -0.233980 0.441711 1.100733 0.622002 -0.159613 0.215129 -0.053348 0.388210 -1.514620 0.294978 -0.801176 -0.357790 -1.112932 0.726285 -0.987299 -1.192238 0.410500 0.333250 0.212574 1.104827 0.644481 0.376560 1.694335 0.507941 0.630838 2.132781 -0.641109 -1.414122 0.204442 0.226245 1.968945 1.326222 -0.313885 0.142580 -1.377942 0.397774 -1.033080 -0.950903 0.106069 -0.521935 -1.498533 -0.261254 1.538265 -0.889401 -0.626913 
801 0.188817 0.357886 1.349792 0.321915 1.350068 0.003520 0.827102 0.991724 -0.254563 0.431673 1.486388 0.388380 0.365141 0.250072 0.832094 1.334464 -0.369417 0.045351 0.460418 0.392462 -0.611130 0.578280 0.821390 0.116831 -0.265260 -0.454143 -0.218433 -1.202879 -1.331054 1.036482 0.825022 0.246519 0.212668 -0.251889 -0.221649 2.031739 -0.225584 -0.242955 -0.716676 -0.170498 0.155204 -1.031399 -0.914024 0.711305 -0.027312 0.512157 -1.190236 0.803312 -0.190875 0.240816 
396 -0.387234 0.939921 0.806201 0.810616 0.012386 0.686423 0.712105 0.595922 1.331325 0.764739 0.625247 0.526895 0.273900 -0.545096 0.923546 0.827125 -0.161263 -1.296443 0.154716 -0.305081 -1.707935 0.844267 1.056567 0.277553 1.425211 0.691728 -0.430466 0.012051 -0.422054 0.500580 -0.637614 -2.349629 -1.100723 -0.066187 -0.446196 0.779918 0.156569 -0.988049 -0.459974 -0.978309 0.098391 0.014133 -2.259467 0.245988 -0.282635 -0.104866 0.544814 0.774133 -0.923658 -0.593995 
153 -0.482667 -0.960268 1.292949 0.643146 0.462042 0.223618 0.438367 1.516326 0.203156 0.720002 0.224605 1.319058 0.342250 -0.144687 -1.716672 0.261357 -0.738748 -1.040057 0.774298 0.085769 -1.071739 -0.293770 -0.280510 -1.118494 0.738880 0.195511 -0.843093 1.223011 -1.133914 1.833784 0.114599 0.211480 0.905624 -0.209536 -0.466344 1.220821 -0.020279 -0.049832 0.192943 -0.964116 -1.309249 -1.660729 -1.281516 1.402775 -0.317758 -0.657072 -0.229436 -1.060851 -1.418510 0.139046 
518 -0.489205 -0.555466 0.069022 -0.542082 0.016703 0.096245 0.041895 1.498839 0.127136 0.643808 -0.713153 1.747459 -0.416730 0.789153 -0.921542 1.207814 -1.091120 0.321050 0.525390 -0.541858 -1.784750 -0.224759 -0.196412 -0.180405 1.820794 0.475775 -0.767019 0.261329 -1.199558 0.372816 0.835441 0.917853 0.824080 0.722235 1.683832 2.207897 -0.553319 -1.077575 -0.642747 0.431471 -0.123837 -1.464192 -0.293621 1.990272 -0.250814 0.526460 -0.094697 1.080882 -0.667590 -0.437819 
321 -0.189944 -0.279013 0.012127 -0.729809 -0.484892 0.161352 -0.467277 0.056014 0.499828 -0.589988 0.514861 1.192184 0.861147 -0.075865 -0.652647 0.114373 0.720538 -1.541800 -0.386901 -0.440097 -1.246087 -0.018985 -0.216495 -1.675424 1.243403 -0.046465 -1.629818 0.917398 -0.824862 0.867044 1.515024 -0.708890 -0.298478 0.002906 0.985065 0.153922 0.685476 -1.185400 0.007595 0.551618 0.197914 -0.352339 -0.312524 1.670519 -0.512510 0.898226 -0.207866 1.197314 -0.944996 -0.179827 
579 0.779051 -0.276253 0.843903 0.718494 0.308576 0.129077 -0.291670 0.532763 0.261521 -0.028310 1.049181 0.268470 -0.854034 0.224235 -0.783583 0.854219 -0.027579 -2.040352 0.851549 -0.802986 -0.584206 1.860503 0.012992 -0.738382 1.183864 -0.604893 0.187353 -0.438500 -0.823964 0.391229 0.748784 -0.289796 -0.660352 -1.473552 1.451824 1.444345 2.618864 -1.652660 -1.445793 -0.804037 -0.739924 -0.221616 -0.388427 0.077362 0.083464 1.451138 0.500287 0.076481 -0.238579 0.080357 
988 0.723367 -1.068925 0.607382 -0.263003 0.039576 0.085680 0.587385 1.074635 1.507485 -0.066589 0.254452 -0.570459 0.797470 0.257995 -0.850256 -0.245164 -0.517125 -1.331451 1.937838 -0.033159 -1.304180 0.491573 0.639493 -1.274045 1.062839 -0.161561 -0.165677 -0.179796 -1.095542 0.492032 1.008039 0.228348 -1.163507 0.564786 0.175243 0.893622 -0.249416 0.371135 -0.671458 -0.096340 0.076698 -1.121428 -1.712778 1.500753 -0.998906 0.127086 0.230198 1.847244 -1.934411 0.341823 
460 0.064493 -0.643788 0.434960 -0.023331 -0.034052 0.772482 -0.009543 0.510283 0.547615 0.544873 1.242112 0.932740 0.124224 -2.614200 -0.641378 0.572067 -0.604000 -0.973127 0.683509 -0.160921 -0.962286 -0.899837 -0.456838 -0.360682 1.069023 0.490185 -0.457693 0.770191 1.675472 0.276819 0.094749 -0.161920 -0.489089 0.773791 -0.194024 1.806660 -1.027724 0.004552 -1.008979 -0.054792 -0.382634 -0.521385 -0.018718 1.540036 -1.214163 -0.983385 0.193181 2.440359 -1.529058 -0.770886 
660 -0.297484 -0.619630 0.748136 1.372408 -0.299749 0.157382 0.096133 1.508835 0.096743 -1.821074 0.191899 0.966564 0.191718 -0.328157 -0.326095 0.612245 -0.457016 0.571999 -0.006985 -0.254962 -0.887256 0.560602 0.104987 -0.878158 0.818901 -1.240946 -0.631554 0.233611 0.002377 0.531623 -0.575814 -0.012887 -1.303157 0.400995 -0.331158 1.690268 0.015608 -0.711252 -0.822739 -0.099016 0.264932 -0.853070 -0.240732 0.887653 -0.446827 -0.185234 -0.635743 1.241292 -0.987872 -0.085762 
741 0.024986 -0.404096 0.368930 1.106655 0.966964 -0.227844 1.157212 1.126635 -0.160331 0.318802 1.048035 0.536678 -1.274371 1.187400 -0.766648 0.906466 -0.440614 -1.160360 0.801053 -0.621659 0.215449 0.518368 -0.595818 -0.064403 0.671058 0.410990 -1.301208 1.653157 -0.688625 -0.457162 0.303850 -1.304643 -0.404424 0.788416 0.320091 0.831110 -0.152250 -0.658479 -0.027424 -1.029064 1.568971 -0.976904 -0.162334 0.171390 -0.783320 0.266197 0.832567 0.138211 -0.985634 -0.205950 
157 -0.904421 0.134230 -0.078392 1.886323 -0.347974 -0.215360 0.591143 0.669124 1.373173 -0.822809 1.229714 1.441261 -0.114256 -1.385583 0.237392 -0.552746 -0.704723 -0.052965 0.953654 0.490541 -1.617059 0.203921 -0.875929 -0.335884 0.988669 -0.585567 0.388359 0.572399 -0.895137 1.425859 0.966469 0.479487 -0.124616 0.059171 0.254353 1.130021 0.822740 -1.477535 0.450537 -0.242889 -1.810303 -0.538187 -0.774194 0.608983 -0.996527 -0.759656 0.559237 1.464868 -0.799356 -0.480454 
656 0.772949 -0.201797 0.884746 0.795259 0.368323 0.140482 -0.262539 0.461242 0.186124 -0.061333 0.997201 0.278247 -0.907169 0.251487 -0.691218 0.902070 -0.018799 -2.057814 0.842264 -0.869740 -0.570426 1.906483 -0.055542 -0.736245 1.231480 -0.615263 0.208464 -0.502771 -0.878378 0.363299 0.748396 -0.251441 -0.606833 -1.424390 1.489916 1.353668 2.572645 -1.632990 -1.448768 -0.803531 -0.856913 -0.088200 -0.252881 0.103537 0.073167 1.546667 0.551020 0.116704 -0.189641 0.169784 
930 0.353453 0.073538 0.894086 0.116670 -0.372865 -1.299265 0.036977 0.348045 2.082334 0.130940 -0.139494 0.601283 -0.169537 -0.638359 0.928345 1.120194 -0.109179 -0.661430 0.544984 -0.851019 -2.634940 -0.372718 -1.215956 -0.014898 1.434906 -1.256736 -0.683716 -0.322310 -0.308803 0.407557 -0.780845 -0.921616 0.498865 0.464853 -0.114100 1.503177 1.065564 -0.345833 -0.177465 -0.394366 -0.802034 -1.079652 0.314512 0.619360 -0.660085 -0.293665 0.519228 1.663963 -0.550857 0.141111 
651 1.033201 -0.416235 0.017215 1.250737 1.201591 -0.388360 -0.493494 1.716765 0.311087 1.378376 0.749574 0.410871 -0.386070 -0.568208 -0.340720 1.758706 0.774031 -1.356027 0.763568 -1.292506 -1.513579 -0.051333 -0.154525 -0.520718 1.990210 -0.874712 0.496125 0.049550 0.043549 -0.344608 0.199296 0.898158 -0.215877 0.476069 0.637169 1.677823 -0.456822 -1.319254 -1.186407 -0.699227 -0.488972 -0.204784 -0.619330 0.552473 -1.092315 -1.013025 0.258724 1.731558 -0.467727 -1.002082 
587 1.453913 0.477671 -0.198309 0.039926 1.049307 -0.574153 -1.097960 1.970171 0.523431 1.406835 0.299302 -0.120321 0.688159 -0.588663 -0.586486 1.377283 1.050901 -1.551379 0.799255 -1.318606 -1.120837 0.077942 -0.101646 0.140322 0.615813 -0.353395 -0.246092 0.373738 0.687271 0.601543 0.616949 -0.283419 -0.389137 0.684114 0.410485 1.262779 0.004104 -0.816751 -0.451970 -1.133942 0.074926 0.397467 -0.287195 1.265215 -0.676880 -0.240167 0.173625 0.960521 -0.636681 -0.803854 
403 -1.383617 0.295109 -0.214279 1.857566 -0.363475 -0.207347 0.527711 0.539014 1.305238 -0.760278 1.199480 1.329378 -0.135392 -1.198906 0.249345 -0.656552 -0.531842 -0.005998 1.057066 0.627845 -1.508342 0.238262 -0.736953 -0.460916 0.810112 -0.523167 0.265853 0.761274 -0.931184 1.532558 0.966260 0.535610 -0.354195 0.119520 -0.059113 0.968296 0.942384 -1.641245 0.816367 -0.255260 -1.707740 -0.400944 -0.746959 0.490748 -0.855310 -0.757404 0.640339 1.201511 -0.776446 -0.370021 
751 0.468758 0.727251 0.126195 1.454769 0.588594 0.369815 0.196364 1.404713 0.616503 0.251470 -1.123901 0.068213 -0.465686 0.537041 0.041526 0.063605 -1.965855 -0.079773 0.774789 -0.601046 -1.433116 0.073506 -0.462354 -0.263327 0.670637 0.080638 -1.213168 0.493301 -0.976584 0.865064 1.150971 -0.492160 -0.018483 -0.140518 -0.795921 0.760977 1.299997 -0.478096 -1.202337 -1.775063 0.287448 -0.009892 -0.006605 0.280313 -0.230419 0.000857 0.695574 0.872617 -1.051603 0.870131 
372 -1.000870 -0.993039 0.577246 -0.133828 0.367032 1.514766 1.359022 -0.594657 0.347209 0.458828 0.613630 -0.241453 0.538981 -1.116788 0.364738 0.757369 -1.607726 -1.068187 0.843564 0.791252 0.253770 0.675695 -0.914008 -0.383922 0.448676 0.553116 0.146322 0.796773 -0.123591 1.113792 -0.029923 -0.723770 0.833659 -0.760272 0.806305 -0.253801 0.821767 -0.064024 -0.689996 -0.567317 0.260171 -0.472428 -0.759364 0.052455 -1.541306 -0.348130 -0.495345 0.669053 -0.995311 -0.320761 
192 -0.094009 -0.134550 0.588941 -0.971704 0.047462 0.526126 0.130847 -0.209691 0.151339 -0.289655 1.949684 1.283023 1.506198 -0.337127 -0.158540 0.294070 0.437759 -1.375533 -0.171515 -0.863918 -1.058576 -0.727404 -0.851501 -0.512608 1.602394 -0.086596 -1.028337 0.033234 -1.016821 0.287800 0.746518 -0.664165 0.245190 0.037394 0.973206 1.051159 0.639066 -0.821608 -0.055732 0.805351 0.046519 0.370962 -0.615203 1.101589 -0.141747 1.179636 0.221167 0.727686 -1.095962 0.053923 
313 0.500652 -0.043836 0.806824 0.281431 -0.352033 -1.046945 0.223807 0.379297 1.854403 0.178290 -0.024905 0.428380 -0.185615 -0.803363 0.784437 1.003310 -0.282121 -0.738843 0.732784 -0.654772 -2.535901 -0.206049 -1.234064 0.022147 1.464885 -1.237752 -0.550012 -0.227055 -0.263521 0.501554 -0.777657 -1.098585 0.431644 0.316602 0.149115 1.616822 1.311399 -0.349929 -0.373913 -0.715397 -0.938446 -0.986379 0.202358 0.575486 -0.612948 -0.367861 0.512585 1.654074 -0.727237 0.006010 
180 1.037175 -0.185745 0.237262 -0.964296 1.176124 2.057284 0.034884 0.953443 0.770497 -0.126949 0.462288 0.592728 0.270314 -0.056340 -1.064658 1.147928 -0.289753 -1.907756 1.007807 -0.898670 -0.677151 -0.021618 1.275381 -0.570157 0.457973 -0.324792 -0.817977 0.097863 0.015194 0.440984 0.553485 -1.730424 0.169463 -0.507728 1.925064 1.754972 0.760420 0.240819 -0.216238 0.063447 -0.311943 -1.222319 -1.120211 0.315164 0.660682 -0.480439 -0.698645 0.395496 -0.782517 -0.872377 
145 0.581579 0.160880 1.232377 0.131803 -0.349624 0.680994 -0.169739 0.714676 -0.842816 -1.183928 1.124604 0.330182 -0.631107 -0.419839 -0.314868 0.083146 -0.453840 -0.404332 0.219794 -0.251281 -1.964511 -0.040902 -0.720379 -0.301092 0.366478 0.420186 0.412183 1.173015 -0.511179 0.638356 0.307765 -1.692380 0.194701 0.027382 -0.101964 1.495399 1.781626 -1.476974 0.303243 -0.874845 -1.273323 -0.008832 -0.992459 0.494911 -0.390903 -0.452614 -1.117458 -0.241782 -0.845665 0.264918 
632 0.479618 -0.204692 0.267483 0.940854 -0.000373 -0.294911 0.961526 0.706456 0.478532 1.171480 1.012942 -0.119113 -0.796006 -1.147343 -0.342085 -0.734468 -1.232362 0.354344 0.696097 -0.078028 -0.764547 -1.232170 0.353232 -1.351570 1.090874 -0.569725 0.598088 0.912861 -1.084111 0.437767 0.295012 -0.588122 0.687371 0.926852 0.998019 0.651530 0.585837 -1.793842 -1.100942 -0.666918 0.236147 -0.835150 -0.968838 1.079659 -0.489572 -0.701587 -0.517644 0.256740 -1.122498 -1.010547 
39 1.143518 -0.274102 0.117228 -1.141648 1.325482 2.170164 -0.125947 1.022865 0.756438 0.069220 0.318829 0.563167 0.219381 0.240821 -1.278303 1.291314 -0.229255 -1.962513 1.028054 -0.886282 -0.727886 0.045394 1.449861 -0.660495 0.291789 -0.568717 -0.706627 -0.040101 0.194795 0.406092 0.491432 -1.726327 0.152408 -0.793710 2.129715 1.703487 0.776778 0.305200 -0.237195 0.049008 -0.287603 -1.406337 -1.117042 0.180625 0.819564 -0.434272 -0.747881 0.238582 -0.690879 -0.894286 
166 1.435331 -0.934900 0.371808 -0.364326 -0.118636 0.288768 0.114251 -0.852484 0.069379 1.554107 1.656065 0.326096 -1.419099 0.040384 0.263004 0.906605 0.383305 -0.460843 0.461352 -0.099937 -1.181776 0.705483 -0.559196 -0.089287 -0.089832 -0.242126 0.032062 -0.115752 0.243429 1.464662 0.968713 -1.869731 -0.295600 -1.072697 -0.081042 1.042669 0.937799 -0.407945 -1.483014 -0.521080 -0.047535 -0.647717 -1.019497 0.883878 0.179381 -0.237575 0.058454 2.245885 -0.354608 -0.044536 
742 1.184539 -0.045363 -0.124181 0.964836 1.016225 -0.279935 -0.657548 1.827923 0.242341 1.237901 0.594570 0.285732 -0.057187 -0.592535 -0.241922 1.454730 0.838666 -1.288321 0.626310 -1.304194 -1.398505 -0.089188 -0.180517 -0.096932 1.402172 -0.643510 0.255712 0.185174 0.195408 -0.048499 0.186608 0.474963 -0.072458 0.612777 0.445402 1.424232 -0.454717 -1.100425 -0.666486 -0.721484 -0.423795 0.122613 -0.579073 0.563390 -0.784280 -0.738276 0.122539 1.314979 -0.226590 -0.937700 
298 0.031148 -0.707806 0.493454 0.026590 0.015140 0.758048 0.006357 0.559696 0.563200 0.612742 1.336048 1.002819 0.060413 -2.725832 -0.683079 0.699283 -0.542912 -1.034635 0.832351 -0.167418 -1.032179 -0.858263 -0.527180 -0.408035 1.103643 0.578177 -0.547896 0.881762 1.671435 0.424115 0.213584 -0.194277 -0.607736 0.870675 -0.254920 1.924864 -1.062032 -0.107569 -1.023701 -0.119770 -0.390177 -0.600343 -0.048874 1.790429 -1.322801 -1.014362 0.197942 2.584353 -1.633526 -0.762768 
935 -0.327985 0.308069 0.177590 0.104340 -0.084976 0.693937 -0.293142 1.090079 1.160220 0.237644 -0.641219 1.123212 0.266996 0.306383 0.098491 -0.217731 0.729519 -0.981843 1.437440 -0.629518 -1.725608 0.901494 0.931269 -0.567668 1.175004 -0.751931 0.392790 0.286325 -1.642982 -0.139264 1.527926 0.777120 -0.308582 -0.104308 1.774239 1.615410 1.555118 -1.436669 -0.275997 -1.005361 -0.715840 -0.789282 -0.370455 0.481150 -0.555373 -0.527321 -0.520405 1.225730 -0.808112 -0.519422 
749 1.370268 0.312296 -0.211283 0.432458 1.064271 -0.483799 -1.036112 1.998792 0.454290 1.562704 0.393148 0.039708 0.380813 -0.545191 -0.372072 1.492557 1.054629 -1.642004 0.766587 -1.355842 -1.153444 0.036536 -0.219706 0.195394 0.791504 -0.522405 0.015613 0.304552 0.604186 0.280705 0.374247 0.196688 -0.066396 0.683575 0.435820 1.270396 -0.336425 -0.881130 -0.436276 -0.943070 -0.023226 0.284254 -0.316705 0.917169 -0.812346 -0.422453 0.192987 1.067865 -0.505427 -0.869239 
22 1.272330 -1.094169 0.388712 -0.691881 0.186656 0.504327 -0.146182 -1.362712 0.378065 1.115684 1.611677 -0.027827 -0.976544 0.029116 -0.160616 0.633354 0.797825 -0.908599 0.451631 -0.146659 -1.115155 1.031270 -0.328093 -0.014531 -0.372043 -0.600692 0.067222 -0.388766 0.531191 1.488564 0.855778 -2.073473 -0.266990 -1.341065 0.074226 0.543739 0.965728 -0.633922 -1.495553 -0.709163 -0.120553 -0.788719 -0.690580 0.612448 0.563870 -0.240066 0.220080 1.693157 -0.659118 -0.140294 
16 0.352152 0.734585 0.628984 -0.415940 0.353627 0.084842 0.326528 0.548294 0.245724 -0.118785 2.288397 1.716819 0.737200 -0.537202 0.609878 0.566722 -0.656025 -0.034040 0.413235 0.062438 -0.357993 -0.415749 -0.823617 0.592291 0.047876 0.699890 -0.788771 -0.164928 -1.395025 1.149665 1.094138 -0.455691 0.753334 -0.536514 0.231667 1.921223 0.794711 0.100830 -0.222970 1.061980 0.373431 -0.319287 -1.324927 0.454974 -0.249070 0.836796 -0.295588 0.241972 -0.276029 -0.454584 
334 -0.086214 -0.080496 0.102556 -0.855246 -0.420514 0.390436 -0.218440 -0.078466 0.249292 -0.575190 1.196408 1.224287 1.110570 -0.350066 -0.100970 0.099341 0.491158 -1.234511 -0.407270 -0.551423 -0.746362 -0.482151 -0.422393 -0.882580 1.010645 0.153746 -1.424188 0.416426 -1.041535 0.522462 1.030271 -0.682124 -0.032870 0.043005 0.733811 0.238860 0.503033 -0.793195 -0.021881 0.859232 0.202945 -0.051790 -0.400982 0.998297 -0.304496 1.017441 -0.026325 0.683504 -0.606832 -0.148751 
44 -0.001189 -0.049740 0.189628 -0.863813 -0.305155 0.464665 -0.247015 -0.190226 0.297223 -0.646805 1.534008 1.287624 1.372411 -0.563332 0.020838 0.312018 0.491927 -1.443967 -0.312456 -0.982102 -0.720714 -0.866075 -0.698916 -0.907560 1.495387 0.147516 -1.525385 0.368596 -1.267185 0.305692 0.870461 -0.756446 -0.003049 0.054609 0.834746 0.441477 0.485621 -0.932235 -0.105899 0.955619 0.132158 0.022715 -0.456277 0.844920 -0.444292 1.039305 0.262724 0.641610 -0.772790 -0.147162 
892 0.697735 0.036264 1.066486 0.474548 0.505935 0.371795 -0.081230 0.993609 -0.012952 0.028040 0.612295 0.333309 0.067237 -0.335195 -0.392759 0.481883 -0.631312 -0.237408 -0.434777 0.305873 -0.089844 0.510502 -0.077778 0.088311 -0.174408 -1.467928 -0.102915 -0.045904 -1.619587 0.322536 0.770233 -0.383213 0.009457 0.808271 0.368836 1.760100 0.867194 0.146531 -0.500786 0.094053 -0.582721 -1.013336 -1.247563 0.187026 0.081346 0.750727 -0.727828 1.320418 0.321822 -0.346870 
960 -0.287535 -0.338910 1.025575 1.368395 0.346219 0.075362 -0.009609 1.417161 0.350441 -1.472010 0.208219 1.109048 0.403356 -0.297010 -0.167149 0.971593 -0.222914 0.309649 0.176003 -0.061032 -0.448970 0.576389 0.569010 -0.698122 0.419454 -1.013737 -0.587346 -0.143453 0.117829 0.867347 -0.274007 0.077041 -1.157171 0.048950 -0.371946 1.893067 0.083036 -0.482161 -0.568998 0.035226 0.674133 -0.767483 -0.494144 0.800626 -0.272377 0.117964 -0.881943 1.389243 -0.916871 -0.197932 
82 -0.851734 -0.911243 0.585224 -0.048246 0.390033 1.549839 0.987928 -0.328099 0.649670 0.539955 0.540768 -0.035389 0.654539 -1.026939 0.124952 0.836094 -1.536691 -0.955464 0.802996 0.779838 0.034049 0.613616 -1.019674 -0.404611 0.759687 0.819174 0.341181 0.605029 -0.173454 0.798421 -0.046197 -0.334831 0.746743 -0.908587 0.627483 -0.167013 0.836920 -0.100682 -0.812805 -0.588553 0.528918 -0.635955 -0.561996 0.056757 -1.665392 -0.305974 -0.360450 1.010157 -0.841433 -0.129150 
435 -0.486364 -1.165530 0.235677 -0.035189 -0.617465 -0.152990 0.704147 0.073686 -0.112155 -0.136915 0.164629 0.937561 -0.566149 -0.706837 -0.543115 -1.073205 -0.777975 0.167151 1.366880 0.903206 0.778624 0.925969 -0.769463 -0.265516 -0.585766 0.412434 0.148635 0.583971 0.106482 1.796982 0.236573 -2.005407 0.106611 -0.688481 1.376300 1.388928 0.728318 -0.906580 -0.270727 -0.136954 -0.085329 -0.725000 -1.159029 1.440111 -0.160129 0.446621 0.020650 0.148615 -2.117786 -0.617097 
217 -0.671567 -1.454089 0.261358 -0.115923 -0.762075 -0.085110 0.670694 0.084775 -0.019259 -0.019744 -0.018001 1.055076 -0.680786 -0.695199 -0.769343 -1.210002 -0.708486 0.148077 1.598358 1.114444 0.838435 1.124136 -0.648788 -0.237619 -0.824269 0.566300 0.145952 0.710519 0.221518 1.900562 0.374143 -2.060344 0.136976 -0.626270 1.539265 1.448312 0.510980 -0.928130 -0.112199 -0.052859 -0.056303 -0.815921 -1.168080 1.683955 -0.105356 0.490543 0.045048 0.306932 -2.260263 -0.665668 
374 -0.715341 -1.029111 0.198707 0.112995 -0.664089 -0.157730 0.838428 -0.558578 -0.153419 0.139314 -0.059693 0.176673 -0.043582 -1.274634 -0.156601 -0.413412 -0.899322 -0.319309 1.713707 0.691567 0.695567 0.966656 -1.114925 -0.226384 -0.176652 -0.287796 -0.602305 1.224155 0.114586 1.071996 0.539006 -1.170808 -0.127874 -0.515114 1.301206 1.160521 1.124556 -1.053159 -0.099470 0.022958 -0.126236 0.183256 -0.857895 0.843036 -0.653300 0.370096 0.251866 0.102556 -1.254607 -0.910070 
782 0.160599 -0.262871 0.299697 0.273906 -0.172780 0.723435 0.285259 -0.289740 0.810011 0.451816 0.001016 -0.269412 0.321111 -0.755310 -0.699897 1.219816 -0.673878 -0.871696 1.437281 0.372384 -0.321631 0.339550 -0.977784 0.398461 0.785051 0.212094 -0.608115 1.014276 -0.031768 -0.388452 0.736041 -0.164995 0.327238 -0.597031 0.706097 0.720577 1.324517 -0.345394 -0.434109 0.273189 0.061352 0.103489 -0.496596 0.091847 -0.925422 0.053645 0.238430 0.926910 -0.159626 -0.492891 
755 -0.081923 -0.301819 1.129157 1.589303 0.909116 0.048563 0.001432 0.991782 0.177348 -0.828847 0.263873 0.672553 0.679205 -0.458701 -0.140484 0.673797 -0.399262 -0.044626 -0.351566 0.257723 0.215916 0.531219 0.363711 -0.283423 -0.186038 -1.604982 -0.208753 -0.278650 -0.773463 0.595101 0.456145 -0.159276 -0.649846 0.352495 -0.250347 1.910782 0.547921 -0.241661 -0.483991 -0.034136 0.206141 -0.796597 -1.039294 0.088522 -0.420000 0.594954 -0.995728 1.489178 -0.210896 -0.488207 
834 -0.465090 -0.219048 0.762946 0.159868 0.959899 -0.059945 0.078568 -0.054848 -0.003246 0.328555 0.198875 -0.239821 -1.994032 0.648109 -1.739678 1.266109 0.260378 -0.582173 0.382193 -0.247041 -0.787661 -0.000995 -0.808695 -1.038304 0.015882 -0.142193 -0.274503 -0.143111 -0.391178 -0.239124 -0.511610 -0.221462 -0.689610 -0.383506 1.195270 1.236315 -0.274493 -1.754506 -0.305950 -1.595087 0.485330 -0.642485 -0.082293 0.450941 -1.131503 -0.275675 0.169891 0.607691 -1.318459 -0.480600 
370 0.222006 0.822997 0.749628 -0.159172 0.357497 -0.229265 0.290348 0.537724 0.347242 -0.302991 2.095852 1.769687 0.713460 -0.718799 0.694852 0.587750 -0.725265 -0.142064 0.631176 -0.105787 -0.452902 -0.406399 -0.970804 0.381826 0.354466 0.841652 -0.857014 0.204478 -1.512626 1.172291 1.164703 -0.398601 0.523241 -0.578624 0.268479 1.772974 1.066030 -0.325245 -0.188748 0.893777 0.591788 -0.216452 -1.365811 0.574772 -0.424302 0.800653 -0.156688 0.150018 -0.416394 -0.455979 
120 0.441290 1.370636 1.401411 -0.258692 0.428982 0.898135 -0.795100 0.038597 0.870908 1.200190 0.063853 1.663036 0.399682 -0.179630 -1.216546 0.326299 -0.228288 -2.178899 0.959433 0.591004 -1.985103 0.405148 1.466056 -0.589597 1.240550 -0.778518 0.028731 0.734598 0.139353 1.671214 0.471230 -0.458304 -1.661670 -0.379721 0.846256 1.082388 2.188299 -1.297683 -0.139394 -1.463452 0.134150 -0.455305 -0.518600 2.045984 0.109031 1.033132 0.087866 0.223358 -0.325896 1.131862 
71 -0.443959 0.265844 0.862578 0.319023 -0.479948 -0.492714 0.756698 0.053784 2.153205 -0.337791 0.855600 0.633833 -0.802344 0.129647 0.168926 -0.053963 -0.639367 -1.159344 -0.266033 -0.554616 -1.049139 -1.213229 -0.448218 -0.639246 0.812170 -0.060225 0.417474 1.019561 0.194514 1.549186 -0.208873 -0.653502 -0.675826 -1.560222 -0.319019 1.551813 2.083731 -1.139383 0.715540 -0.797561 0.568958 -1.910378 -1.216355 0.744193 -1.443351 -0.686523 1.232445 0.012278 -1.851253 0.442926 
832 0.856075 0.435449 0.645605 0.401766 -0.724960 -0.575523 -0.283604 1.328118 0.573772 -0.793697 0.605533 1.086012 -0.879671 0.212349 -0.267122 -0.850233 0.179210 0.197316 0.919098 -0.071855 -1.632450 -0.205304 -0.630527 -0.870952 0.301109 0.016255 0.854260 0.759806 0.753959 -0.414951 0.824919 -0.358121 -1.241934 -0.240523 -0.257796 1.296678 1.648972 -1.337070 0.167999 0.045100 -0.098681 0.783521 -0.729654 3.289830 -1.394526 -0.929739 0.130204 1.697324 -2.120965 0.036406 
88 0.770122 -0.600873 -0.048186 1.358832 0.929287 0.781217 1.431907 0.532604 0.472330 -0.887435 0.498105 1.055133 -0.922008 0.360201 -0.779112 -0.114904 -0.562239 -0.440134 -0.140652 0.138678 -1.661582 -0.975082 -0.493741 -0.521619 3.019974 -0.721329 -0.123540 0.438288 -0.928033 0.063379 0.272043 0.875199 -0.632721 0.354636 1.305929 3.350109 0.940014 0.587504 0.079713 -0.024033 -0.978435 -0.243582 -1.621785 -0.100818 -0.340030 -0.692729 -0.434965 1.204307 -1.108161 -0.701140 
160 -0.102392 0.044096 0.653934 -0.927134 -1.013438 -0.260899 -0.927829 0.446508 -0.022026 0.594437 1.350281 0.149854 0.341606 -0.345711 -0.677281 0.824351 -1.973938 0.225695 0.710816 1.670286 -2.028821 1.394952 -0.087266 -1.563597 1.386290 0.493996 -1.031891 1.221052 -1.147651 1.768709 1.385371 -0.465755 -0.912682 -0.245795 0.457781 1.338675 0.496706 -0.635929 -1.418538 -0.993916 0.508865 0.140516 -1.925869 1.575516 0.501251 -0.089718 0.357491 0.275410 -0.952365 0.455085 
284 1.480011 -0.500240 1.106897 1.685846 -0.940411 -0.043548 1.253390 2.435791 1.503500 0.675012 0.292491 1.758011 0.194575 0.147914 -0.263391 -0.784182 -0.561642 -0.603784 1.037541 0.073641 -0.937557 0.334853 -0.096434 1.527323 0.679824 0.663218 -1.520416 1.960379 0.242565 1.187357 1.043573 -2.732352 0.626134 0.472230 0.674572 1.137546 -0.157001 0.662838 -0.528207 -1.397413 0.425987 -0.449535 -1.253434 0.491174 -0.445240 0.157093 -0.824996 0.944715 -1.510308 -0.181817 
190 -0.845280 -0.348510 1.034812 0.239567 -0.072122 -1.400192 -0.116682 0.204644 1.406560 -0.110873 0.352455 -0.259118 0.023827 -1.739810 0.500177 -1.044931 -0.752611 0.141374 0.630756 0.625007 -1.422686 0.579234 -1.101033 -0.830506 0.385539 1.179325 -1.376152 0.922260 -0.822049 1.277319 0.940636 1.048671 0.499341 0.848710 0.113955 1.093568 0.903400 -1.124261 -1.337741 -0.188433 0.609198 0.597985 -1.199208 2.106393 -1.000204 -0.395414 -1.078054 2.166584 -2.463876 0.219227 
394 -0.161568 0.589725 0.732651 0.071693 -0.188070 -0.047204 1.103436 1.481595 0.792427 0.899617 0.335616 1.084608 -1.262353 0.643901 -0.037991 0.619774 -1.890158 0.415241 0.333820 0.645637 -1.826088 1.351344 -0.048387 -0.933903 1.479426 -0.861035 0.103126 0.614337 -0.695021 2.906821 1.490170 -1.497230 -0.585699 -0.274260 -0.206504 0.828451 1.009607 0.236862 -0.276351 -0.550168 0.636745 -0.188086 -1.700857 2.196821 0.635848 0.678791 -0.633320 0.648036 0.187321 -0.748148 
270 0.742931 0.970753 0.490553 -0.201044 1.691545 -0.279452 1.647617 0.211338 1.258868 -0.884362 0.311599 0.281699 1.200947 -0.438694 -0.820962 0.908710 -0.096748 -0.382732 0.631493 -0.364820 -1.463215 0.032774 -0.890338 0.049119 1.160183 0.691159 -1.554752 1.219567 0.190378 0.347545 0.832508 -1.081545 -0.887906 -1.172841 -0.555575 2.720533 1.700313 -0.864822 -0.987455 -1.334885 1.775175 -0.281616 -0.698909 -0.111965 0.134588 -0.181897 -0.720678 0.570832 -0.855073 -0.367893 
285 1.813653 0.704473 0.172532 -1.085579 -0.274034 1.007927 0.798701 0.819167 1.972138 -1.100782 -0.668559 0.071700 0.386641 -1.402315 -0.201213 -0.393933 -0.948460 0.044780 1.624626 -0.061066 -1.972287 0.219732 -1.048496 -0.399458 1.466963 0.659247 -0.621480 0.084077 -0.688462 1.682549 0.964866 0.647570 0.715048 -0.194463 1.716431 2.058508 0.504859 -0.556155 -0.821396 1.080721 -0.874510 0.155526 -0.847810 0.318429 -1.208341 -1.440355 -0.584264 1.043805 -0.165493 -0.522386 
588 -0.669011 -0.157769 0.487934 1.278762 -0.369927 -0.408059 2.007580 2.096554 0.939442 1.287194 0.656452 0.905708 -1.842835 0.421342 -0.187146 1.248702 -1.807095 0.137007 0.981795 1.464757 -1.037093 0.798547 -0.347209 -0.410756 0.209929 -1.084257 0.732918 0.500911 -0.410094 1.182825 -0.547674 0.607395 1.356058 -0.766993 1.212886 1.464582 2.408071 -0.139149 0.068084 -0.744436 -0.116296 -0.361771 -1.269491 0.047337 -0.579232 -0.188388 0.200642 2.178381 -1.467206 -0.457655 
573 -0.676821 -0.683273 0.943380 -0.304388 0.139785 -0.264804 0.881737 0.832528 1.081484 -0.285562 0.599984 1.601539 -1.011270 -0.467999 -0.540777 -0.125326 -0.155202 -0.977250 0.503534 1.192349 -0.926693 1.218994 0.253482 -0.728583 0.305482 1.036306 -0.617179 1.438927 -0.229106 2.719374 1.343698 -0.847030 -0.298502 1.923403 -1.809810 2.262007 1.018405 -0.495939 0.116379 -0.529949 1.536186 -0.154185 -0.913797 2.519669 -0.088933 0.265015 0.300388 0.759383 -1.342935 0.188772 
804 -0.142032 -0.092925 0.852226 0.698290 0.402258 -1.375217 -0.060286 1.853683 0.509750 -0.665085 0.039089 1.951291 -0.105001 -0.915241 -0.469639 0.637391 0.413334 -1.702998 1.028199 -0.250935 -1.304029 1.352844 -0.781822 -0.669709 0.086383 -0.290460 -0.503662 -0.094985 0.961266 0.904536 1.832967 0.359016 1.152117 0.404038 1.645165 0.823751 0.784614 0.482179 -1.349412 1.467336 -1.285914 0.064005 -1.085544 1.511340 -0.348875 -1.255065 0.900852 1.751081 -1.117107 0.289797 
567 0.401400 -0.478985 1.154727 1.351272 -0.660014 -0.158606 0.083645 1.841098 1.330199 0.007468 -1.493538 0.688353 -0.742283 -0.327035 -1.490531 0.092890 -0.938025 -0.878510 1.698290 0.369311 -1.421176 1.421380 1.186620 -0.718270 0.343295 0.895186 -0.816497 2.085786 0.834461 0.581667 1.253861 -0.118812 -0.431992 0.454431 1.107841 2.024086 0.321728 0.000254 -0.636633 -1.288726 -0.075123 -1.025849 -0.025011 1.655259 -0.035086 -1.158267 -1.216905 0.345946 -0.719405 -0.077803 
576 0.887427 0.929446 1.284096 -1.053687 0.270109 0.850354 -0.288500 1.068439 0.516948 -0.756352 -0.371791 1.048312 -0.300056 -1.755178 -0.849997 0.184137 0.702433 -1.472715 -0.534327 -0.555665 -2.406741 -0.006318 0.767700 -0.506769 0.694739 0.067018 0.804254 1.077009 -0.201965 2.177016 0.980818 -0.658518 -0.299078 0.757264 0.528789 1.854542 0.669667 -0.011763 0.695589 0.138551 -0.722967 0.459922 -0.494676 1.583151 -0.397727 -0.374795 -1.029168 2.677711 -1.056291 -0.498396 
779 -0.353985 -0.471146 1.786146 -0.309041 0.009697 0.000778 -0.309168 0.355079 -0.275744 0.653846 0.456152 0.810643 -0.063207 -0.582543 0.213052 2.042578 -0.551986 -0.536758 1.026770 -0.858299 0.725085 0.098293 0.025876 -0.868770 0.286977 -0.125208 -0.211798 0.475594 -0.406512 1.527772 0.521458 -2.454732 0.185238 0.056457 1.157387 0.841834 0.268036 -0.498093 -0.102072 0.454444 0.235189 -2.217709 -0.695538 1.963511 -0.779222 0.101900 0.108848 0.978839 -0.558181 0.727503 
886 1.623269 -0.557964 1.785147 -0.925841 0.848338 0.211969 -0.042312 0.494211 0.115107 1.775489 0.552619 -0.481288 0.449703 -0.697797 0.285757 0.588571 -0.069849 -1.697192 1.197026 -0.005964 -2.205886 0.975379 0.528419 -0.942127 2.023502 1.325370 -0.532809 0.156284 -0.635028 0.170319 0.331051 -0.347158 1.339356 -0.407687 0.743535 1.346412 0.608620 -0.289658 -0.683160 0.095345 -1.482985 -0.457598 0.120699 1.713845 0.285484 -0.284778 0.285167 0.530775 -1.170285 0.119066 
521 -0.245182 -0.402153 1.211834 2.006301 1.298102 -0.073388 0.013757 0.547413 0.897949 -0.719866 -0.362166 0.319469 0.771509 -0.453288 -0.167595 1.035133 0.252427 -0.945740 0.388427 0.432203 0.359909 1.068382 0.854274 -0.455201 -0.182744 -1.488395 0.383751 -0.296030 -0.012465 0.766403 0.486474 -0.368618 -0.909030 -0.502318 -0.399122 1.211933 0.787301 -0.478600 -0.225486 -0.214419 0.680912 -0.172724 -1.193892 -0.308967 -0.347037 0.235459 -0.662929 1.793491 -0.502188 -0.862845 
638 -0.754460 -0.869611 0.497386 0.081841 0.487006 1.878265 0.785989 -0.275264 0.774028 0.581894 0.291873 -0.093640 0.758271 -0.572605 -0.002750 1.215789 -1.404242 -0.994682 0.764763 0.844955 -0.064693 0.421482 -0.842294 -0.205337 0.907930 1.147184 0.519560 0.468018 -0.055088 0.308472 0.149427 -0.154539 1.037982 -1.035357 0.645770 -0.466626 0.633362 0.170265 -0.789569 -0.533711 0.377400 -0.649150 -0.385796 -0.142819 -1.781809 -0.344033 -0.448654 1.090994 -0.596628 0.249331 
283 -0.549709 -0.774954 0.291524 -0.064221 -0.148833 0.612579 1.350580 -0.750847 0.036556 0.511509 0.614906 -0.336826 -0.096015 -1.273335 -0.143745 0.692103 -1.111894 -1.195300 1.525296 0.369699 0.154843 0.579942 -1.131503 0.013864 0.142931 -0.260440 -1.161891 1.652740 0.014621 1.157175 0.564286 -1.140720 0.226192 -0.162085 0.930676 0.681362 1.264153 -0.450707 -0.147106 0.054714 -0.197092 0.412059 -0.792264 0.532104 -1.032734 0.221987 0.014607 0.042321 -1.025626 -1.008191 
11 -0.626251 -1.312137 0.098880 -0.081068 -0.756936 -0.154306 0.740228 -0.312845 -0.185487 -0.074333 0.056696 0.671609 -0.382643 -1.075665 -0.280816 -1.048281 -0.904230 0.057534 1.509937 0.873176 1.004250 0.845043 -0.990663 -0.217996 -0.581909 0.195517 0.026944 0.846538 0.292754 1.563786 0.204436 -1.760424 0.035470 -0.678187 1.483615 1.103577 0.717268 -0.928453 -0.209585 -0.090350 -0.158013 -0.546211 -0.965006 1.278987 -0.460325 0.413524 0.080037 0.119948 -1.923259 -0.771564 
559 -0.143014 -1.009799 0.253869 -0.062711 -0.309881 1.490622 0.275400 0.114968 1.482224 0.472932 0.341609 0.842788 0.179976 0.768001 -0.538448 0.954150 -0.959170 -0.168223 0.704634 0.334584 -0.865334 -0.420526 -0.553177 0.112633 1.199262 1.723186 0.655183 0.042631 0.156710 -0.105873 0.492449 -1.151298 1.228771 -1.577157 1.266324 0.461988 0.256866 0.445096 -0.714959 -0.568682 -0.436580 -0.845019 -0.488669 0.369617 -1.744182 0.076759 0.157765 1.534249 -0.361925 0.685557 
500 1.109718 -0.556287 0.617145 -0.455214 -0.586974 0.004531 -0.201742 -0.744253 0.274037 1.034873 0.954179 0.343164 -1.188213 0.301793 -0.019857 0.802327 1.172657 0.196780 1.217279 0.027099 -0.677244 0.876666 0.159407 0.012282 -0.108018 0.017018 -0.135112 0.637707 -0.063102 1.265274 1.266764 -1.187588 -0.793766 -0.188989 -0.298356 0.910191 0.878395 0.056211 -1.061593 -0.348666 0.009453 -0.128712 -0.764597 1.219392 0.223175 -0.697843 0.096529 2.221939 -0.769700 -0.107835 
776 0.055877 -0.764002 -0.055603 0.485176 -0.797171 -0.293585 -0.386341 0.865577 0.185648 1.737532 1.491938 -0.276985 -0.583823 -0.725459 -0.245637 -0.470483 -0.708297 0.017396 0.296631 -0.290420 -0.721739 -0.469966 0.328165 -0.940059 1.123018 -0.150352 0.565579 0.475723 -0.900616 0.489001 -0.081196 -0.785205 0.446642 0.268425 1.130572 1.045238 0.895541 -1.610302 0.032907 -0.494434 0.110166 -0.379979 -0.748090 1.138639 1.020673 0.170064 -0.194513 0.774167 -0.589197 -0.732076 
600 -0.283188 -0.310682 0.866348 -0.007016 0.982376 0.246998 -0.044418 -0.074870 0.310289 0.498693 0.218485 -0.142053 -1.849912 0.146704 -1.898148 1.445734 0.073662 -0.617897 0.481057 -0.060929 -1.297276 -0.096026 -0.965882 -1.210930 0.042064 -0.286660 -0.223094 -0.425335 -0.370656 0.061250 -0.459110 -0.236087 -0.626827 -0.859698 1.524777 1.718553 -0.129124 -1.786910 -0.738955 -1.647825 0.183025 -0.879270 -0.368929 0.559776 -1.198789 -0.371238 -0.054283 1.225936 -1.548417 -0.574697 
194 -0.744378 -1.084232 0.091169 0.021119 -0.050361 0.738045 1.110263 -0.642778 0.070712 0.387801 0.145082 -0.233147 0.186576 -1.003377 -0.260352 0.246316 -1.049108 -0.822722 1.554955 0.896240 0.424077 0.865396 -0.896155 -0.033571 0.165924 0.324915 -0.495895 1.299101 0.085153 0.875566 0.518989 -0.950639 0.340323 -0.468424 1.032673 0.472669 0.776420 -0.415053 -0.333447 -0.065288 0.114628 0.126972 -0.468990 0.461837 -0.936372 0.008731 -0.037769 0.286749 -1.086849 -0.538202 
839 -0.482781 -0.863428 0.451976 0.246941 -0.000574 1.568247 0.497712 -0.221912 1.111862 0.624517 0.039019 0.199981 0.415051 -0.295421 -0.417547 1.195076 -1.056298 -0.812415 1.091330 0.632734 -0.345555 0.189098 -0.897768 0.141803 0.932588 1.147931 0.314247 0.561814 0.123610 -0.150349 0.464036 -0.333324 0.904462 -1.119740 0.897769 0.134293 0.828478 0.039158 -0.559573 -0.353774 0.026453 -0.518321 -0.418253 0.057806 -1.558614 -0.002753 -0.114926 1.204242 -0.370483 0.052919 
244 0.306742 0.390773 0.575463 -0.499686 0.212297 0.208467 0.329119 0.101391 0.557932 -1.137049 2.486119 2.005685 0.742541 -0.839602 0.906368 0.671625 -0.377205 -0.118767 0.344624 -0.296294 -0.183895 -0.764008 -0.757332 -0.054037 0.587364 0.993646 -1.207796 -0.093751 -1.801218 0.563246 0.850959 -0.440751 0.201173 -0.199813 0.597359 0.995721 0.290835 -0.462588 -0.512432 1.349162 -0.082319 -0.171665 -0.968771 0.146971 -0.585254 1.049530 0.412224 0.219315 -0.683415 -0.538358 
359 0.478054 -0.012145 -0.064941 0.675853 -0.480359 -0.004202 -0.467805 0.403773 0.963476 -0.618430 1.063794 0.870943 0.680890 -1.455418 0.528455 0.766881 -0.293713 -1.063379 0.711256 -1.220034 -0.165532 -0.986548 -0.678017 -1.116897 2.140080 0.543155 -1.738033 0.931117 -1.640726 0.200306 0.466218 -0.784665 -0.683958 0.367894 0.545239 1.003996 0.138998 -1.066385 -0.775324 0.232391 -0.280370 -0.874873 -0.914640 0.295449 -1.101016 -0.223893 0.780525 0.668232 -1.081284 -0.503656 
921 -0.304056 -0.182800 0.789147 0.406080 1.193708 -0.055146 0.395645 0.261557 0.100294 0.174761 0.198799 -0.374417 -2.144828 0.960967 -1.694268 1.242496 0.002296 -0.632538 0.527427 -0.186065 -0.606424 0.303335 -0.729994 -0.834581 -0.081708 -0.121085 -0.502412 -0.047668 -0.451146 -0.321622 -0.488381 -0.445646 -0.606745 -0.314617 1.135409 1.377595 -0.173229 -1.655409 -0.440068 -1.703210 0.802730 -0.826238 0.006984 0.222578 -0.989156 -0.134582 0.260188 0.633296 -1.526309 -0.355080 
708 0.170784 -0.885253 -0.049651 0.589413 -0.683835 -0.247531 -0.475882 1.010214 0.097307 1.648839 1.563299 -0.255010 -0.602206 -0.615421 -0.392054 -0.289501 -0.681138 -0.239881 0.403665 -0.289011 -0.850482 -0.196336 0.346804 -0.937617 1.305985 0.088488 0.361855 0.529918 -0.845325 0.568531 0.155860 -0.912754 0.134319 0.171401 1.142538 1.381999 0.987759 -1.536545 -0.007453 -0.696068 0.193676 -0.522109 -0.782261 1.275207 1.068226 0.323871 -0.226894 1.044230 -0.681397 -0.798158 
608 -0.342857 -0.995546 0.908385 1.591300 0.708572 1.272605 -0.052110 0.865952 1.095759 0.752160 -0.957386 0.637458 0.568578 -0.233723 -0.761897 1.403135 -0.613537 -1.045524 1.946708 1.108791 -0.443607 0.523965 -0.456857 -0.025656 0.829994 1.228374 0.492374 0.175830 -0.097023 -0.958281 1.268808 0.650860 0.677668 -0.691680 0.735436 0.703656 1.018671 -0.650065 -0.596123 -0.530411 0.226972 -0.794078 -0.222451 0.094969 -0.707098 0.349477 -0.583499 0.980613 -0.285827 0.346375 
594 0.059605 -0.866437 -0.195860 0.644158 -0.507390 -0.024322 -0.650902 0.774680 0.154491 1.747519 1.240943 -1.207108 -0.094469 -0.682391 -0.292895 -0.593198 -0.777349 -0.175889 0.986165 -0.486573 -0.928631 -0.156496 -0.049112 -1.032389 1.111614 0.142002 0.123709 0.568450 -0.782006 0.385057 0.179275 -0.856710 0.022376 0.113426 1.216733 0.806485 1.089023 -1.710170 0.474234 -1.072344 0.786392 -0.490223 -0.806219 1.201620 1.311441 -0.417364 -0.075200 0.709031 -0.409448 -0.453525 
432 0.154988 0.465025 0.615568 -0.668973 0.276027 0.148536 0.285298 0.055848 0.231570 -0.849537 2.522634 2.017761 0.915108 -0.619622 0.744016 0.743838 -0.279498 -0.340985 0.146767 -0.331272 -0.370370 -0.640486 -0.953143 -0.041277 0.533851 0.780984 -1.201353 -0.199854 -1.821830 0.701870 1.067523 -0.358361 0.374435 -0.362287 0.459055 1.104258 0.605882 -0.609128 -0.379923 1.132697 0.280056 -0.156281 -0.908375 0.501052 -0.572739 1.265015 0.149266 0.364077 -0.708634 -0.357087 
305 0.438462 0.097223 -0.135498 0.550710 -0.497168 0.035165 -0.455700 0.402750 0.916570 -0.767192 1.178725 1.031822 0.651694 -1.283422 0.672148 0.699115 -0.319745 -0.838752 0.499506 -1.028792 0.017263 -0.995223 -0.543076 -0.958843 1.779262 0.646233 -1.703050 0.719242 -1.773426 0.218027 0.467479 -0.693002 -0.548947 0.247407 0.453644 0.857502 0.030838 -0.910306 -0.759835 0.522046 -0.223939 -0.891762 -1.025491 0.131432 -0.991969 -0.103529 0.732305 0.518071 -0.905251 -0.555839 
479 -0.278185 -0.466816 1.490199 2.279087 1.452525 -0.099016 -0.024725 0.441495 1.187457 -0.630779 -0.714481 0.198746 0.561131 -0.576800 -0.357634 1.278448 0.476527 -1.340697 0.558404 0.476552 0.375241 1.294847 0.957887 -0.624527 -0.115724 -1.656553 0.602444 -0.205383 0.183035 0.871608 0.519458 -0.590132 -0.983075 -0.545718 -0.269007 1.237247 0.756521 -0.575440 -0.165369 -0.303422 0.573942 -0.086197 -1.333527 -0.406145 -0.392300 0.051281 -0.521999 2.092818 -0.619442 -0.940382 
295 -0.217314 -0.607117 1.244797 2.172018 1.199443 -0.007036 -0.206824 0.516432 1.431151 -0.928534 -1.326181 -0.061792 0.458810 -0.569040 -0.637965 1.157628 0.593687 -1.467754 0.838208 0.275378 0.125697 1.435845 0.995553 -1.028475 0.313641 -1.736161 0.605730 -0.095412 0.469462 0.611707 0.346982 -0.319476 -1.380572 -0.523496 0.106491 0.860014 0.906271 -0.837723 -0.347307 -0.442649 0.441198 -0.046808 -1.011950 -0.284956 -0.528752 -0.357052 -0.211414 2.273432 -0.886779 -0.928503 
121 0.736739 -0.554343 0.043458 -0.575720 -0.220756 0.727508 0.023883 1.312756 0.734382 0.692070 -0.873706 0.561608 0.613347 -0.131200 -0.368524 1.927346 -0.991518 -0.784115 0.611279 -0.684536 -1.885734 -0.060833 -0.687654 -0.584571 0.255706 -0.526358 -1.201851 1.577965 0.513036 1.353473 0.327555 -1.450984 -0.742859 -0.589928 0.416477 2.125878 0.705140 0.188520 0.428276 -1.443652 -0.141630 -0.788811 -1.659086 1.302193 -0.009825 0.458416 -1.519015 1.183825 -0.406849 0.469722 
592 0.127097 0.066357 0.073984 0.727991 0.092634 -1.358058 0.480612 0.496168 1.137488 1.039438 -0.263671 0.308653 0.450348 -0.691311 -0.048709 0.847814 -1.107973 -0.789257 0.877037 0.386214 -0.167950 -0.236838 -0.478524 -0.870355 1.783993 -1.408710 0.736521 0.515088 0.498113 0.847744 0.348467 -0.073530 -1.089833 -0.977954 1.807297 0.732660 1.146573 -1.021432 0.068877 -1.088282 -0.865890 -1.044418 -0.966370 1.655661 -1.221552 -0.581173 -0.501578 0.018830 -2.099711 0.090216 
85 -0.679263 0.882081 1.937284 -1.336774 -0.164611 0.330228 0.642552 0.715785 0.893385 -0.105611 -1.184995 -0.183022 -1.400596 0.309131 -0.812846 0.993268 0.722473 -0.598670 0.973002 -0.461225 -1.304541 0.819649 0.685718 0.086774 0.019136 0.521659 -1.691442 1.590554 -1.533815 2.449767 1.739727 -1.893894 -0.164990 0.242649 0.244592 1.116603 0.493246 -1.637476 1.826876 -0.712390 -0.344457 -1.382515 -0.878649 1.522093 -0.144598 -0.341888 -0.451853 0.798875 0.282772 0.501093 
382 1.134459 0.584543 0.350035 0.958980 1.545943 0.494653 -0.406158 1.510502 1.059194 -0.435277 1.247653 -0.807567 0.107162 -0.441186 -1.240600 -1.087531 -0.045200 -0.979898 0.545681 0.210113 -1.026193 0.249861 -1.089931 -0.975710 0.614428 0.035681 -1.257432 0.311137 -0.071441 1.699549 0.137666 -1.750870 -0.519294 -0.177715 0.861988 0.777487 1.293144 -0.610350 -0.800886 0.821867 1.108840 -0.102079 -1.796831 0.772373 -0.200775 -0.460723 0.707214 0.670148 -0.346095 -1.753923 
523 0.861129 -0.664528 -0.226883 1.076912 0.577039 0.352774 0.170902 0.734040 1.370970 1.539770 0.459296 0.249054 -0.707110 0.013393 -0.480586 0.121718 -1.821209 0.225282 1.733577 0.179629 -0.711102 0.962348 -0.213648 -0.681823 0.474263 -0.969358 -0.301375 -0.277705 0.372963 0.854038 0.310047 0.119690 -0.060888 -0.670677 1.254672 2.716410 0.027118 0.347293 -1.858421 -1.077975 -0.092584 -1.237236 -0.615026 1.463149 -0.302763 -0.477242 0.208115 1.301454 -2.000193 -0.841817 
585 -0.020867 0.477411 0.249674 -0.145390 1.042325 -0.282719 0.388237 -0.151374 0.234964 0.578984 0.224752 -0.732411 -0.267449 0.276079 -0.093307 2.346033 -1.443735 -0.187571 0.828626 -0.483555 -0.896938 0.834663 0.144561 -2.241669 2.004195 -0.950300 -1.501335 0.726797 -0.783024 0.268849 1.510972 0.475128 -0.462740 -0.468502 0.805922 0.928703 1.655400 -1.751735 -0.901695 -1.019931 -0.016413 -0.933636 -0.639689 1.354995 0.169316 -0.229201 -0.776545 0.549761 0.708319 -0.166847 
790 0.050636 0.118449 -0.053905 0.616082 0.020119 -1.532402 0.397517 0.536593 1.012061 1.051662 -0.431449 0.320789 0.525597 -0.709828 -0.046853 0.967074 -1.224489 -0.675418 0.867391 0.362718 -0.162895 -0.262899 -0.556512 -0.985831 1.841476 -1.480634 0.833389 0.510009 0.641521 0.819222 0.165167 0.130871 -1.170461 -1.040405 1.809297 0.707109 1.132059 -0.986467 0.077237 -1.145507 -1.007093 -0.871297 -0.865966 1.788129 -1.282628 -0.640883 -0.538552 -0.143361 -2.085098 0.229941 
810 -0.009899 0.357445 0.244943 -0.100649 1.045204 -0.252361 0.343836 -0.129843 0.283671 0.563443 0.188425 -0.666809 -0.248360 0.117119 -0.223320 2.361573 -1.478097 -0.261483 0.852110 -0.520468 -0.940388 0.757033 0.057798 -2.240841 2.043275 -0.931095 -1.553183 0.728628 -0.693614 0.284500 1.546947 0.393352 -0.411915 -0.437351 0.817753 0.955062 1.604268 -1.743570 -0.995376 -0.957016 -0.136859 -0.997746 -0.642421 1.444043 0.099938 -0.251284 -0.715600 0.686056 0.665686 -0.252263 
20 -0.168886 -1.305444 0.804118 1.155932 0.015885 -0.976954 1.594905 0.296841 1.350315 -0.683226 1.277294 0.724110 -1.328319 1.008208 -1.090308 1.283519 -1.216631 0.805225 0.403545 0.797668 -1.417350 0.509160 0.130623 -1.758526 0.954574 -0.659028 -1.241246 -0.279776 -0.264976 0.792412 1.184357 -0.213722 0.835761 -0.492175 0.424120 0.414735 -0.472077 -1.087747 -1.659958 -0.358941 -1.181157 -1.507573 -0.745282 1.130211 -1.172825 -0.229658 0.294459 0.486639 -2.212907 0.090714 
345 0.680119 -0.546998 -0.078108 -0.656435 -0.292784 0.609070 -0.036100 1.181948 0.593403 0.707091 -0.949610 0.422320 0.632315 -0.067760 -0.269203 1.890225 -0.896617 -0.567569 0.487687 -0.647938 -1.766371 -0.112578 -0.747156 -0.526993 0.099483 -0.531038 -1.105829 1.568746 0.643069 1.274501 0.201561 -1.374170 -0.821969 -0.614080 0.261048 1.960093 0.660912 0.271143 0.554755 -1.426267 -0.160411 -0.614056 -1.552336 1.214475 0.050482 0.507288 -1.562107 1.028325 -0.257508 0.566485 
998 -0.595962 -0.742011 0.215572 -0.310096 -0.729406 -0.351289 -0.455414 1.434765 0.710374 0.757262 -0.133375 0.843037 -0.638904 -0.107543 -0.564195 0.873914 -0.771040 -1.121580 0.136089 0.125117 -0.760771 0.382967 1.639332 -1.481522 0.875468 -0.447048 -1.177909 -0.121674 0.336515 0.525224 0.324164 0.247038 0.207783 -0.964910 0.955214 1.102615 1.017785 -0.215842 -1.700826 -1.666558 0.232480 -0.142244 -1.036587 1.741417 -0.182993 -0.384386 0.203431 1.338942 -2.226881 0.238710 
146 -0.243692 -1.415222 0.845160 1.270645 0.046571 -1.038858 1.666814 0.468951 1.503293 -0.577906 1.360286 0.844334 -1.353616 0.990487 -1.285068 1.376638 -1.297418 0.675511 0.575238 0.894407 -1.606891 0.616568 0.016736 -1.905007 1.122531 -0.658663 -1.295686 -0.200136 -0.290530 1.023088 1.347111 -0.186320 0.734753 -0.525894 0.529203 0.624872 -0.398754 -1.177621 -1.801750 -0.531045 -1.190101 -1.699993 -0.820666 1.310942 -1.329917 -0.251605 0.361237 0.701128 -2.405205 -0.000926 
398 -0.657054 0.632559 1.845732 -1.154516 -0.161508 0.300625 0.624865 0.693864 0.908758 0.011808 -0.877122 -0.052927 -1.261572 0.263470 -0.869631 1.051165 0.544888 -0.765943 1.089129 -0.378638 -1.234447 0.892789 0.527926 -0.073227 0.185792 0.498933 -1.627388 1.487974 -1.373487 2.468231 1.702456 -1.811020 -0.271663 0.103007 0.280814 1.331646 0.624052 -1.542721 1.469877 -0.733696 -0.107193 -1.345009 -0.935454 1.590713 -0.266410 -0.250587 -0.221789 0.769164 -0.064368 0.368095 
978 0.852710 -0.584691 -0.330942 1.072329 0.643539 0.357723 0.074589 0.632788 1.285304 1.680663 0.474254 0.156565 -0.799509 0.013295 -0.404410 0.090986 -1.673086 0.192525 1.749787 0.139195 -0.611739 0.883392 -0.198622 -0.660955 0.399249 -1.045191 -0.223862 -0.332384 0.454699 0.856540 0.106551 0.054261 -0.048756 -0.704546 1.186754 2.586550 0.013335 0.324869 -1.773377 -1.026830 -0.014150 -1.126989 -0.504891 1.433226 -0.223260 -0.357828 0.286170 1.215788 -1.981939 -0.831726 
937 -0.651365 -0.764362 0.156478 -0.384059 -0.980196 -0.501954 -0.495744 1.489970 0.729525 0.895863 -0.260273 0.872545 -0.755437 -0.207209 -0.570920 0.912751 -0.732576 -1.177394 0.155695 0.177044 -0.734318 0.329043 1.766684 -1.446861 0.836489 -0.372686 -1.260223 -0.128415 0.573779 0.459648 0.295256 0.308339 0.308040 -1.037951 1.035770 0.947099 0.873578 -0.153610 -1.722705 -1.703095 0.252583 -0.062903 -0.928360 1.804946 -0.148449 -0.483135 0.287679 1.386996 -2.337871 0.282743 
207 0.984998 1.058033 1.751953 0.179616 0.976647 -0.179211 0.386229 -0.187853 0.249239 1.292527 1.235723 -0.949698 -0.480345 -0.325330 -0.223140 1.011540 -0.329650 -1.055310 2.745916 0.337351 -0.120493 0.337274 0.075999 -0.412796 0.239111 1.411609 0.037451 1.440761 -0.543179 2.239739 0.395190 -1.693811 -1.712971 -0.264162 -0.652792 1.381330 1.398197 -0.140224 0.677161 -1.039494 1.361375 -1.328347 -1.653592 1.230498 0.098248 0.136285 0.142123 -0.940931 -2.241096 1.350234 
220 1.100535 0.537849 0.354798 0.919922 1.583713 0.569872 -0.451375 1.461513 0.994190 -0.375273 1.282390 -0.868617 0.124603 -0.398589 -1.356563 -1.060152 -0.049305 -0.926575 0.606816 0.299545 -1.016559 0.361955 -1.100687 -1.028094 0.491122 0.054427 -1.325411 0.392573 -0.056021 1.767954 0.143076 -1.819128 -0.492248 -0.230774 0.865634 0.703176 1.329947 -0.560435 -0.862809 0.856675 1.163076 -0.006415 -1.796863 0.754116 -0.193560 -0.440239 0.645068 0.599193 -0.341814 -1.770383 
324 0.913730 0.965147 1.574130 0.234142 0.968875 -0.236265 0.376779 -0.078697 0.314813 1.131910 1.134183 -0.830002 -0.327410 -0.382902 -0.196626 0.945055 -0.408503 -0.918272 2.530435 0.255405 -0.188215 0.283474 0.011590 -0.462715 0.349630 1.195525 0.045394 1.344626 -0.602016 1.874778 0.375755 -1.453737 -1.479352 -0.241307 -0.479041 1.385090 1.369274 -0.190119 0.571384 -0.956343 1.172224 -1.188090 -1.553928 1.228943 0.012473 0.104183 0.038526 -0.771369 -2.075938 1.223448 
533 0.719499 1.129697 1.722951 1.463933 -1.343480 -0.636972 0.487928 0.875540 0.864738 0.262028 -0.678061 0.812101 -1.498604 -1.444262 0.729129 1.066284 -0.678666 0.140515 0.271407 -0.513377 -0.304265 0.101539 -0.828070 -0.263517 1.053977 1.025158 0.531289 1.440917 -0.377367 0.777624 -0.292733 0.660538 0.037967 0.913530 0.723553 1.887825 1.185844 -0.418213 -0.901675 0.957169 -0.583231 0.531418 -0.324546 0.259736 -1.111556 0.336234 -0.424441 2.462997 -1.101194 -0.281951 
329 0.122254 -0.238101 1.206558 -0.349304 0.339973 0.133097 -0.560194 1.264246 -0.117556 1.590778 -1.125049 -0.043130 -0.675090 1.504634 -1.178214 1.207529 -0.814207 -1.035812 2.018479 -0.865057 -0.492629 1.623788 0.609543 -1.085630 0.092089 -0.699073 -0.227959 0.558273 -0.708027 1.535796 0.824373 -0.205166 0.289425 -0.539717 0.893065 1.861866 2.076874 -0.416593 -0.916955 -0.636233 1.531109 -0.674049 -1.328436 2.139013 -0.939084 0.673131 -0.260928 -0.123686 -1.187422 0.447194 
454 0.070982 -0.557971 0.449254 0.081079 -0.087832 0.571419 0.047408 0.514279 0.568432 0.470348 1.130540 0.841146 0.035682 -2.206673 -0.575133 0.664760 -0.597065 -0.865539 0.732739 -0.171031 -1.020282 -0.699099 -0.573374 -0.451091 1.167560 0.439511 -0.465817 0.832363 1.230901 0.363305 0.184857 -0.161160 -0.405936 0.588429 -0.047443 1.742093 -0.677652 -0.191771 -1.004314 -0.103987 -0.256667 -0.530203 -0.149283 1.384750 -1.173859 -0.826637 0.265555 2.210890 -1.476670 -0.621975 
476 0.719398 1.033680 1.764403 1.394989 -1.257115 -0.566994 0.359844 0.924227 0.897915 0.457267 -0.707532 0.787634 -1.513110 -1.389042 0.660431 1.194138 -0.723561 -0.033250 0.353547 -0.560620 -0.414353 0.116646 -0.738105 -0.307002 1.091529 0.962396 0.481957 1.474472 -0.287654 0.838172 -0.301415 0.527875 0.020987 0.859122 0.778563 1.953667 1.275403 -0.422340 -0.990993 0.865803 -0.488430 0.429043 -0.429277 0.301150 -1.066071 0.365143 -0.452540 2.437669 -1.164376 -0.320135 
781 -0.256141 -0.326220 -0.147567 -0.510948 1.140289 0.892450 -0.484361 0.898493 1.601425 1.253882 0.731126 0.858672 -0.519773 0.241193 -1.275162 -0.041968 -1.071705 -1.113040 0.294580 0.562468 -2.518900 0.755726 0.523356 -0.958257 -0.076234 0.078775 0.248839 0.036610 1.041702 1.217735 0.703628 0.334195 0.259402 -0.128236 -0.087048 0.730258 0.367536 -0.471286 -0.295273 -0.205132 -0.057097 -0.897676 -0.827170 1.158953 -0.491392 -0.876322 -0.675678 0.967505 -0.853506 -0.738466 
339 0.677649 0.456775 0.518858 1.232479 1.379884 -0.045621 0.043459 0.131864 -0.155540 -0.197406 -0.537495 0.104570 -0.947850 -0.369077 0.105011 1.137913 0.327067 -1.268067 1.011671 0.248165 0.070302 -0.199663 0.011385 -0.431082 1.744391 -0.491292 -0.309325 1.007728 -1.272223 0.803996 1.068422 -1.332257 0.727812 -0.396748 1.736875 -0.410494 0.898723 -0.867825 0.658414 -0.142552 -0.389306 -0.266676 -0.579786 1.719954 -0.355691 0.001341 -0.489057 1.675959 -1.350880 1.339507 
725 0.256786 -1.004701 0.382147 0.045791 0.564041 -0.608850 0.602096 -0.130610 0.453385 1.573909 1.084982 0.936088 0.349113 0.227119 -0.123021 0.084142 -1.090503 -0.221548 0.461001 0.666925 -0.847627 1.483440 -1.022443 -0.321963 2.397092 0.169905 -0.440870 1.358767 0.070136 0.643443 1.899057 1.088026 -0.597787 0.648833 0.444845 1.017399 -0.064761 0.420485 -0.764068 -0.951429 -1.299868 -0.928493 0.796866 0.850171 -0.121800 -0.419155 -0.119073 1.190143 -1.233937 -0.702132 
552 1.137180 -0.459736 -0.035432 0.931715 0.384755 -0.207664 0.412893 1.051450 0.596622 -0.137595 0.217397 -0.072825 0.375113 -1.368910 0.273578 -0.811339 -0.322405 -1.086277 0.743832 -0.916781 -1.151662 0.466934 0.385389 0.189237 0.988314 0.674582 0.371625 1.713700 0.524248 0.674167 2.142106 -0.667946 -1.382030 0.112485 0.230966 1.796089 1.322670 -0.263974 0.163665 -1.348274 0.394442 -0.965578 -0.937356 0.037280 -0.429908 -1.453306 -0.275767 1.364104 -0.836254 -0.592086 
385 -0.561255 -0.908387 1.235968 0.694654 0.430748 0.210368 0.422094 1.412315 0.148951 0.642414 0.246891 1.222360 0.377557 -0.249323 -1.661901 0.115345 -0.639778 -1.016931 0.716394 0.178363 -0.996341 -0.236633 -0.217242 -1.048175 0.692711 0.223074 -0.740405 1.217259 -1.027423 1.822215 0.126412 0.161271 0.812537 -0.118614 -0.540794 1.127417 -0.064719 -0.013573 0.224359 -0.999688 -1.329129 -1.511615 -1.206615 1.349889 -0.333412 -0.737993 -0.196245 -1.004155 -1.403396 0.121336 
87 0.654353 0.934526 1.644308 1.402032 -1.144289 -0.533393 0.476226 0.871391 0.840213 0.389469 -0.532632 0.771993 -1.338059 -1.272870 0.581251 1.086021 -0.728775 -0.090198 0.332991 -0.502265 -0.379745 0.152016 -0.762062 -0.267890 1.087564 0.901759 0.450609 1.378374 -0.295606 0.761897 -0.236176 0.418090 0.021381 0.755746 0.751751 1.925388 1.253617 -0.436574 -0.944734 0.677425 -0.452053 0.354094 -0.455460 0.338103 -1.051360 0.322039 -0.330200 2.262745 -1.187013 -0.296121 
240 -0.404146 0.265901 1.118850 0.954045 -1.384447 -0.556136 0.098631 0.288256 1.225213 1.071578 -0.173343 0.271524 -0.419594 0.150067 -1.085865 0.663374 0.463967 -0.628960 -0.090412 0.603666 -1.743770 0.109126 -0.907321 -0.312574 0.596489 -0.737210 -1.219043 1.684112 -0.787147 1.320517 0.815219 -0.030653 -0.616847 -0.080531 0.039377 0.287481 1.539952 -0.773572 0.287198 -0.440507 1.316109 -0.338381 -2.518597 0.633874 -1.652300 -0.310404 -0.450595 1.295590 -0.996875 0.362793 
408 -0.378121 0.278901 0.973102 0.877668 -1.327927 -0.515800 0.107495 0.172865 1.088845 0.934106 -0.263059 0.219356 -0.362985 0.167116 -0.888812 0.489674 0.545918 -0.484711 -0.205980 0.577793 -1.432646 0.036687 -0.825426 -0.195443 0.430319 -0.625319 -1.106154 1.466847 -0.706327 1.113208 0.650421 0.100100 -0.524383 -0.026518 -0.045971 0.019200 1.287529 -0.596480 0.392572 -0.298359 1.291376 -0.218161 -2.211206 0.453848 -1.515789 -0.291704 -0.397837 1.046469 -0.806943 0.400469 
462 -0.298480 0.187031 1.025804 0.938086 -1.174655 -0.488198 0.181486 0.295889 1.190075 0.823179 -0.080028 0.350982 -0.323854 -0.027948 -0.947260 0.618940 0.400226 -0.564959 0.012973 0.474360 -1.614743 0.068782 -0.871515 -0.313882 0.645289 -0.623919 -1.093570 1.443587 -0.723993 1.113487 0.749328 -0.005532 -0.528491 -0.046149 0.101081 0.467078 1.383274 -0.740837 0.142855 -0.381882 1.048149 -0.292424 -2.174632 0.605334 -1.565171 -0.338143 -0.365408 1.278295 -0.986633 0.245825 
206 -0.347544 0.323425 1.017033 0.964682 -1.374507 -0.555953 0.145234 0.194588 1.189753 0.946401 -0.191996 0.296879 -0.411856 0.113857 -0.946603 0.553675 0.525274 -0.537612 -0.195773 0.548899 -1.590884 0.004216 -0.950891 -0.180947 0.521556 -0.670917 -1.157241 1.587285 -0.723155 1.207811 0.712317 0.024081 -0.597683 -0.029057 -0.059943 0.162263 1.443841 -0.690998 0.356532 -0.384753 1.295521 -0.214843 -2.356671 0.518949 -1.615191 -0.308617 -0.372461 1.216760 -0.896349 0.356086 
657 0.000267 0.734438 1.322549 -0.561384 0.560574 -0.831816 0.542031 0.647628 1.390475 0.081587 -0.007294 -0.057982 -0.658389 -0.750102 -1.612430 0.538102 0.184863 0.120536 0.055934 0.596257 -1.089655 0.061533 -0.371281 -0.835226 -0.447375 -0.266850 -1.010464 -0.570517 0.568530 0.593004 1.643100 0.212977 -0.820161 -0.433116 0.640098 1.836712 1.678356 -0.628465 -0.589357 -0.266033 -0.842883 -1.318719 -0.389008 0.655466 -0.139147 -0.581691 -0.117634 1.118375 -1.006977 -0.441210 
541 -0.063991 0.878173 1.406137 -0.598184 0.557478 -0.991409 0.618029 0.696270 1.506936 0.065483 -0.006154 -0.065936 -0.682870 -0.802456 -1.753619 0.346251 0.206207 0.264700 -0.055940 0.747706 -1.148208 0.034843 -0.344677 -0.896238 -0.533860 -0.275985 -1.087435 -0.693384 0.624114 0.629245 1.761239 0.335470 -0.839422 -0.442163 0.662680 1.857254 1.771401 -0.669150 -0.597486 -0.233682 -1.004093 -1.421225 -0.358300 0.700831 -0.058896 -0.655217 -0.125621 1.078118 -1.023850 -0.378988 
817 -0.043214 0.878990 1.524997 -0.528490 0.526188 -0.953735 0.606191 0.807664 1.519064 0.111134 -0.087714 -0.020120 -0.767350 -0.816040 -1.781204 0.408719 0.176963 0.107564 0.028788 0.686262 -1.276092 0.064130 -0.419249 -0.865632 -0.490320 -0.220300 -1.124816 -0.570358 0.620284 0.622169 1.742504 0.299247 -0.825408 -0.389834 0.704849 1.970734 1.784193 -0.680488 -0.556477 -0.279442 -0.928660 -1.462983 -0.413826 0.737565 -0.169952 -0.695069 -0.109026 1.170126 -1.103987 -0.371310 
712 0.026309 0.856502 1.353560 -0.607382 0.483485 -0.864769 0.628338 0.645292 1.405065 0.094739 -0.128986 -0.118311 -0.780707 -0.717894 -1.678666 0.383130 0.174526 0.294153 0.033327 0.679636 -1.064798 0.018229 -0.339013 -0.788081 -0.564597 -0.167491 -1.070561 -0.624771 0.662100 0.577456 1.617457 0.246685 -0.739444 -0.457748 0.622831 1.742918 1.662532 -0.567576 -0.556942 -0.278236 -0.972732 -1.291322 -0.254219 0.665768 -0.060654 -0.658655 -0.147087 0.952095 -0.999004 -0.307361 
570 0.429681 0.412806 1.637447 1.080076 0.345374 0.113039 -0.312837 0.741606 1.472369 0.781561 0.056182 0.561448 -0.108453 -0.089210 -0.021289 0.167934 0.017961 -1.054609 0.192948 -0.589536 -1.714195 0.772940 -0.492982 -0.185747 1.280530 -0.177737 0.319683 1.036539 -0.176974 1.233904 0.501837 0.062286 0.526070 0.195008 1.121536 2.698751 -0.517357 -1.094323 -0.044847 0.383473 0.528147 -1.364581 -0.984225 -0.192175 1.042954 -1.083347 -0.288534 1.108623 -0.877846 0.909808 
101 -0.288721 -0.447029 0.169024 -0.111635 0.223447 0.487580 -0.387783 1.187443 0.446468 0.831526 1.149172 1.641359 -1.499161 1.576826 -2.123200 1.272063 -0.004027 0.315629 0.425634 0.461244 -2.252629 0.033663 -0.751757 -0.900596 0.112903 0.369256 -0.731303 1.108379 0.056240 1.700921 0.186997 -0.492715 0.717784 0.051509 0.157606 2.188481 0.363125 -0.245591 0.815518 0.351275 0.254945 -0.093039 -0.651862 1.007572 -0.642911 1.011151 0.086652 0.936995 -1.358994 -0.646152 
826 0.660341 -0.992844 0.549503 -0.423671 -0.000575 -0.014331 0.597700 1.054112 1.459117 -0.018949 0.130343 -0.699182 0.837551 0.345918 -0.794865 -0.399649 -0.483187 -1.280960 1.810253 0.019780 -1.215100 0.371151 0.734765 -1.242754 0.929846 -0.108401 -0.169592 -0.316472 -1.075570 0.371309 0.867988 0.370699 -1.068658 0.591771 0.077463 0.561515 -0.436934 0.531048 -0.546106 0.066416 0.129199 -1.107476 -1.624479 1.473711 -0.879129 0.199394 0.338896 1.714813 -1.829980 0.426280 
149 -0.561230 -0.935383 1.261253 0.751549 0.414378 0.103710 0.466612 1.403479 0.169465 0.608029 0.128809 1.199677 0.236750 -0.114695 -1.667437 0.107824 -0.677112 -0.876349 0.683746 0.196580 -0.983212 -0.206813 -0.183467 -1.098826 0.632801 0.208649 -0.691763 1.154601 -0.937185 1.756197 0.092233 0.210689 0.799824 -0.179994 -0.604728 1.051378 -0.042263 -0.058931 0.176839 -1.029069 -1.314241 -1.533984 -1.128767 1.307220 -0.215804 -0.719968 -0.159567 -1.072605 -1.355676 0.199315 
448 -0.325229 -0.350360 -0.138138 -1.140148 -0.716500 0.361155 -0.536956 -0.185745 0.262604 -0.530361 0.517667 1.129898 0.903231 -0.001124 -0.736669 0.008178 0.867481 -1.743508 -0.551393 -0.426957 -1.213552 -0.003446 -0.319633 -1.609914 1.083532 0.026223 -1.687942 0.997223 -0.606165 0.858640 1.533634 -0.900408 -0.153057 -0.035699 0.966985 -0.255156 0.749906 -1.141922 0.134416 0.613886 0.314114 0.009373 -0.104738 1.751591 -0.347919 1.056633 -0.293744 1.186456 -0.839441 -0.098785 
680 0.639498 -0.962595 0.471591 -0.393989 -0.016003 0.035770 0.529033 0.920423 1.353239 -0.047255 0.249912 -0.668511 0.791833 0.282704 -0.784176 -0.387608 -0.499554 -1.206999 1.767722 0.002131 -1.140607 0.322479 0.541803 -1.176264 0.957874 -0.076529 -0.130444 -0.218248 -0.973583 0.357863 0.826707 0.311346 -1.126765 0.581992 0.088094 0.635634 -0.316571 0.387217 -0.538419 0.011603 0.109149 -1.006837 -1.548534 1.359483 -0.893142 0.209312 0.356531 1.575214 -1.734891 0.387880 
681 0.181653 0.005800 1.482493 0.284754 -0.248766 0.682926 -0.066553 0.639076 -0.817527 -0.909343 0.679873 0.101739 -0.824170 -0.073832 -0.364667 0.459649 -0.432322 -0.586164 0.146672 -0.356405 -1.959039 0.134001 -0.332845 -0.389899 0.447988 0.285658 0.038320 1.282169 -0.523546 0.711251 0.018819 -1.586839 -0.274535 -0.104400 0.049388 1.359982 1.848709 -1.486616 -0.165712 -0.938082 -0.929214 -0.205818 -1.223632 0.475926 -0.604728 -0.271044 -1.027729 -0.391813 -0.413693 0.044712 
278 -0.998295 -0.424934 0.302445 1.126477 -0.342988 -2.121494 -1.071801 0.619328 0.541976 0.308006 -1.279686 0.509279 -0.212579 -0.533677 0.114374 0.662851 -0.228143 -0.455133 0.956883 -0.664160 -1.315372 0.525506 0.135932 -1.984875 2.307351 0.313273 -0.828852 1.344349 -0.343536 0.127490 1.230866 0.235747 -1.168758 0.806162 0.422166 2.004980 -0.061100 -1.004926 0.334646 -0.895587 -0.168319 -0.182044 -0.370830 2.729233 0.062415 -0.197777 0.526743 0.874283 -0.533584 -0.550664 
609 0.854190 -0.193178 0.843521 0.808548 0.385170 0.111616 -0.275418 0.471487 0.216693 0.068935 0.970544 0.273470 -0.972682 0.238758 -0.515293 0.969961 -0.056252 -1.958847 0.832483 -0.858744 -0.572701 1.884302 -0.051235 -0.725462 1.250615 -0.599904 0.159520 -0.479901 -1.006618 0.264344 0.739787 -0.302235 -0.553385 -1.434776 1.506313 1.450158 2.687099 -1.709388 -1.374744 -0.837792 -0.793902 -0.152466 -0.317630 0.107572 0.145376 1.517100 0.427857 0.230775 -0.195494 0.130312 
118 1.261427 0.138692 0.922010 1.291360 0.201195 -0.704634 1.341464 0.239314 0.280834 -0.899587 -0.316136 1.058793 -0.587837 -1.101673 0.216637 0.099248 0.146987 0.778320 1.026537 -0.042679 -0.157373 0.706600 -1.428061 0.409306 0.215218 0.798151 -1.233319 -0.198668 -0.495726 0.737352 0.771770 -0.507880 -0.405131 0.398681 0.461888 1.954681 1.118827 -0.906173 -0.684746 -0.933594 -1.186872 -0.827783 0.689515 2.379273 -2.036329 0.136608 -0.692062 1.177138 -1.392096 0.389515 
165 1.230847 0.097724 0.942217 1.139234 0.211749 -0.478960 1.305546 0.274583 0.343222 -0.790868 -0.306200 1.035771 -0.628956 -0.968405 0.146242 0.220751 0.110693 0.488961 1.027024 -0.065554 -0.193545 0.685132 -1.260977 0.371677 0.235336 0.805612 -1.156785 -0.034365 -0.477436 0.783617 0.791900 -0.572008 -0.372909 0.348474 0.531602 1.997388 1.154649 -0.835564 -0.555786 -0.887903 -1.068318 -0.926378 0.484019 2.260905 -1.929029 0.171142 -0.692559 1.173296 -1.366617 0.279477 
947 1.196450 -0.379588 -0.125175 0.933632 0.336944 -0.242989 0.491036 0.909040 0.465291 -0.276324 0.130392 -0.192914 0.382909 -1.374980 0.470207 -0.958704 -0.224477 -0.937015 0.585521 -0.978267 -0.947563 0.390981 0.313915 0.384271 0.886731 0.751612 0.485724 1.673402 0.499027 0.518909 2.068471 -0.692652 -1.437557 0.179159 0.074869 1.638640 1.357702 -0.186187 0.369371 -1.356681 0.456857 -0.847482 -0.817186 -0.081340 -0.410014 -1.443573 -0.285769 1.259738 -0.685637 -0.474978 
33 -0.310836 -0.477836 0.126769 -0.245659 0.274780 0.583198 -0.414653 1.181049 0.403580 0.892251 1.089115 1.608553 -1.492370 1.728426 -2.229229 1.385504 0.057359 0.324953 0.403079 0.391068 -2.214509 -0.009471 -0.688834 -0.851467 0.002024 0.393938 -0.748409 1.150432 0.139557 1.660227 0.111290 -0.572488 0.744312 0.048774 0.145757 2.193362 0.285819 -0.207295 0.916025 0.347646 0.285397 -0.074691 -0.604855 0.895121 -0.628858 1.037001 0.026642 0.819852 -1.310360 -0.635559 
331 -0.294481 0.881999 0.737764 0.726396 0.110982 0.816246 0.627157 0.580608 1.339331 0.742837 0.610521 0.532425 0.278610 -0.460640 0.846695 0.774524 -0.139260 -1.391397 0.099599 -0.320671 -1.611651 0.767541 1.124502 0.320591 1.326899 0.599736 -0.353936 -0.059186 -0.308155 0.406710 -0.653151 -2.265480 -1.027649 -0.024301 -0.372439 0.731428 0.025665 -0.835529 -0.388588 -0.850641 0.071420 -0.054426 -2.150006 0.054869 -0.125658 -0.104242 0.502853 0.724103 -0.803068 -0.642163 
227 -0.341041 0.890984 0.756169 0.697665 0.008706 0.740780 0.597503 0.567879 1.234172 0.733205 0.598936 0.498300 0.196449 -0.376597 0.847054 0.816749 -0.125042 -1.300620 0.068469 -0.301963 -1.685077 0.814677 1.133692 0.283185 1.317216 0.628989 -0.321202 -0.092992 -0.374105 0.491743 -0.645793 -2.334109 -1.092415 -0.059232 -0.432419 0.723199 0.062853 -0.907887 -0.342600 -0.924443 0.031094 -0.099992 -2.208192 0.123996 -0.077925 -0.067010 0.557876 0.706137 -0.750232 -0.595990 
581 0.719440 -0.995317 0.472215 -0.408734 0.051736 0.100509 0.494998 0.958999 1.396894 0.076891 0.357511 -0.637215 0.855678 0.164835 -0.751294 -0.299143 -0.571192 -1.220938 1.815717 0.016039 -1.240978 0.295391 0.521796 -1.177541 1.066006 -0.071142 -0.174786 -0.138591 -1.070118 0.409210 0.867044 0.271096 -1.127827 0.595892 0.146954 0.773396 -0.231050 0.376734 -0.604238 0.016579 0.105718 -1.093068 -1.683840 1.482244 -0.939247 0.123270 0.249646 1.796904 -1.840121 0.322497 
720 -0.317650 -0.504114 0.177982 -0.402650 0.015171 -0.007996 0.101857 1.288464 0.147919 0.513865 -0.686443 1.506287 -0.414052 0.582154 -0.729334 0.975638 -0.978879 0.291393 0.358218 -0.281275 -1.444573 -0.297157 0.021881 -0.077711 1.542123 0.568481 -0.651619 0.179662 -0.937815 0.258012 0.701665 0.755856 0.760182 0.650695 1.273471 1.802562 -0.557996 -0.710545 -0.447866 0.392533 -0.158757 -1.317467 -0.270998 1.775696 -0.195315 0.347099 -0.209058 0.973341 -0.517156 -0.276765 
119 -0.404396 0.888655 0.743882 0.780164 -0.058882 0.762885 0.722935 0.584416 1.323535 0.738272 0.638448 0.522360 0.146704 -0.414765 0.948797 0.786594 -0.107476 -1.283060 0.021384 -0.335145 -1.710286 0.818181 1.057680 0.400868 1.254706 0.667374 -0.370985 -0.087052 -0.368952 0.527834 -0.693751 -2.369658 -0.998059 -0.071714 -0.510138 0.782546 0.082139 -0.890783 -0.342306 -0.945398 0.056437 0.006005 -2.228776 0.069195 -0.182926 -0.076315 0.555157 0.797625 -0.851178 -0.654252 
452 -1.011181 0.151511 -0.336505 1.849537 -0.402489 -0.290943 0.625290 0.512466 1.329161 -0.746863 1.214751 1.357342 -0.030485 -1.405388 0.312364 -0.685288 -0.756025 0.182047 0.842938 0.586224 -1.464044 0.219983 -0.913873 -0.305823 0.834075 -0.590047 0.407599 0.558031 -0.866287 1.425191 0.949709 0.638677 -0.136354 0.024036 0.065484 0.870560 0.745918 -1.484387 0.542286 -0.299771 -1.843278 -0.460054 -0.692885 0.462913 -0.996881 -0.770192 0.598768 1.340882 -0.574944 -0.469901 
368 0.711628 0.463310 0.629481 1.214258 1.376609 -0.041381 0.029356 0.239084 -0.060577 -0.207613 -0.474926 0.199874 -0.953408 -0.369089 0.117507 1.242315 0.269772 -1.326123 1.106613 0.175014 -0.117770 -0.159849 -0.082913 -0.564720 1.863794 -0.560653 -0.415272 0.995023 -1.438451 0.923397 1.163786 -1.309089 0.615965 -0.473161 1.820175 -0.131218 1.148325 -1.072721 0.469566 -0.171646 -0.383462 -0.432892 -0.682007 1.838960 -0.461557 -0.000177 -0.446346 1.790427 -1.536029 1.274278 
406 0.795926 0.338867 0.964825 1.533862 -0.647226 -0.943058 0.696376 0.062806 -0.519976 -0.165396 1.228960 0.177909 0.336614 -0.792023 0.217677 0.165450 0.052103 -0.108624 -0.046592 0.085492 -0.663833 0.330817 -1.583320 0.339050 1.757970 0.073109 0.005777 1.193104 -1.439310 0.011857 0.157803 -1.183455 -0.118455 0.650559 0.243503 1.977717 0.471129 -0.597463 0.079051 -1.090876 0.300912 0.191456 -0.818005 1.337322 -0.273375 0.194542 1.009305 1.216704 -1.078660 0.501625 
565 1.113821 0.668125 0.053531 1.160182 0.259229 0.315461 0.244813 1.198879 0.731894 -0.180436 -0.733676 0.317526 -0.625952 0.304198 0.227126 0.097863 -1.804007 0.176277 0.482507 -0.667590 -1.463991 0.213469 -0.296706 -0.392126 0.551672 0.120207 -1.499719 0.279864 -1.147117 0.717935 0.933532 -0.674265 0.395198 -0.265465 -0.360362 1.066550 1.093751 -0.405235 -1.381918 -1.480905 0.056236 -0.204848 -0.089302 0.893724 0.078474 0.219069 0.317061 1.235270 -0.829323 0.643588 
927 -0.074213 0.713185 1.433951 -0.126967 -0.302163 0.160935 -0.367326 -0.056456 -0.909114 -0.857979 0.477912 0.812069 0.797416 -0.915662 -1.601033 0.615205 -0.441634 -0.114420 1.205795 0.002027 -1.650670 0.495803 -0.230411 -0.268887 1.079734 0.678746 0.267262 0.887775 0.227888 0.373880 0.286123 0.385671 -1.653671 0.689546 1.891506 1.392837 0.355259 -0.440454 -0.142293 -0.091929 0.236336 -0.764273 -1.651272 -0.015400 -0.856131 -0.451090 0.817928 0.672943 -0.370073 0.213295 
874 -0.240127 -0.435338 0.132247 -0.345956 0.089740 0.156818 0.142974 1.375556 0.228742 0.650479 -0.386965 1.556151 -0.355600 0.502260 -0.692240 1.024168 -1.093204 0.197858 0.485016 -0.325073 -1.567660 -0.210784 -0.036011 -0.072659 1.514988 0.440175 -0.757865 0.224551 -0.905417 0.475508 0.723363 0.587466 0.708318 0.546841 1.330809 1.904939 -0.402163 -0.697791 -0.597308 0.314934 -0.093610 -1.244334 -0.370001 1.688551 -0.202433 0.401679 -0.236569 1.089238 -0.622030 -0.418780 
924 0.377244 -0.042066 0.700929 0.090391 -0.378934 -1.073146 0.202780 0.161517 1.687611 0.098095 0.012045 0.428835 -0.204477 -0.663306 0.850782 0.943329 -0.161502 -0.588712 0.442139 -0.640630 -2.274420 -0.376700 -1.165574 0.084427 1.275154 -1.110853 -0.536007 -0.275504 -0.247694 0.355666 -0.872825 -1.076830 0.410241 0.289333 -0.177162 1.249874 1.119533 -0.227280 -0.184040 -0.520600 -0.772171 -0.834346 0.247969 0.444194 -0.594875 -0.284582 0.556622 1.395763 -0.533698 0.102690 
973 -0.009157 0.730132 1.457932 -0.291238 -0.364927 0.305468 -0.432723 -0.056005 -1.000106 -0.896539 0.389321 0.734193 0.818812 -0.836500 -1.743181 0.565246 -0.420259 -0.154143 1.193795 -0.019765 -1.656413 0.479822 -0.155059 -0.271349 1.024786 0.663932 0.311608 0.806938 0.367981 0.338354 0.262028 0.453029 -1.619273 0.659548 2.080245 1.214176 0.382791 -0.422655 -0.139210 0.013401 0.236340 -0.794607 -1.632945 -0.133967 -0.819468 -0.536734 0.800614 0.599222 -0.238183 0.279772 
341 0.140697 0.837632 0.531492 -0.182462 0.398264 -0.014049 0.219128 0.680359 0.091228 -0.176025 2.126724 1.465861 1.045789 -0.642855 0.829785 0.525990 -0.635076 -0.067379 0.493240 -0.026060 -0.138267 -0.526899 -0.436203 0.494072 0.043108 0.649809 -0.867363 -0.240183 -1.061497 1.127012 0.830853 -0.293650 0.461518 -0.649774 -0.116245 1.799489 0.452515 0.155143 -0.155792 0.949504 0.635812 -0.535967 -1.283056 0.448596 -0.225007 0.562127 -0.387566 -0.135453 -0.207709 -0.296761 
426 0.415675 -0.069929 0.803725 0.228152 -0.338670 -0.992536 0.231751 0.253197 1.701511 0.121949 0.069743 0.317802 -0.211206 -0.771217 0.781111 0.948938 -0.253561 -0.733246 0.659594 -0.533981 -2.338422 -0.167079 -1.172814 -0.023435 1.275957 -1.179941 -0.552055 -0.251945 -0.227977 0.532290 -0.714376 -1.108897 0.326512 0.189412 0.045944 1.393845 1.284140 -0.402405 -0.380219 -0.645439 -0.815313 -0.965794 0.129282 0.456657 -0.570277 -0.390514 0.533735 1.486941 -0.731783 -0.002194 
991 -0.246822 -0.403349 -0.061695 -0.446228 0.026260 0.056296 0.093582 1.602432 0.107972 0.806328 -0.656639 1.742077 -0.487057 0.690822 -0.650889 1.212588 -1.213531 0.358713 0.409375 -0.427957 -1.589255 -0.360995 0.059998 0.065604 1.739339 0.522177 -0.782649 0.087174 -0.891456 0.238465 0.645604 0.860125 0.887300 0.700150 1.503721 2.023717 -0.563671 -0.690103 -0.615090 0.311265 -0.157292 -1.317902 -0.135035 1.894355 -0.075551 0.597872 -0.184500 1.101780 -0.516611 -0.436641 
19 -1.055668 0.166626 -0.142356 1.796549 -0.338251 -0.228596 0.548826 0.523101 1.236737 -0.671690 1.131816 1.304952 -0.135561 -1.259475 0.204963 -0.497656 -0.561229 -0.021586 0.958078 0.570334 -1.422169 0.305472 -0.764567 -0.376528 0.777889 -0.486834 0.324115 0.661630 -0.807976 1.421020 0.931034 0.460206 -0.220314 0.105456 0.043408 0.971384 0.859315 -1.442100 0.597936 -0.278225 -1.678441 -0.384359 -0.687683 0.536730 -0.883622 -0.698835 0.575270 1.274156 -0.654578 -0.418051 
34 1.051079 -0.164587 0.145454 -0.969760 1.181312 2.065995 0.006372 0.992992 0.775966 -0.092002 0.402676 0.506979 0.293651 -0.016191 -1.049043 1.091267 -0.262292 -1.898484 0.905277 -0.874664 -0.635917 -0.101715 1.285907 -0.537444 0.426377 -0.313309 -0.777212 0.087656 0.058551 0.343522 0.498444 -1.657168 0.114973 -0.487524 1.927020 1.629358 0.679200 0.290879 -0.156796 0.082366 -0.310252 -1.264336 -1.120859 0.231717 0.652292 -0.442476 -0.745246 0.310977 -0.680148 -0.852830 
288 0.241962 0.626678 0.458519 -0.244215 0.404082 0.103342 0.208378 0.631383 0.488723 -0.286229 2.316607 1.731907 0.866029 -0.658956 0.532745 0.609753 -0.756519 -0.169016 0.569481 -0.133147 -0.545043 -0.623796 -0.660489 0.187329 0.420321 0.641963 -1.030618 -0.246506 -1.016509 1.094923 0.853219 -0.381915 0.392901 -0.663170 0.247088 1.827031 0.523224 -0.107506 -0.406635 0.951304 0.312798 -0.477518 -1.278520 0.499305 -0.380922 0.613648 -0.056761 0.097547 -0.517086 -0.533593 
456 0.470052 -0.113463 0.039831 1.019532 0.220452 -0.314458 0.969943 0.720929 0.573625 1.050683 0.808211 -0.382836 -0.804642 -1.211891 -0.203520 -1.060083 -1.312665 0.692920 0.754779 -0.137246 -0.878576 -1.213803 0.354640 -1.415449 1.036731 -0.681998 0.719335 0.868553 -0.897036 0.353427 0.211649 -0.333714 0.665732 1.058887 0.900642 0.422737 0.569834 -1.826986 -1.195449 -0.612650 0.164682 -0.649099 -0.726484 0.860186 -0.479884 -1.014061 -0.562022 0.161044 -0.900687 -1.145252 
869 -0.381446 -0.419535 0.054025 -0.347987 0.066739 -0.062750 0.036093 1.352151 0.160759 0.571940 -0.600347 1.421257 -0.329574 0.339726 -0.617129 1.016727 -1.087478 0.224918 0.407150 -0.346089 -1.447687 -0.258237 -0.048095 -0.153855 1.569195 0.454509 -0.700646 0.232697 -0.761500 0.195198 0.618418 0.835421 0.683025 0.685618 1.358387 1.870016 -0.443821 -0.753352 -0.489125 0.396894 -0.089880 -1.056835 -0.307535 1.807449 -0.215583 0.531892 -0.182771 1.081570 -0.588875 -0.493058 
106 -0.839802 0.234445 -0.046181 1.655206 -0.297688 -0.177776 0.489325 0.549116 1.139843 -0.604219 1.008574 1.242089 -0.110152 -1.123514 0.243517 -0.353522 -0.584660 -0.065950 0.951987 0.366252 -1.344058 0.147611 -0.765393 -0.388769 0.951723 -0.457837 0.134620 0.604772 -0.856447 1.232879 0.804116 0.319839 -0.278251 0.060071 0.172652 1.102292 0.868822 -1.439395 0.478276 -0.272247 -1.491578 -0.436141 -0.683204 0.609778 -0.897451 -0.603884 0.582389 1.223380 -0.771553 -0.372389 
241 0.970137 -0.212721 0.289201 -0.770954 1.040870 1.846217 0.054111 1.007597 0.781088 0.008631 0.440954 0.557305 0.186485 -0.070941 -1.055053 1.093012 -0.344471 -1.797919 1.004679 -0.772253 -0.754846 0.008648 1.113912 -0.610693 0.490185 -0.327630 -0.764925 0.186375 -0.037320 0.515101 0.580250 -1.578078 0.064928 -0.479556 1.837858 1.781189 0.771049 0.117243 -0.240848 -0.059625 -0.287323 -1.252185 -1.164592 0.449443 0.499855 -0.407761 -0.677387 0.485064 -0.884132 -0.741565 
688 0.761375 -0.135267 0.727398 0.687675 0.345204 0.088174 -0.321961 0.435875 0.269586 -0.017099 0.905724 0.266502 -0.757540 0.261571 -0.580761 0.779599 0.001125 -1.834170 0.695280 -0.763959 -0.540744 1.708076 0.142384 -0.643817 1.123099 -0.663469 0.215335 -0.499899 -0.781873 0.354744 0.713591 -0.221912 -0.646012 -1.303038 1.269743 1.241188 2.308292 -1.488339 -1.287374 -0.719334 -0.686428 -0.187717 -0.281396 0.093628 0.181571 1.345492 0.464472 0.165763 -0.139970 0.117520 
365 1.207170 -0.963684 0.369036 -0.508899 -0.097922 0.352780 0.031113 -1.082951 0.184080 1.228485 1.522565 0.229127 -1.138669 -0.065702 0.146107 0.708886 0.680109 -0.590734 0.380041 -0.109903 -1.108128 0.862000 -0.380603 -0.028862 -0.234482 -0.331383 0.123937 -0.137319 0.379093 1.432599 0.930050 -1.699909 -0.365527 -0.934540 -0.217991 0.772597 0.772678 -0.442135 -1.396668 -0.526859 -0.123567 -0.689211 -0.782949 0.805593 0.244338 -0.266294 0.081362 2.024234 -0.432332 -0.084311 
472 1.040771 -0.192814 0.126818 -1.002596 1.179248 2.036383 0.045353 0.940110 0.707364 -0.104294 0.282394 0.412238 0.268902 0.080299 -1.009293 1.105467 -0.262783 -1.792195 0.904381 -0.866149 -0.531513 -0.019360 1.292862 -0.517716 0.325845 -0.301835 -0.801402 0.044483 0.078198 0.342739 0.430168 -1.581094 0.160030 -0.562874 1.874380 1.579910 0.700149 0.346587 -0.122145 0.063117 -0.187102 -1.269569 -1.030280 0.199306 0.721986 -0.428107 -0.774440 0.260620 -0.711297 -0.769689 
203 -0.832580 -0.343780 0.429944 1.070715 -0.393796 -1.906157 -0.940540 0.679638 0.636789 0.265165 -1.095584 0.568435 -0.265336 -0.534766 0.092179 0.633787 -0.191170 -0.519587 0.972955 -0.634100 -1.368884 0.512737 0.116258 -1.825597 2.257545 0.326589 -0.824963 1.322389 -0.398474 0.247289 1.292389 0.129484 -1.115203 0.837490 0.438405 2.073714 0.094023 -1.008069 0.291735 -0.928488 -0.213225 -0.209856 -0.419901 2.748382 0.007417 -0.223630 0.516538 1.019413 -0.638515 -0.526394 
953 -0.558216 -0.351072 0.465657 1.114739 0.771821 -0.541872 0.906924 0.613606 0.087684 0.758269 0.539478 0.270961 -1.414797 0.960741 -0.738903 1.047770 -0.067448 -1.032482 0.858972 -0.532729 0.167973 0.473551 -0.688241 -0.143984 0.777320 0.258845 -0.885224 1.087506 -0.671980 -0.498253 0.332085 -0.734142 -0.564224 0.669610 0.351897 0.900394 -0.012372 -1.482046 -0.103133 -1.430926 1.469530 -0.768515 0.063786 0.461634 -0.978130 0.198148 1.034349 0.250342 -0.976803 -0.234623 
993 -0.468311 -0.868845 1.210617 0.579609 0.453154 0.185403 0.413633 1.345948 0.187345 0.625781 0.257250 1.190016 0.259485 -0.189701 -1.590161 0.175033 -0.550099 -0.993608 0.791791 0.157301 -0.969786 -0.168249 -0.159287 -1.019490 0.679648 0.250456 -0.728855 1.236676 -1.003147 1.785993 0.258888 0.039322 0.707658 -0.142004 -0.435412 1.109339 0.016929 -0.058938 0.184751 -0.951457 -1.185181 -1.505428 -1.172235 1.352257 -0.277512 -0.665788 -0.168288 -0.870292 -1.343874 0.132940 
676 -0.080718 0.260353 0.107522 -0.043393 -0.205081 0.567190 -0.029784 0.689625 1.025148 -0.100590 -0.503525 0.950363 0.032302 0.383005 0.339196 -0.207491 0.716685 -0.645440 1.070955 -0.537068 -1.364001 0.902581 0.800309 -0.419183 0.936815 -0.568113 0.094339 0.059180 -1.578470 0.037463 1.357569 0.578384 -0.190925 -0.140734 1.522281 1.378863 1.254328 -0.941807 -0.329873 -0.730746 -0.490899 -0.625341 -0.260578 0.324286 -0.307508 -0.544778 -0.455779 1.200766 -0.720986 -0.419660 
526 0.395693 -0.144062 0.165346 1.182698 0.063160 -0.473938 0.861772 0.793482 0.570430 0.993470 0.789950 -0.259187 -0.869067 -1.079217 -0.170195 -0.985214 -1.084867 0.632624 0.683501 -0.202387 -0.907456 -1.178887 0.270334 -1.391098 0.878909 -0.567632 0.522033 0.770960 -0.969338 0.448603 0.214623 -0.396779 0.617771 0.968026 0.650560 0.449754 0.644771 -1.754745 -0.983745 -0.690985 0.267006 -0.616704 -0.806274 0.994540 -0.511479 -0.901144 -0.525146 0.250012 -1.011740 -0.988345 
685 1.093292 0.449225 0.084695 0.112994 0.777189 -0.338645 -0.857529 1.699682 0.630175 1.077765 0.291089 0.049360 0.543155 -0.740346 -0.620381 1.183349 0.722553 -1.443366 0.972838 -0.920498 -1.063653 0.208919 -0.159548 0.075115 0.512707 -0.284471 -0.410108 0.509798 0.566556 0.908600 0.648939 -0.431337 -0.337042 0.562002 0.432649 1.329618 0.338457 -0.809013 -0.295723 -1.071531 -0.021561 0.222140 -0.402788 1.412474 -0.678503 -0.170000 0.124170 1.060620 -0.945633 -0.652349 
647 1.231390 0.736650 0.023524 -0.013777 0.849700 -0.486705 -1.106180 1.989362 0.680501 1.214852 0.235736 -0.047795 0.851956 -0.563185 -0.603856 1.191883 0.991524 -1.514609 0.924485 -1.114577 -1.084826 0.184995 -0.232178 0.190665 0.367212 -0.315334 -0.457819 0.524611 0.536614 0.931859 0.636353 -0.399472 -0.348103 0.675303 0.408081 1.378149 0.240926 -0.846082 -0.159857 -1.099619 0.120053 0.401864 -0.391110 1.383050 -0.648169 -0.084689 0.160030 0.869270 -0.911783 -0.631132 
575 0.057589 0.593620 1.380341 -0.145043 -0.246369 0.289127 -0.358621 -0.052426 -0.835737 -0.735614 0.369270 0.664592 0.698523 -0.745329 -1.615991 0.648456 -0.375097 -0.302392 1.174269 -0.034490 -1.577018 0.525153 -0.160075 -0.282556 1.043596 0.591993 0.165061 0.857136 0.262276 0.393737 0.290379 0.163324 -1.480528 0.553968 1.886351 1.227854 0.451674 -0.422426 -0.187112 -0.109836 0.219208 -0.781781 -1.629632 -0.011371 -0.749282 -0.435090 0.705403 0.598836 -0.352682 0.190329 
152 1.040449 -0.202948 0.192122 -1.005771 1.231258 2.028584 -0.062700 0.944888 0.726360 -0.023186 0.311392 0.472320 0.243878 0.145862 -1.139377 1.165434 -0.152158 -1.921148 0.966105 -0.855307 -0.591518 -0.011131 1.370819 -0.550218 0.350195 -0.417962 -0.715065 0.036381 0.108650 0.360381 0.511826 -1.634638 0.116332 -0.614478 1.961910 1.590892 0.722872 0.273184 -0.156580 0.090624 -0.204435 -1.340474 -1.067495 0.151007 0.781992 -0.449427 -0.713608 0.202411 -0.662635 -0.821743 
819 -0.209135 0.182106 -0.092164 -0.110836 -0.236220 0.714954 -0.071526 0.716731 1.014531 -0.028029 -0.652269 0.876931 0.199413 0.481916 0.354845 -0.396805 0.803383 -0.582002 1.162760 -0.557919 -1.300056 0.957067 0.924033 -0.408165 0.804234 -0.707012 0.267555 0.072112 -1.594423 -0.181056 1.365493 0.649664 -0.118128 -0.239226 1.721189 1.299324 1.345893 -0.997624 -0.272973 -0.819942 -0.539790 -0.549023 -0.218116 0.123521 -0.280849 -0.628852 -0.632279 1.082604 -0.703938 -0.529881 
716 -0.068235 -0.395462 0.324697 1.257826 0.811097 -0.364613 1.077788 1.058369 -0.126592 0.510211 0.840593 0.473195 -1.161974 0.962039 -0.610845 0.772914 -0.446171 -0.917566 0.782338 -0.650165 0.371185 0.361202 -0.564745 0.075470 0.720017 0.371534 -1.013359 1.515507 -0.680788 -0.520745 0.360309 -1.067263 -0.231192 0.873337 0.302799 0.790803 -0.079028 -0.738734 -0.061930 -1.012613 1.453908 -0.808270 -0.074143 0.308761 -0.784563 0.202612 0.827425 0.132177 -0.715287 -0.221166 
802 -0.020827 0.638617 0.400068 0.146886 0.835579 0.199365 0.459533 1.091065 0.318903 0.051177 1.915619 1.008168 0.945791 -0.290891 0.523002 0.621094 -0.703185 0.126896 0.711464 0.536092 -0.519066 -0.195872 0.286060 0.421403 -0.291474 0.099721 -0.478443 -0.792239 -0.316852 1.460935 0.554690 -0.309096 0.324740 -0.981859 -0.213009 2.292155 0.071354 0.486346 -0.248366 0.613487 0.422142 -0.827475 -1.498767 0.375678 -0.084562 0.256107 -0.709577 0.108506 -0.290659 -0.386447 
719 -0.480687 -0.239742 0.627103 0.756659 0.792355 -0.187240 0.695984 0.625152 0.153534 0.567478 0.417779 0.426888 -1.144241 0.785053 -0.781639 1.073890 0.065016 -1.119995 0.913540 -0.463316 -0.066251 0.477141 -0.508342 -0.163240 0.755476 0.168207 -0.761351 0.933251 -0.688455 -0.205352 0.396154 -0.639765 -0.541870 0.562106 0.386896 0.932257 0.225720 -1.314437 -0.035822 -1.172581 1.106526 -0.656934 -0.035171 0.537436 -1.040938 0.266468 0.673532 0.283581 -1.003740 -0.145428 
28 0.047815 -0.114202 0.342924 0.138448 -0.266014 0.369168 1.030671 -0.572464 0.020012 0.690347 0.652387 -0.474615 -0.706141 -1.075943 -0.561627 1.382098 -0.622474 -1.690832 1.513408 -0.332837 -0.440615 0.026788 -0.943841 0.463153 -0.009505 -1.040560 -2.089175 2.106743 0.111656 1.101702 1.026732 -1.206608 -0.030170 0.430910 0.734384 0.929874 1.656016 -0.307953 0.293679 0.375162 -0.716267 0.982656 -0.988503 0.446164 -0.440427 0.525853 0.049733 -0.547858 -0.608738 -1.412846 
670 -0.353837 -0.477165 0.941870 1.351830 0.348969 -0.056675 -0.098795 1.273531 0.238913 -1.334290 0.138476 1.107264 0.308758 -0.531331 -0.299501 0.962214 -0.383112 0.302905 0.013868 -0.015314 -0.165658 0.492273 0.416621 -0.788267 0.562466 -0.999952 -0.669683 0.154778 -0.067503 0.700718 -0.174643 0.117201 -1.119778 0.366419 -0.101842 1.907274 -0.077134 -0.374190 -0.505650 0.113012 0.607849 -0.816908 -0.443502 0.930824 -0.253517 0.262975 -0.771916 1.520826 -0.878107 -0.320168 
53 0.139886 -0.573385 0.562089 0.101033 0.025180 0.642288 0.191901 0.596200 0.569111 0.481704 1.086835 0.847806 -0.014078 -2.059323 -0.486582 0.545094 -0.527963 -0.912427 0.815827 -0.102089 -0.803360 -0.537486 -0.513959 -0.306478 0.930978 0.463001 -0.478972 0.846091 1.121171 0.486684 0.281128 -0.344345 -0.362581 0.548244 -0.100265 1.766048 -0.540413 -0.134208 -0.838821 -0.261436 -0.209700 -0.574850 -0.280905 1.475386 -1.130260 -0.747216 0.074348 2.143364 -1.575946 -0.553183 
560 -0.313156 -0.539913 0.788359 1.146910 -0.561266 0.333246 0.173949 1.520233 0.123620 -1.821500 0.092616 0.947306 0.045474 -0.111895 -0.455319 0.542248 -0.495387 0.540042 0.117547 -0.370946 -1.423684 0.588251 -0.163146 -0.909657 1.060136 -0.966855 -0.779031 0.402245 -0.108055 0.489602 -0.677942 0.085055 -1.272827 0.505034 -0.203362 1.572865 0.116214 -0.895806 -0.804471 -0.265803 0.132993 -0.961037 -0.064907 0.938072 -0.689009 -0.222457 -0.497163 0.848969 -1.156468 0.222600 
959 -0.282422 -0.547512 0.759837 1.043839 -0.638270 0.344408 0.220928 1.713463 0.125842 -1.891385 0.289587 1.067771 0.083324 -0.210267 -0.497994 0.657677 -0.472581 0.651645 0.264973 -0.403388 -1.577341 0.513747 -0.018398 -1.048598 1.081195 -1.029182 -0.825245 0.290722 0.146282 0.613091 -0.894007 0.043993 -1.339319 0.406044 -0.261410 1.674536 -0.066193 -0.918973 -0.984752 -0.199703 0.105619 -1.012447 -0.004572 1.153888 -0.637492 -0.383123 -0.516284 0.961823 -1.321545 0.253257 
654 0.392165 0.114806 0.736201 0.053890 -0.357374 -1.109995 0.064592 0.169820 1.682554 0.077221 -0.095776 0.470637 -0.132606 -0.390700 0.884807 0.931835 -0.108296 -0.506389 0.405002 -0.699959 -2.316529 -0.289797 -1.084677 0.152540 1.192984 -1.156438 -0.603644 -0.349490 -0.311551 0.361197 -0.721978 -0.910544 0.479095 0.300361 -0.179829 1.151989 1.052554 -0.279270 -0.077860 -0.397255 -0.697043 -0.870003 0.295380 0.418797 -0.523649 -0.131916 0.462340 1.274126 -0.322769 0.156299 
303 0.785757 0.312680 1.049508 1.606183 -0.580163 -0.880738 0.726003 0.093232 -0.635825 -0.064223 1.294365 0.049832 0.309926 -0.590776 -0.002560 0.255491 0.075926 -0.383840 -0.037636 0.121466 -0.733185 0.319491 -1.566934 0.324786 1.888250 -0.135029 0.136965 1.238067 -1.473538 -0.099006 0.084977 -1.224777 -0.099911 0.578898 0.338537 2.129235 0.552672 -0.681671 0.119056 -1.318361 0.406756 0.086844 -0.898086 1.312372 -0.205968 0.215944 1.125294 1.225090 -1.227433 0.560386 
