5885 50
</s> 0.008005 0.008839 -0.007661 -0.006556 0.002733 0.006042 0.001882 0.000423 -0.007207 0.004437 -0.008713 0.002499 -0.001503 -0.001914 -0.006631 -0.003764 0.005159 0.006051 0.005938 0.003195 0.003090 -0.007605 -0.008192 0.009939 0.007603 0.006180 -0.001208 0.008031 -0.000990 0.001469 -0.000298 -0.005966 0.002625 -0.002675 -0.007651 0.009508 0.008759 -0.002190 -0.000452 0.001018 -0.007275 -0.008014 0.009109 0.000126 -0.005165 -0.006084 -0.006153 0.003394 0.000403 0.002662 
455 -0.447463 -0.162408 0.926422 -0.367255 -0.008446 0.203913 -0.863653 -0.033144 -0.150052 -0.374642 -0.053253 0.223250 -1.245664 1.056752 0.498409 0.440099 0.062734 -1.088866 0.740628 0.507514 -0.670195 0.685867 0.577282 0.556342 -1.015503 -0.775105 -1.099669 0.684538 0.161496 1.074216 0.645171 -0.706988 0.110788 0.170340 -0.659670 0.835232 0.000715 -0.542463 0.871911 0.083368 -0.126959 0.796857 -0.468508 1.278795 0.395161 0.469154 -0.821754 0.797742 -0.734719 -0.520665 
1686 0.412665 -1.164095 -0.856459 -0.112910 -0.218014 0.907630 0.264879 -0.619428 -0.419789 0.699245 1.052383 -0.020671 -1.194477 0.637395 -0.119765 0.126781 -1.297919 0.619458 0.590657 0.115779 0.111610 1.039506 0.738722 0.137322 0.242396 0.374844 0.092294 0.668561 -0.048727 0.565328 -0.580960 -0.145247 -1.144676 0.285899 0.481881 -0.262489 -0.830217 0.166151 -0.110843 -0.394340 0.295636 0.097857 -2.027715 0.191939 0.046676 -1.118114 -0.256410 -0.060207 0.759180 0.279108 
1453 0.973013 1.228505 1.385085 0.809172 -0.879319 -2.171988 -1.620504 -1.092225 0.045854 -0.418023 1.110790 -0.660311 -1.764413 -0.697016 -2.091926 0.540392 -0.829159 -0.543464 0.186057 -1.764505 0.049024 0.364117 -0.285710 0.016497 -0.356762 -0.528259 -0.544139 0.092052 0.337131 -0.266900 -0.403364 -1.103194 0.063853 -1.219002 -1.489913 1.116897 0.681987 -0.763493 1.073516 -0.347856 0.220697 0.985363 0.129373 -0.013295 1.877742 -0.524506 0.001283 1.441108 0.053476 0.695805 
4246 0.518958 0.860027 0.645516 0.924645 -0.016631 0.694855 -0.965105 -0.419005 -0.137674 0.206791 -0.186072 1.740739 1.178903 0.645408 -0.018124 0.211989 1.201328 -0.547692 2.304573 0.534257 0.380234 0.137628 -0.481451 0.942990 -0.642915 -1.161576 -1.706066 0.952277 0.878439 0.588877 0.243745 0.369795 0.317336 -0.224185 -0.230823 0.698211 -0.217683 -0.597919 0.202166 -0.460799 -0.204047 0.206956 -1.160639 0.437136 0.741846 1.891600 -0.931121 0.065831 -0.993619 0.118539 
390 -0.542167 -0.902465 -1.285860 -0.266786 -0.424050 2.472376 0.518806 -1.148676 -0.567865 1.476228 2.114519 0.565630 0.057442 0.801033 1.350677 -0.336302 0.764198 0.111087 1.058227 -0.207798 0.845930 0.768847 -0.075722 -0.676824 0.393432 -0.325909 -0.302809 0.189033 0.833969 -0.148819 0.284361 1.076726 -1.423407 1.102896 1.108468 -1.221753 -0.804920 0.686203 -0.736928 -1.661050 0.615648 0.496172 -2.158916 0.507732 -0.208091 -1.634782 -0.130498 -1.033374 2.170448 0.913220 
208 0.413359 0.785222 -0.342281 0.358803 0.400791 0.617438 -0.109946 -0.419575 -0.139728 0.598538 2.353751 -0.334745 2.653544 0.596317 0.508807 0.265023 1.408226 0.608303 -0.515419 -0.044837 -1.361714 -1.662808 -0.451405 -0.256890 0.325930 1.332425 -0.433394 0.276512 -0.239673 -1.043994 0.041961 0.439756 0.794709 2.001498 0.101281 -1.283133 -1.807757 -0.339818 -0.786565 -0.738037 -1.541231 -0.853176 0.882134 0.008824 0.501587 -1.500319 0.175439 -0.230656 1.924073 -0.269319 
1572 -0.365631 0.692755 -0.055996 0.921638 0.067927 1.477576 0.063529 -1.136271 -0.390463 0.318443 0.727366 -0.497595 -0.518901 -2.177882 1.974676 -1.374745 -1.206800 -0.213755 -1.545706 0.497492 0.168690 1.043103 -1.134511 -0.443533 0.370933 -0.918358 1.555391 -0.152188 0.318640 -0.271011 0.158365 2.153971 -1.238988 -0.800654 0.158891 0.311474 -0.342501 1.667841 -0.318229 -2.406152 0.594305 1.487277 0.187790 1.445272 1.246569 0.274664 -2.006394 0.493385 1.069107 -1.348722 
38 1.381520 1.472919 -0.502318 1.494664 0.899088 0.620984 0.810392 0.291008 -0.479423 0.797550 0.300655 1.434192 3.419166 0.787121 -0.819712 -0.309263 1.096513 -0.572303 0.004404 -1.188687 -0.395005 -1.935061 -0.387328 -0.744656 0.637458 -1.074296 -0.001207 0.244305 0.968286 -0.422743 0.596895 0.372284 0.158964 0.233743 0.654246 -1.011845 0.154886 1.636931 -2.208670 0.608837 -1.296458 -0.289533 -0.196663 -1.163767 -0.224664 -0.200790 1.041804 -1.714693 0.507548 -1.221160 
1131 0.073603 -0.945634 -0.462055 1.512136 -1.180582 -1.777858 0.878450 -0.135568 0.694430 1.385800 0.821855 -0.488694 -1.572318 -0.167882 0.188347 1.161120 1.186388 0.913983 0.031295 0.656841 0.229112 0.538415 0.052140 0.879198 -0.969057 0.924972 1.743914 -1.755636 -0.921188 -0.390196 -0.848798 0.459696 -0.892748 -0.436632 1.800105 0.528176 -2.035886 0.037172 -0.380578 0.961536 0.588934 1.251522 -1.158696 0.566846 -1.622429 -0.587416 0.122771 0.574361 0.211860 -2.364480 
2810 -0.384922 1.129839 -1.014658 1.162768 -1.118581 2.225919 0.785575 -0.586435 -0.719241 1.289160 0.064446 0.757899 1.782241 0.367866 0.395973 0.002097 1.827274 1.092459 1.622195 -0.570309 0.804938 -1.887117 -1.166257 0.901821 0.413238 -0.320989 -0.008148 -0.104293 0.588028 -1.663364 -0.478405 0.671314 -1.006793 1.061041 1.036023 -1.279615 -0.428053 0.590010 -1.802351 -0.897162 0.016159 -1.021985 -2.045064 -1.387077 0.184221 -0.589039 1.018798 -1.553187 1.303761 0.660413 
2903 1.641364 1.100633 -0.529178 0.380881 -0.326221 -3.589897 -0.398877 -1.657227 -0.722669 -0.837404 0.779070 -1.857767 -4.035496 -1.890329 -2.156766 0.797378 -1.371436 -0.886899 -0.559040 -1.791181 1.293758 -0.208377 1.481091 0.856222 -0.198901 -0.129222 -0.233230 -0.104796 0.489263 0.501013 -0.570145 -1.641910 -0.392478 -0.809046 0.851674 0.242070 -1.419846 0.207456 1.454715 -0.005734 -0.145390 0.760985 0.076295 0.325511 2.073184 0.268041 -0.019162 2.659102 -0.999993 1.101826 
2811 -0.515960 0.062496 -0.342155 1.350476 -0.903992 -0.859649 1.274369 1.096414 -0.080605 -1.778380 -1.300715 -0.174911 1.274507 -0.029996 1.756038 0.441260 0.670864 -0.497119 -0.943221 -0.284004 0.048438 -0.480721 -0.251799 -0.099074 -0.060714 1.257304 -0.432277 -0.843650 0.498822 -1.355070 -0.975037 2.800089 0.143669 -0.105642 1.489574 0.912435 0.568889 -0.247326 -1.914570 -1.411999 -0.500120 -1.334172 0.644273 1.385116 -0.664363 -0.132762 0.115678 1.161237 0.699612 -0.054378 
388 0.076688 -1.200437 -0.990311 -1.067493 -1.397060 2.938182 0.362680 -0.833128 -0.498553 0.971318 1.356499 0.757681 1.201479 1.292672 1.173181 0.429685 1.271398 0.799367 1.411643 -0.739807 1.009264 1.163568 -0.197316 -0.791954 0.991453 -0.154532 -0.706366 0.414733 -0.139906 0.137415 -0.350268 0.535239 -2.564924 1.520461 1.459280 -1.422290 -0.443776 0.626228 -0.679054 -0.837956 0.576964 -0.237450 -1.850043 -0.129153 -0.745014 -2.402133 -0.569763 -1.646415 2.391804 0.831080 
389 -0.425927 -1.447172 -1.669271 -0.197974 -0.911012 3.298818 0.381426 -0.782406 -0.133384 1.204953 1.521538 0.078248 0.721219 1.276259 1.187553 0.007962 1.246603 0.834790 1.602758 -0.648615 1.076789 1.102101 -0.002691 -0.073883 0.395982 -0.187682 -0.812642 1.032706 -0.539416 -0.044612 -0.338127 0.387600 -1.888689 1.273409 2.112717 -1.206996 -0.694386 0.205159 -1.008132 -1.131368 0.410006 -0.534631 -2.163306 -0.492829 -0.049799 -2.267026 0.399932 -2.062516 2.329223 0.906742 
1656 -0.116252 0.973816 -0.368511 -1.160122 -1.145632 0.403685 1.849129 -0.473226 -0.428221 0.300585 -0.177924 0.675352 -0.151045 -2.013676 2.023547 -0.401397 -0.952660 -0.486239 -1.558638 1.880167 0.054342 -0.316049 -1.388882 -1.525197 0.324890 0.200334 1.741991 0.057492 -1.803815 -2.297133 0.433899 0.095367 -0.079912 -0.843557 -0.769434 -0.623692 -2.571526 1.727329 0.598068 -0.622494 0.954695 1.571514 0.796418 0.916400 1.663114 1.265042 -1.968825 -0.774803 1.100267 -1.088104 
602 -0.086837 2.279663 0.243492 -1.398138 1.918907 -1.016700 -1.274632 -1.614818 -0.563149 -0.974803 0.422501 0.595316 -0.960049 -0.979770 0.267172 -0.594456 -0.468155 -1.733860 -2.460850 -1.101724 1.028816 -1.654597 1.245787 -3.039053 0.084561 0.891179 0.620193 -0.957686 -0.124770 0.434554 0.052686 -1.136881 0.036720 0.170723 0.006318 -2.570554 0.231825 0.073075 -1.108811 -1.355952 -0.187347 0.370384 2.506975 0.603423 1.987640 -2.847995 0.781819 0.196959 0.163200 0.630736 
2905 0.457782 0.929393 -1.129636 1.534448 -1.529025 2.784468 1.177857 -0.238342 -0.319975 1.227218 0.613305 0.354424 1.956598 0.374258 0.278894 0.166165 1.829400 0.205803 1.604285 -0.509336 1.189443 -1.614691 -1.021952 0.670184 0.615754 -0.319731 0.138819 0.282606 1.000765 -1.397226 -0.528514 -0.189457 -0.946075 0.712611 1.425880 -0.311564 -0.277823 0.832946 -2.037481 -0.565660 0.103293 -1.099737 -2.235530 -1.549342 -0.350089 -0.674337 1.447438 -1.626362 0.782810 0.604688 
1065 0.136291 2.691946 0.262044 0.175189 -0.652760 1.753819 0.095267 0.513720 0.580200 1.041176 -0.379875 1.552932 1.297867 0.472729 0.500916 0.931561 2.913638 0.242503 1.447543 0.286886 0.559348 -1.649723 -0.901623 -0.047934 1.441204 -0.403411 -1.854651 0.109213 -0.438461 -0.151726 -0.053277 0.436103 1.562047 -1.556165 1.358891 -1.234586 -1.210097 -0.399385 -1.155339 0.582668 1.046463 0.036613 -1.966269 -1.834321 -0.541913 1.034487 0.965793 -1.183767 0.082579 0.235409 
2939 0.773088 -1.452624 0.247428 0.664941 -0.510778 -0.465231 1.384172 0.264064 0.305851 0.150193 -0.870683 -0.198003 1.641719 0.778642 -1.490640 0.852721 2.779609 0.375166 0.655145 -1.806507 -0.724490 -0.364630 0.656485 -0.961173 1.572588 0.318744 -0.694763 0.520606 0.684953 -0.415986 0.008383 2.115538 -0.471571 -0.139801 0.241137 -1.081465 -0.300626 3.433841 -1.293075 0.894168 1.068720 -1.058568 0.020543 0.102729 -0.309510 -1.517219 1.286488 -1.652532 1.189140 -0.215189 
1581 0.859195 -0.118017 -0.342033 0.049907 -0.458141 0.804825 0.831642 -2.839907 -1.423136 0.749900 -0.114100 -0.457757 -0.088364 -1.395476 2.248419 0.072243 -0.930921 -0.690138 -0.795477 1.615134 0.054815 0.026237 -1.184792 -0.965537 0.505263 1.130787 2.422743 1.199161 -0.462944 -0.926983 -0.849651 0.594746 -1.132281 -2.043592 -0.264063 -0.582794 -0.719596 2.560455 1.033734 -0.547231 0.165304 0.546420 0.820503 0.464130 1.061239 0.561037 -1.838691 -1.353553 0.778455 -2.009046 
1076 0.998839 3.117927 0.502844 -0.153317 0.495963 0.806596 0.127897 0.184146 1.440818 0.571524 -0.487207 0.491582 3.271688 1.115872 -0.928556 -0.521805 2.344810 -0.472666 1.560912 0.376104 1.097509 -0.809030 0.058549 0.520661 0.095837 -0.033997 -1.736604 0.641604 0.389398 -1.071621 0.502236 0.755123 1.356179 -0.205104 2.180150 -0.849889 -0.185315 -1.044618 -0.409322 -1.138772 -0.668037 -1.193206 -1.624875 -0.136654 1.127425 0.662800 -0.314510 0.215521 -0.739427 -1.344791 
5309 -1.864789 0.262563 0.108572 -2.676101 -0.499287 1.619630 -2.052352 2.493895 -0.405146 1.843716 -0.406126 -0.527775 -1.072043 0.410820 -0.421781 0.371336 0.994862 -1.915594 2.483607 0.272839 -2.353234 -0.733495 2.195488 -0.271726 0.879230 0.002592 -2.557384 1.046709 2.342558 0.968406 1.034894 1.013669 -0.053051 -0.493220 0.793984 0.386267 -2.332952 0.960369 1.622791 -0.837058 0.083773 1.286802 -1.737431 1.801869 -0.096110 -0.390942 -0.840697 0.194342 -1.114992 -1.110693 
1568 0.161551 -0.129904 -0.930981 -0.073294 -0.438476 0.274965 0.712212 0.393938 0.323393 2.224370 3.165402 -0.609901 -2.573031 0.137427 1.116797 -0.067852 -0.853316 0.328879 -1.534870 1.809930 -0.814430 0.425547 -1.263861 0.257252 0.009818 1.120720 1.371978 0.679223 0.069806 -2.152773 0.137256 1.276812 0.665873 0.616582 0.019744 0.448305 2.693695 2.494384 -1.537251 -1.369954 0.906294 1.074336 -0.744963 0.398276 1.010978 1.092586 -2.331081 1.236675 1.298953 -2.245105 
852 -1.061675 -1.228072 -1.368267 -0.163184 -1.096575 2.861778 1.221112 -0.042446 0.008875 0.879189 1.399975 0.423893 1.820630 0.074877 1.642257 -0.486524 2.009362 1.042010 0.857621 -1.172422 1.106451 0.688733 -0.266362 -0.479629 1.016884 0.179573 -0.594775 0.080461 0.046990 -0.146664 0.923165 0.268688 -2.324652 1.574847 1.228558 -1.155558 -0.728484 0.607215 -0.941032 -1.228761 0.519447 -0.398707 -1.934131 -0.292989 -0.284269 -2.081647 -0.241110 -0.803494 3.124657 0.927424 
1313 0.000989 1.285560 1.592479 1.583197 -0.613807 -0.209137 0.245950 1.587342 0.135095 1.698663 -0.347550 0.393391 0.828409 -0.877707 0.044928 -1.894476 2.759097 0.934215 0.803178 -1.052188 -0.860457 -0.085225 -1.459753 0.285976 1.541254 1.950603 1.053676 1.382658 0.163662 -0.228137 -0.425235 0.838692 -0.867268 0.945851 1.529817 -1.492203 0.403352 -0.150611 -0.554893 1.263960 -0.709199 -0.473427 -0.199443 -0.860123 1.404178 -1.082042 1.136031 0.037916 0.205193 0.450357 
1719 1.265383 1.508777 -0.282355 -0.293122 -0.210820 -0.433963 -0.734734 0.063439 -0.921721 0.490232 0.863339 -0.782051 -1.283746 -0.627388 1.558894 0.333246 -0.701295 -0.715959 -0.941307 0.955415 -0.273641 -0.701931 0.297704 -4.257249 -0.086539 -0.994588 1.240907 -0.815688 -0.479109 -3.404873 -0.467234 1.823437 -1.418146 -0.216011 -0.940780 -0.974401 -1.280058 0.104618 1.445595 -0.531494 2.679668 0.130038 1.689974 0.107418 0.805831 0.912745 -1.797078 -1.202883 1.663821 -0.240619 
118 0.615446 1.472676 -0.246087 0.516748 -0.592921 1.426925 0.735656 1.047935 0.720269 0.871742 0.007134 1.636587 2.676271 1.351629 0.114037 -1.554611 0.719682 -0.773351 0.811918 0.018777 0.783114 -2.079253 -0.231135 0.733754 1.977077 -0.882391 0.556064 1.131658 0.781172 -2.565654 0.126568 1.180857 -0.688483 -1.854861 1.197706 -1.203405 -0.769086 -1.670652 -1.584561 -1.516062 -0.585524 -0.581149 -1.467363 -2.137810 -0.039483 0.564875 0.809527 -1.148275 0.214749 -0.637274 
2001 0.672207 0.946308 0.566653 -0.360843 -0.453674 -0.219893 0.123281 -0.119248 0.879916 1.649565 0.663791 -0.211463 -1.886252 -1.847764 1.552471 -0.402696 -0.045614 0.438692 -2.867575 -0.876865 1.260819 -0.068580 -0.215828 -2.876643 0.802036 -0.433050 1.118839 0.230256 0.317449 -2.335386 -1.149729 2.266787 -0.890470 -0.015830 -0.633542 -1.760662 -0.862427 0.781932 0.475384 0.615732 2.051559 -0.658927 -0.520543 0.635096 0.434391 1.898336 -0.380677 -1.474937 1.228349 -1.152294 
643 0.213774 0.674884 -0.159298 0.846832 -1.103078 -0.016383 2.963609 0.662663 -0.366158 -0.978693 0.216010 -0.692068 2.364842 -0.814578 0.019732 0.990445 0.214093 0.016038 0.293489 1.434366 0.907834 -1.061029 -0.070000 -1.697588 -1.343601 -0.089596 2.812167 -0.020608 -0.314018 -2.029488 0.894423 -0.467895 0.819576 -0.830405 1.487062 -0.391702 0.586442 -0.779150 -2.962096 1.357583 -0.372378 -0.684281 -1.196492 -0.608870 0.285830 1.095621 0.774981 0.511935 -1.066697 1.468621 
1327 -0.203812 -2.019953 -0.477413 1.432966 -0.178012 -1.586205 2.029061 1.856134 -0.809284 -1.652774 0.304782 -0.377559 0.829396 -0.218714 0.316249 -0.042619 1.180407 -1.017331 -1.751864 -0.945930 -0.029370 -1.002869 -0.625172 1.052567 -0.437642 2.287932 -0.782636 -0.460273 1.138252 -1.331546 0.061189 2.036716 -0.246810 0.387885 1.537587 0.183602 0.928780 1.167069 -1.562250 -0.838562 0.254949 -0.189914 0.003964 2.190258 0.016449 -0.674624 0.129149 0.016560 1.403999 -0.077993 
3897 2.350030 0.736585 0.126068 -0.970546 -1.190965 1.186876 1.519033 -3.674970 -2.457348 0.828204 -1.040025 -1.446387 -1.320912 -1.110921 2.675623 -0.018576 0.409229 -0.876232 -0.255611 0.736127 0.922222 0.073096 -0.312916 -0.990723 0.011379 0.973799 3.128333 1.441014 -0.428340 -0.518117 -0.250000 -0.427190 -1.986287 -1.580571 -0.368330 -1.519889 -0.070431 2.110540 1.543150 -0.609655 1.244783 0.014468 1.225302 1.337687 0.368048 0.790627 -1.223901 0.000758 1.705389 -0.347608 
825 0.325112 0.743926 0.334328 -1.113781 1.252861 0.822291 1.070571 0.325056 -0.382822 1.005586 -0.818215 -0.122339 3.432684 -0.994976 -1.239500 -1.178620 0.765273 0.292589 -0.648503 -0.966897 0.271363 0.024576 1.394059 0.626713 0.699440 1.144776 -1.595000 0.769190 0.996553 -1.654448 0.016788 1.327161 0.756046 -0.274175 0.802951 -1.695698 0.262569 -0.063976 -1.406301 0.884553 -3.165179 -2.144902 2.097035 -1.207505 0.061747 -0.683263 1.601642 0.382571 -0.119082 -0.531456 
1164 1.964017 1.504593 0.994176 -0.205191 1.499165 0.283354 1.623107 1.202263 1.152089 0.488036 -0.013227 -0.419146 3.294531 -0.844317 -0.342194 0.645692 1.416698 -0.046063 -0.902082 0.336672 -0.301460 -1.433433 0.114940 0.079998 0.478608 1.249382 0.783359 1.088973 1.283822 -2.004473 -0.134128 1.860126 1.429139 -0.442548 0.069957 -0.776923 -0.554892 -0.853384 -1.978783 0.603521 -2.130359 -2.575660 1.035081 -0.868600 -0.096216 -0.092494 0.912853 -0.182759 0.170477 0.139965 
2409 0.051532 1.942796 -0.367863 -0.453745 -0.143815 -0.284876 2.249691 -0.747242 -0.348080 0.861888 -0.505612 0.867764 0.836827 -2.648992 1.646777 0.149202 -1.294507 -0.432605 -1.225841 2.273687 0.016715 -0.262188 -1.927134 -1.967934 0.532932 0.268520 2.525019 -0.256839 -1.082686 -2.563889 -0.286515 1.174800 -0.813358 -1.150096 -0.933490 -0.291494 -2.364948 1.879816 0.958084 -0.955170 0.807214 1.191406 1.448365 1.031993 2.043359 1.166064 -1.726196 -0.924047 0.546781 -1.056903 
1561 -2.909182 -0.684590 0.693960 0.920453 1.043202 -0.966375 0.815119 1.517393 0.360861 1.312136 0.045769 -0.323188 0.770752 -0.552015 1.583346 -0.094315 -0.426229 -0.947506 0.642751 -1.756422 -1.448679 0.274044 -0.828772 -2.799916 0.736779 -0.460316 1.650488 -0.358526 1.321611 -1.663916 -0.104880 -1.543699 0.036070 -1.067749 -0.468114 -0.072797 -0.448402 0.478023 -2.009313 -0.697467 -0.621522 -0.079442 0.065929 2.724727 1.444732 -1.260900 1.043082 -0.568767 2.279415 -1.033630 
417 -1.095093 -0.385803 0.696653 0.177396 -1.504940 0.375611 1.405465 1.796199 -0.111341 -1.840383 0.376325 -0.974517 1.903893 -1.583342 0.988080 0.129562 0.280324 1.018101 -2.121299 1.176904 0.222462 0.536327 -1.203945 0.780788 1.204420 -0.432123 0.703448 0.008179 -1.113259 -0.647333 0.288370 -0.014750 0.279373 2.242358 2.604043 -1.065562 -0.476382 -0.613142 -1.471097 -0.584268 -0.149859 1.041211 1.951846 3.071349 1.545653 1.310081 2.029066 1.679200 -1.423128 1.520683 
2784 0.152947 0.449185 -2.156975 -0.921132 -3.025016 1.594597 0.031378 1.497770 -1.583849 1.410170 0.153823 0.561965 1.119825 -0.066900 0.784510 1.006389 0.896813 0.506771 0.946928 -1.406131 -0.349444 -2.155814 -1.226164 0.603500 0.365482 0.480657 0.814256 0.972850 -1.220892 -0.619972 0.713157 1.612550 0.110047 1.855928 0.452771 -0.855722 2.070096 2.190681 -1.268476 -1.001397 0.594323 -1.520595 0.222828 -1.126379 0.624419 1.410830 -0.357843 -0.630783 1.073613 -0.309362 
974 0.956776 1.657689 -0.039943 0.660119 -0.695048 1.668015 1.078090 -0.927302 -1.413812 2.408439 -2.582501 0.759150 -1.935581 -0.066544 0.331528 -0.291706 -0.373615 -0.125900 -3.672716 1.364830 0.315890 -0.826827 -0.937126 0.745353 1.514726 -0.655977 -1.494852 -1.044390 0.134217 -0.195321 0.478440 1.499033 -3.058288 -0.833059 -0.589481 -1.209378 0.181264 1.147730 -1.179054 0.637324 -0.422859 0.493727 -0.228859 0.600189 0.048281 -0.337927 0.644701 -0.190800 0.149886 -0.226017 
1717 0.523553 1.344787 -0.434450 -1.813399 0.515441 1.544815 0.559951 0.027985 0.125849 0.457796 -1.162921 0.520484 -0.376509 -1.022350 2.902294 -0.317352 0.331262 -1.005704 -1.001473 0.133371 0.644549 -0.172218 -1.336870 -0.735440 -0.276941 1.198539 2.324728 2.426708 -1.020148 0.180175 0.090362 2.087458 -1.495425 -0.979635 -0.896868 0.191520 -1.606943 1.770718 2.135774 -2.231161 0.059032 0.418463 -0.824453 -0.121338 1.189270 -0.877961 -2.699589 1.232615 -0.964872 -0.765163 
1296 0.716021 1.229010 0.619090 -0.568546 -0.169404 0.380954 1.068423 0.559806 0.917751 1.650655 -0.581232 1.405919 0.698081 -1.206061 2.549202 -0.353025 0.036278 -0.725529 -1.497575 0.486235 -0.942616 -0.993443 -0.380820 0.312386 0.082407 2.503530 2.229689 0.007327 -1.289971 -1.327991 -2.233469 -0.698743 -2.157645 -2.226598 -0.252872 0.029025 -0.477695 2.580861 -0.367419 -1.192420 1.709685 1.069831 1.722169 -2.013468 1.053917 -0.737454 -1.852799 0.397977 1.423562 -0.322910 
2152 2.786176 1.486440 0.793089 -0.808022 0.034319 0.662564 -0.866078 -1.144945 -0.509250 -0.326144 0.351679 -0.031039 -1.916215 -0.021649 1.333319 0.276565 -2.184138 -0.727479 -3.331982 -0.279799 0.855869 -0.326267 -0.342253 -2.116385 0.659663 1.294327 1.089452 -0.239046 -1.270301 -0.906843 -0.590699 2.032960 -1.131937 -0.522326 -2.086173 -1.974749 -0.673700 1.682507 0.966863 1.930130 1.807405 0.024141 0.153988 0.918144 0.646648 -0.201810 1.322258 -1.461316 0.836571 -2.749810 
285 0.893267 2.098647 -0.851592 0.672363 0.592923 0.835234 1.373123 2.703087 -0.176152 -1.051278 -1.139978 0.458781 2.841514 0.810102 -1.067226 0.715793 0.589469 1.669317 0.061164 1.149016 1.504687 -2.362267 -1.149385 -0.830834 0.238795 0.385542 0.565115 -0.228077 0.506868 -2.571064 0.215204 -0.675273 -1.176465 -1.645363 0.976051 -0.208643 0.195672 -0.284672 -1.916347 -0.454898 -1.096020 -1.046914 -1.504922 -1.700693 -0.674217 1.465910 -0.280260 -1.694246 0.614375 0.607759 
2024 -0.102971 1.450964 1.792070 -0.210064 -0.552874 0.566661 -0.506739 1.379204 0.568373 0.572498 -1.263593 -0.547970 3.235242 -0.855711 -0.310384 -2.475424 2.258273 0.934351 -0.431874 -1.191407 -0.262535 -0.780954 2.301868 0.324381 0.727588 1.897374 -0.658343 1.504025 0.239163 -1.606004 -0.247128 2.079599 0.687455 0.021528 0.842437 -0.997109 0.053416 -1.013331 -2.236984 1.098233 -2.112954 -0.253753 3.631493 -0.656518 1.544793 -0.436148 0.372379 1.919344 0.019897 -1.222633 
60 -3.433208 -0.166965 0.653105 -0.127810 -0.442039 -0.467776 1.248027 -0.347444 1.540089 -1.597804 0.688621 -1.318717 0.052260 -0.490362 -0.697896 -1.659301 1.590174 1.821302 -0.856464 -0.022550 0.028283 -2.204942 -1.334196 0.112649 -0.371996 0.423975 1.201911 1.738495 -0.114985 -1.306834 0.556129 1.040891 0.876809 1.846615 -1.182395 -2.626869 1.040744 1.961325 -1.179491 1.393303 -2.554675 1.838410 -0.622956 -1.038420 0.892900 -1.138795 0.699954 0.423646 -0.370056 -1.387766 
600 1.457532 0.133621 -1.775574 -1.837341 1.529162 -0.731545 -0.347852 0.705187 0.516399 1.306862 1.088197 0.982834 -1.304342 -0.742517 0.533154 -1.538336 2.017886 -0.650538 -1.320715 1.567586 1.971587 -1.935304 1.488396 -0.748554 -0.024023 0.655629 -0.380859 -1.869108 -0.842515 2.045697 -0.637934 -0.640784 -0.324734 -0.410169 -0.022927 -2.177049 0.980559 1.490276 -0.733798 -0.486324 -0.110170 -2.154727 2.246551 0.020399 1.874432 -1.592452 0.117539 -0.536840 0.170684 -0.039963 
593 -0.731949 0.308937 1.431222 1.297151 0.119478 -0.806615 0.288561 2.879144 0.329310 1.793921 0.196389 -0.933120 0.087849 -1.285968 0.770825 -1.448409 3.037336 2.494773 1.411247 -0.160407 -0.075613 -0.877171 -1.339170 0.295075 1.282394 2.949842 1.254572 1.728771 1.523906 0.854409 -0.245790 0.987493 -0.116391 0.819186 1.108329 -1.603513 -0.909706 -0.035477 -0.871192 1.411191 0.503494 -0.104597 -0.741156 -0.530053 1.056035 -1.965901 0.665578 -0.729026 0.231378 0.105737 
333 1.301835 1.651154 -0.885868 1.782613 0.383858 1.689162 2.040048 -0.026624 -0.282372 0.339637 -0.768093 0.488034 2.753413 1.236692 -0.233220 -0.919739 -0.398776 -0.518809 0.694998 0.415663 1.345786 -1.458435 -1.408676 0.212754 1.517664 -0.213306 -0.284926 0.448698 -0.421843 -0.687811 -0.731726 -0.735020 0.029612 -1.103956 0.927947 0.186987 -0.122576 -1.875546 -2.323470 -1.569228 0.469125 0.652946 -2.146835 -1.770789 -0.577364 0.941542 1.136614 -3.331836 -0.005451 -0.390461 
1279 -1.076931 -0.245011 0.007655 0.405475 1.529871 -0.523686 0.708686 1.621359 -0.913798 0.276818 0.463861 0.566757 -0.410030 0.070271 -1.168917 -0.479496 -2.875981 -0.790617 -0.209519 -0.761469 -1.575435 1.555551 -0.890328 0.977108 -0.286190 -0.785415 0.448173 0.251599 0.021615 -2.144644 -1.025963 -0.253176 -1.611515 -0.707509 -2.322662 0.772638 1.261507 -1.286057 -1.830184 -0.801364 2.554371 -1.863445 0.946531 0.233886 1.740523 -0.666057 1.342376 -1.321985 -0.013063 -2.162872 
583 -0.028889 -0.118364 0.077719 0.014469 -2.485570 2.277783 1.264936 0.421968 -0.992450 -0.939945 0.831906 1.818724 0.778718 -0.484865 -4.231502 0.853955 -0.935334 1.232770 -0.133616 1.446531 -0.031722 -0.964252 -0.730120 0.090274 -0.281424 0.011927 0.997523 1.414943 0.788855 -2.220144 -1.416077 0.628701 1.236527 1.967000 1.645757 -0.877451 3.819515 0.655024 1.727997 -0.630212 -1.629339 0.950287 -2.396315 0.972984 0.749901 -1.721793 0.543021 0.422852 -0.536179 -0.666940 
84 0.684785 3.116684 0.014390 0.886264 -1.303418 0.638185 0.681989 1.248464 0.262601 0.740526 -2.139818 2.373310 1.114362 2.465763 0.208102 -2.061514 -0.563958 1.079604 -1.299818 0.822217 1.713517 -0.467996 0.328044 0.470545 0.600513 1.687142 1.973278 -1.024617 -0.775995 0.213420 -0.618544 -1.583246 -0.987098 -0.295623 -1.343395 -0.759403 1.056975 0.133058 -1.081645 -1.981216 -0.988814 0.400264 -1.025188 -1.199763 0.128334 -1.548213 1.834738 -0.804184 0.398135 -0.971982 
9 1.337139 1.247887 0.596899 -0.855155 0.828890 -1.701207 -0.102090 -0.382752 -1.179680 -0.419406 -1.435871 0.569210 1.597723 0.230672 0.041832 -1.381511 2.464161 1.336575 0.749708 2.845004 1.787400 -1.099820 0.342671 0.156383 0.544022 0.612562 0.709246 -0.839230 0.980367 -2.276852 -1.087176 0.765754 0.828047 0.372292 -0.331654 0.729230 -0.790385 1.701442 -1.562547 -0.933542 -1.956586 0.386914 0.287835 0.233276 2.071143 -0.049516 0.217327 -1.544106 0.485337 -0.342633 
80 0.322474 2.608019 0.333464 2.114838 0.095060 1.290411 1.565403 3.089650 0.259201 -0.284179 -1.078554 0.665595 1.977532 1.121963 -0.717362 1.284307 1.076513 1.395249 -0.006178 1.343230 0.469680 -2.297859 -1.952102 0.221320 0.909538 -0.139008 0.705960 -0.245932 0.554535 -1.569885 0.098726 0.095503 -0.595102 -1.530605 1.112656 -0.291304 -0.769755 -0.787597 -1.593922 -1.189471 -1.099713 -0.760416 -0.040523 -1.898500 -0.547062 2.542178 0.318246 -1.187976 0.297947 1.388869 
2123 -0.686187 1.312354 1.372959 -0.326746 1.018801 -1.349570 0.162786 -0.041731 -0.930608 1.171614 -0.772036 0.467096 0.037708 -2.283352 1.968216 1.040773 -2.176877 -0.960676 -0.679437 0.861566 0.072673 -0.013830 0.442452 -0.457147 1.927715 1.934808 1.193558 -1.693736 -0.614650 -0.718104 -1.376807 2.598891 -0.098389 -0.868931 -1.297702 -1.473569 -0.573786 2.931031 0.336404 -1.104788 0.166715 0.873782 0.492216 -0.349671 2.186736 -0.643718 -2.801343 -0.373013 -0.236379 0.550900 
1008 0.141233 0.890192 -0.277132 1.958913 -0.428975 -1.463304 -0.121733 2.675949 1.000127 1.503028 -1.472025 0.523766 0.425515 -0.480424 0.612450 -2.235813 3.479358 2.188794 0.787974 -0.808923 -1.368913 -0.954207 -0.675629 0.827202 0.620306 2.196851 0.107930 1.071773 0.997501 0.058333 0.299283 0.158376 -0.668258 2.100847 1.226276 -1.137554 -0.071405 0.807121 -0.311806 1.080491 0.666630 0.925716 -1.242809 -1.348750 1.243017 -2.041515 1.244054 -0.338373 0.212010 -0.274247 
3625 2.773207 -2.859635 0.180271 -2.808505 0.306720 -2.110723 1.292174 -1.533490 -0.862275 0.598011 1.553665 0.033316 -0.490567 1.264757 -1.453567 2.493423 -1.584447 0.973036 0.237649 1.562026 -0.565667 1.670776 2.389343 -0.667476 -0.139329 0.519905 -0.678369 0.782376 -0.486329 -0.879212 -2.001622 -1.941524 -1.099079 -0.662152 0.396284 0.601574 -0.366843 -2.169902 2.811791 0.703024 1.293961 0.931186 -0.626141 -2.521865 0.107073 -0.963638 -0.577896 0.626210 1.109468 0.829956 
3448 -0.521412 0.859168 1.967290 0.431221 -0.286552 -0.182730 -0.062715 1.116511 0.966560 0.518373 -0.981909 -0.825462 2.804340 -0.420188 -0.739197 -2.717992 2.380419 1.509205 -0.800607 -0.988993 -0.644137 0.372667 2.083425 0.077954 1.178708 1.603122 -0.423266 1.040158 0.489197 -2.430268 -0.885259 2.042160 1.168196 0.970901 1.223047 -1.507574 -0.254321 -1.307603 -2.200533 0.896070 -2.263877 -0.630449 3.515473 -1.081723 2.206017 -0.553064 0.537057 1.926999 0.320749 -1.610794 
581 0.133789 1.535282 -0.662842 0.758825 -2.766363 2.666247 0.907894 1.795854 -1.465456 -1.232687 0.836168 2.197760 0.133617 -0.775461 -3.934353 0.607759 -1.186618 0.720994 -0.121650 1.972840 -0.949041 -0.832178 -0.570025 -0.772449 0.589678 0.038374 0.273049 0.114848 0.188456 -1.574729 0.587135 1.266089 1.569728 0.425852 0.618514 -0.768018 3.931323 0.271956 3.046847 -0.013439 -0.827903 1.043009 -1.383031 -0.233824 0.210796 -1.431061 0.108643 1.056750 -0.720228 -0.625157 
23 1.360064 1.705941 -0.153958 0.640529 -0.163939 2.595547 0.719020 2.218021 0.163845 -0.977196 -1.673852 0.592488 2.798350 -0.915244 0.311394 1.432591 1.289491 0.438466 0.169571 0.980781 -0.129667 -3.245750 -1.256408 -0.145253 0.076493 0.454391 1.115317 -1.411778 -0.241105 -1.438953 0.147456 -0.103642 0.449080 -0.609798 0.674117 0.484651 1.025419 -0.532771 -1.139991 1.101886 -0.207226 -0.885753 -0.411134 -1.891549 2.387598 2.737373 0.269292 -2.276865 0.181682 0.613384 
2934 0.449864 0.738912 1.276832 2.306027 0.194072 2.410653 0.463380 -1.776503 -0.487271 1.036421 0.777231 -0.503471 2.768754 0.510773 0.351509 -2.995224 1.194169 0.718744 1.190909 -1.061451 1.082294 -0.115960 -1.611282 -0.628210 0.470524 -0.608457 -0.552205 -1.090719 1.977629 -0.980229 0.450714 -0.052395 -2.320933 -0.441795 0.330056 -0.660045 -0.879004 1.776319 -0.689805 -1.522327 -1.103749 -1.231596 -1.627476 -1.541440 0.698325 -0.852957 1.608301 0.282467 0.096110 0.713023 
2785 -0.157736 0.846798 -1.491233 -0.478348 -2.705310 1.624161 -0.107991 2.460745 -0.849038 1.192521 -0.313323 0.684754 1.688512 -0.497419 0.256667 1.364212 0.612555 0.347081 2.144470 -2.421417 -1.088181 -1.316567 -0.279530 1.085702 0.222492 0.093627 0.954718 0.058534 -1.071657 -1.195698 0.659972 1.805638 0.451022 1.039249 0.282845 -1.705518 0.775470 2.255344 -0.588430 -0.540699 1.029337 -1.805027 -0.626812 -1.121304 0.428682 0.907034 0.583163 -0.485206 0.548184 0.469930 
371 0.537388 -1.283001 -0.296130 -2.467864 -1.848040 1.955752 -0.048264 1.308324 -1.451316 0.321411 2.294707 -1.424077 -0.422308 -1.708631 1.887019 0.103936 -0.512016 1.134905 -1.980040 2.259366 -1.346880 -2.219127 -1.310580 1.504255 -1.344548 -0.258869 1.447009 0.463395 0.130541 1.113400 1.270647 1.264956 -1.108552 1.067394 -0.460539 0.697719 3.899577 1.502602 -2.141925 -0.052536 0.466554 -0.125901 0.380445 -0.316361 0.094902 1.973929 -1.825619 -0.437904 1.825552 -1.295651 
2054 0.553985 1.766959 1.580181 -1.984757 1.289086 1.534555 0.273192 -0.539774 0.412246 1.803738 1.197522 -0.324062 -0.693412 -0.282766 0.736446 -2.859729 0.113738 0.622463 -0.273453 -1.785664 -0.517045 0.289344 -0.732650 0.538835 0.062870 -0.806157 0.108550 -0.103817 1.077044 -2.431230 -0.281846 1.877205 -1.992380 1.378976 1.190621 -1.293138 1.340402 -0.416780 1.076572 2.493066 0.149665 3.006882 2.164236 -0.274622 0.394733 0.154165 1.446932 -0.561491 0.653702 -1.181220 
870 -1.065552 -0.370808 -0.783963 0.913866 -0.624106 1.160655 2.235731 -0.519793 1.101859 0.158492 0.407393 0.824541 1.450079 1.385623 -0.229926 0.051295 0.970812 -0.255107 2.024553 -1.522479 1.262150 0.758307 -1.522684 0.163637 0.240318 -0.327777 -1.433016 1.371387 -0.248999 0.139851 -0.642916 0.135000 -1.594798 0.624657 2.510246 -1.565561 -1.505501 0.725766 -2.177175 -0.956875 1.262781 -0.953069 -1.405830 0.083160 0.402234 -1.809635 0.546643 -2.691746 1.614216 -0.216122 
55 0.192825 1.564731 -1.198941 -0.219099 0.057189 1.198976 1.130715 2.234108 -0.766055 -0.650637 -0.910121 0.855201 2.183922 -0.783555 -0.336679 0.724446 0.691411 1.111498 0.142281 0.736854 -0.061587 -2.694936 -1.374639 0.493605 2.027729 0.787104 0.959321 -0.580033 0.756877 -1.737453 -0.324372 0.231773 0.030657 -1.522957 1.250004 0.041039 0.654979 -0.215872 -1.978435 -0.040407 -0.662486 -0.217359 -0.921211 -1.440522 0.603767 1.851380 -0.290304 -2.828519 -0.059250 0.573775 
1405 1.934693 1.872602 -1.712538 -0.832591 1.582375 -0.198689 -0.219303 0.730491 -0.391189 1.787012 -0.836880 -0.304602 -1.885654 -0.549008 2.532366 0.883081 -0.017826 -0.780735 -1.478873 -0.278272 1.553772 -0.954611 -0.943875 -3.672924 1.827888 -0.757743 1.308556 0.195494 -0.394667 -3.086440 -1.866376 0.712597 1.511323 -2.103348 -0.642652 -1.446724 0.848216 -1.291065 -0.052540 -0.438284 1.449751 0.825923 0.021600 0.002610 0.105537 0.547846 0.974544 -1.333037 0.850821 0.159146 
234 0.833488 1.628664 0.090263 1.841662 0.863032 1.838964 1.030404 1.520201 0.254643 0.012350 -1.679520 0.048948 2.479605 1.297935 0.421814 0.313408 0.446419 0.181026 0.735069 1.591316 1.780986 -1.166130 -2.333233 0.296522 1.404624 -0.437207 -0.004349 -0.825102 -1.059674 -1.101776 -0.491321 -0.148553 -0.333984 -1.928284 0.382839 -0.112061 0.073619 -1.872474 -1.568790 -0.819967 -0.592969 -0.065691 -1.227633 -3.124615 0.468528 1.343763 1.231299 -2.436641 -0.548640 -0.239227 
1454 1.173966 0.209829 0.184090 -1.140975 -0.869195 1.129860 3.411573 -0.810688 0.566654 1.466957 -0.415975 -0.543023 2.976043 -0.162704 -0.771410 -0.848336 -2.089252 0.290967 0.259447 0.191882 0.695813 -1.588856 -0.909062 0.154588 -0.123713 1.106987 -0.213816 0.339577 -0.423706 -2.722484 -0.004460 0.046913 -0.203461 0.254136 0.358410 0.853010 1.757306 -1.879797 -2.652819 -0.377338 -0.312129 0.180328 0.610367 -1.838264 0.323770 0.393647 -1.334012 -1.814008 -0.181503 0.127118 
256 0.377072 0.521376 0.101081 0.365607 0.553085 -0.049816 1.364812 1.767433 0.386906 -0.769113 -0.927990 0.329357 0.817971 0.098645 -0.233735 -0.425824 1.146737 1.007256 0.348968 0.570177 1.884999 -2.295717 -1.681474 -1.758179 1.588859 -0.744243 0.869885 -1.063787 1.235950 -2.411006 0.041859 0.835342 -0.470403 -1.717916 1.447526 0.537358 -0.527990 -0.715591 -1.171423 -0.446580 -0.994300 -0.584561 -0.671968 -0.822704 -1.118151 1.187415 1.265705 -3.170790 -0.121487 0.197055 
886 -0.704320 -1.677466 0.259013 0.527303 0.944391 -1.022617 0.709169 2.578827 -2.146757 1.666163 0.044948 -1.086590 -1.859859 0.719374 1.461630 0.902086 -0.918524 0.171371 -0.299578 -1.734010 -3.322227 3.122088 -0.129042 -1.139393 1.629184 -0.444562 2.384929 1.260767 -0.865084 -0.981030 -0.039631 0.082230 -0.877781 -0.060571 -0.805044 1.677977 0.096148 0.643234 -2.082242 0.482156 1.134315 -1.595230 0.712687 0.858530 1.870345 -1.674824 0.856570 -2.007802 0.339469 0.766504 
532 -1.442484 -0.218396 -0.779092 1.287885 -1.010548 -0.547676 0.887237 0.485707 -0.916812 2.012342 1.126700 -0.625053 -0.392358 -0.653671 0.062198 0.152930 2.862608 0.031022 -0.542686 -1.326382 0.155601 0.472087 0.935928 0.980245 -2.492866 3.152204 0.674828 -0.895644 -2.013571 -0.662736 -0.211403 2.158836 1.041411 0.263070 2.244629 -0.676539 -0.757525 1.136159 -0.853450 0.519935 -0.208943 -1.148199 -0.966670 -0.013165 -1.043276 -0.458302 1.445955 -0.939118 -0.209600 -0.206850 
3957 2.359657 -3.005821 0.538985 -3.103636 -0.447027 -2.719192 0.950777 -1.340541 -0.063972 0.418368 0.826238 -1.649628 -0.420875 0.078230 -1.141857 1.239101 -1.222538 0.183666 0.950732 1.260415 -1.350585 2.917729 2.367213 -2.008093 0.364618 0.513708 -0.162721 0.430178 -0.611684 -1.630138 -0.770339 -1.687775 -1.372383 -0.417286 0.348946 0.445659 0.402728 -0.139118 1.339625 0.489755 1.249931 0.029075 -1.086060 -2.762117 -0.985399 -0.778937 -0.520372 -0.246053 -0.480100 1.199421 
952 -0.678365 1.072540 0.785061 0.769755 1.136225 -0.880575 0.102432 0.985062 0.802715 0.524466 0.397244 -1.513629 2.611884 -1.181011 0.000974 -2.040486 3.428123 0.491043 -0.834373 -0.472296 -0.680641 0.047165 -0.945850 0.995475 -2.109367 0.380062 0.337476 0.892606 2.026904 -0.951862 -0.399887 1.080323 -0.656453 1.120550 1.802650 -1.392949 0.192193 1.716525 0.048833 1.212763 -2.569655 0.748391 -0.548792 -2.831563 1.497276 -0.484853 1.492719 -0.273750 0.323850 -0.632003 
379 0.826064 0.758654 -0.930802 0.985610 -0.132442 0.817184 1.917726 -0.214471 -0.907528 -0.310243 -1.794875 -0.074352 2.733698 0.328675 0.462924 -0.661799 -0.891867 0.497069 0.677803 0.007578 2.171005 -1.478021 -1.594677 0.566347 0.625579 -0.284274 -0.517087 -0.181286 0.012772 -0.777971 -0.426064 -0.973890 -0.259033 -0.521030 0.919618 -2.025590 -0.477104 -2.002584 -1.273068 -1.333918 -0.417097 -0.092180 -1.786679 -1.308808 -0.666404 0.515476 -0.355717 -2.899980 -0.192239 0.105719 
1682 1.333568 0.714067 -1.261937 -3.126916 -0.322426 0.330035 0.087813 -1.060079 -1.056456 1.056048 2.478886 0.081540 -0.586746 -0.303445 1.853438 -0.167629 -0.022175 -0.821730 -1.364462 -1.285787 2.714278 1.052040 -1.325557 -0.356719 0.701840 -0.326513 0.265618 0.050128 0.123721 -1.748131 -0.121380 1.206719 -0.728045 -0.676720 -0.070398 0.830994 1.618910 3.273825 -0.663195 1.351041 1.571623 2.454962 1.734702 -0.590091 0.838919 -1.215532 2.833501 -0.704018 -0.065008 -1.729519 
66 -0.899900 0.198934 -0.428063 0.281202 0.706105 -0.853448 1.458308 0.284686 -0.046992 -1.392347 0.047631 0.299767 2.395461 0.581108 -0.935048 -0.946388 1.589920 2.510189 -1.080247 1.144337 -0.644586 -2.398337 -2.445141 0.000740 0.149989 0.481206 1.112013 0.516447 0.150509 -2.368401 0.437707 0.710653 1.132491 0.499420 0.094762 -1.004304 -0.571486 2.175040 -1.275133 -0.518869 -1.708603 -0.516169 -2.126077 -2.125359 0.768314 -0.472727 0.291292 -2.409170 -0.803571 -2.490322 
2194 -0.753310 1.643295 0.121001 -0.861390 1.165595 0.668689 1.566605 -1.198105 -1.231652 1.124560 1.791302 1.507158 -3.032229 -0.766230 2.619373 0.770882 -0.487869 -1.255420 -1.417437 -1.100065 1.574397 -1.077883 -1.175014 -0.981479 0.345271 0.372871 0.374716 -0.452004 3.144737 -1.585718 0.378012 -0.023901 -2.707095 0.606470 0.059877 -2.072615 -0.520350 1.463814 0.527567 0.319703 1.704374 -1.369748 2.072077 0.302966 -0.052042 0.330695 1.698641 -0.976813 1.196727 0.841521 
2840 1.539570 1.639477 -1.264602 1.228755 0.026191 1.884690 1.769628 0.543112 -0.321029 0.283935 -1.403271 -0.112462 3.113955 0.900980 0.239486 -2.058174 -0.022847 -0.007121 1.067450 -0.330107 1.241100 -1.066237 -1.960265 0.236845 0.800972 0.021451 -0.641273 0.144897 -0.086246 -0.551469 0.179831 0.188883 -0.317857 -0.073355 1.490069 -1.315526 0.366324 -1.665518 -1.345916 -0.696269 -0.832678 0.400069 -1.882073 -1.651453 -0.759097 -0.361706 0.588881 -2.317948 -0.782267 -0.156352 
415 -1.674622 -0.622680 -1.201467 0.667686 1.709354 -0.358623 1.141591 1.537107 -0.706589 3.733420 -1.498051 -0.429438 1.334413 -1.552667 2.148091 1.489250 0.591218 -1.278106 1.516861 1.731103 -1.060056 2.340238 -1.444974 -1.205225 0.105090 -0.080498 0.689380 0.643961 -1.100660 -1.693604 1.121704 0.626618 -0.422652 1.163708 -0.232427 -3.083951 1.720656 -0.540657 -1.597110 -0.476504 -0.609187 -1.498634 1.296649 0.716931 -0.394456 -2.539901 0.231997 1.316313 -0.406129 -0.449276 
413 0.638775 0.239498 0.532888 -0.251939 0.762192 1.563809 0.150991 1.368210 1.529280 -0.061266 0.725758 1.602556 -1.325930 -0.611392 1.803150 0.420744 1.746692 -0.275107 -2.148273 -0.124291 -0.516824 2.837743 1.144577 2.191740 0.953167 -1.520300 0.072700 -1.501487 -1.105668 -1.218347 0.740753 -0.839431 -0.983952 3.531029 0.865211 -0.666524 -0.425703 2.546340 0.351015 0.171769 -0.033515 -0.045834 1.340676 4.430410 -0.081842 0.417954 1.690867 1.710238 -0.886374 -0.277029 
418 1.144635 1.179781 -1.544356 1.046756 0.282795 0.425411 1.051977 1.140229 -0.088853 1.170416 -0.582714 -0.002195 3.115661 -0.354314 -0.109617 -1.896170 -0.484960 0.859241 1.080984 -1.979278 0.053087 -1.255151 -1.501493 1.602431 0.930389 0.901317 -1.319967 0.743971 -0.098620 -1.025673 0.386608 -0.404362 -0.212019 -0.006353 1.951042 -1.190229 -0.114308 -1.609370 -1.393891 -0.273775 0.686635 0.089909 -1.848528 -1.125759 -0.747948 -0.336728 0.981894 -2.391398 -0.905161 -0.866710 
620 -0.713500 -0.484802 -1.138095 -1.009374 0.730152 0.255603 1.764119 -0.023460 -1.601260 0.248222 0.196898 1.182630 -1.924675 -0.439269 1.750829 0.835507 -0.388054 2.364036 2.277766 -0.856428 -1.112931 -0.336137 1.673947 -0.539104 0.433287 1.248860 -0.687117 0.512478 1.686638 0.931194 -0.664458 -0.469977 -0.899744 1.971183 0.798292 -0.406290 -0.922790 2.097319 -2.643694 1.569210 2.676664 -1.427120 -0.199190 -0.225984 -2.142774 -0.042547 -0.301563 -0.601155 0.839520 1.140470 
2807 -0.250022 -1.967275 -0.755890 1.886175 -0.173092 -0.349279 2.356977 1.109258 -1.431801 -2.174485 -0.161877 -0.745826 0.152396 0.474324 0.862396 -0.466384 1.493657 -0.386120 -2.774633 -0.868796 -0.253027 -1.306270 -0.642692 2.087106 -0.181553 2.564158 -0.466507 -0.437653 0.077640 -1.256394 1.293264 2.069243 0.662006 -0.374331 1.383303 -0.244872 -0.918551 1.402748 -1.309480 -1.200989 -0.314067 -1.955625 -0.515410 1.562403 -0.061725 1.039099 0.235663 -0.539303 0.083406 -0.571202 
89 0.484411 0.845814 -0.017134 1.757953 0.395206 0.865988 0.731140 0.871661 -1.027436 2.833100 -2.687116 0.175689 0.962643 -1.137595 1.238158 -0.965760 1.712770 -1.295886 -1.015340 3.262694 0.196421 -0.145792 1.343911 0.447379 0.812110 0.701362 0.709694 2.847720 0.253254 -1.653889 2.028592 1.917987 -1.833384 1.898252 -0.962378 -0.347057 0.294671 -0.339647 -1.796557 -0.855011 -0.599404 0.940375 2.325900 -0.061669 1.734515 -0.932264 -0.662232 0.515498 1.245708 -0.598708 
108 0.738007 1.676988 -0.808300 0.186362 0.307146 0.966058 1.648977 1.031938 0.871037 -0.369274 -0.914139 1.069183 2.385676 0.130015 0.463422 -0.684537 0.043462 0.829843 0.658245 1.831229 2.053543 -1.932911 -1.309147 0.104048 1.179382 0.138032 0.525535 -0.118893 -0.174730 -1.942917 -0.055243 -0.166851 -0.309120 -2.112416 1.131049 0.600531 -0.263783 -1.419324 -0.598806 -1.008225 -0.952739 0.567649 -1.053368 -1.426127 -0.645563 1.146179 0.730750 -2.853776 -0.670128 0.488974 
2854 1.029651 0.973109 -1.211019 1.585508 0.013354 1.911028 1.845624 -0.400581 -0.833317 0.966157 0.149686 -0.039995 4.480958 0.924086 -0.304425 -0.616492 -0.456712 1.190083 1.433187 -0.981791 1.457772 -1.081422 -1.977756 -0.304736 -0.027375 -0.749462 -1.612997 -0.862279 0.339649 -0.780559 -0.005927 -0.488055 -1.169638 0.879178 1.224871 -1.909483 -0.672622 -0.721927 -0.845794 -0.891212 -1.357387 -0.911115 -1.714501 -1.088261 -0.212333 0.706079 -0.754078 -1.975545 -0.056875 0.675974 
3054 1.248515 2.214791 -0.856214 0.973667 0.790915 1.944440 2.046969 -0.135752 -0.264207 0.425586 -0.175726 0.059518 3.001194 0.887923 0.580363 -1.584882 -0.846799 -0.521980 1.514344 0.440883 1.500525 -0.822103 -1.339670 0.632343 1.120819 -0.675335 -0.802423 0.250882 -0.517797 -0.497236 -0.096719 -0.297640 0.111854 -0.837532 1.172397 -0.976238 -0.548472 -1.848440 -1.181218 -0.989696 -0.252499 0.393627 -1.395219 -1.265070 0.006453 1.008958 0.444159 -2.867092 -0.943371 0.262826 
636 -0.550753 0.301678 1.446458 -1.198240 0.925510 0.734228 0.049603 0.505440 -0.452374 -0.400095 -1.537390 0.533790 3.097489 -1.333530 -2.048246 -1.159452 1.027628 0.494027 -0.670043 -0.769950 -0.819209 -0.325800 2.310247 0.204372 -0.229441 0.679169 -1.167906 1.299676 1.258575 -1.863060 -0.441721 1.185414 0.860158 -0.815839 1.358478 -2.115255 -0.011172 -1.043857 -1.760831 1.478400 -3.325906 -1.213660 2.519255 -1.728060 0.841047 -0.590231 1.452511 0.601299 1.282837 -1.078333 
2826 1.180955 1.379478 -1.118530 1.838512 -0.141985 1.676002 1.319177 1.040462 -0.663156 1.045546 -1.168010 0.660139 2.826282 1.005203 -0.421205 -0.225351 -0.306647 1.378895 0.606861 -1.010171 1.536170 -2.203931 -1.276807 -0.204222 -1.034651 -1.284535 -1.917720 -0.328663 -0.561889 -1.796490 -0.483002 -1.202633 -0.301075 0.251249 1.409426 -0.705186 -0.745222 -1.399994 -1.562297 -0.670969 -0.795954 -0.924357 -1.230702 -0.761942 -0.676478 0.985820 -0.773694 -2.437893 -0.022545 0.536626 
3418 0.648122 -0.281714 -0.971822 0.426886 -0.802427 -0.212440 1.439122 -0.183767 0.491629 3.289208 0.744231 -1.179985 -0.230854 0.277110 0.807122 -1.282345 -0.109282 1.069624 -0.462182 3.504338 0.118174 -2.421877 -2.134226 -0.193372 -1.207790 0.249851 0.180548 0.658172 -0.792310 -0.315335 -0.964717 2.715395 -0.022559 -3.197484 2.121049 0.465645 1.497382 1.663507 -0.260602 -1.190796 0.501243 1.561032 0.171376 0.011006 -0.239195 2.962730 -1.247164 0.244129 0.819095 -3.336456 
1043 -2.047971 -0.572932 0.631990 -1.010872 -1.876974 -0.728954 1.844250 0.811511 -2.344647 0.876979 0.608406 -0.625264 -1.770609 1.004249 2.180315 -1.124587 1.278935 -1.062736 -2.484102 -0.023173 -0.060283 0.674778 -0.369011 -1.007354 1.826360 -1.652179 1.125893 -0.274006 -1.934318 -0.700913 -0.638033 -0.273270 0.401121 1.654076 0.324158 0.342134 0.308652 -0.932830 -0.886491 -2.346665 -0.596205 -1.800878 -1.163214 -1.901206 1.548117 -2.866024 -2.696123 -0.822904 -0.723575 -0.902694 
2210 1.944973 1.320502 -0.907544 -0.553535 0.178037 1.034289 -0.914715 -1.044253 -1.609624 2.233468 2.151052 -0.431659 -0.168977 -1.689602 1.286199 -0.546626 -0.775085 0.818862 -0.981273 0.205134 1.723659 -1.134706 -1.902842 -0.296052 -0.517072 1.090263 1.752847 -1.274384 -1.475108 -1.542522 -0.823573 2.240383 0.451008 -2.104211 0.807015 -3.570290 -0.621300 2.607578 0.416141 -0.265240 0.632804 0.854232 1.372925 -0.328352 1.783402 0.097744 0.301049 -0.169810 0.748181 -0.697566 
539 1.122471 2.744807 -0.292984 -1.895082 1.770773 -0.973963 0.256998 -0.247238 -3.351361 0.911858 1.103141 -0.679886 -0.068798 -0.364741 0.379198 0.548551 0.764695 1.387071 -3.226162 -1.014664 -0.359450 -0.186216 -1.204653 -2.017719 0.556909 1.217789 1.951293 -0.067973 1.307211 -1.479311 3.070514 0.551718 -0.177571 -0.359996 -0.017806 0.506694 -2.001060 -1.452895 -0.208993 -0.364215 0.163834 -0.932212 3.747564 0.581804 1.741181 -0.397186 1.601762 -0.224849 1.298072 -1.737801 
22 1.462246 0.067883 -1.952662 0.918696 -3.588711 2.234429 -0.499948 1.507051 0.000148 -1.020964 -1.189812 -0.290162 3.083457 -2.392667 0.569919 0.983472 -0.145623 0.290981 1.329645 -0.364050 -0.717457 -2.387473 -0.568137 0.601460 -1.154379 -0.629804 0.589211 -2.938080 -0.456019 0.689059 1.169860 -0.969932 -0.677868 2.097847 -1.111499 -1.571834 0.279856 -0.644655 -1.167610 0.035263 -0.348188 -0.602129 0.168691 -1.917336 0.610251 1.925702 -0.443752 -0.282415 0.852142 1.376591 
236 0.952121 1.945762 -0.447315 0.168758 0.466420 1.121646 1.544335 0.969478 1.149400 -0.274952 -0.618701 0.281659 1.541724 0.503422 0.878262 -0.478585 1.285612 -1.096243 1.415642 2.002915 1.399814 -1.575226 -1.829191 0.687580 2.016703 -0.382346 0.266141 0.950370 -1.868798 -0.705401 -0.359750 1.140976 0.095455 -2.199620 0.797849 0.056597 -0.578988 -1.057322 -1.536141 -0.882800 -1.022676 -0.944800 -1.771550 -2.248726 0.230357 1.138521 0.878355 -3.256767 -0.806075 0.686156 
111 0.877706 2.356109 -0.876026 0.248617 0.738585 0.660391 1.419356 1.135436 0.349961 -0.266192 -0.823380 0.336005 2.607178 0.340224 0.842227 -1.531755 0.540626 -0.661515 0.505583 1.584225 0.862466 -1.460840 -1.010590 0.048347 2.002276 0.348712 0.684270 0.291344 -1.395923 0.056264 -0.055792 0.705754 0.165308 -1.920049 0.411261 -0.351528 0.640693 -0.568088 -1.145691 -0.990601 0.162650 -0.536068 -1.487866 -2.194569 0.370979 1.091316 2.469687 -3.087660 -0.833848 0.212880 
2852 1.834222 1.550785 -0.847760 1.868587 0.095250 0.687333 1.740108 0.859672 -1.052441 0.432615 -1.424094 0.559619 1.848726 0.159569 -0.437509 -0.888573 -0.306047 1.256099 1.012765 -0.174348 1.641853 -1.573512 -1.931246 0.363613 -0.056144 -2.062998 -1.716149 -0.111881 -0.058548 -2.505985 0.297751 -1.226962 -0.649422 0.112756 1.515767 -1.559414 -0.992334 -1.147243 -1.747892 -0.349272 -0.786487 -0.387144 -1.799475 -1.786577 -0.862477 1.176505 -1.017586 -2.391636 0.411384 0.671900 
149 -2.156821 -0.063289 -0.391422 -1.883371 -0.063204 0.071959 1.385541 0.986033 -1.070651 -0.612850 -0.602643 0.483692 4.476943 -0.639399 -0.047033 1.006192 -1.031416 0.558688 0.205717 -2.346144 -0.386650 -0.269669 1.629747 0.784391 1.061651 0.109208 -0.375033 1.728203 -1.379809 1.091027 -1.112196 1.915100 -1.688447 -0.294882 2.650663 -1.497358 -1.947684 -0.091447 -0.703568 -0.001709 -0.838298 -1.289174 -1.551345 0.982660 0.377854 -0.879065 1.192061 0.339756 0.246111 0.486408 
2809 0.794902 0.687126 -0.985108 0.300059 -4.183861 0.689595 1.765833 0.092083 -1.422095 -0.638799 0.082759 -0.685841 -0.507810 -1.833389 -0.100612 -1.178665 1.061287 -0.634233 0.657877 0.183903 -0.525195 -0.799653 -0.033411 2.523552 0.603069 0.714689 0.194395 -1.289680 0.043266 -1.408450 -0.028869 0.887845 1.047810 0.144303 1.352160 -3.389581 -0.143999 0.553139 -0.184108 -0.620361 1.169086 -1.628639 -2.497456 0.257100 -2.558403 -0.093895 0.768496 -1.351527 -0.026903 0.382853 
107 -0.195669 2.457025 -0.906038 -1.016833 0.658417 1.246779 1.323367 1.744007 0.339744 0.746942 -0.415593 0.831353 1.511248 0.799436 0.996509 -0.218853 0.946975 1.512921 -0.145436 2.325413 1.014351 -0.908370 -0.520588 0.402520 2.572857 2.086875 1.023315 -0.229789 -0.864116 -1.096262 -1.156085 1.288998 0.821199 -1.951556 -1.035055 -0.000046 -0.087048 -0.625156 -2.067479 -0.253081 -0.573543 0.273632 -0.466750 -2.095361 0.703866 0.312521 1.735517 -1.392643 -0.786939 1.080609 
1642 -1.009898 -1.979338 -0.429931 -1.138267 -0.271189 1.319171 1.946494 -0.094247 0.283448 2.192042 1.720024 2.355020 -0.068540 -0.067102 -0.781573 -0.953592 2.056685 -0.408914 0.338838 -0.895848 -0.646710 -2.190958 -1.122548 -0.901320 -2.041879 1.114951 1.477842 -1.522816 -2.327597 1.849090 -1.109892 0.002426 -0.879451 0.408845 0.073677 -0.682190 -2.578047 0.120129 -0.212354 -0.863157 -2.056452 -1.724056 -1.239416 2.946970 0.629408 -0.559950 -1.046257 -0.847770 -1.801376 1.697168 
948 -0.753002 1.043868 1.446982 0.380427 -1.591512 -1.592177 0.823014 1.961327 0.945391 1.511472 -0.129137 -0.231462 1.992468 -0.852371 -0.408671 -2.062250 2.790219 0.087030 1.113555 -1.128574 -0.516554 -0.682235 -1.329475 1.354543 0.065467 1.777607 0.721821 2.471167 2.356882 0.149589 -0.268003 0.163774 -1.092311 1.838007 1.474993 -2.136262 -0.258926 -1.286829 -1.055160 1.863913 -0.065980 1.341227 -1.027715 -0.976544 1.972769 -1.513534 0.622119 -1.507678 -0.897599 0.074379 
2835 1.802000 1.507958 -1.093978 1.419319 0.390195 1.416521 1.859627 1.485125 -0.501377 0.239883 -2.082743 0.582198 3.003706 -1.005522 -0.533653 -0.360437 0.331137 0.893930 1.177514 -1.411555 1.835779 -1.685822 -1.172888 0.704813 -0.176756 -0.622787 -0.685373 0.235762 0.495516 -2.506675 -0.026191 -0.430845 -0.654955 -0.547519 0.682027 -0.451554 -1.113464 -1.199237 -1.420799 0.096453 -0.715245 -0.316764 -1.637011 -0.727809 -1.258348 0.837398 -0.246945 -2.373141 -0.065975 0.960957 
1693 -1.872351 -1.190612 1.487270 1.536273 -0.066580 -1.024029 -0.098001 -0.310739 2.851729 -0.927172 1.792016 -0.451513 0.134544 0.738227 0.925634 0.776408 -0.708767 -0.343809 -2.066862 -1.021088 -0.262021 -4.295181 1.366897 -2.136673 -1.691071 0.912002 -1.063981 0.443271 -1.030631 -0.409594 0.883099 -0.007009 0.467481 0.744264 1.156905 0.763694 -2.004228 -0.972183 1.443457 0.006638 1.041936 0.204782 1.764012 -1.071027 1.658486 -1.692134 3.171201 -0.756869 1.233082 -0.916457 
2834 1.382234 1.373063 -1.686143 1.853491 0.277306 1.983352 1.575486 -0.258479 -0.774172 1.573403 -0.991490 0.722664 4.167007 -0.233088 -0.327789 -1.302707 -0.472870 1.711088 0.986242 -0.888535 0.599609 -1.244725 -2.003289 0.699040 0.389237 -0.085617 -2.538854 -0.350217 0.270824 -0.512203 -0.151649 -0.895212 -0.602947 0.085243 1.398272 -0.859264 -0.206709 -0.799056 -1.838386 -0.734800 -0.440180 0.084793 -0.745238 -0.320876 -0.444104 1.082839 -0.452684 -1.874834 0.407836 -0.031393 
854 1.625356 0.782947 1.394873 -1.932781 1.339144 0.434846 1.678330 0.478180 1.690697 0.362741 -0.162324 0.257680 2.173728 -1.204362 -2.813829 -0.764019 1.750263 -0.432379 0.040892 1.072276 -1.433153 -1.284893 1.103674 0.371057 -0.897899 2.874342 -0.631661 1.405745 1.329956 -2.412774 1.352745 1.076886 1.733111 -0.579261 0.303641 -0.803774 0.068096 -0.943205 -2.081381 0.989947 -2.000405 -2.155877 1.275972 -0.468063 0.444246 -1.289593 1.634079 0.450028 0.275635 0.283360 
1216 0.991275 2.229673 -1.412601 1.295493 -0.612341 1.262433 2.226269 1.063467 -0.206949 0.667674 -0.857336 -0.622602 3.390512 1.111151 0.113634 -2.094174 -0.763285 -0.218588 1.011508 -1.439271 0.706620 -0.516204 -1.735453 1.143878 1.302157 -0.065083 -0.779506 0.380053 0.205619 -0.236286 0.510338 -0.562540 -0.262677 0.403380 1.198396 -1.016727 -0.264282 -2.083790 -1.705122 -0.061089 -0.092814 1.090052 -2.488283 -1.315781 0.296509 0.014297 0.203833 -2.747958 -0.963397 -0.762603 
562 -0.746364 1.696854 -0.437295 0.857724 -0.681708 0.321056 0.263408 -0.090232 -0.055488 1.752924 -1.872358 -0.382338 -0.908755 -0.423616 -1.711965 -0.542410 1.723342 -0.244940 -1.675503 -2.521971 0.890178 -0.081453 2.114031 0.262683 0.439975 2.726758 2.252144 0.679012 -0.356004 -1.033687 0.463486 -0.994955 -2.493779 -0.189823 0.949170 -0.732148 -0.610942 -0.873756 -1.467801 -2.576646 0.078685 -1.432759 1.050494 -0.417255 1.130533 -0.944140 -0.797541 -0.512070 -0.289152 0.048062 
1750 0.927923 0.210911 0.593376 -1.276620 1.883849 -1.163322 -1.736845 -1.730905 -1.740328 0.034710 0.207232 -0.245838 -1.429316 -2.069789 1.476529 0.324446 -0.087333 -0.503994 -0.372331 0.183787 0.308976 -0.516414 -2.104211 -4.053442 0.922917 2.330800 1.090430 -1.156249 -0.194017 -1.288750 -0.037878 0.408138 0.551276 -0.660854 -1.503896 -1.242259 0.142504 0.714013 0.780464 -0.629870 1.903348 0.176918 -0.543712 0.058670 1.011627 0.301207 0.552524 -2.792051 1.308560 -0.535925 
1993 1.429540 0.318453 0.194359 0.569447 -0.781098 -0.968419 0.065400 -1.617565 -1.789200 0.376567 0.399594 -1.454377 -1.026431 0.258581 2.984847 0.315719 -2.178856 1.011119 -4.000364 -0.430581 1.880366 -0.151780 0.800427 0.233565 -2.796098 2.075068 1.387010 -1.709187 -1.838227 -1.500594 -0.066408 2.027965 -0.426947 -1.202701 -1.631923 -1.000063 -0.477343 2.805554 -1.743599 0.799406 0.807572 -0.427489 0.694703 0.770470 1.735338 -1.412490 0.599465 -0.527368 -0.969707 0.769688 
856 1.063645 1.223608 1.608027 1.312732 0.772386 -0.102588 0.907089 0.558438 0.797484 0.577079 0.517280 -0.267438 4.485209 -1.357560 -0.953946 -0.981801 2.450420 -0.269818 -0.212527 -0.901043 -2.396627 1.625090 -0.314307 -0.483370 -0.401970 1.843290 0.477260 1.287036 1.319034 -0.453759 -0.361506 2.854887 0.718040 1.682730 0.552608 -1.230923 -0.121689 -0.429185 -0.498398 2.172349 -2.946916 0.181024 1.513554 -0.891103 0.753816 -0.566366 0.801811 -0.228897 0.498655 0.001871 
380 1.518941 1.072886 -1.043028 0.572757 0.726317 1.951234 1.838739 0.727607 0.377539 -0.603584 -1.000607 0.513434 2.893775 0.856505 -0.336402 -1.407763 -0.548907 0.094605 1.601961 0.826621 2.180009 -1.266189 -0.971998 0.171569 1.359843 -0.668899 -0.853281 0.053238 -1.337955 -1.267964 -0.087633 -0.573445 0.685749 -0.338044 0.082278 -0.673874 0.330284 -2.041042 -1.677811 -1.162136 -0.184158 0.619682 -2.218912 -1.712092 -0.806069 0.517708 0.722343 -2.934634 -0.785256 0.538958 
10 1.174201 1.156652 0.544491 -0.214804 1.780720 -2.735573 -0.328314 -0.738896 -0.119675 0.785670 -1.744918 0.565177 1.573907 0.625601 -0.322755 -0.676651 2.442390 1.356812 -1.054296 2.641845 1.463416 -0.649954 1.733001 0.513986 0.181958 1.879460 0.854941 -0.569790 0.371741 -2.051907 -1.554139 0.284888 -0.525844 -0.080454 -0.271794 -0.165535 -0.130930 2.157201 -1.459124 -0.956161 -1.914315 0.212739 -0.022843 -0.453663 1.866433 -0.450071 0.146751 -1.838092 -0.665893 0.666909 
226 0.948933 0.856432 -0.231017 0.836515 0.990814 -1.350601 0.672376 1.643788 -1.264846 0.144464 -1.552195 0.629212 1.956607 0.320897 0.022640 1.354493 1.252649 1.835538 -0.607590 0.478265 1.935868 -2.767604 -2.158810 -0.685542 0.028459 -1.523706 -0.541578 -0.433731 -0.134509 -3.154118 -0.736197 -0.675657 -0.217558 -1.482698 1.466991 1.079515 1.055641 -0.260931 -2.341474 -0.504538 -1.960256 -0.381297 -0.103028 -0.139810 -1.431967 1.423235 0.107920 -1.879685 0.495782 0.141956 
7 0.263035 -0.632187 0.713215 -0.473701 0.496044 -0.394077 0.896777 -0.044588 0.718526 -0.465140 -1.396185 0.610230 1.830042 -0.460387 -0.362484 -0.024090 3.051378 1.375872 -1.218137 0.770899 0.434251 -0.083973 0.686304 1.047208 -0.689202 1.866719 1.426148 0.660725 1.736082 -2.007707 -0.188896 2.525318 1.264333 -0.477404 -1.276039 -1.717327 -0.581484 0.902015 -0.379753 0.207189 -2.009801 -0.484439 1.094212 -0.553090 2.305099 -1.839028 -0.252119 -0.677242 0.290832 0.097443 
123 0.367538 1.668365 -0.329530 0.772020 -0.133245 1.429575 2.255499 1.085318 -0.395165 1.707023 -0.876153 0.047267 3.007168 1.019297 -0.310114 -1.579249 0.220284 0.630059 2.159899 -0.113494 1.491948 -1.186327 -1.732690 0.750261 0.759021 -0.751338 -0.671385 0.167978 -0.282029 -0.592492 0.301140 -0.200572 -0.004505 0.145352 1.736560 -1.332372 0.552262 -1.590585 -0.614196 0.101555 -0.941823 0.333295 -1.632274 -1.988955 0.418388 0.285126 0.613660 -2.688112 -0.671660 -0.040958 
115 0.941679 2.402096 -0.509096 -0.253632 0.584908 1.282519 1.059598 1.555314 0.553525 -0.749672 -0.762749 -0.435700 2.349600 1.692619 0.548508 -1.747241 0.499205 -0.295618 1.343181 2.055690 1.532867 -1.109173 0.050102 1.170949 2.476913 0.736199 0.336293 -0.449663 -1.576537 -0.677197 -0.072887 -0.303006 0.585059 -1.860541 0.487508 -0.104861 -0.532088 -0.834526 -1.646181 -1.082517 -1.087186 0.571189 -0.350155 -1.903818 0.630338 0.630271 1.960211 -1.934547 -1.113942 0.438992 
384 0.916692 -1.037799 0.332237 -0.143527 1.834029 1.026201 1.810530 -1.601120 -1.447189 1.609718 -0.333132 -0.068431 2.058480 -1.683657 0.851677 -0.585353 2.435381 -1.342276 -0.831919 0.492307 -0.217165 -1.960229 1.063757 -0.272623 0.154869 0.456965 0.966668 -0.393702 0.765888 -0.598202 3.142908 0.723237 -0.169682 -1.364532 1.354939 -0.217957 -1.391621 -0.984911 -0.021145 1.517161 0.320257 0.374080 0.322673 -0.409016 1.839874 -0.355789 2.404662 -0.373486 -1.860752 0.814088 
2837 1.323414 1.170908 -0.741579 0.893932 0.137628 2.224839 1.857951 0.492918 -0.926405 0.721878 -0.828393 1.302328 3.260283 0.125545 -1.730635 0.315708 -0.997488 0.796502 0.570940 -0.661102 1.036284 -1.475750 -1.146584 0.165317 -0.987566 -0.983299 -1.842734 0.009792 0.703987 -2.216664 0.498749 -0.235873 -0.587392 -0.818814 1.892168 -0.927265 -0.422662 -0.651617 -1.105499 -0.589220 -1.033149 -1.180230 -1.391106 -1.357828 -1.135916 0.957338 -0.366136 -1.920408 0.188377 0.324112 
1590 -1.917608 2.192469 -0.201908 2.608192 0.665380 -1.579464 0.480906 -0.625583 0.911397 -2.329009 -0.614981 -1.079034 -0.437924 -2.741942 1.333888 -0.465275 2.199069 -1.034873 1.682820 1.829098 0.132804 0.912357 -0.264942 -1.703143 -0.676728 -1.039763 1.516695 -2.028704 -3.124475 0.721336 1.131532 -1.558605 -1.843163 2.685727 -2.048498 1.026871 0.015488 0.987330 0.376749 1.270235 -0.813799 -2.005729 1.304233 2.542236 -0.686369 1.715220 2.886980 0.511766 -2.395262 -0.137417 
2798 0.944743 0.391020 -1.239657 1.199509 -0.334855 1.487394 1.892693 1.097582 -1.287903 0.723383 -1.557347 -0.125610 2.353800 0.320592 -0.679832 -0.406459 0.034617 0.921459 0.617267 -0.776756 1.659590 -2.079413 -1.493450 0.362396 -0.351855 -1.589005 -1.598102 -0.565560 -0.279516 -1.709274 -0.180732 -1.606540 -1.141102 -0.122806 1.005076 -1.224792 -1.246171 -0.797749 -1.819355 -0.546156 -0.810747 -0.348227 -1.460667 -1.028583 -0.849439 1.289742 -0.909763 -2.014085 0.049884 0.580797 
2793 -0.191713 0.580254 1.915419 1.905439 -1.006927 -0.769118 1.044353 1.100570 1.434788 2.162572 0.620879 -0.417500 0.576655 -1.411133 -0.727931 -1.644303 2.183838 0.633618 1.796772 -1.153446 -0.664786 -1.524886 -1.432160 2.166787 1.014629 1.901414 0.688686 0.227959 -0.055308 0.061504 1.848935 1.513993 -1.140897 1.031478 0.574140 -1.694881 0.929590 -0.157622 -1.943975 2.220473 0.463600 0.139930 -0.723804 0.342058 1.799524 -2.446903 0.862235 -1.337658 -0.362303 0.472680 
752 0.635196 0.737431 -1.202938 1.186561 -0.034837 0.454648 2.369260 1.415254 -0.420611 0.390014 -1.455031 0.849982 2.227669 0.476221 -0.180941 -0.351813 -0.068511 0.716315 1.056159 -0.239488 1.859930 -2.643802 -2.238170 -0.474356 -0.298979 -0.795298 -1.072538 -0.502276 0.497639 -1.970512 0.171891 -0.686529 -1.097736 -2.041028 1.041012 0.264054 -1.610407 -1.177746 -1.622588 -0.260250 -1.065580 -0.646908 -0.327200 -0.884817 -2.033441 0.637193 0.649522 -1.596421 -0.334695 0.219992 
289 0.587086 0.104573 0.395936 -0.082906 -1.782641 0.910277 1.094982 1.769830 -0.731794 -2.318505 -0.060935 -0.432253 2.437007 -1.822906 -0.654405 0.265364 0.008653 0.462454 0.587701 -0.152847 -0.687662 -2.703465 -1.917837 0.295233 -1.323112 0.016733 1.307530 -0.928152 -0.552937 -0.231771 2.188628 0.279563 1.065373 0.542866 0.407762 -0.588694 0.838988 0.809808 -2.094049 0.045614 0.801525 0.070449 -1.552928 0.492411 0.072538 0.277621 2.256236 -0.666941 -0.101199 1.441129 
432 -0.799821 -1.556246 -0.372011 0.415682 -0.067220 0.398410 1.700673 -0.386462 1.318338 -1.311908 2.133219 -0.109677 -0.560393 0.309995 -0.435153 -0.821886 2.617410 -2.413281 0.894429 -0.609254 1.755556 -0.856885 -0.601842 0.770438 0.708502 -0.819295 -0.953936 -0.883792 -1.935044 -0.055973 0.190774 0.713292 0.425798 -0.476203 0.479642 -2.608982 -1.343143 1.082404 -1.087813 -0.766385 -1.546134 -0.184285 -0.428942 -0.290540 0.828174 -1.984226 -1.152925 -3.674680 2.168622 0.608670 
888 -2.512694 -0.448876 0.962023 0.913896 1.500495 -3.657714 0.901810 2.099259 0.092649 1.190251 -0.308233 -1.237406 -0.052082 -0.380461 -0.943715 0.875410 -2.842766 0.449611 1.520176 -1.379212 -0.078681 0.988309 -0.728207 -2.034364 0.525052 -0.790154 0.130818 0.628515 -0.237192 -0.748218 -0.782315 -0.531122 -0.239901 -1.829533 0.054314 -0.698372 0.675030 -0.106449 -2.066810 -1.006311 2.779328 -2.316136 0.425177 1.498187 1.459075 0.053047 0.744409 -0.145875 0.401374 -2.728210 
1630 1.025398 1.312036 0.080147 -0.762642 1.122022 0.503286 1.393787 1.046159 1.379156 0.141233 0.003597 1.331681 2.125144 -1.227838 -1.609421 -0.357072 2.564364 -0.089661 -0.920994 1.294464 -0.559391 -0.642882 0.427194 0.975923 -0.750254 0.721649 -1.680570 1.801981 0.467494 -1.874196 1.475884 2.346058 0.849240 -1.277878 0.632266 -2.587303 -0.646669 -0.119062 -1.182799 1.715737 -1.849048 -1.774728 1.715474 -0.847555 -0.689262 -1.711007 1.687439 0.576950 0.032406 0.101936 
2808 -0.579453 -0.673855 0.690329 1.778437 0.243392 -0.937317 2.657999 -0.086784 -1.004129 0.866865 -0.852145 -0.148859 -0.013413 0.328915 0.025864 -0.598186 2.764242 -0.569979 0.150770 -0.533908 0.470605 -1.753681 1.446557 1.431538 0.217820 1.141490 0.415320 -1.304487 0.538877 -1.069365 0.338102 0.562240 -0.028159 -0.853505 2.364295 0.183002 0.290691 -1.212425 -3.602452 -0.945046 -0.302496 -1.696542 -1.992725 0.392531 -0.768861 0.759536 -0.867486 -1.418621 1.655261 -0.147585 
1346 0.511720 1.571124 1.133669 1.583114 0.330134 -1.155590 0.476316 1.588702 0.410539 0.975946 -0.622335 0.342432 1.763484 -1.071430 -0.105576 -2.392719 2.902928 -0.310292 0.873976 -0.428877 -0.973946 -0.527950 -1.777186 2.419972 -0.107943 1.650577 1.026946 1.717939 1.077840 -0.139910 0.162203 1.222751 -1.313291 2.018378 0.243649 -1.503714 -0.179650 -0.758390 0.260515 0.862868 -0.914809 1.458387 -0.532780 -1.648277 1.269328 -0.964240 0.506136 -0.917930 -1.254922 0.339209 
119 1.407249 0.881630 -0.966295 -0.451281 0.066926 1.120596 2.976493 -0.659576 -0.639483 1.265226 -0.463097 -0.261939 3.524446 1.320516 -0.676311 -1.356461 -1.501037 1.010747 1.709099 -0.706346 1.659737 -0.380482 -0.696589 0.931084 1.003678 0.116365 -1.283722 0.313439 -0.470604 -0.121485 -0.283319 -0.153693 -1.125137 0.071096 1.321771 -0.782350 -1.019837 -1.041440 -2.499493 -0.582792 0.670421 0.019883 -2.320439 -1.806612 -0.100168 0.529255 0.995012 -2.891579 -0.189807 -0.006565 
91 -1.914593 1.141873 -0.066391 -0.322755 -0.094173 -1.263983 2.919276 0.817750 0.885611 3.313771 -0.629357 0.843949 1.848029 -1.482061 0.414744 2.062551 2.374529 -0.501379 0.212337 -0.442543 0.088250 0.568057 -1.258416 0.465310 -0.133648 0.147853 0.491536 -0.485453 1.164218 1.043909 0.074296 1.524369 0.404869 0.682498 0.007465 -3.302013 -1.951378 -0.073964 -0.140201 -0.034984 -0.695658 -0.518860 1.499406 -0.403999 0.196990 0.513952 2.401716 0.856933 1.719831 0.079480 
734 -2.188704 -0.169113 0.311665 0.727799 -0.327707 -0.084512 2.461474 1.419305 0.923217 -0.741563 -0.174667 -2.008551 2.717042 -0.073912 1.033215 0.591190 1.163794 -2.881415 0.036679 -0.530139 0.610933 -0.572941 -0.309799 1.448744 3.264018 -0.468048 -1.461651 0.467389 -2.808883 0.014296 1.499007 -0.105235 -1.349502 -2.123189 2.373709 -1.792178 -1.404169 1.702092 -0.481096 0.784044 -1.037909 0.491880 0.812935 1.690159 0.713607 0.179347 1.181921 1.013729 -0.882746 -0.638183 
1380 -0.143012 1.301147 0.271427 1.621164 -1.124176 0.059007 3.045738 -3.077511 -2.101326 -0.107475 -1.376670 1.585956 -2.142689 -2.373992 2.675735 -1.281021 -1.839729 0.084277 -1.907757 0.635650 0.662828 0.525213 -1.586514 0.366513 0.600698 2.412094 2.105738 -0.037698 1.624488 1.381899 -0.535155 -0.690754 -0.086216 1.064726 -1.827654 0.367238 1.747215 -0.372018 0.749813 0.644225 -0.608528 0.529465 -1.111700 -0.168549 0.689909 0.487488 -1.506183 -0.790608 -0.336074 -1.308522 
2317 1.014753 1.516305 -1.412011 1.685295 0.637812 1.644385 1.202415 0.340203 -0.051541 -0.406984 -0.815545 0.246266 2.507348 0.190484 -0.149703 -1.062797 -0.089914 -0.541156 1.847415 0.691528 1.211121 -1.226769 0.043605 0.003476 1.558560 -0.172230 -0.088695 -0.468905 -1.222793 -1.256003 -0.657434 0.187770 0.217263 -1.213769 1.107145 -0.373674 -0.162119 -1.602281 -1.596627 -1.264553 0.177484 -0.707248 -2.305052 -2.334369 -0.171338 1.305128 1.557771 -2.341603 -0.525396 0.551311 
944 -1.433726 0.935397 1.084850 2.524078 -0.076317 -0.695225 0.264977 0.579911 1.203231 0.324474 0.131098 -1.948788 0.981793 -1.972350 -0.173181 -1.563331 5.221380 0.938195 1.296548 -2.528274 0.577104 -0.908018 -0.708291 1.001195 1.505981 1.687270 1.448461 0.899566 0.191207 0.909353 -0.331330 1.040450 -1.502732 2.504417 -0.093698 -1.187884 0.681448 -0.501215 -0.194324 2.260841 -0.055625 -0.109741 0.625118 0.928750 1.860176 -0.466244 0.620907 0.285620 -1.628322 -0.360631 
334 0.697755 0.305129 0.486837 0.824010 -2.045895 2.632885 0.523201 3.389544 -1.161706 -2.166936 0.762067 -0.265447 2.880325 -2.876590 -0.516613 0.031766 0.032372 0.856978 0.378218 0.446108 -1.220110 -3.390290 -1.191422 -0.032856 -0.544820 -0.173923 2.137358 -1.541655 -0.211142 -0.534625 1.134802 -0.325265 -0.127567 -0.283150 -0.484604 -0.565023 1.497336 0.382014 -1.572609 1.801254 -1.282451 -0.762127 0.105602 -2.309920 0.262790 2.177284 0.115720 -0.655751 0.971825 1.405221 
416 -0.030785 -0.513652 0.062547 -0.409537 -2.266077 1.355344 2.361554 2.731477 -0.950334 -1.467692 0.274979 -0.958520 3.484668 -1.245967 0.887021 -1.540409 0.334212 -0.418754 -1.834455 0.343316 -0.249852 -1.332472 -0.251699 1.155982 0.781925 -1.120230 -0.062986 0.772845 -1.497068 0.208678 0.814250 0.297434 1.254078 -0.831295 2.018503 -2.624451 -0.599392 -1.551369 -0.222148 -0.408412 -0.927109 -0.948188 -0.500900 1.307982 1.221760 1.279167 1.380916 1.121217 0.280911 1.580057 
3745 1.262060 0.761903 -0.729288 -1.647182 2.518481 -0.716180 0.928240 0.676515 -2.019606 1.681569 -0.411894 0.370896 -0.664055 -0.320902 2.365544 -0.352926 -0.761973 -1.462252 -1.022550 0.760674 0.772123 -0.157045 -0.369648 -0.970039 0.437582 0.016108 -0.680754 -0.584281 -1.204275 -4.669245 -1.029057 3.149828 -0.142792 -1.999484 -1.859900 1.015419 -0.528205 -0.936293 2.305711 0.911510 0.232973 1.789027 -0.002840 0.635277 -1.142508 -0.568390 1.514508 -0.764304 0.870713 -0.966005 
879 1.677062 -0.218418 -0.916607 -0.734731 0.807528 1.733048 0.233301 -0.201575 -1.073115 0.970403 0.648009 0.510579 -1.260566 -1.269591 3.256329 -1.261444 1.526841 -2.770689 -1.197484 -1.199105 -0.348549 0.261686 -0.741141 -1.420166 -1.074267 -0.534709 1.444600 -0.108219 0.589253 -3.554751 0.116003 2.229536 0.375720 -0.345366 0.075748 -0.801756 -1.496774 0.187827 1.114282 0.354846 1.909286 0.867613 1.446990 0.638295 -0.585703 0.664141 1.521845 -1.622933 1.096761 -1.697554 
287 1.513533 1.285082 -0.689271 0.214962 -1.314971 0.340083 1.621072 0.711572 0.187956 -0.507751 -1.579514 -0.295061 1.897996 -1.653162 -1.164552 -0.984167 -1.216782 -0.134326 1.256424 -0.689917 1.695626 -1.759583 -1.190701 -0.669133 -1.485973 -0.700976 -0.444618 -0.433305 0.404586 -1.493785 3.043634 -1.123355 0.688415 -0.248165 0.930914 -0.993391 1.177092 0.752499 -1.060138 0.268823 -0.723698 -1.662422 -2.511517 0.122221 -0.170052 2.227937 0.698182 -1.592167 -0.824122 0.197177 
1280 -2.078309 0.549366 1.734507 -0.454599 1.261382 -0.427563 -1.095982 3.507710 0.037472 -0.226453 1.530881 -0.166642 -0.989548 0.017227 -0.191336 0.315314 -3.042962 1.776909 0.763159 0.446996 -1.963245 0.597970 0.257370 -0.586117 -0.489264 -2.084134 0.911097 1.593944 -0.586595 0.911089 -1.367897 -2.923945 1.213105 -1.026731 -2.170626 -0.021795 0.346397 -0.116344 -0.961912 -0.415329 2.656445 -1.099704 1.465336 0.028535 0.108350 -0.508406 2.429148 -1.953382 0.258127 -1.188569 
3020 2.371165 -1.371117 -1.402354 1.522740 -0.169508 -1.389691 -1.123750 0.721270 1.136343 2.280605 0.448755 0.804345 -1.081658 -1.730072 -0.608207 1.767712 -1.261809 0.948993 -2.835758 -2.364913 0.610731 2.378533 2.384727 -1.162611 3.148121 -0.802868 0.201886 1.749471 -2.648107 0.152115 -1.219858 -0.240844 -0.468527 0.031943 -0.230266 0.095372 1.766763 1.167123 -0.692923 2.092367 -0.917065 -0.798751 -1.667058 -0.180597 1.012540 -1.679748 1.136678 0.455589 -1.389727 1.043115 
2505 1.396542 2.259332 2.392341 -0.912570 -0.142788 -0.099479 -0.445426 -0.234180 -0.529331 2.221973 1.000194 -0.756178 -1.918391 -0.318059 -0.276389 -1.905749 -0.959057 -1.061234 -0.792659 -0.849126 -0.937563 0.303421 -0.693603 -4.911349 1.170409 0.355824 2.473489 0.252650 0.023243 -2.275004 -0.742188 1.678321 -2.340431 0.151845 0.152021 -0.732758 0.429773 -0.684477 1.179562 0.312068 1.930704 0.883817 1.076699 2.154723 0.551553 1.058993 0.254660 -1.277855 -0.225098 -0.427334 
27 1.895535 0.658207 0.812683 -0.646467 -3.108050 2.117266 0.018845 1.856868 -0.063467 -1.281935 -1.214599 -0.305446 1.540966 -1.705730 0.896971 1.299096 -0.162904 -0.181711 1.347483 0.294551 -1.616353 -2.478796 -0.575205 1.529116 -0.938444 0.273453 1.249738 -2.606451 -0.217330 0.618078 1.211034 -0.006461 0.148569 0.240055 -1.932870 0.695486 1.644629 0.223610 -1.319430 1.266913 0.367462 -0.263828 0.853174 -1.451238 0.140797 2.553496 1.411540 -1.383141 2.000860 0.721252 
298 -0.389254 0.389153 -1.623882 0.400244 -1.663888 1.321425 0.247792 1.711715 -0.840574 -2.356502 1.609867 0.567791 1.679007 -2.778894 -2.043727 -0.186235 0.853885 0.414834 -0.752681 1.033271 0.087272 -1.634937 -1.017228 -0.669597 0.129966 -0.865097 1.418364 0.760630 0.391080 -1.390430 1.698553 1.993673 1.304149 -0.600904 -0.024445 -0.883940 1.297811 1.452992 -2.734527 0.817078 -1.156131 -0.311530 -1.422941 -1.026217 0.782607 1.052693 1.161987 0.345810 -0.823680 0.540669 
1074 -0.333241 1.270048 0.033101 1.607747 1.034615 -0.062419 2.270979 2.839862 -0.597958 -1.974744 -0.037233 -0.382359 2.134774 0.265568 0.859736 -0.143178 -0.246514 0.249955 -1.860585 0.295902 -0.948346 -0.903447 0.137672 1.831666 0.498689 0.903959 0.216958 -0.336321 -2.260488 1.323672 1.605549 0.849961 -0.824553 -1.477592 2.523423 -2.391753 -1.036892 0.340143 0.061054 0.752511 0.536313 0.037607 -1.662840 0.966148 0.552478 1.604431 1.579409 -1.823539 -0.321818 1.883128 
2831 1.504218 1.076573 -1.667245 1.031912 -0.260816 1.144170 2.171160 0.099635 -1.244365 0.709018 -1.537161 0.090372 2.922976 0.430161 -0.180408 -1.070657 -1.216641 0.821354 1.123119 -0.924667 1.765052 -0.300236 -1.517948 0.562862 0.237619 -1.044767 -1.768719 0.285941 -0.069216 -1.219051 -0.031394 -1.866552 -0.769734 -0.329370 0.995925 -1.952880 -0.668824 -1.033509 -0.866781 -0.222793 -0.320904 -0.200135 -1.505342 -0.493278 -0.139591 0.735237 -0.416337 -2.437790 0.429382 -0.277933 
1574 0.557058 1.326626 -0.330971 -3.252980 1.016666 -0.486367 2.532642 1.194812 -0.033551 -1.226443 1.236147 1.482146 0.618521 -0.317268 0.469383 -2.098955 0.448416 -2.667346 -2.129739 -0.435025 0.806226 -0.408364 1.476761 -1.040293 2.039878 0.158811 2.386178 -1.007614 -0.381634 2.259821 0.156026 -0.731885 -0.979751 -0.380518 0.095474 -2.258833 0.569664 -0.566497 -1.713002 -2.219848 0.216233 1.288440 3.591240 -0.101972 -0.481113 -1.113157 0.571811 0.495511 1.387142 0.685461 
245 -0.559885 0.968750 -1.153689 1.998679 -1.257066 0.805195 -0.217523 0.765252 -0.661659 1.618705 -1.178448 -0.171820 -0.724804 1.377909 -0.615716 -0.775853 1.698153 -0.553349 -1.961337 -1.114908 0.779742 -0.694855 0.693407 0.601799 0.600191 2.537668 1.740627 -0.198022 -0.378161 -0.504425 0.339551 -0.795170 -2.361019 -1.202830 0.510507 -1.112447 0.878477 1.069770 -1.544555 -2.743230 -1.040644 -1.391036 0.246282 -0.774697 1.000814 -1.326047 0.010587 0.416512 -0.163955 0.210383 
1339 -0.505197 -1.205757 1.790970 -0.532311 -0.373189 -0.317092 1.537288 2.422315 -0.313605 1.172508 -0.742997 -0.877085 -0.603560 1.001777 1.835520 0.198422 -0.809613 0.335603 0.178935 -0.210449 -1.037030 0.191502 1.266299 -1.863859 1.144447 -0.268773 3.144985 1.768722 -0.403380 -4.825348 1.421004 -0.855792 0.202889 0.140244 0.188418 -0.561426 -1.071325 -0.282028 -1.655345 -0.251815 -0.905467 -1.799123 -0.712036 2.103099 0.728085 -2.242187 0.125437 -0.089025 0.868589 0.579136 
311 0.768117 0.572980 -1.573601 -1.004803 2.100268 1.389285 0.575276 -0.383275 1.191171 -0.727561 0.927369 1.252303 -0.752712 -0.312314 0.606773 0.355979 2.794050 1.612816 -1.214085 0.030712 -2.753353 -1.426190 -2.141556 -0.460454 0.925169 -0.252232 -0.771794 -0.613664 1.310750 -0.065658 -1.393546 0.197052 -0.601285 2.401019 2.943253 -0.338707 -0.707767 0.711647 -2.056506 0.276995 0.512229 -2.269265 -1.345149 0.236442 1.563654 -0.273961 0.554504 0.090013 0.760596 -1.283061 
128 0.726554 1.903545 -0.877632 1.628969 0.793912 0.710000 2.265633 0.992713 1.275212 -0.269366 -1.305162 0.523317 0.954188 0.680255 -0.492941 -1.158464 1.967424 -1.265900 0.879719 1.239219 1.116860 -1.040323 -1.233284 1.583023 1.482298 1.379420 0.710641 -0.219475 -1.513560 -0.745492 1.077742 0.154026 0.504068 -0.619051 -0.017786 -0.039396 -1.053770 -0.364339 -1.513816 -1.727239 0.234267 -0.087709 -2.939531 -1.824355 0.286461 1.472735 2.189277 -1.768298 -0.693832 -0.161569 
1328 -1.871745 -0.990502 -1.768261 1.187137 -0.254363 0.892774 2.708595 -0.145805 0.855494 -1.088140 0.493918 -0.482002 0.184683 -0.377109 0.213266 0.654985 0.958578 0.316529 -1.699948 -2.113558 -0.529996 -0.392824 0.164676 1.372883 0.345228 2.517710 0.506074 1.255235 1.932563 0.323913 1.376578 1.023588 0.280278 -0.038604 2.450345 1.122735 -0.592337 0.865464 -2.066494 -1.937647 0.197174 -1.681631 -0.525007 1.521798 0.473157 -1.915598 0.196037 -1.888854 0.130295 -0.302808 
2887 1.320158 2.003223 -1.336629 0.254682 -0.612658 1.608743 2.335703 -0.695724 -0.141868 0.348915 -0.761977 -0.111461 3.457743 0.840318 0.561613 -1.577582 -1.124662 -0.084096 0.987052 -0.499380 2.122543 -0.571593 -1.431215 0.928725 0.570918 -0.745678 -1.086189 0.309020 0.529185 -1.087056 -0.236753 -0.801092 -0.590597 0.040463 0.858194 -1.305816 -0.147509 -1.513064 -0.905745 -0.450563 0.141212 0.530059 -2.105851 -1.822418 -0.269567 0.573054 0.176023 -2.779978 -0.435537 -1.150533 
2845 0.952853 1.458343 -1.395558 0.885744 -0.760477 2.588122 1.626284 0.784076 -0.724415 0.558210 -1.326761 0.290680 2.970065 -0.423528 0.275332 -0.909221 -0.847178 0.676936 0.867736 -1.360054 1.264172 -1.389635 -1.256685 0.238880 0.219526 -0.945968 -0.817022 -0.285314 -0.487405 -2.183954 0.082666 -1.177900 -0.388405 0.156957 1.543446 -1.471725 -0.225237 -0.886515 -1.639857 -0.543349 -0.451962 -0.358502 -2.097389 -0.944092 -0.417937 1.302315 -0.340735 -2.680420 0.425587 0.388520 
2889 1.303252 1.132298 -1.042375 0.697001 0.393703 1.118418 1.674867 -0.098922 -0.331572 0.496969 -1.110536 -0.518125 3.117784 1.073325 0.317756 -1.993808 -1.342441 0.117507 1.682511 0.827187 1.182820 -0.681759 -1.317405 0.362316 1.539056 -0.691453 -1.137746 -0.031358 -0.412039 -0.987572 0.760647 0.229663 -0.816673 -0.512059 1.533364 -0.401935 -0.829164 -1.578451 -1.737600 -1.445004 0.067252 0.259454 -1.702802 -1.421224 -0.223503 0.198329 2.155346 -2.622350 -0.285515 -0.376692 
4624 2.565187 -0.886115 -0.183375 0.852376 -0.657917 0.785289 1.593426 -3.396563 -2.225358 0.933644 -2.574913 -0.631671 -1.129100 -1.527215 1.480312 0.805617 -1.985668 -1.555932 -0.358680 -0.099166 1.112308 -0.680258 0.480992 -1.126553 0.114645 1.415571 2.983994 1.000088 -0.712183 0.273217 -1.987159 -1.080437 -1.916283 -1.395542 -0.854675 0.463627 0.901743 1.132293 1.556216 0.119377 0.933927 0.647848 0.657463 1.404814 1.879788 1.346244 -2.376294 -0.816657 0.660423 -2.043044 
222 0.680717 1.084167 -0.621983 1.877040 -0.038985 0.927551 1.428476 1.555174 -0.921665 -0.629206 -1.159375 0.531097 1.734841 0.566529 -0.702146 0.355938 0.471152 1.183478 0.793094 0.605267 2.476860 -1.402784 -2.124791 -0.153761 -0.437248 -1.824042 -2.397512 0.450034 -0.160537 -2.636094 -0.441123 -1.023287 -0.867260 -2.334371 1.820432 -1.003142 -0.622315 -1.794666 -0.597465 0.364256 -0.638481 0.182170 -1.136306 -0.596870 -1.510852 1.300079 -0.922103 -2.258992 1.162835 -0.056232 
252 0.914300 1.323751 0.516556 1.671948 0.690064 0.674295 1.541540 3.069942 -0.480587 -0.376488 -1.827852 0.208407 2.228734 0.966824 0.253701 1.678611 0.766420 1.524449 -0.132647 0.783552 1.038558 -2.092221 -1.539144 -0.826695 -0.424948 -0.217346 0.428562 -0.612653 0.983758 -2.168804 -0.543784 0.345253 -0.813326 -1.305961 1.350481 0.409975 -0.374045 -0.803310 -0.963209 -0.780160 -0.378101 -1.274228 0.187225 -1.183139 -0.610888 1.820994 -0.261053 -1.770664 0.404757 1.080598 
1831 0.074430 -0.003153 -0.682990 2.756636 -0.424430 -0.245551 -1.054776 -0.558882 -0.447905 2.499954 -1.448483 -2.276157 -0.121642 -1.196234 0.050117 0.057905 1.225484 2.310655 1.208845 1.034384 -1.399098 -1.179648 1.193098 -2.216523 1.432094 0.919069 -1.422750 1.146079 1.010351 1.279971 2.973129 -1.597267 1.166992 0.277258 0.690305 -1.569253 -0.145635 0.575135 0.452644 -0.343035 -0.297194 -1.308642 1.992723 -1.901609 -2.105641 -1.905830 2.057734 -1.361845 1.901963 -0.944971 
120 1.654222 2.165526 -0.138504 0.718452 0.022016 1.961148 1.654403 0.334394 -0.616773 0.002510 -1.212722 0.181011 2.943980 1.001279 0.071763 -2.343766 -0.749159 0.603956 0.932842 0.117326 1.219309 -1.128069 -1.586583 0.310000 1.295606 -0.578739 -1.636480 -0.066981 -0.821149 -1.113691 0.155516 -0.678449 -0.047762 0.120034 1.025417 -1.272008 -0.325746 -1.588222 -1.351320 -1.298515 -0.495455 0.051800 -1.735798 -1.642767 -0.486694 0.802015 -0.038391 -2.214086 -0.372795 0.242373 
1321 0.558404 1.540873 0.485232 2.346100 -0.321620 -0.376618 0.297073 2.189685 0.282253 1.572729 -0.261270 0.314215 0.520298 -1.018995 -0.224992 -2.492305 2.736583 1.074383 1.067104 -0.661455 -1.329999 -0.080499 -1.266219 1.035507 1.033944 1.689661 0.275707 1.478486 0.391540 0.568124 1.149338 1.198026 -0.656414 0.975334 1.345057 -1.564126 0.892908 -0.902043 -0.486591 2.534485 -0.165995 0.563296 0.054047 -0.886899 0.542556 -0.388584 1.034486 -1.818134 0.772831 -0.919037 
1532 -0.512037 0.102316 -0.455806 1.848659 -0.890522 0.968473 1.215514 0.822363 -0.357886 0.932099 -1.809436 0.907139 -0.252489 -0.622470 2.469071 1.321228 -1.795327 -2.148580 -2.430181 1.450384 0.892587 1.087907 -0.051308 -0.459758 -0.974085 1.120178 0.688931 0.785633 0.542020 -0.350656 -0.240536 1.394191 -1.528481 -2.445507 -1.606546 0.545493 2.212033 2.462449 -0.837429 -1.193906 1.634336 -0.905606 -0.329252 0.461357 2.913414 -1.523977 -1.510173 -0.859873 0.757458 -0.523938 
1318 0.822519 0.462687 0.324511 1.906840 -0.720908 -0.847093 0.258537 2.057355 0.221750 0.914942 0.292454 -0.398552 0.635440 0.023533 -0.760974 -3.317780 3.060281 2.096298 0.256296 -1.288863 -0.995617 -0.077837 -1.663081 1.362065 0.941157 2.153904 0.362479 1.021169 0.393874 0.544852 0.902322 0.565769 -0.453512 2.489933 0.963344 -2.334162 -0.578883 0.248878 0.488351 1.194041 -0.470523 0.860044 0.305677 -2.480868 0.489497 -1.119655 0.977562 -0.130180 -1.265111 -0.585148 
890 -2.196109 0.779636 -1.360410 0.378677 -0.111088 -1.722619 1.815321 0.890354 0.854064 -0.669282 0.553995 -1.354057 1.019536 -1.371064 -0.115381 1.892284 -0.814551 0.919573 -2.657683 -1.439911 -0.869940 0.296113 -1.566581 1.544782 0.743854 -1.071807 0.373306 -1.573468 -2.752435 2.512753 0.590933 0.614593 -1.770713 -1.053022 1.595687 -2.988689 -0.614904 -0.079257 -0.282906 -1.125682 0.378716 0.831559 -1.287458 1.936470 0.159459 -1.470141 1.878494 -0.227156 0.353907 1.728680 
2843 1.556540 0.978544 -1.759048 1.087699 0.190475 1.489089 1.425644 0.550349 0.489260 0.605670 -0.772007 -0.405338 2.846253 1.074157 0.768582 -2.222976 -1.330470 0.518650 0.360844 0.321168 1.680184 -0.533234 -0.635226 0.472220 0.375260 -0.175381 -0.030486 0.576936 -0.914127 -0.709776 -0.012496 -0.298663 -0.346496 -0.059445 0.766966 -0.147915 -0.243136 -0.815629 -1.912012 -1.627428 -0.243812 1.369534 -1.703951 -2.289127 -0.547708 0.853482 -0.423499 -2.448901 -0.334854 -0.912922 
1976 0.774498 0.224896 -1.115451 -1.211954 -1.781455 0.198029 0.645920 0.711241 -1.781933 0.959840 1.210572 0.334099 -0.927336 -0.712359 3.014535 -1.859716 -0.501343 -0.326594 -0.426693 2.335212 1.315187 0.433910 0.910646 1.239239 1.898272 0.706530 0.636073 -2.466410 -0.451498 1.672593 -0.349869 -0.807991 -1.456530 0.514250 0.489118 -0.718298 -3.412989 -0.130159 -0.303719 -1.366078 -0.725879 -1.087698 1.444156 2.034616 -2.534980 0.033769 3.896841 1.158604 -0.612815 1.128564 
121 1.925852 2.372817 -0.746425 1.930982 0.162564 2.187783 1.879578 0.475021 -0.152571 1.260177 -0.613817 -0.135815 3.309397 1.884113 -0.583634 -1.265748 -1.161630 -0.266995 1.291552 -0.173525 0.605802 -0.609655 -1.130719 0.422665 0.835167 -1.104115 -1.572002 0.192288 -0.944707 -0.491036 -0.448531 -0.119722 -0.297145 0.408923 0.820230 0.010485 -0.550742 -1.138233 -1.616493 -1.322836 -0.351640 0.702724 -0.429295 -1.279496 -0.023239 1.635646 -0.263334 -3.093555 -0.290990 -0.085040 
2796 1.827282 0.950159 -0.693620 1.524588 -0.370587 1.377355 1.152330 0.886570 -0.439001 -0.469134 -0.813405 1.703023 2.900545 -0.123569 -1.332962 -0.733222 -1.490031 -0.148993 1.437171 -0.128757 1.669925 -0.098296 -2.229881 0.071658 1.024606 -0.555850 -1.025519 0.255514 -0.722212 -1.014977 -0.843821 -0.448229 0.531175 -1.081622 1.834614 -0.519772 -0.429186 -1.332301 -0.383532 -0.900196 -0.500565 0.409943 -1.917220 -1.590787 -0.554385 0.714962 0.809626 -3.484838 -0.229142 -0.088892 
194 -0.354718 2.109863 -0.254571 0.600898 0.804203 1.368141 2.396332 0.178110 1.080896 -0.401612 -1.541780 0.376407 1.825632 0.643202 0.100172 -0.307571 0.580046 0.179861 0.636787 1.644236 1.115340 -1.325802 -0.616028 1.540749 2.271426 0.048474 0.053976 0.071823 -0.853066 0.279289 0.468985 1.026526 1.065568 -1.879119 0.383824 -0.146945 1.028247 -0.918267 -1.345554 -1.007534 -0.226592 0.302652 -1.924818 -2.088933 0.349504 2.035350 1.913598 -2.517588 -0.112138 -0.419492 
394 0.324123 -1.694557 0.649904 -0.599582 -0.842073 0.326087 1.272838 -1.946421 2.534058 -1.303188 2.194193 1.193199 0.801811 0.522230 -0.241654 0.081764 1.989914 -1.283543 1.980845 -0.405069 1.429583 2.387100 0.744700 -0.215209 -1.074290 -2.230090 -0.948423 -2.184950 -1.376879 1.396665 1.089625 0.619853 -0.711638 -1.007961 0.539626 0.048206 -1.369381 0.582516 -1.193040 -0.311525 -0.546477 -0.525621 1.562872 -1.242355 0.265794 -1.141161 -0.500374 -2.977075 2.267722 1.142765 
1739 0.846443 2.100441 0.061513 1.276873 0.108874 1.761788 2.679814 1.125592 0.145287 -1.890985 -0.534965 -0.239690 2.930119 2.010729 1.609011 -1.523699 -1.040879 -1.140130 -0.004583 0.327153 1.088960 -1.138808 -1.067834 0.759010 2.101927 -0.692451 0.033377 0.988208 -1.902767 0.060732 0.647270 -0.145468 -0.401794 -1.116291 0.493443 -1.532068 -0.684154 -1.378315 -1.065516 -1.171604 0.431222 -0.175840 -2.920862 -1.554518 0.017540 1.864249 1.662712 -2.266385 -0.641541 0.905343 
297 -0.864665 -0.058950 -0.464282 0.987094 -1.099050 -0.724471 0.073600 -0.099441 -1.224101 -0.823421 0.637880 0.445807 0.387729 -0.418826 0.328487 0.102907 2.621639 -0.002151 -0.416234 -1.132988 -0.034036 0.447946 1.552983 1.239034 -0.087358 2.565492 2.274296 0.849801 -1.759538 -1.331980 -0.762410 1.544726 0.278318 1.196835 0.610631 -1.881014 0.009046 -0.072102 -0.433533 0.046244 -0.976262 -2.143573 -1.429064 -0.701923 -2.033339 1.643329 1.810297 -3.404230 1.044421 0.181862 
65 -2.188031 0.790580 1.469973 0.288282 1.881974 0.233213 1.289006 -0.125971 1.255773 0.551954 0.225260 -0.488244 1.664842 -0.598637 1.070644 -1.550906 1.610238 -0.115502 -0.538728 -1.505379 -2.101538 -0.003434 -0.281149 1.485387 -1.077239 0.696199 1.059501 2.265568 1.185287 -1.551591 -0.936353 0.654485 0.504223 1.848323 0.306432 -4.074746 0.488924 0.673916 1.485239 1.941759 -3.686246 0.755594 1.735327 -1.854627 0.238875 0.615505 1.094102 1.432595 0.280238 -2.155688 
3467 1.898168 0.883780 -1.447504 1.486604 -0.014656 2.116440 0.935640 0.075442 -0.506466 0.910172 -1.057055 0.680109 2.800914 0.567534 0.112995 -0.280874 -1.238018 -0.159139 1.757801 -0.802482 1.117418 -1.481812 -2.223717 1.091533 -0.098162 -1.232202 -1.370109 -0.309476 -0.931015 -0.648890 -0.159886 -0.563205 0.150808 -0.255748 0.696867 -1.642498 0.058106 -1.415161 -0.587597 -1.131883 -0.056912 -0.077962 -1.901097 -1.966829 0.058776 0.692947 0.394396 -2.579601 -0.143427 0.043986 
335 0.482611 -0.172296 -0.856016 0.340715 -3.013831 0.976897 0.467344 2.900662 -1.079342 -2.797082 0.700539 -0.542382 3.848159 -2.668005 -0.763879 -0.098384 0.467908 0.301814 0.098031 0.821366 -1.133107 -0.962745 -0.339277 -0.771264 -2.186143 -0.420958 1.770800 -0.888126 -0.521695 -0.047292 2.352590 0.125580 1.180332 0.862943 -1.886974 -1.050504 1.519193 -0.027937 -0.867755 2.062376 -1.347093 -0.079411 -0.161553 -0.621980 0.694011 1.586286 0.990856 -0.140481 0.578360 1.487109 
26 1.258748 -1.398223 0.206257 1.368531 -2.697628 1.746752 0.188309 2.271705 1.057251 -1.118516 -0.067533 0.176576 1.748474 -2.741904 1.655626 1.041542 0.224127 -0.492372 0.068136 -0.257705 -1.973170 -1.254542 -1.637525 0.581851 -1.215973 0.315527 0.846872 -2.533534 0.207505 1.091709 0.518872 0.526317 0.327808 0.157744 -3.471585 0.299697 1.900714 0.239113 -0.446115 0.754484 0.154312 -2.113375 1.381069 -1.681051 -0.032363 1.075221 1.146284 0.648643 1.469610 0.669685 
1517 0.865814 0.482486 -2.817737 1.295289 -0.506483 -0.064774 0.621366 1.338351 -1.012272 0.563635 -1.997570 -1.067386 -1.663753 1.014073 1.681698 0.942407 -0.154966 -0.617594 1.123761 -1.270717 -3.355917 -0.286918 2.151772 -1.432260 1.757143 -1.360312 1.035436 1.223156 0.582111 -1.330694 1.110781 0.308037 1.325049 0.643878 0.118240 1.462465 -0.602772 0.495473 -1.706722 -0.314097 -0.088869 -1.229555 -0.270444 0.994274 0.088035 -1.253155 1.108660 -2.822568 0.601412 1.491458 
598 -0.630735 0.474054 -1.328153 2.766984 -0.607317 0.212389 1.214540 -0.215990 -0.382848 1.620541 -0.468073 1.326962 1.197671 -0.412943 1.771284 -0.871064 2.006312 1.182398 -0.275820 1.277879 -0.546599 -2.018912 0.550560 -0.922448 1.455483 -0.139398 -0.678268 2.240339 0.247317 0.382921 1.637780 -0.301881 0.053750 -1.070886 0.886663 -1.768837 1.270893 1.095663 -0.836351 -0.508567 1.260362 0.794281 0.453781 -0.357342 -2.385744 -2.075588 2.228309 0.010830 0.765669 1.139532 
4672 1.768990 -1.764711 -0.518601 -1.693766 -0.662829 2.380356 1.031913 -0.118880 0.643004 1.093001 2.474304 -1.226066 -1.161698 -0.190316 2.470500 -0.739577 -1.484892 0.522652 -1.081273 1.494265 1.438409 -1.075218 -0.047925 0.795999 0.481189 2.955993 0.840698 0.227832 0.006875 0.378641 0.609245 1.723494 -1.394004 2.362170 0.939486 0.746862 3.841223 1.823891 -0.113082 -1.962818 0.998549 0.486760 -0.863608 0.795619 0.374856 1.296810 -2.163285 -1.038773 1.733785 -0.511692 
1464 2.369099 1.109473 0.340540 1.468849 -1.015769 1.144351 0.474061 -0.647843 -0.425882 2.953191 -2.309170 0.599946 3.185860 0.652982 -0.408569 -0.578111 -0.435099 1.527113 0.820556 -2.253746 2.088729 -0.879994 -0.646505 0.487863 0.662680 -1.796056 -0.677523 -1.023515 0.426483 -2.948233 -1.313945 -1.631400 -1.665971 0.033989 1.807632 -1.569224 -0.668089 1.953966 0.095779 -1.121659 -2.053371 -0.359442 -0.099097 -0.292605 0.428816 1.023163 -0.985957 -2.814707 -1.083140 1.177735 
3392 1.963977 2.132620 -0.860298 2.194323 -0.403221 0.873383 1.699751 1.027812 0.071197 0.179014 -1.811443 0.253647 2.043365 0.024927 -0.752960 -1.364130 0.314804 -0.506392 1.776119 0.244424 0.906872 -1.341356 -2.128062 1.108865 1.325768 -0.226012 -0.976164 0.489572 -0.589341 -0.306759 0.112804 -0.097589 -0.544228 -0.492533 1.370088 -0.837003 -1.234945 -1.000025 -2.522967 0.258085 0.241884 0.561027 -1.087294 -2.244499 -0.284638 -0.435257 1.123066 -2.769509 -1.103770 0.128096 
67 -2.594991 -1.728721 -0.426982 0.313140 -0.300774 1.392295 1.415918 -2.099054 0.237225 0.126390 1.976953 -0.579895 1.007132 0.204573 -1.239139 -0.362961 1.714050 2.790331 -0.779445 -0.043684 -0.882093 -2.756775 -2.540419 1.400035 1.163068 0.510103 0.662177 1.162394 0.004412 -0.766083 -0.921826 0.526196 0.033102 1.381077 0.269309 -2.441279 1.251190 1.438351 1.125612 -0.312853 -1.827631 0.890484 -1.479014 -1.574664 0.236444 -0.422596 1.239869 0.773537 0.245847 -2.407198 
233 1.249573 2.017725 -0.819805 0.624865 0.495666 1.935917 2.025465 0.026028 0.237334 -0.290731 -0.801714 -0.098605 2.406997 0.666777 -0.215111 -0.682407 1.000126 -0.576579 1.051244 1.651031 1.416374 -0.713408 -0.651475 1.911760 1.616642 0.389406 -0.200950 1.030366 -1.474394 -0.637106 0.261604 -0.355752 0.723877 -1.839076 0.808564 -1.057666 0.008950 -1.070413 -0.978377 -1.017261 0.234564 -0.204443 -2.379159 -2.232780 0.199582 1.894343 1.244433 -2.622376 -0.401475 -0.131934 
2829 1.193203 0.730973 -0.675186 1.670383 -0.003500 1.550066 1.840040 0.357883 -0.820929 1.155291 -0.960392 -0.233325 2.681429 1.541678 -0.059893 -1.296356 -0.916730 0.451398 1.293925 -0.979205 1.842367 -1.280149 -1.394548 0.330284 0.038704 -1.206298 -1.854892 -0.123743 -0.076589 -1.053197 -0.624431 -0.946287 -0.874924 0.327780 1.162915 -1.217781 -0.421679 -1.581329 -1.426726 -1.193753 -0.350273 0.117931 -1.413037 -0.974772 -0.505279 1.005279 -0.302182 -1.626328 0.092248 -0.093564 
2849 0.753475 0.496392 -1.215632 -0.489259 1.362158 0.694451 0.801745 0.493980 0.779071 3.587588 0.707609 0.231695 2.375592 -0.007603 1.707031 -1.332676 0.051275 -2.649119 -0.347012 2.454062 -0.896182 -2.580637 -0.090077 -1.321481 0.490592 -1.180993 0.817724 -0.385687 -1.556051 -1.248001 0.294539 0.989755 -1.003635 -1.880857 1.977166 -1.158716 -1.131365 1.797832 -0.743343 -0.939441 -0.363357 3.490273 3.389224 1.236146 0.516122 0.616476 -0.192048 -1.862117 -0.395172 -1.249326 
1772 -0.761955 1.911034 0.220624 -0.569900 1.194338 -0.199143 1.389680 -0.208200 -1.670431 1.489209 -0.346138 0.799267 -1.495141 1.380859 2.825016 0.438946 -1.833182 -1.535652 -2.121125 -1.044067 -0.474210 1.243549 -0.604944 -2.253107 -0.764369 0.173851 0.292509 0.331340 -0.717704 -2.076418 1.374688 0.894442 -0.278553 0.914113 0.645015 -0.622474 1.866799 -0.381343 -1.012630 -0.588923 3.661270 -1.149982 0.094524 -0.556996 1.599891 -0.186889 0.797750 -2.448198 1.616744 -2.665138 
398 -0.035043 -1.762229 1.775413 -1.462556 -0.886032 0.257877 1.916024 -0.063599 2.485652 -1.269105 0.642106 -0.000326 -0.058504 0.941508 0.042350 0.438159 1.927571 -0.500989 1.288723 -1.594823 2.709021 2.093322 0.427477 -0.137615 0.512318 -0.085053 0.256724 -0.402183 -1.123302 1.816549 -0.148023 1.367787 0.014232 0.918505 0.630596 -1.936272 -0.700077 2.517910 -0.741141 -1.671479 0.763731 0.082098 -0.950250 -1.576185 0.139561 -0.704989 -0.941480 -2.227953 1.447667 1.458304 
589 1.187826 0.691049 -0.836923 1.306931 -0.245558 0.411896 1.611759 2.841741 -0.700400 -0.965200 -1.724935 -0.252986 1.383965 1.009125 0.477603 0.185574 -0.401079 0.905664 0.016127 0.281045 1.552809 -2.945093 -2.034789 -0.518817 0.797021 -0.853121 -1.373792 -0.072240 -0.950879 -2.828818 -1.023046 -0.090955 -0.029542 -2.294019 1.129999 0.111893 -0.656142 -0.892956 -1.156093 -0.071904 -0.820167 -0.792395 -0.980481 0.111654 -0.946447 1.462770 -0.740412 -2.120753 -0.863411 1.601343 
2882 1.015592 1.392551 -0.540301 1.152183 -0.165270 1.686518 1.848108 -0.043551 0.000297 0.237830 -0.299450 0.447642 3.374928 1.818503 -0.436698 -2.022788 -1.019580 0.061308 1.175551 -0.566146 1.390859 -0.588856 -1.507818 0.251903 -0.291251 -1.048207 -1.430882 0.127618 -0.756390 -0.819680 0.597610 -1.128734 -0.479689 0.140447 1.450322 -1.713094 -0.285416 -1.372194 -1.925066 -1.093503 -0.047506 0.469481 -2.145063 -1.141113 -0.139360 0.456646 -0.246511 -2.287961 -0.173829 -1.054896 
2881 1.922289 0.813927 -0.457986 1.066146 0.337560 1.653273 1.816826 0.318327 0.113051 -0.419076 -1.073335 0.606819 3.769470 0.857659 -0.170241 -1.355878 -0.591755 0.465785 1.254479 0.337711 1.826166 -1.413427 -1.234291 -0.020457 1.155695 -1.563693 -1.386994 0.049149 -0.335761 -1.129218 -0.179683 -0.506748 -0.276510 -0.585307 1.199686 -1.532723 -0.160873 -1.536111 -1.297072 -1.252298 -0.321805 -0.347839 -1.802595 -1.128286 -0.692457 0.178984 0.052024 -2.411337 -0.298011 0.055050 
897 2.822334 0.286979 -0.092541 1.135940 -3.311850 0.154509 -0.865726 0.872910 1.239505 -1.984717 -0.834870 0.504128 0.149253 -2.188727 -0.102258 1.372013 -1.374226 0.206872 1.434034 -0.842228 -0.462644 -0.819871 -1.261004 2.128316 -2.616039 -0.815271 1.142521 -1.378279 1.429518 -0.367395 1.160048 -0.215566 1.250647 0.472258 -1.009976 -1.187489 -0.606849 2.103897 -1.904144 -1.255005 -0.292107 -1.613108 0.614177 -1.763035 -0.610252 1.185461 2.323897 -0.662150 1.403590 1.360995 
726 0.275236 1.721357 -0.148772 -1.459795 0.660675 -0.282830 2.501326 1.513017 -0.091023 -0.728757 0.524141 -0.361606 2.450736 1.255816 0.570774 0.885604 1.231712 -1.194200 0.101083 -1.419482 -0.326203 -1.087799 0.680739 -0.550452 -1.154848 0.429746 -0.732777 0.936783 0.704210 -0.640274 0.832615 1.189167 2.273674 0.247538 0.799823 -1.336069 -2.170201 0.458503 -0.175416 1.248799 -2.517178 -2.874013 1.816567 0.475041 -0.212396 -2.194650 1.107080 0.650042 1.796808 -1.844732 
538 1.020042 0.209366 -0.676337 -2.853374 0.102962 0.891619 2.889354 -0.318399 -0.932226 0.948392 -1.800442 -2.151831 -0.625564 1.325788 -0.140255 -0.862999 1.809668 -0.290551 1.881071 -0.995070 2.177522 -0.875028 1.401986 -0.799711 1.755447 -0.200576 0.312090 -1.236283 -0.241517 -0.365673 2.321951 0.528031 0.870226 -0.084665 0.623639 1.096612 2.402626 0.253276 0.729185 1.177763 -0.865383 -1.228701 1.142586 1.176718 2.687918 1.795920 1.685914 1.885305 -0.721193 -1.096380 
294 -0.090433 -1.746892 -0.161740 0.091797 0.975558 0.117036 0.662781 0.716367 1.559503 0.815668 0.460695 -1.058920 -0.039822 -0.295860 -0.433424 -2.940331 -0.140527 -0.015098 2.109689 -1.249452 1.618055 -1.462758 1.286614 -0.104948 0.546322 2.380209 -0.617914 0.069726 -1.876236 -1.106441 -0.816561 1.587379 0.176993 1.399770 -0.178950 -1.320281 1.753929 0.485393 -0.193582 -2.023042 -0.453442 -0.065108 0.379614 0.896808 -0.537018 0.874104 0.961061 -0.679889 1.474157 1.508156 
180 1.709909 -0.631172 0.756645 0.482657 -3.278206 1.797902 0.627207 1.974189 0.617693 -2.146810 -1.055762 0.190195 1.634572 -1.053488 1.339537 2.312788 0.290701 1.109927 0.053688 -0.068370 -2.228923 -1.184239 -1.000307 0.792999 -0.147820 -0.629206 1.340639 -2.494333 -0.870920 1.964703 1.081062 -1.071707 1.044778 0.874688 -2.005877 -0.206917 1.761557 1.574899 -1.333385 1.170948 -0.064086 -1.343417 0.585503 -1.474513 0.489512 1.391962 1.039999 -0.780286 1.165966 1.579759 
1099 1.580061 0.589640 2.209905 -0.857359 0.174901 -0.703073 2.242594 1.804254 1.111033 1.184449 0.423089 -2.562502 2.920771 -0.390933 -0.209190 0.086169 0.029890 0.151419 -0.425709 -0.269255 -0.097786 -0.688344 0.172713 -0.121656 -0.972462 0.620696 2.168377 1.130171 2.081968 -2.823414 0.197854 0.377999 0.720160 -0.297040 0.982866 0.393443 -0.804290 -2.238976 -1.866187 0.223485 -2.057294 -1.598521 1.278747 -0.957012 -1.182435 -0.419371 1.996762 0.154501 0.446434 0.008753 
673 1.599884 0.542908 0.668695 -0.779906 1.730312 1.115714 0.824432 0.567976 0.341495 -1.204148 -0.491410 -0.332399 3.634521 -0.680420 -0.265559 2.015292 2.082664 1.092205 -1.056834 0.194407 0.205581 -0.958057 -0.382381 0.296915 0.715905 1.895855 0.336457 0.654252 1.907598 -1.157462 -0.513119 0.777301 2.026029 1.048632 0.821425 -1.077114 0.173117 1.057002 -2.073382 0.257407 -1.763387 -2.578014 1.911472 -1.160968 1.967061 -0.864175 1.181062 0.601618 0.921381 -1.482814 
1847 0.677022 1.675641 2.520372 1.240330 0.931483 0.273456 1.287924 -0.972368 -0.207862 1.750181 0.487467 -2.807989 -0.181215 -1.859521 1.598345 -0.043882 -2.281137 -1.904778 -1.093615 2.047762 0.970305 -0.119400 -1.231969 -0.292052 1.170978 0.113713 1.523869 1.059763 -1.113153 -2.126116 -0.494690 3.109838 -1.319632 -2.333120 -2.638870 0.899492 0.264947 2.689907 0.597229 -2.157731 -1.174279 1.260154 0.793879 1.130971 1.184701 -1.610619 -2.503551 0.049818 2.030376 -0.631164 
2888 1.258033 1.471615 -1.117145 0.738117 -0.239793 0.872144 2.019771 0.543517 -0.239002 0.435047 -1.485437 0.512875 3.221054 1.630827 -0.062270 -2.246375 -1.118484 0.663653 1.029527 -0.358074 1.700370 -0.703197 -1.661769 -0.001315 -0.469020 -0.999713 -1.309451 0.188820 -0.392278 -0.376995 -0.435877 -0.970416 0.294672 -0.243352 0.872212 -1.385304 -0.375783 -2.020352 -2.549297 -1.319832 -0.027881 0.351450 -2.031748 -1.041430 -0.346943 -0.259327 -0.148161 -1.664881 -0.417428 -1.217849 
546 -0.397945 -1.069388 1.097279 1.057581 4.099457 -0.475621 -2.315692 0.223338 0.233613 0.344909 -0.431072 0.364854 -1.474433 -3.597944 2.227207 0.914386 -2.077924 0.203483 1.120279 0.019564 0.288617 2.157879 -1.839214 -2.856896 0.673748 1.306530 -0.776905 -2.139557 -1.196087 0.599726 -0.157188 -1.558900 -0.332869 -0.957319 -1.616497 -3.346750 1.411177 0.194327 -1.211281 3.077254 -1.664218 -0.702187 0.472269 1.779554 0.871361 -0.967241 0.682235 0.037143 -0.161803 0.861397 
90 -1.123847 1.408784 -0.026838 -0.818749 0.441836 -1.679416 2.368667 2.293927 0.980806 3.355840 -0.146973 0.822468 1.984324 -1.464451 0.453685 1.913225 0.788139 -0.583916 0.063107 0.477466 -0.305517 1.064470 -0.936589 0.865755 -0.694683 -0.005782 0.565387 0.845584 1.267278 0.093810 0.232476 2.374819 0.654239 -0.295887 0.153067 -2.958249 -1.065241 0.646470 -0.533424 0.341413 -2.109801 -0.469232 1.417787 -1.310618 -0.064845 0.257821 0.628648 1.404335 0.318355 0.955905 
2880 1.448520 1.161693 -1.711817 0.379994 0.046627 0.952070 1.731860 0.198389 0.430285 0.111290 -1.015211 0.229013 3.882448 0.755846 -0.103132 -1.310266 -1.291342 0.835697 0.819051 0.153974 2.153406 -1.026090 -1.698586 1.225731 0.674279 -1.634392 -1.078722 0.441333 -1.254619 -0.703813 0.236515 -1.427556 -0.487025 -0.198306 0.728339 -1.097149 -0.422605 -1.576712 -1.564554 -1.157118 -0.596574 0.971038 -2.671248 -1.223495 0.422375 0.644679 0.685579 -2.666584 -0.602465 -0.330035 
3522 2.130962 1.601923 -1.382242 0.925749 0.043877 1.925603 1.188480 -0.306781 0.095026 0.586716 -0.922222 0.151529 3.471032 1.057431 -0.072434 -1.383946 -1.221756 0.543758 1.431924 -0.785735 1.349643 -1.227843 -1.559285 0.038525 0.676282 -1.232817 -1.594350 0.300141 -0.816475 -0.594244 -0.121346 -0.613393 -0.824052 -0.322324 1.355984 -0.789485 -0.094370 -1.400114 -1.300895 -0.502488 -0.682266 0.415035 -2.130350 -1.792500 -0.258279 0.647397 0.163347 -2.246863 -0.531404 -0.108401 
1055 2.169153 1.609057 -0.339379 2.560193 0.187126 1.451915 0.900626 -0.097827 0.310204 0.960736 -1.154574 1.242876 2.264047 0.764925 0.340619 -2.380943 -0.580641 0.556822 0.300369 -0.286997 0.509564 -1.050369 -1.992474 0.946861 0.271062 -0.563512 -0.795141 0.828494 1.162316 -0.197106 -0.373695 0.137216 -0.049612 0.869106 0.640272 -1.591179 0.150936 -2.061802 -1.092674 -0.387476 0.419707 1.461380 -1.890251 -1.077031 -0.106117 -0.549641 0.344715 -2.459083 -1.395723 -0.378153 
2863 0.504341 1.164408 -0.824287 1.457332 -1.141519 1.491758 1.764351 0.233442 -0.519954 0.555233 -1.292483 -0.015001 2.393788 0.519501 -1.832675 -1.721931 -0.799133 1.203809 0.873998 0.271237 1.748563 -1.551723 -0.248955 0.207553 1.195880 -1.995910 -2.999980 -0.228583 -0.100116 -1.710322 0.008212 -1.490008 -0.694324 -1.240218 1.496356 -2.173720 0.215102 -2.021494 -0.609692 -0.610089 -0.922910 -0.858834 -1.103662 -0.239834 -0.718813 0.772879 -0.306329 -2.029352 0.231368 0.090489 
293 -0.495389 0.839638 -1.465729 -0.091171 -0.959172 0.301981 0.371493 0.946543 -1.197492 0.473685 -0.388544 1.991431 0.301064 -2.641695 1.192431 -0.266170 -0.371171 0.552447 0.988172 -2.214801 0.495161 -2.522531 -1.208888 0.633329 -0.800845 -0.188840 2.066212 -0.983457 0.913319 -2.101051 1.431578 -0.246109 0.531050 -0.190438 -0.540725 0.831789 0.509056 0.994326 -1.773883 -0.700382 -1.928576 -0.804278 -1.257604 -0.645750 -1.795630 0.661943 2.490202 -1.136911 0.140883 1.565781 
1048 -0.197717 1.388363 0.688726 -0.663365 2.233462 0.244011 2.013602 1.201322 1.431392 2.044456 -1.790248 -0.038326 2.124733 -1.171048 0.564290 1.875774 1.342299 0.051732 -0.838758 0.935603 1.079405 -0.438201 1.309874 0.525392 -0.312492 0.874624 0.429070 1.533512 1.079470 -1.252037 -0.006355 2.747234 1.204378 0.497505 -0.598125 -2.451957 0.173305 -2.007610 -0.896321 0.587659 -1.421469 -1.196103 0.116473 -2.047942 1.584431 -0.121748 0.655135 1.711674 0.609199 0.351791 
