5885 50
</s> 0.008005 0.008839 -0.007661 -0.006556 0.002733 0.006042 0.001882 0.000423 -0.007207 0.004437 -0.008713 0.002499 -0.001503 -0.001914 -0.006631 -0.003764 0.005159 0.006051 0.005938 0.003195 0.003090 -0.007605 -0.008192 0.009939 0.007603 0.006180 -0.001208 0.008031 -0.000990 0.001469 -0.000298 -0.005966 0.002625 -0.002675 -0.007651 0.009508 0.008759 -0.002190 -0.000452 0.001018 -0.007275 -0.008014 0.009109 0.000126 -0.005165 -0.006084 -0.006153 0.003394 0.000403 0.002662 
455 -0.159181 -0.538821 0.667967 -0.049933 -0.253569 -1.046876 0.363032 -0.648822 1.165625 -1.616419 -0.552903 0.052650 -1.388898 0.065582 0.018142 1.163521 0.812498 0.138006 0.667190 -0.072499 -1.648354 1.198214 0.073187 -2.112052 -1.403389 -0.761788 -1.033109 1.234380 0.996371 0.944206 -0.284777 0.076674 -0.341086 -0.615707 -0.693450 0.648402 0.617580 -0.406961 -0.253725 -1.753867 -1.331197 1.431472 0.931115 0.173653 -0.494643 0.355804 0.382106 0.323286 -0.968775 -2.125852 
1686 1.344580 0.458636 -1.514353 0.089433 -1.206836 0.051474 0.108157 -2.040128 0.442204 -0.198560 -0.005255 0.295093 -0.767220 0.768645 -0.282724 -0.106779 0.400909 0.658168 0.946524 -1.380392 -0.269924 1.153476 1.616784 -1.356211 0.482145 -0.251065 -1.681871 -1.667806 -1.126317 -0.489864 0.179450 0.589871 0.062065 -0.745516 0.325975 -0.454560 -0.462207 1.013933 -0.041138 1.655695 -1.065969 1.537194 -0.448928 -0.251277 -0.885961 -1.073104 -1.065117 0.275578 -0.481425 -0.920597 
4246 -0.699447 -1.073528 -0.227337 -0.572698 -0.446218 -2.085405 -0.759587 0.121287 -0.300382 -1.663140 -0.374059 0.403650 0.111598 0.934185 1.608761 1.114638 0.017243 -0.257400 -0.168296 -0.500146 -1.212139 0.240104 -0.758066 0.098401 0.057157 -0.155398 0.481331 0.218635 1.366026 0.136467 -1.311260 0.418613 -0.060041 -0.431963 -2.022284 0.332460 2.332267 -0.617413 2.546994 -2.953584 -1.173220 1.787902 -1.177664 1.300095 -0.320426 1.636803 -0.144351 -0.192915 -0.970461 0.358642 
1453 0.824000 0.967565 0.994482 -0.126291 0.331712 0.400208 0.840584 0.721918 -0.266584 0.060509 3.163640 1.461993 0.278719 -0.830797 0.870896 1.965644 -0.329565 0.428363 2.232062 0.126935 0.675613 -1.043691 2.430142 -0.543582 -2.083966 -1.551101 -2.428560 0.217459 0.691703 -1.488471 -1.990525 0.564111 -0.534539 0.320103 -0.985572 -0.997049 -0.202470 -1.642668 -1.927786 -0.393558 -1.153495 0.729464 -1.440789 -1.351796 1.362837 1.393236 1.142722 0.255784 -2.802396 -2.156227 
390 -0.147202 -0.667335 -1.456905 -1.546025 -0.638684 0.760675 -1.730766 -3.824313 -0.780493 0.772972 -1.960219 1.206054 0.917626 2.816212 -0.663917 -0.467259 0.325421 1.135815 -0.542595 -1.787322 -0.515564 0.161370 1.179363 -0.380453 1.327613 1.951642 -1.277918 -1.887121 0.146117 -1.355266 1.303108 2.399724 1.225097 -0.670276 0.831966 0.995903 -0.384332 1.336080 0.670014 0.402012 -1.361582 1.904163 0.365028 0.493583 -1.007445 -1.578429 -1.334497 -0.290250 0.880453 -0.314622 
208 -1.979988 -0.060881 -1.126496 -1.809232 -1.119989 0.625156 -0.174998 -2.508773 -0.407366 1.367589 -1.760913 -0.403947 0.954651 1.859281 -0.273710 1.046048 -0.546494 -0.736717 -1.295479 1.149104 -1.791326 -0.609340 -0.076667 -0.245315 -0.019142 0.665486 -0.477136 -0.608829 -0.168789 -2.098690 0.673900 2.226777 -0.067045 1.895524 0.424816 -0.965221 -0.318621 1.172454 0.097484 0.713222 2.337903 -1.367346 0.579673 0.007570 3.332962 0.058076 2.592538 -0.480561 0.506214 2.002235 
38 -0.934033 -0.197984 -3.207685 -0.319491 -0.365747 -0.309113 -1.101809 -0.549523 -0.768525 1.277673 -0.451188 1.855818 2.464726 0.174198 1.648019 -0.711215 1.056389 -0.417163 -1.655706 0.200047 0.685170 -2.573945 -2.671888 0.425931 -0.379918 -0.643469 1.837287 -1.826407 -1.267356 -1.855499 0.803365 -0.877519 1.652877 0.708900 -0.479688 -0.070575 1.686742 0.203344 1.437515 -0.398012 1.246155 -2.470855 -0.908273 2.205397 0.962535 2.156966 1.968069 -1.239773 0.171123 0.924008 
1572 -0.162578 -4.288383 0.363512 0.995367 1.505926 1.713252 -1.648480 1.389631 -0.814954 -0.334531 1.454691 1.011692 3.253711 2.047210 -2.131425 -1.095578 0.612540 1.317590 2.922451 0.314164 -1.118770 1.534229 0.020370 -1.115631 1.203704 0.096095 -3.012228 -0.719771 -0.455691 1.336072 2.902145 0.744889 0.719890 1.493891 -0.339031 0.562295 -1.984759 0.732395 0.040927 0.655016 1.281646 0.308794 -0.211375 0.411161 -0.008301 -0.780554 -2.288446 -0.027435 -0.927054 -1.967263 
2810 0.903670 -0.274672 -2.271537 -0.479067 -1.004250 -0.080815 -0.972510 -1.715748 -1.634686 1.222286 -1.567014 -0.715972 1.873871 1.882622 0.073723 -0.463643 -0.438033 -0.258330 -1.643042 -1.552716 1.048490 -0.473058 -0.524060 1.033346 1.600667 0.820533 2.406579 -3.452290 1.176497 -2.799094 -0.642075 2.233536 -0.397409 0.171822 0.449134 1.466550 1.105444 0.711182 1.315632 -0.290761 0.460081 0.029496 -1.821037 1.070733 -0.844077 0.105842 0.160730 -0.313881 -0.064655 1.658857 
388 -0.152437 -0.206863 -1.509157 -0.610782 -0.733965 0.961748 -1.809274 -3.894825 -1.112646 0.511356 -2.506539 1.022940 -0.833844 2.646205 -0.935697 -0.973682 0.287474 1.678181 -1.054655 -1.982347 0.260738 -0.055035 2.045699 0.517774 1.360658 1.961945 -0.902153 -2.281318 -0.388073 -2.269906 -0.301239 1.163253 1.616901 -1.815798 1.078050 0.914357 -0.676434 1.684728 1.249390 0.529174 -0.500065 0.945814 0.212794 0.797492 -1.876991 -2.477178 -1.388285 -0.986519 1.646023 0.507356 
2811 -0.470772 1.317715 -0.335310 -0.363663 -0.421674 0.726128 0.887454 0.734641 -1.658952 0.284283 -0.839912 -1.405495 1.603168 -1.090420 0.543993 -0.364959 1.246094 0.343977 -1.473752 0.169575 1.876410 0.035886 -3.157686 -0.790845 0.649581 0.002269 0.682146 -0.697337 -0.901038 1.811321 1.568579 2.526077 -2.884425 -0.353740 0.805661 1.972155 0.238744 -0.532729 0.306623 1.516426 0.618853 -0.877834 2.829795 2.057770 1.621869 -1.457518 -0.333971 -0.539634 1.311301 -0.242834 
1131 0.594559 -0.009442 -0.772256 3.336997 -0.837037 -0.592573 2.511830 -0.049774 1.168175 2.925705 0.058511 1.925298 0.117044 -2.380599 -0.017803 -0.902031 0.615880 0.137594 -1.485338 -0.119011 -3.464699 1.145519 -0.281906 -0.565668 1.404510 -0.220541 -0.326734 -0.613720 -1.515698 0.174774 0.496958 0.296523 -2.570521 -0.252504 2.787196 -0.427532 -2.105600 -0.190359 0.776408 1.486558 0.271600 2.283931 0.808160 -0.974027 0.923199 -1.975386 -1.148569 -0.436062 -0.458464 -0.852198 
389 -0.551088 -0.244858 -1.434704 -0.584341 -1.443607 0.285183 -1.659522 -4.098833 -1.352806 0.615454 -2.384588 1.089992 -0.045872 3.040293 -1.443865 -0.899955 1.136994 1.751744 -0.870707 -1.443305 0.443221 -0.055395 2.454110 0.417774 1.863250 1.546005 -0.880542 -2.141805 -1.385400 -1.929168 -0.460108 2.465270 1.271663 -1.302019 1.156710 0.914418 -0.656004 1.124335 1.191089 0.488608 -1.549471 1.288575 0.359952 0.780513 -1.684435 -2.086882 -0.661483 -0.566991 2.086937 0.725729 
2905 -0.007247 0.365533 -2.701489 -0.277974 -1.208053 -0.109096 -0.915925 -1.355079 -1.078972 1.507416 -1.295473 -0.195673 2.269303 1.225077 -0.386448 -0.632808 -0.874698 -0.031243 -1.413361 -1.643831 0.445520 -0.930088 -1.280800 0.963443 1.959934 1.597026 2.730702 -3.383123 1.472104 -3.102463 -0.754698 1.649947 -0.041077 0.146374 0.650619 2.123376 1.997089 1.117220 1.773848 0.123217 -0.286866 0.188732 -1.798695 1.578700 -0.907788 1.018161 0.272099 -0.692252 0.593117 1.538527 
1065 0.417687 0.603456 1.194940 0.249944 -0.859040 -0.665783 0.477974 -0.431410 -2.440011 0.298169 -0.343152 2.552229 0.337125 1.694993 -1.115080 0.630449 -1.152984 -1.188855 -0.771554 -1.247238 -0.371556 0.834559 -0.968240 2.785172 1.139572 2.172855 3.040036 -3.000731 1.174458 1.444485 0.730826 0.138526 0.019861 1.034035 -0.095831 1.668431 2.083434 -0.546252 2.486140 -2.418770 -0.010135 -1.376147 -2.735095 1.672521 -1.209897 0.065434 0.920654 0.094785 0.692603 2.465969 
2903 0.895035 0.774165 0.912034 0.325590 0.442993 1.564789 -0.353413 -1.191765 0.148845 -0.798844 2.999417 0.830713 -0.296261 -2.573418 -0.033341 1.652054 0.980728 0.279422 3.613666 1.023311 0.645785 -2.122609 0.466609 -1.848234 -3.597675 -0.797710 -3.978948 -0.386119 0.069283 -2.840348 -2.177336 -2.884458 -3.155733 -1.281367 0.371348 -1.863069 -1.498922 -0.605767 -1.075425 1.956192 -0.681868 -0.464174 -0.135497 -0.936297 1.486552 -0.300314 -0.875749 3.450960 -1.571684 -1.813423 
1656 -0.393092 -2.740472 1.183866 1.492567 0.294656 0.081109 -0.899450 1.003989 0.405899 1.051284 -0.978653 -1.366216 3.653971 1.991437 -0.180259 -0.580367 -1.664026 0.973736 3.582634 -0.222859 -0.761278 2.472306 0.995913 0.153384 2.002815 1.704039 -1.542884 1.583974 1.215264 1.395116 1.458524 -1.863721 -0.080179 3.463744 -0.911886 -0.330673 -3.053298 -0.243113 0.563918 0.677630 0.507557 -0.502440 1.107717 0.600565 1.202249 -0.901281 -0.601422 0.741420 0.455209 -1.486079 
602 -3.110674 3.241349 3.276129 -0.843865 3.597543 1.681895 -2.126285 -1.294566 -1.975581 -0.687333 0.050697 -0.084919 1.254525 -1.550970 -0.192508 0.565205 -0.551890 0.148136 2.010619 -0.000279 1.256571 -0.986139 0.764837 0.044316 -0.767229 -0.723348 -1.863846 0.586055 -0.279215 -0.275210 2.769718 -0.158584 -0.041693 2.210674 -0.361802 -2.215161 -1.731616 -1.668635 -3.204143 0.714378 4.490751 -0.195653 -0.898873 0.693875 2.768071 0.321461 0.555704 1.270562 1.202725 -0.806831 
2939 -0.054967 1.831202 -2.719064 -1.619559 -0.829075 1.372663 -0.627683 -1.573695 0.201052 1.012557 0.575837 2.202342 0.921782 -1.590717 0.657876 -0.730235 1.029926 1.622522 -0.355870 -0.478144 0.047507 -0.373757 -2.140392 -0.584321 -0.291683 1.200925 2.655976 -1.586907 -0.392352 -1.476394 0.525834 0.323804 2.531207 -0.703331 -2.163045 0.337995 -3.646853 0.846464 -0.227764 -0.820007 0.022725 -0.893631 -0.769815 1.325547 0.221701 -2.387832 0.106387 -3.550123 -0.351786 0.258403 
1076 -1.128146 0.308061 1.667341 0.121969 -0.409883 0.411947 0.271348 -0.053296 -1.392127 -1.532442 -0.590173 0.516220 1.818906 0.046020 0.001221 2.447174 0.807297 -2.519910 -3.952711 -0.682496 -0.332295 0.254176 -2.291562 0.630056 -1.300433 2.069449 1.790240 -1.594100 0.563222 -0.317418 0.441246 0.006086 -0.578937 -0.186788 0.015920 -0.946844 1.485577 1.038113 3.603239 -0.796765 -1.334795 -1.604441 -1.273389 2.739922 0.206640 4.111354 1.146773 0.335434 -0.638652 1.353131 
1581 -1.659318 -1.575449 0.646174 2.683388 0.738491 -0.059061 -1.744133 1.690647 1.692081 2.577395 -1.128754 -1.169823 3.544937 1.651327 -0.571723 -1.891921 -0.381548 -0.101593 3.134418 -1.339259 0.857664 0.319573 0.082184 0.392180 1.119208 -0.247121 -1.302321 0.527317 1.606460 1.133062 2.435443 -1.552220 -0.132723 0.325356 -1.013136 0.235518 -3.283676 2.576739 0.623358 1.139617 0.477531 2.873410 0.689377 -0.586819 1.466205 0.387404 -1.111127 -0.743109 -1.817894 -2.039204 
852 -0.872005 -0.910131 -1.723055 -1.747190 -0.355612 0.697460 -1.577859 -3.280635 -1.064890 0.731183 -2.282760 1.621887 0.622956 2.690396 -1.095996 -1.031305 0.144290 1.136228 -1.762799 -1.142882 0.057654 -0.358519 1.225554 0.914496 1.105117 2.551603 -1.220685 -2.032373 -0.429323 -1.924784 -0.641823 2.698654 0.365247 -1.436725 1.228558 1.098805 -0.680230 1.235852 2.010609 0.747990 -0.838124 0.523591 1.466482 1.237312 -1.557203 -2.062992 0.455790 -0.755225 1.666263 0.570667 
1313 0.555546 -0.064299 -2.333082 -2.902388 0.888611 -2.652027 -0.780617 0.102644 0.261689 2.733750 0.592624 0.941419 1.149153 -1.627067 0.639981 0.767902 -1.906865 -1.664588 -0.045524 2.147033 0.248315 -1.167780 -0.820966 -0.511215 -0.803976 2.044818 1.206263 -1.579588 -0.602945 -0.634818 0.214128 3.339193 -0.624592 0.151583 0.642834 -0.572412 -2.055671 0.442495 -0.492570 -0.438662 -0.346463 -0.034527 -1.034019 2.850052 -2.086774 0.574904 1.125716 -0.853915 2.144054 1.753530 
118 -0.187142 0.014676 -0.424566 0.848076 -0.653649 0.025929 -1.860839 -0.233795 -2.181328 0.297864 -0.827624 -0.482025 2.550498 2.227415 0.815077 0.190550 -1.380403 -1.009607 -1.047058 -1.212651 0.680962 0.387014 -2.375828 1.461322 -0.485751 1.106912 2.257036 -3.037688 1.319609 -0.366545 0.369855 1.008321 1.185716 1.192231 0.043211 0.480880 2.140715 -0.611615 2.832718 2.859771 -2.066314 -1.958602 -1.246155 1.423266 -0.028054 2.400185 -0.148925 0.547794 0.693123 2.678235 
1568 2.395298 -4.315800 -1.226928 -0.510467 0.102224 1.137889 0.845154 -0.056831 0.778085 -0.842315 -1.559985 -2.559405 3.634429 1.327165 -1.155187 -1.796165 -1.278969 1.157924 0.913053 1.406275 -1.599045 -0.164184 -0.244456 -1.740052 0.655912 -2.688073 -1.801216 -1.526995 -1.818522 3.805823 0.237224 -0.294829 -0.720817 -0.153693 2.157095 0.064572 -2.798288 -0.888661 -2.396256 1.245492 -0.618396 2.035021 -2.988523 -0.297654 1.201718 -0.007739 -2.153167 -1.117246 -0.769475 -0.700933 
5309 3.269070 1.486986 -2.036867 -1.502589 0.821704 -0.797895 -0.920827 -0.701988 1.721935 -2.669718 -3.079976 2.009331 -4.115376 -0.588893 -1.018122 1.095324 1.445533 -2.127246 1.946056 -2.294388 -2.181166 3.185776 -1.585899 0.574756 -1.097202 -0.710104 -2.667349 -2.244030 3.253566 0.519672 0.957020 -2.728755 0.333944 -0.208343 1.012913 1.991057 -0.488871 -0.660604 1.428235 -3.545994 -2.740797 -1.485440 2.002831 2.206125 1.281417 -1.213657 -0.431455 0.135567 -1.612562 -2.013433 
1719 1.358074 -1.172396 1.425983 0.690549 2.186554 0.585851 -1.247483 0.562923 -0.051200 1.448411 -0.100315 -0.864302 3.064078 1.494428 1.092095 -1.023990 -1.894055 1.297364 2.172295 -1.035520 -0.913074 -0.359904 0.898470 1.191520 0.033342 2.984980 -0.500654 2.176483 0.396848 1.314219 0.086650 -1.906878 0.856417 2.747412 -2.458635 -1.759304 -1.462333 0.367219 -0.393688 3.579426 -0.761593 -0.835399 1.484989 2.082309 2.435574 -3.117396 0.845476 -0.178872 -2.657583 -3.266082 
643 -0.701424 2.062840 0.208394 1.602183 -1.429851 1.865929 -0.012790 1.313407 -2.338289 1.792352 -2.020292 -2.545612 2.724978 -0.580185 1.751901 -0.230584 -1.650438 -1.034880 0.081093 2.151934 0.504035 -0.368511 -1.638308 1.230703 -1.459206 2.183573 2.884361 -0.193831 -0.882826 0.309684 0.001847 -1.374533 -3.498514 1.077716 -0.439508 1.802036 2.169066 0.268131 0.301858 0.940144 0.349695 -0.175583 0.694686 -0.416922 -1.514598 -0.283767 -1.305410 0.108322 0.747453 0.103107 
1327 0.162036 0.538899 -3.334677 -0.274972 -0.750090 2.125302 0.083390 0.148539 -1.347026 -0.341288 -0.415786 -1.120010 1.553510 -3.312441 -0.895817 -0.677042 0.043009 1.019330 -1.880023 1.359353 1.238593 0.354892 -3.366610 -0.526261 -0.442621 0.350684 0.151282 -0.621323 -1.067496 1.257337 1.206663 1.541292 -1.124992 -2.453454 1.418598 1.190597 -1.287041 -0.179730 -1.417787 0.575732 -0.358730 -0.325914 2.961508 1.687853 2.770752 -1.579363 -0.930949 -0.142265 0.988605 0.252971 
2001 2.941976 -1.937889 2.820840 1.961554 1.563631 -0.211382 -1.164999 -1.091431 -0.885736 -0.172587 -0.546360 0.695749 3.584263 1.109204 0.006544 -2.557976 -1.545923 2.371274 1.694672 -1.123656 -1.224686 -1.453108 0.687486 0.507574 -0.733963 1.984622 1.781290 1.788412 0.950165 1.447146 0.458804 0.194235 0.650314 2.060825 1.921791 -0.879610 -2.104185 -0.143352 -0.189118 3.403565 -0.360543 1.740030 -0.311563 2.946170 1.962364 -1.516461 0.534602 -1.593315 -1.446243 -1.767394 
825 -0.222791 0.684322 0.667142 -1.474047 0.013797 0.612335 -1.650813 0.117624 0.908635 1.384559 -1.121655 1.323828 1.901032 -1.043550 0.093853 1.031743 2.294391 -2.221671 -2.097232 0.166665 1.952632 -0.701697 -1.376082 -0.971056 -2.536069 -0.176525 1.221607 -0.576636 -2.142502 -1.776429 0.517209 1.347658 -1.123034 3.095525 1.195772 -1.288760 -0.927436 1.113851 3.061360 -0.438906 -0.599791 -2.927834 -0.155818 -0.255670 1.763375 1.386706 0.262120 -1.905653 1.128045 3.807787 
3897 -1.899912 -1.934336 1.355388 3.368124 1.925467 -0.198508 -1.513225 0.501703 1.767022 3.505968 -0.609255 -3.313467 2.192621 0.598678 -0.863600 -1.199372 1.291603 0.912053 2.111133 -2.287943 -0.215632 -1.324922 1.294430 0.394529 -0.089588 1.393622 -1.310749 0.495215 3.157365 0.136818 1.860705 -2.190218 -0.891817 0.935377 -1.005079 0.134882 -2.661690 3.356939 -0.888899 1.382357 -0.405421 3.431024 0.987724 0.124755 0.230395 1.044919 -1.045051 -2.045413 -1.711508 -2.105300 
1164 -1.558708 1.860574 -0.085871 -2.337557 -1.174645 -0.926801 0.901017 -0.581000 -0.353105 1.395556 -0.983404 0.071657 2.502304 0.258465 0.831714 0.410112 -0.091116 -2.920446 -2.962407 0.881876 0.114550 -0.690202 -3.581167 -0.553623 -2.345434 0.818705 1.654806 1.132274 -1.462848 -0.198782 0.676560 -0.268949 -0.443390 2.955311 0.078616 0.678558 0.029027 0.264251 2.598578 1.691921 0.027859 -2.264005 -1.131884 1.351786 2.098685 0.744685 0.043862 -2.763811 -1.031309 3.150415 
2784 2.429158 -1.232348 -1.487065 -0.974731 2.396502 -0.898165 -0.628129 0.367394 0.385059 -1.608558 -0.167572 -2.442990 2.310310 2.121324 0.793341 -1.380050 1.217107 0.097737 -1.311939 1.675707 -0.012397 -1.175811 0.057110 1.724789 2.747285 -1.632820 1.327534 -4.071169 0.642973 -1.389461 -0.534903 -0.424459 -1.692128 0.398086 0.057604 3.347521 -0.426417 0.579081 -0.325051 -0.970754 1.052332 -0.749209 -0.225336 0.315991 0.645502 0.142952 -0.959243 -3.313982 2.063730 1.106038 
2409 -0.460626 -3.418060 1.673481 0.824386 0.283297 0.303999 -0.917300 2.364460 -0.226893 1.799003 -0.067517 -1.090782 5.004503 2.795348 0.265301 -0.444675 -1.679053 0.213818 3.661990 -0.039989 0.426767 1.660242 -0.251892 -0.010259 2.844807 1.946390 -1.212102 1.872994 1.997605 1.529656 1.249767 -2.841228 0.046907 3.686649 -1.262304 -1.396953 -2.390023 -0.386758 0.920502 0.627615 1.460720 -0.597238 -0.337565 0.629031 1.382662 -0.717953 -0.104612 -0.415389 -1.026533 -0.969253 
417 -0.718884 -3.261317 -0.316676 -0.644220 1.334216 1.678190 1.463221 -0.754862 0.815508 1.283131 0.615800 -1.761993 0.113970 -1.869113 -0.185469 3.016228 -0.408590 2.141606 -0.508742 4.251277 0.582101 0.160314 -2.007249 0.787817 -2.412750 1.708264 0.563919 -1.315976 -0.461219 0.458525 1.832716 3.265075 -2.426661 3.343598 1.581787 -0.445336 1.120131 -1.679471 0.373244 -0.015988 2.203753 -0.899699 2.542839 -1.001620 -0.665141 -1.751662 -2.621210 -1.230123 0.520480 -0.078325 
1561 -0.400244 0.305977 -3.148960 0.461102 0.310607 3.572537 -1.869658 -2.001523 -0.837593 1.214701 -1.986891 1.888323 1.824929 2.102306 5.208311 0.715164 2.144696 -0.772270 0.906418 -1.075050 -0.840594 1.237714 1.418663 0.943289 0.619380 0.402651 0.510566 1.532552 0.321111 1.838933 3.307532 -0.173244 -2.486572 1.959133 1.149768 -0.058754 -1.413090 -0.892050 -2.324652 -0.862876 -1.564300 -2.190523 -0.764557 -0.418275 -1.550044 -1.339345 2.631076 -0.905188 0.839602 -1.080927 
974 -0.309450 -0.240156 -1.691383 -0.564664 1.083095 -0.856585 -1.608162 -1.872477 2.403652 3.459124 2.521335 -0.032204 2.661363 -0.585749 -4.060789 0.994552 -1.688439 2.085683 1.346005 -4.201702 1.920969 1.495928 -1.345472 -0.884666 -0.527482 -0.132186 -1.325274 -0.755936 2.354120 1.761380 -0.247014 1.605005 0.614685 1.362432 -0.159439 3.219800 -0.824108 -2.276995 -0.438275 0.949626 1.694089 -1.195953 0.780082 0.497996 0.033544 2.175331 -1.400037 -0.097789 0.141300 0.923026 
1717 -2.265244 -3.545811 1.428000 1.206271 -0.741637 -2.712237 -2.178759 1.970150 -0.180674 1.048331 0.152680 -2.582354 1.145816 1.993291 -2.083051 -1.020110 0.531622 -1.115795 3.110494 0.904305 -2.144692 1.256768 0.803869 0.770498 2.278944 1.245717 -4.428216 -0.299312 -0.162212 -0.737079 1.085542 -2.271551 -0.685409 -0.750404 -0.381378 1.020312 -1.325510 0.024305 0.421073 0.592364 -1.317859 0.898623 1.169427 3.047912 0.407665 0.698857 -1.083661 0.060822 -0.996910 -0.068725 
285 -0.227458 1.392170 -1.923482 0.568650 0.613099 0.401929 0.217500 0.464073 -0.628238 1.673103 0.359977 0.233733 3.141556 1.357904 3.355222 -1.195827 -2.262780 -0.720113 -2.781695 0.544499 1.615427 0.468550 -1.166712 1.646674 0.535247 1.299611 3.327898 -1.558416 1.062844 -0.950358 -1.868839 -0.519701 -0.044601 0.452791 -0.343461 1.372987 2.954291 -1.311192 3.074407 2.221720 0.120462 -1.996472 0.030047 0.703362 1.101876 0.385319 -1.436527 1.919188 -0.034775 1.778773 
2024 -1.748729 1.203690 1.398305 -2.190404 1.482092 -0.781179 -1.491689 2.391769 1.120546 3.146350 -1.279182 1.896697 1.253381 -2.215969 -0.471750 0.804357 1.989395 -3.244935 -1.886633 3.854074 0.390479 -0.601883 -0.606721 -1.047673 -2.775566 -0.825673 0.260221 0.071844 -1.669916 -0.212783 -0.248293 3.150718 -1.467062 2.804334 -1.239315 0.228650 -2.068199 2.172064 1.755925 -0.286784 -0.250997 -1.678885 1.841077 1.214037 0.553892 1.545522 1.508967 -2.519912 0.259668 3.873541 
333 -0.999587 -0.100316 -1.057227 1.906279 -2.668778 -0.980905 -1.025244 0.202906 -2.657008 1.157523 -0.024134 0.213676 0.519707 1.630858 -0.080962 -0.719732 -1.117715 0.181100 -3.574476 -0.651659 0.492318 0.718558 -0.948356 2.438778 0.308912 -0.199760 2.638363 -2.848148 1.179425 -1.107468 0.802909 0.156787 0.740519 0.843726 -0.574733 -0.036825 2.976268 -0.392380 2.021125 2.304846 0.192097 -0.713259 -3.087297 -0.013034 -0.899581 2.963176 -1.290528 1.511144 1.174690 1.376501 
1296 -2.644049 -0.543101 0.264801 0.783149 0.228985 1.873688 -0.643414 2.527571 1.345534 5.630648 -1.111299 -1.307290 0.630385 0.649325 -0.839590 0.542062 -3.084183 0.636510 1.572704 0.309659 1.498065 0.887984 1.138241 1.291554 3.568980 -0.072534 -0.025751 0.251388 0.259160 2.344404 1.938424 -1.798368 0.142463 -0.220796 -0.389399 -0.954851 -4.050455 0.651512 -2.264159 0.567310 -0.731461 -0.841446 -0.368333 2.405391 -0.185725 1.836368 -0.791541 -0.924722 -1.810413 0.716374 
593 0.774921 -0.623922 -2.225995 -2.991421 0.665245 -4.094015 1.136763 -1.146374 -0.215120 1.793765 0.519990 2.031400 0.554977 -1.468061 -0.726301 -1.467377 -2.210893 -2.454195 0.037916 2.244745 -1.453458 0.873593 -0.742873 1.264680 0.289432 2.422003 1.289335 -2.763608 0.615310 -1.160360 -0.275018 2.357823 -1.193696 0.285062 0.176677 -1.004309 -2.960395 0.870442 -0.606708 0.561857 0.042330 -0.858684 -1.687952 1.736827 -1.497318 -0.811740 0.982125 -1.722790 1.366615 1.685938 
2152 1.416739 -1.521217 2.289650 1.530534 2.288753 -1.458961 -1.546149 -1.002955 1.732718 0.534202 3.433210 0.733230 1.811136 1.177866 -1.889302 -0.166467 -1.730209 2.150618 1.851161 -2.559345 -1.649892 -0.310401 0.679424 -0.966456 -0.562515 0.056126 2.874359 0.761773 -2.288774 -0.609621 2.456922 -3.256225 0.782559 4.372036 0.624425 0.510846 -2.358370 -0.673121 -0.906937 2.712167 -0.096533 0.273548 2.119604 1.739349 2.507289 -0.373921 0.248325 -0.836131 -1.648038 -2.201010 
60 -0.449967 -2.234185 0.841328 -0.729591 -0.497589 -1.034905 -1.200991 -0.574427 1.241595 0.799466 -2.413435 0.308699 2.971771 0.067723 -0.417665 -1.855001 -1.644367 -0.278881 0.670537 4.207279 0.977023 1.066885 -2.397944 -1.710051 -0.655492 -0.785709 2.128246 -2.049424 -2.103748 -2.702183 -0.492755 1.113441 -2.246214 -1.630497 0.725518 0.425777 -3.198421 -0.777496 -3.671158 -2.484341 2.432451 -0.220880 1.118124 -0.103774 -1.212905 0.882833 2.622566 0.620948 -0.295301 1.144165 
600 -3.846012 -0.522223 2.528528 -3.218147 0.687450 0.101724 -1.157217 -0.947332 2.044308 -0.196418 -0.706592 -2.277110 -0.311480 -1.976572 -0.338049 -1.052579 0.616931 -0.432796 0.354026 -2.705442 2.196633 -0.581144 3.325434 0.167129 0.548874 -0.699249 -0.224280 -0.759686 -0.193197 -0.327423 1.236948 -1.971423 -0.324493 0.545260 2.040980 -0.550923 -0.994133 -2.681612 0.025130 0.465835 3.061549 -0.640881 -2.444006 2.831812 3.866903 -0.777429 1.559646 -0.287404 0.867225 0.266677 
9 -1.511086 0.233443 0.835237 -0.813654 0.528233 0.077445 0.817642 0.180997 0.907999 1.787352 0.318594 -1.335411 3.189675 0.079638 1.066857 -1.477588 1.397674 -0.526201 -2.200959 0.289539 1.330945 2.872652 -0.027832 -0.434219 0.315847 -0.481970 3.827289 -0.561527 0.375269 -1.109326 0.512460 0.711797 -0.198108 1.984625 -2.600470 -1.404106 -2.854628 -0.776543 2.470685 -1.510676 2.544112 0.662016 -1.312570 2.502670 1.502778 1.038175 -1.440194 1.048578 -2.276826 2.025731 
1008 1.873540 -0.464482 -3.717143 -1.421015 1.697293 -4.361652 0.800798 1.249103 -0.695756 2.096109 -0.201893 1.437285 0.696373 -2.702131 -1.637010 -0.459873 -1.496385 -1.537215 0.077884 2.039716 -0.887252 0.094587 0.328415 0.490577 0.651447 2.357058 1.877999 -2.476591 -0.031191 -1.413432 -0.415622 1.993670 -1.366655 -0.743463 0.588851 -2.070373 -1.908017 0.765533 -0.619763 -0.794742 -0.069497 -0.725346 -0.789782 3.328840 -1.637412 -0.082374 2.311982 -0.464145 1.067828 1.542040 
80 -1.201742 0.025306 -2.234628 -0.527317 0.007172 -0.977945 1.092792 1.024020 -0.428440 1.489151 1.477117 0.260242 1.969755 2.255253 2.870421 -0.537495 -2.124582 -0.658107 -2.074684 1.321683 1.204136 -0.021244 -2.583614 1.792012 2.313510 2.122683 2.932977 -1.831058 0.913570 1.053739 -1.798331 0.761591 -0.175270 0.986742 1.280598 0.155005 2.581236 -1.207778 2.712083 1.110946 -0.999790 -2.230241 -1.227734 1.205987 1.162499 -0.325241 -1.075187 1.390100 -0.405284 1.693698 
84 -0.034333 0.158223 -1.512859 0.615263 2.649002 -1.110657 -2.344308 -0.100333 -1.270299 2.014546 0.467989 -2.694048 1.054459 0.827640 -1.180291 0.468811 0.457013 -0.193378 -0.943619 -1.520797 0.436910 -0.532493 0.456285 -1.361212 1.899597 0.183930 4.065226 -1.973136 1.478298 -0.959683 2.634486 -0.849799 -1.674264 -1.032051 -2.429767 -1.278654 0.922599 -2.102101 -1.510672 3.386931 0.715615 0.495280 0.144150 3.208714 -0.207320 2.164175 0.006531 3.525132 1.707044 2.692160 
870 -1.177145 0.259386 -1.115916 -1.405464 -3.817227 0.181549 -1.751594 -4.052485 -2.332798 -0.502980 -0.650017 2.966427 0.613245 1.185909 -0.191414 -1.785468 0.190655 1.657273 -1.669644 -0.983241 1.137821 -0.411954 -0.858611 1.477630 2.333055 1.982924 2.001745 -2.311272 0.557661 0.052087 0.113173 1.421574 -0.764184 -1.917244 1.051762 -0.768649 0.017181 1.098959 1.092018 0.832139 -0.345004 -0.415228 -0.310251 0.792803 -2.208629 0.763348 -0.151563 -1.259502 3.468629 -1.126451 
1279 1.382806 0.000799 -2.205612 1.320443 0.315727 3.717759 0.466276 -0.891582 1.136714 0.658215 1.785871 -0.141836 1.398587 0.176244 0.382051 0.430027 1.227320 -0.821167 -0.161800 -2.274751 0.081113 0.428477 1.019036 1.087228 2.236083 -0.149032 1.365274 1.986862 -2.278330 1.895751 -0.109921 1.082931 0.605363 1.431142 -1.410324 -2.787343 0.959776 -2.383672 -4.035163 2.044557 -2.335829 -1.220783 -2.236113 -0.562148 -0.242872 3.231833 0.567532 -3.031311 1.657488 -3.282243 
2785 2.818357 -0.378119 -2.269707 -1.269232 1.580308 -1.059994 -1.022101 0.395241 -0.228303 -2.327059 0.123168 -1.755562 1.297081 1.163206 1.167833 -0.957356 1.367317 0.010167 -0.988823 1.401222 0.758256 -2.243665 0.064038 2.330780 3.134259 -0.261286 1.347371 -3.864748 0.727566 -2.575558 0.437822 0.200438 -2.844359 0.437109 0.224521 2.919064 -0.320888 0.457420 0.127294 -1.457549 0.534085 -1.392022 -0.152424 0.400839 0.100961 0.429222 -0.315029 -3.848448 1.862536 1.778744 
23 -1.189460 0.588084 -2.974907 0.424245 0.751718 0.041727 1.287350 3.221719 -0.635308 -0.589167 -0.259096 -2.621875 1.472280 1.821899 0.887503 -1.441751 -2.620931 -1.731228 -3.773316 0.797735 2.048851 -0.431521 -1.723272 2.584395 0.690031 -0.391702 2.052484 -1.855022 0.959234 0.542788 -2.163119 -0.632646 -0.683475 2.588861 0.356568 1.176994 2.275061 -2.173445 3.525566 -0.424241 1.776989 -1.415548 -0.344367 -0.803085 0.312620 1.859656 0.537467 -0.864882 -0.178613 1.173176 
234 -1.218592 -0.041713 -0.793089 1.669687 -1.266627 -1.527155 -0.979754 0.909132 -1.505527 1.121884 1.190200 0.604376 0.569424 2.513383 1.364097 -0.995034 -1.268062 -1.809846 -2.256901 -0.401227 1.389132 1.136500 -2.095527 2.641170 1.375988 -0.166939 3.636258 -2.217093 1.346265 1.230621 -0.197149 -0.135160 0.826625 0.340788 0.044023 -0.000335 3.056961 -1.699764 3.489634 2.402735 -0.141765 -1.209075 -2.441536 0.103710 -1.138384 1.925207 -0.451753 2.371747 0.679487 1.984684 
2934 -1.147081 -0.979181 -3.042932 -1.471427 0.102714 1.634552 -2.548302 -0.808780 -0.374443 1.574759 1.759966 1.156459 2.438333 3.226210 0.197507 0.387974 1.341562 0.194513 -1.355559 -1.604809 2.348923 -0.321972 -0.689654 0.503610 -0.848601 2.775917 -0.236482 -2.454441 0.005881 -0.413291 0.181395 4.074117 1.208939 0.676022 0.297826 -1.006488 0.549347 2.387225 1.006077 -1.917937 0.390171 0.753274 -2.467707 1.069038 -0.889529 1.195171 0.881149 1.934682 -1.231874 1.232836 
3448 -1.218013 0.051744 2.001227 -2.179613 2.046037 -1.403003 -1.463933 2.007956 1.116551 2.436544 -1.731570 1.272138 1.237303 -2.248966 -0.298085 1.356970 2.116709 -2.915840 -1.771842 4.003322 0.638941 -0.900326 -0.421430 -1.391015 -2.965004 -0.528492 1.165140 -0.557928 -1.914640 -0.303538 0.412140 3.382133 -1.364032 2.655619 -1.061965 -0.837161 -2.902361 1.955127 1.066056 0.091727 -0.807396 -1.471017 1.840368 0.956892 0.483155 1.382634 1.624437 -1.734169 0.491993 3.446660 
2123 -0.088122 -1.637168 0.613480 -0.278200 1.181942 -1.214343 -1.394072 1.666432 -1.181584 1.664762 1.671558 -1.151370 0.733877 0.841967 1.268475 -0.095858 1.050777 -3.043284 5.344165 -0.193161 0.804856 1.251365 -0.359738 -1.356927 2.945404 0.521715 -1.337570 -0.933279 1.653227 1.332960 2.145488 -2.678956 0.832199 1.986585 0.289100 -0.623472 -4.492826 1.229438 -1.146960 -0.285685 1.235483 -0.457492 0.723123 1.418187 1.838580 -0.351001 -1.001238 -0.021145 0.032807 1.937129 
55 -0.327311 0.497923 -3.378258 -0.954068 0.543647 -0.224532 1.712220 0.453753 -1.458302 0.434355 0.205303 -0.360924 2.331853 1.658672 1.852422 -0.986633 -3.023409 -1.156733 -2.508222 1.025518 1.970630 -0.057585 -1.787875 2.570004 1.220404 1.601030 2.702051 -2.259468 1.372095 0.280794 0.721097 -1.001952 -0.033659 1.871542 0.305178 0.493100 1.538371 -1.532894 1.955981 0.914108 0.846694 -1.263927 -1.749116 -0.424034 0.494467 0.838762 -2.390773 -0.163440 -1.253166 1.566974 
256 -0.053122 0.411372 -0.550655 0.052759 0.062121 0.341161 0.029288 0.582606 -1.775430 1.812098 0.050431 -0.367888 2.232769 0.340028 2.719616 -1.750437 -2.218114 0.013280 -2.559802 0.058275 2.228175 1.313932 -1.564643 2.556392 -0.049900 -0.001401 2.397227 -0.440866 1.251198 1.073660 -0.448144 0.083803 1.183843 0.725289 0.205093 0.744907 1.859866 -0.889436 1.925080 2.313436 -0.240942 -2.143746 -1.636704 1.814055 0.173541 -0.500314 -0.757984 1.814867 -0.583553 0.924441 
2054 1.335098 -2.737632 4.063980 -0.182574 4.124370 -2.735141 -0.852924 0.690383 1.305427 3.996530 0.153172 2.444748 1.149789 -1.908821 -2.977397 -1.304705 -2.861125 -0.273830 -0.596909 0.670364 0.941209 -1.231481 0.429773 0.172721 -0.950557 -1.651753 0.490326 0.695053 -0.899314 -0.700322 1.041231 3.858765 2.504413 1.037763 0.192865 -0.342641 -1.049045 -0.701010 -1.463026 -2.972745 -3.166521 -1.494324 -0.713057 0.980254 0.051534 0.114460 -0.904574 -0.855911 1.141844 -1.169663 
3625 3.076042 2.481834 1.651028 2.299718 -0.959066 -0.613190 1.446757 0.629833 -0.091931 1.875734 -1.846213 -2.150244 -2.795479 0.923115 1.598534 0.040755 -0.969993 0.684350 0.955609 -0.805804 -1.094611 -0.353468 4.207288 -1.926138 -0.936589 0.626223 -0.960587 1.818089 -4.358602 -2.069924 -2.716925 -2.232334 2.241482 -2.799953 1.279431 -4.053490 -2.421437 1.228815 0.091119 -0.497511 -1.945142 -1.676003 -0.327337 -3.977795 1.901612 -0.339336 -3.170779 0.870846 -2.818038 -0.262830 
583 1.245993 0.299867 0.651959 -2.580664 1.724558 0.135083 0.994783 0.126577 -1.273404 -0.612092 -3.331997 -2.261029 3.176007 -0.738971 -0.373164 2.233382 -0.816733 1.654088 -0.621387 3.011651 3.050112 -0.703021 -0.912466 1.959522 2.616417 0.202922 1.759159 -3.215002 -3.622171 -2.987012 -0.245383 1.089005 0.239373 -3.015971 -1.136343 -0.294831 1.517881 -2.022060 -0.729442 -0.869613 0.141631 1.809003 2.415085 -3.839205 -0.357341 1.469938 -1.621441 0.624340 -3.227589 -0.392781 
2840 -0.266924 -0.888776 -1.930402 1.531643 -1.960386 -1.145442 -1.051607 -0.373681 -2.919525 1.785192 -0.383145 0.630966 0.279550 1.030753 -0.349356 0.365335 -0.898674 -0.570328 -3.605097 -0.242166 0.896166 -0.664008 -0.921095 2.848764 0.193260 0.417760 1.555622 -2.768791 0.656024 -0.899420 0.162790 -0.172383 0.532922 0.053634 -0.483760 0.009970 1.921434 0.778954 2.155876 1.196181 -0.350901 -1.082173 -1.212579 0.846532 -1.378823 2.931268 -0.302873 2.099159 2.167670 1.486763 
1454 0.208347 -0.244552 0.931448 0.136220 -2.313997 1.597520 -0.329219 -0.440699 -1.956753 3.156363 -2.656912 -0.920527 1.747004 1.896603 1.207479 1.352246 -1.839798 -2.346729 -2.174449 0.910248 1.280191 -1.078414 0.005925 0.536431 -0.408654 -1.040990 1.308609 -1.107157 1.317420 0.009019 -1.853628 -0.421773 1.025979 1.052102 -2.109792 0.846312 0.223967 1.124738 0.547745 1.867322 -0.794316 0.441751 -1.723051 -0.870454 0.050490 2.243397 -2.848651 -0.194168 1.347146 0.742782 
379 -0.829599 -0.358643 -0.862423 2.154324 -1.718785 0.071056 -1.530726 -0.861519 -2.132532 1.100798 1.110632 0.671504 0.293628 1.753381 0.666679 -0.658481 -0.680563 0.138807 -2.421834 -1.432274 1.020301 -0.027209 -1.875341 2.415909 1.737978 0.369468 1.557169 -3.047278 1.557680 -0.569112 -1.535305 0.350678 0.360268 0.134178 -0.942113 0.645009 1.596670 0.611549 1.372514 2.053984 0.447673 -0.693339 -1.695159 -0.217976 -0.205059 1.891501 -1.514789 2.645507 2.783529 1.868671 
371 -0.177907 -3.139050 -2.064466 -0.675355 3.667847 2.489658 1.952734 2.272367 3.854063 0.448547 -1.803480 -2.812690 1.910940 2.754936 -2.836404 -2.031801 -2.521358 -0.156373 0.506161 1.045304 -0.182753 -0.398729 0.736394 -1.892039 -0.998173 -2.283240 1.300825 -2.025882 -0.405875 2.607788 -2.131158 -1.005899 0.600248 -1.179011 0.772363 4.416881 -0.492293 1.269035 -1.408942 0.536221 1.358885 0.763300 -0.279246 -1.862213 1.740998 0.127336 -2.765922 -2.796530 1.704252 -1.059630 
108 -0.336428 -0.532251 0.267208 0.908639 -1.281358 0.394081 -0.703050 1.284882 -2.304969 1.552333 0.663033 -0.546456 0.602280 1.752050 0.496537 -0.318545 -2.933467 -0.289212 -2.645759 -0.105966 1.201311 0.751985 -2.325756 2.204961 0.755660 1.300048 2.816690 -1.115585 1.055664 0.159622 0.286975 -0.383645 1.276960 1.001722 -0.506292 0.434868 1.652514 -1.517365 2.649377 2.746555 0.336636 -1.741850 -1.895165 1.189216 -0.938932 1.345778 -2.184559 2.797994 -0.568929 1.692968 
1405 2.535811 0.338247 2.538370 2.045651 2.394349 -2.005369 -1.141990 -1.033668 -3.253413 1.560881 0.241132 -1.939975 2.878225 0.783382 1.415830 -2.366036 0.341965 -0.526427 0.963386 -1.642601 0.172620 1.204539 0.259227 3.342752 -0.486824 -0.088550 1.630543 0.864317 1.075652 1.872476 1.008942 -0.895852 0.791926 3.469253 1.746813 -0.926538 0.370662 -2.348336 -1.043274 3.377107 -0.026510 -0.408264 -2.310223 2.485275 0.788181 -1.857392 -0.161782 -0.075528 -1.506617 -0.441037 
532 0.216780 1.801720 -0.803556 -0.419784 -1.338766 -0.524593 0.307503 0.560113 -0.460416 0.402166 -0.726183 1.537149 1.431651 -2.072309 0.475019 -0.679704 1.235563 0.272963 -0.923980 0.806706 -3.202745 0.157799 -0.821692 0.926304 1.745764 1.636197 1.103980 0.188755 -0.443846 -2.704649 1.394363 1.422919 -2.980196 -1.395783 2.392384 2.264946 -3.130105 -0.223605 0.556975 0.656097 -0.990298 3.310953 -0.829997 0.629410 0.431643 -2.207687 0.896138 -1.768448 2.465560 1.310424 
952 -0.173446 -1.213946 -2.071965 -1.716341 -0.472870 -1.253626 -2.194551 0.866784 0.155000 1.816757 0.465327 1.750605 2.559740 -0.638217 -1.979568 -0.968314 -0.714992 -3.023756 -2.527647 3.532239 -0.505755 -0.013681 -0.776579 -1.578743 -2.054684 1.606322 2.216974 1.356595 -0.409303 -2.665261 -1.016612 2.683893 -0.594214 -0.736328 1.999623 -2.784733 -1.771354 0.855321 0.534589 -2.830384 1.536769 -1.477253 -0.830796 0.454498 0.280112 1.410483 2.252613 -0.920035 0.130142 2.057273 
66 -0.082761 -0.712657 -3.253999 -0.685836 -0.190568 -0.795246 0.059035 -1.067476 1.374224 0.508442 -1.548460 -0.720256 4.345759 1.482062 2.086695 -2.497978 -2.642015 -0.089677 -1.084839 2.534309 0.226404 1.033439 -2.676510 0.895824 -0.476824 -0.878856 3.996485 -1.785901 -1.616660 -1.735307 1.526786 0.617410 -1.130880 -0.691694 -1.567621 -1.026527 -2.264124 -0.778242 0.308024 -0.273403 2.454497 -0.333867 -0.987403 0.831003 0.739048 2.935172 0.695205 2.164027 -1.360550 1.556385 
2826 -0.638307 -0.237147 -2.587561 2.732000 -2.031282 0.040471 -0.678749 -0.957478 -1.269643 1.571507 0.797520 0.832586 1.501287 0.264160 1.008124 -0.359009 -1.279224 1.366022 -3.839921 -1.094674 -0.045542 -0.271320 -1.577794 2.611383 1.700937 0.957865 0.967809 -2.102907 1.035070 -0.709625 -3.823853 -0.014416 0.814596 0.780437 -0.910327 0.759622 2.367068 0.540776 2.767271 1.041610 -0.227305 -1.552639 -0.502860 -0.125318 0.050532 2.414274 -0.586293 1.812968 1.616419 1.769307 
3054 -0.620420 -0.353725 -1.304858 2.249411 -2.877360 -0.798519 -1.362814 -0.754737 -2.540145 0.563977 0.050243 0.006104 0.564621 2.051486 0.372378 -0.057003 -0.623037 -0.924756 -2.826582 -0.107029 0.721614 -0.467659 -1.799579 2.628956 -0.043861 0.663516 1.820592 -2.901582 0.632735 -0.796449 -0.127099 0.023891 1.124692 0.955099 -0.238637 -0.464185 2.459883 0.249267 2.790010 1.431381 -0.069656 -0.099120 -2.462163 0.601397 -1.161853 2.719443 -0.558920 1.754105 2.231494 1.246179 
886 2.499508 2.432260 -2.477647 1.164657 0.369288 -1.326975 -0.360559 -4.177758 0.525888 0.888376 1.978555 -1.549582 1.287296 0.128755 2.016369 -1.630245 3.304453 -0.242058 2.689754 1.151664 -1.976541 0.946762 1.937503 0.420603 2.597273 -0.221827 -1.589248 1.764334 0.669797 3.533940 1.472304 0.987645 2.078813 -0.496597 1.502706 -1.766340 -0.251160 0.055554 -3.219309 2.240287 -1.155302 -3.016723 -1.254363 -0.306193 -1.133558 -0.031720 -0.432502 -4.586506 0.515823 -2.007284 
2854 -0.415334 -1.360530 -2.426159 1.328523 -2.214366 0.775482 -1.676633 -0.708948 -1.943721 0.551429 -0.194445 0.521235 0.903575 1.301637 1.586394 -1.012772 -1.413160 0.544380 -3.360422 -1.800346 0.383634 -0.899469 -1.206110 1.915259 1.514616 1.300295 0.468586 -2.830280 -0.107452 -1.950041 -2.008105 1.565927 1.012314 0.269204 0.031830 -0.029321 2.296539 0.687934 2.739962 0.198596 0.806120 -0.340401 -0.978651 0.139760 -0.513824 3.016482 -0.674492 1.567152 2.015671 0.966326 
1682 0.632412 -1.331694 1.670799 4.355759 2.086161 1.405072 -1.902624 0.147841 -0.180302 1.448918 1.682775 -0.536915 2.498708 -0.168735 -4.418651 -3.152547 0.810108 -2.653244 0.982175 -0.430820 -1.561267 -2.269417 0.481588 -0.335137 1.911360 -0.411742 0.702844 -0.412669 -1.506871 -2.332185 0.102776 0.438261 1.617399 1.571774 0.917960 -0.083131 -3.003826 -4.021326 -1.028411 0.354428 -0.622414 -1.732161 -3.045115 1.476556 0.368759 -2.080076 -0.924179 -1.670387 -0.261183 -2.255560 
418 1.109691 -0.517567 -2.592809 0.646084 -2.220989 -1.868328 -0.807828 -0.655235 -2.058316 1.406498 0.342752 1.000775 0.254960 -0.561591 -0.580012 0.870224 -1.460759 -1.327404 -2.599021 -0.887313 -0.249067 -0.315273 -1.625438 2.402109 0.193680 1.011589 1.273916 -3.204637 1.082015 -1.945992 -0.715595 0.623509 -0.307463 0.357406 -0.893981 0.360064 0.533244 1.367712 0.523251 1.069479 -0.087270 -0.414803 -1.823709 0.086764 -0.159740 2.285926 -0.096520 1.180656 3.164047 1.763495 
380 -0.764525 -1.277115 -0.970980 1.708816 -1.997834 -1.202339 -1.065958 0.123097 -3.409096 0.547775 -0.210419 -0.056969 -0.359016 1.448645 0.685317 0.116478 -0.518566 -0.794648 -3.033640 -0.568151 1.443115 -0.329010 -1.591458 3.094727 0.591673 0.717211 1.693914 -2.933540 0.548560 -1.350007 -0.003751 -0.593428 1.025330 0.664498 -0.446231 0.635756 2.066309 -0.635854 2.056168 2.221917 0.280344 -0.975689 -2.001343 0.653808 -1.422220 2.573554 -1.398378 2.569071 1.703308 1.623192 
415 -0.728133 -1.314348 -2.588752 -0.396301 1.753263 -2.857493 -2.160403 -0.735690 -2.058857 -0.471560 -1.921462 -0.827431 2.177808 -2.028923 1.804956 0.010881 2.738112 -0.666121 0.471079 -0.517113 -1.702660 1.880593 -1.866867 -0.717274 0.540920 1.768102 -1.827086 3.461385 -0.656288 1.039014 0.355112 0.879277 0.086820 -0.397272 3.060884 -1.383428 0.227563 1.474720 -0.660815 0.898109 1.381791 -2.084514 -1.063901 -2.138882 -1.287256 -0.903131 -0.472333 -4.545714 1.579871 2.522061 
2852 -0.482457 -0.388665 -1.872912 1.912436 -1.930015 -0.641552 -0.385947 -1.027829 -2.069369 0.746076 0.536225 0.604473 2.427918 0.240445 1.927549 -0.436455 -1.192740 1.092326 -3.657693 -0.876155 1.305226 -0.048348 -0.775752 1.678557 1.649902 1.239509 1.221273 -2.223870 1.513264 -0.879868 -3.190141 0.356638 0.797446 1.010071 -1.154804 0.193955 2.477579 0.864253 2.467096 0.201356 -0.033539 -2.100641 -1.729814 0.258268 0.153988 2.019520 -1.029409 2.739698 1.886122 0.989573 
236 -2.668755 0.100935 0.103558 0.616230 -1.413445 -0.903066 -0.283694 1.160136 -2.771543 0.260818 0.113137 -0.688258 0.168055 1.908335 0.756539 -0.948907 -0.878662 -1.096091 -1.544504 -0.131335 1.975124 1.607757 -1.490898 2.738440 0.481184 0.739140 3.635834 -2.678030 1.333093 0.517370 0.656178 -0.009698 0.421162 1.567022 -0.442107 0.297094 1.295015 -1.708520 2.345948 2.391928 -1.798909 -1.814690 -3.706147 0.835726 -2.566409 1.819266 -1.264877 1.525970 0.744239 2.400375 
2798 0.193465 -0.687473 -1.851382 1.764970 -1.744320 -0.148911 -0.831146 -0.836921 -1.212678 0.901926 0.356019 1.148573 1.998416 0.960909 1.863413 -1.030871 -0.672998 1.029742 -3.871297 -1.340734 0.099293 0.045310 -0.518408 1.639632 1.400800 1.123115 0.501887 -2.656264 0.996175 -0.693760 -3.371649 -0.091765 0.120026 0.682774 -0.478808 1.462188 2.735240 -0.138236 2.922752 0.364640 0.902946 -1.514992 -1.069254 0.401697 -0.056792 1.586709 -1.032969 2.201626 1.921497 1.128670 
2835 0.426836 -0.952968 -2.013017 1.328458 -2.167529 -0.736588 0.046405 -0.089724 -2.820031 0.896252 0.501320 1.001845 2.500261 -0.552645 1.763308 -0.568446 -1.360310 0.511410 -3.932240 -0.820587 1.504867 -0.254870 -1.482175 2.246758 1.643439 1.364683 0.642852 -1.369900 0.559087 -1.206990 -2.617179 0.219568 -0.272459 1.207405 0.077275 1.498176 1.663251 -0.207272 2.988358 1.417347 0.414547 -1.620118 -1.234578 0.611947 -0.450940 1.766449 -1.649184 1.856541 0.322711 1.384371 
123 0.202155 -1.581152 -2.395948 0.998378 -1.388954 -1.508272 -0.667604 -0.393481 -2.786413 1.177604 -0.296330 0.599310 0.303655 1.189725 -0.108125 0.304972 -0.450901 -1.053879 -2.741150 0.133162 0.858495 -0.802880 -1.234081 2.558306 0.325718 0.923711 2.023192 -2.743464 1.562703 -1.910111 -1.367137 0.684472 0.867506 0.649833 -0.251468 -0.467231 1.140834 0.642078 2.291207 0.637826 -0.266935 -0.990219 -1.536066 0.238399 -1.743927 2.732543 -0.243063 1.159487 2.927758 1.774024 
2834 -0.235883 -1.120175 -2.154039 1.498959 -2.243714 0.287875 -1.904705 -0.862432 -1.900506 1.461270 -0.370363 0.603459 1.093250 -0.194952 0.457868 -1.069028 -1.506518 0.820697 -4.209955 -1.829252 0.432822 -1.116057 -0.781277 1.147971 0.061394 -0.254413 0.091423 -2.545478 1.317124 -1.403986 -1.076707 0.491165 0.227861 0.419473 0.932374 -0.003848 2.741087 1.294094 3.632470 0.429904 0.144336 -0.696831 -1.015491 0.210773 -0.050312 3.073924 -0.776158 0.912207 2.150063 2.109153 
3957 2.235213 3.150096 1.303161 3.487242 -0.404850 -1.029981 -0.163605 1.481353 -0.254862 1.079282 -1.082020 -1.288060 -2.720011 1.074005 2.138614 0.188622 -0.818495 -0.016826 -0.521954 0.031842 -0.951936 0.283058 4.250325 -1.893058 -2.160046 0.702565 -1.162287 2.148473 -3.735812 -0.352158 -2.384851 -3.300977 3.700752 -2.786350 -0.534927 -2.376127 -1.890726 2.507492 -0.271386 1.706211 -0.624435 -0.791123 -0.290880 -1.899668 -0.089523 -1.371523 -2.033790 -0.306598 -0.893229 -1.072533 
2807 -1.784092 0.778342 -2.546224 -0.060441 -2.101911 2.123228 -0.176977 0.420881 0.696366 -0.552379 0.880131 -1.924434 1.741639 -2.078771 -1.297287 -0.257708 0.064388 2.151847 -1.530724 2.240757 0.581926 0.793725 -3.242097 1.621548 0.337912 0.054733 -0.764187 -1.277459 -1.246329 1.172798 1.434377 1.950776 -2.162886 -0.920769 1.476900 2.347111 -1.826387 0.657349 0.335075 0.715604 -0.900536 -0.278309 1.296057 2.903732 2.229238 -1.016469 -0.530923 -0.307815 1.477255 0.148627 
581 2.303391 -0.054418 1.633710 -4.788005 2.689511 0.150001 0.212712 1.719247 -0.442907 -1.294543 -1.218082 -0.143146 3.234809 -0.645241 -0.693482 2.970748 -0.502205 1.441908 0.366557 1.858005 2.858570 0.293382 -1.230868 3.168848 2.604255 0.366286 1.617603 -2.742503 -2.520294 -1.821902 1.022616 -0.953820 1.384845 -2.772828 0.233189 1.372805 2.252615 -1.056239 0.953254 -0.677316 -1.098479 1.349980 3.018103 -4.634804 0.721387 0.568668 0.771599 0.211426 -1.908247 0.119726 
2194 -0.111400 -0.851189 2.799548 -0.209173 1.996116 0.099894 -3.492475 -0.807249 2.480657 1.981826 0.029730 -0.153521 1.552866 0.101128 -1.772629 -0.558452 -0.080445 2.133080 0.832954 -2.659718 0.930140 -3.628596 -0.270531 0.208236 2.094249 3.097446 -0.590141 1.295256 0.756284 0.826759 1.338469 2.151116 -0.420244 2.560060 1.191808 0.275168 0.003075 -0.928336 -2.795671 0.172544 -1.350489 -1.290867 -2.749170 0.344013 2.518408 -3.883897 -0.274279 0.282999 -1.687060 -1.653622 
22 -1.278290 0.522040 -4.105622 1.828642 2.188896 0.819428 -0.076413 2.988562 -2.022842 -1.609457 -1.210396 -1.632096 -0.118925 0.774316 -1.377672 -0.653729 -2.754853 1.063699 -2.026461 -0.095899 1.930293 -1.629323 -0.928155 0.576908 0.549118 -1.290092 1.460681 -0.636138 1.901571 -1.157513 -4.458827 -1.422407 -3.389463 2.795402 -0.581071 2.099978 2.744745 1.722171 0.417324 -1.437913 2.217539 0.666313 2.108413 -1.078380 0.691959 0.630320 0.595561 -2.276842 2.513888 0.611011 
1216 0.368565 -1.003651 -1.856655 1.148154 -1.647420 -1.832920 -1.013164 -0.956648 -2.901902 0.867045 0.640412 0.864578 0.920299 0.774224 -0.854781 0.346180 -0.968235 -1.175407 -2.892813 0.512687 0.615996 0.187644 -1.398697 2.951209 -0.906918 1.167934 1.227447 -3.474038 1.633504 -1.223725 -0.821172 0.456117 -0.045164 0.331780 -0.805274 0.025813 1.894472 0.691634 0.980681 1.176717 0.450878 -0.577864 -1.283466 0.937356 -1.810096 3.985850 -0.784183 2.197137 3.474378 0.572335 
2837 0.313091 0.752688 -1.724717 0.450300 -1.909150 0.294159 -1.453133 -0.628338 -1.941952 0.803074 0.173758 1.346260 2.136342 0.306365 1.644537 0.962910 -1.594114 0.619460 -3.562878 -0.844221 1.051260 -1.090785 -0.935270 1.473510 1.308061 1.691838 0.796323 -2.606345 -0.536742 -0.826246 -3.462610 -0.692132 0.442213 0.483652 -0.504248 1.386075 2.750606 0.403330 3.206819 0.110901 -0.531862 -1.480444 0.263135 -0.674065 0.491192 2.747380 -2.285544 0.694036 0.899774 2.735782 
111 -0.988009 -0.043132 -0.236617 0.195466 -0.974595 -1.119607 -0.169319 1.193153 -1.886265 0.856101 1.138423 -1.676000 0.376441 2.134477 -0.455284 -1.205157 -1.094562 -1.417673 -1.979772 0.124430 1.375200 0.981256 -1.254583 3.268116 -0.571341 1.459945 3.598018 -2.442505 0.449437 -0.717757 2.367744 -0.866742 0.951816 1.634382 -0.259731 -0.256382 1.102351 -1.540566 1.995607 2.362062 -0.175285 -1.810066 -3.047626 1.361671 -1.259498 1.869286 -0.398642 1.340420 1.859146 1.870675 
636 -1.182696 1.078707 0.643228 -1.228492 1.229906 0.308813 -1.622491 0.665768 0.975304 0.482183 -2.369398 2.982276 2.015660 -1.759920 1.046545 1.395019 2.043422 -2.573405 -1.847259 1.248882 2.350061 -0.598874 -0.329701 -2.028462 -1.628928 -0.027102 1.907943 -0.456233 -2.848011 -0.680552 0.068361 2.202959 -0.204286 2.648273 -0.212971 -0.441572 -1.202962 0.434281 2.833546 -1.607869 -0.247210 -2.904085 1.477522 -0.470346 1.837304 2.551388 0.251640 -1.411434 0.746257 4.969339 
89 -3.128657 0.174116 0.487614 -2.795231 2.891138 -3.032415 -1.544226 1.251003 -2.845489 3.709615 -0.881359 -2.313862 3.448402 -1.474442 -2.072762 0.905965 0.959000 1.302359 0.218913 1.068519 -2.743302 1.743616 -1.449243 -2.194134 0.404459 -1.053764 -0.308127 -0.634199 0.793951 2.442642 0.475844 -0.028702 0.916328 2.395280 -0.139064 -0.731447 0.358865 1.631486 1.364016 1.686890 -0.273130 0.601834 1.320047 0.464240 -0.276699 0.707563 -2.455081 -3.256607 1.721974 3.142550 
119 0.720954 0.090870 -1.268410 1.641045 -3.142837 -0.129946 -1.398419 -1.710891 -1.962450 2.110878 -0.311959 0.852723 0.304677 1.749074 0.565235 0.220243 -0.285972 -0.574000 -2.807723 -1.635468 1.181797 -0.916774 -1.086288 1.777471 0.421419 0.853963 1.316862 -3.159062 -0.092125 -1.763670 -0.768732 -0.682967 1.068789 0.372330 -0.321364 0.162686 1.770604 0.992217 1.604957 1.605056 -1.020926 -0.949293 -2.037916 0.443323 -0.873434 2.861749 -2.214075 0.227063 3.920440 1.740230 
620 3.210533 2.050911 0.078495 -2.012154 -0.903582 -0.599473 1.239356 -2.308774 2.419818 1.494399 -0.547754 0.810479 -0.274798 0.472016 0.094409 -2.587399 0.979758 1.909794 -0.876332 -0.428280 -0.391035 -1.497465 0.136206 -0.104938 2.525944 2.587027 -0.415618 0.985832 -1.323851 1.849807 -0.252412 -1.140457 0.160646 0.740609 -2.137234 1.867449 0.521171 3.099941 -0.637667 -1.786934 1.563285 1.131574 -3.029759 0.521690 -2.445569 -4.666588 0.447115 -0.225984 1.083004 -0.511067 
115 -1.337053 0.648371 0.563753 -0.564208 -0.750272 -0.400799 -0.626576 0.461067 -2.203039 0.370849 -0.257381 -0.766502 0.035878 1.746238 -0.203929 -0.197976 -0.180478 -0.960087 -2.187359 0.154231 1.661952 1.575441 -1.180004 2.081314 -1.092059 -0.202917 3.866992 -2.137781 0.839528 -0.044647 2.159176 -0.180150 0.422174 2.122773 -0.518323 -0.605644 0.732461 -1.499172 2.726145 1.963729 -0.974870 -1.735340 -2.425127 0.414493 -2.287167 2.427972 -0.307054 2.553843 1.348271 2.212059 
226 -0.151212 0.755407 -0.041225 1.150648 0.284862 1.968422 1.472611 0.114206 -1.598513 2.402481 0.592838 -0.235179 3.130858 -0.294898 3.637916 -1.341236 -0.794661 0.142355 -3.572898 -0.057727 0.602932 1.618670 -1.757022 0.684597 0.783107 -0.414852 2.266481 -0.824700 0.926927 1.378755 -3.144345 0.667392 0.267726 0.871868 0.246303 1.143489 1.036361 -1.946114 2.180840 0.590743 2.325683 -2.370410 -1.544931 0.378880 1.031576 0.442343 -1.698650 2.615002 -0.906128 2.638602 
752 -0.155594 0.588105 -1.491820 0.548146 -1.349319 -0.176319 0.150668 0.188910 -2.200289 2.190905 0.380650 1.219568 2.025424 0.284524 2.451196 -0.593840 -1.173646 1.564353 -3.277433 -1.375700 1.171283 0.937915 -3.240141 1.161660 0.571033 0.172817 2.611608 -1.929820 0.554167 0.395971 -2.992124 -0.044204 -0.199208 0.831892 -0.245555 0.849639 1.681210 -0.725317 2.553780 0.692235 0.123408 -2.398651 -1.247644 0.886352 0.715238 0.259723 -0.818061 3.190089 1.504902 2.772362 
413 -0.348286 -4.034595 -1.398572 -1.442049 1.963164 1.613987 0.085529 -3.685205 1.983668 -0.265741 -0.407200 -2.638301 -1.334855 -4.915035 -2.781224 2.276930 0.793743 2.380109 -0.132781 0.317651 -2.065085 -1.963713 1.171410 -3.276150 1.008971 0.037396 0.579319 1.232432 0.469660 -0.432028 4.388817 0.001836 -0.122032 4.618853 1.070424 -0.640149 1.686760 -2.536923 0.328990 -1.495438 -0.050052 -0.120452 1.726377 -0.764785 -2.329581 -0.696598 -0.373582 -1.551566 0.787922 -1.343822 
2210 -0.524701 -3.299805 1.680321 1.622576 0.334202 1.357115 -3.233570 -1.607563 1.535176 1.577295 1.321698 -2.033424 3.394189 -1.590932 0.134042 -0.465133 -3.466075 -3.389932 3.270988 -1.318581 -0.607031 -1.273414 0.386312 0.514139 1.796432 2.122711 -0.311990 0.637926 1.153193 -1.271952 1.684994 -0.603178 -0.617813 0.312165 -0.094743 -1.114384 -3.518268 -0.022162 0.466239 1.661151 -0.165029 0.242054 -3.057375 0.219616 2.054078 -2.027269 0.009804 0.162351 0.538035 1.364980 
854 -1.036278 2.001038 -0.199886 -3.753054 -0.130470 -0.598411 0.921048 -0.326627 0.941116 0.575459 -2.887798 0.622131 3.216586 -1.355708 -0.726959 2.897009 -0.651060 -2.812935 -2.702783 0.071085 1.155780 1.141920 -1.315298 -1.057584 -2.090795 0.875778 1.674846 0.728499 -3.829753 -0.148756 0.310703 -0.906837 -0.874532 2.952505 -0.669716 -0.367209 -0.458172 0.893401 2.022153 0.295178 -0.787981 -1.406547 -0.366811 0.400813 2.045973 1.493029 1.130744 -2.714969 -0.461018 3.702849 
10 -0.605933 2.205622 0.060164 -1.593288 -0.328722 -0.243521 0.389523 0.683023 1.019216 2.570217 0.623873 -1.654137 1.775917 -0.335044 1.663265 -1.394215 0.908736 -0.513893 -1.391803 -0.262337 0.572820 3.452688 0.740342 -1.269737 0.313432 -1.042827 3.130999 -0.843650 0.934905 -0.851568 0.247807 -0.152932 -0.216938 1.365412 -1.059886 -2.175933 -3.892701 -1.067898 2.131846 -0.337947 3.053579 0.089720 -0.740194 3.294011 1.178481 2.625971 -0.696644 -0.391393 -1.267500 2.514110 
3418 -1.150966 -4.413302 -2.695946 2.074079 -1.055003 1.918136 0.602474 3.107337 2.384562 2.768743 -3.309880 0.699078 3.658852 0.814032 -0.595411 1.399328 -1.700498 0.819201 0.013008 0.474885 -0.771737 -0.920048 -2.017641 -0.097407 0.322845 1.194600 0.557452 -0.266202 -0.687151 4.036263 1.335442 0.398591 2.259154 -2.228521 -0.473596 1.750464 -3.445325 -0.410222 0.791866 1.806303 0.140537 0.684575 -4.142138 1.038740 0.923598 0.689895 -2.227684 1.545276 -1.087291 -0.429014 
289 -0.621732 0.808243 -3.395994 0.099973 1.135227 2.242500 1.524669 0.933932 -0.135837 -0.670041 0.564154 -1.953446 3.059260 -0.422821 0.011834 1.116600 -2.671366 0.043399 -0.717690 1.987772 3.280635 0.497615 0.245702 1.396643 -0.493512 2.335068 2.359440 -0.247281 -0.091088 -2.932175 0.687055 -0.961633 -2.103905 0.052136 -1.202730 2.545323 3.253428 0.172104 -0.215219 -1.376842 1.747924 0.069231 -0.031921 -0.454125 -1.067808 -0.066087 -0.562584 -0.949365 1.431896 -0.072742 
2809 1.091009 0.493226 -2.652277 -0.963256 -1.761562 0.612092 -0.148049 -0.838765 0.045495 -1.968848 0.178022 -1.686607 1.252238 -0.778259 -1.044625 0.197830 -1.819852 3.129592 0.264354 -1.157206 1.668077 0.140013 -1.280421 2.046530 -0.840910 3.956130 3.086912 -0.368089 1.982641 -3.190370 0.721671 0.521270 -3.500286 -0.633189 -1.134546 3.387612 -1.658127 3.256516 1.090761 1.294803 -0.394467 -0.611936 0.052179 -0.648927 -0.424385 -0.565975 -1.015334 0.010707 0.403568 1.057582 
948 0.805281 -0.479720 -1.228660 -2.745647 0.222698 -3.516892 -0.530289 0.441978 -0.773842 3.175027 -1.164135 2.511989 0.868894 -2.441100 -1.171542 -0.234545 -1.612167 -2.795468 0.274813 3.387814 -0.867582 -0.795352 -0.818157 2.044162 -1.597203 3.269136 1.549551 -1.069060 0.617393 -1.853299 -1.280578 1.619929 -1.641171 -0.203775 0.417502 -1.937235 -0.925090 0.890010 -0.888085 -1.533059 -1.206247 -0.348792 0.203800 2.628019 -0.213035 2.314560 0.415666 -0.766449 2.314811 1.127318 
539 -1.986073 1.449134 1.234345 0.306792 4.146002 -0.246187 -0.257630 -3.314179 0.384651 3.102432 2.910972 -1.663026 4.575300 1.159594 -1.736239 1.014787 0.170815 -0.353540 -1.204951 -0.851137 -3.089007 0.259822 -1.588383 2.141291 -1.474205 -1.074210 -1.021299 2.299778 -2.006660 -0.543704 0.692173 0.365165 -1.665486 2.603386 -1.809309 -0.374363 -2.563797 -1.290420 -1.376247 2.474952 2.288524 -3.105801 -0.095642 0.114268 2.221650 -1.077212 0.528138 -1.608971 -0.904464 -1.942868 
2317 0.332170 0.151575 -0.959800 0.645517 -2.000417 -0.255780 -0.869414 0.502295 -2.687963 -0.112875 0.608129 -1.303340 0.415862 2.410808 0.470592 -1.377481 -0.878610 -0.785548 -2.574269 0.111300 1.483036 0.247951 -1.554339 3.113585 0.224934 1.054736 2.228848 -2.131236 0.937038 -0.646323 0.915232 0.168644 0.528226 1.486759 -0.120307 1.189307 1.902863 1.104750 2.278832 3.140893 -0.335925 -1.309513 -2.042433 -0.281390 -1.552606 1.807557 -0.805103 1.558819 0.877217 1.831566 
107 -0.601412 0.828322 0.820854 -1.691468 -0.223267 -1.463471 0.104992 0.532785 -1.509162 1.687413 -0.385131 -1.422701 1.321806 2.579532 -0.308326 -1.833764 -1.158756 -1.867260 -0.404491 -0.709365 1.236012 2.951130 -1.669210 1.752350 -0.005143 -0.029885 3.294871 -2.172295 0.460943 -0.158989 1.265647 0.140021 0.317950 1.474737 1.666093 -0.010870 -0.409493 -2.430575 2.225102 2.317452 -0.315581 -1.496716 -2.235483 1.740379 -1.359340 1.508232 -0.220265 1.315664 -0.170588 2.585472 
1043 0.045497 -0.710080 -1.079298 1.361480 0.875662 -3.177708 -3.912036 -2.138957 -0.416413 -0.560432 -1.281463 -3.334807 1.396091 1.799068 1.732469 -1.619707 3.701291 -1.232392 2.067508 3.571993 -2.941849 1.091214 3.014242 -2.259149 -1.260701 -1.160486 0.198938 -1.868161 2.695205 0.772301 -0.021064 1.310982 0.617516 -1.989715 1.841680 -1.851343 -0.451052 -1.046123 -1.219405 1.584401 2.629731 -1.787438 -0.477418 2.126496 0.540909 -1.146796 -1.559303 -1.032704 1.637099 -1.996833 
149 1.336832 2.630095 -0.427638 0.200743 -0.528351 1.512000 0.594559 0.062320 0.898008 -0.226399 -1.081156 1.735972 -0.542531 -0.045177 -0.576691 -0.323988 0.096648 -0.487123 1.011240 -0.002110 -1.035382 0.978918 -2.483052 -0.090112 -1.763223 3.473475 -2.041665 -1.848645 -0.949194 -2.529227 1.891071 1.288049 -1.392001 -0.843450 -0.507079 -1.438091 0.668090 -0.867382 4.456882 1.510085 -0.996381 -3.938798 0.593414 0.228233 -1.228617 0.667257 -2.819025 -2.294029 4.408556 1.680111 
2793 0.001757 -0.712488 -2.888489 -2.717760 -0.126339 -2.467634 2.898834 -1.047256 -0.797192 1.860555 0.060544 1.818099 2.028026 -2.400468 -1.726779 0.151579 -1.988136 -3.441059 1.837301 2.283362 0.476502 -1.305639 -0.772155 0.213175 -0.371437 3.447324 0.898877 -2.106236 0.665534 -0.191229 0.078590 0.871374 -0.270726 -0.046332 0.083643 0.836563 -1.265793 0.851477 -0.277297 -0.125952 -0.490903 0.630482 -0.465704 2.684697 -1.583543 1.896193 1.736425 -1.395200 3.541174 1.065403 
2808 -1.341703 2.405842 -0.912558 -0.688662 -1.529383 -0.696916 0.302246 0.063198 -1.860471 0.046070 -2.215606 -1.689105 2.011084 -3.719709 1.726320 -0.968235 -0.930474 -0.534828 -2.219041 -1.033993 -0.589738 1.077273 -0.921299 -1.206550 1.525562 1.128608 1.615958 -1.033887 0.996113 0.508268 1.725052 2.759817 -0.255696 -1.665442 0.568032 2.072944 -0.403180 0.661324 1.076770 1.627486 -1.039367 -0.721616 -1.433971 3.357878 0.916776 -0.132140 -1.164491 1.135802 1.820966 -0.460942 
2889 0.268917 -0.501781 -1.709111 1.646757 -1.931704 -0.867091 -2.497494 -0.869265 -2.766678 0.727949 -0.283968 0.192852 1.177276 2.291050 -0.005587 0.404424 -0.705599 -0.038718 -2.799593 -1.139629 0.924527 0.172266 -1.595200 2.108629 -0.414910 0.578297 2.098621 -2.548231 0.272235 -1.205879 0.181694 -0.784927 1.064712 0.451537 -0.073325 0.019709 1.939298 0.501963 1.715888 1.527352 0.264145 -1.368364 -2.247337 1.184952 -1.448537 2.827677 -1.379352 2.001350 2.451779 0.925999 
287 0.825318 -1.255407 -1.897151 0.970518 0.071594 1.068724 -0.160098 0.334799 -1.688516 -2.395547 0.976524 0.097411 2.865673 -0.091852 0.691203 2.246302 -1.114531 0.920015 -2.310176 -0.042340 2.948686 -1.762492 -0.003718 2.133763 0.312908 1.790097 2.424794 -0.376371 0.308659 -0.688024 -1.091671 -2.797079 -1.349963 0.635488 0.179934 3.610219 1.798692 1.490916 2.570646 -1.008341 1.532395 -0.145985 -0.911529 0.996993 -1.521066 2.168508 -1.229385 0.862332 1.023661 -0.125880 
1750 -0.369565 0.835255 1.104769 1.448465 2.320161 -0.161570 -1.527177 -1.247425 0.634323 -0.823350 2.143548 -0.118870 3.280587 2.468537 2.547366 1.442926 -1.622503 -1.784103 2.531982 -0.897032 1.442092 1.405577 1.544653 2.283759 0.810283 1.105269 0.473118 2.233387 -2.459307 -0.420271 2.259429 -1.529201 1.859953 3.062407 -0.218061 0.192997 -2.804642 0.996479 -1.660539 1.764650 1.268354 1.644224 -2.076302 2.001829 1.831674 -2.639931 1.257374 0.357185 -0.691134 -2.797580 
7 -1.264873 1.202693 -0.245368 -1.882420 -0.681557 -1.924652 -1.438845 -0.511446 -0.712945 0.167353 -0.276570 -0.281857 3.424800 -0.161944 -0.549263 -1.632891 0.279060 -1.476705 -1.355376 2.059848 1.866308 1.556468 -1.443334 -1.172148 -0.603450 0.310878 0.827391 0.046584 -0.944031 0.079064 0.307504 0.764875 -1.131727 1.698624 -1.751732 -2.176172 -4.726220 -0.406633 0.558202 -2.021106 0.264478 -0.030821 1.449220 0.958115 2.419184 -0.555524 -0.367311 -2.241543 -1.474790 2.834734 
562 -2.671143 2.320155 0.289365 -0.725885 1.863350 0.124458 -2.482668 0.976579 0.036017 1.502066 0.286174 -0.420351 2.158144 -3.251500 1.118889 0.939151 0.271935 0.607053 -1.042209 -0.280050 -0.394408 -0.057965 1.497124 0.004364 1.469392 0.767011 -1.209835 -2.488151 1.629554 -1.168592 0.746621 0.310006 -2.102797 -0.132985 -0.404419 -1.605054 -1.769403 -0.371321 -0.579355 4.171104 -2.975514 1.343626 0.251414 3.598240 0.630396 0.887619 0.300757 -1.237949 1.243757 0.185037 
856 -0.467200 -1.202089 -0.185876 -3.176778 -1.514821 -2.441680 0.178714 1.170206 -1.164974 2.239939 0.990472 2.380273 1.434005 -1.739657 0.282355 0.420036 -0.604161 -1.638868 -1.403783 3.468510 0.908656 -1.977098 -2.925659 -1.447992 -1.921012 -0.481301 0.965927 1.885381 -1.775915 -1.122590 0.960787 2.825907 -0.843294 1.392649 1.987794 -1.581318 -1.930934 3.158893 1.699105 -0.909920 -0.185705 -1.126896 1.461324 0.786783 0.916047 1.387984 2.569366 -4.274635 -0.448678 1.405800 
2887 -0.406094 -1.454486 -0.730686 2.676367 -1.985741 -0.571596 -2.135211 -0.702125 -2.458822 1.039453 0.449317 1.135034 0.658212 2.440040 -0.349820 -0.173264 -0.805188 -0.400421 -3.334147 -0.573489 0.483575 -1.232136 -1.216473 2.249809 0.413706 0.607447 1.463220 -2.412510 0.556165 -2.054912 -0.393310 -0.381552 1.390968 0.191283 -0.870973 0.480330 1.963943 0.813012 1.895519 1.385517 0.085074 -0.108603 -1.340835 0.540272 -0.962813 3.023600 -1.089878 1.979267 2.490991 0.498081 
416 -1.484930 -1.923946 -0.839373 1.586013 -1.566559 -0.458114 1.191122 1.251657 0.994333 -0.299088 0.368401 -1.923830 0.575880 0.647596 -0.652083 2.345622 0.221956 2.519270 -0.366588 4.165562 2.482977 0.272039 -0.512836 0.867985 -3.941582 2.644980 1.444016 -1.879510 -0.534827 -0.336267 1.533237 2.383559 -2.583166 0.742442 1.863506 1.998924 1.187580 -1.127273 1.426180 -0.980566 0.803337 -3.836897 1.542775 -0.492631 0.843142 -0.310935 -1.492759 -1.128091 2.872023 2.511339 
334 -0.692867 0.826889 -3.597683 -0.238557 2.501990 0.074761 2.390591 3.755122 0.208057 -0.152048 0.647983 -0.884359 1.776176 2.153473 1.388959 -1.369224 -2.740616 -0.415117 -0.392534 3.478451 2.706608 -2.258029 -0.502904 1.677133 0.580695 0.871337 2.218296 -1.631129 -0.224503 -1.575723 -1.669287 -0.407001 -2.220208 1.675313 0.725669 3.438604 4.419603 0.521040 0.985249 -0.694706 0.228040 -1.260180 2.304453 -2.969619 0.833305 0.393638 0.297796 -1.544886 0.722794 0.793646 
2831 0.752128 -0.742643 -1.780571 2.965978 -2.372130 -0.312597 -1.307451 -2.213268 -2.086544 0.762123 0.154671 1.078200 1.727364 0.333540 -0.036866 -0.060267 -0.856931 0.947468 -2.853666 -1.836977 0.697418 -0.709995 -0.442298 1.960308 0.644753 1.140822 1.107677 -2.477082 1.304301 -1.734458 -1.765741 -0.140822 0.599895 -0.142568 -0.468667 0.038205 1.729622 0.824574 2.680601 0.398899 -0.291840 -1.366684 -1.136820 0.080060 -0.595429 3.221276 -0.594006 2.500562 2.145264 1.382439 
384 -3.426986 2.943805 -1.670381 -0.827318 1.217722 -0.766261 -3.379146 1.915995 0.532411 2.102319 -0.961399 -1.431499 2.749308 -0.646614 -1.129074 -1.155763 1.199498 -0.855228 0.933818 0.109896 -0.274167 0.700033 -2.104385 2.051542 -3.339721 1.542026 0.403942 1.986627 -0.986451 -1.438842 2.234471 -0.575718 1.261377 2.453056 -1.511601 0.328011 0.248854 0.224709 1.484859 -1.933535 -0.947220 1.185354 -2.350405 0.074625 0.987544 -1.420268 -1.060499 -0.709494 2.020302 1.051789 
432 -5.325212 1.091352 -0.038198 -2.692398 -3.462519 0.869634 -1.336218 -2.748293 -2.654364 -2.770072 -1.209479 1.777867 -0.607191 -0.061207 -1.319477 -3.164467 -0.294965 2.050698 -0.644362 1.344807 1.035517 -0.133553 -0.105252 -0.738278 0.806087 0.879531 3.072799 -3.192185 1.769022 -0.542976 1.434297 0.211637 1.224782 -1.000034 1.870016 0.789634 -3.742083 0.299924 -0.508691 0.058483 -1.146812 -0.206914 -0.007741 0.528467 -0.418048 -0.670663 1.459676 0.919117 1.218318 -0.972501 
1346 0.197373 -0.902199 -1.750960 -1.741320 1.171671 -4.631309 0.489790 1.529685 -0.507755 1.652757 0.381859 1.558104 0.586755 -1.803457 -0.495361 -0.424664 -2.005086 -2.641207 -0.067062 3.464869 0.117313 0.042277 -2.063075 1.485566 -0.564005 1.155372 1.090535 -0.286711 1.168166 -3.026212 -0.447003 1.331465 -1.216962 0.132628 -0.774698 -3.228773 -1.658714 1.963372 -0.466940 -0.593436 -0.421033 0.572311 -0.803505 2.750922 0.159570 2.321242 1.679429 -0.883257 2.368017 1.826804 
1642 -2.876984 0.039453 -2.185316 -2.078543 -2.252481 1.348260 -2.315102 0.565003 0.318265 -0.056524 0.223572 -0.271179 -3.699894 0.018174 2.833169 -4.177457 -1.653201 0.893613 0.803523 -0.563419 -1.535714 1.751946 1.852410 -1.474376 -0.071516 -0.563589 -2.168168 -1.223104 -1.217180 -1.071662 1.219501 2.224387 -0.772584 1.100691 -1.248453 0.575612 -0.289825 -2.719954 0.077629 -1.186715 -0.513570 3.061820 -0.362744 3.627844 0.840485 -3.247248 1.006502 -0.389244 2.244123 3.085233 
128 -1.972475 -0.407761 -0.912905 -0.645850 -2.854590 -1.096749 -0.800254 1.918252 -1.659774 -0.306728 0.548913 -1.376687 0.220684 1.161551 -1.775869 0.127876 -1.011930 -0.319778 -1.960521 0.189232 0.542762 1.785383 -2.669503 1.758395 1.148675 1.062329 3.167980 -1.361040 1.110138 -0.623560 2.144130 -0.618938 -0.386155 0.754854 -0.331215 1.383849 0.719690 -1.091833 2.061619 2.271309 -0.615953 -0.604283 -2.656841 1.943279 -1.743232 2.586448 -0.926288 1.447279 0.914921 1.752813 
1630 -2.316082 1.362099 0.594972 -2.901939 -1.284153 -1.611917 -0.429619 0.005884 0.902915 0.664578 -0.919385 2.208479 3.448169 -1.651319 -1.407860 1.612125 -0.380396 0.248188 -1.170714 0.343908 0.797388 1.049148 -1.767991 -0.623856 -1.611987 1.543306 0.759009 1.505085 -3.433766 -0.401706 -0.017187 0.347147 -0.908501 3.152384 -0.424143 0.153438 -0.694504 0.064806 3.178002 -0.658164 -0.961278 -2.327316 0.788685 -1.403348 2.098639 1.041080 1.509750 -2.187993 -0.780755 5.112966 
1993 -1.201240 1.963203 2.816164 3.453255 -0.658007 2.896864 -2.271297 -1.761461 1.323976 2.926373 3.356562 -2.169404 2.525061 -0.553670 -2.644516 0.908431 2.043190 1.306008 1.647098 -1.312916 -0.437059 0.220947 -0.531233 -2.658029 0.786868 0.512186 1.685562 0.434260 -0.378832 -0.395744 1.743168 -3.272133 -1.463411 2.086435 3.017390 1.281096 -2.644521 -0.373776 -2.279850 1.228872 2.140475 3.371004 0.912352 2.399121 0.571294 -0.214657 0.071249 -1.308279 -0.256766 0.264051 
944 -0.267235 -1.845367 -0.221566 -2.909425 1.528054 -1.856261 0.942378 0.109674 0.415589 2.065376 -0.376429 2.063501 0.874974 -3.603002 -0.676978 -2.020302 -0.364105 -2.606009 -0.095796 3.295585 0.910147 -0.091060 -2.089862 1.193978 -2.142277 1.699163 -1.247417 -0.376167 2.657897 -1.474034 -0.967194 2.446512 -0.950367 -0.209517 1.154431 -1.297242 -1.738895 -0.090294 -0.835423 -0.164555 0.996216 1.102507 1.298270 1.666188 -2.912772 1.900756 4.460025 -2.533164 1.958320 0.715364 
91 -1.426450 -0.166596 -1.019987 -2.526138 0.310493 -1.132993 0.890798 -1.158202 -2.009691 1.250039 -1.770729 1.384225 0.550681 0.259527 -1.124023 0.048770 1.327888 0.727262 0.550534 -0.836381 -0.960860 -1.803569 -5.492071 -0.214705 0.599821 3.282314 0.115529 1.945801 1.869339 -0.693368 -1.473119 1.395030 -1.783590 -0.757100 2.275987 -2.747599 -2.009019 0.021248 0.944327 -2.311498 0.494766 -3.151471 -1.058151 -0.622496 0.853728 -0.857232 -0.015285 -4.851346 1.025224 2.796328 
27 -0.219987 0.038881 -3.335744 1.434771 2.560819 0.344894 2.778686 2.700053 0.142039 -1.253403 0.766877 -2.188964 0.055363 1.964402 -0.972339 -0.865395 -2.671080 -0.287926 0.254350 0.849011 2.097553 -1.809858 0.906343 0.822290 1.215789 0.652379 3.929599 0.054396 2.051052 0.040685 -0.968544 -1.551267 -3.304445 2.132123 0.992838 2.662095 2.167314 1.331357 0.098389 -1.828144 1.141902 0.324043 1.309906 -1.873631 0.722776 0.391537 0.223315 -3.454135 1.722501 -0.241813 
1074 -0.435652 2.043751 -0.639270 0.965126 -1.571787 -0.224378 0.328192 0.335243 3.209064 0.579825 3.583802 -0.999621 0.916231 0.008925 0.281382 0.509672 -2.021686 2.397153 0.027740 4.240074 0.713011 1.502079 -1.471260 2.537926 -2.079477 3.794688 1.791710 -0.650961 1.068468 -0.045095 3.106948 0.947497 -0.852196 -0.990051 0.604097 1.247901 0.729152 -1.373055 2.101117 -0.290617 -0.909549 -1.483327 -0.608729 -0.677369 -0.834685 -0.633500 -2.309427 0.374255 4.711925 1.377460 
222 -0.590527 -1.251708 -0.699478 3.099688 -1.261510 -0.612376 -0.533892 -0.102123 -1.310750 1.484639 1.458259 1.939320 2.612981 0.271392 3.039856 -0.194273 -1.362226 1.659041 -3.454960 -1.975217 0.383366 1.688279 -1.839989 1.311978 1.836253 1.252202 2.526776 -1.800110 1.293826 1.171033 -3.248474 -0.216885 1.000220 -0.428463 -0.923766 0.631033 1.604907 -0.491730 3.458304 0.512956 -0.896036 -1.966889 -0.036047 -1.248702 0.012130 0.019969 -0.128614 2.906710 0.553472 1.772833 
879 1.044187 -2.708039 0.835815 3.122209 2.009863 -2.461090 -2.954435 0.013455 -1.151410 2.338829 0.414945 -0.457498 1.917690 -0.223526 -0.001390 -1.921777 0.530038 1.764651 1.391711 -0.676572 -1.070984 -0.063967 -1.156357 3.643996 1.796394 -1.825324 1.118943 2.715022 -1.721877 -0.562970 2.340063 1.248400 1.626774 3.467429 1.511335 0.249178 -0.538599 0.676417 -0.608474 -1.810731 -2.095642 -0.678585 0.457109 1.893266 3.705456 -4.516241 -0.634181 -1.766239 -0.156592 -2.416232 
888 3.522706 -1.168761 -0.944807 -0.113186 0.501159 5.272549 -0.520651 -0.948107 0.126468 -0.209332 1.257662 2.113580 1.391647 -0.740150 4.126069 0.386658 3.754069 -0.242720 1.584162 -1.162270 -1.833612 2.190144 1.638337 1.120899 0.603011 0.676768 1.125558 1.164405 -2.536231 3.429249 0.940182 -0.412282 -1.570121 -0.419539 -0.170977 -3.110103 -0.791633 -0.802821 -1.693110 1.013531 0.064505 -1.401301 -0.572101 -2.506959 -0.485970 0.389753 0.352447 -1.207355 1.854701 -1.819795 
2845 -0.272257 -1.104811 -2.777982 2.420671 -1.630381 -0.052824 -1.316649 -0.903691 -2.219141 0.866565 0.004879 0.090777 1.672694 1.163093 0.638479 -0.458236 -1.445353 0.526897 -4.050040 -1.103881 1.156595 -1.072084 -0.681014 1.956168 1.375400 1.555978 1.857206 -1.825515 1.242309 -1.593167 -1.916141 -0.439593 -0.183116 1.400036 0.034467 1.387676 2.188141 0.826206 1.715409 0.494736 0.236450 -0.575720 -1.011186 -0.088544 -0.412337 2.346925 -1.257633 1.983171 1.890857 1.837128 
1693 -1.941043 3.044687 1.996217 -1.551283 -2.496042 1.104278 0.001742 -0.980024 2.409263 0.965526 -0.639438 0.819140 -0.342829 2.018520 -2.504476 0.916000 -1.854028 -0.688526 2.717661 1.383739 -3.844011 1.619339 -2.854383 -0.295125 -0.336515 1.491140 0.946654 0.920781 -1.577177 -2.273179 0.433635 2.123600 0.923915 1.271880 -0.791144 1.475658 0.285015 -1.312957 -3.506654 4.439479 1.511888 -2.414227 1.135759 -0.644730 2.696000 -0.841986 4.265636 0.753228 0.691102 -3.512082 
252 -0.808271 0.955692 -2.280473 0.277769 -0.028978 -0.636196 -0.101593 1.235408 -0.094238 1.409725 0.733616 0.204984 2.158531 1.197425 3.450013 -0.483959 -0.996914 -0.406127 -3.262006 0.117673 1.745046 0.225046 -2.113545 1.915023 2.364694 1.453728 2.450380 -0.792014 1.527121 0.198468 -2.797005 0.583825 -0.212954 -0.399951 0.050483 0.676475 2.132345 -1.453053 2.415906 1.758540 0.257985 -1.435893 -0.457639 0.350267 2.129249 -0.936894 -1.592251 1.323457 -0.888630 0.547544 
1380 0.596982 0.142073 0.975624 2.791937 1.651878 -1.616061 -2.766347 2.714234 3.398603 3.227218 -0.842113 -0.831712 2.051331 2.849226 -1.062243 0.044123 0.277638 -1.902353 0.759088 0.192486 1.314039 -1.829232 -1.007473 0.622303 1.882834 0.182839 -2.575419 0.016907 3.456808 1.973514 2.283124 1.198039 -0.318117 0.007384 -1.676537 0.313995 -1.065878 0.231168 -0.647497 0.997683 2.576039 5.778226 -1.067729 -1.536400 0.477255 -0.093462 0.701128 2.055361 -0.297127 -1.503236 
734 -2.705245 -0.216369 -2.276808 0.711750 -0.244062 2.451988 -1.768276 1.031243 1.304039 0.028526 -0.141550 0.789019 0.580330 -1.496981 0.040246 0.891547 2.387481 2.837708 0.509244 2.134897 -0.783201 0.446686 -2.554289 0.530368 -4.307889 2.660126 0.731895 -2.781787 0.894576 0.566486 3.250886 0.646824 -0.178255 0.898180 0.503242 -1.753096 -1.807997 -2.363789 2.047049 -0.741388 -0.749775 -2.392008 -0.133272 -3.052044 -1.621545 -1.436744 0.830643 0.899231 3.159791 1.163439 
1590 -0.601085 -3.454268 1.615003 -1.229937 0.719632 0.720740 0.296016 3.415550 -0.100304 0.205213 1.096263 -1.803729 0.208817 -3.055670 1.758393 0.495791 1.276014 1.863987 1.261714 2.046995 0.525067 0.474307 -0.617269 -0.598025 0.068282 0.679743 -0.248522 5.253827 2.720932 -1.738225 0.660416 -2.930840 -1.345432 1.993356 1.249358 0.061329 3.015816 -1.326063 0.823398 1.538527 2.372740 1.294569 -0.272303 -1.086056 -5.806385 -1.528215 5.161429 -0.982177 2.882718 -1.915628 
120 -0.596597 -0.741353 -1.259264 1.801695 -1.477511 -0.550445 -1.149016 -0.442433 -2.642954 0.416317 0.302547 0.876334 0.851090 2.338200 0.123654 0.420164 -0.386548 -0.133277 -2.972745 -0.160973 1.324378 -0.415110 -1.128294 1.773181 0.356459 0.541159 1.882724 -3.158006 0.330442 -1.494857 -0.363413 0.165231 0.967482 1.610013 -0.562375 0.116699 2.487475 0.934500 2.672401 0.897561 -0.188564 -1.429555 -1.848407 0.591711 -1.120465 2.872098 -1.054828 2.383795 1.870836 1.819268 
1739 -1.475020 0.390672 -0.780695 2.396486 -2.140419 -0.456688 -0.791926 0.203812 -0.818014 -0.079241 1.628676 -1.341652 0.222780 1.946856 -1.045331 0.169344 -1.969089 0.166230 -1.653707 1.590075 0.932823 -0.299885 -2.507264 2.538042 -1.357265 2.568985 2.792068 -3.455283 1.166280 0.022685 2.016852 0.298288 0.139178 1.299212 -0.139252 0.033743 2.404451 -1.638625 1.399839 2.258747 -0.955291 -1.728604 -2.694046 0.655215 -2.503758 3.025259 -1.015246 2.241520 3.022957 1.027367 
2882 -0.282349 -1.019158 -2.140338 2.239853 -2.430969 -0.085419 -1.448119 -1.554865 -2.695563 -0.279749 -0.049732 1.707173 0.650946 1.703123 0.035465 0.820460 -1.056773 0.016406 -3.613907 -0.340511 0.624293 -0.164223 -0.839916 1.814777 0.598964 0.662293 1.588039 -2.687383 1.000675 -1.300536 -0.548424 -0.305203 0.418262 -0.231922 -0.891287 -0.346259 2.770487 1.147667 1.933818 0.967195 -0.174963 -0.262649 -0.731562 0.396685 -0.748948 3.073067 -0.256531 1.555746 2.623416 1.124581 
3467 -0.063369 -0.451736 -2.477489 3.078372 -1.907894 -0.847360 -1.947126 -0.641211 -2.315573 -0.415994 0.352778 -0.336485 0.267522 1.899016 0.208559 0.467045 -0.126427 -0.310167 -2.606293 -0.975404 0.822592 -1.012758 -1.044292 3.204556 1.517532 -1.043062 1.960230 -3.219087 0.435676 -1.566563 -1.796873 -0.267325 0.011209 0.338885 -0.636690 -0.035580 2.377487 0.783368 1.724490 -0.030933 -0.897053 -0.364399 -1.590322 -0.271401 -0.305279 3.489734 -0.551833 0.918633 2.307926 0.962308 
2829 -0.423138 -1.497820 -1.321260 2.611681 -2.874886 0.003786 -1.616675 -1.312092 -1.732425 1.173417 0.343862 1.131128 1.126588 1.946961 0.578152 -0.109434 -0.646560 0.301229 -3.254206 -0.876417 0.748657 -0.475513 -0.960103 1.376981 1.333232 0.096587 0.900566 -2.757333 1.487188 -1.250265 -2.783236 0.560350 0.869610 0.150620 -0.284145 0.626254 2.093866 0.710343 1.598030 0.725296 -0.372173 -0.684578 -0.696679 0.250462 0.030787 3.729888 -0.685492 1.964260 2.138445 1.272988 
2881 -0.431750 -0.642606 -1.011507 2.207048 -2.662523 -0.260478 -1.469582 -1.055074 -2.815874 0.620053 0.023343 1.062429 0.443154 2.016224 0.552131 0.474728 -1.100267 0.073418 -3.092673 -0.592028 1.259400 -0.072737 -1.371450 2.460135 -0.097804 1.483591 1.895169 -2.971745 1.191041 -1.079398 -0.654571 -0.670563 1.125720 0.519973 -0.143611 0.506634 2.211633 0.624598 2.258990 1.400281 0.177901 -1.721035 -0.789948 0.821343 -1.216154 2.872944 -0.575975 2.079890 1.552257 1.061442 
3392 -0.041913 0.069531 -2.711644 0.987195 -1.078934 -2.049973 -0.570948 0.248062 -3.153252 0.979900 0.854522 1.034406 0.522679 0.653204 -1.402889 0.569735 -1.510628 0.020374 -2.015688 -0.363048 1.354334 0.267799 -1.948875 3.306323 -0.215069 0.255376 1.909170 -2.497557 0.445659 -1.185814 -1.264353 -0.470063 0.265599 1.407661 -1.435573 -0.114395 1.414789 0.830282 2.510078 1.594316 -0.401219 -0.743756 -1.721445 1.145050 -2.335000 2.566130 -0.158757 1.884555 1.583138 1.929004 
2843 -0.571260 -1.867013 -1.538466 2.140285 -2.787890 -0.745887 -2.633736 0.167589 -2.644163 1.445038 -0.573587 0.449250 0.408633 2.027806 -0.323555 -0.556541 -0.396225 0.121926 -2.828760 -0.004543 0.446404 -0.496713 -0.476488 2.009474 0.320462 -0.288135 1.535398 -2.328809 0.983336 -0.600657 0.421790 -0.367693 0.084110 0.214884 -0.445963 0.034531 1.467810 0.119486 1.483704 2.602856 0.021699 0.681729 -0.748966 -0.639103 -0.844506 3.232634 -0.898173 2.507402 2.630066 2.105515 
121 -0.446761 -0.449857 -1.697928 2.098564 -2.616445 -1.384959 -0.875548 -0.476069 -2.906349 1.326758 0.926565 0.310385 0.827230 1.751600 0.242314 0.134791 0.059307 1.350830 -3.384405 -0.787726 -0.082744 -0.769365 -1.190860 2.349602 0.309305 -0.924154 1.297480 -2.530309 1.183430 -1.300657 -0.594664 0.505162 2.028942 1.018953 -0.640666 0.090367 2.514529 1.309890 2.779429 1.880946 -0.822730 -0.768355 -2.145193 0.577286 -0.563110 3.824002 -0.351169 1.371940 2.182439 0.605000 
3020 2.549484 1.503078 0.343072 2.024601 0.563064 -2.050319 0.814833 -1.958139 -0.124851 0.163644 0.188323 1.809860 0.104927 -1.071211 1.195983 1.011003 1.680271 2.503866 4.099601 0.537597 2.982578 -1.327849 2.929012 -1.536328 0.024952 0.314943 -1.828097 -0.682072 -1.850542 1.241272 -0.673152 -2.124320 1.949082 -0.232110 4.841815 -0.450329 -1.937052 -3.727607 -1.394761 3.154862 0.833991 0.706454 0.425476 -1.058040 -2.950660 1.397073 0.371758 -3.543306 -0.977225 3.028090 
298 -0.338476 -1.366563 -1.471627 -0.820780 0.527910 0.893573 0.587358 2.100279 -0.943496 -2.019713 -0.928127 -0.489105 4.427177 -0.351538 0.795403 -0.381976 -2.763687 0.696409 1.619833 2.991625 2.561647 -0.420750 -2.508601 0.053730 -1.038667 0.248168 2.129277 -1.914541 -3.147115 -1.034692 -0.947500 -0.764122 -1.609081 0.735519 0.633332 3.822937 0.688997 -0.818335 0.409549 -0.587692 2.147627 -0.468049 -0.052950 -0.194489 -0.815637 0.789347 -1.535534 -1.430514 -1.083992 0.682225 
194 -0.196807 0.534601 0.021018 -0.583105 -1.103114 -0.313522 0.425421 0.449462 -1.521371 0.275681 0.285651 -0.620895 0.653983 2.135105 -0.230184 0.511503 -0.555070 -1.575386 -2.410007 0.247019 1.533906 0.400824 -2.251510 2.707179 -0.276405 0.985960 2.892645 -1.926714 1.437482 1.404835 2.821833 0.142321 1.122794 0.589047 -0.227312 0.783570 2.149475 -1.426755 2.681694 1.264744 -0.203266 -0.622409 -3.979385 0.215311 -1.881903 2.339610 -1.269930 1.415706 0.953118 1.966509 
3745 2.871229 -1.602828 1.087207 2.399378 2.213136 -2.495109 -0.470536 -0.206459 -2.267306 2.814210 -0.443076 -0.693215 1.861237 1.778537 0.110649 0.294027 1.558087 0.736508 1.819913 -1.670549 0.544221 2.497411 -0.844774 2.853812 -0.318604 -0.449117 1.656534 2.831007 -2.463519 -1.375373 2.128320 -0.190417 2.935948 2.614651 1.241380 0.730653 -3.160398 -3.486521 -0.826277 -0.452518 -2.981892 -1.711393 1.200184 1.139268 1.492885 -1.431355 -1.064372 2.211742 -1.436159 1.031686 
1321 -0.136180 0.181263 -2.718228 -2.587919 0.972512 -3.096729 -0.122954 0.292470 -0.352464 1.639580 0.533965 2.480411 0.166418 -2.644619 -1.316012 0.020838 -2.970045 -1.440675 -1.102810 2.469176 -1.706743 -1.921370 -0.522327 1.327917 -1.055112 1.940938 1.596359 -0.921784 0.256523 -0.273373 -0.195224 2.237557 -0.976015 -0.728511 -0.396897 -0.280142 -2.894686 -0.307432 0.025040 -0.024267 -1.478270 -0.184876 -1.116483 0.826970 -2.403500 1.442805 1.906491 -0.898080 2.153272 1.987233 
245 -3.047550 1.423889 -0.991014 -1.986420 2.312443 0.272393 -2.175943 0.395909 0.858862 1.426560 0.204239 -1.752965 1.629427 -2.353068 0.251958 0.215730 -0.033438 1.598853 0.239789 -0.509013 0.791160 0.031574 1.147276 0.834655 1.361361 -0.707048 -0.160272 -3.261575 1.020014 -1.277034 0.988432 0.811599 -1.434237 -1.893280 1.392186 -0.732434 -0.757379 0.057581 -0.931898 3.665561 -2.449665 1.660098 -0.411327 3.220525 0.766210 1.196421 0.728001 -0.725607 0.665543 1.011657 
3522 -0.124640 -1.205961 -1.366546 2.797514 -1.642595 -0.198162 -1.377506 -0.652846 -2.698168 1.327330 0.386550 1.312943 0.494522 1.932109 0.471296 0.298323 -1.062011 -0.102207 -3.273074 -0.582311 0.466199 -1.073309 -0.198877 2.058114 0.634921 0.457366 1.329159 -3.044529 0.365837 -2.007019 -1.385603 -0.683566 1.365063 0.409365 -0.272541 0.805904 2.419285 1.382330 1.766806 0.592272 0.149603 -0.538824 -1.188623 0.560709 -1.436920 3.564129 -0.569598 2.086154 1.955042 1.317633 
2796 -0.297941 -1.019747 -1.448325 2.168253 -2.617944 -1.140868 -1.284883 -0.126151 -2.631413 -0.894345 0.564350 0.200007 0.374108 1.600886 0.751856 1.310316 -1.711138 -0.920285 -1.742329 -0.028645 1.988126 0.716807 -1.907487 2.488102 2.132039 0.329402 1.984642 -2.903852 0.309433 -1.757720 -0.857198 -0.362027 0.957131 -0.008716 -0.065604 0.119288 2.500783 0.322599 1.981445 1.775328 -0.593247 -1.069810 -1.317415 -0.600128 -0.577633 2.371580 -1.806553 2.186490 1.075838 0.651455 
1318 0.669430 -1.883065 -3.042185 -3.748287 -0.392235 -3.964430 0.097271 0.006146 -0.772952 2.130374 1.792437 1.723111 0.112939 -2.567857 -2.388541 0.580622 -1.980444 -1.438715 -0.383455 2.757588 -1.022629 -0.014491 -2.251288 0.854386 -0.918550 1.713410 0.776300 -2.331738 0.557720 -1.717657 -1.448221 0.920872 -0.615365 -1.331511 -1.625627 -2.012126 -1.806853 1.878101 -1.462858 -0.236523 0.009459 -0.620363 0.075857 0.916798 -0.900992 1.434172 2.474017 -0.697435 1.265076 1.910682 
2888 -0.423705 -1.764570 -1.704602 2.958697 -2.418183 -0.783554 -1.961009 -1.533013 -2.650298 1.027949 0.013821 1.177281 0.504474 1.593337 0.717122 0.911819 -0.580122 -0.541540 -2.652162 -1.023381 0.459520 0.439493 -0.953597 1.330826 0.616413 -0.259989 2.787082 -2.538673 0.171409 -0.808558 -1.244359 -0.475879 -0.595694 -0.280824 -1.789599 -1.376254 2.709668 1.018960 1.409375 1.611343 0.687067 -0.908763 -0.065775 0.412478 -0.789039 3.973452 -0.517701 2.671560 1.884994 0.974639 
311 -1.268790 -0.074000 -0.846447 -2.003687 1.754822 -1.582382 0.754858 -3.246485 2.479695 -0.068292 -2.381902 -0.825963 -0.025897 0.490800 -0.775660 -1.652699 -1.568003 1.369975 -2.684291 -0.360120 0.719199 -0.738762 -2.774560 1.468167 0.670070 0.044688 0.123917 -1.919862 -3.368771 0.351707 1.649437 -0.453241 0.018791 0.494798 3.184733 -2.319180 1.194306 -1.511861 0.745897 -0.762927 1.277877 0.804192 -0.858719 3.767116 -0.411529 -1.118694 1.888476 -1.372763 -1.229272 -0.391388 
1339 1.663964 2.138609 -0.599672 0.526350 0.071073 -0.671407 -0.577043 -2.108962 -0.383339 0.722364 -2.596416 -2.342897 3.224060 1.062822 3.642934 0.477362 2.126020 -0.972677 0.777386 2.881891 0.018946 2.479797 1.512478 -1.680235 -0.864313 1.125808 -0.721083 1.147341 0.029147 1.692554 0.623856 -0.134966 -1.219465 1.423518 -0.683962 0.553476 -0.966628 0.275365 -3.019350 2.753207 -2.461138 -3.072947 -0.161474 1.539010 -2.061783 -2.047040 0.050662 -1.561964 1.072678 0.520681 
1464 0.419631 -0.964919 -1.871549 0.830694 -2.734560 0.040279 -2.199694 -1.696835 -1.011415 1.778773 1.807780 0.053135 3.368736 -0.067970 2.731574 -1.356145 0.833162 1.114303 -1.199509 -2.182156 2.410315 -0.960467 0.978967 -1.781401 1.907851 0.356589 1.814626 -3.142140 4.494906 -0.558300 -3.344581 0.659319 0.717017 2.996343 -0.232068 0.299761 0.675920 1.113047 2.839026 -2.011360 0.250770 -0.891541 -0.729130 1.271651 0.523888 4.015847 -0.330234 0.260185 -0.386140 2.842360 
65 -0.369317 -3.589893 0.677858 -1.179780 1.714771 -3.486335 -1.010946 -0.054113 0.924397 0.173740 -2.790571 1.770128 0.723230 -1.451337 -0.358070 -1.706725 -1.107835 -1.913839 -0.692438 2.564167 0.747444 -1.097828 -4.285215 -2.024593 -1.003466 -0.517905 1.148717 2.440612 -0.812223 -2.435277 0.041843 2.757519 -1.355165 -0.184521 1.956318 -2.364712 -1.769784 2.341373 -1.901747 -3.278183 -1.954960 -3.478465 0.712296 -1.323011 0.191129 3.479582 2.124982 -0.355840 -0.106260 2.238886 
297 0.324464 1.471576 -0.558409 -0.502613 -0.167490 -0.855134 -0.218596 -0.453359 -0.542839 -1.719165 -1.313600 0.313317 0.290124 -0.426158 2.290138 -1.802820 -1.124340 3.418653 -2.292785 1.513546 -1.308989 0.514000 -1.311540 1.314267 0.272186 1.452172 2.436732 1.890645 1.480724 -3.197849 2.427865 2.169012 -1.513535 0.815084 1.228293 2.439908 -3.697369 1.394249 0.837368 1.855017 -0.178628 0.755769 0.167584 -0.836158 -0.957161 0.419307 -1.274776 -1.852191 1.661139 2.595451 
589 -0.040928 0.498172 -1.425850 1.397778 -1.582385 0.347903 0.947144 -0.002192 -1.773128 1.433342 2.094671 -0.341980 1.624622 0.585495 1.811472 -1.394317 -1.125377 2.148628 -2.470858 0.497056 1.538922 1.541031 -1.464254 3.157537 -0.211929 0.491002 2.026842 -1.417956 1.372765 1.610107 -2.253839 -0.138653 0.895412 1.273842 1.166587 1.980415 1.552925 -1.441866 2.547718 1.345431 -0.130740 -2.306728 -1.020007 0.604851 0.598738 -0.117485 -1.794039 2.655270 0.492868 2.067874 
233 -0.820762 0.338528 -0.254816 0.371099 -2.618872 -0.060517 -0.470549 1.130985 -1.462513 -0.523401 0.524645 -1.500940 0.110140 1.898536 -0.201169 -0.665905 -1.147723 -1.243868 -2.860875 -0.306256 0.826158 1.115568 -1.628968 3.639637 -0.381774 0.835173 2.994678 -2.785218 0.482225 -0.827863 0.830922 0.082553 0.935613 0.039210 -0.617236 0.469886 1.555406 -0.309038 3.413051 1.831134 -1.008476 -0.821772 -3.250216 -0.374382 -1.817235 3.269394 -0.329169 0.961991 1.728368 1.784984 
1574 -5.858572 0.244525 1.416182 -1.992834 3.452291 1.004847 -0.073597 -1.631540 -1.042947 1.526986 -0.941743 0.285165 -1.783135 0.143076 0.496847 -1.243631 0.456601 1.439112 -0.190687 -0.672077 2.149573 -3.147923 1.282181 1.795529 -1.013424 0.130445 -1.534539 0.407305 0.198546 0.404284 3.588031 -1.360785 -0.113345 0.994226 -0.791924 0.864033 -1.981536 -1.812488 -2.151150 -0.070588 3.087390 -5.109396 1.778952 1.224027 2.114317 0.750749 -2.453473 -0.981453 1.449507 -2.661022 
1328 -0.205607 3.531939 -1.403086 -0.993593 -2.098606 0.997326 -1.664581 -1.488078 -0.910982 -0.960741 -2.685895 0.584080 2.451331 -2.633712 -2.893022 -1.099559 -1.044716 0.113251 -1.080708 1.284158 -0.086875 0.146415 -1.566405 0.716217 2.824384 0.450846 -1.335168 -1.357899 0.184438 2.126243 1.977233 2.340184 -1.647642 -2.030453 0.441640 1.849878 -1.341815 1.572770 0.146979 1.192986 -0.232296 -0.314584 0.825477 1.166329 1.638152 -0.231423 -0.324287 -0.126924 2.360976 0.299058 
2827 0.146214 -1.147405 -1.633838 1.964985 -1.188416 -0.285186 -1.955241 -1.775441 -2.106344 1.119883 0.169301 1.234656 1.266001 2.266564 0.450181 -0.292599 -1.140633 0.263831 -3.737584 -0.626893 0.019143 -0.514755 -0.349491 1.500338 0.495482 -0.510434 1.205596 -3.023510 0.833238 -0.563022 -2.745851 -0.324641 0.975542 -0.007634 0.038815 0.712743 2.942553 1.501212 1.639997 0.661065 0.296579 -0.605401 -0.185318 -0.427698 -0.495600 3.426228 -1.587436 0.860556 2.385191 0.957157 
1976 -2.218553 -2.868799 -1.325210 0.115146 0.215722 -1.020172 -0.964885 -1.177800 1.722500 2.361499 -0.348311 -1.425398 -4.145272 0.278102 -2.006480 2.159578 0.643848 1.777797 1.490820 -3.879419 -1.491596 -2.461069 1.017010 -1.747301 -0.960618 0.334344 -0.772537 0.485903 0.772515 -2.592397 2.897360 1.001705 -3.816418 2.955975 2.377048 1.482150 -0.837929 -1.484211 0.768893 2.603412 2.577194 -2.621331 -0.670562 -0.731771 -0.473263 -1.822793 -1.436478 0.870475 0.113319 -0.813830 
598 -0.088960 0.902204 -0.783111 0.209196 2.211696 -1.270910 -1.411290 -0.004945 -1.500976 3.092688 -1.909196 -0.274468 1.183385 -1.016370 -1.834973 -0.481678 0.456823 4.053913 0.048388 -1.065565 -2.006686 0.591668 -2.000870 1.658111 0.537198 1.275398 1.092496 -3.837307 -0.478602 1.412410 0.738719 1.036803 1.125803 -2.452654 0.122782 0.725356 0.746701 2.222687 -0.482600 0.259223 1.364446 -2.427155 -0.532524 0.876191 -1.243959 -2.410684 1.870892 1.031548 0.979406 2.628085 
26 -0.484974 0.502898 -3.221061 0.782053 1.433796 2.216626 -0.063836 3.836709 0.560463 -2.016748 -0.859543 -1.647627 -1.375879 1.129245 -1.163684 -0.824749 -2.775346 -2.084668 1.335768 0.206301 2.305650 -0.891801 0.837130 0.650992 0.728527 -0.836119 3.055011 0.294073 0.707241 -0.660099 -1.365310 -0.756175 -2.924841 1.138458 0.287025 2.880138 1.788965 0.056517 -1.541689 -0.537106 0.374121 1.137037 1.809273 -2.118173 1.955158 -0.369148 2.892746 -5.127306 0.476924 1.774427 
4624 -0.499205 -0.510053 1.145051 4.205089 0.961511 -0.994346 -2.782588 1.945283 2.062394 2.843067 0.259381 -1.959948 2.549951 0.208883 -1.911967 -1.767895 1.849417 -1.036249 1.571364 -1.620308 1.115787 -1.460710 0.275916 0.121113 1.039066 -0.781179 -3.010185 0.497545 1.879148 1.364688 0.779312 -3.163514 -0.488957 0.099662 -1.649586 -0.027652 -1.075387 2.059827 -0.124130 2.002195 1.109123 4.204792 1.462926 -1.598060 1.506023 1.844265 -1.723200 -0.528298 -1.181260 -2.381581 
1517 3.209622 4.629754 -2.716922 0.670992 -0.102206 -2.219997 -0.194457 -0.816729 -1.125195 -1.127127 -1.770493 -2.721883 1.949289 -0.015842 0.321977 0.639720 1.831976 2.981100 -0.237070 0.513029 0.467357 -0.409153 0.222243 0.688473 2.890362 -1.156192 -0.228555 -0.713337 1.055269 1.099706 1.665962 -0.026105 2.007384 1.440464 -1.966116 3.816914 0.215414 0.813546 -1.703040 1.269158 -0.575257 -1.331711 -2.124977 1.064770 -2.241045 -0.497795 1.178500 -1.543342 -0.517622 0.074533 
1280 0.795597 0.916340 0.098744 0.778591 1.757230 3.357162 2.622487 -1.061349 3.840452 -0.189386 -0.780418 1.344605 -1.675086 0.250992 1.969283 -0.432964 2.989012 0.440847 3.643846 0.580782 -2.975393 1.612961 2.093946 2.968297 4.453533 0.294933 2.616587 1.398078 -0.623606 1.019801 -0.953831 -0.064806 -0.481047 -0.597426 0.280397 -2.562758 2.148937 -1.586890 -3.025115 1.514755 -0.079261 -2.313587 -2.086135 -2.000543 -0.828267 2.347393 2.246688 -0.961028 1.378655 -2.507062 
335 -0.070460 -0.812167 -2.997997 -1.048111 0.791336 0.154319 1.359496 3.453933 -0.807230 -1.118735 -0.252782 -1.514804 2.236974 0.480537 0.465654 -0.040134 -2.803737 -0.461636 -0.546642 4.098825 1.864961 -1.627898 0.471356 0.547570 -1.713677 -0.580826 2.493903 0.002030 -1.857131 -1.257458 -1.550840 -0.963908 -4.111809 1.137662 -0.228373 3.441718 1.984605 0.421302 0.565156 -1.148486 1.818394 -0.396599 2.871721 -2.894376 -0.756268 0.805895 1.184744 -2.607026 1.571098 -0.338157 
673 -1.929940 1.247869 0.333613 -2.128243 0.915383 -0.935028 0.297000 -1.516080 1.795948 0.568770 -0.960337 -1.119069 2.416142 0.296808 -0.060025 -0.227672 0.869653 -4.110850 -3.393807 1.743724 0.914426 -1.637977 -2.997630 -0.663916 -0.048898 -0.212272 1.845814 -0.259832 -2.448528 0.510442 1.240158 0.609949 -2.811767 1.350523 0.506227 -1.078982 -0.844413 1.531452 2.421499 0.086549 2.793035 -1.610426 0.486284 1.865134 2.346442 0.742297 0.679762 -3.057185 -1.635887 1.420859 
67 0.384292 -1.921036 0.001496 -1.743748 -0.004188 -0.255493 -1.074094 -0.241755 0.653299 0.767632 -3.837723 -1.521757 1.919167 1.019506 -0.898943 -2.213852 -1.750848 -0.958168 1.138707 0.392579 -0.183896 -0.528866 -3.340038 -0.233097 0.595327 -1.440600 1.254741 -4.513504 -2.510971 -3.065804 0.674029 3.422218 -0.568086 -4.253239 -0.580385 -1.380489 -3.172581 -0.788358 -0.907739 -2.192388 0.601859 -0.036695 -0.431695 -0.916691 -0.018367 1.394315 1.726417 0.844677 1.034791 -0.017407 
1532 -0.887019 -1.036267 -1.624457 0.084611 -0.536018 1.434676 -3.352078 2.127345 -0.865184 2.510681 1.317840 -0.025757 4.348037 0.856464 -0.738065 1.622359 2.634928 -1.489918 3.919735 -0.765529 0.602113 1.099843 3.311420 0.737236 3.046228 0.688546 -0.306980 -1.088006 -0.818033 3.361069 2.433433 -1.551482 0.175267 -1.976635 0.391227 2.261149 -1.450057 -1.962223 -0.142254 1.109433 -0.103439 2.140110 2.211321 0.075177 0.947648 2.044095 -0.840501 -1.686350 -0.468283 0.406487 
2505 2.269131 -1.247828 1.772282 0.203866 3.930611 -1.508116 -1.669665 1.837610 -0.016167 2.451593 2.216645 1.805796 1.176972 2.210146 2.950997 -1.131815 -2.092252 1.571594 0.724145 -0.303287 -1.358021 -1.928448 1.001993 2.367490 -2.115868 0.934898 -1.045398 2.355459 -0.686843 1.702430 1.002674 1.233925 0.870319 3.175371 -0.906397 -2.246086 -3.812906 -0.204226 -1.652267 2.171394 -1.985558 0.712711 -0.040131 1.376634 0.849406 -0.721041 0.150937 -2.046801 -1.623042 -3.053955 
2880 -0.146778 -1.078873 -1.125554 2.521451 -2.087046 -0.338772 -1.258929 -2.037067 -2.949805 0.739719 0.082133 0.745140 0.309891 1.433792 0.435864 0.521168 -0.656029 -0.593732 -2.889561 -0.506364 0.438282 -0.439187 -0.577490 1.380674 0.419747 0.360531 1.938982 -3.062871 0.425683 -1.930080 -0.878541 -0.476949 0.654665 0.236605 -1.115754 -0.474500 2.676298 0.253643 1.174008 1.682617 0.314895 -1.471338 -0.948421 0.761447 -1.173075 4.200090 -1.137433 2.943678 2.213996 0.780158 
890 -0.590747 0.741918 -0.500383 1.883270 -1.650673 3.155973 -0.482788 -2.139237 1.923030 1.277003 2.309966 0.543149 1.488190 -1.711490 0.354504 -1.034721 -1.061126 2.015611 2.674625 0.599216 1.627401 0.621118 0.254855 0.857028 -1.990035 1.434517 -0.480387 0.331216 0.800607 -0.987946 2.812671 1.570842 -2.486170 -4.787101 -0.329760 -0.394036 0.156596 -2.091081 2.408964 -0.894065 2.021751 -0.670638 -0.237851 -0.562767 -1.148859 -1.864793 -0.980084 -2.154121 4.743320 0.254226 
284 -1.358950 -1.257422 -3.888015 2.385349 1.990493 2.420592 -0.458575 -0.004177 -1.719980 -1.495008 -2.414052 -2.942409 0.829242 1.863812 -3.075620 0.578086 -5.388398 -0.351482 -0.240824 -0.987163 -0.255477 -2.330161 3.633285 0.688801 1.782943 -0.478153 0.893909 1.087926 1.174635 0.742803 -0.900533 1.209351 -3.443240 -0.434435 -0.472518 3.754656 1.444646 2.404482 -0.424525 -0.403438 0.315040 0.665596 -0.058269 -0.788269 0.309908 -3.529358 2.568425 -4.245037 -0.697630 0.220505 
2797 -0.448079 -0.321616 -0.698362 2.064560 -1.572454 -0.766630 -1.335652 -0.570993 -3.154324 0.124993 0.047745 0.456164 0.338512 1.766533 0.549837 0.297076 -0.880260 -0.602114 -3.375476 -0.317990 1.473952 0.228784 -1.456882 2.478980 -0.129578 -0.148593 1.025469 -2.311015 0.869111 -0.897528 -1.013689 -0.630417 1.023453 1.049747 -0.323789 0.383725 1.931380 0.143312 2.206661 2.129239 0.799555 -1.642266 -2.606939 1.061348 -1.200268 2.582379 -1.426893 2.649800 1.301893 1.645198 
394 -5.061786 0.422006 0.819482 -1.375157 -4.166489 -0.445149 -1.851035 -1.856317 -3.782843 -0.814650 -1.124429 2.376960 -1.320635 -0.212306 -0.972199 -2.105588 0.126050 1.453753 -0.039508 0.346596 2.000504 -2.803694 2.714920 -2.333302 1.412724 0.430021 2.904975 0.976493 0.450639 1.273524 -0.030198 0.428199 1.732032 -1.570062 -0.082712 0.519151 -0.936764 0.139713 1.698788 -0.034790 -0.451083 0.064033 0.588886 -0.374573 -1.650972 -1.976375 -0.903347 -2.534400 0.692065 -3.214651 
1831 -0.415551 1.168591 -1.225550 -0.728368 3.504855 -1.810879 -0.870211 -0.485718 -0.740727 1.733639 -1.796201 2.535769 0.189234 -2.054127 -1.155741 0.644992 0.714213 0.724964 0.885761 -1.771266 -2.044168 0.376807 0.241132 0.595696 -1.252549 -0.682321 1.619269 -2.666162 0.414844 0.450921 -0.240299 0.278579 1.046568 -0.945200 1.381807 1.101390 0.230906 5.856181 1.384936 0.713702 4.260658 -2.759035 -1.896507 -2.287623 -0.062401 -3.410468 2.857397 0.710391 -0.365280 1.289145 
290 0.121284 -0.825690 -2.197883 1.910857 -2.010819 -0.214333 -0.873568 -0.918976 -3.069350 0.353746 0.384138 0.785275 0.595418 1.742027 1.555205 0.175898 -1.185502 0.015112 -3.725440 -0.566289 0.958228 -0.901819 -1.468278 1.503322 1.154103 0.389575 1.207392 -2.302847 1.356347 -1.188387 -3.478742 -0.645336 0.728768 0.774441 -0.954785 1.050135 2.052937 0.183595 1.682890 0.941819 0.732010 -1.978107 -0.046273 0.405313 0.318326 2.409064 -0.993392 1.860136 1.400095 1.438535 
726 0.049742 2.009439 -1.000501 -1.811636 -1.050135 -0.523884 -0.802375 -3.497049 -0.538483 -0.885250 -1.731240 0.636217 1.491435 0.900936 -1.210245 0.915265 1.579641 -2.461190 -0.804601 2.424635 0.736322 -0.524536 -2.279439 -1.273871 -1.795665 -2.021217 0.391657 3.842095 -2.327601 -0.412678 1.599063 0.220089 -2.253965 0.816552 1.202298 -1.595220 -0.246570 0.580931 1.855615 0.137433 -0.028131 -5.297214 0.583737 2.617774 3.953303 -1.718785 2.200701 -1.177784 1.814190 2.274035 
2863 0.651159 -0.679452 -1.867528 2.440626 -2.202899 -0.712559 -1.303780 -0.726881 -1.936834 0.838789 0.899178 1.611917 1.829710 0.577371 0.856208 1.347541 -0.907975 2.056360 -2.916995 -1.581615 0.893360 -0.773431 0.375401 2.463042 -1.490577 1.596721 1.333695 -1.725701 2.087919 -0.571955 -3.133394 -0.250751 0.698109 0.491212 -1.037667 1.131457 0.863990 -0.111155 3.067692 0.819193 0.643248 -1.997886 -0.746589 -0.445047 0.398991 2.563900 -0.507949 1.456656 1.756176 1.750906 
255 0.125014 -0.729505 -0.876825 1.109996 -1.681608 -1.309683 -0.013739 0.199969 -2.897059 0.686579 0.335609 -0.183770 0.494106 2.546719 0.921721 0.665275 -1.138196 -0.873160 -2.652410 0.641447 1.890538 0.137795 -1.826881 3.390947 -0.019376 0.097952 3.429790 -2.861367 1.411279 -0.286086 0.636609 0.002149 0.695564 0.532760 -0.257281 0.264197 1.635611 -1.568619 2.303594 1.938065 -0.436813 -1.495831 -2.025405 1.105685 -0.556153 1.357084 -0.106077 1.558079 0.412454 2.071265 
747 -0.145778 -0.151627 -1.782836 1.506895 -1.864289 0.368598 -1.242154 0.391400 -0.753086 2.358917 2.528932 1.175579 2.346349 -0.529648 2.264734 -1.585296 -1.827693 0.942871 -3.305380 -2.389019 0.150509 0.339121 -1.486601 -0.572477 1.112246 1.459172 1.153281 -0.855888 2.377666 1.145914 -3.601092 0.780669 -0.170438 0.767475 0.022014 1.502257 1.944645 -0.220382 3.992187 0.430497 -0.675954 -2.313737 -0.235141 0.274575 1.839873 0.036698 -2.356686 1.450870 1.588747 1.931453 
3623 -1.047119 -0.664236 -1.617984 2.263318 -2.037794 -1.030039 -1.303304 -1.593920 -2.538303 1.166395 0.315699 0.519483 0.121872 2.273400 0.354288 0.164369 -0.105163 -0.243332 -2.503923 -0.347348 -0.196535 -0.718044 -0.868238 2.122576 0.580916 0.147363 0.672794 -2.883294 1.699119 -1.496999 -1.571325 -0.200621 1.694821 0.587705 -1.111046 -0.027794 2.331080 0.760971 2.026841 1.596392 -0.402551 -0.731274 -1.520810 0.847507 -0.941565 3.520205 -0.705668 1.789939 1.494823 1.123317 
3455 -0.451827 -1.277352 -0.897763 2.641700 -2.215269 -0.948339 -1.906240 -0.811550 -3.163360 0.948537 0.383909 0.673148 0.079205 2.000149 0.124361 0.769863 -0.484373 -0.484122 -2.601056 -0.483534 0.438415 -1.554430 -0.798385 2.206515 0.607443 0.193126 0.766715 -2.501683 0.819363 -1.723552 -1.143627 0.055671 0.655355 0.872710 -0.245840 0.835878 2.392405 1.410076 1.157355 0.511509 -0.293462 0.289624 -1.083978 0.313520 -0.444848 3.168417 -0.574287 2.516664 2.779191 0.948921 
1055 -0.084234 -1.504076 -2.009150 2.777096 -1.162353 -1.976388 -1.300766 -0.368311 -2.137439 2.141542 0.657659 1.635676 0.417228 0.956479 -0.610542 0.849405 -2.031225 -1.348645 -2.087190 -0.478607 0.412480 0.176496 -1.158318 3.226265 0.233503 0.554009 1.182502 -2.297321 0.827796 -1.424194 -0.898135 0.524712 1.285897 1.022849 -1.927399 -0.764333 1.510435 0.598632 0.008542 -0.406218 -0.058167 1.375239 -1.109325 2.044820 -0.227999 3.495932 0.425891 1.441813 2.246902 1.286053 
294 1.229206 -3.397278 0.793454 -2.965292 -1.308824 0.676452 0.441067 1.155458 -1.679293 -0.309103 -2.732612 1.292688 -1.537514 -0.059813 1.140778 -0.222458 0.447491 0.001760 -2.998004 -0.523326 3.238263 -1.449479 0.227260 -0.647996 0.115274 -0.269798 -0.101585 -0.102014 0.806679 -1.195782 2.159329 -0.020563 0.162045 0.380645 3.548425 0.395401 -3.454801 1.142048 -2.362263 3.552277 -0.099778 0.851419 -0.403509 1.185955 1.602511 0.613849 1.411542 0.492539 2.503970 0.110822 
2806 -0.604329 0.097708 -1.412913 -2.388060 -1.588722 1.671204 -2.027303 -1.733697 -1.362558 1.809082 -0.034331 0.190381 0.196624 2.080173 -0.889753 -0.256612 2.035680 0.381088 -0.163893 -3.344697 -0.169772 -1.672863 -1.594069 2.607474 -0.337776 2.461863 0.497394 -2.503111 1.284473 -0.195389 0.382481 1.696571 -1.245564 -3.334977 0.125795 0.022624 -2.330572 0.952487 2.235565 -0.444822 1.303565 -1.666266 -2.085644 0.411813 -1.390569 -0.664257 -0.327011 -1.760623 2.901292 -0.758608 
2844 0.071135 -1.017630 -1.985592 2.475090 -1.838547 -0.754470 -1.343979 -1.754425 -2.031180 0.981667 0.694797 1.020586 0.858544 1.004439 0.671236 0.048325 -0.570993 0.491130 -3.157290 -1.411481 0.145057 -0.769064 -1.212050 2.274764 0.999118 0.206012 1.034523 -2.934744 1.115163 -2.069170 -2.297896 0.071180 1.293041 0.897431 -0.189555 0.763126 2.124680 1.095787 2.519612 0.652628 0.134328 -0.213387 -1.148191 -0.257877 -0.358016 2.186980 0.130377 1.813664 1.770550 2.073909 
1099 -0.481317 2.446164 0.361879 -0.808533 -1.861556 1.225345 0.628347 -0.183804 0.538325 3.952206 -1.266597 -0.268120 2.080890 0.474795 1.725325 1.491923 -0.001630 -3.842799 -3.322436 0.227144 -0.288356 -0.479367 -1.439689 -0.670732 -2.776320 1.616746 2.654033 2.467107 -0.128341 -1.210050 -0.774621 1.303983 -1.923349 1.824005 0.576099 -0.370096 1.051767 1.426333 0.971032 1.553915 -0.676295 -2.891995 -0.045938 -1.151057 2.565897 0.244262 0.413582 -2.314585 0.090153 -0.353248 
398 -2.270943 -0.048093 1.281335 -3.125616 -2.156443 0.621723 -1.233056 -2.508397 -3.314786 -2.931772 -0.664683 2.182414 -1.973769 2.159339 -0.981933 -1.863427 1.011732 1.060130 -0.122085 1.242524 1.196572 -1.378983 1.803525 0.095048 1.487943 3.064385 2.071049 -0.040323 0.492523 -0.593535 -0.860417 0.494011 1.183426 -1.763426 0.726861 0.340546 -5.673584 0.660087 0.115113 -0.446391 1.703417 -1.328016 1.425315 -0.018687 -0.239185 -0.725599 -2.333948 -1.450212 0.468946 -1.319587 
896 -0.000753 0.987638 -3.892389 1.984919 -0.797223 0.971529 -1.509510 1.791907 0.644824 -3.444042 -1.841727 -0.167392 -0.258799 -0.050209 -2.960584 1.002836 -2.951524 -0.404962 2.702799 0.885099 3.876378 -0.888434 0.969043 -0.300205 1.120681 -2.646527 4.481360 0.790124 -2.002725 -0.642731 -0.281528 -0.444215 -3.900156 0.585146 0.420093 1.712125 1.423112 3.551069 0.570839 0.140167 1.585037 0.496960 -1.922167 -0.808285 0.012884 -2.151228 0.435188 -1.532453 -1.779849 -0.900407 
